~o
<STREAMINFO> 1 39
<VECSIZE> 39<NULLD><USER><DIAGC>
~h "a"
<BEGINHMM>
<NUMSTATES> 7
<STATE> 2
<NUMMIXES> 2
<MIXTURE> 1 5.000000e-01
<MEAN> 39
 -3.382556e-01 5.364817e-01 9.440611e-02 5.240990e-01 7.451142e-01 1.966025e-01 5.545584e-01 -5.297971e-02 -4.932527e-01 3.233174e-01 -1.414779e-01 5.139043e-01 7.948622e-03 7.015782e-01 2.057353e-01 3.449582e-01 3.891155e-01 2.139385e-01 7.134575e-02 1.645794e-01 2.720857e-01 1.867318e-01 1.503308e-01 8.019222e-02 1.742422e-01 1.040723e+00 8.556719e-01 1.269142e-01 2.854908e-01 1.206588e-01 1.302637e-02 4.534194e-02 1.404334e-01 4.025344e-01 3.772655e-01 3.171605e-01 1.767335e-01 1.512733e-01 6.628215e-01
<VARIANCE> 39
 8.236614e-01 9.435347e-01 1.043213e+00 8.641507e-01 7.429690e-01 8.667663e-01 9.304300e-01 9.255458e-01 7.822086e-01 8.428436e-01 8.769229e-01 1.138831e+00 1.064210e+00 1.649298e+00 1.115724e+00 1.245248e+00 1.296893e+00 1.035481e+00 1.246038e+00 1.171919e+00 1.252070e+00 1.104514e+00 1.175624e+00 1.133005e+00 1.227567e+00 2.030790e+00 1.749773e+00 1.333080e+00 1.415720e+00 1.234275e+00 1.205417e+00 1.333030e+00 1.310879e+00 1.412095e+00 1.246257e+00 1.269569e+00 1.168561e+00 1.319229e+00 1.891212e+00
<GCONST> 7.742712e+01
<MIXTURE> 2 5.000000e-01
<MEAN> 39
 -7.012788e-01 1.479389e-01 -3.141451e-01 1.522602e-01 4.003316e-01 -1.757987e-01 1.687232e-01 -4.378009e-01 -8.470230e-01 -4.390863e-02 -5.160545e-01 8.704023e-02 -4.046936e-01 1.878782e-01 -2.167761e-01 -1.014046e-01 -6.640933e-02 -1.930958e-01 -3.751585e-01 -2.684414e-01 -1.754980e-01 -2.336516e-01 -2.833740e-01 -3.455786e-01 -2.689404e-01 4.706997e-01 3.265559e-01 -3.349222e-01 -1.904454e-01 -3.237330e-01 -4.261396e-01 -4.164857e-01 -3.175411e-01 -7.279201e-02 -6.927806e-02 -1.335401e-01 -2.556665e-01 -3.081574e-01 1.127361e-01
<VARIANCE> 39
 8.236614e-01 9.435347e-01 1.043213e+00 8.641507e-01 7.429690e-01 8.667663e-01 9.304300e-01 9.255458e-01 7.822086e-01 8.428436e-01 8.769229e-01 1.138831e+00 1.064210e+00 1.649298e+00 1.115724e+00 1.245248e+00 1.296893e+00 1.035481e+00 1.246038e+00 1.171919e+00 1.252070e+00 1.104514e+00 1.175624e+00 1.133005e+00 1.227567e+00 2.030790e+00 1.749773e+00 1.333080e+00 1.415720e+00 1.234275e+00 1.205417e+00 1.333030e+00 1.310879e+00 1.412095e+00 1.246257e+00 1.269569e+00 1.168561e+00 1.319229e+00 1.891212e+00
<GCONST> 7.742712e+01
<STATE> 3
<NUMMIXES> 2
<MIXTURE> 1 5.000000e-01
<MEAN> 39
 5.602038e-01 2.526836e-01 5.072445e-01 8.665872e-01 4.732208e-01 -3.077031e-01 1.278099e-01 7.500406e-02 -4.655169e-01 2.281217e-01 -4.511817e-01 2.637999e-01 8.681704e-01 1.897121e+00 -7.967798e-01 1.197816e-01 -3.611962e-01 -7.458022e-01 -5.618935e-01 -1.921195e-01 9.372961e-01 9.988209e-01 8.534133e-01 3.447542e-01 1.051908e-01 2.055758e+00 -3.891773e-01 -5.099885e-01 -5.370505e-01 -5.166836e-01 -1.573276e-01 3.452581e-01 4.197767e-01 5.609084e-01 6.028863e-01 6.522470e-01 3.804470e-01 1.747241e-01 1.727308e-01
<VARIANCE> 39
 3.714269e-01 5.834621e-01 1.131077e+00 6.076632e-01 7.787323e-01 9.826056e-01 9.503233e-01 1.013982e+00 8.392869e-01 8.785228e-01 8.235571e-01 1.135616e+00 4.482604e-01 1.833233e+00 1.330392e+00 2.228021e+00 1.636519e+00 1.473955e+00 1.627308e+00 1.794157e+00 1.772068e+00 1.695849e+00 1.826321e+00 1.418107e+00 1.732329e+00 1.733523e+00 2.066454e+00 1.374053e+00 1.524079e+00 1.189095e+00 1.288228e+00 1.409097e+00 1.324653e+00 1.564567e+00 1.235599e+00 1.218353e+00 1.095824e+00 1.235283e+00 1.904287e+00
<GCONST> 7.940967e+01
<MIXTURE> 2 5.000000e-01
<MEAN> 39
 3.164246e-01 -5.285522e-02 8.183607e-02 5.547761e-01 1.202376e-01 -7.042089e-01 -2.621283e-01 -3.277826e-01 -8.319673e-01 -1.467965e-01 -8.141819e-01 -1.624612e-01 6.003614e-01 1.355533e+00 -1.258150e+00 -4.772806e-01 -8.729022e-01 -1.231428e+00 -1.072157e+00 -7.279041e-01 4.048199e-01 4.779218e-01 3.128476e-01 -1.315830e-01 -4.212812e-01 1.529104e+00 -9.641839e-01 -9.788685e-01 -1.030865e+00 -9.528661e-01 -6.113281e-01 -1.295635e-01 -4.059754e-02 6.057778e-02 1.582563e-01 2.107308e-01 -3.827943e-02 -2.698491e-01 -3.792528e-01
<VARIANCE> 39
 3.714269e-01 5.834621e-01 1.131077e+00 6.076632e-01 7.787323e-01 9.826056e-01 9.503233e-01 1.013982e+00 8.392869e-01 8.785228e-01 8.235571e-01 1.135616e+00 4.482604e-01 1.833233e+00 1.330392e+00 2.228021e+00 1.636519e+00 1.473955e+00 1.627308e+00 1.794157e+00 1.772068e+00 1.695849e+00 1.826321e+00 1.418107e+00 1.732329e+00 1.733523e+00 2.066454e+00 1.374053e+00 1.524079e+00 1.189095e+00 1.288228e+00 1.409097e+00 1.324653e+00 1.564567e+00 1.235599e+00 1.218353e+00 1.095824e+00 1.235283e+00 1.904287e+00
<GCONST> 7.940967e+01
<STATE> 4
<NUMMIXES> 2
<MIXTURE> 1 5.000000e-01
<MEAN> 39
 9.761094e-01 -5.184994e-01 -2.653873e-02 1.908998e-01 -5.713494e-02 -5.109875e-01 1.652679e-02 5.373476e-01 2.024717e-01 9.691318e-01 -2.099114e-01 -4.905742e-02 1.335928e+00 4.977511e-01 -1.056838e+00 -6.553969e-01 -8.188838e-01 -4.538880e-01 -8.886743e-02 4.409984e-01 1.117708e+00 1.064842e+00 9.021115e-01 6.043805e-02 -1.522055e-01 1.466575e+00 -9.855806e-01 6.424555e-01 3.862333e-01 5.633335e-01 8.816177e-01 6.929231e-01 6.100409e-01 4.808845e-02 -2.420913e-01 -3.096194e-01 -1.562166e-01 1.304594e-01 -8.168348e-01
<VARIANCE> 39
 3.195672e-01 4.425710e-01 1.252728e+00 6.222737e-01 9.044757e-01 1.191741e+00 1.125079e+00 1.215425e+00 1.326219e+00 1.240045e+00 1.207772e+00 1.640013e+00 4.249983e-01 7.393192e-01 9.569854e-01 1.481729e+00 1.214836e+00 9.998870e-01 1.257290e+00 1.300093e+00 1.739308e+00 1.575446e+00 1.298712e+00 1.197528e+00 1.311960e+00 9.204856e-01 1.386946e+00 8.617353e-01 1.496882e+00 9.745178e-01 1.032350e+00 1.044585e+00 1.130780e+00 1.144695e+00 1.143187e+00 1.217748e+00 1.037761e+00 1.199512e+00 1.031446e+00
<GCONST> 7.402705e+01
<MIXTURE> 2 5.000000e-01
<MEAN> 39
 7.499884e-01 -7.846035e-01 -4.742401e-01 -1.246375e-01 -4.375507e-01 -9.476551e-01 -4.077522e-01 9.636226e-02 -2.581746e-01 5.237026e-01 -6.495062e-01 -5.613094e-01 1.075160e+00 1.538164e-01 -1.448140e+00 -1.142302e+00 -1.259762e+00 -8.538654e-01 -5.373832e-01 -1.508804e-02 5.901772e-01 5.627754e-01 4.462673e-01 -3.772885e-01 -6.103688e-01 1.082807e+00 -1.456655e+00 2.711367e-01 -1.031553e-01 1.684628e-01 4.751991e-01 2.841033e-01 1.846883e-01 -3.798733e-01 -6.697711e-01 -7.510259e-01 -5.636988e-01 -3.076296e-01 -1.223075e+00
<VARIANCE> 39
 3.195672e-01 4.425710e-01 1.252728e+00 6.222737e-01 9.044757e-01 1.191741e+00 1.125079e+00 1.215425e+00 1.326219e+00 1.240045e+00 1.207772e+00 1.640013e+00 4.249983e-01 7.393192e-01 9.569854e-01 1.481729e+00 1.214836e+00 9.998870e-01 1.257290e+00 1.300093e+00 1.739308e+00 1.575446e+00 1.298712e+00 1.197528e+00 1.311960e+00 9.204856e-01 1.386946e+00 8.617353e-01 1.496882e+00 9.745178e-01 1.032350e+00 1.044585e+00 1.130780e+00 1.144695e+00 1.143187e+00 1.217748e+00 1.037761e+00 1.199512e+00 1.031446e+00
<GCONST> 7.402705e+01
<STATE> 5
<NUMMIXES> 2
<MIXTURE> 1 5.000000e-01
<MEAN> 39
 8.414399e-01 -9.953859e-01 -4.523821e-02 7.038604e-02 -3.980188e-01 -8.613759e-01 2.753785e-02 1.395443e+00 6.193142e-01 8.001671e-01 -5.824777e-01 -6.348777e-02 1.608428e+00 3.991488e-02 -2.055379e-01 -1.814915e-01 -8.236468e-02 3.358873e-01 2.618996e-01 4.831421e-01 5.650170e-01 2.573657e-01 1.512966e-01 -1.043708e-01 -1.226584e-01 4.286020e-01 2.608610e-02 7.062003e-01 5.156331e-01 4.814456e-01 4.781813e-01 3.229096e-01 9.694948e-02 -2.209461e-01 -2.412580e-01 -4.012963e-02 2.823607e-01 3.039558e-01 -4.596847e-01
<VARIANCE> 39
 2.446851e-01 4.460845e-01 1.022594e+00 5.368384e-01 8.128434e-01 1.206023e+00 1.025819e+00 1.436056e+00 1.431155e+00 1.151845e+00 1.159340e+00 1.588001e+00 3.823498e-01 3.702253e-01 5.327675e-01 1.178088e+00 7.289780e-01 7.889948e-01 8.496686e-01 8.695467e-01 9.997266e-01 7.478096e-01 7.412985e-01 9.056430e-01 1.013412e+00 3.928711e-01 5.166720e-01 5.344362e-01 8.294298e-01 6.814699e-01 7.500624e-01 7.618338e-01 7.681115e-01 8.509714e-01 7.470298e-01 7.334789e-01 7.360561e-01 7.359582e-01 5.550852e-01
<GCONST> 6.080771e+01
<MIXTURE> 2 5.000000e-01
<MEAN> 39
 6.435773e-01 -1.262544e+00 -4.497318e-01 -2.226910e-01 -7.586502e-01 -1.300652e+00 -3.775930e-01 9.161009e-01 1.407906e-01 3.708709e-01 -1.013168e+00 -5.675514e-01 1.361090e+00 -2.034697e-01 -4.975016e-01 -6.156505e-01 -4.238855e-01 -1.941426e-02 -1.068103e-01 1.101441e-01 1.650716e-01 -8.853827e-02 -1.930982e-01 -4.850320e-01 -5.253319e-01 1.778842e-01 -2.614335e-01 4.137797e-01 1.513409e-01 1.512408e-01 1.317567e-01 -2.622278e-02 -2.536184e-01 -5.899385e-01 -5.869816e-01 -3.827032e-01 -6.081412e-02 -3.919622e-02 -7.577009e-01
<VARIANCE> 39
 2.446851e-01 4.460845e-01 1.022594e+00 5.368384e-01 8.128434e-01 1.206023e+00 1.025819e+00 1.436056e+00 1.431155e+00 1.151845e+00 1.159340e+00 1.588001e+00 3.823498e-01 3.702253e-01 5.327675e-01 1.178088e+00 7.289780e-01 7.889948e-01 8.496686e-01 8.695467e-01 9.997266e-01 7.478096e-01 7.412985e-01 9.056430e-01 1.013412e+00 3.928711e-01 5.166720e-01 5.344362e-01 8.294298e-01 6.814699e-01 7.500624e-01 7.618338e-01 7.681115e-01 8.509714e-01 7.470298e-01 7.334789e-01 7.360561e-01 7.359582e-01 5.550852e-01
<GCONST> 6.080771e+01
<STATE> 6
<NUMMIXES> 2
<MIXTURE> 1 5.000000e-01
<MEAN> 39
 9.486097e-01 -1.117008e+00 -8.416784e-01 -3.466778e-01 3.594594e-01 -1.586533e-01 6.054245e-01 1.196084e+00 3.592418e-01 1.231177e+00 -9.139563e-01 -1.100829e+00 1.662553e+00 8.187063e-02 2.005203e-01 3.214911e-01 2.605666e-01 9.872770e-02 9.671380e-02 3.214975e-02 1.278078e-01 4.526823e-02 6.987558e-02 2.762679e-01 3.103147e-01 1.310612e-02 1.422830e-01 3.175111e-01 3.077833e-01 3.011458e-01 1.284451e-01 1.177292e-01 1.931520e-02 -1.045217e-02 5.605792e-02 1.215641e-01 2.745391e-01 2.894586e-01 -1.848185e-01
<VARIANCE> 39
 1.703444e-01 3.874577e-01 8.827971e-01 6.042314e-01 8.947569e-01 1.741081e+00 1.083008e+00 1.733419e+00 1.380857e+00 1.043478e+00 1.147391e+00 1.596913e+00 2.927020e-01 2.176239e-01 3.318961e-01 5.552229e-01 5.209969e-01 4.988739e-01 6.633939e-01 6.311671e-01 6.944351e-01 5.443107e-01 5.288022e-01 6.353281e-01 6.832413e-01 2.798458e-01 3.080302e-01 3.616943e-01 4.717731e-01 4.337271e-01 4.981298e-01 5.658739e-01 5.490521e-01 5.415505e-01 4.922239e-01 4.879912e-01 4.866460e-01 5.474905e-01 3.643989e-01
<GCONST> 4.997496e+01
<MIXTURE> 2 5.000000e-01
<MEAN> 39
 7.835185e-01 -1.365992e+00 -1.217508e+00 -6.576071e-01 -1.890700e-02 -6.864535e-01 1.891538e-01 6.694461e-01 -1.107977e-01 8.225735e-01 -1.342422e+00 -1.606305e+00 1.446145e+00 -1.047301e-01 -2.992143e-02 2.343793e-02 -2.815383e-02 -1.837963e-01 -2.290822e-01 -2.856343e-01 -2.055233e-01 -2.498414e-01 -2.209996e-01 -4.256195e-02 -2.031893e-02 -1.984957e-01 -7.971887e-02 7.694694e-02 3.304031e-02 3.771397e-02 -1.538682e-01 -1.831691e-01 -2.770770e-01 -3.048126e-01 -2.245767e-01 -1.578614e-01 -4.500940e-03 -6.511807e-03 -4.262803e-01
<VARIANCE> 39
 1.703444e-01 3.874577e-01 8.827971e-01 6.042314e-01 8.947569e-01 1.741081e+00 1.083008e+00 1.733419e+00 1.380857e+00 1.043478e+00 1.147391e+00 1.596913e+00 2.927020e-01 2.176239e-01 3.318961e-01 5.552229e-01 5.209969e-01 4.988739e-01 6.633939e-01 6.311671e-01 6.944351e-01 5.443107e-01 5.288022e-01 6.353281e-01 6.832413e-01 2.798458e-01 3.080302e-01 3.616943e-01 4.717731e-01 4.337271e-01 4.981298e-01 5.658739e-01 5.490521e-01 5.415505e-01 4.922239e-01 4.879912e-01 4.866460e-01 5.474905e-01 3.643989e-01
<GCONST> 4.997496e+01
<TRANSP> 7
 0.000000e+00 1.000000e+00 0.000000e+00 0.000000e+00 0.000000e+00 0.000000e+00 0.000000e+00
 0.000000e+00 8.026481e-01 1.973519e-01 0.000000e+00 0.000000e+00 0.000000e+00 0.000000e+00
 0.000000e+00 0.000000e+00 5.489850e-01 4.510150e-01 0.000000e+00 0.000000e+00 0.000000e+00
 0.000000e+00 0.000000e+00 0.000000e+00 5.257441e-01 4.742559e-01 0.000000e+00 0.000000e+00
 0.000000e+00 0.000000e+00 0.000000e+00 0.000000e+00 6.631017e-01 3.368983e-01 0.000000e+00
 0.000000e+00 0.000000e+00 0.000000e+00 0.000000e+00 0.000000e+00 8.706238e-01 1.293762e-01
 0.000000e+00 0.000000e+00 0.000000e+00 0.000000e+00 0.000000e+00 0.000000e+00 0.000000e+00
<ENDHMM>
~h "b"
<BEGINHMM>
<NUMSTATES> 7
<STATE> 2
<NUMMIXES> 2
<MIXTURE> 1 5.000000e-01
<MEAN> 39
 1.004838e+00 1.200251e-01 -1.479576e-01 2.701180e-01 2.736028e-01 -1.269756e-01 1.081654e-01 1.699212e-01 -3.709509e-01 5.697600e-01 7.999089e-02 -6.307827e-02 5.720475e-01 4.294515e-02 8.048826e-01 4.780051e-01 7.396338e-01 8.774418e-01 7.860339e-01 2.290953e-01 -1.757798e-01 -1.277770e-01 -4.599670e-02 3.371007e-01 3.271665e-01 -9.304219e-01 -5.818722e-01 4.140899e-01 6.062766e-01 4.727443e-01 5.798644e-01 6.817305e-01 5.774102e-01 2.502770e-01 2.253647e-01 -5.240399e-02 -2.192168e-02 3.182723e-01 -4.865845e-01
<VARIANCE> 39
 3.903832e-01 8.088235e-01 1.236724e+00 1.042204e+00 7.543144e-01 1.277489e+00 1.227109e+00 1.055669e+00 1.515777e+00 1.429864e+00 1.158611e+00 1.506576e+00 7.246172e-01 1.059005e+00 1.095775e+00 1.643768e+00 1.492629e+00 1.269599e+00 1.660154e+00 1.327400e+00 1.427524e+00 1.426277e+00 1.645386e+00 1.241166e+00 1.568419e+00 2.577069e+00 1.504082e+00 9.511749e-01 1.447033e+00 1.042171e+00 1.122982e+00 1.328435e+00 1.264096e+00 1.257248e+00 1.119331e+00 1.445660e+00 1.199265e+00 1.191527e+00 1.742914e+00
<GCONST> 7.993138e+01
<MIXTURE> 2 5.000000e-01
<MEAN> 39
 7.549152e-01 -2.397134e-01 -5.927900e-01 -1.382356e-01 -7.380236e-02 -5.790798e-01 -3.349344e-01 -2.410618e-01 -8.634185e-01 9.145235e-02 -3.505643e-01 -5.540489e-01 2.315497e-01 -3.686867e-01 3.861655e-01 -3.483294e-02 2.509410e-01 4.267358e-01 2.706460e-01 -2.317561e-01 -6.536960e-01 -6.054844e-01 -5.590872e-01 -1.085298e-01 -1.737796e-01 -1.572552e+00 -1.072436e+00 2.397710e-02 1.251058e-01 6.439726e-02 1.559810e-01 2.206995e-01 1.276821e-01 -1.982313e-01 -1.978291e-01 -5.333464e-01 -4.599655e-01 -1.183560e-01 -1.014662e+00
<VARIANCE> 39
 3.903832e-01 8.088235e-01 1.236724e+00 1.042204e+00 7.543144e-01 1.277489e+00 1.227109e+00 1.055669e+00 1.515777e+00 1.429864e+00 1.158611e+00 1.506576e+00 7.246172e-01 1.059005e+00 1.095775e+00 1.643768e+00 1.492629e+00 1.269599e+00 1.660154e+00 1.327400e+00 1.427524e+00 1.426277e+00 1.645386e+00 1.241166e+00 1.568419e+00 2.577069e+00 1.504082e+00 9.511749e-01 1.447033e+00 1.042171e+00 1.122982e+00 1.328435e+00 1.264096e+00 1.257248e+00 1.119331e+00 1.445660e+00 1.199265e+00 1.191527e+00 1.742914e+00
<GCONST> 7.993138e+01
<STATE> 3
<NUMMIXES> 2
<MIXTURE> 1 5.000000e-01
<MEAN> 39
 5.537757e-01 6.696491e-01 2.216893e-01 8.381535e-01 1.048923e+00 6.833299e-01 2.873039e-01 -3.851638e-01 -9.035797e-01 -1.478654e-01 -7.331085e-02 2.226277e-01 -4.890114e-01 -8.896138e-01 1.019535e+00 1.202291e+00 1.160853e+00 1.244498e+00 1.113452e+00 7.715109e-01 1.316848e-01 1.305241e-01 -3.265392e-01 -1.893998e-01 3.223678e-01 -1.573405e+00 4.861399e-01 -1.296957e-01 2.985039e-01 -1.441162e-01 -5.167338e-01 -4.778629e-01 1.144473e-01 7.214153e-01 6.968232e-01 4.650560e-01 9.666800e-02 4.742417e-02 1.402395e+00
<VARIANCE> 39
 2.694485e-01 3.573068e-01 5.117530e-01 4.949943e-01 4.045570e-01 5.948017e-01 5.683264e-01 6.718398e-01 6.697071e-01 5.893185e-01 6.788709e-01 7.812641e-01 2.496716e-01 1.079138e+00 9.449061e-01 1.505115e+00 1.247985e+00 9.719439e-01 1.429646e+00 1.196905e+00 1.137229e+00 1.381497e+00 1.752073e+00 1.181481e+00 1.420813e+00 1.647316e+00 1.044529e+00 8.380244e-01 1.284273e+00 1.024026e+00 9.375660e-01 1.187477e+00 1.096847e+00 1.176111e+00 1.144556e+00 1.402854e+00 1.074238e+00 1.350734e+00 1.218563e+00
<GCONST> 6.735937e+01
<MIXTURE> 2 5.000000e-01
<MEAN> 39
 3.461420e-01 4.305485e-01 -6.445838e-02 5.567302e-01 7.945035e-01 3.748364e-01 -1.424585e-02 -7.130272e-01 -1.230922e+00 -4.549338e-01 -4.028853e-01 -1.309289e-01 -6.888800e-01 -1.305140e+00 6.307095e-01 7.115584e-01 7.140002e-01 8.501495e-01 6.351809e-01 3.338982e-01 -2.948790e-01 -3.396243e-01 -8.560028e-01 -6.241836e-01 -1.544237e-01 -2.086797e+00 7.733111e-02 -4.958704e-01 -1.547991e-01 -5.488929e-01 -9.040458e-01 -9.137486e-01 -3.044746e-01 2.876207e-01 2.688875e-01 -8.712575e-03 -3.179138e-01 -4.174602e-01 9.608409e-01
<VARIANCE> 39
 2.694485e-01 3.573068e-01 5.117530e-01 4.949943e-01 4.045570e-01 5.948017e-01 5.683264e-01 6.718398e-01 6.697071e-01 5.893185e-01 6.788709e-01 7.812641e-01 2.496716e-01 1.079138e+00 9.449061e-01 1.505115e+00 1.247985e+00 9.719439e-01 1.429646e+00 1.196905e+00 1.137229e+00 1.381497e+00 1.752073e+00 1.181481e+00 1.420813e+00 1.647316e+00 1.044529e+00 8.380244e-01 1.284273e+00 1.024026e+00 9.375660e-01 1.187477e+00 1.096847e+00 1.176111e+00 1.144556e+00 1.402854e+00 1.074238e+00 1.350734e+00 1.218563e+00
<GCONST> 6.735937e+01
<STATE> 4
<NUMMIXES> 2
<MIXTURE> 1 5.000000e-01
<MEAN> 39
 2.281048e-01 8.640941e-01 6.859324e-01 1.172355e+00 1.199643e+00 6.899810e-01 4.368723e-01 -5.281630e-02 -6.613313e-01 -3.900462e-01 -4.887844e-01 1.367216e-01 -8.435527e-01 -2.974525e-01 5.137752e-01 6.185331e-01 2.680194e-01 2.304696e-01 3.117355e-01 4.643696e-01 4.184068e-01 4.820616e-01 1.761225e-01 1.229002e-01 1.641978e-01 -3.238598e-01 8.303841e-01 -1.138827e-01 -4.557371e-01 -4.830446e-01 -4.336011e-01 -1.775460e-01 -5.095226e-02 1.778190e-01 1.823425e-01 6.949580e-01 6.088777e-01 3.618528e-01 1.316734e+00
<VARIANCE> 39
 1.877060e-01 3.764640e-01 3.927867e-01 4.100168e-01 3.633378e-01 5.327908e-01 4.246528e-01 5.805190e-01 4.921466e-01 6.157833e-01 6.230472e-01 8.067552e-01 1.921515e-01 7.238734e-01 1.340248e+00 1.082516e+00 8.329799e-01 8.053154e-01 1.039737e+00 8.570864e-01 9.718064e-01 1.020321e+00 1.063908e+00 1.013827e+00 1.156087e+00 9.684158e-01 1.296688e+00 1.696756e+00 1.543676e+00 9.320244e-01 1.092803e+00 1.277282e+00 1.009785e+00 1.044854e+00 1.173495e+00 1.361293e+00 1.059787e+00 1.301065e+00 1.883127e+00
<GCONST> 6.330445e+01
<MIXTURE> 2 5.000000e-01
<MEAN> 39
 5.480459e-02 6.186675e-01 4.352416e-01 9.162248e-01 9.585329e-01 3.980109e-01 1.762107e-01 -3.575835e-01 -9.419439e-01 -7.039337e-01 -8.045177e-01 -2.225567e-01 -1.018893e+00 -6.377755e-01 5.069883e-02 2.023569e-01 -9.705155e-02 -1.284878e-01 -9.613450e-02 9.405378e-02 2.408582e-02 7.801782e-02 -2.364611e-01 -2.798557e-01 -2.658882e-01 -7.174922e-01 3.748953e-01 -6.349211e-01 -9.527161e-01 -8.692102e-01 -8.517500e-01 -6.296136e-01 -4.529045e-01 -2.310535e-01 -2.509694e-01 2.282602e-01 1.970939e-01 -9.440418e-02 7.678258e-01
<VARIANCE> 39
 1.877060e-01 3.764640e-01 3.927867e-01 4.100168e-01 3.633378e-01 5.327908e-01 4.246528e-01 5.805190e-01 4.921466e-01 6.157833e-01 6.230472e-01 8.067552e-01 1.921515e-01 7.238734e-01 1.340248e+00 1.082516e+00 8.329799e-01 8.053154e-01 1.039737e+00 8.570864e-01 9.718064e-01 1.020321e+00 1.063908e+00 1.013827e+00 1.156087e+00 9.684158e-01 1.296688e+00 1.696756e+00 1.543676e+00 9.320244e-01 1.092803e+00 1.277282e+00 1.009785e+00 1.044854e+00 1.173495e+00 1.361293e+00 1.059787e+00 1.301065e+00 1.883127e+00
<GCONST> 6.330445e+01
<STATE> 5
<NUMMIXES> 2
<MIXTURE> 1 5.000000e-01
<MEAN> 39
 7.600389e-02 1.214511e+00 7.480221e-01 1.014079e+00 1.045065e+00 6.813834e-01 6.012473e-01 -1.085851e-02 -5.282263e-01 -1.133350e-01 -3.371804e-01 6.211127e-02 -1.100647e+00 1.681479e-02 -2.587633e-02 -1.143469e-02 7.539503e-02 1.016124e-01 1.534442e-01 1.520340e-01 1.764812e-01 2.190948e-01 2.902076e-01 3.527538e-01 3.422884e-01 3.145210e-01 2.602458e-01 -1.008978e-01 1.205511e-02 1.253119e-01 1.092962e-01 1.146755e-01 1.101505e-01 1.553478e-01 1.554203e-01 2.226656e-01 2.345332e-01 2.744831e-01 6.913841e-01
<VARIANCE> 39
 1.012720e-01 3.192683e-01 2.793196e-01 3.021858e-01 2.424100e-01 3.916935e-01 3.111715e-01 5.789108e-01 3.971612e-01 6.020437e-01 5.839593e-01 7.656186e-01 1.969474e-01 2.874944e-01 9.896108e-01 8.025992e-01 7.063684e-01 5.404696e-01 6.462272e-01 6.526341e-01 7.325608e-01 7.650378e-01 9.371205e-01 8.299809e-01 9.504178e-01 6.857307e-01 5.600432e-01 1.008805e+00 9.791034e-01 7.884655e-01 7.341419e-01 7.613405e-01 8.058491e-01 8.884492e-01 8.985796e-01 1.097565e+00 9.274237e-01 1.028599e+00 9.981596e-01
<GCONST> 5.147426e+01
<MIXTURE> 2 5.000000e-01
<MEAN> 39
 -5.128916e-02 9.884953e-01 5.366193e-01 7.941930e-01 8.481247e-01 4.310418e-01 3.781163e-01 -3.152033e-01 -7.803093e-01 -4.237010e-01 -6.428494e-01 -2.878873e-01 -1.278162e+00 -1.976592e-01 -4.237931e-01 -3.697863e-01 -2.607878e-01 -1.924541e-01 -1.681088e-01 -1.711091e-01 -1.658779e-01 -1.307710e-01 -9.701239e-02 -1.165938e-02 -4.766916e-02 -1.671442e-02 -3.909837e-02 -5.026550e-01 -3.837435e-01 -2.298705e-01 -2.334321e-01 -2.343438e-01 -2.489259e-01 -2.216826e-01 -2.237535e-01 -1.963933e-01 -1.506781e-01 -1.311964e-01 2.917523e-01
<VARIANCE> 39
 1.012720e-01 3.192683e-01 2.793196e-01 3.021858e-01 2.424100e-01 3.916935e-01 3.111715e-01 5.789108e-01 3.971612e-01 6.020437e-01 5.839593e-01 7.656186e-01 1.969474e-01 2.874944e-01 9.896108e-01 8.025992e-01 7.063684e-01 5.404696e-01 6.462272e-01 6.526341e-01 7.325608e-01 7.650378e-01 9.371205e-01 8.299809e-01 9.504178e-01 6.857307e-01 5.600432e-01 1.008805e+00 9.791034e-01 7.884655e-01 7.341419e-01 7.613405e-01 8.058491e-01 8.884492e-01 8.985796e-01 1.097565e+00 9.274237e-01 1.028599e+00 9.981596e-01
<GCONST> 5.147426e+01
<STATE> 6
<NUMMIXES> 2
<MIXTURE> 1 5.000000e-01
<MEAN> 39
 -7.068182e-01 2.669147e-01 -3.464971e-01 -4.273855e-01 2.401358e-01 3.303955e-01 2.411555e-01 -5.369686e-02 9.452239e-02 3.980719e-01 3.718770e-01 6.414040e-01 -1.307047e+00 1.121589e-01 1.151672e-01 1.257150e-01 1.524725e-01 1.262807e-01 1.446190e-01 1.581328e-01 1.861097e-01 1.790009e-01 2.204308e-01 1.963067e-01 2.294263e-01 2.619938e-01 2.739098e-01 2.362529e-01 2.509887e-01 2.337329e-01 1.922736e-01 1.768431e-01 1.918606e-01 2.111408e-01 1.881869e-01 2.015992e-01 1.508756e-01 1.819699e-01 3.339452e-01
<VARIANCE> 39
 1.490515e-01 2.591733e-01 3.310688e-01 4.556337e-01 4.506941e-01 6.043080e-01 3.553453e-01 6.918957e-01 4.542596e-01 5.324128e-01 5.805625e-01 9.095988e-01 1.708485e-01 2.619625e-01 7.756265e-01 7.785940e-01 8.263258e-01 5.628081e-01 6.969219e-01 7.081127e-01 9.017591e-01 9.116507e-01 1.074401e+00 8.600824e-01 1.109617e+00 6.534550e-01 6.392325e-01 1.001369e+00 1.065643e+00 9.536561e-01 7.790400e-01 8.527277e-01 8.499120e-01 1.033330e+00 1.173465e+00 1.259307e+00 9.528207e-01 1.163852e+00 8.997812e-01
<GCONST> 5.551089e+01
<MIXTURE> 2 5.000000e-01
<MEAN> 39
 -8.612469e-01 6.327846e-02 -5.766515e-01 -6.973881e-01 -2.839921e-02 1.944651e-02 2.712108e-03 -3.864179e-01 -1.750728e-01 1.062054e-01 6.709839e-02 2.599124e-01 -1.472383e+00 -9.257022e-02 -2.371114e-01 -2.272370e-01 -2.111373e-01 -1.738015e-01 -1.893084e-01 -1.784649e-01 -1.937343e-01 -2.029207e-01 -1.941825e-01 -1.746558e-01 -1.919271e-01 -6.135243e-02 -4.589824e-02 -1.640208e-01 -1.619313e-01 -1.568884e-01 -1.607793e-01 -1.925299e-01 -1.769021e-01 -1.954706e-01 -2.451195e-01 -2.472762e-01 -2.395745e-01 -2.495580e-01 -4.548199e-02
<VARIANCE> 39
 1.490515e-01 2.591733e-01 3.310688e-01 4.556337e-01 4.506941e-01 6.043080e-01 3.553453e-01 6.918957e-01 4.542596e-01 5.324128e-01 5.805625e-01 9.095988e-01 1.708485e-01 2.619625e-01 7.756265e-01 7.785940e-01 8.263258e-01 5.628081e-01 6.969219e-01 7.081127e-01 9.017591e-01 9.116507e-01 1.074401e+00 8.600824e-01 1.109617e+00 6.534550e-01 6.392325e-01 1.001369e+00 1.065643e+00 9.536561e-01 7.790400e-01 8.527277e-01 8.499120e-01 1.033330e+00 1.173465e+00 1.259307e+00 9.528207e-01 1.163852e+00 8.997812e-01
<GCONST> 5.551089e+01
<TRANSP> 7
 0.000000e+00 1.000000e+00 0.000000e+00 0.000000e+00 0.000000e+00 0.000000e+00 0.000000e+00
 0.000000e+00 7.339668e-01 2.660332e-01 0.000000e+00 0.000000e+00 0.000000e+00 0.000000e+00
 0.000000e+00 0.000000e+00 5.211713e-01 4.788287e-01 0.000000e+00 0.000000e+00 0.000000e+00
 0.000000e+00 0.000000e+00 0.000000e+00 5.721563e-01 4.278437e-01 0.000000e+00 0.000000e+00
 0.000000e+00 0.000000e+00 0.000000e+00 0.000000e+00 8.750794e-01 1.249206e-01 0.000000e+00
 0.000000e+00 0.000000e+00 0.000000e+00 0.000000e+00 0.000000e+00 9.177972e-01 8.220278e-02
 0.000000e+00 0.000000e+00 0.000000e+00 0.000000e+00 0.000000e+00 0.000000e+00 0.000000e+00
<ENDHMM>
~h "d"
<BEGINHMM>
<NUMSTATES> 7
<STATE> 2
<NUMMIXES> 2
<MIXTURE> 1 5.000000e-01
<MEAN> 39
 7.106395e-01 -1.414035e-02 5.084922e-01 4.597915e-01 -6.159647e-02 -4.324455e-01 -3.732774e-01 1.046026e-01 -2.212223e-01 4.047714e-01 -2.795149e-01 2.803511e-01 8.708760e-01 3.857814e-02 5.600310e-01 8.859299e-01 7.767229e-01 4.964234e-01 1.674205e-01 -7.109174e-02 -4.136021e-02 3.196244e-02 -1.554659e-01 -1.030717e-01 1.506535e-01 -4.351013e-01 -2.854813e-01 4.085014e-01 2.405305e-01 3.871798e-01 6.748637e-01 6.192015e-01 5.709521e-01 2.396311e-01 3.242326e-02 6.807102e-02 9.375677e-02 1.241497e-01 -6.780250e-01
<VARIANCE> 39
 5.253615e-01 8.048956e-01 1.238324e+00 1.100330e+00 7.786106e-01 1.452125e+00 1.163522e+00 1.443148e+00 1.496023e+00 1.379505e+00 1.050964e+00 1.234070e+00 8.196400e-01 7.164907e-01 9.095809e-01 1.319625e+00 1.293977e+00 9.935300e-01 1.087701e+00 1.080543e+00 1.251796e+00 1.046378e+00 1.093898e+00 9.659921e-01 1.115584e+00 1.588192e+00 9.471912e-01 7.976809e-01 1.150068e+00 1.003521e+00 9.386544e-01 1.136447e+00 1.131119e+00 1.089850e+00 1.041230e+00 1.105356e+00 8.739146e-01 1.085078e+00 1.627449e+00
<GCONST> 7.442293e+01
<MIXTURE> 2 5.000000e-01
<MEAN> 39
 4.207121e-01 -3.730043e-01 6.337219e-02 4.020506e-02 -4.145522e-01 -9.144621e-01 -8.047441e-01 -3.759218e-01 -7.104704e-01 -6.503797e-02 -6.895811e-01 -1.640037e-01 5.087401e-01 -3.000050e-01 1.785432e-01 4.264302e-01 3.217105e-01 9.771954e-02 -2.497512e-01 -4.868884e-01 -4.888950e-01 -3.772081e-01 -5.738243e-01 -4.962113e-01 -2.718313e-01 -9.391953e-01 -6.747763e-01 5.124943e-02 -1.884345e-01 -1.352379e-02 2.873269e-01 1.927845e-01 1.455358e-01 -1.779524e-01 -3.757395e-01 -3.524726e-01 -2.801768e-01 -2.925186e-01 -1.188311e+00
<VARIANCE> 39
 5.253615e-01 8.048956e-01 1.238324e+00 1.100330e+00 7.786106e-01 1.452125e+00 1.163522e+00 1.443148e+00 1.496023e+00 1.379505e+00 1.050964e+00 1.234070e+00 8.196400e-01 7.164907e-01 9.095809e-01 1.319625e+00 1.293977e+00 9.935300e-01 1.087701e+00 1.080543e+00 1.251796e+00 1.046378e+00 1.093898e+00 9.659921e-01 1.115584e+00 1.588192e+00 9.471912e-01 7.976809e-01 1.150068e+00 1.003521e+00 9.386544e-01 1.136447e+00 1.131119e+00 1.089850e+00 1.041230e+00 1.105356e+00 8.739146e-01 1.085078e+00 1.627449e+00
<GCONST> 7.442293e+01
<STATE> 3
<NUMMIXES> 2
<MIXTURE> 1 5.000000e-01
<MEAN> 39
 4.950558e-01 3.726032e-01 9.643511e-01 8.209659e-01 3.021347e-01 -3.049301e-01 -4.462338e-01 -2.024569e-01 -5.669395e-01 -1.387192e-01 -6.675484e-01 3.045025e-01 3.639986e-01 -7.325760e-01 8.452809e-01 6.716621e-01 9.797973e-01 1.391032e+00 1.140713e+00 8.429540e-01 1.377687e-01 -1.547523e-02 -1.220490e-01 -1.029959e-02 1.027362e-01 -1.797922e+00 -5.167942e-01 1.435925e-01 -3.857172e-01 -8.384645e-03 5.739493e-01 8.747088e-01 1.059462e+00 6.285985e-01 2.371896e-01 5.730455e-01 6.252573e-01 2.891821e-01 -2.879722e-01
<VARIANCE> 39
 4.412524e-01 5.393829e-01 1.024609e+00 8.570213e-01 5.727614e-01 1.288091e+00 1.084895e+00 1.060535e+00 9.612651e-01 1.050082e+00 8.158195e-01 1.169456e+00 6.454247e-01 1.022495e+00 9.082687e-01 1.742445e+00 1.730353e+00 1.176291e+00 1.782568e+00 1.374725e+00 1.479143e+00 1.512330e+00 1.523712e+00 1.057332e+00 1.371409e+00 2.382827e+00 9.893694e-01 9.122431e-01 1.407045e+00 1.087813e+00 1.003482e+00 1.461073e+00 1.260808e+00 1.208189e+00 1.138425e+00 1.258630e+00 1.085915e+00 1.407288e+00 1.957602e+00
<GCONST> 7.660898e+01
<MIXTURE> 2 5.000000e-01
<MEAN> 39
 2.293484e-01 7.883242e-02 5.594593e-01 4.506641e-01 -5.892962e-04 -7.589065e-01 -8.628670e-01 -6.143861e-01 -9.591160e-01 -5.486132e-01 -1.028839e+00 -1.280631e-01 4.264525e-02 -1.137050e+00 4.640683e-01 1.436553e-01 4.536257e-01 9.572041e-01 6.066618e-01 3.739593e-01 -3.487115e-01 -5.073826e-01 -6.158040e-01 -4.216062e-01 -3.656924e-01 -2.415378e+00 -9.146624e-01 -2.384532e-01 -8.601929e-01 -4.255778e-01 1.732535e-01 3.912094e-01 6.103187e-01 1.889279e-01 -1.895984e-01 1.242907e-01 2.084283e-01 -1.853346e-01 -8.476295e-01
<VARIANCE> 39
 4.412524e-01 5.393829e-01 1.024609e+00 8.570213e-01 5.727614e-01 1.288091e+00 1.084895e+00 1.060535e+00 9.612651e-01 1.050082e+00 8.158195e-01 1.169456e+00 6.454247e-01 1.022495e+00 9.082687e-01 1.742445e+00 1.730353e+00 1.176291e+00 1.782568e+00 1.374725e+00 1.479143e+00 1.512330e+00 1.523712e+00 1.057332e+00 1.371409e+00 2.382827e+00 9.893694e-01 9.122431e-01 1.407045e+00 1.087813e+00 1.003482e+00 1.461073e+00 1.260808e+00 1.208189e+00 1.138425e+00 1.258630e+00 1.085915e+00 1.407288e+00 1.957602e+00
<GCONST> 7.660898e+01
<STATE> 4
<NUMMIXES> 2
<MIXTURE> 1 5.000000e-01
<MEAN> 39
 1.503062e-01 6.283215e-01 9.145315e-01 9.198282e-01 8.342181e-01 2.833976e-01 5.732165e-02 -2.038454e-01 -7.754505e-01 -2.681817e-01 -5.728747e-01 3.096392e-01 -2.481720e-01 -8.566048e-01 6.734340e-01 2.784626e-01 7.385631e-01 1.294403e+00 1.176950e+00 1.180101e+00 4.853420e-01 1.304317e-01 2.676866e-01 3.362072e-01 1.387573e-01 -1.426899e+00 4.301192e-01 4.738136e-02 -9.242085e-02 -3.448126e-01 -3.722713e-01 -1.541453e-01 1.373131e-01 4.493036e-01 4.596461e-01 6.174818e-01 3.956080e-01 2.274031e-01 1.448225e+00
<VARIANCE> 39
 3.100847e-01 5.018453e-01 7.419153e-01 6.151659e-01 4.280409e-01 8.066369e-01 6.262447e-01 8.249854e-01 6.695622e-01 7.129638e-01 7.234914e-01 8.916260e-01 3.401174e-01 1.122002e+00 1.055318e+00 1.954251e+00 1.712607e+00 1.130140e+00 1.791142e+00 1.496537e+00 1.353078e+00 1.504542e+00 1.708326e+00 1.169420e+00 1.545622e+00 2.271061e+00 9.642237e-01 1.066382e+00 1.266088e+00 1.167951e+00 9.394981e-01 1.215946e+00 9.490942e-01 1.240102e+00 1.184791e+00 1.225289e+00 9.803142e-01 1.220914e+00 1.729244e+00
<GCONST> 7.201146e+01
<MIXTURE> 2 5.000000e-01
<MEAN> 39
 -7.243478e-02 3.449573e-01 5.699934e-01 6.060982e-01 5.725188e-01 -7.585424e-02 -2.592208e-01 -5.671602e-01 -1.102758e+00 -6.059304e-01 -9.131079e-01 -6.806461e-02 -4.814504e-01 -1.280303e+00 2.625194e-01 -2.807155e-01 2.150966e-01 8.691709e-01 6.416156e-01 6.907688e-01 2.005444e-02 -3.602073e-01 -2.551252e-01 -9.635175e-02 -3.585349e-01 -2.029701e+00 3.733961e-02 -3.656818e-01 -5.425031e-01 -7.770997e-01 -7.599821e-01 -5.952251e-01 -2.523728e-01 3.864154e-03 2.425370e-02 1.747107e-01 -4.352331e-04 -2.145768e-01 9.222226e-01
<VARIANCE> 39
 3.100847e-01 5.018453e-01 7.419153e-01 6.151659e-01 4.280409e-01 8.066369e-01 6.262447e-01 8.249854e-01 6.695622e-01 7.129638e-01 7.234914e-01 8.916260e-01 3.401174e-01 1.122002e+00 1.055318e+00 1.954251e+00 1.712607e+00 1.130140e+00 1.791142e+00 1.496537e+00 1.353078e+00 1.504542e+00 1.708326e+00 1.169420e+00 1.545622e+00 2.271061e+00 9.642237e-01 1.066382e+00 1.266088e+00 1.167951e+00 9.394981e-01 1.215946e+00 9.490942e-01 1.240102e+00 1.184791e+00 1.225289e+00 9.803142e-01 1.220914e+00 1.729244e+00
<GCONST> 7.201146e+01
<STATE> 5
<NUMMIXES> 2
<MIXTURE> 1 5.000000e-01
<MEAN> 39
 -9.238121e-02 8.342536e-01 9.605102e-01 1.049014e+00 1.206818e+00 5.756880e-01 4.113863e-01 -2.139133e-02 -7.629566e-01 -2.368550e-01 -5.921743e-01 1.125158e-01 -6.699397e-01 -4.483020e-01 5.543594e-01 6.090510e-02 1.186001e-02 4.206639e-01 3.775803e-01 5.762470e-01 3.694901e-01 2.798419e-01 4.359221e-01 3.434419e-01 1.647833e-01 -2.174552e-01 6.683561e-01 -6.560354e-02 1.088576e-01 -2.396778e-01 -5.619076e-01 -5.198925e-01 -3.822574e-01 1.238985e-01 3.302834e-01 3.475230e-01 1.747378e-01 3.884533e-01 2.115818e+00
<VARIANCE> 39
 1.811515e-01 4.221153e-01 4.339872e-01 4.119589e-01 3.753989e-01 5.791118e-01 4.333676e-01 6.620537e-01 4.886669e-01 5.016494e-01 6.496619e-01 7.846292e-01 2.196839e-01 6.644562e-01 1.198961e+00 1.128560e+00 9.593028e-01 8.397057e-01 1.192312e+00 1.025230e+00 1.064883e+00 1.090560e+00 1.060748e+00 9.908106e-01 1.161419e+00 1.580786e+00 1.062068e+00 1.371750e+00 1.335044e+00 1.078702e+00 1.034820e+00 1.301116e+00 1.063285e+00 1.168401e+00 1.249913e+00 1.240716e+00 1.068428e+00 1.200187e+00 1.963456e+00
<GCONST> 6.431744e+01
<MIXTURE> 2 5.000000e-01
<MEAN> 39
 -2.626288e-01 5.743720e-01 6.969994e-01 7.922784e-01 9.617383e-01 2.712904e-01 1.480637e-01 -3.468581e-01 -1.042575e+00 -5.201638e-01 -9.145807e-01 -2.418014e-01 -8.574215e-01 -7.743587e-01 1.163711e-01 -3.640297e-01 -3.799160e-01 5.412209e-02 -5.919188e-02 1.712324e-01 -4.328254e-02 -1.378776e-01 2.395165e-02 -5.471593e-02 -2.662933e-01 -7.203724e-01 2.561293e-01 -5.340905e-01 -3.533188e-01 -6.551201e-01 -9.688120e-01 -9.761584e-01 -7.947202e-01 -3.084719e-01 -1.169146e-01 -9.802676e-02 -2.387214e-01 -4.975890e-02 1.555324e+00
<VARIANCE> 39
 1.811515e-01 4.221153e-01 4.339872e-01 4.119589e-01 3.753989e-01 5.791118e-01 4.333676e-01 6.620537e-01 4.886669e-01 5.016494e-01 6.496619e-01 7.846292e-01 2.196839e-01 6.644562e-01 1.198961e+00 1.128560e+00 9.593028e-01 8.397057e-01 1.192312e+00 1.025230e+00 1.064883e+00 1.090560e+00 1.060748e+00 9.908106e-01 1.161419e+00 1.580786e+00 1.062068e+00 1.371750e+00 1.335044e+00 1.078702e+00 1.034820e+00 1.301116e+00 1.063285e+00 1.168401e+00 1.249913e+00 1.240716e+00 1.068428e+00 1.200187e+00 1.963456e+00
<GCONST> 6.431744e+01
<STATE> 6
<NUMMIXES> 2
<MIXTURE> 1 5.000000e-01
<MEAN> 39
 -4.192105e-01 9.150241e-01 5.815437e-01 5.592281e-01 8.938824e-01 4.088084e-01 4.984820e-01 8.279572e-02 -4.644396e-01 1.773857e-01 -3.036512e-01 1.438110e-01 -8.558259e-01 -3.936039e-02 1.365050e-01 9.339647e-02 7.475148e-02 7.878873e-02 1.013468e-02 7.640106e-02 1.960181e-01 1.566937e-01 2.560715e-01 1.892830e-01 3.094929e-01 8.191834e-01 4.997048e-01 2.450127e-01 3.136119e-01 2.849819e-01 1.058683e-01 9.000979e-02 3.392354e-02 1.255499e-01 1.621884e-01 1.332266e-01 8.303098e-02 2.539953e-01 8.876939e-01
<VARIANCE> 39
 2.620308e-01 5.654079e-01 5.075904e-01 5.276211e-01 3.760607e-01 5.829632e-01 4.984558e-01 6.418000e-01 5.066646e-01 6.295622e-01 6.012478e-01 7.973221e-01 3.776213e-01 6.234792e-01 1.105523e+00 8.876815e-01 9.066903e-01 6.718624e-01 8.685977e-01 8.484930e-01 9.657062e-01 9.258671e-01 1.071083e+00 9.578384e-01 1.060368e+00 1.382319e+00 1.043079e+00 1.293189e+00 1.118641e+00 1.009459e+00 9.031612e-01 9.063039e-01 9.768627e-01 1.059808e+00 1.139185e+00 1.179374e+00 1.047204e+00 1.163384e+00 1.369797e+00
<GCONST> 6.300778e+01
<MIXTURE> 2 5.000000e-01
<MEAN> 39
 -6.239663e-01 6.142496e-01 2.965621e-01 2.686779e-01 6.485872e-01 1.034002e-01 2.160764e-01 -2.376540e-01 -7.491611e-01 -1.399942e-01 -6.138120e-01 -2.133606e-01 -1.101629e+00 -3.552032e-01 -2.840704e-01 -2.834709e-01 -3.061297e-01 -2.490801e-01 -3.626597e-01 -2.920537e-01 -1.970633e-01 -2.281943e-01 -1.579010e-01 -2.021939e-01 -1.024037e-01 3.488951e-01 9.117983e-02 -2.098612e-01 -1.094515e-01 -1.169055e-01 -2.742709e-01 -2.907902e-01 -3.614219e-01 -2.862380e-01 -2.647420e-01 -3.011693e-01 -3.263010e-01 -1.774458e-01 4.195405e-01
<VARIANCE> 39
 2.620308e-01 5.654079e-01 5.075904e-01 5.276211e-01 3.760607e-01 5.829632e-01 4.984558e-01 6.418000e-01 5.066646e-01 6.295622e-01 6.012478e-01 7.973221e-01 3.776213e-01 6.234792e-01 1.105523e+00 8.876815e-01 9.066903e-01 6.718624e-01 8.685977e-01 8.484930e-01 9.657062e-01 9.258671e-01 1.071083e+00 9.578384e-01 1.060368e+00 1.382319e+00 1.043079e+00 1.293189e+00 1.118641e+00 1.009459e+00 9.031612e-01 9.063039e-01 9.768627e-01 1.059808e+00 1.139185e+00 1.179374e+00 1.047204e+00 1.163384e+00 1.369797e+00
<GCONST> 6.300778e+01
<TRANSP> 7
 0.000000e+00 1.000000e+00 0.000000e+00 0.000000e+00 0.000000e+00 0.000000e+00 0.000000e+00
 0.000000e+00 5.798126e-01 4.201874e-01 0.000000e+00 0.000000e+00 0.000000e+00 0.000000e+00
 0.000000e+00 0.000000e+00 3.952603e-01 6.047397e-01 0.000000e+00 0.000000e+00 0.000000e+00
 0.000000e+00 0.000000e+00 0.000000e+00 3.265072e-01 6.734928e-01 0.000000e+00 0.000000e+00
 0.000000e+00 0.000000e+00 0.000000e+00 0.000000e+00 6.529537e-01 3.470462e-01 0.000000e+00
 0.000000e+00 0.000000e+00 0.000000e+00 0.000000e+00 0.000000e+00 8.287734e-01 1.712266e-01
 0.000000e+00 0.000000e+00 0.000000e+00 0.000000e+00 0.000000e+00 0.000000e+00 0.000000e+00
<ENDHMM>
~h "e"
<BEGINHMM>
<NUMSTATES> 7
<STATE> 2
<NUMMIXES> 2
<MIXTURE> 1 5.000000e-01
<MEAN> 39
 -4.313095e-01 1.019065e+00 6.886728e-01 9.012570e-01 6.692834e-01 -2.513257e-01 6.582655e-01 -4.631893e-02 -7.221069e-01 -2.035861e-02 -4.835892e-01 4.726667e-01 3.916751e-01 1.253422e+00 8.030804e-02 1.039274e+00 5.273944e-01 -2.291939e-01 -4.848686e-01 -2.771080e-01 2.932818e-01 1.254536e-01 -7.105543e-02 8.045928e-02 4.091220e-01 1.113353e+00 7.744758e-01 -1.793854e-01 4.628604e-01 1.899452e-01 -2.517151e-01 -1.747888e-02 -8.777107e-02 4.242817e-01 3.186153e-01 1.557980e-01 3.361579e-01 4.066529e-01 4.637754e-01
<VARIANCE> 39
 9.384035e-01 1.040349e+00 1.196719e+00 6.258548e-01 7.054062e-01 9.727636e-01 1.111136e+00 8.745875e-01 6.709715e-01 8.274367e-01 7.141120e-01 8.383084e-01 6.584927e-01 1.995970e+00 1.225643e+00 1.712581e+00 1.294503e+00 1.074548e+00 1.578614e+00 1.348234e+00 1.276639e+00 1.043543e+00 1.219509e+00 1.135696e+00 1.301490e+00 1.311556e+00 1.688950e+00 1.403154e+00 1.424422e+00 1.153549e+00 1.164996e+00 1.389672e+00 1.280778e+00 1.285922e+00 1.075754e+00 1.185375e+00 1.149801e+00 1.303853e+00 1.160847e+00
<GCONST> 7.624216e+01
<MIXTURE> 2 5.000000e-01
<MEAN> 39
 -8.187944e-01 6.110749e-01 2.510942e-01 5.848131e-01 3.333296e-01 -6.458409e-01 2.366237e-01 -4.203964e-01 -1.049758e+00 -3.842128e-01 -8.216098e-01 1.064299e-01 6.708477e-02 6.883071e-01 -3.625270e-01 5.158112e-01 7.228945e-02 -6.438355e-01 -9.874402e-01 -7.415619e-01 -1.586720e-01 -2.831622e-01 -5.127810e-01 -3.458169e-01 -4.720943e-02 6.552600e-01 2.546374e-01 -6.532046e-01 -1.453620e-02 -2.396684e-01 -6.834550e-01 -4.890163e-01 -5.404570e-01 -2.931231e-02 -9.625893e-02 -2.797017e-01 -9.275725e-02 -5.009267e-02 3.280498e-02
<VARIANCE> 39
 9.384035e-01 1.040349e+00 1.196719e+00 6.258548e-01 7.054062e-01 9.727636e-01 1.111136e+00 8.745875e-01 6.709715e-01 8.274367e-01 7.141120e-01 8.383084e-01 6.584927e-01 1.995970e+00 1.225643e+00 1.712581e+00 1.294503e+00 1.074548e+00 1.578614e+00 1.348234e+00 1.276639e+00 1.043543e+00 1.219509e+00 1.135696e+00 1.301490e+00 1.311556e+00 1.688950e+00 1.403154e+00 1.424422e+00 1.153549e+00 1.164996e+00 1.389672e+00 1.280778e+00 1.285922e+00 1.075754e+00 1.185375e+00 1.149801e+00 1.303853e+00 1.160847e+00
<GCONST> 7.624216e+01
<STATE> 3
<NUMMIXES> 2
<MIXTURE> 1 5.000000e-01
<MEAN> 39
 4.887846e-01 1.181314e-01 1.512616e+00 1.054940e+00 -4.200684e-01 -1.285142e+00 -4.566574e-01 3.965589e-01 -6.123663e-01 -3.894732e-01 -4.301939e-01 8.250128e-01 8.996083e-01 7.467704e-01 -6.787252e-01 9.151768e-01 -2.704917e-02 -9.354688e-01 -3.701250e-01 -3.959357e-01 7.024649e-01 3.382141e-01 5.524923e-02 5.941995e-01 7.344963e-01 1.281240e+00 -6.441160e-01 4.494635e-01 -2.598086e-01 -2.635624e-02 5.528570e-01 8.314843e-01 5.632144e-01 1.404671e-02 1.227272e-01 3.583863e-01 3.140506e-01 5.162850e-03 -3.746767e-01
<VARIANCE> 39
 2.148857e-01 6.230460e-01 8.917018e-01 5.402210e-01 6.284295e-01 9.517522e-01 7.595424e-01 9.917206e-01 9.131889e-01 8.938327e-01 8.925856e-01 9.170244e-01 4.357826e-01 9.955030e-01 1.138261e+00 1.289466e+00 9.833620e-01 9.076104e-01 1.336583e+00 1.234802e+00 1.147904e+00 1.031694e+00 9.524465e-01 9.957215e-01 1.050493e+00 7.643604e-01 1.144337e+00 1.040860e+00 1.175778e+00 8.885509e-01 9.706183e-01 1.051220e+00 1.012174e+00 1.008700e+00 8.486496e-01 9.048954e-01 8.600372e-01 9.671428e-01 7.293901e-01
<GCONST> 6.706371e+01
<MIXTURE> 2 5.000000e-01
<MEAN> 39
 3.033616e-01 -1.976016e-01 1.134896e+00 7.609415e-01 -7.371626e-01 -1.675374e+00 -8.052643e-01 -1.781851e-03 -9.946099e-01 -7.676442e-01 -8.081009e-01 4.419672e-01 6.355529e-01 3.476708e-01 -1.105482e+00 4.609582e-01 -4.237076e-01 -1.316543e+00 -8.325678e-01 -8.404223e-01 2.739037e-01 -6.807528e-02 -3.351243e-01 1.950561e-01 3.245221e-01 9.315296e-01 -1.072011e+00 4.137330e-02 -6.935418e-01 -4.034082e-01 1.587772e-01 4.213682e-01 1.607870e-01 -3.876895e-01 -2.457615e-01 -2.211769e-02 -5.690217e-02 -3.882108e-01 -7.162941e-01
<VARIANCE> 39
 2.148857e-01 6.230460e-01 8.917018e-01 5.402210e-01 6.284295e-01 9.517522e-01 7.595424e-01 9.917206e-01 9.131889e-01 8.938327e-01 8.925856e-01 9.170244e-01 4.357826e-01 9.955030e-01 1.138261e+00 1.289466e+00 9.833620e-01 9.076104e-01 1.336583e+00 1.234802e+00 1.147904e+00 1.031694e+00 9.524465e-01 9.957215e-01 1.050493e+00 7.643604e-01 1.144337e+00 1.040860e+00 1.175778e+00 8.885509e-01 9.706183e-01 1.051220e+00 1.012174e+00 1.008700e+00 8.486496e-01 9.048954e-01 8.600372e-01 9.671428e-01 7.293901e-01
<GCONST> 6.706371e+01
<STATE> 4
<NUMMIXES> 2
<MIXTURE> 1 5.000000e-01
<MEAN> 39
 5.426349e-01 -2.351517e-01 1.834208e+00 7.647067e-01 -1.128668e+00 -1.338023e+00 -8.049592e-01 6.177745e-01 -7.351702e-01 -4.805818e-01 5.333152e-02 1.195758e+00 1.318838e+00 8.681835e-02 8.873747e-02 2.013104e-01 1.842896e-01 5.569712e-02 1.226254e-01 1.213125e-01 1.762769e-01 8.116530e-02 8.607255e-02 2.216516e-01 1.505078e-01 1.533222e-01 1.009447e-01 2.143569e-01 2.509826e-02 2.613826e-01 3.772905e-01 1.856795e-01 2.338168e-01 1.148562e-01 1.131400e-01 1.293570e-01 9.939104e-03 4.059067e-02 -1.801807e-01
<VARIANCE> 39
 1.848838e-01 3.845457e-01 6.333206e-01 4.505399e-01 4.266561e-01 8.258933e-01 5.764534e-01 1.015821e+00 1.116718e+00 6.720756e-01 1.096847e+00 9.021688e-01 2.771734e-01 2.197667e-01 3.200596e-01 4.987824e-01 4.510317e-01 3.846130e-01 5.219342e-01 4.983979e-01 5.519721e-01 4.796833e-01 5.093624e-01 4.898103e-01 5.634047e-01 2.214548e-01 3.137091e-01 3.556468e-01 4.913741e-01 3.992524e-01 4.871958e-01 5.449261e-01 5.304359e-01 5.288959e-01 4.677066e-01 4.858531e-01 4.596820e-01 5.518511e-01 3.033439e-01
<GCONST> 4.290832e+01
<MIXTURE> 2 5.000000e-01
<MEAN> 39
 3.706425e-01 -4.831987e-01 1.515882e+00 4.962177e-01 -1.389944e+00 -1.701537e+00 -1.108657e+00 2.146227e-01 -1.157870e+00 -8.085027e-01 -3.655903e-01 8.158278e-01 1.108250e+00 -1.006988e-01 -1.375578e-01 -8.118775e-02 -8.434600e-02 -1.923716e-01 -1.663547e-01 -1.610767e-01 -1.209024e-01 -1.958714e-01 -1.994060e-01 -5.829424e-02 -1.497334e-01 -3.491372e-02 -1.230942e-01 -2.418762e-02 -2.552941e-01 8.636951e-03 9.809287e-02 -1.095970e-01 -5.750730e-02 -1.760447e-01 -1.604164e-01 -1.494557e-01 -2.612603e-01 -2.565561e-01 -4.004873e-01
<VARIANCE> 39
 1.848838e-01 3.845457e-01 6.333206e-01 4.505399e-01 4.266561e-01 8.258933e-01 5.764534e-01 1.015821e+00 1.116718e+00 6.720756e-01 1.096847e+00 9.021688e-01 2.771734e-01 2.197667e-01 3.200596e-01 4.987824e-01 4.510317e-01 3.846130e-01 5.219342e-01 4.983979e-01 5.519721e-01 4.796833e-01 5.093624e-01 4.898103e-01 5.634047e-01 2.214548e-01 3.137091e-01 3.556468e-01 4.913741e-01 3.992524e-01 4.871958e-01 5.449261e-01 5.304359e-01 5.288959e-01 4.677066e-01 4.858531e-01 4.596820e-01 5.518511e-01 3.033439e-01
<GCONST> 4.290832e+01
<STATE> 5
<NUMMIXES> 2
<MIXTURE> 1 5.000000e-01
<MEAN> 39
 4.990553e-01 -2.086396e-01 1.814994e+00 1.193099e+00 -7.807978e-01 -1.323488e+00 -6.565543e-01 6.218951e-01 -7.847903e-01 -6.916042e-01 -8.954851e-02 9.765301e-01 1.104524e+00 1.562830e-01 5.050471e-01 -3.305096e-01 5.839926e-01 9.496168e-01 3.814081e-01 6.094061e-01 1.160440e-01 1.625625e-01 2.458366e-01 -1.268746e-01 -1.458574e-01 -6.511227e-01 -1.461937e-01 8.192552e-01 -5.436313e-01 7.269081e-02 8.823127e-01 7.294505e-01 6.417486e-01 -1.105533e-01 2.778366e-01 5.458101e-01 5.689601e-02 -6.055661e-02 -7.797171e-01
<VARIANCE> 39
 2.089657e-01 3.849348e-01 8.153139e-01 5.635353e-01 5.573273e-01 8.676700e-01 6.362903e-01 8.961117e-01 1.089399e+00 8.468805e-01 9.730550e-01 9.094154e-01 3.917185e-01 5.381638e-01 7.055476e-01 1.246718e+00 7.394024e-01 7.060271e-01 9.822831e-01 1.029896e+00 9.369273e-01 8.426665e-01 8.311390e-01 7.092041e-01 8.176004e-01 8.062898e-01 7.316059e-01 7.082680e-01 1.006593e+00 7.269794e-01 7.846826e-01 1.086662e+00 8.860447e-01 8.755867e-01 8.118690e-01 7.776345e-01 6.847149e-01 7.622818e-01 8.797035e-01
<GCONST> 6.076175e+01
<MIXTURE> 2 5.000000e-01
<MEAN> 39
 3.162042e-01 -4.568120e-01 1.453816e+00 8.928230e-01 -1.079415e+00 -1.696084e+00 -9.756255e-01 2.432424e-01 -1.202287e+00 -1.059709e+00 -4.841227e-01 5.950769e-01 8.541742e-01 -1.371556e-01 1.690595e-01 -7.771357e-01 2.400386e-01 6.135152e-01 -1.503271e-02 2.034709e-01 -2.711360e-01 -2.046250e-01 -1.188308e-01 -4.637316e-01 -5.075424e-01 -1.010297e+00 -4.883295e-01 4.826206e-01 -9.449477e-01 -2.683615e-01 5.279835e-01 3.124782e-01 2.652288e-01 -4.848444e-01 -8.257850e-02 1.930757e-01 -2.740940e-01 -4.097916e-01 -1.154887e+00
<VARIANCE> 39
 2.089657e-01 3.849348e-01 8.153139e-01 5.635353e-01 5.573273e-01 8.676700e-01 6.362903e-01 8.961117e-01 1.089399e+00 8.468805e-01 9.730550e-01 9.094154e-01 3.917185e-01 5.381638e-01 7.055476e-01 1.246718e+00 7.394024e-01 7.060271e-01 9.822831e-01 1.029896e+00 9.369273e-01 8.426665e-01 8.311390e-01 7.092041e-01 8.176004e-01 8.062898e-01 7.316059e-01 7.082680e-01 1.006593e+00 7.269794e-01 7.846826e-01 1.086662e+00 8.860447e-01 8.755867e-01 8.118690e-01 7.776345e-01 6.847149e-01 7.622818e-01 8.797035e-01
<GCONST> 6.076175e+01
<STATE> 6
<NUMMIXES> 2
<MIXTURE> 1 5.000000e-01
<MEAN> 39
 2.288093e-01 3.167520e-01 1.065889e+00 8.025807e-01 -7.802686e-02 -5.602365e-01 -1.169814e-01 1.945744e-01 -5.555560e-01 3.668302e-02 -1.495001e-02 6.863655e-01 2.484295e-01 -7.997687e-02 5.597060e-01 -3.748925e-01 1.729633e-01 7.912085e-01 6.570976e-01 5.888027e-01 5.737823e-02 2.739259e-01 4.339211e-01 7.579844e-02 -7.980774e-02 -4.565065e-01 -6.290075e-02 2.810736e-01 1.379734e-01 8.438224e-02 2.122058e-01 3.571857e-01 2.505572e-01 1.989393e-01 2.187546e-01 2.297168e-01 2.102995e-01 2.244083e-01 1.512074e-01
<VARIANCE> 39
 4.927986e-01 6.355479e-01 1.248615e+00 1.043753e+00 7.621826e-01 1.143203e+00 8.380553e-01 9.450526e-01 9.575643e-01 1.354497e+00 1.055302e+00 1.060767e+00 1.130659e+00 6.651423e-01 1.085549e+00 1.365030e+00 9.867435e-01 1.175836e+00 1.323173e+00 1.185839e+00 1.065846e+00 1.024984e+00 1.024409e+00 9.130915e-01 1.060568e+00 1.454986e+00 1.052378e+00 1.031527e+00 1.124530e+00 9.416241e-01 1.023931e+00 1.277121e+00 1.105210e+00 1.105170e+00 1.023415e+00 1.017384e+00 8.698033e-01 1.031588e+00 1.269583e+00
<GCONST> 7.272426e+01
<MIXTURE> 2 5.000000e-01
<MEAN> 39
 -5.198918e-02 -2.133012e-03 6.189233e-01 3.939237e-01 -4.272391e-01 -9.879191e-01 -4.831628e-01 -1.942809e-01 -9.469768e-01 -4.288484e-01 -4.258616e-01 2.743913e-01 -1.769003e-01 -4.062019e-01 1.429472e-01 -8.422305e-01 -2.243765e-01 3.574646e-01 1.969806e-01 1.532177e-01 -3.555810e-01 -1.310401e-01 2.906871e-02 -3.064249e-01 -4.917433e-01 -9.389977e-01 -4.732427e-01 -1.251829e-01 -2.862021e-01 -3.037671e-01 -1.925521e-01 -9.485346e-02 -1.699587e-01 -2.215690e-01 -1.859013e-01 -1.737451e-01 -1.627535e-01 -1.818602e-01 -2.994958e-01
<VARIANCE> 39
 4.927986e-01 6.355479e-01 1.248615e+00 1.043753e+00 7.621826e-01 1.143203e+00 8.380553e-01 9.450526e-01 9.575643e-01 1.354497e+00 1.055302e+00 1.060767e+00 1.130659e+00 6.651423e-01 1.085549e+00 1.365030e+00 9.867435e-01 1.175836e+00 1.323173e+00 1.185839e+00 1.065846e+00 1.024984e+00 1.024409e+00 9.130915e-01 1.060568e+00 1.454986e+00 1.052378e+00 1.031527e+00 1.124530e+00 9.416241e-01 1.023931e+00 1.277121e+00 1.105210e+00 1.105170e+00 1.023415e+00 1.017384e+00 8.698033e-01 1.031588e+00 1.269583e+00
<GCONST> 7.272426e+01
<TRANSP> 7
 0.000000e+00 1.000000e+00 0.000000e+00 0.000000e+00 0.000000e+00 0.000000e+00 0.000000e+00
 0.000000e+00 7.379741e-01 2.620259e-01 0.000000e+00 0.000000e+00 0.000000e+00 0.000000e+00
 0.000000e+00 0.000000e+00 7.060964e-01 2.939036e-01 0.000000e+00 0.000000e+00 0.000000e+00
 0.000000e+00 0.000000e+00 0.000000e+00 8.898787e-01 1.101213e-01 0.000000e+00 0.000000e+00
 0.000000e+00 0.000000e+00 0.000000e+00 0.000000e+00 5.907915e-01 4.092085e-01 0.000000e+00
 0.000000e+00 0.000000e+00 0.000000e+00 0.000000e+00 0.000000e+00 6.280594e-01 3.719406e-01
 0.000000e+00 0.000000e+00 0.000000e+00 0.000000e+00 0.000000e+00 0.000000e+00 0.000000e+00
<ENDHMM>
~h "f"
<BEGINHMM>
<NUMSTATES> 7
<STATE> 2
<NUMMIXES> 2
<MIXTURE> 1 5.000000e-01
<MEAN> 39
 4.996169e-01 3.052526e-01 5.608667e-02 7.932947e-01 7.176121e-01 1.823488e-02 4.796200e-01 6.062299e-01 -5.312733e-01 5.406578e-01 -4.055471e-01 2.962024e-01 6.138655e-01 -5.604408e-01 1.408516e+00 4.245336e-01 8.904606e-01 9.095155e-01 8.022022e-01 8.163959e-01 -1.255694e-02 -8.370090e-02 -1.006247e-01 3.654116e-02 4.474567e-01 -4.322633e-01 -3.499118e-01 1.843217e-01 2.903312e-01 -6.744404e-02 -2.423396e-01 1.641771e-02 -3.643632e-03 -2.625407e-02 7.659848e-02 5.160980e-02 1.728766e-01 3.035543e-01 6.851479e-01
<VARIANCE> 39
 4.872617e-01 6.085870e-01 7.933649e-01 6.144412e-01 5.920819e-01 1.069529e+00 7.427532e-01 1.112828e+00 7.195049e-01 8.454231e-01 7.093440e-01 9.607207e-01 8.380796e-01 1.744818e+00 1.721937e+00 1.776709e+00 1.572393e+00 1.123463e+00 1.679841e+00 1.616910e+00 1.631478e+00 1.523695e+00 1.547646e+00 1.187778e+00 1.539626e+00 1.887668e+00 1.817921e+00 1.735395e+00 1.553095e+00 1.421239e+00 1.373499e+00 1.674282e+00 1.311778e+00 1.385315e+00 1.142564e+00 1.416018e+00 1.148393e+00 1.412663e+00 1.797666e+00
<GCONST> 7.879012e+01
<MIXTURE> 2 5.000000e-01
<MEAN> 39
 2.204003e-01 -6.795377e-03 -3.001975e-01 4.797495e-01 4.098247e-01 -3.954373e-01 1.348874e-01 1.842673e-01 -8.705679e-01 1.728702e-01 -7.424373e-01 -9.586303e-02 2.476787e-01 -1.088807e+00 8.836257e-01 -1.086394e-01 3.888802e-01 4.855413e-01 2.837674e-01 3.077648e-01 -5.234742e-01 -5.774531e-01 -5.982423e-01 -3.993998e-01 -4.886994e-02 -9.818330e-01 -8.892330e-01 -3.426158e-01 -2.081617e-01 -5.443070e-01 -7.111251e-01 -5.011585e-01 -4.617752e-01 -4.970517e-01 -3.509647e-01 -4.243764e-01 -2.557758e-01 -1.718677e-01 1.488397e-01
<VARIANCE> 39
 4.872617e-01 6.085870e-01 7.933649e-01 6.144412e-01 5.920819e-01 1.069529e+00 7.427532e-01 1.112828e+00 7.195049e-01 8.454231e-01 7.093440e-01 9.607207e-01 8.380796e-01 1.744818e+00 1.721937e+00 1.776709e+00 1.572393e+00 1.123463e+00 1.679841e+00 1.616910e+00 1.631478e+00 1.523695e+00 1.547646e+00 1.187778e+00 1.539626e+00 1.887668e+00 1.817921e+00 1.735395e+00 1.553095e+00 1.421239e+00 1.373499e+00 1.674282e+00 1.311778e+00 1.385315e+00 1.142564e+00 1.416018e+00 1.148393e+00 1.412663e+00 1.797666e+00
<GCONST> 7.879012e+01
<STATE> 3
<NUMMIXES> 2
<MIXTURE> 1 5.000000e-01
<MEAN> 39
 -2.114860e-01 1.005358e+00 2.559512e-01 9.951432e-01 8.326724e-01 2.142997e-01 7.914073e-01 2.242012e-01 -9.075747e-01 9.004719e-02 -5.667437e-01 5.918783e-01 2.812351e-01 -4.645713e-01 3.289261e-01 3.677651e-02 1.001065e-01 -3.720760e-02 -1.753033e-01 3.286339e-02 -6.369394e-02 -1.316035e-01 8.771998e-02 5.680981e-02 4.083107e-01 6.516130e-01 6.980415e-01 -2.046211e-01 1.808490e-02 -1.806713e-01 -2.207400e-01 -8.757071e-02 -7.346973e-02 1.972335e-01 1.955951e-01 3.081692e-01 2.869031e-01 1.923293e-01 6.427237e-01
<VARIANCE> 39
 5.249988e-01 3.510908e-01 6.606319e-01 3.498222e-01 3.363182e-01 5.631584e-01 5.507025e-01 7.974734e-01 4.185274e-01 5.345078e-01 5.231229e-01 7.531854e-01 6.143529e-01 1.362690e+00 9.527405e-01 1.080684e+00 1.115689e+00 8.945821e-01 1.225599e+00 1.271741e+00 1.369865e+00 1.138259e+00 1.128920e+00 1.125963e+00 1.313349e+00 9.518403e-01 1.629723e+00 1.384996e+00 1.342251e+00 1.141550e+00 1.089122e+00 1.290789e+00 1.414690e+00 1.522967e+00 1.238658e+00 1.342071e+00 1.165501e+00 1.470561e+00 1.247838e+00
<GCONST> 6.842387e+01
<MIXTURE> 2 5.000000e-01
<MEAN> 39
 -5.013132e-01 7.683462e-01 -6.916589e-02 7.585601e-01 6.007005e-01 -8.587580e-02 4.945700e-01 -1.330043e-01 -1.166349e+00 -2.023930e-01 -8.560526e-01 2.447333e-01 -3.228753e-02 -9.315085e-01 -6.150755e-02 -3.790473e-01 -3.223982e-01 -4.155370e-01 -6.181303e-01 -4.182226e-01 -5.318589e-01 -5.583603e-01 -3.372826e-01 -3.676358e-01 -5.009508e-02 2.613638e-01 1.873991e-01 -6.753645e-01 -4.453373e-01 -6.080447e-01 -6.381840e-01 -5.420223e-01 -5.492327e-01 -2.964007e-01 -2.495850e-01 -1.552220e-01 -1.449304e-01 -2.927374e-01 1.958970e-01
<VARIANCE> 39
 5.249988e-01 3.510908e-01 6.606319e-01 3.498222e-01 3.363182e-01 5.631584e-01 5.507025e-01 7.974734e-01 4.185274e-01 5.345078e-01 5.231229e-01 7.531854e-01 6.143529e-01 1.362690e+00 9.527405e-01 1.080684e+00 1.115689e+00 8.945821e-01 1.225599e+00 1.271741e+00 1.369865e+00 1.138259e+00 1.128920e+00 1.125963e+00 1.313349e+00 9.518403e-01 1.629723e+00 1.384996e+00 1.342251e+00 1.141550e+00 1.089122e+00 1.290789e+00 1.414690e+00 1.522967e+00 1.238658e+00 1.342071e+00 1.165501e+00 1.470561e+00 1.247838e+00
<GCONST> 6.842387e+01
<STATE> 4
<NUMMIXES> 2
<MIXTURE> 1 5.000000e-01
<MEAN> 39
 -2.629163e-01 1.137731e+00 -2.475865e-02 8.146625e-01 3.536825e-01 -4.995346e-01 6.909332e-02 -4.536081e-01 -1.503147e+00 -1.617861e-01 -7.922844e-01 6.979378e-01 4.231203e-01 -1.074694e-02 9.871611e-02 1.190159e-01 8.675016e-02 9.348067e-02 1.426353e-01 2.108470e-01 1.719368e-01 1.497532e-01 2.484359e-01 1.906723e-01 2.398699e-01 4.245901e-01 3.739020e-01 4.983027e-02 2.307424e-01 1.963995e-01 3.380339e-01 4.865386e-01 4.703406e-01 4.753489e-01 4.640580e-01 3.578715e-01 3.303930e-01 1.847051e-01 1.623405e-01
<VARIANCE> 39
 2.177649e-01 2.440869e-01 4.904799e-01 3.802951e-01 3.686143e-01 4.871193e-01 5.365563e-01 7.706325e-01 4.983706e-01 4.796886e-01 6.118022e-01 8.252731e-01 3.998561e-01 5.723259e-01 5.132009e-01 8.164998e-01 8.262228e-01 7.439267e-01 9.535030e-01 1.026807e+00 1.203188e+00 9.945683e-01 1.125862e+00 1.114881e+00 1.205521e+00 4.855723e-01 7.569370e-01 6.728738e-01 1.026417e+00 9.230306e-01 9.604738e-01 1.150590e+00 1.250939e+00 1.369677e+00 1.187572e+00 1.327684e+00 1.308764e+00 1.394308e+00 5.249396e-01
<GCONST> 5.968969e+01
<MIXTURE> 2 5.000000e-01
<MEAN> 39
 -4.495775e-01 9.401107e-01 -3.048958e-01 5.679902e-01 1.108281e-01 -7.787104e-01 -2.239067e-01 -8.047508e-01 -1.785529e+00 -4.388243e-01 -1.105155e+00 3.345596e-01 1.701836e-01 -3.133559e-01 -1.878361e-01 -2.424256e-01 -2.768371e-01 -2.515241e-01 -2.479547e-01 -1.944790e-01 -2.668230e-01 -2.491590e-01 -1.759907e-01 -2.316794e-01 -1.993150e-01 1.458579e-01 2.589345e-02 -2.782853e-01 -1.745065e-01 -1.878984e-01 -5.398114e-02 5.747639e-02 2.295902e-02 7.216096e-03 2.815485e-02 -1.030291e-01 -1.272118e-01 -2.876182e-01 -1.274703e-01
<VARIANCE> 39
 2.177649e-01 2.440869e-01 4.904799e-01 3.802951e-01 3.686143e-01 4.871193e-01 5.365563e-01 7.706325e-01 4.983706e-01 4.796886e-01 6.118022e-01 8.252731e-01 3.998561e-01 5.723259e-01 5.132009e-01 8.164998e-01 8.262228e-01 7.439267e-01 9.535030e-01 1.026807e+00 1.203188e+00 9.945683e-01 1.125862e+00 1.114881e+00 1.205521e+00 4.855723e-01 7.569370e-01 6.728738e-01 1.026417e+00 9.230306e-01 9.604738e-01 1.150590e+00 1.250939e+00 1.369677e+00 1.187572e+00 1.327684e+00 1.308764e+00 1.394308e+00 5.249396e-01
<GCONST> 5.968969e+01
<STATE> 5
<NUMMIXES> 2
<MIXTURE> 1 5.000000e-01
<MEAN> 39
 -3.665140e-01 6.090781e-01 -3.102206e-01 6.407197e-01 4.934427e-01 2.361561e-02 6.988453e-01 2.388509e-01 -1.050984e+00 2.802481e-01 -6.568451e-01 5.646074e-01 1.137050e+00 2.401617e-01 -6.531626e-03 4.596967e-02 6.998228e-02 1.640261e-01 3.136319e-01 2.942721e-01 3.008196e-01 2.993029e-01 2.708285e-01 2.878556e-01 1.613396e-01 3.336200e-01 4.378591e-01 1.889366e-01 3.245310e-01 2.698447e-01 2.281315e-01 2.230247e-01 1.594030e-01 2.143898e-01 2.012758e-01 1.526677e-01 2.116146e-01 2.019716e-01 -5.806160e-02
<VARIANCE> 39
 1.847761e-01 2.356253e-01 4.397692e-01 3.190939e-01 3.187790e-01 5.036436e-01 4.480571e-01 7.385466e-01 3.770030e-01 3.682664e-01 4.360404e-01 7.063398e-01 2.426039e-01 6.145971e-01 4.948846e-01 8.135639e-01 8.152869e-01 7.045391e-01 9.994956e-01 9.778951e-01 1.152262e+00 9.122102e-01 9.399454e-01 9.768892e-01 1.225971e+00 4.142451e-01 7.163392e-01 6.268896e-01 9.903014e-01 9.250756e-01 9.587857e-01 1.160899e+00 1.157145e+00 1.284277e+00 1.025789e+00 1.126953e+00 1.116220e+00 1.385280e+00 5.010247e-01
<GCONST> 5.589370e+01
<MIXTURE> 2 5.000000e-01
<MEAN> 39
 -5.384564e-01 4.149131e-01 -5.754810e-01 4.147661e-01 2.676007e-01 -2.602558e-01 4.310971e-01 -1.049041e-01 -1.296586e+00 3.750829e-02 -9.209785e-01 2.284313e-01 9.400303e-01 -7.342327e-02 -2.879238e-01 -3.148215e-01 -2.911907e-01 -1.717212e-01 -8.626726e-02 -1.012822e-01 -1.285543e-01 -8.273590e-02 -1.169747e-01 -1.074952e-01 -2.815547e-01 7.617244e-02 9.931177e-02 -1.277689e-01 -7.352458e-02 -1.148787e-01 -1.635390e-01 -2.079554e-01 -2.708797e-01 -2.389140e-01 -2.038492e-01 -2.719645e-01 -2.109906e-01 -2.688201e-01 -3.411940e-01
<VARIANCE> 39
 1.847761e-01 2.356253e-01 4.397692e-01 3.190939e-01 3.187790e-01 5.036436e-01 4.480571e-01 7.385466e-01 3.770030e-01 3.682664e-01 4.360404e-01 7.063398e-01 2.426039e-01 6.145971e-01 4.948846e-01 8.135639e-01 8.152869e-01 7.045391e-01 9.994956e-01 9.778951e-01 1.152262e+00 9.122102e-01 9.399454e-01 9.768892e-01 1.225971e+00 4.142451e-01 7.163392e-01 6.268896e-01 9.903014e-01 9.250756e-01 9.587857e-01 1.160899e+00 1.157145e+00 1.284277e+00 1.025789e+00 1.126953e+00 1.116220e+00 1.385280e+00 5.010247e-01
<GCONST> 5.589370e+01
<STATE> 6
<NUMMIXES> 2
<MIXTURE> 1 5.000000e-01
<MEAN> 39
 -6.750796e-01 6.841865e-01 1.042019e-01 5.693139e-01 4.662942e-01 2.411032e-01 9.523671e-01 1.046891e-01 -8.887457e-01 2.812464e-01 -4.285915e-01 4.767610e-01 1.141441e+00 2.976126e-01 1.447696e-01 3.219795e-01 1.642220e-01 2.549564e-01 3.154063e-01 1.880348e-01 2.200623e-01 2.384859e-01 1.403467e-01 2.057268e-01 1.863037e-01 1.953941e-02 4.678764e-01 2.077671e-01 3.024006e-01 2.855837e-01 2.328629e-01 1.259124e-01 8.962516e-02 1.953140e-01 1.295832e-01 1.592566e-01 2.023464e-01 2.512890e-01 -2.091557e-03
<VARIANCE> 39
 6.573818e-01 5.768868e-01 1.181879e+00 5.915968e-01 4.470094e-01 5.917995e-01 4.640415e-01 9.221686e-01 4.553777e-01 5.360542e-01 5.174662e-01 7.520892e-01 3.603054e-01 6.581386e-01 4.705977e-01 6.893228e-01 7.701088e-01 6.804020e-01 9.501082e-01 9.180108e-01 1.002940e+00 8.125613e-01 9.478171e-01 9.745064e-01 1.093991e+00 3.183998e-01 7.139271e-01 6.171698e-01 9.235119e-01 9.064574e-01 9.166933e-01 1.114246e+00 1.133986e+00 1.144995e+00 9.262078e-01 1.183856e+00 1.158338e+00 1.227207e+00 3.997840e-01
<GCONST> 5.994271e+01
<MIXTURE> 2 5.000000e-01
<MEAN> 39
 -9.993960e-01 3.803743e-01 -3.306551e-01 2.616525e-01 1.988592e-01 -6.661084e-02 6.798847e-01 -2.794293e-01 -1.158672e+00 -1.161654e-02 -7.163320e-01 1.298687e-01 9.013391e-01 -2.689038e-02 -1.296309e-01 -1.012243e-02 -1.868014e-01 -7.498957e-02 -7.448769e-02 -1.952167e-01 -1.805253e-01 -1.220828e-01 -2.490769e-01 -1.891416e-01 -2.320724e-01 -2.061683e-01 1.298996e-01 -1.064735e-01 -8.199745e-02 -9.524854e-02 -1.501135e-01 -2.963190e-01 -3.363300e-01 -2.327037e-01 -2.553755e-01 -2.759640e-01 -2.281581e-01 -1.918284e-01 -2.550054e-01
<VARIANCE> 39
 6.573818e-01 5.768868e-01 1.181879e+00 5.915968e-01 4.470094e-01 5.917995e-01 4.640415e-01 9.221686e-01 4.553777e-01 5.360542e-01 5.174662e-01 7.520892e-01 3.603054e-01 6.581386e-01 4.705977e-01 6.893228e-01 7.701088e-01 6.804020e-01 9.501082e-01 9.180108e-01 1.002940e+00 8.125613e-01 9.478171e-01 9.745064e-01 1.093991e+00 3.183998e-01 7.139271e-01 6.171698e-01 9.235119e-01 9.064574e-01 9.166933e-01 1.114246e+00 1.133986e+00 1.144995e+00 9.262078e-01 1.183856e+00 1.158338e+00 1.227207e+00 3.997840e-01
<GCONST> 5.994271e+01
<TRANSP> 7
 0.000000e+00 1.000000e+00 0.000000e+00 0.000000e+00 0.000000e+00 0.000000e+00 0.000000e+00
 0.000000e+00 6.357099e-01 3.642901e-01 0.000000e+00 0.000000e+00 0.000000e+00 0.000000e+00
 0.000000e+00 0.000000e+00 7.052874e-01 2.947126e-01 0.000000e+00 0.000000e+00 0.000000e+00
 0.000000e+00 0.000000e+00 0.000000e+00 8.446494e-01 1.553506e-01 0.000000e+00 0.000000e+00
 0.000000e+00 0.000000e+00 0.000000e+00 0.000000e+00 8.514614e-01 1.485386e-01 0.000000e+00
 0.000000e+00 0.000000e+00 0.000000e+00 0.000000e+00 0.000000e+00 8.014193e-01 1.985807e-01
 0.000000e+00 0.000000e+00 0.000000e+00 0.000000e+00 0.000000e+00 0.000000e+00 0.000000e+00
<ENDHMM>
~h "g"
<BEGINHMM>
<NUMSTATES> 7
<STATE> 2
<NUMMIXES> 2
<MIXTURE> 1 5.000000e-01
<MEAN> 39
 6.250031e-01 -2.496350e-01 8.440223e-01 9.158878e-01 -2.264234e-01 -8.750964e-01 -1.700509e-01 8.444166e-01 -6.614892e-01 -3.813003e-02 1.926632e-01 4.635381e-01 7.231385e-01 -2.665547e-02 6.379814e-01 6.019408e-01 9.489647e-01 8.911252e-01 4.967996e-01 2.438269e-01 -2.012586e-01 -2.882501e-01 -1.251411e-01 -6.739001e-02 9.837954e-02 -9.281242e-01 -1.636242e-01 2.604877e-01 -1.138620e-01 2.246956e-01 7.161860e-01 6.916636e-01 4.086002e-01 4.300556e-02 4.972630e-01 3.072981e-01 -2.303125e-01 -1.155513e-01 -3.934013e-01
<VARIANCE> 39
 3.512190e-01 6.786860e-01 1.128577e+00 7.347058e-01 1.118742e+00 1.797389e+00 9.736508e-01 1.824294e+00 1.458171e+00 1.017431e+00 1.252792e+00 1.196581e+00 7.650619e-01 8.104188e-01 8.986827e-01 1.730501e+00 1.093215e+00 1.420528e+00 1.639389e+00 1.382960e+00 1.553999e+00 1.606888e+00 1.112001e+00 1.560673e+00 1.263590e+00 1.653370e+00 8.700652e-01 8.189557e-01 1.475879e+00 9.085540e-01 1.072796e+00 1.365569e+00 1.112794e+00 1.202622e+00 1.302258e+00 1.067338e+00 1.283027e+00 1.079418e+00 1.065144e+00
<GCONST> 7.689940e+01
<MIXTURE> 2 5.000000e-01
<MEAN> 39
 3.879482e-01 -5.791646e-01 4.190843e-01 5.730280e-01 -6.495058e-01 -1.411363e+00 -5.647459e-01 3.041508e-01 -1.144508e+00 -4.416012e-01 -2.550496e-01 2.598472e-02 3.732672e-01 -3.867485e-01 2.587858e-01 7.574669e-02 5.307370e-01 4.143816e-01 -1.535496e-02 -2.265704e-01 -6.998966e-01 -7.953025e-01 -5.469469e-01 -5.670976e-01 -3.512585e-01 -1.442458e+00 -5.367334e-01 -1.014970e-01 -5.998050e-01 -1.565768e-01 3.018825e-01 2.242334e-01 -1.335600e-02 -3.956510e-01 4.079697e-02 -1.059501e-01 -6.833957e-01 -5.311315e-01 -8.062246e-01
<VARIANCE> 39
 3.512190e-01 6.786860e-01 1.128577e+00 7.347058e-01 1.118742e+00 1.797389e+00 9.736508e-01 1.824294e+00 1.458171e+00 1.017431e+00 1.252792e+00 1.196581e+00 7.650619e-01 8.104188e-01 8.986827e-01 1.730501e+00 1.093215e+00 1.420528e+00 1.639389e+00 1.382960e+00 1.553999e+00 1.606888e+00 1.112001e+00 1.560673e+00 1.263590e+00 1.653370e+00 8.700652e-01 8.189557e-01 1.475879e+00 9.085540e-01 1.072796e+00 1.365569e+00 1.112794e+00 1.202622e+00 1.302258e+00 1.067338e+00 1.283027e+00 1.079418e+00 1.065144e+00
<GCONST> 7.689940e+01
<STATE> 3
<NUMMIXES> 2
<MIXTURE> 1 5.000000e-01
<MEAN> 39
 3.930774e-01 1.496719e-01 5.352383e-01 1.515116e+00 1.087642e+00 -4.223368e-02 1.276672e-02 -1.470293e-02 -8.442019e-01 -1.893096e-01 -6.629836e-01 -8.183832e-02 -3.129176e-01 -4.438004e-01 7.211651e-01 3.584845e-01 9.426488e-01 1.329074e+00 6.871630e-01 2.263108e-01 3.607988e-02 7.855139e-01 3.344489e-01 -5.476225e-01 -2.135347e-01 -1.138845e+00 2.418078e-01 8.514364e-02 4.286445e-01 -3.088173e-01 -6.357391e-01 -1.829406e-01 1.010094e-01 5.889144e-01 5.534880e-01 4.942211e-01 5.719873e-01 4.323868e-01 1.133037e+00
<VARIANCE> 39
 2.941647e-01 5.445159e-01 8.974547e-01 7.563869e-01 8.391980e-01 1.096163e+00 1.077876e+00 1.193582e+00 1.108947e+00 7.848313e-01 8.851507e-01 8.630490e-01 4.015713e-01 9.867005e-01 1.407347e+00 1.747582e+00 1.386747e+00 1.209727e+00 2.052137e+00 1.700617e+00 1.771960e+00 1.572296e+00 1.501091e+00 1.492613e+00 1.173770e+00 1.607033e+00 8.616449e-01 1.208561e+00 1.430767e+00 1.038133e+00 1.039358e+00 1.249675e+00 1.280586e+00 1.434380e+00 1.302654e+00 1.233338e+00 1.231522e+00 1.013724e+00 1.158629e+00
<GCONST> 7.557491e+01
<MIXTURE> 2 5.000000e-01
<MEAN> 39
 1.761296e-01 -1.454934e-01 1.563019e-01 1.167234e+00 7.212107e-01 -4.610249e-01 -4.025165e-01 -4.517077e-01 -1.265428e+00 -5.436724e-01 -1.039313e+00 -4.534401e-01 -5.663962e-01 -8.411316e-01 2.466385e-01 -1.703001e-01 4.716078e-01 8.891239e-01 1.141517e-01 -2.953201e-01 -4.963801e-01 2.839489e-01 -1.556272e-01 -1.036313e+00 -6.468973e-01 -1.645921e+00 -1.294915e-01 -3.545946e-01 -4.981415e-02 -7.163725e-01 -1.043535e+00 -6.300961e-01 -3.516425e-01 1.098520e-01 9.695254e-02 4.999809e-02 1.280915e-01 2.965137e-02 7.024785e-01
<VARIANCE> 39
 2.941647e-01 5.445159e-01 8.974547e-01 7.563869e-01 8.391980e-01 1.096163e+00 1.077876e+00 1.193582e+00 1.108947e+00 7.848313e-01 8.851507e-01 8.630490e-01 4.015713e-01 9.867005e-01 1.407347e+00 1.747582e+00 1.386747e+00 1.209727e+00 2.052137e+00 1.700617e+00 1.771960e+00 1.572296e+00 1.501091e+00 1.492613e+00 1.173770e+00 1.607033e+00 8.616449e-01 1.208561e+00 1.430767e+00 1.038133e+00 1.039358e+00 1.249675e+00 1.280586e+00 1.434380e+00 1.302654e+00 1.233338e+00 1.231522e+00 1.013724e+00 1.158629e+00
<GCONST> 7.557491e+01
<STATE> 4
<NUMMIXES> 2
<MIXTURE> 1 5.000000e-01
<MEAN> 39
 1.024373e-01 -8.552234e-02 2.422688e-01 1.811548e+00 1.627012e+00 -2.346554e-01 -4.475015e-01 2.791338e-01 3.905529e-01 2.518519e-01 -1.492185e+00 -6.064593e-01 -7.780128e-01 -6.011158e-02 4.161388e-01 2.543691e-01 -1.553237e-02 1.757243e-01 5.186848e-01 4.904419e-01 1.156749e-01 1.620726e-01 3.423330e-01 4.662813e-01 3.625730e-01 5.283192e-02 3.613429e-01 1.984782e-01 1.000523e-01 -3.455112e-01 -2.740799e-01 3.258833e-01 4.869190e-01 1.540112e-01 -1.778697e-01 3.334202e-01 7.174746e-01 4.826081e-01 7.855675e-01
<VARIANCE> 39
 2.277845e-01 7.615403e-01 8.488296e-01 8.224735e-01 8.949115e-01 1.040677e+00 1.337605e+00 9.389276e-01 1.609984e+00 8.313510e-01 1.334323e+00 1.065779e+00 3.813592e-01 6.000719e-01 1.269623e+00 1.314337e+00 1.382414e+00 9.485289e-01 1.133729e+00 1.276086e+00 1.228598e+00 1.701848e+00 1.153405e+00 1.433655e+00 1.128947e+00 1.004395e+00 9.308711e-01 1.250073e+00 1.485239e+00 1.182764e+00 1.127072e+00 1.159054e+00 1.270075e+00 1.234781e+00 1.499525e+00 1.137646e+00 1.333617e+00 1.081134e+00 1.410614e+00
<GCONST> 7.408653e+01
<MIXTURE> 2 5.000000e-01
<MEAN> 39
 -8.846983e-02 -4.345874e-01 -1.262590e-01 1.448786e+00 1.248612e+00 -6.427096e-01 -9.101211e-01 -1.084593e-01 -1.169877e-01 -1.128619e-01 -1.954237e+00 -1.019405e+00 -1.025030e+00 -3.699688e-01 -3.457141e-02 -2.042091e-01 -4.858368e-01 -2.138455e-01 9.277797e-02 3.858605e-02 -3.276937e-01 -3.597470e-01 -8.725378e-02 -1.266007e-02 -6.243463e-02 -3.480461e-01 -2.458373e-02 -2.487484e-01 -3.874293e-01 -7.805310e-01 -6.987345e-01 -1.047543e-01 3.612861e-02 -2.904716e-01 -6.676900e-01 -9.322178e-02 2.555452e-01 6.669772e-02 3.104905e-01
<VARIANCE> 39
 2.277845e-01 7.615403e-01 8.488296e-01 8.224735e-01 8.949115e-01 1.040677e+00 1.337605e+00 9.389276e-01 1.609984e+00 8.313510e-01 1.334323e+00 1.065779e+00 3.813592e-01 6.000719e-01 1.269623e+00 1.314337e+00 1.382414e+00 9.485289e-01 1.133729e+00 1.276086e+00 1.228598e+00 1.701848e+00 1.153405e+00 1.433655e+00 1.128947e+00 1.004395e+00 9.308711e-01 1.250073e+00 1.485239e+00 1.182764e+00 1.127072e+00 1.159054e+00 1.270075e+00 1.234781e+00 1.499525e+00 1.137646e+00 1.333617e+00 1.081134e+00 1.410614e+00
<GCONST> 7.408653e+01
<STATE> 5
<NUMMIXES> 2
<MIXTURE> 1 5.000000e-01
<MEAN> 39
 1.119734e-02 9.086806e-01 9.202409e-01 1.079765e+00 8.290753e-01 4.697255e-01 6.605357e-01 -2.283849e-01 -8.179457e-01 8.595312e-02 -6.401306e-01 -5.589882e-02 -1.034836e+00 -1.109234e-01 1.098056e-01 1.248035e-01 -4.227549e-02 6.989832e-02 2.700188e-01 2.913882e-01 1.688717e-01 2.361954e-01 3.794868e-01 2.894425e-01 3.135260e-01 2.256472e-01 1.285558e-01 -1.431438e-02 8.053948e-02 1.196612e-01 1.169949e-01 7.636086e-02 1.071914e-01 2.538195e-01 2.177898e-01 2.250747e-01 1.763530e-01 2.365828e-01 6.083553e-01
<VARIANCE> 39
 1.603943e-01 4.514351e-01 5.090461e-01 3.981805e-01 4.583622e-01 5.980188e-01 6.451945e-01 7.170143e-01 5.280761e-01 6.173498e-01 8.214958e-01 1.051928e+00 2.333658e-01 3.750650e-01 8.930418e-01 8.037524e-01 8.870806e-01 6.702259e-01 7.536988e-01 7.737327e-01 8.143178e-01 9.312122e-01 1.023300e+00 9.174129e-01 1.015694e+00 6.876151e-01 6.192232e-01 9.789690e-01 9.970180e-01 9.063926e-01 8.072080e-01 8.585325e-01 8.550475e-01 8.838024e-01 9.989316e-01 1.114599e+00 9.455637e-01 1.071577e+00 1.014888e+00
<GCONST> 5.848507e+01
<MIXTURE> 2 5.000000e-01
<MEAN> 39
 -1.489997e-01 6.399249e-01 6.348510e-01 8.273588e-01 5.582655e-01 1.603988e-01 3.392397e-01 -5.670917e-01 -1.108621e+00 -2.283333e-01 -1.002676e+00 -4.661530e-01 -1.228068e+00 -3.558936e-01 -2.681980e-01 -2.338055e-01 -4.190153e-01 -2.575710e-01 -7.724455e-02 -6.046015e-02 -1.920865e-01 -1.498019e-01 -2.514639e-02 -9.368423e-02 -8.960060e-02 -1.060430e-01 -1.862071e-01 -4.100858e-01 -3.188637e-01 -2.611574e-01 -2.423841e-01 -2.942673e-01 -2.626837e-01 -1.222236e-01 -1.819965e-01 -1.972236e-01 -2.126074e-01 -1.774852e-01 2.053887e-01
<VARIANCE> 39
 1.603943e-01 4.514351e-01 5.090461e-01 3.981805e-01 4.583622e-01 5.980188e-01 6.451945e-01 7.170143e-01 5.280761e-01 6.173498e-01 8.214958e-01 1.051928e+00 2.333658e-01 3.750650e-01 8.930418e-01 8.037524e-01 8.870806e-01 6.702259e-01 7.536988e-01 7.737327e-01 8.143178e-01 9.312122e-01 1.023300e+00 9.174129e-01 1.015694e+00 6.876151e-01 6.192232e-01 9.789690e-01 9.970180e-01 9.063926e-01 8.072080e-01 8.585325e-01 8.550475e-01 8.838024e-01 9.989316e-01 1.114599e+00 9.455637e-01 1.071577e+00 1.014888e+00
<GCONST> 5.848507e+01
<STATE> 6
<NUMMIXES> 2
<MIXTURE> 1 5.000000e-01
<MEAN> 39
 -7.741621e-01 2.185232e-01 -2.185375e-01 -4.332256e-01 1.136687e-01 1.120278e-02 -3.241259e-02 -1.053901e-01 2.913503e-01 8.387537e-01 1.630784e-01 4.323188e-01 -1.421119e+00 7.628963e-02 1.644979e-01 1.604052e-01 1.575109e-01 1.256429e-01 1.556840e-01 1.722900e-01 1.834225e-01 1.670609e-01 2.081020e-01 2.008838e-01 2.038848e-01 2.215723e-01 1.970005e-01 2.212070e-01 2.178968e-01 2.424104e-01 1.799943e-01 1.646534e-01 1.773616e-01 2.038467e-01 1.784015e-01 1.820248e-01 1.823649e-01 1.855320e-01 2.565221e-01
<VARIANCE> 39
 1.244861e-01 2.594004e-01 3.621083e-01 4.072258e-01 3.247144e-01 6.088305e-01 4.428072e-01 7.113276e-01 4.687622e-01 5.854483e-01 5.773079e-01 8.487948e-01 2.138279e-01 2.429790e-01 7.853332e-01 7.239096e-01 9.076583e-01 5.421456e-01 6.430526e-01 6.873761e-01 8.403971e-01 7.956474e-01 9.439315e-01 9.789843e-01 9.096693e-01 6.284361e-01 5.159571e-01 9.968498e-01 9.475822e-01 1.103440e+00 7.135476e-01 7.810006e-01 8.298366e-01 9.513815e-01 1.001487e+00 1.107171e+00 1.078593e+00 9.353021e-01 7.934958e-01
<GCONST> 5.389864e+01
<MIXTURE> 2 5.000000e-01
<MEAN> 39
 -9.152924e-01 1.479777e-02 -4.592393e-01 -6.884826e-01 -1.142661e-01 -3.009076e-01 -2.985876e-01 -4.427511e-01 1.748548e-02 5.326953e-01 -1.408447e-01 6.379858e-02 -1.606085e+00 -1.208820e-01 -1.899782e-01 -1.799263e-01 -2.235735e-01 -1.688793e-01 -1.650782e-01 -1.593426e-01 -1.832702e-01 -1.897354e-01 -1.805226e-01 -1.948908e-01 -1.776215e-01 -9.552357e-02 -9.032010e-02 -1.781624e-01 -1.714785e-01 -1.777686e-01 -1.578927e-01 -1.888436e-01 -1.870199e-01 -1.863085e-01 -2.218958e-01 -2.388640e-01 -2.330565e-01 -2.013121e-01 -9.979144e-02
<VARIANCE> 39
 1.244861e-01 2.594004e-01 3.621083e-01 4.072258e-01 3.247144e-01 6.088305e-01 4.428072e-01 7.113276e-01 4.687622e-01 5.854483e-01 5.773079e-01 8.487948e-01 2.138279e-01 2.429790e-01 7.853332e-01 7.239096e-01 9.076583e-01 5.421456e-01 6.430526e-01 6.873761e-01 8.403971e-01 7.956474e-01 9.439315e-01 9.789843e-01 9.096693e-01 6.284361e-01 5.159571e-01 9.968498e-01 9.475822e-01 1.103440e+00 7.135476e-01 7.810006e-01 8.298366e-01 9.513815e-01 1.001487e+00 1.107171e+00 1.078593e+00 9.353021e-01 7.934958e-01
<GCONST> 5.389864e+01
<TRANSP> 7
 0.000000e+00 1.000000e+00 0.000000e+00 0.000000e+00 0.000000e+00 0.000000e+00 0.000000e+00
 0.000000e+00 7.340764e-01 2.659235e-01 0.000000e+00 0.000000e+00 0.000000e+00 0.000000e+00
 0.000000e+00 0.000000e+00 5.453914e-01 4.546086e-01 0.000000e+00 0.000000e+00 0.000000e+00
 0.000000e+00 0.000000e+00 0.000000e+00 6.878080e-01 3.121920e-01 0.000000e+00 0.000000e+00
 0.000000e+00 0.000000e+00 0.000000e+00 0.000000e+00 8.567235e-01 1.432765e-01 0.000000e+00
 0.000000e+00 0.000000e+00 0.000000e+00 0.000000e+00 0.000000e+00 9.417518e-01 5.824824e-02
 0.000000e+00 0.000000e+00 0.000000e+00 0.000000e+00 0.000000e+00 0.000000e+00 0.000000e+00
<ENDHMM>
~h "h"
<BEGINHMM>
<NUMSTATES> 7
<STATE> 2
<NUMMIXES> 2
<MIXTURE> 1 5.000000e-01
<MEAN> 39
 -3.703250e-01 1.673721e-01 4.295700e-01 6.278625e-01 4.039836e-01 4.248004e-01 5.367897e-01 1.078437e-01 -7.179880e-01 2.472020e-01 1.031683e-01 7.657815e-01 -2.889268e-02 9.243453e-01 -6.724548e-02 7.219433e-01 1.162953e+00 2.012799e-01 2.138091e-01 3.664833e-01 3.451853e-01 -1.367019e-01 -7.036492e-03 3.784895e-05 -9.433776e-03 1.808284e+00 7.990474e-01 3.278979e-01 3.163269e-01 2.920348e-01 1.723872e-01 -4.299089e-02 2.741353e-01 4.693941e-01 8.802177e-02 1.763157e-01 -2.179666e-01 -1.806268e-02 9.525037e-01
<VARIANCE> 39
 6.204077e-01 6.749792e-01 7.641656e-01 4.846634e-01 5.229225e-01 7.387843e-01 6.013641e-01 8.240690e-01 7.304202e-01 7.211871e-01 9.293106e-01 1.117056e+00 8.036398e-01 9.177678e-01 1.573621e+00 1.449584e+00 1.506006e+00 1.071674e+00 1.391873e+00 1.313069e+00 1.420891e+00 1.599634e+00 1.071136e+00 1.242045e+00 1.849619e+00 1.738735e+00 1.159240e+00 1.483687e+00 1.575708e+00 1.169913e+00 1.002991e+00 1.335438e+00 1.295609e+00 1.111297e+00 1.292747e+00 1.241004e+00 1.134208e+00 1.943331e+00 1.584047e+00
<GCONST> 7.496706e+01
<MIXTURE> 2 5.000000e-01
<MEAN> 39
 -6.853888e-01 -1.612564e-01 7.990377e-02 3.493913e-01 1.147300e-01 8.099017e-02 2.265989e-01 -2.552693e-01 -1.059846e+00 -9.248896e-02 -2.824347e-01 3.430181e-01 -3.874765e-01 5.411445e-01 -5.690217e-01 2.403485e-01 6.720755e-01 -2.128069e-01 -2.581016e-01 -9.187354e-02 -1.316193e-01 -6.426085e-01 -4.210193e-01 -4.457504e-01 -5.534366e-01 1.280840e+00 3.683753e-01 -1.593289e-01 -1.857820e-01 -1.406153e-01 -2.282106e-01 -5.052356e-01 -1.811640e-01 4.772186e-02 -3.667744e-01 -2.692857e-01 -6.439634e-01 -5.756763e-01 4.490680e-01
<VARIANCE> 39
 6.204077e-01 6.749792e-01 7.641656e-01 4.846634e-01 5.229225e-01 7.387843e-01 6.013641e-01 8.240690e-01 7.304202e-01 7.211871e-01 9.293106e-01 1.117056e+00 8.036398e-01 9.177678e-01 1.573621e+00 1.449584e+00 1.506006e+00 1.071674e+00 1.391873e+00 1.313069e+00 1.420891e+00 1.599634e+00 1.071136e+00 1.242045e+00 1.849619e+00 1.738735e+00 1.159240e+00 1.483687e+00 1.575708e+00 1.169913e+00 1.002991e+00 1.335438e+00 1.295609e+00 1.111297e+00 1.292747e+00 1.241004e+00 1.134208e+00 1.943331e+00 1.584047e+00
<GCONST> 7.496706e+01
<STATE> 3
<NUMMIXES> 2
<MIXTURE> 1 5.000000e-01
<MEAN> 39
 1.109941e-01 5.105915e-02 5.868812e-01 9.635348e-01 5.804619e-01 3.369548e-01 5.844754e-01 3.185145e-01 -8.629198e-01 1.990860e-01 -3.640814e-01 3.358298e-01 7.607649e-01 9.196665e-01 -5.048635e-01 1.783610e-01 4.463169e-01 -2.110434e-01 -1.296583e-01 3.877095e-01 5.123187e-01 9.974819e-02 2.520546e-01 3.874873e-02 2.194121e-01 2.039956e+00 -2.591207e-01 1.951581e-01 -9.285897e-02 -2.178827e-01 -1.376386e-01 1.314034e-01 3.700002e-01 2.604684e-01 3.008711e-01 2.193746e-01 5.363684e-01 5.880120e-01 -6.730278e-01
<VARIANCE> 39
 6.488578e-01 5.276382e-01 8.840958e-01 7.790080e-01 6.251066e-01 8.347031e-01 8.903679e-01 1.158904e+00 9.504312e-01 8.237247e-01 6.825548e-01 9.576914e-01 6.925058e-01 1.261815e+00 1.101929e+00 1.609566e+00 1.474952e+00 1.086398e+00 1.334009e+00 1.473784e+00 1.639405e+00 1.553281e+00 1.488157e+00 9.747527e-01 1.312792e+00 2.252510e+00 1.760952e+00 1.647711e+00 1.641456e+00 1.285484e+00 1.328001e+00 1.456899e+00 1.584332e+00 1.700465e+00 1.589013e+00 1.395338e+00 9.588662e-01 1.543185e+00 2.899872e+00
<GCONST> 7.863563e+01
<MIXTURE> 2 5.000000e-01
<MEAN> 39
 -2.112127e-01 -2.394957e-01 2.107756e-01 6.104891e-01 2.642071e-01 -2.849358e-02 2.070382e-01 -1.120951e-01 -1.252880e+00 -1.639512e-01 -6.945489e-01 -5.561702e-02 4.278972e-01 4.703444e-01 -9.247547e-01 -3.291137e-01 -3.947350e-02 -6.279650e-01 -5.916555e-01 -9.788851e-02 1.616776e-04 -3.987746e-01 -2.359056e-01 -3.561695e-01 -2.388964e-01 1.439622e+00 -7.899241e-01 -3.182947e-01 -6.053362e-01 -6.713995e-01 -5.985944e-01 -3.514048e-01 -1.334808e-01 -2.611392e-01 -2.033531e-01 -2.531231e-01 1.446815e-01 9.111200e-02 -1.354188e+00
<VARIANCE> 39
 6.488578e-01 5.276382e-01 8.840958e-01 7.790080e-01 6.251066e-01 8.347031e-01 8.903679e-01 1.158904e+00 9.504312e-01 8.237247e-01 6.825548e-01 9.576914e-01 6.925058e-01 1.261815e+00 1.101929e+00 1.609566e+00 1.474952e+00 1.086398e+00 1.334009e+00 1.473784e+00 1.639405e+00 1.553281e+00 1.488157e+00 9.747527e-01 1.312792e+00 2.252510e+00 1.760952e+00 1.647711e+00 1.641456e+00 1.285484e+00 1.328001e+00 1.456899e+00 1.584332e+00 1.700465e+00 1.589013e+00 1.395338e+00 9.588662e-01 1.543185e+00 2.899872e+00
<GCONST> 7.863563e+01
<STATE> 4
<NUMMIXES> 2
<MIXTURE> 1 5.000000e-01
<MEAN> 39
 2.579929e-01 -2.894290e-01 4.712260e-01 1.156995e+00 -2.752066e-02 -1.461276e-02 8.979162e-01 5.991653e-01 -1.243883e+00 3.297344e-03 -3.050320e-01 5.383546e-01 1.129069e+00 5.829503e-01 9.690870e-02 4.562548e-01 5.710105e-01 -1.439464e-01 -3.239728e-01 1.281132e-01 4.555634e-01 4.187362e-02 -2.504999e-01 1.959218e-01 4.524955e-01 2.120518e-01 -1.774066e-01 6.775952e-01 6.897113e-01 1.994872e-01 3.593317e-01 3.489756e-01 3.092349e-02 1.327962e-01 3.269542e-01 1.183242e-01 1.764798e-01 2.995667e-01 -5.035242e-01
<VARIANCE> 39
 5.662935e-01 4.049922e-01 9.762633e-01 6.874235e-01 7.155091e-01 6.910899e-01 8.005202e-01 1.043299e+00 1.073067e+00 8.505418e-01 5.291480e-01 7.308591e-01 4.119622e-01 1.126264e+00 8.932357e-01 1.406159e+00 1.089483e+00 1.230137e+00 1.343043e+00 1.314113e+00 1.546278e+00 1.291687e+00 1.227192e+00 9.619669e-01 1.309365e+00 7.058868e-01 8.359181e-01 9.783019e-01 1.652551e+00 1.074259e+00 1.265563e+00 1.448089e+00 1.379605e+00 1.546093e+00 1.489605e+00 1.199737e+00 9.893582e-01 1.279690e+00 9.341307e-01
<GCONST> 7.146456e+01
<MIXTURE> 2 5.000000e-01
<MEAN> 39
 -4.301704e-02 -5.439850e-01 7.600182e-02 8.253514e-01 -3.658718e-01 -3.471400e-01 5.400290e-01 1.905973e-01 -1.658239e+00 -3.656020e-01 -5.960022e-01 1.963934e-01 8.723314e-01 1.584479e-01 -2.811359e-01 -1.807156e-02 1.534973e-01 -5.875926e-01 -7.875317e-01 -3.304258e-01 -4.183435e-02 -4.127360e-01 -6.936147e-01 -1.963978e-01 -5.214483e-03 -1.240165e-01 -5.431209e-01 2.819586e-01 1.755049e-01 -2.150987e-01 -9.065729e-02 -1.323707e-01 -4.389029e-01 -3.645718e-01 -1.612433e-01 -3.198058e-01 -2.213861e-01 -1.529269e-01 -8.901259e-01
<VARIANCE> 39
 5.662935e-01 4.049922e-01 9.762633e-01 6.874235e-01 7.155091e-01 6.910899e-01 8.005202e-01 1.043299e+00 1.073067e+00 8.505418e-01 5.291480e-01 7.308591e-01 4.119622e-01 1.126264e+00 8.932357e-01 1.406159e+00 1.089483e+00 1.230137e+00 1.343043e+00 1.314113e+00 1.546278e+00 1.291687e+00 1.227192e+00 9.619669e-01 1.309365e+00 7.058868e-01 8.359181e-01 9.783019e-01 1.652551e+00 1.074259e+00 1.265563e+00 1.448089e+00 1.379605e+00 1.546093e+00 1.489605e+00 1.199737e+00 9.893582e-01 1.279690e+00 9.341307e-01
<GCONST> 7.146456e+01
<STATE> 5
<NUMMIXES> 2
<MIXTURE> 1 5.000000e-01
<MEAN> 39
 7.187442e-01 -1.452192e-01 1.418856e+00 1.901332e+00 -3.062065e-01 -9.384350e-01 -1.031493e-01 8.564509e-01 -1.033484e+00 -1.241693e+00 -3.745399e-01 1.082029e+00 6.998615e-01 -3.794338e-02 2.863613e-01 8.354205e-01 1.609382e-01 1.749109e-02 3.517029e-01 1.220772e-01 5.831531e-02 1.878940e-01 7.695584e-02 1.586857e-01 1.419299e-01 1.036212e-01 -7.881927e-02 2.956033e-01 2.643652e-01 -5.597800e-02 3.232732e-01 5.943063e-01 2.721715e-01 -4.383042e-02 2.646223e-01 4.290716e-01 1.257057e-01 3.855351e-02 1.656412e-01
<VARIANCE> 39
 3.226658e-01 4.304751e-01 7.629364e-01 7.030082e-01 6.623435e-01 7.283679e-01 7.669293e-01 1.183525e+00 8.604465e-01 1.071126e+00 6.048748e-01 8.921253e-01 3.964569e-01 6.816213e-01 6.670479e-01 2.001740e+00 1.076419e+00 9.870064e-01 1.178452e+00 9.471302e-01 1.320718e+00 9.089314e-01 1.166260e+00 9.172666e-01 1.144111e+00 7.350106e-01 5.889697e-01 7.284953e-01 1.347785e+00 9.045873e-01 1.082003e+00 1.054185e+00 1.005753e+00 1.163563e+00 8.831770e-01 1.014895e+00 9.608073e-01 1.153605e+00 7.047322e-01
<GCONST> 6.606834e+01
<MIXTURE> 2 5.000000e-01
<MEAN> 39
 4.915295e-01 -4.076616e-01 1.069471e+00 1.565950e+00 -6.317445e-01 -1.279813e+00 -4.534473e-01 4.212911e-01 -1.404526e+00 -1.655674e+00 -6.856347e-01 7.042199e-01 4.480022e-01 -3.681848e-01 -4.033071e-02 2.694891e-01 -2.540642e-01 -3.799017e-01 -8.252326e-02 -2.672052e-01 -4.013747e-01 -1.934576e-01 -3.550183e-01 -2.244104e-01 -2.859226e-01 -2.393099e-01 -3.857967e-01 -4.580447e-02 -2.000114e-01 -4.364172e-01 -9.280425e-02 1.836123e-01 -1.289775e-01 -4.753048e-01 -1.112877e-01 2.610360e-02 -2.663774e-01 -3.910705e-01 -1.701521e-01
<VARIANCE> 39
 3.226658e-01 4.304751e-01 7.629364e-01 7.030082e-01 6.623435e-01 7.283679e-01 7.669293e-01 1.183525e+00 8.604465e-01 1.071126e+00 6.048748e-01 8.921253e-01 3.964569e-01 6.816213e-01 6.670479e-01 2.001740e+00 1.076419e+00 9.870064e-01 1.178452e+00 9.471302e-01 1.320718e+00 9.089314e-01 1.166260e+00 9.172666e-01 1.144111e+00 7.350106e-01 5.889697e-01 7.284953e-01 1.347785e+00 9.045873e-01 1.082003e+00 1.054185e+00 1.005753e+00 1.163563e+00 8.831770e-01 1.014895e+00 9.608073e-01 1.153605e+00 7.047322e-01
<GCONST> 6.606834e+01
<STATE> 6
<NUMMIXES> 2
<MIXTURE> 1 5.000000e-01
<MEAN> 39
 7.747055e-01 -5.293252e-01 -6.641006e-02 2.758529e-01 8.820028e-02 5.232289e-01 8.029059e-01 1.349957e-01 -1.845310e-01 5.237551e-01 -2.535904e-01 -7.059568e-01 9.156317e-01 -2.469584e-03 3.657902e-01 4.108523e-01 1.568194e-01 2.484253e-01 4.073611e-01 1.311768e-01 5.134483e-02 1.847412e-01 1.535366e-01 7.303284e-02 1.347997e-01 -3.699210e-02 1.172338e-01 2.922579e-01 2.688714e-01 2.515648e-01 3.215715e-01 8.604804e-02 4.875659e-02 1.739678e-01 1.304699e-01 1.200141e-02 1.663035e-01 3.243683e-01 -4.118229e-02
<VARIANCE> 39
 5.705528e-01 1.143174e+00 1.816626e+00 1.689272e+00 9.835321e-01 1.084529e+00 1.068761e+00 9.263293e-01 1.202736e+00 1.076671e+00 1.213963e+00 1.514909e+00 4.001969e-01 5.794857e-01 6.354703e-01 1.019736e+00 8.280498e-01 6.172404e-01 8.423851e-01 6.902100e-01 9.690614e-01 6.363095e-01 7.465751e-01 7.598351e-01 7.524784e-01 4.928194e-01 5.733222e-01 4.203719e-01 8.903330e-01 5.508469e-01 6.592412e-01 5.549551e-01 6.067124e-01 6.506684e-01 5.793807e-01 7.382892e-01 6.018880e-01 7.620907e-01 4.918449e-01
<GCONST> 6.173372e+01
<MIXTURE> 2 5.000000e-01
<MEAN> 39
 4.725657e-01 -9.570025e-01 -6.055391e-01 -2.440351e-01 -3.084925e-01 1.066660e-01 3.893823e-01 -2.499883e-01 -6.232082e-01 1.087041e-01 -6.943104e-01 -1.198283e+00 6.625872e-01 -3.069654e-01 4.692462e-02 6.924346e-03 -2.071695e-01 -6.583327e-02 4.023492e-02 -2.011387e-01 -3.424188e-01 -1.343348e-01 -1.920817e-01 -2.756413e-01 -2.121824e-01 -3.177965e-01 -1.856383e-01 3.291352e-02 -1.085585e-01 -4.531143e-02 -3.203139e-03 -2.119332e-01 -2.628104e-01 -1.486883e-01 -1.739984e-01 -3.316936e-01 -1.440222e-01 -2.482291e-02 -3.217089e-01
<VARIANCE> 39
 5.705528e-01 1.143174e+00 1.816626e+00 1.689272e+00 9.835321e-01 1.084529e+00 1.068761e+00 9.263293e-01 1.202736e+00 1.076671e+00 1.213963e+00 1.514909e+00 4.001969e-01 5.794857e-01 6.354703e-01 1.019736e+00 8.280498e-01 6.172404e-01 8.423851e-01 6.902100e-01 9.690614e-01 6.363095e-01 7.465751e-01 7.598351e-01 7.524784e-01 4.928194e-01 5.733222e-01 4.203719e-01 8.903330e-01 5.508469e-01 6.592412e-01 5.549551e-01 6.067124e-01 6.506684e-01 5.793807e-01 7.382892e-01 6.018880e-01 7.620907e-01 4.918449e-01
<GCONST> 6.173372e+01
<TRANSP> 7
 0.000000e+00 1.000000e+00 0.000000e+00 0.000000e+00 0.000000e+00 0.000000e+00 0.000000e+00
 0.000000e+00 5.643149e-01 4.356851e-01 0.000000e+00 0.000000e+00 0.000000e+00 0.000000e+00
 0.000000e+00 0.000000e+00 5.189379e-01 4.810621e-01 0.000000e+00 0.000000e+00 0.000000e+00
 0.000000e+00 0.000000e+00 0.000000e+00 7.059897e-01 2.940103e-01 0.000000e+00 0.000000e+00
 0.000000e+00 0.000000e+00 0.000000e+00 0.000000e+00 8.352461e-01 1.647539e-01 0.000000e+00
 0.000000e+00 0.000000e+00 0.000000e+00 0.000000e+00 0.000000e+00 7.431402e-01 2.568598e-01
 0.000000e+00 0.000000e+00 0.000000e+00 0.000000e+00 0.000000e+00 0.000000e+00 0.000000e+00
<ENDHMM>
~h "i"
<BEGINHMM>
<NUMSTATES> 7
<STATE> 2
<NUMMIXES> 2
<MIXTURE> 1 5.000000e-01
<MEAN> 39
 -1.004980e+00 1.156672e+00 8.804567e-01 3.245354e-01 8.949573e-01 4.803227e-01 8.411499e-01 2.286243e-02 -8.180166e-01 1.144125e-01 -3.433223e-01 5.436698e-01 4.615502e-01 4.743530e-01 5.273610e-01 1.026838e+00 3.630100e-01 2.469972e-01 2.331236e-01 5.352668e-02 1.258932e-01 -6.224340e-02 -1.716288e-01 1.743060e-02 1.630828e-01 6.028632e-01 8.019091e-01 2.186591e-01 6.144005e-01 5.199133e-01 9.220422e-02 2.246325e-02 -3.730135e-02 1.680259e-01 1.137845e-01 -5.257547e-02 1.189974e-01 2.819288e-01 1.834487e-01
<VARIANCE> 39
 8.689499e-01 8.246624e-01 7.244971e-01 6.577650e-01 6.342164e-01 8.527690e-01 5.599681e-01 7.950650e-01 4.288600e-01 5.106078e-01 5.890150e-01 7.268994e-01 6.020290e-01 1.371936e+00 9.707713e-01 1.355763e+00 1.303577e+00 9.476660e-01 1.109346e+00 9.683325e-01 1.218317e+00 9.068381e-01 1.119498e+00 1.006328e+00 1.091321e+00 1.552728e+00 1.570068e+00 1.059856e+00 1.299649e+00 1.286754e+00 1.074745e+00 1.224718e+00 1.080801e+00 1.290042e+00 9.516088e-01 1.206429e+00 1.068489e+00 1.202673e+00 1.715581e+00
<GCONST> 7.048382e+01
<MIXTURE> 2 5.000000e-01
<MEAN> 39
 -1.377850e+00 7.934281e-01 5.399871e-01 1.245737e-04 5.764065e-01 1.109407e-01 5.418259e-01 -3.338032e-01 -1.079966e+00 -1.714148e-01 -6.503115e-01 2.026362e-01 1.511881e-01 5.834356e-03 1.332501e-01 5.610892e-01 -9.368719e-02 -1.423954e-01 -1.881784e-01 -3.400889e-01 -3.156164e-01 -4.431556e-01 -5.948542e-01 -3.838330e-01 -2.547824e-01 1.044292e-01 3.006997e-01 -1.931381e-01 1.583919e-01 6.617263e-02 -3.224754e-01 -4.202046e-01 -4.531476e-01 -2.862942e-01 -2.764173e-01 -4.919257e-01 -2.944736e-01 -1.567370e-01 -3.404720e-01
<VARIANCE> 39
 8.689499e-01 8.246624e-01 7.244971e-01 6.577650e-01 6.342164e-01 8.527690e-01 5.599681e-01 7.950650e-01 4.288600e-01 5.106078e-01 5.890150e-01 7.268994e-01 6.020290e-01 1.371936e+00 9.707713e-01 1.355763e+00 1.303577e+00 9.476660e-01 1.109346e+00 9.683325e-01 1.218317e+00 9.068381e-01 1.119498e+00 1.006328e+00 1.091321e+00 1.552728e+00 1.570068e+00 1.059856e+00 1.299649e+00 1.286754e+00 1.074745e+00 1.224718e+00 1.080801e+00 1.290042e+00 9.516088e-01 1.206429e+00 1.068489e+00 1.202673e+00 1.715581e+00
<GCONST> 7.048382e+01
<STATE> 3
<NUMMIXES> 2
<MIXTURE> 1 5.000000e-01
<MEAN> 39
 -3.529176e-01 1.402680e+00 2.060924e+00 8.951554e-01 6.894726e-01 3.765538e-03 1.508437e-01 -2.815096e-01 -1.252266e+00 -9.391221e-01 -8.511991e-01 6.577454e-01 4.601682e-01 1.122245e+00 -1.128726e-01 1.503936e+00 5.820489e-01 -4.231691e-01 -1.693995e-01 -5.780892e-01 2.928203e-01 1.385003e-02 -7.218164e-01 6.858909e-02 5.890206e-01 5.355116e-01 -3.092965e-01 -2.282262e-01 -4.477186e-01 -1.746905e-01 7.360554e-02 3.377883e-01 2.427174e-01 4.334582e-01 4.317003e-01 4.908208e-01 4.021195e-01 2.449353e-01 1.625753e-01
<VARIANCE> 39
 3.511439e-01 7.884113e-01 5.574756e-01 3.955954e-01 6.947313e-01 7.358125e-01 5.272477e-01 6.663441e-01 4.628784e-01 5.955046e-01 6.948628e-01 7.804822e-01 4.408381e-01 1.266751e+00 1.186847e+00 1.267532e+00 1.232483e+00 1.056425e+00 1.270216e+00 9.549320e-01 1.179556e+00 9.061024e-01 1.038292e+00 1.009844e+00 1.155579e+00 7.176173e-01 1.031922e+00 1.040907e+00 1.180483e+00 1.024298e+00 1.130704e+00 1.167681e+00 9.541122e-01 1.146196e+00 8.661570e-01 1.011587e+00 8.981139e-01 1.119298e+00 6.318299e-01
<GCONST> 6.551582e+01
<MIXTURE> 2 5.000000e-01
<MEAN> 39
 -5.899472e-01 1.047510e+00 1.762266e+00 6.435699e-01 3.560704e-01 -3.393525e-01 -1.396036e-01 -6.080292e-01 -1.524406e+00 -1.247798e+00 -1.184633e+00 3.043658e-01 1.945856e-01 6.720452e-01 -5.486426e-01 1.053598e+00 1.379799e-01 -8.342993e-01 -6.202149e-01 -9.689717e-01 -1.416092e-01 -3.669076e-01 -1.129403e+00 -3.333749e-01 1.590292e-01 1.966624e-01 -7.156308e-01 -6.363256e-01 -8.823187e-01 -5.795209e-01 -3.517327e-01 -9.444887e-02 -1.479973e-01 5.216017e-03 5.943009e-02 8.851004e-02 2.304405e-02 -1.782522e-01 -1.553757e-01
<VARIANCE> 39
 3.511439e-01 7.884113e-01 5.574756e-01 3.955954e-01 6.947313e-01 7.358125e-01 5.272477e-01 6.663441e-01 4.628784e-01 5.955046e-01 6.948628e-01 7.804822e-01 4.408381e-01 1.266751e+00 1.186847e+00 1.267532e+00 1.232483e+00 1.056425e+00 1.270216e+00 9.549320e-01 1.179556e+00 9.061024e-01 1.038292e+00 1.009844e+00 1.155579e+00 7.176173e-01 1.031922e+00 1.040907e+00 1.180483e+00 1.024298e+00 1.130704e+00 1.167681e+00 9.541122e-01 1.146196e+00 8.661570e-01 1.011587e+00 8.981139e-01 1.119298e+00 6.318299e-01
<GCONST> 6.551582e+01
<STATE> 4
<NUMMIXES> 2
<MIXTURE> 1 5.000000e-01
<MEAN> 39
 -6.021962e-02 8.730094e-01 2.646269e+00 8.908986e-01 -2.803296e-02 -7.384564e-02 -6.038606e-01 5.629709e-02 -1.431443e+00 -1.492383e+00 -6.616238e-01 9.045982e-01 7.202596e-01 1.189241e-01 9.849413e-02 1.038129e-01 2.007474e-01 9.068006e-02 1.414449e-01 1.603283e-01 1.728849e-01 1.660112e-01 1.670080e-01 1.847270e-01 1.597046e-01 9.952282e-02 9.106742e-02 1.728370e-01 -1.499723e-01 1.921735e-01 2.975304e-01 2.017019e-01 3.612096e-01 1.373009e-01 2.221130e-01 3.745952e-01 1.682445e-01 8.069286e-02 -1.065882e-01
<VARIANCE> 39
 1.790846e-01 5.559954e-01 4.240412e-01 4.743439e-01 7.431617e-01 9.681593e-01 5.430388e-01 8.832682e-01 7.079009e-01 7.011138e-01 1.198282e+00 1.124813e+00 3.377937e-01 2.978660e-01 4.890645e-01 6.234517e-01 6.206681e-01 6.055954e-01 7.594846e-01 6.494192e-01 7.342635e-01 6.058986e-01 6.713198e-01 6.075763e-01 6.785424e-01 4.244094e-01 4.170569e-01 4.560856e-01 8.204127e-01 6.079303e-01 6.539612e-01 7.897559e-01 6.807626e-01 7.596089e-01 6.023421e-01 7.093040e-01 6.091137e-01 6.870592e-01 4.303634e-01
<GCONST> 5.193949e+01
<MIXTURE> 2 5.000000e-01
<MEAN> 39
 -2.294932e-01 5.747490e-01 2.385795e+00 6.154081e-01 -3.728603e-01 -4.674260e-01 -8.986252e-01 -3.196323e-01 -1.767991e+00 -1.827313e+00 -1.099488e+00 4.803694e-01 4.877795e-01 -9.938433e-02 -1.812385e-01 -2.120230e-01 -1.143825e-01 -2.206000e-01 -2.071488e-01 -1.620180e-01 -1.698718e-01 -1.453467e-01 -1.607285e-01 -1.270617e-01 -1.697902e-01 -1.610640e-01 -1.672523e-01 -9.729943e-02 -5.122789e-01 -1.197060e-01 -2.594103e-02 -1.537709e-01 3.117622e-02 -2.113213e-01 -8.832975e-02 3.771442e-02 -1.439385e-01 -2.508633e-01 -3.689966e-01
<VARIANCE> 39
 1.790846e-01 5.559954e-01 4.240412e-01 4.743439e-01 7.431617e-01 9.681593e-01 5.430388e-01 8.832682e-01 7.079009e-01 7.011138e-01 1.198282e+00 1.124813e+00 3.377937e-01 2.978660e-01 4.890645e-01 6.234517e-01 6.206681e-01 6.055954e-01 7.594846e-01 6.494192e-01 7.342635e-01 6.058986e-01 6.713198e-01 6.075763e-01 6.785424e-01 4.244094e-01 4.170569e-01 4.560856e-01 8.204127e-01 6.079303e-01 6.539612e-01 7.897559e-01 6.807626e-01 7.596089e-01 6.023421e-01 7.093040e-01 6.091137e-01 6.870592e-01 4.303634e-01
<GCONST> 5.193949e+01
<STATE> 5
<NUMMIXES> 2
<MIXTURE> 1 5.000000e-01
<MEAN> 39
 -2.469193e-01 1.096595e+00 1.473484e+00 7.978222e-01 5.873676e-01 3.387371e-01 3.378333e-01 -1.040970e-01 -8.986588e-01 -4.976149e-01 -3.741167e-01 4.567280e-01 -1.277592e-01 -2.669927e-02 3.554538e-03 -5.874968e-01 1.825465e-02 2.783006e-01 2.994021e-01 4.723603e-01 2.669380e-01 5.156870e-01 7.282568e-01 3.763603e-01 1.359650e-01 -3.869942e-01 7.458035e-02 1.684421e-01 1.061804e-01 7.915269e-02 1.466614e-01 1.793260e-01 1.395727e-01 2.358742e-01 2.336599e-01 2.719648e-01 2.311593e-01 2.332263e-01 2.258788e-01
<VARIANCE> 39
 5.090918e-01 6.389072e-01 7.949008e-01 6.341867e-01 6.655695e-01 8.222301e-01 5.818409e-01 8.498819e-01 6.177583e-01 8.330043e-01 7.784111e-01 9.191537e-01 5.987502e-01 5.998674e-01 9.599398e-01 1.322681e+00 1.068498e+00 8.796343e-01 1.095262e+00 9.861425e-01 1.087454e+00 1.006810e+00 1.146497e+00 1.005270e+00 1.115358e+00 9.946037e-01 7.657505e-01 1.010355e+00 1.152393e+00 1.050095e+00 9.476693e-01 1.156837e+00 1.029323e+00 1.151727e+00 1.049351e+00 1.088984e+00 9.710627e-01 1.114830e+00 9.018433e-01
<GCONST> 6.743478e+01
<MIXTURE> 2 5.000000e-01
<MEAN> 39
 -5.323219e-01 7.768685e-01 1.116856e+00 4.792788e-01 2.610378e-01 -2.397051e-02 3.271931e-02 -4.728532e-01 -1.213049e+00 -8.626912e-01 -7.270271e-01 7.323799e-02 -4.372750e-01 -3.365037e-01 -3.883516e-01 -1.047528e+00 -3.952181e-01 -9.685472e-02 -1.192170e-01 7.514147e-02 -1.501863e-01 1.143274e-01 2.999584e-01 -2.469231e-02 -2.864770e-01 -7.859135e-01 -2.754484e-01 -2.336235e-01 -3.232178e-01 -3.307439e-01 -2.427319e-01 -2.508995e-01 -2.662495e-01 -1.934000e-01 -1.760914e-01 -1.454528e-01 -1.630108e-01 -1.891157e-01 -1.539829e-01
<VARIANCE> 39
 5.090918e-01 6.389072e-01 7.949008e-01 6.341867e-01 6.655695e-01 8.222301e-01 5.818409e-01 8.498819e-01 6.177583e-01 8.330043e-01 7.784111e-01 9.191537e-01 5.987502e-01 5.998674e-01 9.599398e-01 1.322681e+00 1.068498e+00 8.796343e-01 1.095262e+00 9.861425e-01 1.087454e+00 1.006810e+00 1.146497e+00 1.005270e+00 1.115358e+00 9.946037e-01 7.657505e-01 1.010355e+00 1.152393e+00 1.050095e+00 9.476693e-01 1.156837e+00 1.029323e+00 1.151727e+00 1.049351e+00 1.088984e+00 9.710627e-01 1.114830e+00 9.018433e-01
<GCONST> 6.743478e+01
<STATE> 6
<NUMMIXES> 2
<MIXTURE> 1 5.000000e-01
<MEAN> 39
 -7.742573e-01 2.420521e-01 -2.508804e-01 -3.517328e-01 7.336646e-02 4.681855e-02 2.088936e-01 -1.923572e-01 -2.150574e-02 4.766051e-01 1.721394e-01 6.726246e-01 -1.352580e+00 8.265455e-02 1.580693e-01 1.046328e-01 1.613686e-01 1.380010e-01 1.456831e-01 1.695622e-01 1.795696e-01 2.018116e-01 2.397682e-01 1.882822e-01 1.882334e-01 1.176427e-01 1.710122e-01 2.288130e-01 2.461807e-01 2.458960e-01 2.084034e-01 1.900272e-01 1.912870e-01 1.970299e-01 1.816146e-01 1.833288e-01 1.711026e-01 1.948891e-01 2.124643e-01
<VARIANCE> 39
 9.971161e-02 2.801014e-01 4.218068e-01 3.469490e-01 3.885171e-01 5.490220e-01 4.344475e-01 6.321653e-01 4.032736e-01 6.023533e-01 5.864941e-01 7.344893e-01 2.922333e-01 2.442550e-01 7.544587e-01 7.325081e-01 8.164264e-01 5.505194e-01 6.837019e-01 7.234142e-01 8.686600e-01 8.750613e-01 1.037748e+00 8.783580e-01 1.012833e+00 5.503288e-01 5.176523e-01 9.429750e-01 9.880397e-01 9.746369e-01 7.359012e-01 8.137571e-01 8.881348e-01 9.977623e-01 1.105258e+00 1.187487e+00 9.627252e-01 1.091717e+00 7.328780e-01
<GCONST> 5.401730e+01
<MIXTURE> 2 5.000000e-01
<MEAN> 39
 -9.005659e-01 3.035369e-02 -5.106670e-01 -5.873423e-01 -1.759581e-01 -2.495655e-01 -5.475692e-02 -5.103924e-01 -2.755211e-01 1.661593e-01 -1.341922e-01 3.298152e-01 -1.568814e+00 -1.150341e-01 -1.893691e-01 -2.377140e-01 -2.000567e-01 -1.587870e-01 -1.850620e-01 -1.706528e-01 -1.932381e-01 -1.723673e-01 -1.677115e-01 -1.866008e-01 -2.143250e-01 -1.790939e-01 -1.167800e-01 -1.596146e-01 -1.514201e-01 -1.489988e-01 -1.347354e-01 -1.708067e-01 -1.856766e-01 -2.025223e-01 -2.389104e-01 -2.525588e-01 -2.213716e-01 -2.230519e-01 -1.299689e-01
<VARIANCE> 39
 9.971161e-02 2.801014e-01 4.218068e-01 3.469490e-01 3.885171e-01 5.490220e-01 4.344475e-01 6.321653e-01 4.032736e-01 6.023533e-01 5.864941e-01 7.344893e-01 2.922333e-01 2.442550e-01 7.544587e-01 7.325081e-01 8.164264e-01 5.505194e-01 6.837019e-01 7.234142e-01 8.686600e-01 8.750613e-01 1.037748e+00 8.783580e-01 1.012833e+00 5.503288e-01 5.176523e-01 9.429750e-01 9.880397e-01 9.746369e-01 7.359012e-01 8.137571e-01 8.881348e-01 9.977623e-01 1.105258e+00 1.187487e+00 9.627252e-01 1.091717e+00 7.328780e-01
<GCONST> 5.401730e+01
<TRANSP> 7
 0.000000e+00 1.000000e+00 0.000000e+00 0.000000e+00 0.000000e+00 0.000000e+00 0.000000e+00
 0.000000e+00 7.950116e-01 2.049884e-01 0.000000e+00 0.000000e+00 0.000000e+00 0.000000e+00
 0.000000e+00 0.000000e+00 7.322786e-01 2.677214e-01 0.000000e+00 0.000000e+00 0.000000e+00
 0.000000e+00 0.000000e+00 0.000000e+00 9.045183e-01 9.548174e-02 0.000000e+00 0.000000e+00
 0.000000e+00 0.000000e+00 0.000000e+00 0.000000e+00 8.243796e-01 1.756204e-01 0.000000e+00
 0.000000e+00 0.000000e+00 0.000000e+00 0.000000e+00 0.000000e+00 9.461620e-01 5.383795e-02
 0.000000e+00 0.000000e+00 0.000000e+00 0.000000e+00 0.000000e+00 0.000000e+00 0.000000e+00
<ENDHMM>
~h "j"
<BEGINHMM>
<NUMSTATES> 7
<STATE> 2
<NUMMIXES> 2
<MIXTURE> 1 5.000000e-01
<MEAN> 39
 -7.764484e-01 8.428224e-01 1.027938e+00 2.716694e-01 6.754538e-01 6.369179e-01 7.909454e-01 1.256529e-01 -9.198846e-01 1.835695e-01 -4.017773e-01 6.980269e-01 7.133148e-01 1.930407e-01 3.406934e-01 7.294710e-01 2.815188e-01 1.742655e-01 2.671794e-01 1.355551e-01 1.081529e-01 8.387554e-02 1.097715e-01 3.274997e-02 2.271506e-01 6.309329e-01 6.540490e-01 2.433489e-01 3.060859e-01 4.446665e-01 1.859770e-01 5.802453e-03 7.368787e-02 2.202367e-01 1.729670e-01 7.772039e-02 1.645301e-01 2.047694e-01 1.173241e-01
<VARIANCE> 39
 1.020004e+00 7.146531e-01 8.101302e-01 5.907059e-01 7.807685e-01 1.012350e+00 7.500802e-01 8.266196e-01 5.584606e-01 5.268372e-01 7.107757e-01 7.667503e-01 6.265345e-01 1.494476e+00 1.040928e+00 1.268738e+00 1.308514e+00 1.080782e+00 1.229789e+00 1.190545e+00 1.239969e+00 9.635879e-01 9.608230e-01 1.068158e+00 1.173018e+00 1.862576e+00 1.867546e+00 1.008326e+00 1.396077e+00 1.324021e+00 1.234966e+00 1.366302e+00 1.255307e+00 1.331036e+00 1.042676e+00 1.148544e+00 1.143238e+00 1.322195e+00 1.867394e+00
<GCONST> 7.350787e+01
<MIXTURE> 2 5.000000e-01
<MEAN> 39
 -1.180429e+00 5.046738e-01 6.679091e-01 -3.576019e-02 3.220094e-01 2.344555e-01 4.445167e-01 -2.380216e-01 -1.218805e+00 -1.067647e-01 -7.390074e-01 3.477697e-01 3.966991e-01 -2.959544e-01 -6.741016e-02 2.789180e-01 -1.760423e-01 -2.415772e-01 -1.764040e-01 -3.008932e-01 -3.372627e-01 -3.087745e-01 -2.823149e-01 -3.806570e-01 -2.060732e-01 8.502802e-02 1.074162e-01 -1.583128e-01 -1.665370e-01 -1.559792e-02 -2.585392e-01 -4.617532e-01 -3.744740e-01 -2.412455e-01 -2.354790e-01 -3.509602e-01 -2.631591e-01 -2.551775e-01 -4.292865e-01
<VARIANCE> 39
 1.020004e+00 7.146531e-01 8.101302e-01 5.907059e-01 7.807685e-01 1.012350e+00 7.500802e-01 8.266196e-01 5.584606e-01 5.268372e-01 7.107757e-01 7.667503e-01 6.265345e-01 1.494476e+00 1.040928e+00 1.268738e+00 1.308514e+00 1.080782e+00 1.229789e+00 1.190545e+00 1.239969e+00 9.635879e-01 9.608230e-01 1.068158e+00 1.173018e+00 1.862576e+00 1.867546e+00 1.008326e+00 1.396077e+00 1.324021e+00 1.234966e+00 1.366302e+00 1.255307e+00 1.331036e+00 1.042676e+00 1.148544e+00 1.143238e+00 1.322195e+00 1.867394e+00
<GCONST> 7.350787e+01
<STATE> 3
<NUMMIXES> 2
<MIXTURE> 1 5.000000e-01
<MEAN> 39
 -2.978606e-01 7.317001e-01 1.655385e+00 5.110800e-01 3.132275e-01 2.771027e-01 6.011225e-02 9.697951e-02 -9.475408e-01 -3.192132e-01 -3.513516e-01 6.153158e-01 7.115188e-01 7.916071e-01 5.165905e-01 1.257005e+00 9.951055e-01 2.335245e-01 -1.512848e-01 -2.916650e-01 3.161190e-02 -1.148616e-01 -5.136822e-01 -1.632326e-01 2.709628e-01 1.802842e-01 8.330277e-01 -1.318927e-01 1.217554e-01 4.778706e-01 -4.929660e-02 -3.194243e-01 8.980343e-02 5.317984e-01 3.135137e-01 -1.210547e-01 2.111290e-01 4.679978e-01 3.855087e-01
<VARIANCE> 39
 6.284817e-01 8.755194e-01 1.078292e+00 5.495945e-01 9.358983e-01 1.309101e+00 1.034737e+00 8.487005e-01 8.083468e-01 9.268766e-01 9.700347e-01 9.041764e-01 5.407681e-01 2.015236e+00 1.129153e+00 1.651508e+00 1.636290e+00 1.174910e+00 1.863999e+00 1.190179e+00 1.323097e+00 1.200386e+00 1.078754e+00 1.020796e+00 1.048678e+00 8.433239e-01 1.127001e+00 8.685001e-01 1.534715e+00 1.098754e+00 1.164569e+00 1.500292e+00 1.452958e+00 1.174650e+00 1.069514e+00 1.214843e+00 1.004725e+00 1.084134e+00 6.084299e-01
<GCONST> 7.424982e+01
<MIXTURE> 2 5.000000e-01
<MEAN> 39
 -6.149680e-01 3.574233e-01 1.240021e+00 2.145414e-01 -7.373988e-02 -1.805611e-01 -3.467758e-01 -2.715203e-01 -1.307173e+00 -7.043109e-01 -7.453129e-01 2.349630e-01 4.173710e-01 2.237711e-01 9.154409e-02 7.429610e-01 4.834353e-01 -2.000486e-01 -6.973982e-01 -7.280464e-01 -4.284919e-01 -5.531101e-01 -9.291346e-01 -5.673704e-01 -1.386572e-01 -1.870465e-01 4.083865e-01 -5.046661e-01 -3.737791e-01 5.858475e-02 -4.809574e-01 -8.093699e-01 -3.923514e-01 9.827325e-02 -1.001555e-01 -5.619344e-01 -1.898149e-01 5.151078e-02 7.350107e-02
<VARIANCE> 39
 6.284817e-01 8.755194e-01 1.078292e+00 5.495945e-01 9.358983e-01 1.309101e+00 1.034737e+00 8.487005e-01 8.083468e-01 9.268766e-01 9.700347e-01 9.041764e-01 5.407681e-01 2.015236e+00 1.129153e+00 1.651508e+00 1.636290e+00 1.174910e+00 1.863999e+00 1.190179e+00 1.323097e+00 1.200386e+00 1.078754e+00 1.020796e+00 1.048678e+00 8.433239e-01 1.127001e+00 8.685001e-01 1.534715e+00 1.098754e+00 1.164569e+00 1.500292e+00 1.452958e+00 1.174650e+00 1.069514e+00 1.214843e+00 1.004725e+00 1.084134e+00 6.084299e-01
<GCONST> 7.424982e+01
<STATE> 4
<NUMMIXES> 2
<MIXTURE> 1 5.000000e-01
<MEAN> 39
