~o
<STREAMINFO> 1 39
<VECSIZE> 39<NULLD><USER><DIAGC>
~h "a"
<BEGINHMM>
<NUMSTATES> 7
<STATE> 2
<MEAN> 39
 -4.725523e-01 3.752556e-01 3.255288e-02 5.186849e-01 6.156121e-01 1.334088e-02 3.483980e-01 -2.754061e-01 -7.298561e-01 5.152696e-02 -4.287608e-01 2.351429e-01 -1.650437e-01 5.691985e-01 -2.235151e-02 1.806382e-01 2.066765e-01 -1.488471e-02 -2.325645e-01 -1.111079e-01 7.443901e-02 -1.011224e-02 -9.486283e-02 -1.550330e-01 -3.720112e-02 9.556689e-01 7.158898e-01 -1.611019e-01 -2.328865e-04 -1.716475e-01 -2.784837e-01 -2.304210e-01 -1.062393e-01 2.310374e-01 2.230823e-01 1.453364e-01 -2.838563e-02 -9.020514e-02 5.264487e-01
<VARIANCE> 39
 7.946107e-01 8.908491e-01 1.030614e+00 7.337698e-01 6.844410e-01 8.776972e-01 9.214913e-01 9.123112e-01 7.288920e-01 7.936474e-01 8.565929e-01 9.900243e-01 9.536223e-01 1.866721e+00 1.214954e+00 1.383960e+00 1.373176e+00 1.107266e+00 1.328431e+00 1.247628e+00 1.315555e+00 1.176851e+00 1.274222e+00 1.196456e+00 1.272673e+00 2.118642e+00 1.785169e+00 1.467402e+00 1.546986e+00 1.273749e+00 1.274485e+00 1.384619e+00 1.348757e+00 1.488652e+00 1.313135e+00 1.341562e+00 1.223348e+00 1.353432e+00 1.952604e+00
<GCONST> 7.817427e+01
<STATE> 3
<MEAN> 39
 4.625191e-01 7.054935e-02 1.974914e-01 6.734527e-01 3.512213e-01 -4.930360e-01 -5.989078e-02 -7.260454e-02 -5.970608e-01 1.109778e-01 -6.290286e-01 1.846345e-02 7.655257e-01 1.613450e+00 -1.007967e+00 -2.423257e-01 -6.701760e-01 -9.757313e-01 -7.909670e-01 -4.130611e-01 6.797167e-01 7.503672e-01 6.164817e-01 8.903527e-02 -1.831409e-01 1.795685e+00 -7.049939e-01 -7.040063e-01 -7.511010e-01 -7.114415e-01 -3.727121e-01 1.353054e-01 2.027357e-01 2.439642e-01 3.239724e-01 4.015994e-01 1.650449e-01 -5.562362e-02 -1.898830e-01
<VARIANCE> 39
 3.712257e-01 5.805667e-01 1.067442e+00 6.538447e-01 8.421688e-01 1.018931e+00 9.524666e-01 1.036635e+00 8.494132e-01 8.594925e-01 8.557387e-01 1.110522e+00 4.498573e-01 1.898666e+00 1.444985e+00 2.251880e+00 1.698238e+00 1.588649e+00 1.684229e+00 1.845820e+00 1.886799e+00 1.782306e+00 1.850919e+00 1.452790e+00 1.775952e+00 1.900600e+00 2.217107e+00 1.425887e+00 1.620619e+00 1.274637e+00 1.385625e+00 1.466512e+00 1.368711e+00 1.639754e+00 1.243002e+00 1.256637e+00 1.166081e+00 1.281789e+00 2.046737e+00
<GCONST> 8.077697e+01
<STATE> 4
<MEAN> 39
 8.328612e-01 -6.349834e-01 -1.705760e-01 1.110155e-01 -2.666274e-01 -7.952335e-01 -2.582242e-01 3.532960e-01 8.716885e-03 6.682420e-01 -4.861655e-01 -2.291088e-01 1.185311e+00 3.615400e-01 -1.212849e+00 -9.025400e-01 -1.017886e+00 -6.589859e-01 -3.101354e-01 2.009940e-01 8.356802e-01 7.989272e-01 6.585430e-01 -1.292986e-01 -3.506224e-01 1.235716e+00 -1.194183e+00 4.570754e-01 9.212814e-02 3.201935e-01 6.740235e-01 5.194300e-01 4.223950e-01 -2.110705e-01 -4.978517e-01 -4.740267e-01 -3.147091e-01 -1.244329e-01 -1.003309e+00
<VARIANCE> 39
 3.200677e-01 4.547888e-01 1.219101e+00 6.596383e-01 9.174554e-01 1.174002e+00 1.098404e+00 1.223027e+00 1.338743e+00 1.252810e+00 1.163684e+00 1.585145e+00 4.463215e-01 7.531428e-01 1.064206e+00 1.628546e+00 1.258878e+00 1.112720e+00 1.298339e+00 1.328804e+00 1.818350e+00 1.594869e+00 1.346435e+00 1.255839e+00 1.373557e+00 1.020778e+00 1.461485e+00 8.713160e-01 1.490595e+00 1.017493e+00 1.079921e+00 1.065386e+00 1.123784e+00 1.171643e+00 1.177031e+00 1.267662e+00 1.060208e+00 1.190950e+00 1.096168e+00
<GCONST> 7.509976e+01
<STATE> 5
<MEAN> 39
 7.958699e-01 -1.136137e+00 -3.683548e-01 -8.090387e-02 -4.514405e-01 -1.111860e+00 -2.225789e-01 1.218845e+00 2.774861e-01 6.838736e-01 -8.259073e-01 -4.671450e-01 1.470994e+00 -9.433213e-02 -2.717240e-01 -2.886946e-01 -2.124390e-01 9.949446e-02 6.241800e-02 2.522040e-01 2.591501e-01 -6.466147e-03 -3.205743e-02 -2.060383e-01 -2.328830e-01 2.480600e-01 -1.568447e-01 5.296073e-01 3.580469e-01 3.331220e-01 2.779289e-01 1.559997e-01 -5.891978e-02 -4.031403e-01 -3.723886e-01 -2.209149e-01 9.387613e-02 1.504517e-01 -6.006970e-01
<VARIANCE> 39
 2.239379e-01 4.534018e-01 1.011528e+00 5.777197e-01 8.505414e-01 1.233185e+00 1.044491e+00 1.572654e+00 1.396806e+00 1.186430e+00 1.160798e+00 1.508417e+00 3.485777e-01 4.016890e-01 6.316324e-01 1.224418e+00 8.763717e-01 8.606214e-01 9.395958e-01 9.322225e-01 1.163157e+00 8.483540e-01 7.951238e-01 9.774632e-01 1.066269e+00 5.267269e-01 5.805007e-01 5.826416e-01 8.864886e-01 7.347404e-01 8.225831e-01 8.309947e-01 8.199160e-01 9.185529e-01 7.985935e-01 8.002209e-01 7.938684e-01 7.692479e-01 6.391124e-01
<GCONST> 6.341684e+01
<STATE> 6
<MEAN> 39
 7.812822e-01 -1.101948e+00 -9.917667e-01 -5.096895e-01 1.968306e-01 -3.347368e-01 4.056999e-01 7.599484e-01 8.101214e-02 9.528117e-01 -9.899375e-01 -1.161858e+00 1.370866e+00 -1.001213e-02 9.759074e-02 1.755336e-01 1.223588e-01 -3.567246e-02 -6.242241e-02 -1.221260e-01 -5.376364e-02 -1.083417e-01 -7.341754e-02 1.106497e-01 1.367316e-01 -1.112404e-01 2.119922e-02 2.001689e-01 1.574530e-01 1.763931e-01 1.578015e-02 -2.832163e-02 -1.264761e-01 -1.366988e-01 -8.632199e-02 -3.001410e-02 1.124693e-01 1.236967e-01 -3.240855e-01
<VARIANCE> 39
 2.811431e-01 5.280724e-01 9.146215e-01 6.813352e-01 9.447514e-01 1.667904e+00 1.055521e+00 1.812311e+00 1.470561e+00 1.065250e+00 1.292658e+00 1.996936e+00 6.766736e-01 2.489101e-01 4.050379e-01 5.834786e-01 5.510824e-01 5.190198e-01 6.832405e-01 6.717528e-01 7.456234e-01 6.107857e-01 5.732648e-01 6.885603e-01 7.399862e-01 3.921680e-01 3.713780e-01 4.244801e-01 5.369942e-01 4.703238e-01 5.401033e-01 6.095708e-01 5.907820e-01 5.952002e-01 5.553288e-01 5.537934e-01 5.397764e-01 6.153176e-01 4.939615e-01
<GCONST> 5.522352e+01
<TRANSP> 7
 0.000000e+00 1.000000e+00 0.000000e+00 0.000000e+00 0.000000e+00 0.000000e+00 0.000000e+00
 0.000000e+00 7.590562e-01 2.409438e-01 0.000000e+00 0.000000e+00 0.000000e+00 0.000000e+00
 0.000000e+00 0.000000e+00 5.278760e-01 4.721240e-01 0.000000e+00 0.000000e+00 0.000000e+00
 0.000000e+00 0.000000e+00 0.000000e+00 5.062990e-01 4.937010e-01 0.000000e+00 0.000000e+00
 0.000000e+00 0.000000e+00 0.000000e+00 0.000000e+00 6.945519e-01 3.054482e-01 0.000000e+00
 0.000000e+00 0.000000e+00 0.000000e+00 0.000000e+00 0.000000e+00 8.606136e-01 1.393864e-01
 0.000000e+00 0.000000e+00 0.000000e+00 0.000000e+00 0.000000e+00 0.000000e+00 0.000000e+00
<ENDHMM>
~h "b"
<BEGINHMM>
<NUMSTATES> 7
<STATE> 2
<MEAN> 39
 9.385921e-01 2.131709e-01 -3.611813e-01 -1.204167e-02 2.380249e-01 -2.311657e-01 3.828788e-02 4.270668e-02 -8.978981e-01 1.723945e-01 -2.183135e-01 -1.980221e-01 3.378933e-01 -2.642676e-01 6.021358e-01 2.662829e-01 4.726417e-01 6.232215e-01 5.753583e-01 1.064751e-01 -3.407467e-01 -3.567906e-01 -3.917080e-01 2.916267e-02 6.846833e-02 -1.273209e+00 -7.838854e-01 1.444903e-01 3.828551e-01 2.674809e-01 3.021627e-01 3.472582e-01 2.903165e-01 7.438578e-02 9.133189e-02 -2.797046e-01 -2.647288e-01 8.719115e-02 -6.130018e-01
<VARIANCE> 39
 3.322407e-01 8.030902e-01 9.475779e-01 9.467174e-01 7.061139e-01 1.262600e+00 1.288720e+00 1.061657e+00 1.317572e+00 1.137297e+00 1.168451e+00 1.152106e+00 6.235826e-01 1.067222e+00 1.044088e+00 1.471941e+00 1.507438e+00 1.332051e+00 1.636119e+00 1.327904e+00 1.459751e+00 1.361689e+00 1.562727e+00 1.133175e+00 1.447585e+00 2.661589e+00 1.571556e+00 9.647187e-01 1.429196e+00 1.100423e+00 1.150712e+00 1.381373e+00 1.358398e+00 1.307236e+00 1.184966e+00 1.397020e+00 1.215590e+00 1.181486e+00 2.051145e+00
<GCONST> 7.874171e+01
<STATE> 3
<MEAN> 39
 4.603016e-01 6.078372e-01 8.333477e-02 6.764234e-01 9.599953e-01 5.442172e-01 1.641934e-01 -4.454868e-01 -1.099601e+00 -3.484213e-01 -3.151492e-01 -9.538041e-03 -5.627607e-01 -1.124562e+00 6.973635e-01 9.552535e-01 9.569073e-01 9.628956e-01 7.797921e-01 4.322585e-01 -4.105826e-02 2.106404e-02 -6.316335e-01 -3.984229e-01 1.273470e-01 -1.721563e+00 2.877083e-01 -3.980416e-01 -3.968760e-02 -3.736699e-01 -6.978241e-01 -6.512439e-01 -1.134252e-01 4.071890e-01 4.551909e-01 3.253983e-01 1.645107e-02 -9.948446e-02 1.140556e+00
<VARIANCE> 39
 2.603931e-01 4.067302e-01 5.713490e-01 5.738517e-01 5.066590e-01 6.735507e-01 6.391573e-01 7.164834e-01 7.543773e-01 6.027866e-01 7.393736e-01 7.829711e-01 2.518125e-01 1.111780e+00 1.054991e+00 1.533679e+00 1.346767e+00 1.137588e+00 1.565179e+00 1.402317e+00 1.232382e+00 1.380818e+00 1.680435e+00 1.213968e+00 1.488097e+00 1.633506e+00 1.126743e+00 8.955709e-01 1.351619e+00 1.091048e+00 1.075132e+00 1.286660e+00 1.144034e+00 1.290821e+00 1.170087e+00 1.409436e+00 1.113966e+00 1.354723e+00 1.263312e+00
<GCONST> 6.993710e+01
<STATE> 4
<MEAN> 39
 1.608045e-01 7.203656e-01 4.734288e-01 9.826535e-01 1.058064e+00 5.287580e-01 2.979377e-01 -1.338412e-01 -6.973423e-01 -4.499377e-01 -5.690183e-01 8.665778e-03 -9.191707e-01 -5.295509e-01 1.531366e-01 3.283882e-01 4.171313e-02 2.280443e-03 9.675377e-02 2.474400e-01 1.497018e-01 2.958591e-01 -5.809786e-03 4.136988e-02 5.195908e-02 -5.163804e-01 6.361089e-01 -3.047960e-01 -6.600958e-01 -6.396430e-01 -5.823901e-01 -3.684445e-01 -2.107799e-01 -8.025752e-02 -1.218702e-01 4.137358e-01 3.375479e-01 5.581260e-02 9.803745e-01
<VARIANCE> 39
 1.821329e-01 3.734064e-01 3.909719e-01 4.174836e-01 3.883763e-01 5.841005e-01 4.395442e-01 5.926185e-01 5.386841e-01 6.273090e-01 6.324697e-01 7.766811e-01 1.815454e-01 6.883294e-01 1.384293e+00 1.070354e+00 8.954022e-01 8.822292e-01 1.024239e+00 9.211567e-01 1.030951e+00 1.024935e+00 1.110906e+00 1.054436e+00 1.239855e+00 1.016521e+00 1.313225e+00 1.595249e+00 1.590341e+00 1.049680e+00 1.152627e+00 1.300951e+00 1.043192e+00 1.153338e+00 1.156926e+00 1.497958e+00 1.108516e+00 1.342059e+00 1.828176e+00
<GCONST> 6.440862e+01
<STATE> 5
<MEAN> 39
 3.670402e-02 1.059344e+00 6.047257e-01 8.713278e-01 9.485925e-01 5.811482e-01 4.470617e-01 -2.630976e-01 -7.616031e-01 -4.057901e-01 -4.391747e-01 -4.038829e-02 -1.084411e+00 -1.159241e-01 -1.835721e-01 -1.977301e-01 -1.404940e-01 -7.073729e-02 -1.936609e-02 -1.100488e-02 1.465164e-03 5.425564e-02 1.440525e-01 1.666250e-01 1.240438e-01 5.624180e-02 1.241846e-01 -2.343908e-01 -1.655159e-01 -5.958404e-02 -7.026973e-02 -6.868031e-02 -7.053618e-02 -1.376692e-02 -1.959845e-02 5.264997e-02 3.139034e-02 5.253430e-02 4.325416e-01
<VARIANCE> 39
 1.377431e-01 3.496653e-01 4.384174e-01 3.315940e-01 2.909504e-01 4.419758e-01 3.759182e-01 6.366257e-01 4.360248e-01 6.110686e-01 6.438159e-01 8.016472e-01 2.323865e-01 3.264607e-01 9.439584e-01 8.700996e-01 7.631312e-01 6.076499e-01 7.226474e-01 7.362420e-01 8.746650e-01 8.295320e-01 9.723946e-01 8.775012e-01 1.020905e+00 7.075101e-01 5.892061e-01 1.055530e+00 1.033448e+00 8.341530e-01 8.105132e-01 8.659448e-01 8.905006e-01 1.049814e+00 9.708278e-01 1.121619e+00 9.589458e-01 1.143140e+00 1.009849e+00
<GCONST> 5.541269e+01
<STATE> 6
<MEAN> 39
 -7.811933e-01 1.983847e-01 -4.001119e-01 -4.565233e-01 6.819165e-02 3.128721e-02 7.777450e-02 -2.067576e-01 -2.116282e-02 3.993830e-01 2.882960e-02 3.429224e-01 -1.538027e+00 2.491539e-03 -2.806151e-02 -2.247428e-02 -9.556214e-03 -1.658928e-02 -1.658589e-02 -1.070258e-02 -7.263295e-03 -8.057765e-03 9.613204e-03 -2.816408e-03 4.501102e-03 4.703430e-02 6.408810e-02 7.341111e-03 3.297376e-02 4.006353e-02 1.796739e-02 -1.030975e-04 5.238982e-03 7.773492e-03 -1.792163e-02 -2.911397e-02 -2.387359e-02 -1.473623e-02 9.607147e-02
<VARIANCE> 39
 1.306881e-01 3.094575e-01 2.999611e-01 4.053607e-01 4.212582e-01 5.828015e-01 3.905397e-01 5.751973e-01 4.045416e-01 5.414577e-01 5.884895e-01 7.389597e-01 1.589304e-01 2.429416e-01 7.870978e-01 7.135260e-01 8.449053e-01 5.844344e-01 6.858484e-01 7.510247e-01 8.487766e-01 8.899478e-01 1.088472e+00 8.457111e-01 1.004788e+00 6.007096e-01 5.478947e-01 9.953139e-01 9.906495e-01 1.000327e+00 8.034765e-01 8.332062e-01 9.231110e-01 9.787872e-01 1.136134e+00 1.311585e+00 9.431043e-01 1.090007e+00 8.055357e-01
<GCONST> 5.413698e+01
<TRANSP> 7
 0.000000e+00 1.000000e+00 0.000000e+00 0.000000e+00 0.000000e+00 0.000000e+00 0.000000e+00
 0.000000e+00 7.319002e-01 2.680998e-01 0.000000e+00 0.000000e+00 0.000000e+00 0.000000e+00
 0.000000e+00 0.000000e+00 5.196149e-01 4.803850e-01 0.000000e+00 0.000000e+00 0.000000e+00
 0.000000e+00 0.000000e+00 0.000000e+00 5.969407e-01 4.030593e-01 0.000000e+00 0.000000e+00
 0.000000e+00 0.000000e+00 0.000000e+00 0.000000e+00 8.769977e-01 1.230022e-01 0.000000e+00
 0.000000e+00 0.000000e+00 0.000000e+00 0.000000e+00 0.000000e+00 9.551418e-01 4.485815e-02
 0.000000e+00 0.000000e+00 0.000000e+00 0.000000e+00 0.000000e+00 0.000000e+00 0.000000e+00
<ENDHMM>
~h "d"
<BEGINHMM>
<NUMSTATES> 7
<STATE> 2
<MEAN> 39
 5.989709e-01 -2.031307e-01 3.106877e-01 3.224879e-01 -2.145262e-01 -7.030851e-01 -6.667165e-01 -1.190326e-01 -4.678869e-01 1.366229e-01 -5.106570e-01 7.760006e-02 7.468005e-01 -1.724007e-01 3.409889e-01 6.994907e-01 5.834609e-01 3.080213e-01 -6.186217e-02 -3.271331e-01 -2.614965e-01 -1.678684e-01 -4.147286e-01 -3.137679e-01 -6.148041e-02 -7.073858e-01 -5.129838e-01 2.210501e-01 2.465434e-02 1.689501e-01 4.626075e-01 3.895822e-01 3.836510e-01 4.514180e-02 -1.526842e-01 -1.593633e-01 -1.082646e-01 -7.429078e-02 -9.549754e-01
<VARIANCE> 39
 4.836605e-01 8.031668e-01 1.172002e+00 1.113242e+00 8.025486e-01 1.472465e+00 1.132764e+00 1.482466e+00 1.523630e+00 1.355220e+00 1.005975e+00 1.273387e+00 7.820019e-01 7.091975e-01 8.784404e-01 1.225021e+00 1.293517e+00 9.791788e-01 1.046059e+00 1.032221e+00 1.230371e+00 1.059585e+00 1.026564e+00 9.644302e-01 1.115779e+00 1.571038e+00 9.512969e-01 7.673884e-01 1.095371e+00 9.638410e-01 9.450685e-01 1.083633e+00 1.116162e+00 1.041691e+00 1.003972e+00 1.045084e+00 8.565609e-01 1.046515e+00 1.713561e+00
<GCONST> 7.366048e+01
<STATE> 3
<MEAN> 39
 4.270700e-01 2.204897e-01 7.201083e-01 6.167498e-01 1.597015e-01 -5.316571e-01 -6.974658e-01 -4.385615e-01 -7.953968e-01 -3.153342e-01 -8.248505e-01 5.680500e-02 2.398967e-01 -9.698597e-01 6.226700e-01 5.821828e-01 8.256465e-01 1.107043e+00 7.610931e-01 4.955806e-01 -1.209345e-01 -2.574145e-01 -5.178422e-01 -2.790325e-01 -9.493757e-02 -2.075949e+00 -7.454188e-01 -4.396387e-02 -6.280180e-01 -2.529398e-01 3.901955e-01 6.614604e-01 8.838196e-01 4.189112e-01 3.683941e-02 3.735115e-01 3.694405e-01 5.877696e-02 -5.880767e-01
<VARIANCE> 39
 4.297800e-01 5.488391e-01 9.694595e-01 8.420739e-01 6.315238e-01 1.348825e+00 1.086089e+00 1.107797e+00 1.029318e+00 1.094146e+00 8.529708e-01 1.254581e+00 6.464792e-01 1.003292e+00 9.729732e-01 1.693285e+00 1.742946e+00 1.179415e+00 1.739773e+00 1.342886e+00 1.489680e+00 1.507371e+00 1.530310e+00 1.061690e+00 1.317595e+00 2.449703e+00 1.088296e+00 9.090044e-01 1.355460e+00 1.048506e+00 1.058724e+00 1.495552e+00 1.255197e+00 1.231850e+00 1.176630e+00 1.245399e+00 1.101976e+00 1.448247e+00 2.183292e+00
<GCONST> 7.720913e+01
<STATE> 4
<MEAN> 39
 8.883415e-02 4.475822e-01 8.728857e-01 8.826792e-01 6.362169e-01 -2.767368e-02 -2.260776e-01 -3.484414e-01 -9.402854e-01 -5.295143e-01 -8.646089e-01 8.353335e-02 -2.908598e-01 -1.098781e+00 4.435500e-01 -2.480808e-02 4.228498e-01 1.091158e+00 9.496141e-01 9.774498e-01 2.296871e-01 -7.333681e-02 1.015985e-02 6.830215e-02 -1.137518e-01 -1.743112e+00 1.947799e-01 -1.345215e-01 -5.090714e-01 -6.520777e-01 -4.721614e-01 -2.194938e-01 7.000218e-02 1.956844e-01 1.979870e-01 5.270035e-01 3.177104e-01 1.409137e-02 1.031559e+00
<VARIANCE> 39
 2.868898e-01 4.679009e-01 7.169732e-01 5.954756e-01 4.848639e-01 8.764291e-01 6.702787e-01 8.473387e-01 6.827563e-01 7.349610e-01 7.480593e-01 9.544286e-01 3.865300e-01 1.067603e+00 1.087757e+00 1.826110e+00 1.505472e+00 1.223744e+00 1.931218e+00 1.515105e+00 1.363049e+00 1.509198e+00 1.658936e+00 1.140681e+00 1.497442e+00 2.600286e+00 1.049369e+00 1.055597e+00 1.294310e+00 1.170794e+00 9.925017e-01 1.270019e+00 9.780756e-01 1.276964e+00 1.200535e+00 1.265275e+00 1.029007e+00 1.230573e+00 1.940117e+00
<GCONST> 7.286292e+01
<STATE> 5
<MEAN> 39
 -1.580501e-01 5.914594e-01 8.412160e-01 9.501615e-01 1.064114e+00 3.682826e-01 1.868710e-01 -1.682921e-01 -8.728881e-01 -3.825060e-01 -7.929409e-01 -5.999789e-02 -6.779222e-01 -6.565713e-01 3.829926e-01 -2.605733e-01 -2.784573e-01 3.002846e-01 2.643653e-01 4.886721e-01 1.348243e-01 5.786981e-02 3.267463e-01 2.161063e-01 -3.244552e-02 -5.663509e-01 6.100911e-01 -1.577814e-01 -1.435642e-01 -5.119777e-01 -8.139340e-01 -7.925744e-01 -5.810020e-01 -1.274654e-01 5.871730e-02 1.691158e-01 -7.115006e-03 1.414499e-01 1.863693e+00
<VARIANCE> 39
 1.830672e-01 4.094565e-01 4.248464e-01 4.153768e-01 3.968582e-01 6.092520e-01 4.532701e-01 6.943163e-01 5.289358e-01 5.164945e-01 6.644264e-01 7.517993e-01 2.444531e-01 7.709383e-01 1.218745e+00 1.181812e+00 1.030288e+00 9.317632e-01 1.368301e+00 1.131044e+00 1.160939e+00 1.210983e+00 1.178169e+00 1.031041e+00 1.249813e+00 1.929382e+00 1.112010e+00 1.486496e+00 1.383391e+00 1.075581e+00 1.068117e+00 1.390828e+00 1.129169e+00 1.244651e+00 1.359697e+00 1.338919e+00 1.091352e+00 1.219183e+00 2.154517e+00
<GCONST> 6.657996e+01
<STATE> 6
<MEAN> 39
 -4.986631e-01 7.989933e-01 4.274102e-01 4.529855e-01 8.179060e-01 2.409568e-01 3.644656e-01 -1.160203e-01 -6.775173e-01 -6.712977e-03 -4.804323e-01 8.906849e-03 -8.489112e-01 -1.762593e-01 -8.260082e-03 -9.208050e-02 -1.182819e-01 -8.565570e-02 -2.019284e-01 -1.016970e-01 -5.292855e-03 -4.386130e-02 6.833803e-02 -2.978974e-02 6.878854e-02 5.928276e-01 3.607773e-01 -4.451709e-02 1.319861e-01 9.114495e-02 -1.340200e-01 -1.323382e-01 -2.104748e-01 -6.688515e-02 2.550444e-03 -8.220851e-02 -1.178955e-01 2.746096e-02 6.943784e-01
<VARIANCE> 39
 3.531684e-01 5.665528e-01 5.326005e-01 5.362859e-01 4.078981e-01 6.290550e-01 5.191177e-01 7.113526e-01 5.179870e-01 6.327378e-01 6.197145e-01 7.869157e-01 4.764092e-01 8.047877e-01 1.183970e+00 9.137061e-01 9.223232e-01 7.098597e-01 9.657333e-01 8.792316e-01 1.023213e+00 9.358010e-01 1.073766e+00 9.814801e-01 1.069160e+00 1.591632e+00 1.252759e+00 1.393000e+00 1.151010e+00 1.034204e+00 9.549028e-01 1.003850e+00 1.003834e+00 1.121619e+00 1.121761e+00 1.174142e+00 1.068465e+00 1.161588e+00 1.546629e+00
<GCONST> 6.543350e+01
<TRANSP> 7
 0.000000e+00 1.000000e+00 0.000000e+00 0.000000e+00 0.000000e+00 0.000000e+00 0.000000e+00
 0.000000e+00 5.637035e-01 4.362964e-01 0.000000e+00 0.000000e+00 0.000000e+00 0.000000e+00
 0.000000e+00 0.000000e+00 3.842690e-01 6.157311e-01 0.000000e+00 0.000000e+00 0.000000e+00
 0.000000e+00 0.000000e+00 0.000000e+00 3.307388e-01 6.692613e-01 0.000000e+00 0.000000e+00
 0.000000e+00 0.000000e+00 0.000000e+00 0.000000e+00 6.250387e-01 3.749612e-01 0.000000e+00
 0.000000e+00 0.000000e+00 0.000000e+00 0.000000e+00 0.000000e+00 8.415871e-01 1.584129e-01
 0.000000e+00 0.000000e+00 0.000000e+00 0.000000e+00 0.000000e+00 0.000000e+00 0.000000e+00
<ENDHMM>
~h "e"
<BEGINHMM>
<NUMSTATES> 7
<STATE> 2
<MEAN> 39
 -5.687115e-01 7.854042e-01 7.207655e-01 7.780467e-01 4.244292e-01 -4.643789e-01 3.502145e-01 -2.815939e-01 -8.567360e-01 -2.976575e-01 -6.819750e-01 2.352057e-01 2.335970e-01 9.629062e-01 -1.249245e-01 8.421296e-01 3.097374e-01 -4.158451e-01 -7.288693e-01 -5.152582e-01 1.082193e-01 -9.132889e-02 -3.329206e-01 -1.583537e-01 2.085350e-01 8.902847e-01 5.140467e-01 -4.273840e-01 1.875955e-01 -3.779856e-02 -4.842774e-01 -2.674281e-01 -3.239890e-01 1.943398e-01 9.951720e-02 -5.401395e-02 1.482992e-01 2.064296e-01 2.657438e-01
<VARIANCE> 39
 8.302233e-01 9.174042e-01 1.092955e+00 5.919486e-01 6.867620e-01 9.904627e-01 1.088897e+00 8.756212e-01 6.376197e-01 7.775412e-01 7.350836e-01 8.263729e-01 6.590034e-01 2.062538e+00 1.202690e+00 1.738447e+00 1.305968e+00 1.082708e+00 1.583143e+00 1.364346e+00 1.283486e+00 1.060363e+00 1.196285e+00 1.127143e+00 1.234770e+00 1.186764e+00 1.642186e+00 1.390544e+00 1.426837e+00 1.142696e+00 1.121498e+00 1.332591e+00 1.300440e+00 1.266230e+00 1.068215e+00 1.167394e+00 1.136090e+00 1.213450e+00 1.037210e+00
<GCONST> 7.528001e+01
<STATE> 3
<MEAN> 39
 3.725865e-01 6.134924e-02 1.324893e+00 9.592457e-01 -4.723074e-01 -1.465523e+00 -6.206219e-01 1.262911e-01 -8.017544e-01 -6.222284e-01 -6.857916e-01 6.004499e-01 7.444982e-01 6.753073e-01 -1.010190e+00 7.579541e-01 -1.955718e-01 -1.213810e+00 -7.160001e-01 -7.211304e-01 5.294594e-01 1.573420e-01 -1.609968e-01 3.813763e-01 5.907785e-01 1.180891e+00 -9.467945e-01 1.612471e-01 -5.138904e-01 -2.935819e-01 2.760733e-01 6.730024e-01 3.938471e-01 -1.546063e-01 -6.034346e-02 2.045790e-01 1.904989e-01 -1.614600e-01 -5.141986e-01
<VARIANCE> 39
 2.095737e-01 6.305446e-01 9.272659e-01 5.219789e-01 6.196070e-01 9.379708e-01 7.920638e-01 9.244436e-01 8.622857e-01 8.706315e-01 8.567865e-01 8.784924e-01 4.349210e-01 1.095497e+00 1.170067e+00 1.348003e+00 1.028511e+00 9.299331e-01 1.367000e+00 1.291762e+00 1.211239e+00 1.095495e+00 9.636650e-01 1.091260e+00 1.095610e+00 8.120107e-01 1.174055e+00 1.082045e+00 1.231329e+00 8.941982e-01 1.002680e+00 1.057158e+00 1.020506e+00 1.053440e+00 8.820665e-01 9.208525e-01 8.860465e-01 9.800740e-01 7.234920e-01
<GCONST> 6.775063e+01
<STATE> 4
<MEAN> 39
 4.391088e-01 -3.839178e-01 1.653432e+00 6.683373e-01 -1.271013e+00 -1.534541e+00 -9.544464e-01 3.991779e-01 -8.863806e-01 -6.429356e-01 -1.468218e-01 1.007031e+00 1.229854e+00 -5.209143e-03 -5.578248e-02 8.379467e-02 3.296900e-02 -1.118869e-01 -3.080377e-02 -3.472624e-02 4.555064e-02 -6.626789e-02 -5.936046e-02 1.096231e-01 2.630642e-02 1.036908e-01 -3.207047e-02 1.391708e-01 -1.406625e-01 1.397745e-01 2.836996e-01 6.862874e-02 1.067190e-01 -6.091604e-02 -3.248372e-02 -9.862669e-03 -1.365121e-01 -1.326584e-01 -3.448692e-01
<VARIANCE> 39
 1.657166e-01 3.801691e-01 6.425344e-01 4.442707e-01 4.417914e-01 8.276374e-01 5.411177e-01 9.972706e-01 1.104361e+00 6.765937e-01 1.144575e+00 9.083835e-01 2.640289e-01 2.443664e-01 3.581029e-01 5.709167e-01 4.948426e-01 4.353459e-01 5.560126e-01 5.445976e-01 5.876902e-01 5.006968e-01 5.362123e-01 5.313739e-01 5.987052e-01 2.724977e-01 3.583553e-01 4.045493e-01 5.513681e-01 4.337980e-01 5.319191e-01 5.883790e-01 5.753482e-01 5.677748e-01 4.825382e-01 5.135284e-01 4.940608e-01 5.756180e-01 3.486413e-01
<GCONST> 4.508508e+01
<STATE> 5
<MEAN> 39
 4.144976e-01 -3.112785e-01 1.596902e+00 1.059668e+00 -9.022898e-01 -1.564907e+00 -8.105057e-01 4.066967e-01 -9.966264e-01 -8.577287e-01 -3.138890e-01 7.833055e-01 9.831910e-01 -4.196382e-02 4.133256e-01 -5.821559e-01 3.884954e-01 8.294699e-01 2.741466e-01 4.424223e-01 -1.706575e-01 -3.369419e-02 8.432686e-02 -2.956327e-01 -3.656088e-01 -9.022292e-01 -3.530965e-01 6.279992e-01 -7.073585e-01 -1.090980e-01 6.501480e-01 5.511227e-01 4.514932e-01 -2.872448e-01 8.649257e-02 3.608435e-01 -8.585311e-02 -2.452571e-01 -9.415746e-01
<VARIANCE> 39
 1.911895e-01 3.799613e-01 7.723888e-01 5.859772e-01 5.651745e-01 8.741447e-01 6.341230e-01 8.580241e-01 1.081320e+00 8.651756e-01 9.803619e-01 9.192909e-01 3.470857e-01 5.348209e-01 7.237585e-01 1.310787e+00 7.820875e-01 7.400981e-01 1.060598e+00 1.018394e+00 9.690263e-01 8.778831e-01 8.827540e-01 7.208866e-01 8.199139e-01 9.037717e-01 7.360494e-01 7.474257e-01 1.034223e+00 7.693871e-01 8.261992e-01 1.075789e+00 8.902534e-01 8.772166e-01 8.281235e-01 8.142659e-01 7.116604e-01 7.896188e-01 8.773783e-01
<GCONST> 6.136567e+01
<STATE> 6
<MEAN> 39
 2.327212e-02 2.836691e-01 9.805310e-01 6.088554e-01 -2.625775e-01 -6.988435e-01 -2.329858e-01 -1.270945e-01 -7.685931e-01 -3.176112e-01 -2.190512e-01 4.941032e-01 3.991488e-02 -2.013268e-01 3.387008e-01 -5.621346e-01 -1.910466e-02 5.163308e-01 3.747820e-01 3.403946e-01 -1.423933e-01 5.454461e-02 2.342707e-01 -1.050139e-01 -2.502724e-01 -6.180454e-01 -2.126959e-01 4.110971e-02 -1.052482e-01 -9.588313e-02 2.409061e-02 7.055603e-02 2.677933e-02 4.019000e-02 2.728660e-02 5.302825e-02 9.446818e-03 1.365534e-02 -5.949679e-02
<VARIANCE> 39
 4.487504e-01 6.450976e-01 1.130020e+00 9.385923e-01 7.734060e-01 1.128215e+00 8.309330e-01 9.990150e-01 8.620727e-01 1.354184e+00 1.042472e+00 1.027326e+00 1.096897e+00 6.607478e-01 1.004163e+00 1.343856e+00 9.611595e-01 1.160237e+00 1.316463e+00 1.089691e+00 1.037406e+00 9.822897e-01 1.031753e+00 8.931536e-01 1.008813e+00 1.484041e+00 9.340687e-01 9.775069e-01 1.138825e+00 8.952272e-01 1.049831e+00 1.232980e+00 1.011100e+00 1.018449e+00 1.028027e+00 9.883146e-01 8.346165e-01 9.616592e-01 1.305504e+00
<GCONST> 7.146391e+01
<TRANSP> 7
 0.000000e+00 1.000000e+00 0.000000e+00 0.000000e+00 0.000000e+00 0.000000e+00 0.000000e+00
 0.000000e+00 7.262676e-01 2.737323e-01 0.000000e+00 0.000000e+00 0.000000e+00 0.000000e+00
 0.000000e+00 0.000000e+00 6.597941e-01 3.402059e-01 0.000000e+00 0.000000e+00 0.000000e+00
 0.000000e+00 0.000000e+00 0.000000e+00 8.907058e-01 1.092942e-01 0.000000e+00 0.000000e+00
 0.000000e+00 0.000000e+00 0.000000e+00 0.000000e+00 6.018616e-01 3.981385e-01 0.000000e+00
 0.000000e+00 0.000000e+00 0.000000e+00 0.000000e+00 0.000000e+00 6.442561e-01 3.557439e-01
 0.000000e+00 0.000000e+00 0.000000e+00 0.000000e+00 0.000000e+00 0.000000e+00 0.000000e+00
<ENDHMM>
~h "f"
<BEGINHMM>
<NUMSTATES> 7
<STATE> 2
<MEAN> 39
 3.246467e-01 3.046597e-01 -1.518881e-01 6.598834e-01 5.978046e-01 -8.677469e-02 4.262258e-01 3.155740e-01 -7.903495e-01 3.139379e-01 -5.442893e-01 9.722420e-02 3.788515e-01 -9.005655e-01 1.047334e+00 1.929287e-01 6.084897e-01 5.456207e-01 3.720082e-01 3.499520e-01 -2.790429e-01 -3.778856e-01 -3.856213e-01 -2.133597e-01 2.616189e-01 -5.398952e-01 -5.381466e-01 -2.113190e-01 3.769837e-02 -3.031554e-01 -5.114967e-01 -3.265657e-01 -3.148245e-01 -1.855183e-01 -1.291823e-01 -1.940107e-01 -4.554927e-02 9.512354e-02 4.970555e-01
<VARIANCE> 39
 5.352222e-01 6.122082e-01 7.852984e-01 5.707787e-01 5.620679e-01 1.051252e+00 7.797953e-01 1.058285e+00 6.537346e-01 7.360868e-01 6.319776e-01 9.416274e-01 7.407163e-01 1.587391e+00 1.738795e+00 1.714073e+00 1.547209e+00 1.176009e+00 1.840558e+00 1.656868e+00 1.640540e+00 1.525967e+00 1.481084e+00 1.147044e+00 1.489528e+00 2.067655e+00 1.921687e+00 1.680447e+00 1.552664e+00 1.434216e+00 1.292536e+00 1.656299e+00 1.352035e+00 1.433686e+00 1.141627e+00 1.343663e+00 1.081757e+00 1.431629e+00 1.683729e+00
<GCONST> 7.811253e+01
<STATE> 3
<MEAN> 39
 -2.529289e-01 8.659589e-01 1.453337e-01 8.853036e-01 6.174388e-01 -5.816579e-02 4.568844e-01 -3.256365e-02 -1.200969e+00 -1.648907e-01 -7.523478e-01 4.900177e-01 2.245160e-01 -8.307170e-01 1.318981e-01 -1.458405e-01 -5.109634e-02 -1.564935e-01 -3.345414e-01 -1.392779e-01 -2.534150e-01 -3.224550e-01 -1.561869e-01 -1.797646e-01 2.193762e-01 3.625980e-01 4.477869e-01 -4.598071e-01 -2.755294e-01 -4.319479e-01 -3.323885e-01 -1.558032e-01 -1.118734e-01 7.478439e-02 1.267164e-01 2.123477e-01 9.278782e-02 -1.424159e-01 4.649799e-01
<VARIANCE> 39
 4.063468e-01 3.431740e-01 7.598605e-01 3.629112e-01 3.751424e-01 6.194804e-01 6.263741e-01 8.120297e-01 4.549896e-01 5.306497e-01 5.208289e-01 7.741193e-01 5.190806e-01 1.252635e+00 9.236253e-01 1.195382e+00 1.078543e+00 8.997418e-01 1.436398e+00 1.423900e+00 1.515152e+00 1.178656e+00 1.137608e+00 1.126653e+00 1.437425e+00 9.391543e-01 1.523338e+00 1.321571e+00 1.456062e+00 1.195193e+00 1.102012e+00 1.450394e+00 1.527443e+00 1.701914e+00 1.345914e+00 1.345008e+00 1.191730e+00 1.574410e+00 1.246719e+00
<GCONST> 6.955766e+01
<STATE> 4
<MEAN> 39
 -3.464760e-01 9.348190e-01 -6.397471e-02 7.475637e-01 2.926331e-01 -6.111691e-01 1.460497e-02 -3.790640e-01 -1.615665e+00 -3.262358e-01 -1.003830e+00 6.168475e-01 4.428911e-01 -2.034714e-01 -5.136167e-02 -1.108833e-01 -1.407089e-01 -8.107422e-02 -1.783220e-02 2.482336e-02 -5.867827e-02 -3.581057e-02 5.989533e-02 -6.685525e-03 -1.960132e-02 3.151607e-01 2.581365e-01 -1.002310e-01 -3.116384e-02 -6.895402e-02 8.316328e-02 2.265602e-01 1.915596e-01 1.437376e-01 2.003617e-01 1.807703e-01 1.664682e-01 -5.766707e-02 -3.307481e-02
<VARIANCE> 39
 2.284842e-01 2.765971e-01 5.007994e-01 3.765557e-01 3.720258e-01 5.624303e-01 6.003544e-01 8.439919e-01 5.098217e-01 5.114245e-01 5.610397e-01 7.831365e-01 3.433114e-01 6.400552e-01 5.296336e-01 8.908111e-01 8.674306e-01 7.558678e-01 9.999349e-01 1.044401e+00 1.223154e+00 9.731444e-01 1.101057e+00 1.093029e+00 1.170601e+00 5.265784e-01 7.925529e-01 7.135719e-01 1.052751e+00 9.383087e-01 9.908050e-01 1.183176e+00 1.262595e+00 1.406995e+00 1.162089e+00 1.312448e+00 1.293794e+00 1.359425e+00 6.021367e-01
<GCONST> 6.069789e+01
<STATE> 5
<MEAN> 39
 -5.011142e-01 7.430835e-01 -3.782599e-01 5.527377e-01 4.581953e-01 -1.756907e-01 5.621715e-01 -1.309606e-01 -1.285857e+00 1.378104e-01 -7.530497e-01 4.672986e-01 8.509054e-01 6.368460e-02 -2.063727e-01 -1.822696e-01 -2.401602e-01 -3.999208e-02 1.574451e-01 1.291482e-01 7.566613e-02 1.598399e-01 1.841652e-01 2.009583e-01 -4.755036e-02 2.229472e-01 3.139737e-01 -1.505746e-02 1.892935e-01 1.318540e-01 3.201303e-02 1.294604e-02 -7.526512e-02 2.974127e-02 5.015005e-02 -1.163107e-01 -3.316846e-02 -5.268304e-02 -1.706854e-01
<VARIANCE> 39
 3.147832e-01 3.264165e-01 5.514919e-01 3.481865e-01 3.983299e-01 5.886620e-01 5.830951e-01 9.371432e-01 4.403044e-01 4.004601e-01 4.669794e-01 7.507780e-01 2.933775e-01 7.686638e-01 5.631772e-01 8.817740e-01 8.617247e-01 8.054482e-01 1.099795e+00 1.060737e+00 1.268819e+00 9.943538e-01 1.082512e+00 1.032496e+00 1.258947e+00 4.903370e-01 8.039544e-01 6.972936e-01 1.035609e+00 9.279280e-01 1.066422e+00 1.297835e+00 1.286674e+00 1.443570e+00 1.110921e+00 1.265169e+00 1.140534e+00 1.434540e+00 5.870956e-01
<GCONST> 6.099998e+01
<STATE> 6
<MEAN> 39
 -6.143315e-01 4.473235e-01 -1.927577e-01 2.182363e-01 2.455934e-01 4.399476e-02 5.408075e-01 -3.830100e-02 -8.267916e-01 8.988132e-02 -4.202248e-01 2.735693e-01 6.685849e-01 9.389552e-02 -1.791148e-02 5.880500e-02 -3.573430e-03 5.305576e-02 4.758006e-02 -1.704489e-02 1.036300e-02 4.226981e-02 -3.107872e-02 -1.305182e-02 -3.507712e-02 -2.496366e-02 1.881662e-01 2.934892e-02 7.693771e-02 6.538896e-02 4.020694e-02 -3.693447e-02 -4.977854e-02 8.400854e-03 -3.787256e-02 -3.759257e-02 -2.372500e-02 1.447966e-02 -8.600367e-02
<VARIANCE> 39
 6.626489e-01 4.641651e-01 8.643097e-01 7.444120e-01 4.781424e-01 6.082417e-01 5.927887e-01 8.547808e-01 7.054056e-01 5.277075e-01 7.637479e-01 7.747266e-01 9.671558e-01 5.235744e-01 4.862418e-01 7.317028e-01 7.629306e-01 7.137387e-01 8.783318e-01 8.847099e-01 1.022327e+00 8.375757e-01 8.755457e-01 9.646019e-01 1.070889e+00 4.326100e-01 6.914033e-01 6.231018e-01 8.829131e-01 8.558455e-01 9.040746e-01 1.018599e+00 1.032159e+00 1.111740e+00 9.571705e-01 9.920074e-01 1.101485e+00 1.166401e+00 4.906470e-01
<GCONST> 6.138155e+01
<TRANSP> 7
 0.000000e+00 1.000000e+00 0.000000e+00 0.000000e+00 0.000000e+00 0.000000e+00 0.000000e+00
 0.000000e+00 6.517349e-01 3.482651e-01 0.000000e+00 0.000000e+00 0.000000e+00 0.000000e+00
 0.000000e+00 0.000000e+00 6.273690e-01 3.726309e-01 0.000000e+00 0.000000e+00 0.000000e+00
 0.000000e+00 0.000000e+00 0.000000e+00 8.184404e-01 1.815596e-01 0.000000e+00 0.000000e+00
 0.000000e+00 0.000000e+00 0.000000e+00 0.000000e+00 7.888163e-01 2.111837e-01 0.000000e+00
 0.000000e+00 0.000000e+00 0.000000e+00 0.000000e+00 0.000000e+00 8.957425e-01 1.042576e-01
 0.000000e+00 0.000000e+00 0.000000e+00 0.000000e+00 0.000000e+00 0.000000e+00 0.000000e+00
<ENDHMM>
~h "g"
<BEGINHMM>
<NUMSTATES> 7
<STATE> 2
<MEAN> 39
 4.048473e-01 1.327431e-01 1.590793e-01 4.941657e-01 1.635732e-01 -2.754802e-01 -5.246354e-02 1.289314e-01 -1.086071e+00 -1.225373e-01 -1.868919e-01 2.649511e-02 2.059705e-01 -2.805696e-01 3.151490e-01 1.616970e-01 5.243919e-01 5.856282e-01 2.862539e-01 4.978890e-02 -3.217011e-01 -2.589634e-01 -2.496795e-01 -2.630948e-01 -1.235496e-01 -9.859035e-01 -2.264047e-01 -3.064777e-02 -1.259765e-01 4.337500e-02 2.166060e-01 1.728080e-01 6.577329e-02 -8.181721e-03 2.812124e-01 6.936543e-02 -2.212156e-01 -1.267484e-01 -2.586263e-01
<VARIANCE> 39
 5.581345e-01 9.954041e-01 1.563103e+00 1.032196e+00 1.642616e+00 2.666148e+00 1.095617e+00 1.535751e+00 1.264647e+00 1.071848e+00 1.219320e+00 1.194686e+00 6.170483e-01 9.410215e-01 9.331691e-01 1.664649e+00 1.408212e+00 1.535038e+00 1.635959e+00 1.365488e+00 1.587415e+00 1.477424e+00 1.289072e+00 1.481645e+00 1.357695e+00 1.832930e+00 1.065210e+00 8.764355e-01 1.604387e+00 1.092746e+00 1.247168e+00 1.521250e+00 1.251172e+00 1.294996e+00 1.258229e+00 1.273510e+00 1.381549e+00 1.326152e+00 1.182166e+00
<GCONST> 8.098809e+01
<STATE> 3
<MEAN> 39
 1.855199e-01 1.576134e-01 4.411315e-01 1.351907e+00 9.310852e-01 -1.685362e-01 -9.646822e-02 -2.790571e-01 -9.998329e-01 -3.757997e-01 -9.077185e-01 -3.332429e-01 -5.840659e-01 -5.254152e-01 3.656538e-01 3.349082e-01 6.067390e-01 6.998532e-01 1.393733e-01 -1.160105e-01 -1.060745e-01 4.207064e-01 -3.925206e-02 -5.588083e-01 -1.560432e-01 -9.919384e-01 8.055279e-02 -2.003025e-01 -6.383322e-02 -6.431001e-01 -7.465197e-01 -2.610409e-01 -1.672351e-02 3.012621e-01 2.575933e-01 3.129537e-01 3.353800e-01 1.703596e-01 8.812398e-01
<VARIANCE> 39
 2.550490e-01 6.135724e-01 7.461125e-01 7.441667e-01 8.603066e-01 1.064615e+00 1.156952e+00 1.063932e+00 1.073855e+00 7.248059e-01 1.129794e+00 9.544688e-01 3.370335e-01 1.059125e+00 1.702120e+00 1.734477e+00 1.226669e+00 1.372751e+00 1.873785e+00 1.519671e+00 1.673637e+00 1.763051e+00 1.441789e+00 1.700452e+00 1.222968e+00 1.696564e+00 1.185712e+00 1.572992e+00 1.686443e+00 9.963813e-01 1.326594e+00 1.262957e+00 1.288298e+00 1.429285e+00 1.515609e+00 1.216455e+00 1.466387e+00 1.048713e+00 1.533207e+00
<GCONST> 7.724593e+01
<STATE> 4
<MEAN> 39
 3.184427e-02 -1.246370e-02 3.857413e-01 1.687388e+00 1.342859e+00 -2.492769e-01 -3.602300e-01 1.744090e-02 -2.528540e-01 -1.292685e-01 -1.578785e+00 -7.425855e-01 -8.672192e-01 -2.823123e-01 9.732679e-02 -6.297759e-02 -3.567717e-01 -7.034758e-02 2.991072e-01 2.608277e-01 -4.235560e-02 8.186715e-02 2.460672e-01 2.357973e-01 1.548056e-01 -1.536979e-01 2.336308e-01 -2.156112e-02 -3.241982e-01 -5.948308e-01 -4.345862e-01 1.027307e-01 2.397489e-01 -5.258089e-02 -3.947015e-01 1.779544e-01 3.642511e-01 2.063043e-01 5.273407e-01
<VARIANCE> 39
 2.018853e-01 7.474340e-01 8.027140e-01 7.727571e-01 8.655456e-01 9.910174e-01 1.337211e+00 9.543890e-01 1.431592e+00 7.606702e-01 1.404581e+00 1.107947e+00 2.772952e-01 4.787825e-01 1.293188e+00 1.182699e+00 1.220623e+00 9.406123e-01 1.044994e+00 1.204374e+00 1.129029e+00 1.562608e+00 1.078391e+00 1.269088e+00 1.077667e+00 8.793405e-01 7.936378e-01 1.328305e+00 1.381706e+00 1.163979e+00 1.192033e+00 1.161279e+00 1.216507e+00 1.175435e+00 1.492103e+00 1.079044e+00 1.278226e+00 1.092507e+00 1.470737e+00
<GCONST> 7.193472e+01
<STATE> 5
<MEAN> 39
 -9.414914e-02 6.921519e-01 5.863045e-01 8.083212e-01 7.188095e-01 3.967574e-01 5.334486e-01 -3.695808e-01 -8.198426e-01 4.840466e-02 -7.074216e-01 -8.872420e-02 -1.163772e+00 -2.527628e-01 -7.610874e-02 -1.179775e-01 -2.648875e-01 -1.033657e-01 7.427423e-02 1.003783e-01 -9.768877e-03 6.529859e-02 2.064998e-01 9.826122e-02 1.201522e-01 -3.247011e-02 1.389235e-03 -1.532827e-01 -7.045949e-02 -1.295093e-02 -4.403543e-02 -1.089106e-01 -8.238088e-02 1.797666e-02 -3.413779e-02 -1.199218e-02 -3.511750e-02 -2.047036e-03 3.407337e-01
<VARIANCE> 39
 1.720592e-01 4.527961e-01 5.205511e-01 4.192296e-01 4.329304e-01 6.273493e-01 5.972489e-01 7.441822e-01 6.234148e-01 6.463347e-01 8.728558e-01 1.074584e+00 2.301462e-01 3.758619e-01 8.904771e-01 8.321773e-01 9.230002e-01 6.838312e-01 7.749673e-01 8.708564e-01 9.243895e-01 1.005789e+00 1.046340e+00 9.178156e-01 1.038471e+00 6.630906e-01 6.608938e-01 1.031116e+00 1.008403e+00 9.610384e-01 8.154889e-01 8.652407e-01 9.285747e-01 9.985732e-01 1.082641e+00 1.109001e+00 9.468552e-01 1.103203e+00 9.744663e-01
<GCONST> 5.978981e+01
<STATE> 6
<MEAN> 39
 -8.365213e-01 1.282105e-01 -4.121535e-01 -5.325204e-01 -3.422047e-02 -1.463805e-01 -4.999626e-02 -3.584894e-01 6.594568e-02 6.296728e-01 -1.639859e-02 2.541247e-01 -1.534421e+00 -1.736945e-02 -9.594252e-03 -6.576529e-03 -1.530414e-02 -1.294504e-02 -1.337189e-02 -1.621648e-03 -4.240372e-03 -1.162230e-02 7.951474e-03 -6.180667e-03 1.258058e-04 3.730339e-02 4.557864e-02 1.666107e-02 2.787391e-02 3.455880e-02 1.365511e-02 -5.137536e-03 -2.344007e-03 9.846398e-03 -1.475854e-02 -2.423657e-02 -1.872675e-02 -3.266124e-03 6.640247e-02
<VARIANCE> 39
 1.090355e-01 2.486853e-01 3.347684e-01 3.869335e-01 3.344314e-01 5.529334e-01 4.271436e-01 6.258738e-01 4.487295e-01 5.405055e-01 5.999793e-01 7.996677e-01 1.785670e-01 2.288131e-01 7.461138e-01 6.956058e-01 8.586258e-01 5.183382e-01 6.006967e-01 6.767281e-01 8.206077e-01 8.213718e-01 9.604095e-01 9.722378e-01 9.470282e-01 5.854669e-01 5.092455e-01 9.465977e-01 9.662592e-01 1.030188e+00 6.857130e-01 7.308568e-01 8.104883e-01 9.281632e-01 1.054045e+00 1.123841e+00 1.083474e+00 1.009127e+00 7.700437e-01
<GCONST> 5.253921e+01
<TRANSP> 7
 0.000000e+00 1.000000e+00 0.000000e+00 0.000000e+00 0.000000e+00 0.000000e+00 0.000000e+00
 0.000000e+00 8.068734e-01 1.931266e-01 0.000000e+00 0.000000e+00 0.000000e+00 0.000000e+00
 0.000000e+00 0.000000e+00 5.794478e-01 4.205522e-01 0.000000e+00 0.000000e+00 0.000000e+00
 0.000000e+00 0.000000e+00 0.000000e+00 6.451287e-01 3.548714e-01 0.000000e+00 0.000000e+00
 0.000000e+00 0.000000e+00 0.000000e+00 0.000000e+00 8.495321e-01 1.504678e-01 0.000000e+00
 0.000000e+00 0.000000e+00 0.000000e+00 0.000000e+00 0.000000e+00 9.579720e-01 4.202795e-02
 0.000000e+00 0.000000e+00 0.000000e+00 0.000000e+00 0.000000e+00 0.000000e+00 0.000000e+00
<ENDHMM>
~h "h"
<BEGINHMM>
<NUMSTATES> 7
<STATE> 2
<MEAN> 39
 -7.334554e-01 1.050812e-01 3.219801e-01 4.646553e-01 3.128694e-01 2.889872e-01 5.621921e-01 -2.305448e-02 -9.181330e-01 2.163914e-01 -2.020474e-01 5.080976e-01 -1.656047e-01 7.279148e-01 -1.792780e-01 5.932567e-01 9.063864e-01 -5.060057e-02 5.615615e-02 2.099323e-01 8.610988e-02 -4.278591e-01 -3.429017e-01 -3.203846e-01 -2.481859e-01 1.377251e+00 6.284601e-01 6.639692e-02 1.716010e-03 -9.888742e-03 -1.190591e-01 -3.561586e-01 -9.875311e-02 2.054241e-01 -8.132340e-02 -7.296535e-02 -2.572401e-01 -1.329578e-01 5.217279e-01
<VARIANCE> 39
 6.376279e-01 6.564557e-01 6.447518e-01 5.185051e-01 5.466959e-01 6.206247e-01 4.941108e-01 7.318273e-01 7.321828e-01 6.306785e-01 9.366136e-01 9.583704e-01 9.420636e-01 1.270998e+00 1.664441e+00 1.316519e+00 1.397868e+00 1.123991e+00 1.328311e+00 1.099049e+00 1.564658e+00 1.380738e+00 1.154478e+00 1.370401e+00 1.570727e+00 2.302943e+00 1.637807e+00 1.548371e+00 1.669309e+00 1.299425e+00 1.147538e+00 1.380475e+00 1.123951e+00 1.402086e+00 1.168581e+00 1.367826e+00 1.336323e+00 1.816633e+00 2.416068e+00
<GCONST> 7.589920e+01
<STATE> 3
<MEAN> 39
 -8.212429e-02 -1.114362e-01 4.550121e-01 8.497826e-01 2.792602e-01 -1.933858e-02 5.379609e-01 1.315028e-01 -1.080171e+00 -8.413374e-02 -5.694367e-01 2.794936e-01 5.843731e-01 8.330199e-01 -5.725402e-01 -5.102435e-02 1.659974e-01 -4.082846e-01 -4.045141e-01 -1.101775e-02 2.367866e-01 -2.376208e-01 -1.282147e-01 -1.292512e-01 3.370740e-02 1.370355e+00 -6.330422e-01 -1.037687e-01 -4.533456e-01 -5.450193e-01 -2.911737e-01 -8.579993e-02 2.043304e-02 -3.296778e-02 1.823443e-01 1.585137e-01 3.588033e-01 2.265728e-01 -9.130954e-01
<VARIANCE> 39
 5.638762e-01 4.521433e-01 8.185850e-01 6.201077e-01 6.249816e-01 1.012881e+00 8.463462e-01 1.030073e+00 9.636391e-01 7.099183e-01 5.903375e-01 8.913127e-01 7.146494e-01 1.514599e+00 1.425100e+00 1.989421e+00 1.745967e+00 1.210361e+00 1.488035e+00 1.463061e+00 1.767627e+00 1.313136e+00 1.547731e+00 1.149301e+00 1.410226e+00 3.197460e+00 1.737003e+00 1.770032e+00 1.677016e+00 1.457500e+00 1.521106e+00 1.413067e+00 1.484407e+00 1.814119e+00 1.384402e+00 1.332444e+00 9.119347e-01 1.458642e+00 3.254632e+00
<GCONST> 7.943829e+01
<STATE> 4
<MEAN> 39
 1.627129e-01 -3.521604e-01 5.815339e-01 1.121889e+00 -3.321019e-01 -2.358030e-01 5.853763e-01 3.963693e-01 -1.515846e+00 -5.066125e-01 -4.971623e-01 4.616106e-01 7.982929e-01 4.208369e-01 -2.304459e-01 7.194294e-02 2.579272e-01 -3.383577e-01 -5.750197e-01 -1.414444e-01 3.258366e-01 -9.523331e-02 -4.096470e-01 8.593762e-02 2.391107e-01 2.201843e-01 -4.727835e-01 4.784329e-01 2.371092e-01 -5.881112e-02 2.760444e-01 1.534125e-01 -1.200592e-01 -1.483688e-01 1.660772e-01 1.298291e-01 -2.177551e-02 -3.996825e-02 -7.276728e-01
<VARIANCE> 39
 5.208115e-01 4.236815e-01 1.252235e+00 6.401390e-01 8.410119e-01 8.280537e-01 9.544351e-01 9.977012e-01 9.903200e-01 1.290291e+00 5.483531e-01 7.758400e-01 4.805001e-01 1.031176e+00 8.613992e-01 1.719590e+00 1.084076e+00 1.374921e+00 1.283465e+00 1.254350e+00 1.626374e+00 1.308194e+00 1.531524e+00 8.869639e-01 1.266084e+00 7.428914e-01 9.103400e-01 1.118592e+00 1.735346e+00 1.046603e+00 1.270899e+00 1.449252e+00 1.326237e+00 1.522635e+00 1.463916e+00 1.376549e+00 9.397258e-01 1.244338e+00 1.196312e+00
<GCONST> 7.345549e+01
<STATE> 5
<MEAN> 39
 5.228713e-01 -3.695644e-01 9.509314e-01 1.466341e+00 -4.465948e-01 -1.058080e+00 -1.648141e-01 6.608948e-01 -1.051664e+00 -9.958888e-01 -4.941572e-01 9.335108e-01 6.743703e-01 -5.837876e-02 1.516965e-01 3.013355e-01 -8.147411e-03 4.900378e-03 9.201413e-02 3.972508e-02 -4.180029e-02 9.767368e-03 -1.355407e-02 -8.152394e-02 -1.657662e-01 -1.480095e-01 -2.187832e-01 1.638555e-01 1.895979e-01 -1.106754e-01 5.905711e-02 3.054885e-01 9.062562e-02 -2.075489e-01 2.925348e-02 8.162677e-02 -7.345784e-02 -1.148187e-01 -1.620266e-01
<VARIANCE> 39
 3.719299e-01 4.973235e-01 7.630395e-01 8.670999e-01 6.701840e-01 9.415970e-01 8.811696e-01 1.347773e+00 1.080839e+00 1.207154e+00 5.436848e-01 9.335768e-01 4.785677e-01 5.599133e-01 6.785712e-01 1.589164e+00 1.117855e+00 9.276481e-01 1.174799e+00 8.109391e-01 1.155084e+00 9.189902e-01 1.107827e+00 8.512544e-01 1.109291e+00 7.605666e-01 6.169738e-01 7.832037e-01 1.329759e+00 9.149004e-01 1.042624e+00 1.013208e+00 8.742409e-01 1.180137e+00 8.449791e-01 1.043751e+00 9.317379e-01 1.126986e+00 8.916361e-01
<GCONST> 6.681687e+01
<STATE> 6
<MEAN> 39
 5.797242e-01 -8.158898e-01 -5.261228e-01 2.936724e-02 2.047855e-01 -1.976535e-03 6.546971e-01 1.617686e-01 -4.685058e-01 5.766588e-01 -5.423490e-01 -9.436730e-01 7.244651e-01 -1.015899e-01 2.148787e-01 2.569096e-01 8.180128e-02 4.308350e-02 1.086720e-01 3.541677e-02 -1.466845e-01 -4.862768e-02 -7.876983e-02 -9.768687e-02 -3.651417e-02 -1.683981e-01 -1.021628e-01 1.687256e-01 2.128423e-01 1.036489e-01 5.057504e-02 1.450676e-02 -1.113955e-01 -1.190484e-01 -5.076349e-02 -1.829663e-01 -4.141539e-02 1.066188e-01 -1.820631e-01
<VARIANCE> 39
 4.937411e-01 7.835357e-01 1.564159e+00 1.330064e+00 7.673729e-01 1.130583e+00 1.101283e+00 8.995895e-01 1.188689e+00 1.178090e+00 1.689195e+00 1.599878e+00 5.323893e-01 4.794506e-01 5.820235e-01 9.012769e-01 6.634070e-01 6.017005e-01 6.753722e-01 5.751438e-01 7.606137e-01 6.487648e-01 8.205694e-01 6.705460e-01 7.515215e-01 5.213516e-01 6.154676e-01 4.960364e-01 8.699889e-01 6.114581e-01 6.398134e-01 5.713751e-01 5.560981e-01 6.255370e-01 5.794721e-01 8.437304e-01 5.704635e-01 7.638502e-01 5.800653e-01
<GCONST> 6.055347e+01
<TRANSP> 7
 0.000000e+00 1.000000e+00 0.000000e+00 0.000000e+00 0.000000e+00 0.000000e+00 0.000000e+00
 0.000000e+00 6.879677e-01 3.120324e-01 0.000000e+00 0.000000e+00 0.000000e+00 0.000000e+00
 0.000000e+00 0.000000e+00 5.161573e-01 4.838427e-01 0.000000e+00 0.000000e+00 0.000000e+00
 0.000000e+00 0.000000e+00 0.000000e+00 6.044491e-01 3.955509e-01 0.000000e+00 0.000000e+00
 0.000000e+00 0.000000e+00 0.000000e+00 0.000000e+00 7.736829e-01 2.263170e-01 0.000000e+00
 0.000000e+00 0.000000e+00 0.000000e+00 0.000000e+00 0.000000e+00 7.240767e-01 2.759233e-01
 0.000000e+00 0.000000e+00 0.000000e+00 0.000000e+00 0.000000e+00 0.000000e+00 0.000000e+00
<ENDHMM>
~h "i"
<BEGINHMM>
<NUMSTATES> 7
<STATE> 2
<MEAN> 39
 -8.960982e-01 7.413781e-01 5.144287e-01 1.777741e-01 6.484200e-01 2.847014e-01 5.973635e-01 -1.642926e-01 -8.515855e-01 4.167601e-03 -4.471645e-01 2.485142e-01 1.066316e-01 1.432527e-01 2.408453e-01 5.796079e-01 1.227254e-01 4.829943e-02 1.422064e-02 -9.316182e-02 -6.173390e-02 -1.773136e-01 -2.781964e-01 -1.260517e-01 -1.688774e-02 2.094359e-01 3.844050e-01 1.380173e-02 2.939664e-01 2.086672e-01 -8.034931e-02 -1.454896e-01 -1.803783e-01 -4.134823e-02 -6.049853e-02 -2.047417e-01 -7.330409e-02 5.366040e-02 -2.300611e-03
<VARIANCE> 39
 1.086274e+00 9.261991e-01 8.997149e-01 7.313387e-01 7.208365e-01 1.016800e+00 7.071162e-01 8.854591e-01 5.623327e-01 5.821996e-01 6.780826e-01 8.679659e-01 9.213706e-01 1.180885e+00 9.386576e-01 1.314378e+00 1.195814e+00 9.128389e-01 1.062782e+00 1.000605e+00 1.180938e+00 9.039560e-01 1.089303e+00 9.995971e-01 1.126838e+00 1.286936e+00 1.383846e+00 1.010478e+00 1.216885e+00 1.206882e+00 1.045955e+00 1.136586e+00 1.126354e+00 1.255198e+00 9.518668e-01 1.169797e+00 1.030198e+00 1.212047e+00 1.293483e+00
<GCONST> 7.163063e+01
<STATE> 3
<MEAN> 39
 -4.761794e-01 1.200408e+00 1.871264e+00 7.811796e-01 5.106251e-01 -1.660281e-01 4.353676e-02 -4.324954e-01 -1.341461e+00 -1.052205e+00 -1.010311e+00 4.871501e-01 3.465248e-01 8.924931e-01 -3.126721e-01 1.292048e+00 3.867494e-01 -6.351498e-01 -3.957835e-01 -7.564640e-01 4.530793e-02 -1.893803e-01 -9.419618e-01 -1.476220e-01 3.643452e-01 3.513731e-01 -4.613395e-01 -4.073701e-01 -6.408085e-01 -3.665225e-01 -1.289698e-01 1.179530e-01 3.278735e-02 1.996601e-01 2.097540e-01 2.549021e-01 2.147607e-01 2.421895e-02 -5.853303e-03
<VARIANCE> 39
 3.938700e-01 8.036943e-01 5.535384e-01 4.096047e-01 7.076054e-01 7.500932e-01 5.282398e-01 6.889558e-01 4.710511e-01 5.871216e-01 6.841280e-01 7.481850e-01 4.223841e-01 1.343561e+00 1.203867e+00 1.320379e+00 1.294872e+00 1.087219e+00 1.294061e+00 9.978315e-01 1.244656e+00 9.396904e-01 1.013900e+00 1.025510e+00 1.131420e+00 7.294670e-01 1.109974e+00 1.067918e+00 1.245910e+00 1.063111e+00 1.200758e+00 1.222887e+00 1.000315e+00 1.187011e+00 8.918341e-01 1.033301e+00 9.051834e-01 1.122705e+00 7.100947e-01
<GCONST> 6.654108e+01
<STATE> 4
<MEAN> 39
 -1.345919e-01 7.175269e-01 2.498184e+00 7.694464e-01 -2.007288e-01 -2.810432e-01 -7.284655e-01 -1.459059e-01 -1.592082e+00 -1.652074e+00 -8.997935e-01 6.748782e-01 5.925029e-01 1.466645e-02 -4.083484e-02 -8.545659e-02 4.783683e-02 -4.404506e-02 -2.500131e-02 1.881898e-02 -2.104362e-03 9.708555e-03 2.056212e-02 3.569167e-02 -1.733645e-02 -7.282028e-02 -4.704011e-02 5.183464e-02 -3.517868e-01 1.704828e-02 1.565990e-01 4.002468e-02 1.948297e-01 -3.542489e-02 7.081307e-02 2.212326e-01 1.998169e-02 -8.638730e-02 -2.562982e-01
<VARIANCE> 39
 1.813635e-01 5.571739e-01 4.295706e-01 4.773161e-01 7.303368e-01 9.448704e-01 5.507316e-01 8.733288e-01 7.148872e-01 6.962433e-01 1.199510e+00 1.118955e+00 3.380340e-01 3.099226e-01 4.975155e-01 6.930043e-01 6.459270e-01 6.243571e-01 7.787039e-01 6.708954e-01 7.550648e-01 6.211780e-01 6.928229e-01 6.186100e-01 6.871013e-01 4.792230e-01 4.314261e-01 4.769827e-01 8.449166e-01 6.361939e-01 6.793748e-01 8.169395e-01 6.965079e-01 7.736688e-01 6.179088e-01 7.276688e-01 6.234573e-01 6.975660e-01 4.658988e-01
<GCONST> 5.289627e+01
<STATE> 5
<MEAN> 39
 -3.567567e-01 9.491287e-01 1.194523e+00 6.701587e-01 4.665363e-01 1.774000e-01 2.532364e-01 -3.349060e-01 -1.040076e+00 -6.306329e-01 -5.397509e-01 2.177570e-01 -3.720552e-01 -2.142974e-01 -1.548354e-01 -7.933448e-01 -2.137042e-01 1.212374e-01 1.356958e-01 2.621453e-01 5.390657e-02 2.988711e-01 5.160725e-01 1.664743e-01 -8.483252e-02 -6.095666e-01 -1.106934e-01 -5.046005e-02 -3.851923e-02 -1.227829e-01 -9.119592e-02 -6.387538e-02 -9.212205e-02 2.185319e-02 2.077240e-02 3.755891e-02 1.814577e-02 3.519214e-02 1.064898e-01
<VARIANCE> 39
 5.254778e-01 6.403357e-01 7.460799e-01 5.830421e-01 6.025001e-01 7.620426e-01 5.706695e-01 8.225895e-01 5.902143e-01 7.988313e-01 7.339402e-01 9.105994e-01 5.732769e-01 5.951257e-01 9.604145e-01 1.345203e+00 1.024435e+00 8.616053e-01 1.084638e+00 9.752350e-01 1.079841e+00 1.008709e+00 1.155962e+00 9.862895e-01 1.115421e+00 1.011043e+00 7.682353e-01 1.011125e+00 1.096607e+00 1.009919e+00 9.204647e-01 1.144203e+00 1.018844e+00 1.136867e+00 1.058289e+00 1.074443e+00 9.487123e-01 1.100686e+00 8.700001e-01
<GCONST> 6.659579e+01
<STATE> 6
<MEAN> 39
 -8.569344e-01 8.061937e-02 -3.373279e-01 -4.187516e-01 8.769855e-04 -3.414352e-02 1.014023e-01 -2.418958e-01 -1.063245e-01 3.599859e-01 -8.322848e-02 3.676874e-01 -1.517649e+00 -1.879917e-02 -1.358890e-02 -4.687941e-02 -1.914187e-02 -1.154680e-02 -1.979195e-02 -7.263393e-03 -5.761623e-03 7.070873e-03 2.509670e-02 -1.560097e-03 -1.102545e-02 -2.103771e-02 2.603955e-02 2.530835e-02 4.736343e-02 4.191663e-02 2.431665e-02 4.345664e-03 -6.177337e-04 -3.310739e-03 -2.422268e-02 -3.092414e-02 -1.929721e-02 -6.539391e-03 4.918661e-02
<VARIANCE> 39
 9.188479e-02 2.920028e-01 3.496656e-01 3.329774e-01 3.660574e-01 5.230930e-01 4.104105e-01 6.269459e-01 3.918926e-01 5.746363e-01 6.337463e-01 7.711530e-01 2.353901e-01 2.340354e-01 7.599652e-01 7.019823e-01 8.107334e-01 5.711065e-01 6.999041e-01 7.324080e-01 8.760761e-01 8.719118e-01 1.020231e+00 8.958622e-01 1.041872e+00 5.478168e-01 5.012251e-01 9.479102e-01 9.622324e-01 9.731234e-01 7.693086e-01 8.451430e-01 9.122419e-01 1.019343e+00 1.116327e+00 1.189306e+00 9.884055e-01 1.137681e+00 7.462886e-01
<GCONST> 5.360081e+01
<TRANSP> 7
 0.000000e+00 1.000000e+00 0.000000e+00 0.000000e+00 0.000000e+00 0.000000e+00 0.000000e+00
 0.000000e+00 8.274345e-01 1.725655e-01 0.000000e+00 0.000000e+00 0.000000e+00 0.000000e+00
 0.000000e+00 0.000000e+00 7.476497e-01 2.523504e-01 0.000000e+00 0.000000e+00 0.000000e+00
 0.000000e+00 0.000000e+00 0.000000e+00 9.083049e-01 9.169513e-02 0.000000e+00 0.000000e+00
 0.000000e+00 0.000000e+00 0.000000e+00 0.000000e+00 8.406325e-01 1.593675e-01 0.000000e+00
 0.000000e+00 0.000000e+00 0.000000e+00 0.000000e+00 0.000000e+00 9.625623e-01 3.743768e-02
 0.000000e+00 0.000000e+00 0.000000e+00 0.000000e+00 0.000000e+00 0.000000e+00 0.000000e+00
<ENDHMM>
~h "j"
<BEGINHMM>
<NUMSTATES> 7
<STATE> 2
<MEAN> 39
 -1.036677e+00 6.780946e-01 8.828185e-01 1.457257e-01 4.733477e-01 4.260031e-01 6.147007e-01 -7.612120e-02 -1.076247e+00 6.830008e-02 -5.831340e-01 5.159587e-01 5.451755e-01 -3.508120e-02 1.243914e-01 4.780807e-01 1.001406e-01 -2.050133e-02 6.888393e-02 -4.606920e-02 -1.290440e-01 -1.182306e-01 -1.105630e-01 -2.101535e-01 8.706848e-03 3.872849e-01 4.300710e-01 5.191093e-03 7.522038e-02 2.157551e-01 -5.183777e-02 -2.485670e-01 -1.375069e-01 2.793316e-02 -1.161397e-02 -1.533357e-01 -7.069284e-02 -2.280022e-02 -9.840061e-02
<VARIANCE> 39
 8.980038e-01 6.996289e-01 7.854882e-01 5.568133e-01 7.575312e-01 9.381921e-01 7.212711e-01 7.764384e-01 5.742834e-01 5.388393e-01 7.253431e-01 7.371391e-01 6.981155e-01 1.386561e+00 1.067371e+00 1.315131e+00 1.261150e+00 1.123576e+00 1.225438e+00 1.182311e+00 1.193655e+00 9.460809e-01 9.468166e-01 1.024794e+00 1.182478e+00 1.910829e+00 1.782842e+00 1.039485e+00 1.432034e+00 1.265455e+00 1.213942e+00 1.368963e+00 1.262013e+00 1.283063e+00 1.019221e+00 1.135170e+00 1.083846e+00 1.279149e+00 1.874610e+00
<GCONST> 7.289989e+01
<STATE> 3
<MEAN> 39
 -5.491381e-01 6.016380e-01 1.311001e+00 3.717097e-01 2.137141e-01 8.635861e-02 6.859356e-02 -1.210029e-01 -1.227104e+00 -3.836994e-01 -6.847789e-01 3.786986e-01 5.892755e-01 7.925875e-01 7.394291e-02 1.040242e+00 8.509384e-01 -1.503296e-01 -6.021127e-01 -6.272704e-01 -1.203431e-01 -2.269166e-01 -7.541718e-01 -3.270186e-01 1.472871e-01 2.217755e-01 6.977907e-01 -3.469258e-01 -5.355557e-02 2.470547e-01 -3.153663e-01 -6.081157e-01 -3.207166e-01 3.213217e-01 2.509274e-01 -3.730373e-01 1.023585e-01 3.170261e-01 2.554672e-01
<VARIANCE> 39
 6.473492e-01 8.635730e-01 1.020870e+00 5.411947e-01 9.015514e-01 1.125797e+00 1.008618e+00 8.621553e-01 8.069487e-01 8.462484e-01 9.642850e-01 8.965017e-01 4.885054e-01 2.175683e+00 1.143993e+00 1.646085e+00 1.669933e+00 1.256068e+00 1.789596e+00 1.190183e+00 1.331132e+00 1.208214e+00 1.046655e+00 1.076447e+00 1.164791e+00 8.962889e-01 1.297885e+00 9.577535e-01 1.584589e+00 1.169911e+00 1.305487e+00 1.528144e+00 1.524326e+00 1.296888e+00 1.139233e+00 1.218856e+00 1.074722e+00 1.173341e+00 6.928512e-01
<GCONST> 7.507886e+01
<STATE> 4
<MEAN> 39
 -2.543005e-01 7.404243e-01 1.710149e+00 7.575797e-01 1.461598e-01 -4.104587e-01 -2.204939e-01 -2.244068e-01 -1.336615e+00 -8.239947e-01 -9.077396e-01 6.601294e-01 6.266917e-01 1.195345e+00 -6.097404e-01 6.290842e-01 7.634043e-01 -6.296904e-01 -9.883533e-01 -7.994995e-01 2.492235e-01 1.222742e-01 -7.853161e-01 -1.008371e-01 4.857679e-01 5.254899e-01 -6.876925e-02 -6.015542e-01 -7.049789e-01 -4.150047e-01 -2.473034e-01 -4.301864e-02 -3.446287e-02 3.872260e-01 4.095038e-01 2.313729e-01 2.993582e-01 9.821968e-02 2.466911e-01
<VARIANCE> 39
 3.376184e-01 6.451458e-01 8.126888e-01 5.612080e-01 7.620112e-01 7.899883e-01 6.855118e-01 6.670142e-01 6.517173e-01 7.151998e-01 8.861006e-01 8.183970e-01 3.863545e-01 2.132149e+00 1.280017e+00 1.667157e+00 1.333701e+00 1.414401e+00 1.835773e+00 1.213131e+00 1.254560e+00 1.160694e+00 1.047939e+00 1.027274e+00 1.064561e+00 8.279848e-01 1.277947e+00 8.333610e-01 1.237520e+00 9.927446e-01 1.127186e+00 1.105609e+00 1.205048e+00 1.119651e+00 1.041988e+00 9.783423e-01 8.916707e-01 9.598622e-01 5.273718e-01
<GCONST> 6.932829e+01
<STATE> 5
<MEAN> 39
 3.097884e-01 -3.818370e-02 1.368457e+00 1.247804e+00 -3.075678e-01 -1.196988e+00 -7.384608e-01 3.074661e-01 -1.082071e+00 -1.044055e+00 -8.251900e-01 9.560103e-01 8.925905e-01 7.721426e-01 -6.032704e-01 -1.959638e-01 -1.513835e-01 -3.200428e-01 -4.435160e-01 -7.796258e-01 2.596667e-01 4.907708e-01 -1.808445e-01 2.580032e-01 2.734378e-01 3.494219e-01 -5.672580e-01 2.975972e-01 -7.271876e-01 -9.159160e-01 2.588418e-01 9.801323e-01 3.757561e-01 -4.487140e-01 -3.415011e-02 7.322992e-01 2.421162e-01 -3.631382e-01 -2.472111e-01
<VARIANCE> 39
 3.035077e-01 6.282232e-01 9.968063e-01 9.998841e-01 6.362542e-01 1.007452e+00 7.569288e-01 8.139623e-01 8.143415e-01 8.236146e-01 8.949491e-01 9.446051e-01 3.590086e-01 1.846227e+00 1.364006e+00 3.582555e+00 1.299015e+00 1.602930e+00 1.856616e+00 1.550259e+00 1.552297e+00 1.337669e+00 1.399577e+00 1.052068e+00 1.174667e+00 9.461771e-01 1.234706e+00 9.793984e-01 1.270792e+00 1.238024e+00 1.100824e+00 1.634204e+00 1.356322e+00 1.438480e+00 1.243998e+00 1.050576e+00 7.963659e-01 1.005326e+00 6.373133e-01
<GCONST> 7.420287e+01
<STATE> 6
<MEAN> 39
 5.569384e-02 2.798082e-01 2.173825e+00 8.091817e-01 -5.178936e-01 -6.107131e-01 -9.950780e-01 3.747398e-02 -1.123719e+00 -1.485938e+00 -6.084517e-01 9.780719e-01 9.205709e-01 2.082341e-01 -2.450081e-01 -4.892727e-01 -1.025002e-01 -1.390947e-01 -9.073191e-02 -3.761996e-02 2.843707e-02 2.253337e-01 2.655601e-01 1.279487e-01 -3.343085e-02 2.176929e-01 6.115316e-02 -3.602614e-02 -3.785997e-01 -8.416837e-02 4.491223e-02 4.334668e-02 1.812872e-01 8.033165e-03 2.912127e-02 2.338445e-01 1.698825e-02 -9.809756e-02 -5.287609e-02
<VARIANCE> 39
 2.301876e-01 6.133779e-01 7.966093e-01 7.832883e-01 7.104869e-01 1.055320e+00 5.887464e-01 7.696179e-01 9.287080e-01 7.663231e-01 1.247722e+00 9.355987e-01 3.597391e-01 4.425299e-01 7.272800e-01 1.290133e+00 8.759156e-01 9.465755e-01 1.126917e+00 7.511530e-01 9.539208e-01 9.053300e-01 9.275017e-01 7.591140e-01 8.568966e-01 6.949729e-01 4.869142e-01 5.263267e-01 7.708057e-01 7.145754e-01 7.992796e-01 1.056566e+00 7.962881e-01 9.142142e-01 7.659332e-01 7.256981e-01 6.741554e-01 7.550934e-01 5.647744e-01
<GCONST> 6.043357e+01
<TRANSP> 7
 0.000000e+00 1.000000e+00 0.000000e+00 0.000000e+00 0.000000e+00 0.000000e+00 0.000000e+00
 0.000000e+00 7.790180e-01 2.209820e-01 0.000000e+00 0.000000e+00 0.000000e+00 0.000000e+00
 0.000000e+00 0.000000e+00 3.814395e-01 6.185605e-01 0.000000e+00 0.000000e+00 0.000000e+00
 0.000000e+00 0.000000e+00 0.000000e+00 4.422399e-01 5.577601e-01 0.000000e+00 0.000000e+00
 0.000000e+00 0.000000e+00 0.000000e+00 0.000000e+00 5.239912e-01 4.760088e-01 0.000000e+00
 0.000000e+00 0.000000e+00 0.000000e+00 0.000000e+00 0.000000e+00 8.729460e-01 1.270540e-01
 0.000000e+00 0.000000e+00 0.000000e+00 0.000000e+00 0.000000e+00 0.000000e+00 0.000000e+00
<ENDHMM>
~h "k"
<BEGINHMM>
<NUMSTATES> 7
<STATE> 2
<MEAN> 39
 2.270982e-01 -2.901361e-01 3.206446e-01 4.791407e-01 -1.298349e-01 -6.587196e-01 -1.053262e-01 4.073465e-01 -9.318559e-01 8.673757e-03 -1.039280e-01 2.237527e-01 4.038019e-01 -2.688510e-01 1.619868e-01 4.134812e-02 6.335320e-01 6.866474e-01 1.175315e-01 1.953178e-02 -1.269642e-01 -3.103716e-01 -7.051047e-02 -1.205104e-01 1.812311e-02 -8.008233e-01 -3.738000e-01 -9.044409e-04 -3.939338e-01 1.238033e-01 5.277029e-01 2.571170e-01 4.244728e-02 -5.976508e-02 3.059009e-01 4.069968e-02 -3.956374e-01 -1.055669e-01 -5.571744e-01
<VARIANCE> 39
 6.850932e-01 8.133785e-01 1.603936e+00 1.025432e+00 1.140146e+00 1.783406e+00 1.014014e+00 1.823667e+00 1.305813e+00 1.074593e+00 1.273074e+00 1.382447e+00 1.098628e+00 9.377753e-01 1.155707e+00 1.647262e+00 1.465005e+00 1.333589e+00 1.292809e+00 1.306349e+00 1.373940e+00 1.483109e+00 1.208985e+00 1.267080e+00 1.238761e+00 2.325362e+00 1.308924e+00 9.670475e-01 1.659431e+00 1.119008e+00 1.230410e+00 1.362934e+00 1.147029e+00 1.332715e+00 1.301246e+00 1.212685e+00 1.262824e+00 1.290404e+00 2.453242e+00
<GCONST> 8.152013e+01
<STATE> 3
<MEAN> 39
 -3.020411e-02 -1.459645e-01 -3.937536e-02 7.282282e-01 7.541808e-01 -1.659430e-01 -3.269960e-02 1.135755e-01 -1.036452e+00 -3.344327e-03 -2.969963e-01 2.334754e-01 -1.423395e-01 -7.676089e-01 -3.107477e-01 -5.732088e-01 6.729402e-01 1.169624e+00 1.383375e-01 -1.776715e-01 6.382106e-02 6.046112e-01 1.575512e-01 -5.849116e-01 -9.823316e-02 -1.087395e+00 -4.524244e-01 -3.256686e-01 -2.190056e-01 -3.596141e-01 -3.801804e-01 -1.016042e-01 4.051545e-02 1.871865e-01 5.394919e-01 2.110491e-01 4.330663e-03 7.005773e-02 2.332336e-01
<VARIANCE> 39
 5.601560e-01 6.145975e-01 1.461215e+00 1.030187e+00 1.016017e+00 1.805986e+00 9.584460e-01 1.441849e+00 1.151953e+00 8.594674e-01 1.056665e+00 1.111020e+00 6.611378e-01 1.816909e+00 1.679457e+00 2.332708e+00 1.903765e+00 1.843069e+00 2.317629e+00 1.941491e+00 2.212987e+00 2.059370e+00 1.503269e+00 1.846694e+00 1.693499e+00 4.248164e+00 1.849904e+00 1.376809e+00 1.939108e+00 1.588878e+00 1.593452e+00 1.915557e+00 1.567287e+00 1.779493e+00 1.671314e+00 1.450993e+00 1.548757e+00 1.524173e+00 2.643558e+00
<GCONST> 8.783861e+01
<STATE> 4
<MEAN> 39
 -2.773072e-01 -8.145984e-01 -6.183230e-01 1.200592e+00 1.473906e+00 -6.475543e-01 -6.703058e-01 7.025139e-01 -3.840449e-02 3.748898e-01 -1.112827e+00 -5.235469e-02 -3.980479e-01 -4.691777e-01 -9.812696e-02 -3.573402e-01 -1.812414e-01 1.315748e-01 2.518893e-01 2.842177e-01 1.739114e-02 8.721508e-02 2.563922e-01 2.042326e-02 1.000418e-01 -1.799647e-01 1.816570e-01 4.841173e-01 3.398366e-01 -6.796200e-01 -8.070410e-01 2.805389e-01 5.033258e-01 -3.008007e-01 -5.078830e-01 4.192544e-02 5.943394e-01 1.999925e-01 4.447422e-01
<VARIANCE> 39
 2.949583e-01 7.320405e-01 1.077393e+00 7.666597e-01 8.639634e-01 1.098298e+00 1.282871e+00 1.052018e+00 1.889216e+00 8.161752e-01 9.581342e-01 9.247817e-01 5.395832e-01 1.674652e+00 1.459602e+00 2.291898e+00 1.783618e+00 1.637122e+00 2.123131e+00 1.775914e+00 1.891575e+00 2.733741e+00 1.377536e+00 1.646211e+00 1.479086e+00 3.526722e+00 1.516688e+00 1.523610e+00 1.857926e+00 1.833060e+00 1.665905e+00 1.829629e+00 1.729087e+00 1.730139e+00 2.514894e+00 1.446938e+00 1.542604e+00 1.534293e+00 2.909480e+00
<GCONST> 8.562579e+01
<STATE> 5
<MEAN> 39
 -5.389720e-01 -3.274899e-01 -1.635593e-01 6.423935e-01 7.846013e-01 -1.222273e-02 3.484491e-01 2.405110e-01 -6.743665e-01 3.772088e-01 -3.612118e-01 3.755072e-01 -4.659455e-01 -6.756650e-01 4.701433e-01 -7.756095e-02 -1.016833e+00 -5.697513e-01 5.901030e-01 7.089605e-01 -3.941463e-01 -1.770016e-01 3.468861e-01 4.903657e-01 3.167665e-01 -3.285209e-01 5.390739e-01 3.279054e-01 1.381048e-01 -8.288667e-02 -1.510632e-01 -3.052183e-01 -3.607120e-01 5.654411e-03 -1.631973e-01 -1.685472e-01 -1.672753e-01 -8.541606e-02 7.164655e-01
<VARIANCE> 39
 4.213899e-01 6.625431e-01 1.121176e+00 7.545524e-01 7.479506e-01 9.903382e-01 8.394784e-01 9.533123e-01 9.149269e-01 7.300755e-01 8.153454e-01 8.716390e-01 5.902492e-01 1.802948e+00 1.468026e+00 2.298388e+00 1.919341e+00 1.297060e+00 1.658606e+00 1.608162e+00 1.466582e+00 2.149830e+00 1.670809e+00 1.371078e+00 1.495250e+00 2.393549e+00 1.639977e+00 1.618985e+00 2.029281e+00 1.709044e+00 1.672216e+00 1.607635e+00 1.465188e+00 1.599740e+00 1.676184e+00 1.648577e+00 1.417756e+00 1.552310e+00 2.711471e+00
<GCONST> 8.225349e+01
<STATE> 6
<MEAN> 39
 -1.131440e+00 2.868445e-01 5.724372e-02 2.932432e-02 4.474763e-01 1.806369e-01 5.865673e-01 -9.957244e-02 -6.242077e-01 3.867180e-01 -2.568364e-01 5.332699e-01 -5.740469e-01 -5.697150e-02 2.024565e-01 1.063592e-01 -8.035138e-02 -4.900755e-02 -7.724222e-04 3.359759e-02 -6.325507e-02 -9.723323e-02 -4.621450e-02 -4.605452e-02 4.316928e-03 4.483969e-01 4.269318e-01 -3.428872e-02 8.232783e-02 1.938649e-01 2.803999e-02 -1.136013e-01 -9.920892e-02 6.216235e-02 -2.326230e-02 -1.073964e-01 -1.056542e-01 -8.629303e-02 3.039994e-01
<VARIANCE> 39
 4.708497e-01 7.160628e-01 8.482111e-01 6.581385e-01 5.740814e-01 8.360754e-01 6.275803e-01 7.342061e-01 6.095901e-01 5.448041e-01 8.472407e-01 8.554490e-01 8.626548e-01 8.917620e-01 9.136364e-01 9.376762e-01 1.035397e+00 8.332164e-01 1.030963e+00 9.393297e-01 1.034382e+00 9.908712e-01 1.034717e+00 1.110062e+00 1.150403e+00 1.523013e+00 1.255430e+00 1.047397e+00 1.198003e+00 1.161356e+00 1.021979e+00 1.177754e+00 1.105123e+00 1.151260e+00 1.099394e+00 1.198372e+00 1.246416e+00 1.245126e+00 2.028761e+00
<GCONST> 6.965405e+01
<TRANSP> 7
 0.000000e+00 1.000000e+00 0.000000e+00 0.000000e+00 0.000000e+00 0.000000e+00 0.000000e+00
 0.000000e+00 5.529262e-01 4.470738e-01 0.000000e+00 0.000000e+00 0.000000e+00 0.000000e+00
 0.000000e+00 0.000000e+00 5.218526e-01 4.781475e-01 0.000000e+00 0.000000e+00 0.000000e+00
 0.000000e+00 0.000000e+00 0.000000e+00 6.644682e-01 3.355317e-01 0.000000e+00 0.000000e+00
 0.000000e+00 0.000000e+00 0.000000e+00 0.000000e+00 5.661127e-01 4.338873e-01 0.000000e+00
 0.000000e+00 0.000000e+00 0.000000e+00 0.000000e+00 0.000000e+00 8.720201e-01 1.279799e-01
 0.000000e+00 0.000000e+00 0.000000e+00 0.000000e+00 0.000000e+00 0.000000e+00 0.000000e+00
<ENDHMM>
~h "l"
<BEGINHMM>
<NUMSTATES> 7
<STATE> 2
<MEAN> 39
 9.201724e-02 -1.261890e-01 -2.513734e-01 2.122612e-01 2.525170e-01 7.414399e-02 6.129431e-02 -2.616987e-01 -4.731750e-01 1.753825e-01 -1.265784e-01 3.172186e-01 -9.363589e-02 1.050003e-01 9.005973e-02 2.283186e-01 3.840793e-01 1.795804e-01 -6.592570e-02 -1.641934e-01 -1.371997e-01 -7.908909e-02 -1.592286e-01 -1.459250e-01 -4.982811e-02 -7.643691e-02 2.673427e-02 1.154980e-01 2.284617e-01 1.582511e-01 8.266477e-02 -3.225644e-02 -4.365625e-02 -3.604267e-02 -8.470954e-02 -1.587763e-01 -1.445472e-01 -8.741437e-02 -2.957448e-03
<VARIANCE> 39
 8.745040e-01 7.874720e-01 1.093064e+00 9.758462e-01 1.162105e+00 1.276665e+00 1.060200e+00 1.303375e+00 9.993964e-01 8.851005e-01 1.077542e+00 1.573405e+00 1.229608e+00 7.777278e-01 8.931704e-01 1.187132e+00 1.313922e+00 1.118681e+00 1.216460e+00 1.132119e+00 1.283927e+00 1.113684e+00 1.083835e+00 1.132812e+00 1.191922e+00 1.298400e+00 1.049384e+00 9.262716e-01 1.186256e+00 1.041538e+00 1.154480e+00 1.141321e+00 1.105192e+00 1.200147e+00 1.107909e+00 1.084378e+00 1.100910e+00 1.132144e+00 1.174756e+00
<GCONST> 7.551667e+01
<STATE> 3
<MEAN> 39
 5.854867e-01 -3.327845e-01 1.767849e-01 1.195101e+00 4.344111e-01 -3.405737e-01 -6.179224e-01 -1.050422e-01 -4.970239e-01 -2.989239e-01 -7.967269e-01 -8.355947e-02 2.257957e-01 8.359914e-02 2.445246e-01 8.825212e-01 1.003353e+00 4.310074e-01 -1.518989e-01 -3.466128e-01 -3.077985e-01 -2.856129e-01 -6.014258e-01 -5.186885e-01 -2.450686e-01 -2.554644e-01 -2.831758e-01 -1.869171e-02 3.824979e-03 -4.588371e-01 -2.974556e-01 7.691289e-02 1.320242e-01 7.467169e-02 -2.191566e-02 7.710250e-02 1.948352e-01 7.525629e-02 5.835553e-02
<VARIANCE> 39
 5.043557e-01 6.954660e-01 1.235025e+00 7.826750e-01 1.077010e+00 1.193794e+00 1.199614e+00 1.263377e+00 9.765009e-01 8.904149e-01 8.592174e-01 1.043337e+00 7.333272e-01 1.567297e+00 1.290382e+00 1.995599e+00 1.564220e+00 1.885993e+00 2.241837e+00 1.882964e+00 2.154306e+00 1.715382e+00 1.511506e+00 1.336481e+00 1.501660e+00 2.993068e+00 1.546088e+00 1.154466e+00 1.726676e+00 1.396324e+00 1.930088e+00 1.950204e+00 1.782301e+00 1.771541e+00 1.563068e+00 1.405198e+00 1.256415e+00 1.386750e+00 2.451092e+00
<GCONST> 8.430699e+01
<STATE> 4
<MEAN> 39
 6.228006e-01 -3.363966e-01 6.871501e-01 1.678529e+00 4.118043e-01 -6.510529e-01 -9.953324e-01 -2.710806e-01 -6.059726e-01 -7.753389e-01 -1.108283e+00 -1.946726e-01 1.867848e-01 -1.316779e-01 1.720929e-01 3.583223e-01 -1.723144e-01 -1.695775e-01 1.635782e-01 2.639561e-02 -2.453398e-01 -1.677956e-01 1.409686e-02 1.244671e-01 -5.877477e-02 -8.671826e-02 4.169970e-02 -4.808196e-02 -5.419421e-01 -7.223418e-01 -3.608716e-01 1.476507e-01 2.100489e-01 1.335939e-01 1.575687e-01 4.897689e-01 3.629191e-01 1.168664e-01 3.999846e-01
<VARIANCE> 39
 4.321476e-01 6.037547e-01 1.312941e+00 9.669696e-01 1.001713e+00 1.199610e+00 1.110163e+00 1.181980e+00 8.943446e-01 1.113824e+00 9.356793e-01 1.147340e+00 4.801137e-01 6.983756e-01 7.819551e-01 1.868531e+00 1.250207e+00 1.518853e+00 1.491411e+00 1.359393e+00 1.385593e+00 1.145448e+00 1.286564e+00 1.132896e+00 1.215348e+00 1.108352e+00 9.157056e-01 9.042843e-01 1.394808e+00 1.077031e+00 1.555095e+00 1.692519e+00 1.361470e+00 1.488073e+00 1.228113e+00 1.217008e+00 1.105001e+00 1.209498e+00 1.450565e+00
<GCONST> 7.582187e+01
<STATE> 5
<MEAN> 39
 4.358844e-01 4.223366e-01 1.374504e+00 1.141615e+00 1.714614e-01 -2.423041e-01 -7.541795e-01 -5.727936e-01 -9.985476e-01 -9.448026e-01 -9.151551e-01 -7.876875e-02 -3.027085e-02 -5.430745e-02 9.020210e-03 -9.939949e-02 -1.447150e-01 -1.053301e-02 6.008958e-02 3.911005e-02 -1.742805e-02 3.278751e-02 1.368712e-01 5.453661e-02 -1.634656e-02 5.580234e-02 -6.238483e-03 -1.146654e-01 -2.261823e-01 -1.133520e-01 -4.929623e-02 -4.630925e-02 6.357379e-02 1.069348e-01 7.673945e-02 1.238097e-01 6.032848e-02 4.628639e-02 1.396340e-01
<VARIANCE> 39
 3.451349e-01 6.741648e-01 1.496556e+00 7.538341e-01 7.979317e-01 9.315596e-01 1.067548e+00 1.136413e+00 8.784195e-01 1.222379e+00 9.109080e-01 1.285445e+00 4.549339e-01 3.474766e-01 5.894055e-01 9.536794e-01 8.287970e-01 7.407402e-01 9.099634e-01 8.803003e-01 9.375212e-01 8.085492e-01 9.253445e-01 7.912816e-01 9.210542e-01 5.565007e-01 4.908318e-01 6.455382e-01 9.660546e-01 7.529632e-01 8.520610e-01 9.889968e-01 9.263613e-01 1.002605e+00 8.784725e-01 9.160815e-01 8.074146e-01 9.761896e-01 7.324026e-01
<GCONST> 6.359845e+01
<STATE> 6
<MEAN> 39
 -7.947354e-01 -5.203762e-02 -3.483062e-01 -2.398765e-01 1.667832e-01 -1.146937e-02 8.354116e-02 -1.926161e-01 -8.442120e-02 3.619837e-01 -2.314954e-01 2.137193e-01 -1.465420e+00 -1.982414e-02 -1.791775e-02 -1.706503e-02 -3.114909e-02 -3.016803e-02 -1.632422e-02 2.305078e-03 4.142861e-03 7.388627e-03 2.854397e-02 1.383929e-02 4.094497e-03 1.457165e-02 4.320024e-02 4.423959e-03 1.542390e-02 1.949088e-02 -3.681066e-04 -1.535806e-02 -5.842029e-03 1.414985e-02 -3.998434e-03 -1.598089e-02 -7.831333e-03 6.168865e-03 6.237800e-02
<VARIANCE> 39
 1.996109e-01 3.428944e-01 3.916901e-01 4.767472e-01 4.106473e-01 5.694427e-01 4.858806e-01 6.863124e-01 4.441068e-01 6.165817e-01 7.471462e-01 9.072756e-01 3.158033e-01 2.442892e-01 7.221243e-01 6.859387e-01 7.994283e-01 6.698481e-01 7.600906e-01 8.041272e-01 9.208556e-01 8.860203e-01 1.036196e+00 9.415492e-01 1.119266e+00 5.473733e-01 5.047077e-01 9.230443e-01 9.630893e-01 9.369490e-01 9.267036e-01 9.411935e-01 1.004684e+00 1.076584e+00 1.119096e+00 1.195500e+00 1.041225e+00 1.229435e+00 7.738588e-01
<GCONST> 5.733933e+01
<TRANSP> 7
 0.000000e+00 1.000000e+00 0.000000e+00 0.000000e+00 0.000000e+00 0.000000e+00 0.000000e+00
 0.000000e+00 7.216759e-01 2.783241e-01 0.000000e+00 0.000000e+00 0.000000e+00 0.000000e+00
 0.000000e+00 0.000000e+00 6.256189e-01 3.743811e-01 0.000000e+00 0.000000e+00 0.000000e+00
 0.000000e+00 0.000000e+00 0.000000e+00 5.540631e-01 4.459369e-01 0.000000e+00 0.000000e+00
 0.000000e+00 0.000000e+00 0.000000e+00 0.000000e+00 8.144798e-01 1.855202e-01 0.000000e+00
 0.000000e+00 0.000000e+00 0.000000e+00 0.000000e+00 0.000000e+00 9.488458e-01 5.115421e-02
 0.000000e+00 0.000000e+00 0.000000e+00 0.000000e+00 0.000000e+00 0.000000e+00 0.000000e+00
<ENDHMM>
~h "m"
<BEGINHMM>
<NUMSTATES> 7
<STATE> 2
<MEAN> 39
 2.973955e-01 2.217645e-01 1.440393e-01 3.956808e-01 2.963064e-01 -2.346277e-01 -5.439396e-02 -9.904765e-02 -7.599059e-01 -4.245375e-02 -4.086854e-01 -1.366501e-02 -7.163674e-02 1.623206e-01 2.003183e-01 2.305853e-01 4.314437e-01 2.908593e-01 1.466808e-01 -1.563832e-02 -2.574008e-01 -2.809549e-01 -2.960797e-01 1.724594e-02 -3.738024e-02 -3.308020e-01 -3.022394e-02 1.495753e-01 9.945357e-02 3.508164e-02 -2.387275e-02 8.779188e-02 1.235755e-01 -1.414214e-01 -2.268164e-01 -9.638496e-02 -9.231539e-02 -1.005647e-01 -9.411182e-02
<VARIANCE> 39
 8.007497e-01 9.061748e-01 1.117055e+00 8.484852e-01 8.446476e-01 1.057900e+00 8.537423e-01 9.685802e-01 1.070826e+00 1.143043e+00 1.049847e+00 1.105796e+00 1.079649e+00 1.114967e+00 1.264749e+00 1.441051e+00 1.259272e+00 9.722536e-01 1.234511e+00 1.089847e+00 1.165344e+00 1.170883e+00 1.239535e+00 1.151719e+00 1.257065e+00 1.833792e+00 1.543639e+00 1.318869e+00 1.580302e+00 1.228454e+00 1.137841e+00 1.121955e+00 1.072194e+00 1.072960e+00 1.164906e+00 1.332690e+00 1.035841e+00 1.220281e+00 1.884768e+00
<GCONST> 7.720493e+01
<STATE> 3
<MEAN> 39
 6.223234e-01 -6.357535e-02 -7.008249e-02 3.408222e-01 2.022004e-01 -2.304669e-01 -9.247027e-02 -5.117778e-02 -7.485404e-01 -2.038139e-02 -1.887066e-01 -8.244896e-02 2.313670e-01 4.068002e-02 3.255411e-01 1.280829e-01 3.292696e-01 2.451594e-01 2.973476e-01 1.191288e-01 -3.539053e-01 -3.624819e-01 -2.887767e-01 -4.557918e-02 -1.374893e-01 -7.498105e-01 -4.013022e-01 3.872995e-01 1.660136e-01 -4.201384e-02 8.810015e-02 2.529754e-01 3.235723e-01 -2.091903e-01 -3.437548e-01 1.837879e-03 -2.053209e-01 -1.316937e-01 -3.895655e-01
<VARIANCE> 39
 4.807508e-01 6.198177e-01 1.141039e+00 9.545550e-01 8.006773e-01 1.208870e+00 9.486756e-01 1.066209e+00 1.013300e+00 1.220721e+00 1.106115e+00 1.139354e+00 7.235772e-01 1.524112e+00 1.437765e+00 2.107241e+00 1.847230e+00 1.415762e+00 1.685631e+00 1.412841e+00 1.620306e+00 1.616906e+00 1.696597e+00 1.378657e+00 1.499534e+00 2.849343e+00 1.943276e+00 1.422563e+00 2.003495e+00 1.506244e+00 1.342882e+00 1.499780e+00 1.326244e+00 1.425634e+00 1.387113e+00 1.692122e+00 1.365657e+00 1.344302e+00 1.956313e+00
<GCONST> 8.286545e+01
<STATE> 4
<MEAN> 39
 7.333746e-01 -1.279459e-02 -2.346311e-02 4.860141e-01 2.359363e-01 -1.212011e-01 -1.263351e-01 -3.243954e-01 -7.858930e-01 -6.582017e-02 -2.910372e-01 -3.528039e-01 1.043976e-01 -3.741744e-01 8.946756e-01 5.690783e-01 5.412343e-01 5.161623e-01 6.811768e-01 5.412331e-01 -7.792534e-01 -1.008975e+00 -4.875804e-01 -2.808853e-01 -2.477015e-01 -1.385185e+00 -2.011165e-01 1.900279e-01 3.199784e-01 -5.717333e-03 -5.098113e-02 -5.873304e-02 1.879731e-01 -7.604778e-03 -2.445173e-01 3.667383e-02 -1.245772e-01 -1.802054e-02 2.017584e-01
<VARIANCE> 39
 3.744698e-01 5.198672e-01 8.041505e-01 6.567843e-01 6.878229e-01 8.594894e-01 8.459576e-01 1.012813e+00 1.247428e+00 1.085522e+00 1.092939e+00 9.434362e-01 5.346233e-01 1.098689e+00 9.945413e-01 2.102108e+00 1.796020e+00 1.175288e+00 1.330953e+00 1.127665e+00 1.373806e+00 1.595139e+00 2.065091e+00 1.389641e+00 1.536582e+00 2.178456e+00 1.310467e+00 9.057261e-01 1.559936e+00 1.180049e+00 1.069595e+00 1.134525e+00 1.074759e+00 1.072135e+00 1.183242e+00 1.434001e+00 1.177905e+00 1.142188e+00 1.453082e+00
<GCONST> 7.577736e+01
<STATE> 5
<MEAN> 39
 5.894611e-01 3.908725e-01 3.420796e-01 7.013120e-01 4.170388e-01 1.498061e-01 1.638685e-01 -7.271933e-01 -1.395338e+00 -3.790164e-01 -4.665346e-01 -4.163917e-01 -2.882026e-01 -1.841815e-01 7.884560e-01 5.077524e-01 3.291476e-01 3.168650e-01 3.444860e-01 4.484765e-01 -5.991919e-01 -9.208449e-01 -2.222100e-01 -1.816334e-01 -2.033088e-01 -8.664730e-01 3.668803e-01 -5.012565e-01 -2.738643e-01 -4.046029e-01 -4.377995e-01 -4.188846e-01 -3.139166e-01 4.095960e-01 5.334660e-01 3.053662e-01 1.908355e-01 1.458649e-01 1.129612e+00
<VARIANCE> 39
 2.599370e-01 4.849200e-01 6.373971e-01 5.524614e-01 7.872485e-01 7.174848e-01 6.919810e-01 9.620072e-01 8.200515e-01 8.682897e-01 8.656587e-01 9.974176e-01 4.169132e-01 7.396989e-01 8.411511e-01 1.456501e+00 1.253169e+00 8.192476e-01 9.551538e-01 1.024242e+00 1.081510e+00 1.309344e+00 1.441104e+00 1.044600e+00 1.318730e+00 1.145917e+00 9.185923e-01 8.767088e-01 1.520942e+00 1.170341e+00 9.829395e-01 1.011606e+00 9.320069e-01 1.018246e+00 1.127393e+00 1.303119e+00 8.968765e-01 1.133050e+00 1.415376e+00
<GCONST> 6.834892e+01
<STATE> 6
<MEAN> 39
 7.015910e-01 7.305702e-01 6.633909e-01 7.963228e-01 3.026279e-01 2.574638e-01 4.487097e-01 -1.178243e+00 -1.743980e+00 -4.769256e-01 -5.686239e-01 -6.988419e-01 -3.379786e-01 2.756055e-02 -5.635865e-02 -5.318046e-02 -1.116591e-01 -3.307483e-02 2.239498e-02 -5.281086e-02 1.560773e-02 5.256756e-02 3.322802e-02 6.116591e-03 2.973180e-02 1.423354e-01 8.209110e-02 -2.676486e-01 -2.414228e-01 -1.977377e-01 -1.334642e-01 -9.172004e-02 -1.394688e-01 2.281628e-01 3.117830e-01 6.515399e-02 7.056937e-02 1.217155e-01 4.692863e-01
<VARIANCE> 39
 1.538035e-01 4.917690e-01 6.218057e-01 5.872747e-01 7.391988e-01 6.624367e-01 6.869847e-01 1.047221e+00 6.043947e-01 8.925070e-01 8.525937e-01 1.132951e+00 3.316098e-01 2.958380e-01 5.396354e-01 7.831658e-01 6.621644e-01 4.988823e-01 6.600398e-01 6.853719e-01 7.655236e-01 8.308314e-01 8.898499e-01 6.893924e-01 9.100267e-01 4.277027e-01 4.943136e-01 6.295124e-01 9.011012e-01 7.218758e-01 6.600468e-01 7.238966e-01 7.350234e-01 8.462620e-01 9.873613e-01 9.842252e-01 7.033657e-01 9.732238e-01 6.864002e-01
<GCONST> 5.582941e+01
<TRANSP> 7
 0.000000e+00 1.000000e+00 0.000000e+00 0.000000e+00 0.000000e+00 0.000000e+00 0.000000e+00
 0.000000e+00 4.228919e-01 5.771081e-01 0.000000e+00 0.000000e+00 0.000000e+00 0.000000e+00
 0.000000e+00 0.000000e+00 4.020703e-01 5.979296e-01 0.000000e+00 0.000000e+00 0.000000e+00
 0.000000e+00 0.000000e+00 0.000000e+00 3.636022e-01 6.363978e-01 0.000000e+00 0.000000e+00
 0.000000e+00 0.000000e+00 0.000000e+00 0.000000e+00 4.409619e-01 5.590381e-01 0.000000e+00
 0.000000e+00 0.000000e+00 0.000000e+00 0.000000e+00 0.000000e+00 8.712444e-01 1.287556e-01
 0.000000e+00 0.000000e+00 0.000000e+00 0.000000e+00 0.000000e+00 0.000000e+00 0.000000e+00
<ENDHMM>
~h "n"
<BEGINHMM>
<NUMSTATES> 7
<STATE> 2
<MEAN> 39
 3.073774e-01 -1.330954e-01 4.442774e-01 1.055393e-01 -1.975762e-01 -5.102199e-01 -1.563916e-01 1.050158e-01 -6.505450e-01 4.118451e-02 -4.470347e-01 1.324462e-01 4.122286e-01 3.402057e-02 3.503174e-01 5.990239e-01 5.158443e-01 3.018568e-01 8.022642e-02 -1.387958e-01 -2.757699e-01 -2.723673e-01 -3.279681e-01 -2.546336e-01 -1.877862e-01 -6.035665e-01 -5.736299e-03 3.828285e-01 2.592488e-01 3.072409e-01 3.197740e-01 3.563952e-01 1.763302e-01 -2.413035e-01 -3.110364e-01 -3.417380e-01 -2.906517e-01 -1.408152e-01 -5.299908e-01
<VARIANCE> 39
 6.465573e-01 8.144454e-01 1.102286e+00 8.571070e-01 7.826304e-01 1.483363e+00 9.070220e-01 1.414439e+00 1.137140e+00 1.196673e+00 1.025712e+00 1.289197e+00 1.062766e+00 7.654448e-01 1.065598e+00 1.520138e+00 1.407289e+00 9.544123e-01 1.365402e+00 1.095075e+00 1.317909e+00 1.089532e+00 1.178370e+00 8.813726e-01 1.131376e+00 1.584221e+00 1.065077e+00 9.455038e-01 1.335274e+00 1.008587e+00 9.858152e-01 1.290893e+00 1.076635e+00 1.190425e+00 1.030235e+00 1.115485e+00 8.555896e-01 1.145022e+00 1.582447e+00
<GCONST> 7.529265e+01
<STATE> 3
<MEAN> 39
 4.807222e-01 -3.201998e-02 5.649939e-01 4.844620e-01 2.914801e-02 -4.405588e-01 -3.453487e-01 -7.763837e-02 -7.630130e-01 -1.888324e-01 -6.518369e-01 -1.192908e-01 2.393957e-01 -1.292760e-01 5.654711e-01 7.242689e-01 6.910029e-01 4.585339e-01 4.133373e-01 4.966896e-02 -5.121307e-01 -4.596615e-01 -5.851483e-01 -4.431350e-01 -1.652981e-01 -1.010509e+00 -1.751888e-01 2.596297e-01 -1.945771e-01 -1.344551e-01 9.761726e-02 3.866555e-01 3.329472e-01 -2.402553e-01 -2.861061e-01 8.121628e-03 -3.911776e-02 4.662797e-03 -3.187830e-01
<VARIANCE> 39
 4.247458e-01 7.915109e-01 1.087878e+00 8.142241e-01 8.384616e-01 1.172848e+00 9.240682e-01 1.184041e+00 1.079835e+00 1.104132e+00 9.434434e-01 1.287737e+00 7.539573e-01 1.463665e+00 1.362113e+00 2.182620e+00 1.833175e+00 1.352495e+00 1.798606e+00 1.280802e+00 1.680192e+00 1.552746e+00 1.672448e+00 1.201895e+00 1.467745e+00 2.666150e+00 1.332924e+00 1.100543e+00 1.573202e+00 1.365149e+00 1.264315e+00 1.497297e+00 1.332653e+00 1.299310e+00 1.255599e+00 1.299047e+00 9.447905e-01 1.407617e+00 1.611804e+00
<GCONST> 8.044810e+01
<STATE> 4
<MEAN> 39
 3.864152e-01 1.666241e-01 9.451356e-01 6.898258e-01 7.554382e-02 -2.816875e-01 -2.504032e-01 -2.950663e-01 -9.916778e-01 -5.553474e-01 -8.547729e-01 -9.018499e-02 3.994736e-02 -2.393394e-01 7.831313e-01 3.268883e-01 3.925304e-01 6.685038e-01 8.114190e-01 3.775034e-01 -7.446533e-01 -7.179418e-01 -3.315367e-01 -3.862985e-01 -3.063357e-01 -1.256887e+00 1.258601e-01 -5.042267e-02 -5.158741e-01 -4.537917e-01 -2.418422e-01 -1.088991e-01 1.602191e-01 1.295809e-01 1.004054e-01 3.797165e-01 2.595158e-01 1.182079e-02 4.750503e-01
<VARIANCE> 39
 2.560495e-01 6.602856e-01 8.002296e-01 6.428114e-01 8.529630e-01 9.560865e-01 7.092051e-01 1.101984e+00 8.092132e-01 8.320326e-01 8.167685e-01 1.066381e+00 4.857569e-01 1.004102e+00 1.030064e+00 1.786409e+00 1.295426e+00 1.248680e+00 1.591583e+00 1.256807e+00 1.472460e+00 1.349773e+00 1.302565e+00 1.123188e+00 1.448695e+00 2.089076e+00 9.476698e-01 1.023551e+00 1.304492e+00 1.143270e+00 1.129373e+00 1.359213e+00 1.072533e+00 1.217544e+00 1.072688e+00 1.180243e+00 8.745204e-01 1.182110e+00 1.540688e+00
<GCONST> 7.325772e+01
<STATE> 5
<MEAN> 39
 3.645357e-01 5.300044e-01 1.011153e+00 7.705094e-01 4.263096e-01 8.433926e-02 -4.553194e-02 -6.627123e-01 -1.404011e+00 -6.268369e-01 -1.076414e+00 -3.480787e-01 -3.136171e-01 -6.327704e-03 5.421425e-01 -2.401899e-02 -6.340680e-02 1.283440e-01 1.913188e-01 2.799451e-01 -2.674715e-01 -3.232219e-01 3.821707e-02 -1.711410e-02 -1.990160e-01 -6.051447e-01 1.717698e-01 -5.043218e-01 -2.651347e-01 -3.880535e-01 -5.624222e-01 -6.333075e-01 -2.223134e-01 5.511777e-01 4.466526e-01 2.919732e-01 3.049878e-01 1.457329e-01 1.156429e+00
<VARIANCE> 39
 2.182025e-01 5.344492e-01 5.896518e-01 5.665214e-01 6.518981e-01 7.125704e-01 5.830879e-01 9.738972e-01 6.254362e-01 7.403145e-01 7.656934e-01 8.537255e-01 3.100286e-01 6.422368e-01 9.772304e-01 1.224795e+00 1.049153e+00 9.016434e-01 1.279950e+00 1.072605e+00 1.190138e+00 1.139781e+00 1.177501e+00 1.003024e+00 1.222703e+00 1.251673e+00 9.585135e-01 1.078704e+00 1.241220e+00 1.061625e+00 1.042783e+00 1.270243e+00 1.056089e+00 1.279288e+00 1.101611e+00 1.173355e+00 9.505241e-01 1.209661e+00 1.603945e+00
<GCONST> 6.738823e+01
<STATE> 6
<MEAN> 39
 2.869660e-01 9.775047e-01 9.178516e-01 5.907252e-01 3.259249e-01 1.074896e-01 1.758712e-01 -7.760958e-01 -1.316818e+00 -5.895875e-01 -8.946518e-01 -2.629445e-01 -5.361187e-01 -4.384501e-02 -1.180281e-01 3.101920e-02 -6.646526e-02 -6.890339e-02 -6.471254e-02 -6.122239e-02 5.637627e-02 6.464885e-02 4.119064e-02 2.696303e-02 -6.803426e-03 2.380498e-01 -3.981129e-02 -2.006606e-01 -3.472100e-02 -5.178189e-02 -4.481873e-02 -7.448316e-02 -1.043842e-01 1.373766e-01 1.608151e-01 2.450556e-02 2.889725e-02 8.771212e-02 3.675439e-01
<VARIANCE> 39
 3.527780e-01 5.966482e-01 6.796536e-01 5.196359e-01 5.812065e-01 6.001766e-01 4.651773e-01 9.364604e-01 6.476655e-01 8.170533e-01 7.650411e-01 1.073414e+00 4.423592e-01 3.500952e-01 7.259568e-01 7.023329e-01 7.093305e-01 5.939485e-01 8.420914e-01 6.964062e-01 8.420724e-01 8.134561e-01 9.021178e-01 7.125019e-01 9.180550e-01 5.772649e-01 5.230151e-01 7.949263e-01 8.412532e-01 7.728012e-01 7.131007e-01 8.887215e-01 7.915794e-01 9.020860e-01 9.123793e-01 9.696449e-01 7.363647e-01 9.895760e-01 7.499504e-01
<GCONST> 5.814043e+01
<TRANSP> 7
 0.000000e+00 1.000000e+00 0.000000e+00 0.000000e+00 0.000000e+00 0.000000e+00 0.000000e+00
 0.000000e+00 3.670922e-01 6.329078e-01 0.000000e+00 0.000000e+00 0.000000e+00 0.000000e+00
 0.000000e+00 0.000000e+00 3.560978e-01 6.439022e-01 0.000000e+00 0.000000e+00 0.000000e+00
 0.000000e+00 0.000000e+00 0.000000e+00 3.133524e-01 6.866476e-01 0.000000e+00 0.000000e+00
 0.000000e+00 0.000000e+00 0.000000e+00 0.000000e+00 5.601250e-01 4.398750e-01 0.000000e+00
 0.000000e+00 0.000000e+00 0.000000e+00 0.000000e+00 0.000000e+00 8.792318e-01 1.207681e-01
 0.000000e+00 0.000000e+00 0.000000e+00 0.000000e+00 0.000000e+00 0.000000e+00 0.000000e+00
<ENDHMM>
~h "o"
<BEGINHMM>
<NUMSTATES> 7
<STATE> 2
<MEAN> 39
 4.576221e-01 2.559127e-01 -5.410269e-01 2.379359e-01 5.621018e-01 2.198687e-01 1.184908e-01 -4.423586e-01 -9.388385e-01 1.004751e-01 -2.086999e-01 2.976989e-01 3.735199e-01 1.332179e+00 4.635889e-02 -4.940381e-01 -6.012582e-01 -6.129929e-01 2.706364e-01 1.029748e-01 -2.435507e-01 -3.462642e-01 1.462970e-01 3.424003e-01 1.443221e-01 7.619162e-01 -1.628927e-01 1.747880e-01 -2.455497e-02 -3.589635e-01 -3.184813e-01 6.437080e-02 1.832686e-01 1.762074e-02 -1.788073e-01 2.008379e-04 5.988473e-02 5.935708e-02 -2.739925e-01
<VARIANCE> 39
 6.496973e-01 6.618742e-01 7.209956e-01 8.689208e-01 7.758007e-01 9.587620e-01 1.043012e+00 1.100895e+00 7.852542e-01 7.567121e-01 8.776656e-01 1.016581e+00 8.637593e-01 1.397565e+00 1.382852e+00 1.641651e+00 2.002431e+00 1.698414e+00 1.529943e+00 1.502444e+00 1.899008e+00 1.424852e+00 1.503670e+00 1.500995e+00 1.557328e+00 2.171923e+00 2.023341e+00 1.414588e+00 1.742581e+00 1.489356e+00 1.491435e+00 1.315167e+00 1.433079e+00 1.696615e+00 1.225306e+00 1.385791e+00 1.304379e+00 1.449504e+00 2.282721e+00
<GCONST> 8.122511e+01
<STATE> 3
<MEAN> 39
 1.286258e+00 4.838525e-01 -1.057443e+00 -8.658696e-01 -7.093412e-01 5.745640e-01 3.939863e-01 -7.920957e-01 -1.566982e+00 2.058256e-01 2.643206e-01 5.206764e-01 6.949011e-01 3.375266e-01 2.636967e-01 -2.285926e-01 -8.873779e-01 -6.901545e-01 2.745325e-01 3.963988e-01 -6.861014e-03 -4.879781e-01 -8.126358e-02 7.310925e-02 8.357406e-02 -2.327947e-02 -4.958821e-01 -1.112400e-01 3.156646e-01 4.732940e-01 3.935824e-01 -2.051404e-01 -2.481822e-01 1.255028e-01 2.698279e-01 -7.896202e-02 -2.232437e-01 -1.678662e-01 -3.729573e-02
<VARIANCE> 39
 2.079646e-01 6.250071e-01 5.919328e-01 8.355828e-01 7.961933e-01 9.597131e-01 1.106570e+00 1.047816e+00 1.142506e+00 1.161016e+00 1.215718e+00 1.264529e+00 3.971876e-01 4.633506e-01 7.584016e-01 8.372278e-01 8.819004e-01 9.084968e-01 9.021928e-01 1.084486e+00 1.001353e+00 1.022584e+00 1.072964e+00 1.024264e+00 1.078397e+00 5.139621e-01 6.824633e-01 7.081894e-01 8.387611e-01 6.940845e-01 8.884429e-01 9.335717e-01 8.580024e-01 9.452454e-01 9.422452e-01 1.059616e+00 9.129292e-01 9.805939e-01 4.761966e-01
<GCONST> 6.414323e+01
<STATE> 4
<MEAN> 39
 1.488948e+00 7.919891e-01 -1.124133e+00 -1.373895e+00 -1.152785e+00 6.400933e-01 6.030262e-01 -4.789759e-01 -1.757241e+00 1.031994e-01 -2.019981e-02 3.573245e-01 8.020108e-01 -2.766306e-02 -6.905183e-03 1.866136e-02 2.906550e-02 4.055271e-02 3.683757e-02 -4.529225e-02 -2.193110e-02 2.286969e-02 -5.773571e-02 4.447898e-02 -1.556992e-03 -7.600887e-02 -1.103171e-01 -7.532179e-02 3.402659e-02 1.999574e-01 1.960449e-01 -3.196046e-02 -7.919939e-02 -2.988100e-02 7.428754e-02 4.488067e-03 1.475010e-02 2.296629e-02 -7.451588e-02
<VARIANCE> 39
 1.547484e-01 6.586048e-01 5.894162e-01 6.967727e-01 7.282548e-01 6.796968e-01 7.542669e-01 9.383557e-01 1.198246e+00 9.843408e-01 1.598612e+00 1.215991e+00 3.276695e-01 1.623146e-01 4.096138e-01 4.706098e-01 5.139279e-01 4.641148e-01 5.667986e-01 5.489418e-01 5.846625e-01 5.772353e-01 6.600024e-01 6.325677e-01 6.757406e-01 2.683120e-01 2.626599e-01 4.020644e-01 5.228708e-01 4.442738e-01 4.767687e-01 5.350910e-01 5.264736e-01 5.254038e-01 5.713314e-01 6.175159e-01 5.425998e-01 6.266150e-01 2.294847e-01
<GCONST> 4.748479e+01
<STATE> 5
<MEAN> 39
 1.120570e+00 3.864010e-01 -8.324416e-01 -4.566791e-01 -1.814378e-01 5.257288e-01 -1.150993e-01 -8.836413e-01 -1.350167e+00 9.971998e-02 2.892040e-01 3.755279e-01 4.751373e-01 -5.940366e-01 -2.411321e-01 4.495921e-01 8.260469e-01 7.310110e-01 -3.744828e-01 -5.070540e-01 -9.814959e-03 5.086826e-01 8.056933e-02 -2.492807e-01 -1.915465e-01 -3.859092e-01 -3.087845e-01 8.897395e-02 1.958639e-01 9.642419e-02 6.152340e-02 -1.755644e-01 7.229022e-02 2.011768e-01 1.318540e-01 -3.361509e-02 -2.760743e-01 -1.154001e-01 -1.571764e-01
<VARIANCE> 39
 2.349602e-01 8.591667e-01 5.746962e-01 8.886853e-01 8.551578e-01 9.111351e-01 1.435942e+00 1.247855e+00 1.063197e+00 1.072966e+00 1.430384e+00 1.165241e+00 8.033173e-01 5.680009e-01 7.985864e-01 8.563096e-01 8.330985e-01 8.245072e-01 1.018165e+00 1.136962e+00 1.066511e+00 1.126553e+00 1.049020e+00 1.250012e+00 1.165277e+00 7.793863e-01 6.293653e-01 8.338450e-01 9.134685e-01 7.593821e-01 8.415049e-01 9.087918e-01 9.487326e-01 1.043423e+00 1.134425e+00 1.071026e+00 1.057372e+00 1.105524e+00 5.487428e-01
<GCONST> 6.780772e+01
<STATE> 6
<MEAN> 39
 -5.954614e-01 3.187869e-01 -5.479088e-01 -6.169643e-01 -1.329503e-01 -2.805878e-01 -1.114991e-01 -5.384731e-01 -3.216448e-01 2.943949e-01 9.840746e-02 6.923645e-01 -1.317815e+00 -7.624578e-02 -1.550737e-02 3.128226e-02 3.029031e-02 2.034793e-02 -4.251816e-02 -1.939329e-02 2.192710e-02 3.680221e-02 1.189434e-02 -3.672438e-02 -1.930489e-02 -4.865799e-02 3.394299e-02 3.260773e-02 -1.530322e-02 -6.483368e-03 3.053332e-03 7.599008e-03 2.123657e-02 1.675403e-03 -3.249885e-02 -1.344813e-02 -8.586305e-03 -4.937779e-03 2.114528e-02
<VARIANCE> 39
 2.490561e-01 2.945956e-01 2.781586e-01 3.692735e-01 4.189698e-01 7.066471e-01 4.323313e-01 6.020158e-01 4.041621e-01 5.847329e-01 6.522658e-01 7.413327e-01 3.604876e-01 3.570941e-01 7.683395e-01 7.971772e-01 8.215514e-01 5.894101e-01 6.971807e-01 7.739429e-01 8.395838e-01 8.084155e-01 9.892382e-01 9.738715e-01 9.886171e-01 5.328538e-01 6.532995e-01 9.444299e-01 1.135768e+00 9.188521e-01 7.385522e-01 7.976285e-01 9.285973e-01 9.355190e-01 9.599971e-01 1.170225e+00 9.921039e-01 1.057848e+00 6.862574e-01
<GCONST> 5.578669e+01
<TRANSP> 7
 0.000000e+00 1.000000e+00 0.000000e+00 0.000000e+00 0.000000e+00 0.000000e+00 0.000000e+00
 0.000000e+00 8.292454e-01 1.707546e-01 0.000000e+00 0.000000e+00 0.000000e+00 0.000000e+00
 0.000000e+00 0.000000e+00 7.628944e-01 2.371056e-01 0.000000e+00 0.000000e+00 0.000000e+00
 0.000000e+00 0.000000e+00 0.000000e+00 9.067566e-01 9.324338e-02 0.000000e+00 0.000000e+00
 0.000000e+00 0.000000e+00 0.000000e+00 0.000000e+00 8.148035e-01 1.851965e-01 0.000000e+00
 0.000000e+00 0.000000e+00 0.000000e+00 0.000000e+00 0.000000e+00 9.483554e-01 5.164457e-02
 0.000000e+00 0.000000e+00 0.000000e+00 0.000000e+00 0.000000e+00 0.000000e+00 0.000000e+00
<ENDHMM>
~h "p"
<BEGINHMM>
<NUMSTATES> 7
<STATE> 2
<MEAN> 39
 6.469355e-01 -2.253501e-01 -1.882712e-01 1.766703e-01 1.212437e-01 -4.999733e-01 -9.313083e-02 2.528226e-01 -6.374143e-01 3.728910e-01 -4.080270e-01 -1.305179e-01 5.968608e-01 1.605279e-01 3.531829e-01 -2.453140e-02 3.144135e-01 4.330623e-01 2.699786e-01 4.765756e-02 -2.479922e-01 -1.993757e-01 -7.522301e-02 2.675223e-01 1.108903e-01 -9.756688e-01 -7.259254e-01 3.804946e-01 2.567984e-01 2.338624e-01 3.388409e-01 4.139945e-01 1.833629e-01 -1.481561e-01 3.115827e-02 -2.339725e-01 -3.528413e-02 1.477538e-01 -1.062399e+00
<VARIANCE> 39
 6.213927e-01 8.609194e-01 1.117205e+00 1.026883e+00 9.053535e-01 1.404818e+00 1.141604e+00 1.298887e+00 1.296573e+00 1.293921e+00 9.900542e-01 1.452045e+00 8.535591e-01 1.276701e+00 1.158755e+00 1.370683e+00 1.382316e+00 1.339015e+00 1.413398e+00 1.291898e+00 1.331228e+00 1.224597e+00 1.195702e+00 1.311183e+00 1.238312e+00 1.915105e+00 1.783221e+00 1.106228e+00 1.351501e+00 1.247221e+00 1.180581e+00 1.319052e+00 1.252170e+00 1.179239e+00 1.112894e+00 1.310421e+00 1.016724e+00 1.223158e+00 2.236725e+00
<GCONST> 7.970663e+01
<STATE> 3
<MEAN> 39
 7.027534e-01 1.177465e-01 -1.149785e-01 5.142943e-01 5.153281e-01 -2.717097e-02 1.781168e-02 -1.527023e-01 -8.831722e-01 1.092442e-01 -1.439933e-01 3.586300e-02 5.060162e-02 -1.213850e+00 8.238519e-01 5.231421e-01 7.495516e-01 1.052309e+00 1.078037e+00 4.770239e-01 -3.944227e-01 -5.471820e-02 -6.250615e-01 4.046024e-03 4.034065e-01 -2.585983e+00 -1.310220e+00 -4.494351e-01 -1.055240e-02 -2.630905e-01 -2.329211e-01 3.645997e-02 1.901047e-01 3.292703e-01 3.808846e-01 6.068598e-02 -1.669665e-01 1.424322e-01 -2.589972e-01
<VARIANCE> 39
 4.105566e-01 5.136312e-01 6.553301e-01 6.824118e-01 5.402518e-01 9.027669e-01 8.378596e-01 1.049990e+00 8.341151e-01 1.004503e+00 8.945385e-01 9.394782e-01 5.522048e-01 1.612178e+00 1.292840e+00 1.850913e+00 1.880927e+00 1.258952e+00 1.762531e+00 1.540966e+00 1.576838e+00 1.653005e+00 1.926140e+00 1.366317e+00 1.841061e+00 2.574693e+00 2.051545e+00 1.372858e+00 1.632616e+00 1.383259e+00 1.327260e+00 1.557017e+00 1.384481e+00 1.525949e+00 1.374587e+00 1.676836e+00 1.492367e+00 1.372420e+00 2.595315e+00
<GCONST> 8.004792e+01
<STATE> 4
<MEAN> 39
 2.327692e-03 2.450967e-01 6.813274e-02 7.261893e-01 9.266595e-01 5.784684e-01 4.522475e-01 -2.327491e-02 -6.513261e-01 -1.562330e-01 -1.982666e-01 4.216110e-01 -7.508868e-01 -1.006511e+00 -1.999846e-01 -2.476852e-01 -3.421874e-01 -9.709165e-02 1.212242e-01 2.417312e-01 1.521652e-01 3.884951e-01 2.158298e-01 1.958540e-01 2.461065e-01 -9.275596e-01 4.891212e-01 -2.844818e-01 -4.675743e-01 -6.024086e-01 -6.928450e-01 -5.592150e-01 -2.667692e-01 3.190322e-02 1.576304e-02 3.747731e-01 1.025068e-01 -1.298370e-01 1.099209e+00
<VARIANCE> 39
 2.208603e-01 3.985049e-01 3.362980e-01 3.794479e-01 3.473934e-01 5.668268e-01 4.651974e-01 7.605454e-01 5.138819e-01 4.777691e-01 6.069518e-01 7.562681e-01 4.829409e-01 1.466734e+00 1.222747e+00 1.341074e+00 1.327134e+00 1.047503e+00 1.202947e+00 1.177622e+00 1.356507e+00 1.293112e+00 1.371194e+00 1.226107e+00 1.448427e+00 3.355068e+00 1.588404e+00 1.643370e+00 1.602686e+00 1.343827e+00 1.325132e+00 1.389305e+00 1.279176e+00 1.532896e+00 1.484846e+00 1.490426e+00 1.268834e+00 1.517363e+00 2.990884e+00
<GCONST> 7.138636e+01
<STATE> 5
<MEAN> 39
 -2.669704e-01 4.295164e-01 -2.095135e-01 1.967693e-01 6.838241e-01 4.414751e-01 4.238791e-01 -1.904339e-01 -5.620767e-01 1.626644e-01 -2.870709e-03 3.994051e-01 -9.590794e-01 -3.804568e-01 -1.180297e-01 -2.854869e-01 -4.083886e-01 -3.278458e-01 -1.946183e-01 -1.006657e-01 -5.140942e-02 1.284179e-01 2.134311e-01 8.345392e-02 3.041833e-02 -3.363317e-01 3.530498e-01 7.863371e-03 1.118867e-01 1.429576e-01 2.410800e-02 -5.412795e-02 -8.961785e-02 -5.524359e-02 -1.209042e-01 -1.473086e-01 -1.343494e-01 -7.331532e-02 4.976830e-01
<VARIANCE> 39
 3.168333e-01 5.025654e-01 4.730079e-01 4.236963e-01 5.107003e-01 7.357467e-01 4.982556e-01 8.199004e-01 5.839620e-01 6.422910e-01 7.172022e-01 1.044801e+00 4.598447e-01 6.281806e-01 9.433764e-01 1.005953e+00 9.906796e-01 8.112270e-01 9.440557e-01 8.802119e-01 1.006885e+00 9.509733e-01 1.157987e+00 1.010192e+00 1.202836e+00 9.970434e-01 9.742486e-01 1.238214e+00 1.234662e+00 9.419343e-01 9.349965e-01 1.048699e+00 1.048011e+00 1.154646e+00 1.133394e+00 1.317025e+00 1.170024e+00 1.395849e+00 1.370177e+00
<GCONST> 6.540205e+01
<STATE> 6
<MEAN> 39
 -8.105575e-01 -1.671289e-02 -5.366184e-01 -4.253375e-01 5.572102e-02 -3.520975e-02 7.988051e-02 -2.095840e-01 1.676975e-03 4.781016e-01 -1.327024e-01 2.628224e-01 -1.553553e+00 6.285325e-03 -4.070979e-02 -2.470097e-02 7.353854e-03 -2.248281e-03 -1.394009e-02 -1.340069e-02 -2.812671e-02 -3.956766e-02 -2.308651e-02 9.012156e-03 1.998069e-02 6.504221e-02 1.383756e-01 2.851171e-03 6.887186e-02 1.121508e-01 8.239023e-02 3.588110e-02 2.060223e-02 2.651846e-03 -5.234269e-02 -5.598288e-02 -1.200102e-02 8.354951e-03 2.128998e-01
<VARIANCE> 39
 7.114480e-02 2.937923e-01 2.304149e-01 3.130776e-01 2.852709e-01 4.234641e-01 3.508089e-01 5.688351e-01 3.548852e-01 5.447130e-01 6.350250e-01 7.932147e-01 1.602799e-01 2.667925e-01 7.496641e-01 6.772686e-01 7.820312e-01 6.110441e-01 7.071884e-01 7.143038e-01 8.390732e-01 8.183422e-01 1.011999e+00 9.006561e-01 1.100630e+00 6.522186e-01 5.864995e-01 9.580009e-01 1.006720e+00 9.698691e-01 8.386863e-01 8.498418e-01 8.868837e-01 9.828429e-01 1.028516e+00 1.208287e+00 1.026334e+00 1.209147e+00 9.697683e-01
<GCONST> 5.240038e+01
<TRANSP> 7
 0.000000e+00 1.000000e+00 0.000000e+00 0.000000e+00 0.000000e+00 0.000000e+00 0.000000e+00
 0.000000e+00 5.618916e-01 4.381084e-01 0.000000e+00 0.000000e+00 0.000000e+00 0.000000e+00
 0.000000e+00 0.000000e+00 5.473986e-01 4.526014e-01 0.000000e+00 0.000000e+00 0.000000e+00
 0.000000e+00 0.000000e+00 0.000000e+00 7.522417e-01 2.477584e-01 0.000000e+00 0.000000e+00
 0.000000e+00 0.000000e+00 0.000000e+00 0.000000e+00 7.479828e-01 2.520172e-01 0.000000e+00
 0.000000e+00 0.000000e+00 0.000000e+00 0.000000e+00 0.000000e+00 9.518927e-01 4.810729e-02
 0.000000e+00 0.000000e+00 0.000000e+00 0.000000e+00 0.000000e+00 0.000000e+00 0.000000e+00
<ENDHMM>
~h "r"
<BEGINHMM>
<NUMSTATES> 7
<STATE> 2
<MEAN> 39
 -2.657998e-01 1.465075e-01 -4.184066e-01 7.648756e-02 6.237484e-01 1.714332e-01 4.140727e-01 -9.433448e-02 -6.397097e-01 2.896863e-01 -1.768352e-01 3.075895e-01 -8.399539e-02 2.831939e-01 1.364482e-01 -5.821477e-02 2.125600e-01 4.150984e-01 1.647257e-01 1.186771e-01 6.335073e-02 -1.527110e-01 -6.161109e-04 -1.362523e-01 2.886392e-03 7.648748e-01 4.096179e-01 1.725309e-01 4.654264e-02 -1.084635e-02 4.461063e-02 3.272203e-02 -1.550134e-02 1.152712e-01 3.990040e-03 1.668306e-02 -1.735937e-01 -1.439940e-01 3.031690e-01
<VARIANCE> 39
 8.281446e-01 8.090570e-01 6.951296e-01 8.162122e-01 7.458301e-01 9.792330e-01 8.380604e-01 9.358425e-01 8.332512e-01 7.461355e-01 9.105567e-01 1.119492e+00 1.178650e+00 1.345938e+00 1.161782e+00 1.263589e+00 1.358873e+00 1.143638e+00 1.209009e+00 1.185502e+00 1.337163e+00 1.101700e+00 1.234390e+00 1.295616e+00 1.373364e+00 2.954704e+00 1.779442e+00 1.280575e+00 1.382992e+00 1.219940e+00 1.214864e+00 1.241012e+00 1.256016e+00 1.319415e+00 1.149222e+00 1.278961e+00 1.266871e+00 1.425039e+00 2.392577e+00
<GCONST> 7.771116e+01
<STATE> 3
<MEAN> 39
 2.787567e-01 7.984202e-02 -5.520348e-01 1.640047e-01 9.587669e-01 2.929390e-01 5.540424e-01 2.170595e-01 -8.098566e-01 4.466520e-01 -6.282238e-01 1.210373e-01 7.536795e-01 5.678458e-01 2.042884e-01 -2.599041e-01 -1.777801e-01 3.444725e-01 3.736647e-01 -5.744227e-02 5.030906e-02 -4.181492e-02 2.296706e-01 -1.550184e-01 -1.037230e-01 3.626983e-01 -3.865281e-01 -7.384035e-02 -1.716772e-02 -2.122833e-01 -3.242149e-01 -3.306173e-03 -2.704881e-01 -1.779513e-01 1.304000e-01 6.876403e-02 2.489903e-01 6.950141e-02 -8.749016e-01
<VARIANCE> 39
 5.745932e-01 9.404624e-01 6.648613e-01 1.028039e+00 9.473350e-01 1.197281e+00 8.447785e-01 1.102979e+00 9.273987e-01 8.767908e-01 9.132341e-01 1.246537e+00 6.486257e-01 2.248447e+00 1.559977e+00 1.624116e+00 2.036722e+00 1.579801e+00 1.698246e+00 1.602961e+00 1.735551e+00 1.402399e+00 1.607783e+00 1.426792e+00 1.675878e+00 3.553414e+00 2.775903e+00 1.790508e+00 1.798849e+00 1.970688e+00 1.535970e+00 1.614131e+00 1.587908e+00 1.712641e+00 1.408258e+00 1.669189e+00 1.433979e+00 1.633517e+00 3.637190e+00
<GCONST> 8.541486e+01
<STATE> 4
<MEAN> 39
 1.691488e-01 1.181089e-01 -7.537642e-01 1.974668e-01 1.363632e+00 6.536939e-01 1.779941e-01 1.474394e-01 -6.086886e-01 5.930439e-01 -6.448322e-01 -5.801756e-02 5.575529e-01 -7.207812e-02 1.299592e-02 8.845355e-02 1.412288e-01 -1.165597e-01 2.751799e-02 -2.773424e-01 -8.440362e-02 1.589932e-01 5.780525e-02 1.866322e-01 1.709245e-02 -1.761609e-01 -1.560967e-02 -5.744015e-02 2.329601e-01 -5.177940e-02 -5.569797e-01 -2.999747e-01 1.739743e-01 -2.536262e-02 -3.070644e-02 -1.018164e-01 9.353451e-02 3.302135e-02 1.296018e-01
<VARIANCE> 39
 4.951935e-01 8.858784e-01 6.817531e-01 1.236282e+00 1.438777e+00 1.789303e+00 1.110138e+00 1.284815e+00 1.032842e+00 8.278193e-01 1.043103e+00 1.136292e+00 4.632063e-01 1.836525e+00 1.548889e+00 1.862080e+00 2.481076e+00 2.253458e+00 2.256155e+00 1.974739e+00 2.007126e+00 1.675624e+00 1.596475e+00 1.592091e+00 1.618944e+00 1.409087e+00 2.303284e+00 1.495138e+00 1.759889e+00 1.836031e+00 1.797057e+00 2.029355e+00 1.867930e+00 1.963575e+00 1.530666e+00 1.583654e+00 1.515283e+00 1.566288e+00 1.878402e+00
<GCONST> 8.646256e+01
<STATE> 5
<MEAN> 39
 5.744977e-01 -1.071466e-02 -7.442330e-01 -2.604809e-01 2.671396e-01 4.400374e-01 3.272141e-01 -1.576683e-01 -5.987057e-01 5.735544e-01 -1.561837e-01 9.831049e-02 6.835417e-01 7.838203e-02 1.092890e-01 7.141871e-02 -3.040086e-01 -4.648056e-01 -3.384621e-02 1.125318e-01 -1.192699e-01 -5.029513e-02 1.483298e-02 1.059231e-01 6.414801e-04 -1.001856e-01 -3.114608e-01 5.690081e-02 2.488418e-01 2.298222e-01 1.840312e-01 -1.383642e-01 -3.093040e-02 9.121240e-02 -2.441033e-02 -1.881934e-01 -1.939544e-01 -6.634636e-02 -1.369103e-01
<VARIANCE> 39
 5.967014e-01 9.158474e-01 9.409699e-01 1.485211e+00 1.432814e+00 1.454695e+00 1.201292e+00 1.464378e+00 1.138182e+00 9.494632e-01 1.328208e+00 1.246050e+00 5.619321e-01 9.940274e-01 1.314918e+00 1.469864e+00 1.973406e+00 1.758426e+00 1.637624e+00 1.790204e+00 1.599357e+00 1.397186e+00 1.329486e+00 1.489457e+00 1.372418e+00 1.272031e+00 1.680270e+00 1.170577e+00 1.530573e+00 1.482203e+00 1.617764e+00 1.493311e+00 1.635283e+00 1.564094e+00 1.382170e+00 1.394001e+00 1.444189e+00 1.385442e+00 1.555768e+00
<GCONST> 8.283726e+01
<STATE> 6
<MEAN> 39
 7.247670e-01 2.968543e-01 -9.245142e-01 -6.970828e-01 1.574626e-01 5.531683e-01 4.977487e-01 -5.533797e-02 -8.499784e-01 6.437556e-01 -2.699651e-01 -4.646603e-03 5.608634e-01 -3.856725e-02 9.198405e-03 1.599167e-01 1.134938e-01 -1.973969e-02 -8.764384e-02 -9.570976e-02 -5.078210e-02 9.213665e-03 -6.332825e-02 6.442058e-03 -1.347781e-03 -9.383039e-02 -3.950062e-02 -4.741134e-02 1.246043e-01 1.708321e-01 5.497148e-02 -8.433994e-02 -5.281088e-02 -3.078338e-04 3.130319e-03 -7.802263e-02 -2.499450e-02 1.727743e-02 -1.481221e-02
<VARIANCE> 39
 6.253012e-01 1.047435e+00 7.816120e-01 1.560900e+00 1.883141e+00 1.444922e+00 1.129457e+00 1.375633e+00 1.100300e+00 1.076835e+00 1.216538e+00 1.342304e+00 5.371345e-01 5.517533e-01 7.992669e-01 9.046758e-01 1.141674e+00 9.957845e-01 1.057968e+00 1.044711e+00 1.100507e+00 8.749124e-01 9.998052e-01 9.355376e-01 1.070641e+00 7.137824e-01 8.858201e-01 7.587456e-01 9.828854e-01 9.762376e-01 1.013798e+00 9.620383e-01 9.734995e-01 1.040576e+00 8.492895e-01 1.011274e+00 8.815627e-01 1.037191e+00 8.685340e-01
<GCONST> 7.103552e+01
<TRANSP> 7
 0.000000e+00 1.000000e+00 0.000000e+00 0.000000e+00 0.000000e+00 0.000000e+00 0.000000e+00
 0.000000e+00 6.391386e-01 3.608613e-01 0.000000e+00 0.000000e+00 0.000000e+00 0.000000e+00
 0.000000e+00 0.000000e+00 5.398092e-01 4.601908e-01 0.000000e+00 0.000000e+00 0.000000e+00
 0.000000e+00 0.000000e+00 0.000000e+00 6.300441e-01 3.699559e-01 0.000000e+00 0.000000e+00
 0.000000e+00 0.000000e+00 0.000000e+00 0.000000e+00 4.792505e-01 5.207495e-01 0.000000e+00
 0.000000e+00 0.000000e+00 0.000000e+00 0.000000e+00 0.000000e+00 8.216903e-01 1.783097e-01
 0.000000e+00 0.000000e+00 0.000000e+00 0.000000e+00 0.000000e+00 0.000000e+00 0.000000e+00
<ENDHMM>
~h "s"
<BEGINHMM>
<NUMSTATES> 7
<STATE> 2
<MEAN> 39
 7.815072e-02 5.109826e-01 1.865958e-01 5.958887e-01 3.920038e-01 -8.750951e-01 5.002792e-02 -3.111829e-02 -6.797538e-01 1.479314e-01 -7.606776e-01 1.284577e-01 6.396291e-01 -1.318910e+00 1.592226e+00 -2.292491e-01 6.382720e-01 9.345365e-01 1.650953e-01 7.906873e-01 -6.512648e-02 -2.505814e-01 -1.086918e-01 -5.864800e-02 1.048141e-01 -5.277921e-01 -1.214603e+00 3.755664e-01 -3.315156e-01 -6.939183e-02 1.741789e-01 2.756646e-01 3.180047e-01 1.303266e-01 -1.091202e-01 1.185151e-02 1.726342e-01 9.166627e-02 -1.575995e-01
<VARIANCE> 39
 4.409688e-01 7.205108e-01 9.947379e-01 9.147640e-01 6.847912e-01 1.304060e+00 9.709092e-01 9.085492e-01 8.752974e-01 1.016306e+00 8.360280e-01 9.316949e-01 6.834005e-01 1.676257e+00 1.834997e+00 1.554969e+00 1.612186e+00 1.255110e+00 1.531227e+00 1.482073e+00 1.411856e+00 1.084995e+00 1.462615e+00 1.125065e+00 1.138051e+00 1.276609e+00 1.594922e+00 1.470153e+00 1.328664e+00 1.129954e+00 1.039518e+00 1.277995e+00 1.131756e+00 1.136870e+00 9.541999e-01 1.140157e+00 9.969082e-01 1.086565e+00 9.603007e-01
<GCONST> 7.575594e+01
<STATE> 3
<MEAN> 39
