~o
<STREAMINFO> 1 39
<VECSIZE> 39<NULLD><USER><DIAGC>
~h "proto"
<BEGINHMM>
<NUMSTATES> 7
<STATE> 2
<MEAN> 39
 0.000000e+00 0.000000e+00 0.000000e+00 0.000000e+00 0.000000e+00 0.000000e+00 0.000000e+00 0.000000e+00 0.000000e+00 0.000000e+00 0.000000e+00 0.000000e+00 0.000000e+00 0.000000e+00 0.000000e+00 0.000000e+00 0.000000e+00 0.000000e+00 0.000000e+00 0.000000e+00 0.000000e+00 0.000000e+00 0.000000e+00 0.000000e+00 0.000000e+00 0.000000e+00 0.000000e+00 0.000000e+00 0.000000e+00 0.000000e+00 0.000000e+00 0.000000e+00 0.000000e+00 0.000000e+00 0.000000e+00 0.000000e+00 0.000000e+00 0.000000e+00 0.000000e+00
<VARIANCE> 39
 9.967198e-01 9.097828e-01 1.273499e+00 1.129254e+00 9.227421e-01 1.190360e+00 9.834552e-01 1.117015e+00 1.029165e+00 1.130068e+00 9.910340e-01 1.236064e+00 1.558645e+00 8.406698e-01 8.893663e-01 1.029865e+00 1.052435e+00 9.118932e-01 1.015486e+00 9.806623e-01 1.050696e+00 9.555231e-01 1.052122e+00 9.498518e-01 1.066814e+00 1.113103e+00 9.402459e-01 9.200108e-01 1.061214e+00 9.677269e-01 9.708372e-01 1.019655e+00 9.948912e-01 1.056957e+00 9.914200e-01 1.082101e+00 9.546739e-01 1.078071e+00 1.054444e+00
<GCONST> 7.287064e+01
<STATE> 3
<MEAN> 39
 0.000000e+00 0.000000e+00 0.000000e+00 0.000000e+00 0.000000e+00 0.000000e+00 0.000000e+00 0.000000e+00 0.000000e+00 0.000000e+00 0.000000e+00 0.000000e+00 0.000000e+00 0.000000e+00 0.000000e+00 0.000000e+00 0.000000e+00 0.000000e+00 0.000000e+00 0.000000e+00 0.000000e+00 0.000000e+00 0.000000e+00 0.000000e+00 0.000000e+00 0.000000e+00 0.000000e+00 0.000000e+00 0.000000e+00 0.000000e+00 0.000000e+00 0.000000e+00 0.000000e+00 0.000000e+00 0.000000e+00 0.000000e+00 0.000000e+00 0.000000e+00 0.000000e+00
<VARIANCE> 39
 9.967198e-01 9.097828e-01 1.273499e+00 1.129254e+00 9.227421e-01 1.190360e+00 9.834552e-01 1.117015e+00 1.029165e+00 1.130068e+00 9.910340e-01 1.236064e+00 1.558645e+00 8.406698e-01 8.893663e-01 1.029865e+00 1.052435e+00 9.118932e-01 1.015486e+00 9.806623e-01 1.050696e+00 9.555231e-01 1.052122e+00 9.498518e-01 1.066814e+00 1.113103e+00 9.402459e-01 9.200108e-01 1.061214e+00 9.677269e-01 9.708372e-01 1.019655e+00 9.948912e-01 1.056957e+00 9.914200e-01 1.082101e+00 9.546739e-01 1.078071e+00 1.054444e+00
<GCONST> 7.287064e+01
<STATE> 4
<MEAN> 39
 0.000000e+00 0.000000e+00 0.000000e+00 0.000000e+00 0.000000e+00 0.000000e+00 0.000000e+00 0.000000e+00 0.000000e+00 0.000000e+00 0.000000e+00 0.000000e+00 0.000000e+00 0.000000e+00 0.000000e+00 0.000000e+00 0.000000e+00 0.000000e+00 0.000000e+00 0.000000e+00 0.000000e+00 0.000000e+00 0.000000e+00 0.000000e+00 0.000000e+00 0.000000e+00 0.000000e+00 0.000000e+00 0.000000e+00 0.000000e+00 0.000000e+00 0.000000e+00 0.000000e+00 0.000000e+00 0.000000e+00 0.000000e+00 0.000000e+00 0.000000e+00 0.000000e+00
<VARIANCE> 39
 9.967198e-01 9.097828e-01 1.273499e+00 1.129254e+00 9.227421e-01 1.190360e+00 9.834552e-01 1.117015e+00 1.029165e+00 1.130068e+00 9.910340e-01 1.236064e+00 1.558645e+00 8.406698e-01 8.893663e-01 1.029865e+00 1.052435e+00 9.118932e-01 1.015486e+00 9.806623e-01 1.050696e+00 9.555231e-01 1.052122e+00 9.498518e-01 1.066814e+00 1.113103e+00 9.402459e-01 9.200108e-01 1.061214e+00 9.677269e-01 9.708372e-01 1.019655e+00 9.948912e-01 1.056957e+00 9.914200e-01 1.082101e+00 9.546739e-01 1.078071e+00 1.054444e+00
<GCONST> 7.287064e+01
<STATE> 5
<MEAN> 39
 0.000000e+00 0.000000e+00 0.000000e+00 0.000000e+00 0.000000e+00 0.000000e+00 0.000000e+00 0.000000e+00 0.000000e+00 0.000000e+00 0.000000e+00 0.000000e+00 0.000000e+00 0.000000e+00 0.000000e+00 0.000000e+00 0.000000e+00 0.000000e+00 0.000000e+00 0.000000e+00 0.000000e+00 0.000000e+00 0.000000e+00 0.000000e+00 0.000000e+00 0.000000e+00 0.000000e+00 0.000000e+00 0.000000e+00 0.000000e+00 0.000000e+00 0.000000e+00 0.000000e+00 0.000000e+00 0.000000e+00 0.000000e+00 0.000000e+00 0.000000e+00 0.000000e+00
<VARIANCE> 39
 9.967198e-01 9.097828e-01 1.273499e+00 1.129254e+00 9.227421e-01 1.190360e+00 9.834552e-01 1.117015e+00 1.029165e+00 1.130068e+00 9.910340e-01 1.236064e+00 1.558645e+00 8.406698e-01 8.893663e-01 1.029865e+00 1.052435e+00 9.118932e-01 1.015486e+00 9.806623e-01 1.050696e+00 9.555231e-01 1.052122e+00 9.498518e-01 1.066814e+00 1.113103e+00 9.402459e-01 9.200108e-01 1.061214e+00 9.677269e-01 9.708372e-01 1.019655e+00 9.948912e-01 1.056957e+00 9.914200e-01 1.082101e+00 9.546739e-01 1.078071e+00 1.054444e+00
<GCONST> 7.287064e+01
<STATE> 6
<MEAN> 39
 0.000000e+00 0.000000e+00 0.000000e+00 0.000000e+00 0.000000e+00 0.000000e+00 0.000000e+00 0.000000e+00 0.000000e+00 0.000000e+00 0.000000e+00 0.000000e+00 0.000000e+00 0.000000e+00 0.000000e+00 0.000000e+00 0.000000e+00 0.000000e+00 0.000000e+00 0.000000e+00 0.000000e+00 0.000000e+00 0.000000e+00 0.000000e+00 0.000000e+00 0.000000e+00 0.000000e+00 0.000000e+00 0.000000e+00 0.000000e+00 0.000000e+00 0.000000e+00 0.000000e+00 0.000000e+00 0.000000e+00 0.000000e+00 0.000000e+00 0.000000e+00 0.000000e+00
<VARIANCE> 39
 9.967198e-01 9.097828e-01 1.273499e+00 1.129254e+00 9.227421e-01 1.190360e+00 9.834552e-01 1.117015e+00 1.029165e+00 1.130068e+00 9.910340e-01 1.236064e+00 1.558645e+00 8.406698e-01 8.893663e-01 1.029865e+00 1.052435e+00 9.118932e-01 1.015486e+00 9.806623e-01 1.050696e+00 9.555231e-01 1.052122e+00 9.498518e-01 1.066814e+00 1.113103e+00 9.402459e-01 9.200108e-01 1.061214e+00 9.677269e-01 9.708372e-01 1.019655e+00 9.948912e-01 1.056957e+00 9.914200e-01 1.082101e+00 9.546739e-01 1.078071e+00 1.054444e+00
<GCONST> 7.287064e+01
<TRANSP> 7
 0.000000e+00 1.000000e+00 0.000000e+00 0.000000e+00 0.000000e+00 0.000000e+00 0.000000e+00
 0.000000e+00 6.000000e-01 4.000000e-01 0.000000e+00 0.000000e+00 0.000000e+00 0.000000e+00
 0.000000e+00 0.000000e+00 6.000000e-01 4.000000e-01 0.000000e+00 0.000000e+00 0.000000e+00
 0.000000e+00 0.000000e+00 0.000000e+00 6.000000e-01 4.000000e-01 0.000000e+00 0.000000e+00
 0.000000e+00 0.000000e+00 0.000000e+00 0.000000e+00 6.000000e-01 4.000000e-01 0.000000e+00
 0.000000e+00 0.000000e+00 0.000000e+00 0.000000e+00 0.000000e+00 7.000000e-01 3.000000e-01
 0.000000e+00 0.000000e+00 0.000000e+00 0.000000e+00 0.000000e+00 0.000000e+00 0.000000e+00
<ENDHMM>
