~o
<STREAMINFO> 1 39
<VECSIZE> 39<NULLD><USER><DIAGC>
~h "a"
<BEGINHMM>
<NUMSTATES> 7
<STATE> 2
<NUMMIXES> 8
<MIXTURE> 1 6.594768e-02
<MEAN> 39
 -1.440544e-01 1.186880e-01 -2.473166e-01 6.060422e-01 9.105550e-01 3.146055e-01 4.145383e-01 -3.992668e-01 -7.654506e-01 1.655058e-03 -6.137905e-02 5.313889e-01 -2.077371e-01 1.663024e+00 3.244624e-01 4.992627e-01 6.851748e-01 5.246984e-01 1.112369e-01 4.574573e-01 7.032896e-01 1.001107e-01 1.240131e-02 -6.667296e-01 -7.014206e-01 2.409544e+00 9.749780e-01 -3.727913e-01 -5.702079e-01 -8.837851e-01 -7.751417e-01 -3.625906e-01 1.314500e-02 4.657633e-01 5.923455e-01 5.380940e-01 -1.307798e-01 -5.550625e-01 9.191042e-01
<VARIANCE> 39
 3.576823e-01 4.450842e-01 4.435263e-01 3.543422e-01 3.986311e-01 4.830162e-01 4.894144e-01 7.711177e-01 5.226048e-01 4.942817e-01 6.550918e-01 7.617072e-01 4.338068e-01 1.673667e+00 1.130478e+00 1.102762e+00 1.372567e+00 1.152807e+00 1.289031e+00 1.296198e+00 1.406272e+00 1.245018e+00 1.463043e+00 1.322680e+00 1.487966e+00 3.331398e+00 1.452707e+00 1.405028e+00 1.623489e+00 1.223324e+00 1.262302e+00 1.384971e+00 1.372332e+00 1.503487e+00 1.363395e+00 1.434998e+00 1.272575e+00 1.429571e+00 2.197827e+00
<GCONST> 7.175166e+01
<MIXTURE> 2 1.435004e-01
<MEAN> 39
 -3.338303e-01 5.099137e-01 -1.906708e-01 8.746209e-02 8.655592e-01 6.446225e-01 4.352655e-01 -1.046507e+00 -1.285683e+00 -3.145526e-01 2.697656e-01 1.181648e+00 -3.855754e-01 -3.715125e-02 -4.309907e-02 7.180890e-02 1.086471e-01 3.483050e-02 -7.813575e-03 2.199126e-02 -2.317393e-03 1.985930e-02 -2.265581e-02 6.039345e-03 5.199531e-02 -2.020474e-02 -2.277784e-02 -2.336275e-01 -1.812114e-02 4.435609e-02 -8.096855e-02 -2.101001e-01 -4.341948e-02 2.392803e-01 3.212705e-01 5.692371e-02 -4.879353e-02 -5.501210e-02 1.825875e-01
<VARIANCE> 39
 8.169818e-01 6.943123e-01 1.602633e+00 7.229690e-01 8.954480e-01 1.015588e+00 7.775361e-01 1.260612e+00 5.684679e-01 7.701242e-01 1.119278e+00 2.041787e+00 8.344947e-01 2.397269e-01 4.100661e-01 4.358414e-01 4.897759e-01 5.000162e-01 7.370613e-01 6.743343e-01 7.429429e-01 6.866192e-01 6.332903e-01 6.504872e-01 8.460842e-01 3.527304e-01 3.906082e-01 4.391041e-01 6.351400e-01 5.820372e-01 6.184565e-01 7.402928e-01 8.003303e-01 8.288643e-01 7.191861e-01 7.240291e-01 7.773579e-01 8.997155e-01 2.566743e-01
<GCONST> 5.661682e+01
<MIXTURE> 3 1.553419e-01
<MEAN> 39
 -8.634487e-01 -4.573442e-01 -5.645421e-01 -4.259752e-01 2.025463e-01 3.663414e-02 2.717368e-03 1.388158e-01 1.817716e-01 3.291016e-01 2.826581e-01 8.180838e-01 -1.228301e+00 1.428151e-01 2.896887e-02 -3.887689e-01 -2.989874e-01 9.447069e-02 1.868293e-01 1.647365e-02 -2.062697e-01 -1.246497e-01 2.079095e-01 1.545281e-01 -1.077762e-01 3.797136e-02 1.239353e-01 4.821304e-01 6.932332e-02 3.018103e-01 4.817050e-01 2.629037e-01 9.060931e-02 -2.432157e-01 -3.866724e-01 4.225101e-02 -2.860225e-01 -4.157699e-01 -4.201422e-01
<VARIANCE> 39
 8.062650e-02 3.435789e-01 3.798814e-01 3.481252e-01 3.392648e-01 4.237949e-01 3.682191e-01 5.957509e-01 3.268126e-01 6.564965e-01 9.337473e-01 9.358341e-01 1.258823e-01 2.590635e-01 8.559009e-01 7.131497e-01 7.573388e-01 9.021580e-01 8.051433e-01 7.463346e-01 8.323401e-01 8.450798e-01 8.941609e-01 8.092210e-01 1.128420e+00 7.696813e-01 6.235474e-01 9.980679e-01 1.226812e+00 8.653967e-01 9.727424e-01 9.891066e-01 9.278924e-01 9.457619e-01 8.700870e-01 1.133541e+00 8.758266e-01 1.144367e+00 1.312478e+00
<GCONST> 5.499073e+01
<MIXTURE> 4 8.178656e-02
<MEAN> 39
 6.573461e-01 -2.205119e-01 4.200026e-01 7.139047e-01 1.946907e-01 -2.946191e-01 -6.232769e-01 -7.052455e-01 -8.707992e-01 6.319051e-02 -5.975713e-01 -4.304781e-01 4.615215e-01 1.006003e+00 -9.684572e-01 -1.022862e+00 -1.295719e+00 -1.054348e+00 -8.186724e-01 -1.373194e-01 1.212823e+00 1.326282e+00 9.544613e-01 2.967967e-01 -4.074010e-02 2.082259e+00 1.742938e-01 -5.778531e-01 -6.735674e-01 -5.981845e-01 -3.645260e-01 -1.546002e-01 4.626671e-01 1.020920e+00 8.677705e-01 3.420857e-01 -1.285819e-01 -1.123584e-01 9.211112e-01
<VARIANCE> 39
 1.863370e-01 3.934924e-01 8.643272e-01 4.389765e-01 5.956231e-01 6.763633e-01 1.060427e+00 9.664119e-01 8.605140e-01 8.427190e-01 7.828367e-01 1.059704e+00 2.197207e-01 1.103002e+00 7.665543e-01 1.669881e+00 1.213478e+00 1.258265e+00 1.665877e+00 1.534566e+00 1.768728e+00 1.614947e+00 1.529217e+00 1.263277e+00 1.647601e+00 1.005099e+00 7.365491e-01 7.537978e-01 1.103080e+00 8.025028e-01 1.025006e+00 1.091828e+00 1.097606e+00 1.307579e+00 1.100314e+00 1.122992e+00 9.726930e-01 1.088208e+00 7.937040e-01
<GCONST> 6.890710e+01
<MIXTURE> 5 2.192995e-01
<MEAN> 39
 -8.971362e-01 -1.390162e-01 -5.763165e-01 -3.325513e-01 3.314234e-01 4.519355e-02 1.298172e-01 -1.836199e-01 -1.524018e-01 5.236107e-01 -3.454536e-01 -7.267582e-02 -1.765079e+00 -6.352061e-02 -2.202516e-02 1.779501e-01 1.640755e-01 -3.706574e-02 -1.068898e-01 -2.640777e-02 1.233314e-01 7.226238e-02 -9.860796e-02 -1.054953e-01 3.229491e-02 -1.828025e-02 2.885195e-02 -2.472608e-01 2.726879e-02 -6.917987e-02 -1.899378e-01 -1.180308e-01 -6.352427e-02 1.359618e-01 1.752262e-01 -7.529963e-02 1.149440e-01 2.552827e-01 3.793821e-01
<VARIANCE> 39
 4.237063e-02 2.328271e-01 1.664182e-01 2.940550e-01 1.980364e-01 3.281644e-01 3.429218e-01 5.037838e-01 2.669883e-01 4.849862e-01 6.521876e-01 7.031499e-01 6.707887e-02 1.317918e-01 4.215671e-01 4.089461e-01 4.520861e-01 5.514619e-01 7.219945e-01 7.569545e-01 9.578899e-01 7.339565e-01 8.484709e-01 8.500246e-01 9.804235e-01 3.595703e-01 3.081725e-01 4.275644e-01 6.126837e-01 6.146994e-01 8.340477e-01 9.109743e-01 9.928049e-01 1.116656e+00 9.142511e-01 1.005895e+00 9.674234e-01 9.546183e-01 1.989712e-01
<GCONST> 4.157384e+01
<MIXTURE> 6 1.206355e-01
<MEAN> 39
 1.009089e-01 -5.535089e-01 -2.418289e-01 3.012097e-01 3.034882e-01 -4.550256e-01 -1.892833e-01 3.410985e-01 -1.132618e-02 4.651580e-01 -5.840673e-01 -2.581955e-01 5.307440e-01 -4.740731e-02 -1.646584e-01 -7.461596e-03 4.140431e-02 -5.315769e-02 -1.642383e-01 4.574090e-02 1.577427e-01 1.491879e-01 5.343278e-02 -1.183196e-01 -8.091830e-02 1.434179e-01 -6.097537e-02 8.683206e-02 -1.286500e-02 -1.659313e-01 -3.087529e-02 1.404188e-01 1.667719e-01 -1.125402e-01 -2.504062e-01 -1.208150e-01 7.941359e-02 1.471511e-01 -4.858014e-02
<VARIANCE> 39
 9.724953e-01 7.270598e-01 1.320600e+00 1.078042e+00 1.285032e+00 1.278941e+00 1.509631e+00 1.209691e+00 1.218860e+00 1.257464e+00 1.393860e+00 1.523814e+00 1.383684e+00 2.780856e-01 4.754012e-01 8.155971e-01 7.364913e-01 6.132004e-01 8.482346e-01 7.877299e-01 9.437528e-01 7.685240e-01 8.823929e-01 8.934929e-01 8.765771e-01 3.125235e-01 3.715986e-01 4.764365e-01 7.067698e-01 5.980930e-01 6.690881e-01 7.210135e-01 8.074489e-01 7.928607e-01 6.930099e-01 8.039593e-01 7.941321e-01 8.206922e-01 3.268621e-01
<GCONST> 6.311021e+01
<MIXTURE> 7 1.097457e-01
<MEAN> 39
 -1.992671e-01 8.768731e-01 5.922458e-01 9.323676e-01 3.685847e-01 -6.999013e-01 3.285059e-01 -4.429050e-01 -6.989993e-01 -1.734771e-01 -8.916148e-01 2.659889e-01 7.610566e-01 2.645103e+00 -1.006656e+00 1.054536e+00 -5.264571e-02 -1.212484e+00 -1.338594e+00 -1.177549e+00 1.843245e-01 3.834568e-01 4.169263e-02 -3.631216e-02 1.401800e-01 1.508511e+00 -3.586796e-01 -1.534699e+00 -5.599870e-01 -6.598130e-01 -7.346388e-01 1.553521e-02 -1.775871e-01 6.247690e-01 5.339604e-01 3.982539e-01 3.361648e-01 2.618225e-01 3.298829e-01
<VARIANCE> 39
 2.280712e-01 3.655763e-01 9.318033e-01 4.289066e-01 3.831666e-01 6.835180e-01 5.175402e-01 6.299536e-01 6.439373e-01 6.115339e-01 4.441750e-01 6.423383e-01 2.454489e-01 1.506530e+00 1.542452e+00 1.871837e+00 1.823622e+00 1.243493e+00 1.402615e+00 1.350860e+00 1.353320e+00 1.580956e+00 1.730409e+00 1.299463e+00 1.427187e+00 7.598801e-01 1.748030e+00 1.316341e+00 1.360569e+00 1.027255e+00 1.045927e+00 1.236190e+00 1.090350e+00 1.234238e+00 1.186930e+00 1.144490e+00 9.527045e-01 1.108388e+00 8.928708e-01
<GCONST> 6.877377e+01
<MIXTURE> 8 1.037307e-01
<MEAN> 39
 -5.014344e-01 2.381229e-01 -2.605232e-01 3.930984e-01 7.940629e-01 -4.773279e-02 4.229357e-01 4.308031e-02 -5.244644e-01 1.649650e-01 -4.235725e-01 2.843155e-01 1.096533e-01 1.895174e-01 -1.468707e-02 -1.312153e-01 -7.393836e-02 8.009513e-02 -9.994558e-02 -4.496268e-02 -7.214430e-02 -8.888955e-02 -5.527570e-02 -6.171992e-02 2.634190e-02 3.395972e-01 5.455512e-01 4.871640e-02 1.342587e-01 -2.851241e-02 -2.036023e-01 -9.220508e-02 -1.202705e-01 -1.736113e-01 -1.156540e-01 2.743059e-02 7.828005e-03 -7.858092e-02 6.624229e-03
<VARIANCE> 39
 8.172325e-01 1.126050e+00 1.013967e+00 7.483530e-01 9.829183e-01 1.216665e+00 1.090772e+00 9.754411e-01 8.716372e-01 8.332642e-01 9.612366e-01 1.155592e+00 9.940289e-01 2.065613e+00 1.456477e+00 1.702940e+00 1.600864e+00 1.505315e+00 1.633001e+00 1.435026e+00 1.488260e+00 1.423062e+00 1.419406e+00 1.376765e+00 1.410763e+00 2.100214e+00 2.249992e+00 1.654402e+00 1.818718e+00 1.619431e+00 1.604151e+00 1.742821e+00 1.724248e+00 1.605106e+00 1.396747e+00 1.636833e+00 1.561417e+00 1.558800e+00 2.797554e+00
<GCONST> 8.439564e+01
<STATE> 3
<NUMMIXES> 8
<MIXTURE> 1 7.136392e-02
<MEAN> 39
 5.908791e-01 4.648594e-02 -2.899654e-02 9.565389e-01 1.202451e+00 3.967859e-01 6.755319e-01 2.589893e-01 -8.277211e-01 5.907317e-02 -4.623723e-01 1.469491e-01 5.291572e-01 2.541062e+00 -2.102992e-01 -4.111721e-01 -2.263137e-02 1.816854e-01 1.113322e-01 7.494600e-01 1.348753e+00 6.151770e-01 9.386769e-01 -3.686577e-01 -1.118382e+00 3.947184e+00 -3.130186e-01 -1.221967e+00 -1.903548e+00 -1.965752e+00 -1.393450e+00 -5.436107e-01 -4.698844e-01 -2.279999e-01 4.765481e-01 1.077770e+00 8.512784e-01 -3.673661e-01 -1.096855e+00
<VARIANCE> 39
 1.129705e-01 2.552882e-01 1.910260e-01 2.760899e-01 3.143068e-01 4.715443e-01 4.611106e-01 6.807847e-01 4.246607e-01 4.161858e-01 6.020438e-01 7.352709e-01 2.832191e-01 6.073572e-01 8.372697e-01 9.995628e-01 1.200168e+00 1.017923e+00 1.141572e+00 1.127478e+00 1.527894e+00 1.404618e+00 1.566522e+00 1.435842e+00 1.853446e+00 1.082558e+00 1.472314e+00 1.507401e+00 1.384099e+00 1.311570e+00 1.277107e+00 1.632531e+00 1.705363e+00 1.745183e+00 1.456118e+00 1.436088e+00 1.368033e+00 1.455606e+00 3.145928e+00
<GCONST> 6.614956e+01
<MIXTURE> 2 1.436876e-01
<MEAN> 39
 8.822202e-01 -7.908542e-01 5.097931e-01 3.956636e-01 -5.854655e-01 -9.213263e-01 -1.183317e+00 1.073274e-01 -3.418499e-02 3.557092e-01 -7.398725e-01 -3.197147e-01 1.024691e+00 3.462968e-01 -1.034187e+00 -1.121204e+00 -1.299867e+00 -9.611890e-01 -5.485837e-01 4.559061e-01 1.795360e+00 1.544539e+00 6.885210e-01 -3.317265e-02 2.578778e-03 1.683993e+00 -4.386234e-01 9.490718e-03 -1.507800e-01 1.410254e-01 3.108691e-01 3.479211e-01 7.484401e-01 3.154517e-01 -5.058309e-02 -3.922113e-01 -2.888426e-01 -2.323634e-01 -1.032490e-01
<VARIANCE> 39
 1.351001e-01 2.486192e-01 5.912451e-01 4.629382e-01 5.110458e-01 8.194288e-01 7.105687e-01 1.157541e+00 9.829656e-01 7.984506e-01 7.861284e-01 1.215916e+00 1.510499e-01 4.476735e-01 6.029254e-01 1.512948e+00 1.185303e+00 1.075046e+00 1.746636e+00 1.484618e+00 1.946419e+00 1.615114e+00 1.426334e+00 1.392925e+00 1.244339e+00 6.681723e-01 4.059526e-01 3.851482e-01 7.505667e-01 6.046343e-01 8.297455e-01 8.645012e-01 8.759528e-01 1.004930e+00 8.981001e-01 8.135342e-01 7.630475e-01 8.689474e-01 3.519267e-01
<GCONST> 6.081694e+01
<MIXTURE> 3 1.384242e-01
<MEAN> 39
 2.426603e-01 2.923970e-01 1.430479e+00 8.354423e-01 -6.480969e-01 -9.599403e-01 -1.342548e-01 -1.739227e-01 -5.767483e-01 -6.921095e-01 -4.922476e-01 7.803239e-01 9.334421e-01 1.342475e+00 -1.449330e+00 5.263956e-01 -4.172657e-01 -2.026639e+00 -1.061603e+00 -7.962713e-01 7.635114e-01 1.213774e+00 -2.713162e-01 7.290556e-01 7.679723e-01 1.940850e+00 -1.586665e+00 -7.855076e-01 -1.353121e+00 -7.032368e-01 3.468682e-01 6.889129e-01 4.613436e-01 2.877333e-01 4.771092e-01 6.111442e-01 3.732777e-02 -2.874587e-01 -3.695108e-01
<VARIANCE> 39
 1.084673e-01 2.909777e-01 5.729753e-01 3.670493e-01 3.191254e-01 4.622223e-01 6.042451e-01 7.380435e-01 1.016996e+00 4.590006e-01 5.765297e-01 7.390882e-01 1.782818e-01 1.132244e+00 9.644642e-01 1.793510e+00 1.238311e+00 9.362983e-01 1.312182e+00 1.214366e+00 1.641536e+00 1.825482e+00 9.245774e-01 1.174915e+00 1.277762e+00 6.437607e-01 1.320320e+00 1.096517e+00 1.574453e+00 1.038413e+00 1.066453e+00 9.564464e-01 9.659721e-01 1.135297e+00 1.047804e+00 8.289286e-01 9.276989e-01 1.184121e+00 8.446821e-01
<GCONST> 6.363040e+01
<MIXTURE> 4 1.314809e-01
<MEAN> 39
 1.117773e+00 -1.473279e-01 -7.003365e-01 8.370561e-02 4.580577e-01 -2.802672e-01 -1.960822e-01 -3.394654e-01 -7.273052e-01 9.754691e-01 9.247343e-02 -4.168587e-01 8.351339e-01 1.572575e+00 -1.298875e+00 -1.512597e+00 -1.568583e+00 -7.814333e-01 -7.304440e-01 -2.713787e-01 7.426709e-01 8.873096e-01 1.882221e+00 4.320343e-01 -7.487833e-01 2.199160e+00 -1.573938e+00 -4.014048e-01 1.396193e-01 1.126406e-01 2.104501e-01 1.935872e-01 5.337917e-01 4.287739e-01 4.119540e-02 -1.997656e-01 -6.593517e-01 -2.345393e-01 -5.285308e-01
<VARIANCE> 39
 1.875093e-01 3.566918e-01 3.152026e-01 4.232595e-01 3.594252e-01 8.191059e-01 6.384044e-01 1.038337e+00 7.213344e-01 5.929580e-01 8.125340e-01 7.571955e-01 2.042788e-01 9.439868e-01 1.146113e+00 1.363663e+00 1.201848e+00 1.054565e+00 1.698858e+00 1.422543e+00 2.540664e+00 2.141978e+00 1.466138e+00 1.499188e+00 1.441292e+00 1.544504e+00 1.197558e+00 1.072921e+00 1.186406e+00 1.034227e+00 8.727418e-01 1.070310e+00 1.046306e+00 1.052216e+00 1.037839e+00 1.204587e+00 1.012918e+00 1.028499e+00 1.103902e+00
<GCONST> 6.803740e+01
<MIXTURE> 5 1.564160e-01
<MEAN> 39
 4.723591e-01 -4.604442e-01 -6.090514e-01 -1.768208e-01 1.233763e-01 -3.148773e-01 2.159197e-02 2.391073e-01 -3.811402e-01 6.705788e-01 -3.593575e-01 -3.808615e-01 6.028721e-01 -6.103129e-02 -2.160227e-01 -5.924784e-03 7.274255e-02 -4.240985e-02 -3.440639e-01 8.778854e-02 3.571781e-01 2.225673e-01 -4.257828e-02 -3.670890e-01 -1.785088e-01 3.160306e-01 6.956724e-03 1.003007e-01 1.413212e-01 -6.338811e-02 -6.809548e-03 1.252701e-01 6.222392e-02 -2.148058e-03 -1.748396e-01 -1.597698e-01 1.137227e-02 1.258958e-01 3.145273e-02
<VARIANCE> 39
 7.491419e-01 9.216958e-01 1.225794e+00 1.014652e+00 9.930959e-01 1.596756e+00 1.231871e+00 1.389299e+00 1.220994e+00 1.259528e+00 1.224439e+00 1.447305e+00 1.374136e+00 5.956708e-01 6.983358e-01 1.293894e+00 9.349363e-01 8.653361e-01 1.124093e+00 9.577940e-01 1.068569e+00 8.747059e-01 1.174554e+00 1.084533e+00 1.222608e+00 6.697463e-01 5.506800e-01 5.237861e-01 7.493905e-01 7.274374e-01 7.055168e-01 8.736600e-01 9.074985e-01 8.917771e-01 8.223591e-01 8.079176e-01 8.502171e-01 9.177348e-01 4.880203e-01
<GCONST> 6.914100e+01
<MIXTURE> 6 1.289629e-01
<MEAN> 39
 4.774138e-01 1.774640e-02 6.144250e-01 8.484608e-01 -8.300230e-02 -1.568696e+00 -3.326691e-01 1.346398e-01 -4.049467e-01 2.613056e-01 -1.053668e+00 3.949668e-01 1.360103e+00 1.880333e+00 -2.479945e+00 1.675501e-03 -8.691047e-01 -1.428658e+00 -9.814100e-01 -1.178538e+00 1.033786e+00 6.530252e-01 9.548582e-01 -9.446633e-02 1.767918e-01 1.435275e+00 -2.277600e+00 -9.289990e-02 -1.132061e+00 -6.268296e-01 1.904704e-01 9.980430e-01 7.717307e-01 2.661733e-01 1.522571e-01 1.898452e-01 1.115121e-01 -1.186955e-01 -5.818397e-01
<VARIANCE> 39
 1.096277e-01 2.835656e-01 4.920679e-01 2.903014e-01 3.258967e-01 4.015904e-01 4.130657e-01 4.797427e-01 7.208427e-01 5.803893e-01 4.523954e-01 7.095401e-01 1.310018e-01 1.011031e+00 6.632756e-01 1.602679e+00 1.073340e+00 8.317170e-01 1.217251e+00 1.228120e+00 9.877730e-01 1.252887e+00 1.285426e+00 8.525756e-01 9.380693e-01 5.497326e-01 9.839799e-01 1.304556e+00 1.429157e+00 8.438103e-01 9.188173e-01 7.811416e-01 9.596108e-01 8.013903e-01 7.082078e-01 9.188098e-01 7.189189e-01 9.233790e-01 5.981899e-01
<GCONST> 5.706040e+01
<MIXTURE> 7 1.279461e-01
<MEAN> 39
 8.923882e-01 -1.540927e-01 -7.954564e-01 1.895527e-01 4.952308e-01 -3.634499e-01 5.715700e-01 -7.691256e-02 3.120408e-01 8.669495e-01 -9.094166e-01 -9.120743e-01 1.095855e+00 1.713413e+00 -2.036151e+00 -1.031619e+00 -1.597608e+00 -1.129953e+00 -3.248627e-01 4.487082e-01 1.773734e-01 1.168694e+00 1.201119e+00 -4.407509e-01 -9.762767e-01 2.136590e+00 -2.713289e+00 -6.011543e-01 -2.585972e-01 -1.763429e-01 2.151177e-01 5.614980e-01 2.521968e-01 -2.063967e-01 -4.269566e-01 -2.037627e-01 2.117083e-01 5.414891e-01 -1.021540e+00
<VARIANCE> 39
 1.344067e-01 4.035781e-01 3.111725e-01 2.969213e-01 4.130098e-01 8.837634e-01 5.532629e-01 6.734336e-01 7.761289e-01 6.672845e-01 8.111250e-01 8.401185e-01 2.072930e-01 1.268817e+00 1.031165e+00 1.249251e+00 1.162930e+00 1.067647e+00 1.239603e+00 1.663227e+00 1.615302e+00 2.058985e+00 1.520730e+00 1.280500e+00 1.610312e+00 1.043465e+00 1.109452e+00 1.243640e+00 1.286538e+00 1.011590e+00 1.101159e+00 1.178503e+00 1.202934e+00 1.125292e+00 1.152362e+00 1.239342e+00 1.044586e+00 1.182019e+00 1.442293e+00
<GCONST> 6.767165e+01
<MIXTURE> 8 1.017311e-01
<MEAN> 39
 1.097555e+00 -1.975259e-01 -2.782356e-01 7.999448e-01 1.091186e+00 3.715883e-01 6.760705e-01 8.113853e-01 -6.775046e-01 4.084571e-01 -1.688946e-01 3.065547e-02 1.180957e+00 1.721749e+00 -8.257589e-01 -1.214816e+00 -1.074721e+00 -6.824514e-01 -5.063037e-01 -1.358900e-01 6.453648e-01 3.846109e-01 1.398650e+00 5.728784e-01 -7.913830e-01 2.185608e+00 -1.832320e+00 -6.974702e-01 -9.555038e-01 -1.424339e+00 -1.225143e+00 -7.968197e-01 -7.067808e-01 -9.227871e-01 -1.105456e-01 4.566886e-01 3.837355e-01 -1.171510e-01 -2.255944e+00
<VARIANCE> 39
 1.003139e-01 1.949241e-01 2.586156e-01 2.754407e-01 2.637199e-01 4.577664e-01 4.097932e-01 5.926470e-01 4.001767e-01 6.149336e-01 4.413596e-01 7.106329e-01 1.820777e-01 9.272684e-01 9.517470e-01 1.608835e+00 1.544576e+00 1.271559e+00 1.513046e+00 1.533379e+00 1.947202e+00 1.487159e+00 1.849885e+00 1.407305e+00 1.766744e+00 2.098869e+00 1.356696e+00 1.311798e+00 1.651699e+00 1.204711e+00 1.140185e+00 1.514322e+00 1.406328e+00 1.669541e+00 1.508761e+00 1.722383e+00 1.199778e+00 1.372680e+00 2.251188e+00
<GCONST> 6.743366e+01
<STATE> 4
<NUMMIXES> 8
<MIXTURE> 1 9.812346e-02
<MEAN> 39
 2.619506e-01 -3.075239e-01 1.514265e+00 3.272319e-01 -1.486967e+00 -1.050879e+00 -4.491345e-01 1.497905e-01 1.433402e-03 -6.609520e-01 2.551789e-01 1.126523e+00 1.381545e+00 2.871085e-01 -1.256470e+00 -8.759850e-01 -7.621576e-01 -1.020301e+00 -3.299823e-01 1.159843e-01 9.887007e-01 1.358709e+00 4.186188e-01 4.624690e-01 1.448167e-01 1.226499e+00 -6.286593e-01 3.559908e-01 -9.414089e-01 7.283495e-02 1.302015e+00 4.241467e-01 6.297766e-01 1.021329e-02 -3.347798e-01 3.172077e-01 -8.062510e-01 -6.965066e-01 -1.007710e+00
<VARIANCE> 39
 1.176385e-01 3.410980e-01 3.875319e-01 3.890563e-01 2.957246e-01 5.230688e-01 7.380371e-01 1.025937e+00 8.823302e-01 4.762069e-01 7.742793e-01 9.403041e-01 1.626760e-01 4.796204e-01 6.057953e-01 1.568604e+00 6.593752e-01 7.482913e-01 8.023338e-01 8.554436e-01 1.380813e+00 9.159574e-01 7.229841e-01 9.453622e-01 1.014196e+00 4.999675e-01 1.007423e+00 6.300533e-01 1.137908e+00 7.472781e-01 8.440939e-01 8.495826e-01 9.296415e-01 1.048736e+00 7.936062e-01 7.114935e-01 8.283669e-01 9.835187e-01 5.461280e-01
<GCONST> 5.637523e+01
<MIXTURE> 2 1.152298e-01
<MEAN> 39
 7.804045e-01 -4.578025e-01 -1.036785e+00 -6.644409e-01 2.933219e-01 3.749531e-01 6.552708e-01 3.078021e-02 -6.665216e-01 7.265564e-01 -2.812519e-01 -4.348304e-01 1.044755e+00 -7.985170e-02 -1.847054e-01 5.608619e-02 4.118384e-02 -5.767091e-02 -1.587250e-01 1.337601e-02 1.386690e-01 8.987734e-02 1.381360e-02 -1.526521e-01 -7.808169e-02 2.038153e-01 -1.068720e-01 6.642888e-02 1.997435e-01 2.663939e-01 1.006718e-01 -1.757872e-01 -2.379749e-01 5.706391e-02 3.319607e-02 -2.684885e-02 -2.922289e-03 1.972696e-02 -1.904282e-01
<VARIANCE> 39
 5.302393e-01 8.958138e-01 8.013223e-01 9.734380e-01 9.267647e-01 1.577819e+00 1.174564e+00 1.512961e+00 1.263705e+00 1.186392e+00 1.550646e+00 1.680402e+00 6.705767e-01 5.285833e-01 6.849104e-01 9.830782e-01 1.116994e+00 8.039716e-01 1.131632e+00 9.824743e-01 1.015002e+00 8.216336e-01 1.065284e+00 9.573888e-01 1.123385e+00 7.748504e-01 7.175663e-01 6.230236e-01 7.825243e-01 9.410161e-01 7.848662e-01 9.261847e-01 8.333389e-01 8.910926e-01 7.271224e-01 9.280885e-01 8.266417e-01 9.794021e-01 7.432179e-01
<GCONST> 6.863820e+01
<MIXTURE> 3 1.586316e-01
<MEAN> 39
 9.981421e-01 -1.132680e+00 9.638181e-02 2.451160e-01 -8.474743e-01 -1.291480e+00 -1.036159e+00 1.160480e+00 2.471105e-01 5.796540e-01 -6.138619e-01 -4.214243e-01 1.417598e+00 4.867350e-02 -1.067150e+00 -9.126894e-01 -8.202853e-01 -6.429720e-01 -2.869628e-01 4.727773e-01 1.481801e+00 9.809346e-01 3.847060e-01 -1.461357e-01 -2.467024e-01 1.259158e+00 -1.007187e+00 7.926604e-01 3.824502e-01 3.892930e-01 9.513918e-01 6.099896e-01 5.769069e-01 -6.675814e-01 -6.823875e-01 -5.817618e-01 -3.690141e-01 -1.636103e-01 -1.035469e+00
<VARIANCE> 39
 9.705918e-02 2.112370e-01 3.646707e-01 3.034106e-01 4.156362e-01 6.313246e-01 6.135796e-01 7.634073e-01 8.151291e-01 4.522364e-01 6.654592e-01 1.041785e+00 1.473109e-01 4.339007e-01 7.038612e-01 1.215525e+00 8.445524e-01 8.818310e-01 1.057031e+00 1.208316e+00 1.284960e+00 1.027999e+00 1.077099e+00 8.619576e-01 9.519889e-01 5.820746e-01 7.119702e-01 5.595431e-01 8.618176e-01 7.408321e-01 7.705864e-01 8.528212e-01 8.831549e-01 8.916422e-01 7.539694e-01 6.606996e-01 8.207172e-01 8.192956e-01 4.928644e-01
<GCONST> 5.495647e+01
<MIXTURE> 4 1.534626e-01
<MEAN> 39
 1.239730e+00 -9.033490e-01 -1.174333e+00 -4.058372e-01 1.025168e-01 -3.672458e-01 1.808768e-01 -2.419904e-01 -6.640577e-02 1.803421e+00 -3.900958e-01 -1.221134e+00 1.328427e+00 -1.516953e-01 -1.210223e+00 -6.649443e-01 -9.140813e-01 -2.398713e-01 -1.922470e-01 3.965468e-01 7.717359e-01 7.742341e-01 6.306171e-01 -8.286220e-01 -6.449568e-01 1.260808e+00 -1.335620e+00 6.847057e-01 9.463680e-01 8.500311e-01 6.579784e-01 2.842547e-01 1.521684e-01 2.388131e-01 -5.105047e-01 -1.260521e+00 -3.724774e-01 3.935435e-01 -1.201890e+00
<VARIANCE> 39
 9.962180e-02 3.250636e-01 3.562763e-01 4.421703e-01 4.832175e-01 1.385151e+00 1.119955e+00 1.341082e+00 9.099792e-01 5.669916e-01 1.384274e+00 8.878955e-01 1.372649e-01 5.326743e-01 7.736564e-01 8.258379e-01 1.004416e+00 8.104605e-01 1.211018e+00 1.071822e+00 1.698628e+00 1.286918e+00 1.054427e+00 1.016088e+00 9.193144e-01 5.499337e-01 8.330368e-01 6.734866e-01 1.075411e+00 8.322658e-01 8.324956e-01 9.756773e-01 1.033204e+00 1.053814e+00 1.139906e+00 7.723729e-01 9.360810e-01 9.352252e-01 7.712644e-01
<GCONST> 6.177733e+01
<MIXTURE> 5 1.386598e-01
<MEAN> 39
 6.383759e-01 -8.537419e-01 -7.481282e-02 -1.297486e-01 -6.487476e-01 -1.007828e+00 3.109241e-02 3.639270e-01 1.340707e+00 6.152166e-01 -1.305182e+00 2.003923e-01 1.643970e+00 1.326254e-01 -1.598119e+00 -1.151299e+00 -1.152619e+00 -3.064670e-01 1.413373e-01 6.867792e-01 9.978981e-01 1.112911e+00 3.926280e-01 -6.220886e-01 -4.577861e-01 1.158019e+00 -1.081008e+00 9.022724e-01 -9.774731e-02 6.981986e-01 1.018546e+00 5.794606e-01 3.143431e-01 -3.012075e-01 -1.272582e+00 -5.067852e-01 6.020042e-02 -5.163012e-01 -1.454408e+00
<VARIANCE> 39
 9.256376e-02 3.348373e-01 3.820426e-01 2.693386e-01 4.258057e-01 8.842511e-01 5.961329e-01 1.068335e+00 1.373662e+00 7.403722e-01 5.741656e-01 1.015527e+00 1.145841e-01 4.770651e-01 6.206179e-01 1.021526e+00 6.837634e-01 7.897657e-01 8.676503e-01 9.501373e-01 9.535005e-01 1.066100e+00 9.696037e-01 7.322655e-01 1.007919e+00 5.064830e-01 1.289567e+00 7.648876e-01 1.148847e+00 7.035475e-01 8.642175e-01 9.649968e-01 1.075119e+00 9.938322e-01 1.186959e+00 8.957139e-01 7.652435e-01 9.737337e-01 6.149441e-01
<GCONST> 5.774762e+01
<MIXTURE> 6 1.078141e-01
<MEAN> 39
 1.367231e+00 -7.233560e-01 -1.395190e+00 -4.022978e-01 7.130932e-01 -1.994848e-01 4.850194e-01 8.206437e-01 -8.048497e-01 1.860788e+00 3.128629e-01 -1.053789e+00 1.460092e+00 1.718392e-01 -1.274434e+00 -1.607628e+00 -1.638039e+00 -4.885925e-01 -5.457982e-01 7.706181e-02 3.504612e-01 -9.735146e-02 1.152477e+00 -4.687504e-02 -1.265082e+00 1.325128e+00 -1.904696e+00 3.896446e-01 9.649757e-01 6.712323e-01 3.238290e-01 4.089628e-01 1.840688e-03 -4.806864e-01 -1.454840e-01 -1.411273e+00 -9.552905e-01 2.789559e-01 -1.561819e+00
<VARIANCE> 39
 1.138239e-01 2.701257e-01 2.919696e-01 4.403735e-01 2.975773e-01 7.621763e-01 8.447496e-01 9.630381e-01 8.089105e-01 5.183542e-01 9.388569e-01 1.282347e+00 1.517024e-01 7.764879e-01 7.170609e-01 9.831151e-01 1.245153e+00 8.117306e-01 1.526752e+00 1.159666e+00 1.433893e+00 1.115208e+00 1.359094e+00 1.139709e+00 1.140072e+00 8.667466e-01 1.112299e+00 9.883695e-01 1.245836e+00 1.103135e+00 8.925705e-01 1.055512e+00 1.165066e+00 1.171749e+00 1.171757e+00 1.039339e+00 1.035633e+00 1.311298e+00 1.540328e+00
<GCONST> 6.435849e+01
<MIXTURE> 7 1.276043e-01
<MEAN> 39
 1.537110e-01 -1.032351e+00 -1.391746e+00 -3.010422e-03 8.878568e-01 -1.911595e-01 2.246587e-01 4.395210e-01 3.701819e-01 6.927607e-01 -1.542808e+00 -1.399615e+00 -2.089008e-01 5.628541e-01 -3.112301e-01 -1.865293e-01 -2.720428e-01 -3.843177e-04 1.645373e-01 5.807207e-01 3.737688e-01 -3.131668e-01 -9.166928e-02 -2.874891e-01 -3.841930e-01 1.079236e+00 -8.175190e-02 6.213231e-02 2.473654e-01 -1.579591e-01 -1.338784e-01 7.386402e-02 -3.104964e-02 -1.083020e-01 -2.030363e-01 7.060564e-02 3.220090e-01 1.966955e-01 2.568191e-01
<VARIANCE> 39
 3.622753e-01 6.109793e-01 6.585711e-01 7.423108e-01 5.860225e-01 9.354693e-01 9.627500e-01 9.777303e-01 8.441864e-01 7.828083e-01 1.221811e+00 1.375945e+00 8.062774e-01 8.439153e-01 7.785248e-01 1.090074e+00 1.318732e+00 1.010733e+00 1.042473e+00 1.188461e+00 1.251729e+00 1.049291e+00 1.205564e+00 1.552606e+00 1.627781e+00 1.467224e+00 1.335976e+00 8.645266e-01 1.440893e+00 1.288018e+00 1.155169e+00 1.090674e+00 1.300658e+00 1.170050e+00 1.087646e+00 1.205663e+00 1.503561e+00 1.504826e+00 1.217031e+00
<GCONST> 7.331710e+01
<MIXTURE> 8 1.004868e-01
<MEAN> 39
 5.433549e-01 -4.084786e-01 1.324052e+00 1.125955e+00 -6.746190e-01 -1.651093e+00 -6.470066e-01 6.658871e-01 -9.255331e-01 -6.289517e-01 -5.566900e-01 8.785645e-01 1.162342e+00 4.803644e-02 -9.138564e-01 5.835187e-01 -3.583128e-01 -1.272587e+00 -5.678496e-01 -6.334872e-01 2.571847e-01 1.191292e-01 -1.056564e-01 3.811465e-01 4.782752e-01 8.973772e-01 -8.986565e-01 6.988410e-01 -5.488696e-01 -3.510933e-01 5.591881e-01 8.852638e-01 3.914688e-01 -5.190285e-01 -5.583255e-02 1.942712e-01 1.064495e-01 -2.941811e-01 -8.269213e-01
<VARIANCE> 39
 1.555261e-01 3.871017e-01 5.281208e-01 4.277373e-01 4.493704e-01 6.817009e-01 7.130346e-01 8.164943e-01 8.636860e-01 6.666473e-01 8.145906e-01 7.738807e-01 2.410272e-01 8.306185e-01 9.153171e-01 1.532228e+00 8.604580e-01 1.006074e+00 1.254132e+00 1.212306e+00 1.066667e+00 7.629411e-01 1.028107e+00 7.632149e-01 8.567047e-01 6.843536e-01 1.008445e+00 7.654130e-01 1.216484e+00 7.759153e-01 9.404778e-01 1.111449e+00 1.027527e+00 9.721203e-01 7.852767e-01 7.928420e-01 7.558860e-01 8.064190e-01 7.513845e-01
<GCONST> 6.113591e+01
<STATE> 5
<NUMMIXES> 8
<MIXTURE> 1 1.450577e-01
<MEAN> 39
 4.946069e-01 -1.147893e+00 2.786814e-01 -3.519505e-02 -1.149897e+00 -9.547575e-01 1.959958e-01 1.054615e+00 1.442147e+00 -8.998670e-02 -8.463925e-01 1.590500e-01 1.787234e+00 -4.759183e-02 1.313048e-02 1.524493e-01 3.773990e-02 -6.271397e-02 -5.322504e-02 -2.766353e-02 1.374590e-01 -1.139194e-01 -1.460134e-01 1.648903e-01 9.721661e-02 1.161908e-02 9.207974e-02 1.239736e-01 2.224674e-01 1.450344e-01 -4.084325e-02 -1.811522e-02 -3.332691e-01 -1.113829e-01 -1.941608e-01 4.961763e-02 2.085675e-01 2.730817e-02 -2.518917e-01
<VARIANCE> 39
 1.208608e-01 2.045435e-01 2.955629e-01 2.325267e-01 2.858812e-01 7.337789e-01 5.588049e-01 1.059333e+00 1.055402e+00 4.702072e-01 8.163202e-01 1.172932e+00 1.525238e-01 1.161532e-01 2.347569e-01 3.438824e-01 2.405901e-01 2.677104e-01 3.691489e-01 3.835473e-01 3.786256e-01 3.431566e-01 3.469485e-01 4.688178e-01 5.107284e-01 9.081425e-02 1.645383e-01 2.062863e-01 2.827742e-01 2.402444e-01 2.386451e-01 3.743400e-01 3.390089e-01 3.353205e-01 3.411317e-01 3.105525e-01 3.629595e-01 3.761804e-01 1.294887e-01
<GCONST> 2.735203e+01
<MIXTURE> 2 6.790656e-02
<MEAN> 39
 2.522678e-01 -9.985773e-02 -5.545492e-02 1.851740e-01 1.374544e-01 -5.608673e-01 8.995164e-02 2.620299e-01 -6.054230e-01 5.216120e-02 -5.587226e-01 2.244142e-02 5.089525e-01 -1.604209e-01 1.075505e-01 3.106263e-01 7.739556e-02 -2.182865e-01 -1.123801e-01 -1.113337e-02 -3.726353e-02 -1.101954e-01 -2.065723e-01 8.156072e-02 2.910574e-01 4.239700e-02 -2.681943e-02 2.364113e-01 5.702913e-03 9.539534e-02 2.128520e-01 2.806006e-01 2.754446e-02 -2.596053e-01 -1.655394e-01 8.260719e-02 1.063667e-01 -2.825399e-02 -2.277144e-01
<VARIANCE> 39
 7.877936e-01 8.862361e-01 1.253195e+00 1.033579e+00 9.323751e-01 2.074268e+00 1.416290e+00 1.756816e+00 1.022172e+00 1.069839e+00 1.220612e+00 1.149906e+00 1.095239e+00 9.269106e-01 7.778788e-01 1.459283e+00 1.182717e+00 1.038297e+00 1.193450e+00 1.109506e+00 1.305454e+00 1.006009e+00 1.097925e+00 1.057338e+00 1.207499e+00 6.638874e-01 1.305903e+00 1.030950e+00 1.568484e+00 1.205089e+00 1.184807e+00 1.554907e+00 1.140729e+00 1.584509e+00 1.053828e+00 1.210570e+00 1.101989e+00 1.186700e+00 1.006119e+00
<GCONST> 7.705973e+01
<MIXTURE> 3 1.082439e-01
<MEAN> 39
 4.340927e-01 -7.861037e-01 1.044292e+00 5.144878e-01 -1.321270e+00 -1.532436e+00 -5.396665e-01 6.809126e-01 -6.090340e-02 -2.840130e-01 -1.794515e-01 8.740109e-01 1.470863e+00 -1.432321e-01 -4.094673e-01 2.803266e-03 -4.283133e-01 -4.366186e-01 -8.692110e-03 -1.186329e-01 2.472054e-01 2.660632e-01 6.778828e-02 3.245354e-01 1.086203e-01 4.556702e-01 -9.165743e-02 7.016662e-01 -2.171786e-01 2.076912e-01 8.347012e-01 2.771928e-01 1.515971e-01 -2.382226e-01 -3.720837e-01 -3.175175e-03 -1.860128e-01 -2.696359e-01 -8.846753e-01
<VARIANCE> 39
 1.874122e-01 4.090489e-01 6.578225e-01 4.858646e-01 3.886098e-01 6.295736e-01 7.448468e-01 1.091928e+00 1.232788e+00 6.305791e-01 9.873797e-01 1.028019e+00 1.867923e-01 3.880948e-01 4.505346e-01 8.670499e-01 5.984473e-01 5.664119e-01 6.369605e-01 7.314247e-01 7.515538e-01 6.537018e-01 5.977650e-01 5.870610e-01 6.680214e-01 3.524855e-01 6.139907e-01 6.435319e-01 8.153633e-01 5.984148e-01 6.600854e-01 7.145178e-01 7.559323e-01 7.739505e-01 6.072200e-01 5.900832e-01 5.760074e-01 6.522401e-01 6.146466e-01
<GCONST> 5.207700e+01
<MIXTURE> 4 1.662582e-01
<MEAN> 39
 9.658777e-01 -1.348089e+00 -1.018369e+00 -4.017393e-01 -1.434223e-01 -5.919333e-01 4.251914e-01 4.235409e-01 4.968612e-01 1.481023e+00 -1.077262e+00 -1.175588e+00 1.669885e+00 -3.755813e-01 -5.042857e-01 -2.399143e-02 -2.193518e-01 3.456706e-02 -1.580147e-02 2.038368e-01 6.064396e-01 3.009854e-01 -2.943796e-01 -5.867275e-01 -3.355970e-01 4.704508e-01 7.035515e-03 7.523906e-01 3.950987e-01 3.740110e-01 2.412474e-01 1.231709e-02 -3.028539e-01 -2.606875e-02 -3.717653e-01 -4.702505e-01 3.558984e-01 3.231727e-01 -7.597936e-01
<VARIANCE> 39
 1.184592e-01 2.627679e-01 4.044842e-01 3.993840e-01 3.790178e-01 1.377870e+00 9.999294e-01 1.656205e+00 9.740042e-01 6.792114e-01 1.247619e+00 9.211117e-01 1.158254e-01 2.506840e-01 4.112309e-01 6.955799e-01 5.585630e-01 5.147370e-01 6.768920e-01 5.798689e-01 6.820578e-01 5.453708e-01 6.068914e-01 6.309911e-01 7.140830e-01 1.891337e-01 3.905542e-01 4.143230e-01 5.961266e-01 4.990531e-01 5.762373e-01 5.495948e-01 5.987456e-01 6.038207e-01 5.267638e-01 5.401358e-01 5.728770e-01 5.459175e-01 3.381923e-01
<GCONST> 4.633761e+01
<MIXTURE> 5 1.260677e-01
<MEAN> 39
 6.852974e-01 -1.564608e+00 -8.802555e-01 -5.262801e-01 -2.958754e-01 -1.673742e-01 6.585194e-01 8.990574e-01 1.276143e+00 6.114473e-01 -1.498213e+00 -1.152679e+00 1.728433e+00 -1.600954e-01 -4.549097e-01 -7.794280e-01 -3.468037e-01 6.590725e-01 5.541793e-01 7.504731e-01 2.102105e-01 -1.696214e-01 -1.722026e-01 -6.116444e-01 -5.730013e-01 3.127840e-01 3.110598e-02 7.630718e-01 6.568693e-01 5.199850e-01 9.711080e-02 -2.498663e-01 -4.688945e-01 -4.556945e-01 -7.377827e-01 -5.446246e-02 4.734615e-01 3.424575e-01 -7.886808e-01
<VARIANCE> 39
 1.419546e-01 2.970420e-01 4.132821e-01 3.866984e-01 5.680564e-01 1.320321e+00 7.722380e-01 1.831029e+00 1.094328e+00 8.547214e-01 7.709877e-01 9.664829e-01 1.205215e-01 3.178366e-01 4.529732e-01 7.496938e-01 5.088583e-01 6.243104e-01 8.789070e-01 8.311021e-01 9.918926e-01 6.908073e-01 8.130324e-01 7.773444e-01 9.705569e-01 2.768659e-01 4.850857e-01 4.996368e-01 7.253342e-01 6.683348e-01 6.750047e-01 7.439869e-01 7.171913e-01 1.062097e+00 7.832465e-01 7.311709e-01 6.710309e-01 7.034076e-01 5.118493e-01
<GCONST> 5.334093e+01
<MIXTURE> 6 1.422904e-01
<MEAN> 39
 6.679993e-01 -1.375058e+00 5.284379e-01 2.284516e-01 -1.433464e+00 -1.017969e+00 -5.087960e-01 1.495825e+00 1.042314e+00 -1.838588e-01 -2.878378e-01 -7.562979e-02 1.693045e+00 4.687751e-02 1.097341e-01 2.223543e-01 1.756113e-01 -2.809041e-02 -1.471009e-01 -1.876427e-01 -7.018242e-02 -2.375775e-01 -9.835150e-02 1.589774e-01 2.499133e-01 -1.569910e-01 3.183547e-02 3.030435e-01 5.689637e-02 1.336891e-01 2.304149e-01 -1.050147e-01 -3.269973e-02 -3.662216e-01 -3.161432e-01 6.372489e-02 -5.698296e-02 1.780867e-01 -3.776590e-01
<VARIANCE> 39
 8.186589e-02 1.310362e-01 2.336238e-01 2.143543e-01 2.268955e-01 4.557644e-01 5.824962e-01 7.509858e-01 9.000146e-01 3.993690e-01 5.322956e-01 9.921308e-01 1.268357e-01 1.717031e-01 2.574201e-01 4.599427e-01 3.162298e-01 3.090935e-01 3.989617e-01 5.083005e-01 5.122993e-01 4.516890e-01 3.741748e-01 5.184457e-01 5.609761e-01 1.483428e-01 2.483718e-01 2.423222e-01 3.414579e-01 2.931532e-01 3.101069e-01 3.743420e-01 3.882376e-01 4.109181e-01 3.808840e-01 3.451607e-01 4.188196e-01 4.574164e-01 2.376321e-01
<GCONST> 2.969986e+01
<MIXTURE> 7 1.246064e-01
<MEAN> 39
 6.290466e-01 -1.268711e+00 2.152404e-01 -5.767153e-02 -1.334450e+00 -1.126615e+00 -1.675172e-01 1.677210e+00 9.608170e-01 -5.604916e-02 -4.996493e-01 1.461090e-01 1.705285e+00 2.541824e-01 -6.456232e-01 -1.306787e+00 -2.098744e-01 5.886308e-01 1.587684e-01 6.506793e-01 6.767491e-01 3.926901e-01 1.287583e-01 -8.097013e-01 -9.082544e-01 2.586996e-01 -7.588382e-02 4.972562e-01 2.536095e-01 3.089736e-01 6.552087e-01 4.327901e-02 -1.092078e-01 -6.583251e-01 -7.245460e-01 -4.904533e-03 -1.440636e-01 -8.412074e-02 -5.697215e-01
<VARIANCE> 39
 1.223929e-01 2.244016e-01 3.492657e-01 2.740485e-01 3.073512e-01 7.975400e-01 8.062177e-01 6.720193e-01 9.680501e-01 4.972080e-01 7.724665e-01 1.142432e+00 1.192774e-01 3.044915e-01 3.866251e-01 8.767467e-01 5.388963e-01 5.719884e-01 7.136177e-01 7.701467e-01 7.696702e-01 6.161068e-01 6.546413e-01 8.773109e-01 8.057731e-01 2.408439e-01 3.460893e-01 3.883482e-01 5.831468e-01 5.488480e-01 5.949770e-01 6.766715e-01 6.633855e-01 6.894924e-01 5.727488e-01 5.701090e-01 6.760391e-01 6.712816e-01 3.755090e-01
<GCONST> 4.602102e+01
<MIXTURE> 8 1.195858e-01
<MEAN> 39
 1.069861e+00 -9.842752e-01 -1.194944e+00 -5.700449e-01 4.707172e-01 -1.335650e+00 -2.358175e-01 1.533001e+00 -6.815510e-01 1.805755e+00 -8.402141e-01 -1.104396e+00 1.451070e+00 -8.463726e-02 -3.342642e-01 -6.116906e-01 -5.083218e-01 2.910286e-01 -2.117455e-01 2.020902e-01 6.986356e-01 -3.352175e-02 1.072779e-01 -3.821154e-01 -6.257991e-01 4.258941e-01 -2.821625e-01 4.603083e-01 6.715200e-01 6.051168e-01 -5.713494e-02 4.929978e-01 7.551082e-02 -6.174537e-01 1.616769e-01 -7.698004e-01 3.264127e-02 3.289497e-01 -6.665818e-01
<VARIANCE> 39
 1.556046e-01 2.795453e-01 6.955938e-01 4.536781e-01 4.997946e-01 1.290405e+00 9.587199e-01 1.093124e+00 6.887071e-01 7.692611e-01 1.478213e+00 1.564662e+00 2.532124e-01 4.865834e-01 5.277558e-01 1.142186e+00 9.539868e-01 8.281647e-01 8.745745e-01 8.419600e-01 1.046620e+00 7.660555e-01 6.782454e-01 7.851676e-01 9.843048e-01 5.019256e-01 6.713231e-01 6.118752e-01 9.832267e-01 8.171758e-01 6.882672e-01 8.452851e-01 8.488627e-01 8.332403e-01 7.157052e-01 7.825325e-01 7.210836e-01 8.418161e-01 7.154270e-01
<GCONST> 5.909216e+01
<STATE> 6
<NUMMIXES> 8
<MIXTURE> 1 1.796347e-01
<MEAN> 39
 9.073226e-01 -1.282258e+00 -6.238257e-01 -2.564166e-01 -1.440761e-01 -1.757061e+00 -5.162537e-01 2.158564e+00 -1.654532e-01 1.130430e+00 -1.201850e+00 -7.900485e-01 1.791302e+00 -6.074817e-02 9.238204e-02 3.410525e-01 1.836537e-01 -7.756580e-02 -1.878594e-01 -1.781392e-01 2.617878e-02 -1.792970e-01 -1.244703e-01 1.240981e-01 2.996311e-01 -3.226898e-02 4.778730e-02 1.542893e-01 2.357519e-01 2.249562e-01 -2.742999e-02 7.326636e-02 -9.155180e-02 -3.988175e-01 -1.216039e-01 -3.219534e-02 1.528863e-01 1.348662e-01 -2.667736e-01
<VARIANCE> 39
 1.020959e-01 2.131044e-01 4.493041e-01 2.499412e-01 3.035724e-01 5.266821e-01 5.771059e-01 6.375903e-01 3.931668e-01 5.675383e-01 7.931741e-01 1.202234e+00 1.129410e-01 2.031115e-01 2.318058e-01 6.376209e-01 4.524813e-01 4.775519e-01 5.306427e-01 5.249977e-01 5.251023e-01 4.178404e-01 4.784701e-01 5.215847e-01 6.579712e-01 1.499243e-01 2.697448e-01 2.451577e-01 4.270050e-01 3.968216e-01 4.272681e-01 4.537920e-01 4.621579e-01 3.995922e-01 3.872558e-01 4.199655e-01 4.136648e-01 4.389594e-01 2.162057e-01
<GCONST> 3.468945e+01
<MIXTURE> 2 1.244879e-01
<MEAN> 39
 1.113114e+00 -9.605863e-01 -1.711271e+00 -7.910057e-01 1.003511e+00 -1.399074e+00 2.257979e-01 1.652287e+00 -6.893490e-01 1.907879e+00 -1.461887e+00 -1.834001e+00 1.587182e+00 -9.044111e-02 2.338659e-02 9.216674e-02 6.516901e-02 7.514066e-03 -5.081172e-02 -8.102482e-03 1.611339e-02 -1.562953e-02 -9.990019e-02 -7.642849e-02 9.301722e-02 -4.559476e-05 -4.917521e-02 -3.424460e-02 4.834593e-01 2.622909e-01 -4.541830e-01 4.428178e-01 -1.789037e-01 -3.678350e-01 1.049398e-01 -2.262850e-01 3.603801e-01 2.680453e-01 -1.444719e-01
<VARIANCE> 39
 8.205730e-02 2.248037e-01 3.813521e-01 3.829128e-01 3.749744e-01 8.045427e-01 8.238251e-01 1.008209e+00 5.112659e-01 5.764253e-01 1.007907e+00 9.676169e-01 1.109367e-01 2.123027e-01 3.121996e-01 7.488748e-01 8.356556e-01 7.462217e-01 9.066457e-01 8.433086e-01 9.319202e-01 6.366413e-01 6.018534e-01 7.152637e-01 7.471121e-01 1.780198e-01 2.860493e-01 3.488120e-01 6.168389e-01 6.265888e-01 5.819141e-01 6.303401e-01 7.367584e-01 6.907164e-01 5.336855e-01 5.386719e-01 4.940262e-01 5.471591e-01 2.615318e-01
<GCONST> 4.497487e+01
<MIXTURE> 3 6.778177e-02
<MEAN> 39
 6.581867e-01 -1.210303e+00 -4.027029e-01 -3.831489e-02 -4.964351e-01 -9.289445e-01 4.378926e-03 1.115774e+00 6.618225e-01 4.891503e-01 -7.038164e-01 -5.713644e-01 1.472595e+00 5.364338e-02 4.730183e-01 3.944202e-01 3.588349e-01 -7.288462e-02 -3.780568e-01 -4.264441e-01 -2.306865e-01 -3.889742e-01 -1.028681e-01 4.799064e-01 4.820918e-01 -4.466004e-01 1.063958e-02 7.462955e-01 6.978944e-02 2.321518e-01 5.733975e-01 1.098011e-01 5.273387e-02 -4.604122e-01 -6.270376e-01 6.537620e-03 -7.090075e-02 1.932536e-01 -9.234342e-01
<VARIANCE> 39
 2.844841e-01 6.478324e-01 7.427316e-01 6.435093e-01 7.553729e-01 1.153103e+00 1.033469e+00 1.828549e+00 1.412194e+00 8.775543e-01 1.009233e+00 1.224696e+00 2.543296e-01 5.775589e-01 6.008196e-01 1.036646e+00 8.401182e-01 8.611291e-01 1.016267e+00 1.053318e+00 9.962688e-01 8.053300e-01 8.265535e-01 9.662969e-01 8.657392e-01 4.439501e-01 9.316544e-01 7.604453e-01 8.708675e-01 8.267623e-01 7.175276e-01 9.293383e-01 9.484863e-01 1.064952e+00 7.425869e-01 7.855374e-01 7.601002e-01 7.759090e-01 7.915643e-01
<GCONST> 6.375502e+01
<MIXTURE> 4 1.356707e-01
<MEAN> 39
 9.857829e-01 -1.121608e+00 -1.728126e+00 -9.547407e-01 9.019402e-01 -5.750587e-01 6.338571e-01 1.311648e+00 -6.604767e-01 1.790801e+00 -1.450695e+00 -2.216019e+00 1.786994e+00 -4.307567e-02 -8.758966e-03 -1.105359e-02 -1.385670e-02 7.757989e-02 -1.089083e-02 4.773588e-02 4.036075e-02 -7.523773e-03 -4.182907e-03 -4.262526e-02 -1.722995e-02 1.424608e-02 2.281077e-02 -9.067359e-03 1.072332e-01 6.206554e-02 -1.088776e-01 1.199268e-02 -1.060806e-01 -5.805553e-02 4.008631e-02 -3.061946e-02 1.420317e-01 9.128120e-02 -5.950444e-02
<VARIANCE> 39
 1.137472e-01 2.006002e-01 3.882816e-01 3.497272e-01 4.809534e-01 9.861861e-01 8.179531e-01 1.341509e+00 7.110541e-01 5.994337e-01 9.818918e-01 9.588552e-01 1.186733e-01 7.680983e-02 1.326156e-01 2.178498e-01 2.321858e-01 2.342997e-01 3.349338e-01 3.117614e-01 3.191974e-01 2.595227e-01 2.572323e-01 3.026786e-01 3.337987e-01 5.519323e-02 1.199776e-01 1.426201e-01 2.357393e-01 2.151569e-01 2.409341e-01 2.824873e-01 3.137892e-01 2.732690e-01 2.546724e-01 2.500845e-01 2.610523e-01 2.912553e-01 7.116735e-02
<GCONST> 2.171746e+01
<MIXTURE> 5 1.222078e-01
<MEAN> 39
 8.207974e-01 -1.523282e+00 -1.555438e+00 -8.371005e-01 6.321774e-01 8.365874e-01 1.297918e+00 -3.130083e-02 8.030923e-02 1.144000e+00 -1.315708e+00 -2.122367e+00 1.643456e+00 1.546456e-02 -2.650048e-02 -3.342707e-02 -2.400582e-02 6.916574e-02 3.300645e-02 -3.482381e-02 7.220493e-02 -8.446276e-02 2.595118e-02 -2.481475e-02 -6.664889e-02 -2.706318e-02 9.237610e-02 1.436078e-01 2.023674e-02 3.574417e-02 -4.993472e-03 -2.289239e-01 -8.966274e-02 1.191308e-01 -2.842668e-02 9.995466e-02 4.564334e-02 8.677066e-02 -1.719707e-01
<VARIANCE> 39
 1.225382e-01 2.233539e-01 3.234111e-01 4.739212e-01 4.418365e-01 1.179932e+00 6.157386e-01 1.520839e+00 7.401717e-01 5.740038e-01 8.058568e-01 9.284642e-01 1.775787e-01 1.208538e-01 1.929882e-01 2.550135e-01 2.744596e-01 2.900983e-01 4.144965e-01 3.528159e-01 4.400021e-01 3.616555e-01 3.813769e-01 3.865603e-01 3.964240e-01 1.106812e-01 1.772618e-01 1.903729e-01 2.577681e-01 2.573553e-01 3.040476e-01 3.496920e-01 3.291090e-01 3.380631e-01 3.056247e-01 3.369821e-01 3.111303e-01 3.796884e-01 1.159778e-01
<GCONST> 2.905284e+01
<MIXTURE> 6 1.673301e-01
<MEAN> 39
 7.786325e-01 -1.689074e+00 -7.103685e-01 -2.357407e-01 -3.557308e-01 3.504861e-01 8.575932e-01 5.878066e-01 1.430593e+00 2.294763e-01 -1.717472e+00 -1.532077e+00 1.588256e+00 9.781703e-02 1.442375e-03 8.406482e-02 1.705374e-01 -1.421356e-01 -1.420981e-01 -1.959198e-01 1.271453e-01 -2.520100e-02 -1.545754e-02 2.493267e-01 -7.741119e-03 -9.526593e-02 1.231509e-01 2.540835e-01 1.532000e-01 8.408587e-02 -9.373909e-02 -2.440673e-01 -3.093379e-01 -1.045313e-01 -1.215421e-01 1.962061e-01 3.554660e-01 2.206233e-01 -2.853606e-01
<VARIANCE> 39
 9.462292e-02 2.248182e-01 2.231391e-01 3.473911e-01 3.376065e-01 9.332750e-01 6.056363e-01 1.183375e+00 5.096191e-01 5.681229e-01 6.737913e-01 7.902095e-01 1.509429e-01 1.458095e-01 2.689867e-01 4.623496e-01 2.958501e-01 4.801274e-01 6.348373e-01 6.292006e-01 6.380718e-01 5.788248e-01 5.456122e-01 5.951664e-01 6.994318e-01 1.273743e-01 1.997358e-01 2.715320e-01 3.123944e-01 2.710717e-01 3.490904e-01 4.430005e-01 4.651460e-01 4.666145e-01 4.535303e-01 4.142556e-01 4.828467e-01 5.119957e-01 1.959329e-01
<GCONST> 3.512571e+01
<MIXTURE> 7 1.266397e-01
<MEAN> 39
 8.753317e-01 -1.167468e+00 -2.003993e+00 -1.069715e+00 1.170164e+00 3.107417e-01 1.097029e+00 6.803995e-01 -6.120576e-01 1.489866e+00 -1.083924e+00 -2.400932e+00 1.326355e+00 -6.203221e-02 9.370658e-02 6.386769e-02 6.123466e-02 5.463227e-02 2.149090e-02 -6.009304e-03 -2.246227e-02 2.343816e-02 -1.146647e-01 -3.411528e-02 7.506610e-02 -8.855350e-02 -1.557777e-02 1.705665e-01 1.930234e-01 2.167977e-01 -4.004109e-02 -1.840805e-01 -5.603707e-02 -8.403873e-02 6.573655e-02 -2.241894e-02 -3.074509e-03 2.320143e-01 -2.789743e-01
<VARIANCE> 39
 1.458486e-01 3.567878e-01 3.028704e-01 4.441372e-01 4.584654e-01 9.846284e-01 6.766322e-01 1.245398e+00 7.350985e-01 6.891478e-01 8.967800e-01 1.005404e+00 3.537807e-01 3.386142e-01 4.745142e-01 6.039068e-01 6.788096e-01 5.964050e-01 6.972942e-01 6.162798e-01 6.668525e-01 5.442122e-01 6.268290e-01 6.006199e-01 7.249060e-01 7.268478e-01 5.262659e-01 5.315982e-01 7.122529e-01 6.633964e-01 6.260486e-01 6.447767e-01 6.372860e-01 5.833007e-01 5.543386e-01 6.567555e-01 5.181351e-01 6.925633e-01 5.171372e-01
<GCONST> 5.059831e+01
<MIXTURE> 8 7.619963e-02
<MEAN> 39
 4.279749e-01 -6.100845e-01 6.507854e-01 3.139369e-01 -8.385830e-01 -1.308964e+00 -4.420008e-01 7.512941e-01 -7.052817e-02 -1.784198e-01 -3.172361e-01 6.539150e-01 1.144648e+00 -8.360635e-02 4.018202e-01 5.512457e-01 3.207300e-01 4.949027e-02 2.458879e-02 -3.790392e-01 -5.109712e-01 -4.919487e-01 -2.457185e-01 1.831828e-01 2.788691e-01 -4.349560e-01 -3.305289e-02 3.623451e-01 -1.782908e-01 3.049006e-01 6.211068e-01 3.599964e-01 2.117659e-01 -3.096604e-01 -2.416294e-01 9.542853e-03 -3.208189e-01 -4.221887e-01 -8.207675e-01
<VARIANCE> 39
 3.335742e-01 6.340663e-01 1.011448e+00 5.421943e-01 7.844451e-01 1.100168e+00 8.465405e-01 1.370914e+00 1.408483e+00 8.574621e-01 9.182637e-01 1.208825e+00 8.226371e-01 4.016563e-01 5.739879e-01 9.139012e-01 8.651253e-01 6.498266e-01 8.491789e-01 8.239409e-01 8.576807e-01 8.282811e-01 8.116498e-01 7.646023e-01 8.995871e-01 7.141396e-01 5.762337e-01 5.442182e-01 8.118241e-01 6.342604e-01 7.447516e-01 8.297554e-01 7.645745e-01 8.342122e-01 7.213981e-01 7.308437e-01 6.115940e-01 7.568120e-01 9.500184e-01
<GCONST> 6.165430e+01
<TRANSP> 7
 0.000000e+00 1.000000e+00 0.000000e+00 0.000000e+00 0.000000e+00 0.000000e+00 0.000000e+00
 0.000000e+00 7.726772e-01 2.273228e-01 0.000000e+00 0.000000e+00 0.000000e+00 0.000000e+00
 0.000000e+00 0.000000e+00 3.952664e-01 6.047336e-01 0.000000e+00 0.000000e+00 0.000000e+00
 0.000000e+00 0.000000e+00 0.000000e+00 5.338641e-01 4.661359e-01 0.000000e+00 0.000000e+00
 0.000000e+00 0.000000e+00 0.000000e+00 0.000000e+00 6.811316e-01 3.188684e-01 0.000000e+00
 0.000000e+00 0.000000e+00 0.000000e+00 0.000000e+00 0.000000e+00 8.533012e-01 1.466988e-01
 0.000000e+00 0.000000e+00 0.000000e+00 0.000000e+00 0.000000e+00 0.000000e+00 0.000000e+00
<ENDHMM>
~h "b"
<BEGINHMM>
<NUMSTATES> 7
<STATE> 2
<NUMMIXES> 8
<MIXTURE> 1 1.188145e-01
<MEAN> 39
 7.231815e-01 -3.630043e-02 8.596476e-01 1.360558e+00 1.108054e-01 -7.442510e-01 -6.079789e-01 1.303824e-01 -9.314353e-01 -1.116169e+00 -5.160054e-01 3.678960e-01 1.326738e-01 -8.304729e-01 1.292310e+00 -9.303669e-01 -3.869275e-01 1.640734e+00 1.972299e+00 9.580026e-01 -8.416855e-01 5.293798e-02 8.504127e-01 1.938159e-01 -5.401418e-01 -2.923539e+00 -1.344717e+00 4.151184e-01 9.577882e-01 1.519961e-01 1.777422e-01 5.152628e-01 5.042861e-01 -8.350597e-02 -3.369976e-02 1.252529e-01 -1.939525e-01 6.107494e-03 -2.782861e-01
<VARIANCE> 39
 1.444496e-01 2.719893e-01 4.912826e-01 2.769223e-01 2.968599e-01 5.287637e-01 6.594161e-01 7.068663e-01 5.160875e-01 5.278471e-01 5.871319e-01 7.174664e-01 1.230266e-01 5.830693e-01 6.874793e-01 1.567786e+00 1.351311e+00 1.349977e+00 1.436017e+00 1.085060e+00 1.269535e+00 1.213328e+00 1.335620e+00 1.095621e+00 1.342437e+00 8.909795e-01 1.082240e+00 8.412191e-01 1.305992e+00 9.456037e-01 1.028116e+00 1.155090e+00 1.224867e+00 1.203760e+00 1.124301e+00 1.037907e+00 8.747694e-01 1.140326e+00 9.252483e-01
<GCONST> 6.189379e+01
<MIXTURE> 2 1.403449e-01
<MEAN> 39
 -1.537708e-01 4.253173e-01 -4.088246e-01 -1.676005e-01 2.271393e-01 2.633248e-02 3.855691e-02 -2.218051e-01 -1.613576e-01 2.924426e-01 5.222365e-02 -9.195827e-02 -1.011871e+00 1.333893e-01 7.279556e-01 5.827661e-01 4.399354e-01 4.749576e-01 4.310488e-01 3.632855e-01 -2.925552e-03 -3.376689e-01 -1.116340e-01 -4.834923e-02 -2.259361e-01 -4.284619e-01 3.388728e-01 1.462620e-01 6.403739e-01 6.021997e-01 3.473281e-01 2.630862e-01 1.949137e-01 5.571808e-02 -1.079657e-02 -4.366198e-01 -3.637647e-01 -1.730789e-01 4.296115e-01
<VARIANCE> 39
 4.048313e-01 3.277336e-01 4.663742e-01 4.311825e-01 3.484375e-01 5.612809e-01 4.912838e-01 4.770140e-01 6.183506e-01 6.931536e-01 7.425917e-01 8.156192e-01 3.940357e-01 8.416513e-01 9.061967e-01 9.367835e-01 9.019023e-01 8.640991e-01 8.553224e-01 9.860107e-01 1.182343e+00 1.174336e+00 1.430776e+00 9.352421e-01 1.130810e+00 9.440016e-01 1.093469e+00 9.257066e-01 1.233663e+00 9.908790e-01 8.888183e-01 9.683337e-01 9.040466e-01 9.864097e-01 1.104692e+00 1.326274e+00 8.002145e-01 1.019812e+00 8.833826e-01
<GCONST> 6.262265e+01
<MIXTURE> 3 1.148361e-01
<MEAN> 39
 1.121985e+00 -1.076933e+00 -1.377837e+00 -6.045524e-01 2.067639e-01 -8.542944e-01 6.066102e-02 6.878046e-01 -1.027216e-01 1.690785e+00 -2.295982e-01 -1.495339e+00 1.576596e+00 7.943410e-01 7.053162e-01 3.598636e-01 4.144910e-01 -5.048129e-02 -2.254102e-01 -1.108496e+00 -8.952886e-01 -9.222091e-01 2.555119e-01 1.554785e+00 7.202799e-01 -8.921179e-01 -2.134253e-01 5.446885e-01 4.323876e-01 4.656295e-01 4.007951e-01 7.382230e-01 -6.447513e-02 -6.245763e-01 -5.573319e-01 -7.309485e-01 1.222459e-01 4.918819e-01 -1.617085e+00
<VARIANCE> 39
 9.479244e-02 3.041773e-01 3.776273e-01 5.241590e-01 4.201406e-01 1.173799e+00 8.868011e-01 1.801154e+00 1.468676e+00 5.849669e-01 1.080197e+00 1.504941e+00 9.718626e-02 1.501512e-01 2.613213e-01 4.512944e-01 3.522091e-01 4.850207e-01 8.083696e-01 5.594428e-01 7.045860e-01 5.815719e-01 7.331595e-01 7.967604e-01 8.815120e-01 2.558139e-01 6.162663e-01 3.873849e-01 5.099104e-01 5.037922e-01 4.518892e-01 7.258696e-01 8.292904e-01 7.755870e-01 6.102979e-01 7.116660e-01 8.012143e-01 7.140754e-01 7.236117e-01
<GCONST> 4.869853e+01
<MIXTURE> 4 1.061051e-01
<MEAN> 39
 1.278052e+00 -1.644939e-01 -1.005347e+00 -2.606486e-01 5.240109e-01 -2.080706e-01 -4.168294e-01 -5.938617e-01 -1.189396e+00 1.188982e+00 8.766037e-01 -3.612334e-01 5.887758e-01 -1.401100e+00 1.242567e+00 1.843009e+00 1.912903e+00 1.215500e+00 1.565582e+00 2.691301e-01 -7.528399e-01 -7.128829e-01 -2.121244e+00 -4.507533e-01 1.195432e+00 -3.398618e+00 -1.797439e+00 -2.346317e-01 7.346120e-01 7.340618e-01 5.038794e-01 4.441054e-01 9.905125e-01 8.143666e-01 6.363238e-01 -8.546270e-01 -1.436688e+00 -2.757986e-01 -6.460038e-01
<VARIANCE> 39
 1.244017e-01 2.954989e-01 2.718523e-01 5.496508e-01 2.896138e-01 5.301969e-01 6.771288e-01 7.614207e-01 1.098793e+00 5.395395e-01 6.625320e-01 1.003448e+00 1.717994e-01 8.037609e-01 8.275994e-01 9.724419e-01 1.492548e+00 8.800442e-01 1.467442e+00 1.487010e+00 1.803301e+00 1.471041e+00 9.864606e-01 1.118185e+00 1.501215e+00 1.066228e+00 7.739043e-01 5.679814e-01 9.819238e-01 8.787845e-01 7.605262e-01 8.795190e-01 9.902943e-01 9.545029e-01 1.196430e+00 1.385818e+00 1.062642e+00 1.330403e+00 1.280066e+00
<GCONST> 6.307658e+01
<MIXTURE> 5 2.083167e-01
<MEAN> 39
 7.429922e-01 3.340329e-01 -6.077042e-01 4.816929e-02 5.567104e-01 6.755052e-01 4.047229e-01 -3.508882e-01 -7.339135e-01 -2.081176e-02 -3.479812e-02 -3.189797e-01 6.531504e-02 -3.655790e-01 9.126517e-02 2.056886e-01 2.958141e-01 4.010091e-01 9.687148e-02 -1.900138e-01 -1.224313e-01 1.719097e-02 -2.024523e-01 4.601543e-02 5.237462e-02 -5.913348e-01 -3.381690e-01 -3.234598e-02 1.649194e-01 -1.432285e-01 -2.513638e-01 -2.321564e-01 -4.735675e-02 1.573417e-01 1.504903e-01 1.283838e-01 2.976805e-03 8.869155e-02 -1.646505e-01
<VARIANCE> 39
 5.173863e-01 6.797274e-01 7.384163e-01 6.833665e-01 1.056042e+00 5.986529e-01 8.823153e-01 9.397030e-01 1.589002e+00 8.933591e-01 1.045213e+00 1.200909e+00 3.511794e-01 1.422520e+00 1.113900e+00 1.868171e+00 1.906145e+00 1.556319e+00 1.025259e+00 1.254209e+00 1.236614e+00 1.361882e+00 1.761398e+00 1.165717e+00 1.669542e+00 2.127228e+00 1.657614e+00 1.101039e+00 1.758420e+00 1.053102e+00 1.159498e+00 8.952331e-01 1.162280e+00 1.304894e+00 1.202115e+00 1.340872e+00 9.487952e-01 1.475803e+00 1.192637e+00
<GCONST> 7.642744e+01
<MIXTURE> 6 1.274316e-01
<MEAN> 39
 9.633366e-01 -5.074337e-01 8.009441e-01 1.065305e+00 -2.431445e-01 -1.881242e+00 -1.389926e+00 6.526725e-01 -9.298705e-01 -5.162821e-01 -6.492172e-01 3.070015e-01 9.508125e-01 6.573082e-02 7.271340e-01 -6.076802e-01 4.644164e-01 1.210907e+00 1.251760e+00 2.568987e-01 -7.220402e-01 -2.340020e-01 -3.095495e-01 5.707046e-02 -5.833531e-01 -2.206593e+00 -1.299236e+00 7.552394e-01 -2.150840e-01 -3.502114e-01 5.625717e-01 1.546339e+00 1.182580e+00 -3.995303e-01 1.660230e-01 3.384709e-01 5.870273e-02 -1.308250e-01 -1.829171e+00
<VARIANCE> 39
 1.453092e-01 2.768173e-01 6.431491e-01 4.910415e-01 6.179895e-01 6.124466e-01 5.869480e-01 7.770005e-01 1.175979e+00 1.038423e+00 8.503650e-01 1.092835e+00 1.789153e-01 5.966546e-01 6.012660e-01 1.497905e+00 1.009754e+00 1.139665e+00 1.493388e+00 1.364824e+00 1.116797e+00 1.227412e+00 1.367386e+00 8.220457e-01 9.792671e-01 1.376825e+00 1.009184e+00 5.622191e-01 1.417522e+00 8.380123e-01 1.247201e+00 1.114970e+00 1.055787e+00 1.158850e+00 1.001852e+00 1.337638e+00 7.386616e-01 1.067679e+00 8.175365e-01
<GCONST> 6.491362e+01
<MIXTURE> 7 1.010834e-01
<MEAN> 39
 8.262152e-01 -8.903381e-01 -1.670888e+00 -6.436899e-01 1.814022e-01 -8.009668e-02 4.048841e-01 -2.043083e-01 9.189329e-01 1.613373e+00 -2.868463e-01 -2.077479e+00 7.449174e-01 -1.029514e-01 1.374255e-01 -2.170415e-01 -5.292439e-02 -8.338705e-02 -4.818741e-01 -2.181303e-01 2.339523e-01 1.068021e-01 1.375976e-01 1.938236e-02 -3.827667e-02 -5.754198e-01 -2.396359e-01 5.957510e-01 7.437854e-01 5.014529e-01 2.963355e-01 2.395930e-01 -1.166003e-01 -2.022158e-01 -6.222326e-01 -5.672983e-01 1.637733e-01 6.478540e-01 -8.702546e-01
<VARIANCE> 39
 1.584110e-01 3.115526e-01 4.162806e-01 3.739254e-01 3.247597e-01 1.523149e+00 1.015891e+00 1.105544e+00 6.625765e-01 6.471453e-01 1.503746e+00 1.281261e+00 6.064137e-01 6.972926e-01 1.066466e+00 1.198175e+00 8.826169e-01 8.658190e-01 9.850105e-01 8.813807e-01 1.071471e+00 9.729372e-01 1.221441e+00 1.354422e+00 1.291592e+00 9.472271e-01 8.895694e-01 1.101069e+00 1.156842e+00 8.274198e-01 8.393236e-01 7.969357e-01 9.361943e-01 9.112937e-01 1.163607e+00 1.109674e+00 1.049678e+00 9.533592e-01 1.628444e+00
<GCONST> 6.586883e+01
<MIXTURE> 8 8.306812e-02
<MEAN> 39
 1.327566e+00 -8.827401e-01 -1.050626e+00 -2.840309e-01 -4.940459e-02 -6.876878e-01 -4.206970e-01 -2.593197e-01 -4.308928e-02 1.414439e+00 5.510431e-01 -9.599277e-01 1.204921e+00 -4.868877e-02 1.485907e+00 7.088802e-01 9.086347e-01 7.482939e-01 7.117161e-01 -7.018399e-01 -1.353253e+00 -1.521676e+00 -6.626503e-01 1.105875e+00 1.049223e+00 -2.698443e+00 -2.301976e+00 6.846299e-01 9.762533e-01 9.089767e-01 1.205965e+00 1.305793e+00 1.119488e+00 2.666336e-01 -2.017512e-01 -1.546268e+00 -1.429727e+00 4.044229e-01 -2.341241e+00
<VARIANCE> 39
 8.614727e-02 2.687250e-01 3.835213e-01 4.286947e-01 4.109565e-01 8.195066e-01 8.706005e-01 1.411287e+00 1.164891e+00 5.670081e-01 5.859842e-01 8.401257e-01 1.245319e-01 5.189855e-01 4.932678e-01 7.455021e-01 6.710281e-01 8.030955e-01 1.201153e+00 9.583250e-01 1.273507e+00 8.808568e-01 9.558551e-01 1.052748e+00 1.122990e+00 7.885870e-01 6.354059e-01 4.906994e-01 7.952524e-01 6.906071e-01 6.423997e-01 1.006967e+00 9.068984e-01 1.304210e+00 1.060301e+00 8.377342e-01 8.282515e-01 1.002042e+00 7.002026e-01
<GCONST> 5.718923e+01
<STATE> 3
<NUMMIXES> 8
<MIXTURE> 1 1.060870e-01
<MEAN> 39
 4.212477e-01 2.892350e-01 2.306461e-01 1.313709e+00 1.669607e+00 1.042971e+00 2.255092e-01 -7.129561e-01 -1.567745e+00 -5.491977e-01 -4.389568e-01 1.719595e-01 -6.527458e-01 -1.264648e+00 9.739500e-01 1.406381e+00 1.205116e+00 9.635863e-01 8.181708e-01 6.785700e-01 -2.104073e-02 3.072187e-02 -9.367783e-01 -6.982317e-01 -4.955962e-03 -2.147869e+00 1.452952e+00 -9.242520e-02 -6.112467e-01 -1.397562e+00 -1.672531e+00 -1.610458e+00 -4.995992e-01 6.840463e-01 1.007794e+00 1.191939e+00 3.111704e-01 -5.916640e-01 2.142099e+00
<VARIANCE> 39
 7.375495e-02 2.767248e-01 2.407158e-01 2.626907e-01 2.832997e-01 3.355177e-01 4.193649e-01 4.050067e-01 5.654554e-01 3.797320e-01 5.221657e-01 5.623147e-01 7.725001e-02 5.258200e-01 7.151693e-01 9.596784e-01 7.256458e-01 7.519299e-01 9.340475e-01 8.481604e-01 6.913301e-01 9.659346e-01 1.153713e+00 1.158886e+00 1.244777e+00 7.050850e-01 3.568292e-01 9.400799e-01 1.366622e+00 8.471804e-01 9.729138e-01 9.514932e-01 9.450742e-01 9.650571e-01 1.064744e+00 1.153948e+00 1.127012e+00 1.066606e+00 8.891375e-01
<GCONST> 5.262947e+01
<MIXTURE> 2 7.706222e-02
<MEAN> 39
 -4.700491e-01 5.999988e-01 2.656469e-02 9.943446e-02 3.812883e-01 -8.806966e-02 2.882119e-03 2.331804e-01 1.366283e-01 7.728831e-01 -3.202616e-01 -7.549741e-03 -1.753036e+00 1.196314e+00 1.421472e+00 1.836867e+00 1.802054e+00 1.179882e+00 7.387968e-01 4.451746e-01 2.861141e-01 -2.769454e-01 -7.818488e-01 -4.568527e-01 -3.322840e-01 6.912649e-01 4.686963e-01 1.115353e-01 2.775331e-01 1.421075e-01 -5.339292e-02 1.424690e-01 -1.289024e-01 -6.157251e-01 -5.566370e-01 -5.339885e-01 -4.138855e-01 -2.555927e-01 5.629858e-01
<VARIANCE> 39
 6.368817e-02 2.123734e-01 1.654710e-01 2.709597e-01 2.357370e-01 3.742648e-01 4.683871e-01 3.756350e-01 3.246849e-01 4.155920e-01 5.009851e-01 5.226412e-01 4.488083e-02 2.830644e-01 6.660311e-01 4.145177e-01 6.071599e-01 6.015643e-01 7.718486e-01 7.348910e-01 8.762810e-01 9.336079e-01 7.803387e-01 7.506511e-01 7.825755e-01 4.790854e-01 8.205238e-01 7.925463e-01 9.453567e-01 1.074197e+00 6.790747e-01 9.046040e-01 9.176213e-01 1.090638e+00 9.617237e-01 9.737434e-01 1.001707e+00 8.962368e-01 3.099037e-01
<GCONST> 4.557076e+01
<MIXTURE> 3 1.401840e-01
<MEAN> 39
 7.675680e-01 1.005992e+00 -2.450415e-01 2.328623e-01 6.917880e-01 5.585173e-01 5.200636e-01 -2.187020e-01 -1.129755e+00 -6.017712e-01 -5.053180e-01 -4.863513e-02 -5.922776e-01 -1.415542e+00 1.222651e-01 1.251407e+00 9.830408e-01 6.960596e-01 4.303356e-01 1.552795e-01 2.221288e-01 4.372773e-01 -3.827187e-01 -5.661003e-03 3.601386e-01 -1.413381e+00 -1.005482e-01 -3.082714e-01 3.765897e-01 3.186454e-01 -9.892959e-03 -1.025796e-01 -1.514231e-01 -1.154154e-01 7.295191e-02 2.937878e-01 8.266938e-02 -5.560163e-03 7.597750e-01
<VARIANCE> 39
 1.720569e-01 1.952529e-01 3.236729e-01 2.739940e-01 3.252155e-01 5.197680e-01 4.224536e-01 5.982307e-01 3.940881e-01 3.303961e-01 4.177387e-01 6.357145e-01 1.164954e-01 6.241640e-01 9.443743e-01 1.073892e+00 8.730952e-01 9.188441e-01 1.173012e+00 9.994998e-01 9.490719e-01 9.868776e-01 1.073954e+00 7.966632e-01 1.146356e+00 6.701252e-01 8.958724e-01 9.210783e-01 1.128377e+00 8.821768e-01 9.622586e-01 9.758155e-01 8.717093e-01 9.289056e-01 9.010999e-01 9.176830e-01 9.692181e-01 1.000934e+00 8.953067e-01
<GCONST> 5.538817e+01
<MIXTURE> 4 1.218756e-01
<MEAN> 39
 3.563711e-01 1.738358e-01 7.332430e-01 1.249063e+00 7.957163e-01 2.702819e-01 -8.823845e-02 -2.438833e-01 -9.303017e-01 -5.003383e-01 -3.875692e-01 3.355989e-02 -4.132908e-01 -1.271673e+00 1.373695e+00 5.804856e-02 6.044323e-01 1.832637e+00 2.101431e+00 1.278987e+00 -5.342148e-01 -1.725038e-01 2.453305e-01 -2.424100e-01 -3.714854e-01 -2.946110e+00 4.853291e-01 2.473736e-02 6.915222e-01 -5.094772e-02 -8.578942e-01 -1.364267e+00 -4.917759e-01 6.090153e-01 1.672474e-01 -3.696049e-01 -2.716256e-01 1.620181e-01 1.551618e+00
<VARIANCE> 39
 1.189948e-01 2.328058e-01 4.076049e-01 2.545032e-01 2.271625e-01 3.205345e-01 3.873917e-01 5.018789e-01 4.284993e-01 4.491438e-01 4.826610e-01 7.354061e-01 1.133544e-01 6.076771e-01 6.562852e-01 1.256265e+00 1.130312e+00 8.395226e-01 1.270424e+00 9.816105e-01 9.421070e-01 1.139646e+00 1.679247e+00 1.070283e+00 1.574879e+00 8.037711e-01 6.240121e-01 8.069329e-01 9.323713e-01 7.819886e-01 9.251713e-01 9.633133e-01 1.019249e+00 1.011781e+00 8.542951e-01 1.123970e+00 9.859113e-01 1.387964e+00 8.945643e-01
<GCONST> 5.615216e+01
<MIXTURE> 5 1.577756e-01
<MEAN> 39
 6.654186e-01 3.877534e-01 3.586735e-01 1.041030e+00 7.449253e-01 -1.311435e-01 -5.515154e-01 -3.473280e-01 -8.457309e-01 -5.049734e-01 -5.558454e-01 -1.908314e-01 -3.351976e-01 -1.047578e+00 1.072760e+00 -3.774633e-02 -1.351209e-01 8.925870e-01 1.201303e+00 1.044479e+00 -2.079796e-01 -4.237547e-02 -5.547611e-02 -2.052490e-01 -2.170402e-01 -2.260494e+00 -1.307728e-01 -4.229253e-01 6.180069e-01 2.003312e-01 -5.675461e-01 -4.708729e-01 1.305112e-01 4.662169e-01 -2.189907e-02 -2.288291e-01 7.500912e-02 3.538731e-01 1.169520e+00
<VARIANCE> 39
 2.408181e-01 2.444483e-01 5.082390e-01 3.053627e-01 2.398473e-01 4.494189e-01 4.072287e-01 6.868069e-01 4.874783e-01 4.366948e-01 5.973315e-01 6.635780e-01 1.534985e-01 7.552519e-01 6.494908e-01 1.075719e+00 9.118584e-01 7.458692e-01 1.019526e+00 6.992676e-01 1.144922e+00 1.089473e+00 1.612674e+00 1.200346e+00 1.251194e+00 5.783646e-01 1.163644e+00 8.807539e-01 1.034166e+00 9.995845e-01 8.877724e-01 9.339691e-01 7.947731e-01 9.683461e-01 9.473987e-01 1.432810e+00 1.088638e+00 1.092543e+00 1.325810e+00
<GCONST> 5.869811e+01
<MIXTURE> 6 1.929175e-01
<MEAN> 39
 6.958116e-01 1.087751e+00 5.905458e-01 5.576260e-01 3.277405e-01 4.264430e-01 5.133969e-01 -9.860861e-01 -1.606082e+00 -7.831493e-01 -6.723572e-01 -5.381540e-01 -3.044031e-01 -2.072357e-01 1.825698e-01 1.606697e-01 2.105551e-01 9.663829e-02 -5.167166e-02 5.291982e-02 1.534121e-01 1.038518e-01 -1.063230e-01 -7.448079e-02 -9.382293e-03 -4.205391e-01 -2.200063e-01 -3.381791e-01 -1.794851e-01 -1.032000e-01 2.277105e-02 -8.148727e-02 -1.126800e-01 2.946917e-01 3.972888e-01 8.432037e-02 1.125788e-01 1.897872e-01 2.114089e-01
<VARIANCE> 39
 2.220176e-01 3.336874e-01 5.201703e-01 3.024130e-01 5.613534e-01 5.867929e-01 8.166304e-01 6.722956e-01 4.045871e-01 7.034944e-01 6.334341e-01 1.083895e+00 2.104546e-01 3.561692e-01 5.663808e-01 6.524661e-01 6.207345e-01 6.000801e-01 5.993018e-01 6.019054e-01 9.033777e-01 7.801664e-01 8.587523e-01 5.749231e-01 8.129916e-01 4.873503e-01 4.921970e-01 6.110260e-01 7.224615e-01 5.163237e-01 6.051417e-01 7.684522e-01 6.543446e-01 9.519993e-01 7.231695e-01 8.661954e-01 6.071115e-01 7.634100e-01 5.856503e-01
<GCONST> 5.110901e+01
<MIXTURE> 7 1.318156e-01
<MEAN> 39
 6.321156e-01 3.865080e-01 -3.108523e-01 4.892150e-01 9.672825e-01 6.459081e-01 1.045933e-01 -8.476613e-01 -1.213588e+00 -4.083318e-02 2.009473e-01 1.018924e-01 -3.311255e-01 -1.690290e+00 8.455400e-01 1.875291e+00 1.746797e+00 1.152057e+00 7.678784e-01 3.258180e-01 1.137463e-01 -3.003600e-01 -1.782369e+00 -8.746487e-01 7.211822e-01 -2.499341e+00 7.517393e-01 -6.251584e-01 -7.190689e-01 -9.788115e-01 -7.441385e-01 -5.934266e-01 2.045044e-01 5.397640e-01 7.996075e-01 8.595734e-01 -6.985528e-02 -6.177021e-01 2.057777e+00
<VARIANCE> 39
 1.544025e-01 2.537803e-01 2.456089e-01 2.749575e-01 2.326045e-01 3.643981e-01 5.545538e-01 5.501678e-01 6.718073e-01 4.705703e-01 6.003272e-01 8.740641e-01 1.216404e-01 6.160402e-01 8.454364e-01 1.017399e+00 1.347849e+00 8.961700e-01 1.055791e+00 1.033662e+00 1.288602e+00 1.950296e+00 1.191850e+00 1.248711e+00 1.487400e+00 1.350124e+00 7.828544e-01 9.263198e-01 1.114982e+00 8.590099e-01 6.803080e-01 8.894954e-01 1.143960e+00 1.622176e+00 1.169986e+00 1.083118e+00 1.101389e+00 1.451048e+00 1.170844e+00
<GCONST> 6.045683e+01
<MIXTURE> 8 7.228318e-02
<MEAN> 39
 -4.138253e-01 4.180714e-01 -2.400248e-01 1.613169e-01 6.910667e-01 5.992073e-01 5.117335e-01 -1.528630e-01 -3.045368e-01 1.470198e-01 -1.634303e-01 -3.533126e-01 -1.286352e+00 5.051540e-01 9.831133e-01 8.999645e-01 6.873073e-01 4.409321e-01 3.033082e-01 2.320585e-01 -3.178186e-01 -6.549017e-01 -4.196741e-01 -4.569409e-01 -4.850413e-01 -2.094803e-01 2.257832e-01 -1.045825e-01 4.175780e-01 1.002423e-01 -5.489541e-01 -6.704563e-01 -6.034389e-01 1.085911e-01 2.373813e-01 -3.115697e-01 -7.497350e-02 2.755423e-01 5.049871e-01
<VARIANCE> 39
 1.600711e-01 3.776836e-01 3.038218e-01 3.575740e-01 3.290595e-01 5.251176e-01 6.289539e-01 5.529278e-01 4.025124e-01 4.720425e-01 5.846634e-01 8.635393e-01 1.383828e-01 8.419583e-01 1.116682e+00 1.038942e+00 6.038237e-01 6.593453e-01 8.644475e-01 9.976758e-01 1.130206e+00 1.093456e+00 1.232722e+00 8.093233e-01 1.111437e+00 5.422680e-01 1.275804e+00 6.828140e-01 1.144806e+00 5.338155e-01 7.861660e-01 8.846679e-01 1.181483e+00 1.385904e+00 1.217569e+00 1.294147e+00 9.506741e-01 1.128934e+00 7.883691e-01
<GCONST> 5.791569e+01
<STATE> 4
<NUMMIXES> 8
<MIXTURE> 1 1.168090e-01
<MEAN> 39
 2.225079e-01 8.692299e-01 3.060075e-01 1.004370e+00 1.498794e+00 1.244822e+00 6.595086e-01 -9.882706e-01 -1.519536e+00 -7.120988e-01 -1.000432e-01 5.081093e-01 -8.955474e-01 -4.148630e-01 3.884501e-01 4.061190e-01 2.429764e-01 2.245264e-01 1.021602e-01 1.006797e-01 1.730835e-02 1.597735e-01 -4.419570e-02 -5.755533e-02 5.644376e-02 -5.942723e-01 3.084834e-01 -4.233912e-01 7.732277e-02 -2.742614e-01 -8.362001e-01 -9.176111e-01 -3.709951e-01 6.114776e-01 8.192102e-01 2.250063e-01 -2.901496e-01 -4.160979e-01 1.090799e+00
<VARIANCE> 39
 1.065327e-01 1.773900e-01 3.198533e-01 2.496798e-01 3.338287e-01 3.362297e-01 3.841202e-01 5.464352e-01 3.545929e-01 3.048734e-01 4.961919e-01 8.439699e-01 6.094884e-02 2.759774e-01 8.194695e-01 7.471439e-01 5.298944e-01 5.509982e-01 7.236703e-01 6.166250e-01 6.571297e-01 7.956135e-01 6.213601e-01 8.695804e-01 9.094930e-01 6.166008e-01 5.150876e-01 5.892072e-01 5.787551e-01 6.265047e-01 8.265676e-01 6.763974e-01 7.831323e-01 8.128060e-01 7.304450e-01 8.378482e-01 7.406194e-01 9.491044e-01 7.807988e-01
<GCONST> 4.555046e+01
<MIXTURE> 2 8.977535e-02
<MEAN> 39
 1.313873e-01 1.005246e-01 3.307930e-01 9.695236e-01 9.696579e-01 5.828388e-01 2.820687e-01 -1.007685e-01 -5.800123e-01 -7.107660e-01 -3.083088e-01 4.883271e-01 -5.373833e-01 -7.981497e-01 -1.494192e-01 3.137801e-01 2.774278e-01 3.576137e-01 4.694693e-01 3.642075e-01 1.602172e-01 5.326353e-01 2.406578e-01 1.754124e-01 -5.314240e-02 -5.382288e-01 1.920778e+00 1.100159e+00 -1.188249e+00 -1.191110e+00 -5.351356e-01 -5.967443e-01 -3.187887e-01 -2.475961e-01 -6.574926e-01 1.046406e+00 2.011147e-01 -5.247317e-01 8.112121e-01
<VARIANCE> 39
 2.120934e-01 2.055294e-01 2.532706e-01 3.292987e-01 3.184232e-01 4.021832e-01 4.164964e-01 5.510980e-01 4.931561e-01 5.919313e-01 5.185555e-01 6.185996e-01 1.251645e-01 8.821903e-01 1.269143e+00 1.296970e+00 8.682348e-01 8.639370e-01 1.205797e+00 9.294841e-01 9.876350e-01 8.822998e-01 1.441287e+00 1.016776e+00 1.253995e+00 1.110465e+00 6.910472e-01 8.993151e-01 1.345579e+00 8.079049e-01 1.329652e+00 1.072785e+00 1.195873e+00 9.821947e-01 9.201655e-01 1.657603e+00 1.206278e+00 1.448068e+00 1.949244e+00
<GCONST> 6.063328e+01
<MIXTURE> 3 1.656508e-01
<MEAN> 39
 1.731314e-01 1.073787e+00 9.421626e-01 1.401980e+00 1.293670e+00 5.433858e-01 2.723556e-01 -1.694487e-01 -8.768279e-01 -5.973202e-01 -9.659100e-01 -4.029878e-01 -1.167224e+00 -3.604078e-01 5.628017e-01 1.324422e-01 -2.010031e-01 -1.871037e-02 1.676063e-01 4.378590e-01 -6.881379e-03 9.783895e-02 1.283973e-01 5.884797e-02 1.745713e-01 -6.604777e-01 3.950586e-01 -1.377250e+00 -4.976097e-01 -3.841061e-01 -7.579810e-01 -3.449674e-01 -3.283738e-01 -2.032758e-02 -1.590477e-01 8.537421e-02 7.558484e-01 6.244301e-01 2.146823e+00
<VARIANCE> 39
 4.833003e-02 2.049097e-01 1.858933e-01 1.576126e-01 2.118832e-01 3.720383e-01 2.869828e-01 3.651681e-01 2.534664e-01 4.258327e-01 3.548993e-01 4.451471e-01 7.525714e-02 2.535459e-01 1.107341e+00 7.163182e-01 5.598217e-01 7.656212e-01 8.182262e-01 7.725967e-01 8.464671e-01 8.119606e-01 7.079187e-01 8.985023e-01 9.475492e-01 8.699068e-01 6.154893e-01 9.327272e-01 1.049422e+00 6.801925e-01 8.754295e-01 1.206426e+00 8.366984e-01 8.026988e-01 7.862733e-01 8.814968e-01 7.631953e-01 6.814913e-01 9.900025e-01
<GCONST> 4.588129e+01
<MIXTURE> 4 1.388382e-01
<MEAN> 39
 3.067747e-01 6.224127e-01 -1.632243e-03 4.468304e-01 6.650419e-01 4.215448e-02 -1.549823e-01 2.547761e-02 -3.438572e-01 -1.437005e-01 -3.870734e-01 -3.424995e-01 -7.682916e-01 -2.813028e-01 4.828486e-02 8.453918e-02 -1.017615e-02 1.191009e-01 2.408482e-01 2.103607e-01 2.918559e-01 1.484986e-01 1.947557e-02 1.766005e-01 1.040591e-01 -3.406896e-01 1.319756e-01 -3.092793e-01 2.277409e-01 1.717428e-01 3.180239e-02 1.814115e-01 1.568973e-01 -2.441412e-02 -2.370343e-01 -1.063061e-01 6.338050e-02 2.464052e-01 7.216805e-01
<VARIANCE> 39
 4.434980e-01 3.846516e-01 4.173557e-01 3.819722e-01 3.969540e-01 5.437906e-01 5.520766e-01 1.132660e+00 8.658764e-01 8.049372e-01 5.829719e-01 1.065478e+00 3.888482e-01 8.243547e-01 1.042570e+00 1.018791e+00 8.399662e-01 6.742422e-01 9.535514e-01 8.188574e-01 1.108740e+00 1.204923e+00 1.184579e+00 8.918256e-01 1.002171e+00 7.629140e-01 1.485186e+00 1.010586e+00 1.058724e+00 8.266903e-01 8.371369e-01 1.213987e+00 1.046070e+00 1.359993e+00 1.162679e+00 1.211032e+00 1.001422e+00 1.137574e+00 1.452870e+00
<GCONST> 6.490293e+01
<MIXTURE> 5 1.631794e-01
<MEAN> 39
 1.595463e-01 1.216413e+00 7.301628e-01 1.054411e+00 1.134459e+00 8.143074e-01 6.292347e-01 -1.800618e-01 -8.445450e-01 -8.274885e-01 -1.054614e+00 -7.186133e-01 -1.084275e+00 -4.997631e-01 2.968256e-01 6.372563e-01 3.308679e-01 7.327821e-03 -1.805234e-01 9.143482e-02 2.488176e-01 2.820077e-01 -2.104158e-01 -3.029222e-01 -1.695294e-01 -4.890282e-01 5.444127e-01 -1.132554e+00 -9.270028e-01 -4.503387e-01 -5.825749e-01 -4.190638e-01 -5.719840e-01 -3.995283e-01 -1.886953e-01 4.488662e-01 1.070640e+00 9.921113e-01 1.651118e+00
<VARIANCE> 39
 7.010206e-02 1.764248e-01 2.465948e-01 3.072444e-01 3.084826e-01 3.968920e-01 3.337475e-01 4.933102e-01 3.750785e-01 3.673365e-01 4.614755e-01 5.322531e-01 8.522478e-02 3.408365e-01 9.334159e-01 9.686190e-01 6.629482e-01 7.932286e-01 7.700026e-01 9.283409e-01 9.529681e-01 1.172771e+00 8.036829e-01 9.003310e-01 1.222321e+00 5.631169e-01 5.620041e-01 7.661614e-01 1.165786e+00 7.348273e-01 9.820741e-01 9.898626e-01 8.114453e-01 8.670841e-01 9.591766e-01 8.098018e-01 8.042655e-01 9.744481e-01 7.353008e-01
<GCONST> 5.002931e+01
<MIXTURE> 6 1.564656e-01
<MEAN> 39
 2.923846e-01 1.004959e+00 4.270456e-01 1.025796e+00 1.196631e+00 6.298871e-01 2.512355e-01 -5.275929e-01 -1.029432e+00 -2.305395e-01 -1.599408e-01 2.693243e-01 -1.029138e+00 -5.746719e-01 9.148339e-01 8.782580e-01 2.426066e-01 -1.462868e-02 -1.899132e-01 1.726242e-01 3.165315e-01 5.144600e-01 -3.197694e-02 -5.983893e-01 -3.613717e-01 -1.018791e+00 3.673601e-01 -5.114467e-01 -1.596388e-01 -3.099082e-01 -5.993801e-01 -3.036332e-01 1.111951e-01 3.901364e-01 2.605180e-01 -2.451429e-01 -3.602352e-01 -4.469134e-01 1.048798e+00
<VARIANCE> 39
 6.902291e-02 2.063223e-01 2.854966e-01 2.660124e-01 1.952770e-01 4.295172e-01 3.048401e-01 5.314168e-01 2.977525e-01 4.101848e-01 4.257919e-01 5.357212e-01 6.770410e-02 2.495951e-01 5.154969e-01 7.560896e-01 5.144233e-01 5.725469e-01 7.718603e-01 7.157486e-01 7.050479e-01 7.999959e-01 7.200455e-01 8.121595e-01 8.006440e-01 3.582245e-01 4.182866e-01 6.939886e-01 7.126090e-01 5.739899e-01 5.830199e-01 7.938383e-01 7.101679e-01 6.882834e-01 6.907318e-01 7.890022e-01 7.090950e-01 7.768094e-01 5.295521e-01
<GCONST> 4.231597e+01
<MIXTURE> 7 8.885983e-02
<MEAN> 39
 -1.187907e-01 3.105987e-01 1.025267e+00 1.380963e+00 8.623586e-01 2.642448e-01 2.042972e-01 -7.595573e-02 -4.678242e-01 -1.149144e+00 -5.793149e-01 3.634466e-01 -6.597619e-01 -2.308979e-01 -6.682153e-01 -2.665809e-01 -5.983377e-01 -3.519598e-01 4.329328e-01 4.279811e-01 1.868268e-01 3.719961e-01 -4.663201e-02 2.759137e-01 1.920317e-01 4.682174e-01 1.361630e+00 9.381700e-01 -1.895916e+00 -1.163306e+00 -2.975112e-03 3.321398e-01 4.335563e-02 -3.861914e-01 -6.878684e-01 1.417172e+00 2.277010e-01 -4.625497e-01 -2.708623e-01
<VARIANCE> 39
 5.928352e-02 1.610560e-01 1.746065e-01 1.704451e-01 2.501130e-01 2.932906e-01 2.506061e-01 5.502853e-01 3.720740e-01 3.287866e-01 4.848338e-01 5.426362e-01 9.623893e-02 4.735312e-01 1.016048e+00 1.092234e+00 6.378314e-01 7.774402e-01 8.726106e-01 7.148099e-01 9.281222e-01 9.364795e-01 1.009372e+00 7.934192e-01 1.103017e+00 4.618616e-01 6.902606e-01 9.079062e-01 1.287871e+00 5.800822e-01 7.876405e-01 9.320583e-01 7.329511e-01 1.004615e+00 8.385194e-01 8.424943e-01 6.631516e-01 1.064144e+00 1.083468e+00
<GCONST> 4.829689e+01
<MIXTURE> 8 8.042389e-02
<MEAN> 39
 5.261182e-02 1.228056e+00 6.089485e-01 7.601072e-01 7.506146e-01 6.819893e-02 -8.099683e-03 -2.541040e-01 -5.094998e-01 1.369730e-01 -7.940127e-01 -5.990228e-01 -1.444354e+00 7.230271e-01 6.989637e-01 7.979063e-01 7.481737e-01 3.646025e-01 9.089926e-02 -1.919884e-01 -4.224375e-01 -6.049535e-01 -6.018807e-01 -3.354139e-01 -2.139624e-01 4.913394e-01 -1.237695e+00 -1.393651e+00 -1.108783e+00 -9.418051e-01 -6.115652e-01 -1.190006e-01 5.446858e-02 3.518138e-01 5.475673e-01 3.169955e-01 4.681108e-01 5.668281e-01 -1.671385e-01
<VARIANCE> 39
 1.202589e-01 2.130590e-01 1.884014e-01 3.116998e-01 2.961496e-01 5.932280e-01 5.088189e-01 5.043563e-01 3.631046e-01 5.749327e-01 5.157846e-01 5.886673e-01 1.071058e-01 7.127813e-01 1.015081e+00 8.443797e-01 7.940609e-01 5.844172e-01 7.349638e-01 7.306449e-01 1.348182e+00 9.755278e-01 9.413109e-01 8.701006e-01 1.202068e+00 5.178018e-01 8.629924e-01 6.144709e-01 7.186378e-01 8.552918e-01 9.045503e-01 9.005488e-01 1.024673e+00 1.308216e+00 1.178244e+00 1.060875e+00 7.455130e-01 9.585454e-01 4.311895e-01
<GCONST> 5.281712e+01
<STATE> 5
<NUMMIXES> 8
<MIXTURE> 1 1.289241e-01
<MEAN> 39
 8.647636e-02 1.513333e+00 1.120384e+00 1.357264e+00 1.061650e+00 4.898844e-01 5.976058e-01 3.534207e-02 -8.534368e-01 -4.702755e-01 -8.690936e-01 -2.759568e-01 -1.493274e+00 -1.436427e-01 -4.195724e-02 6.061256e-03 4.244000e-02 -9.133462e-03 1.825239e-02 3.293992e-02 -1.605664e-02 6.084636e-02 6.164936e-02 1.023743e-01 5.557456e-02 -3.627795e-02 -1.039143e-02 -5.224154e-01 -4.577354e-01 -2.863513e-01 -1.184686e-02 1.578341e-01 -2.385002e-02 -7.058701e-02 1.603960e-01 2.014687e-01 9.255758e-02 -3.965163e-02 5.485162e-01
<VARIANCE> 39
 4.874763e-02 1.276291e-01 1.133347e-01 2.040187e-01 2.020362e-01 4.221463e-01 2.410682e-01 5.953981e-01 2.991293e-01 4.590313e-01 5.305650e-01 4.644612e-01 6.398009e-02 1.218888e-01 2.581615e-01 4.147514e-01 3.866593e-01 3.816963e-01 5.144266e-01 5.165359e-01 6.289281e-01 5.858819e-01 5.210153e-01 6.424066e-01 6.685691e-01 1.619154e-01 1.992600e-01 3.158088e-01 5.446282e-01 4.829558e-01 6.067365e-01 6.423876e-01 6.822486e-01 8.074219e-01 6.971998e-01 6.808158e-01 8.206973e-01 7.427494e-01 2.379682e-01
<GCONST> 3.208300e+01
<MIXTURE> 2 1.647256e-01
<MEAN> 39
 1.577099e-01 7.692057e-01 2.970634e-01 8.779879e-01 1.122607e+00 7.992650e-01 4.231516e-01 -5.962505e-01 -1.093969e+00 -4.337263e-01 -1.986406e-01 1.101177e-01 -8.993539e-01 1.391093e-01 -9.715264e-01 -6.235957e-01 -5.406847e-02 -6.631763e-02 -1.255832e-01 -2.514513e-01 -1.291594e-01 -1.480592e-01 9.163973e-02 5.195426e-01 6.362410e-01 1.153424e+00 6.876585e-01 -4.138278e-01 -1.216334e-01 -2.386038e-01 -5.533594e-01 -4.902439e-01 -9.002177e-02 4.646013e-01 4.175768e-01 1.965027e-01 -1.955774e-01 -1.206834e-01 1.726716e+00
<VARIANCE> 39
 1.655985e-01 2.603081e-01 3.146031e-01 2.744486e-01 2.762825e-01 4.701869e-01 3.605142e-01 5.214391e-01 3.231464e-01 4.656454e-01 4.824624e-01 6.864449e-01 1.591596e-01 4.348472e-01 7.906314e-01 9.824747e-01 7.039586e-01 6.365663e-01 8.100988e-01 7.900123e-01 8.994970e-01 8.744217e-01 8.540973e-01 9.178599e-01 1.076385e+00 6.627901e-01 9.530098e-01 9.086990e-01 1.083289e+00 7.691846e-01 9.049196e-01 1.033660e+00 9.664660e-01 9.180329e-01 8.025786e-01 1.139212e+00 9.480907e-01 1.123091e+00 1.169311e+00
<GCONST> 5.399573e+01
<MIXTURE> 3 1.548145e-01
<MEAN> 39
 2.277699e-02 1.452422e+00 6.545487e-01 6.559857e-01 6.966280e-01 1.992956e-01 2.367897e-01 5.447379e-02 -3.264603e-01 4.378929e-01 -1.440526e-01 2.331490e-01 -1.519594e+00 -1.139199e-01 -1.787078e-01 1.215274e-01 2.736248e-01 1.774877e-02 -1.522037e-01 -9.907909e-02 1.480972e-01 1.657461e-01 -9.938947e-02 1.867979e-02 3.316970e-02 7.310021e-02 -1.116119e-01 -6.554966e-01 -1.323420e-01 8.292939e-02 1.570372e-02 1.916234e-01 1.383711e-01 -3.413267e-02 -2.384081e-03 -2.909234e-01 -1.998050e-01 -4.835979e-02 5.546470e-01
<VARIANCE> 39
 5.093312e-02 9.995782e-02 1.028995e-01 1.619734e-01 1.564258e-01 2.038579e-01 1.835718e-01 3.801872e-01 2.835258e-01 5.719799e-01 2.436813e-01 4.223194e-01 7.379569e-02 1.691570e-01 5.551714e-01 5.265006e-01 5.878153e-01 3.616866e-01 5.668952e-01 4.871469e-01 5.531229e-01 5.450436e-01 6.805412e-01 6.888773e-01 7.477382e-01 3.731389e-01 3.276536e-01 4.508903e-01 6.392956e-01 5.956805e-01 4.773119e-01 5.982438e-01 6.335367e-01 6.317278e-01 6.622723e-01 7.175940e-01 6.547726e-01 7.595784e-01 3.202815e-01
<GCONST> 3.279253e+01
<MIXTURE> 4 5.791551e-02
<MEAN> 39
 -4.151164e-02 3.675965e-01 3.535621e-01 6.359504e-01 5.662330e-01 5.354111e-01 6.501992e-01 1.159876e-01 -2.864821e-01 -3.138627e-02 -3.953256e-01 5.602754e-02 -8.386122e-01 6.552241e-01 9.856874e-01 -1.359566e+00 -8.943563e-01 2.277337e-01 5.479811e-01 2.151502e-01 -6.310431e-01 -8.221319e-01 1.431469e+00 3.220648e-01 -4.668881e-01 -4.211933e-01 -4.143393e-02 8.541321e-01 6.166564e-01 9.616469e-01 9.486683e-01 -1.510497e-01 -4.536910e-01 -4.931152e-01 -5.932613e-01 -3.637702e-01 -1.801599e-01 1.136484e-01 -7.763211e-01
<VARIANCE> 39
 5.657064e-02 1.916661e-01 2.449602e-01 2.909056e-01 1.930041e-01 2.566199e-01 2.005491e-01 5.500978e-01 2.461951e-01 5.569033e-01 4.524655e-01 5.580087e-01 7.576693e-02 2.355418e-01 5.460877e-01 5.228426e-01 6.301755e-01 6.261801e-01 7.071302e-01 6.366920e-01 8.137909e-01 6.725273e-01 6.651335e-01 6.156987e-01 7.918789e-01 4.694111e-01 6.093767e-01 6.805883e-01 1.097928e+00 5.991620e-01 7.489800e-01 1.033529e+00 7.286279e-01 1.093627e+00 7.709777e-01 1.088295e+00 6.248724e-01 9.709010e-01 1.036018e+00
<GCONST> 4.402418e+01
<MIXTURE> 5 1.604163e-01
<MEAN> 39
 -1.215776e-01 1.341759e+00 8.137275e-01 1.002960e+00 1.079242e+00 8.315527e-01 7.265337e-01 -1.926937e-01 -5.873421e-01 -2.655263e-01 -1.029026e+00 -9.564861e-01 -1.468526e+00 -9.867640e-02 -1.503426e-01 8.234835e-02 1.793176e-01 6.303458e-02 2.265410e-02 5.914310e-02 1.144115e-01 -5.689874e-03 -1.831368e-01 -8.297485e-02 6.064541e-02 1.578365e-02 -2.263785e-02 -5.502536e-01 -2.113349e-01 -1.040320e-01 -1.601490e-01 -1.806137e-01 -2.149470e-01 2.001568e-02 -1.222812e-02 -2.864065e-02 5.090740e-01 6.597812e-01 5.899287e-01
<VARIANCE> 39
 5.003987e-02 1.677890e-01 1.389323e-01 1.719968e-01 1.425508e-01 2.228622e-01 2.589214e-01 4.574399e-01 2.490464e-01 3.126553e-01 4.107418e-01 4.492150e-01 5.567893e-02 1.609087e-01 4.270114e-01 4.550900e-01 4.740575e-01 4.379659e-01 5.174547e-01 6.266006e-01 6.880707e-01 6.131217e-01 6.733282e-01 8.077351e-01 8.561094e-01 2.586299e-01 2.912702e-01 4.722975e-01 6.793411e-01 5.700237e-01 5.923843e-01 5.591090e-01 7.371686e-01 8.594015e-01 7.941882e-01 7.990841e-01 8.771042e-01 8.724713e-01 3.118663e-01
<GCONST> 3.492507e+01
<MIXTURE> 6 1.251849e-01
<MEAN> 39
 -2.664360e-02 1.048696e+00 1.371000e-01 2.920367e-01 7.558063e-01 6.875334e-01 5.602745e-01 -3.933428e-01 -6.184279e-01 1.042638e-01 -1.144474e-01 -9.372306e-02 -1.040218e+00 5.328585e-02 6.330999e-01 9.723957e-02 1.185687e-01 4.010152e-01 1.015193e-01 1.489916e-02 -2.565193e-01 -4.325804e-01 5.640602e-02 -7.197627e-02 -1.593698e-01 -5.942726e-01 -3.988142e-01 -6.364007e-01 8.541505e-01 8.161132e-01 2.568870e-02 -3.380762e-01 -1.751956e-01 2.837003e-01 3.811816e-01 -7.664673e-01 -2.455175e-01 7.846358e-02 2.891941e-01
<VARIANCE> 39
 6.322350e-02 1.506551e-01 2.211629e-01 2.458555e-01 2.195303e-01 3.473959e-01 2.920609e-01 4.360867e-01 2.955554e-01 5.237287e-01 3.859092e-01 5.385572e-01 9.060478e-02 2.019666e-01 6.032048e-01 7.595375e-01 5.825307e-01 5.834538e-01 6.534319e-01 7.233354e-01 8.333832e-01 7.856866e-01 1.044002e+00 7.180439e-01 9.520296e-01 2.639083e-01 4.393871e-01 5.380957e-01 9.589160e-01 7.104647e-01 7.343810e-01 9.191045e-01 8.705121e-01 8.628041e-01 8.023754e-01 1.193875e+00 7.671010e-01 9.007046e-01 4.897186e-01
<GCONST> 4.370577e+01
<MIXTURE> 7 1.341600e-01
<MEAN> 39
 -1.944277e-01 7.095668e-01 8.141832e-01 1.195477e+00 1.029284e+00 4.683526e-01 4.234279e-01 1.908598e-01 -3.347487e-01 -3.845882e-01 -6.190684e-01 1.360330e-02 -1.126152e+00 -3.384026e-01 -1.613331e+00 -1.944151e-01 -2.509783e-01 -4.503818e-01 -8.593023e-02 -9.724270e-02 1.135838e-01 4.319064e-01 -3.379970e-01 6.077721e-01 8.052256e-01 1.347735e+00 7.043948e-01 3.159368e-02 -7.019415e-01 -7.618568e-01 -3.579432e-01 1.385961e-01 9.143153e-02 -4.026998e-01 -3.974426e-01 3.467380e-01 3.752092e-01 1.510012e-02 8.035806e-01
<VARIANCE> 39
 7.506353e-02 2.259061e-01 2.318504e-01 2.303502e-01 1.909414e-01 3.534935e-01 2.873523e-01 4.477992e-01 3.118676e-01 5.425835e-01 4.676560e-01 7.252337e-01 9.255238e-02 2.809739e-01 4.441276e-01 7.255721e-01 6.006647e-01 5.124179e-01 7.106041e-01 7.146392e-01 7.998708e-01 7.427752e-01 8.554703e-01 7.728084e-01 9.283290e-01 3.746172e-01 5.990459e-01 1.172557e+00 1.001040e+00 6.127601e-01 5.960063e-01 6.981431e-01 7.853347e-01 7.931721e-01 7.512027e-01 1.117798e+00 8.777098e-01 1.202451e+00 1.412935e+00
<GCONST> 4.647045e+01
<MIXTURE> 8 7.387041e-02
<MEAN> 39
 -2.572426e-01 1.510542e-01 6.586493e-01 8.350956e-01 6.637185e-01 5.376528e-01 4.179329e-01 1.607900e-02 1.601308e-02 -7.306312e-01 1.308117e-04 5.354407e-01 -6.902260e-01 5.055437e-01 -1.412202e-01 -1.299801e+00 -1.311828e+00 -4.113428e-01 3.434078e-01 2.220446e-01 -2.212006e-01 -1.837250e-01 9.917138e-01 4.795472e-01 -1.339352e-02 5.067819e-01 1.030394e+00 1.917321e+00 -8.296700e-01 -2.729663e-01 4.979004e-01 -1.922390e-02 7.570466e-03 -3.511134e-01 -1.119156e+00 1.132714e+00 -4.362457e-01 -7.527857e-01 -1.254356e+00
<VARIANCE> 39
 5.390691e-02 1.616946e-01 1.792951e-01 1.853989e-01 1.851185e-01 2.591397e-01 2.232229e-01 4.507062e-01 2.382465e-01 4.573006e-01 4.015237e-01 5.009786e-01 6.774736e-02 2.088373e-01 9.051855e-01 5.764229e-01 3.748399e-01 4.926487e-01 5.646613e-01 6.026973e-01 6.425232e-01 6.202029e-01 1.053864e+00 6.120821e-01 8.402295e-01 4.548975e-01 5.085422e-01 4.956414e-01 8.267242e-01 5.398434e-01 7.533047e-01 7.035911e-01 8.377772e-01 8.607903e-01 6.849568e-01 8.569797e-01 7.873374e-01 8.948107e-01 5.692588e-01
<GCONST> 3.978743e+01
<STATE> 6
<NUMMIXES> 8
<MIXTURE> 1 1.174323e-01
<MEAN> 39
 9.905051e-02 2.121452e-01 1.440980e-03 7.226661e-01 9.115030e-01 5.432810e-01 3.436937e-01 -3.805707e-01 -7.646876e-01 -4.076294e-02 2.331599e-01 6.810501e-01 -5.312449e-01 1.038773e+00 -5.189136e-01 -4.213537e-01 7.233851e-02 -5.565960e-02 -1.833713e-01 2.393153e-01 4.658839e-01 -8.036894e-02 1.170777e-03 -3.101800e-01 -2.711914e-01 2.407055e+00 1.460160e+00 5.209383e-01 4.663683e-01 3.879187e-02 -1.889214e-01 -1.243169e-01 2.722079e-01 5.461848e-01 1.890470e-01 -1.432467e-01 -7.161250e-01 -7.657924e-01 1.698262e+00
<VARIANCE> 39
 8.795552e-02 2.220041e-01 2.825203e-01 2.542389e-01 2.402738e-01 4.272974e-01 3.393159e-01 5.762097e-01 4.140834e-01 4.222744e-01 4.166060e-01 5.967059e-01 1.215539e-01 7.527086e-01 9.354135e-01 1.272633e+00 1.087523e+00 8.432639e-01 9.709997e-01 8.794909e-01 1.225732e+00 1.023182e+00 1.299393e+00 1.085657e+00 1.156432e+00 1.335418e+00 8.277080e-01 1.075121e+00 1.170988e+00 1.182580e+00 1.015871e+00 1.042621e+00 1.032382e+00 1.196082e+00 1.087248e+00 1.403674e+00 1.015469e+00 1.143558e+00 1.260403e+00
<GCONST> 5.788816e+01
<MIXTURE> 2 5.423230e-02
<MEAN> 39
 -9.842985e-01 -2.234935e-03 -1.005691e+00 -5.277401e-01 1.350282e+00 1.317359e+00 5.350526e-01 -1.085268e+00 -8.772869e-01 -1.486516e-01 9.542297e-01 1.343824e+00 -1.346281e+00 -1.081328e-01 -1.264471e-01 7.541788e-02 1.734244e-01 2.405704e-01 1.669567e-01 1.090850e-01 2.090148e-01 3.996065e-02 -2.601424e-01 -2.251034e-01 8.221722e-02 3.673367e-03 9.177614e-02 -5.088460e-02 8.881149e-02 5.182258e-02 -3.600016e-01 -4.221767e-01 -1.091100e-01 2.114778e-01 2.345290e-01 -2.529112e-02 2.119393e-02 1.072493e-03 4.048980e-01
<VARIANCE> 39
 1.612877e-02 7.113262e-02 1.227594e-01 9.692664e-02 2.808912e-01 4.154830e-01 1.842018e-01 3.214404e-01 1.855924e-01 2.470528e-01 4.852364e-01 8.166513e-01 3.330483e-02 1.451086e-01 3.889929e-01 2.726684e-01 3.945797e-01 6.424782e-01 1.263978e+00 6.684433e-01 7.101017e-01 4.429432e-01 4.108760e-01 9.047440e-01 7.824627e-01 3.606315e-01 3.009253e-01 4.548166e-01 3.627518e-01 4.333368e-01 7.168313e-01 7.730978e-01 8.692670e-01 8.997982e-01 6.439169e-01 5.949898e-01 1.035989e+00 8.899024e-01 1.679400e-01
<GCONST> 3.146457e+01
<MIXTURE> 3 1.721035e-01
<MEAN> 39
 -1.023277e+00 2.910125e-01 -3.716008e-01 -9.162383e-01 -4.925300e-02 3.538029e-01 5.467947e-03 3.709121e-01 4.542230e-01 1.569870e-01 4.782037e-01 -7.474275e-03 -1.487873e+00 -2.152556e-02 7.641580e-03 1.614150e-01 1.690859e-01 4.736954e-02 6.604066e-03 2.338715e-02 1.084316e-01 6.379334e-02 -4.626096e-02 1.166790e-02 1.509458e-01 -3.819863e-02 9.240964e-02 -1.133981e-01 1.283002e-01 5.029079e-01 4.519378e-01 1.844852e-01 3.276429e-01 -1.239330e-01 -2.552017e-01 -2.889175e-01 -2.305823e-01 3.273930e-02 2.555138e-01
<VARIANCE> 39
 4.297055e-02 8.906271e-02 2.061326e-01 1.790542e-01 2.356808e-01 3.736031e-01 2.611691e-01 5.343980e-01 2.893760e-01 3.785661e-01 5.311964e-01 4.538074e-01 6.491370e-02 1.644282e-01 3.239211e-01 6.098611e-01 6.047102e-01 5.888702e-01 7.584663e-01 8.247456e-01 9.346052e-01 7.176673e-01 8.230923e-01 7.956797e-01 8.180663e-01 2.023460e-01 3.989638e-01 5.446295e-01 7.165512e-01 5.718148e-01 6.380628e-01 7.765139e-01 8.611954e-01 1.010608e+00 8.562090e-01 1.031146e+00 8.929533e-01 9.004332e-01 2.082949e-01
<GCONST> 3.932306e+01
<MIXTURE> 4 6.036748e-02
<MEAN> 39
 -1.150741e+00 -4.807231e-01 -3.140350e-01 -7.518131e-02 1.059627e-01 -3.121116e-02 2.195934e-01 4.366029e-01 6.784475e-01 -4.945607e-01 4.223773e-01 1.107116e+00 -1.041523e+00 -5.828840e-02 -1.166862e+00 -3.566896e-01 -4.056545e-01 -5.439253e-01 1.137692e-02 2.400735e-02 -1.132714e-01 5.382599e-01 -3.602439e-01 6.189931e-01 3.993820e-01 1.064163e+00 1.028739e+00 1.419599e+00 -1.082297e+00 -1.191239e+00 5.633310e-02 5.972868e-01 1.615811e-01 -6.605072e-01 -9.351819e-01 1.041958e+00 -1.510596e-01 -8.406441e-01 -7.760920e-01
<VARIANCE> 39
 6.028523e-02 1.054567e-01 2.101703e-01 2.429282e-01 2.853439e-01 3.447394e-01 2.637704e-01 5.790810e-01 3.607841e-01 2.296476e-01 5.636797e-01 4.845478e-01 5.947597e-02 2.403879e-01 7.684293e-01 6.189807e-01 7.161235e-01 4.730724e-01 6.198774e-01 5.735655e-01 7.003911e-01 7.291922e-01 7.622243e-01 6.427494e-01 8.942462e-01 3.775899e-01 6.012776e-01 9.886343e-01 1.044846e+00 8.792722e-01 5.028724e-01 6.785549e-01 7.696218e-01 8.036278e-01 9.496786e-01 1.029601e+00 7.592248e-01 9.667289e-01 4.530657e-01
<GCONST> 4.279519e+01
<MIXTURE> 5 2.258865e-01
<MEAN> 39
 -8.347071e-01 1.953209e-01 -1.040883e+00 -9.343976e-01 7.358215e-02 2.982070e-01 4.487660e-01 -4.718772e-01 1.966807e-02 6.458263e-01 1.649336e-01 2.113384e-01 -1.422920e+00 -8.178557e-02 2.839065e-01 2.134169e-01 6.870089e-02 1.169015e-01 4.881123e-02 2.458994e-02 1.458480e-02 -9.623652e-02 9.518541e-02 -2.225695e-01 -3.661373e-01 -4.101252e-01 -3.422515e-01 -3.304844e-01 5.226530e-01 3.796625e-01 5.874700e-02 7.020497e-02 -2.996458e-02 4.178397e-01 3.507984e-01 -4.930635e-01 -1.944230e-01 8.762173e-03 1.182783e-01
<VARIANCE> 39
 3.098976e-02 7.472820e-02 1.177082e-01 1.660545e-01 2.150640e-01 3.679339e-01 1.991944e-01 3.397123e-01 2.310193e-01 2.266860e-01 5.418417e-01 5.848150e-01 6.636846e-02 1.588532e-01 3.700274e-01 5.345524e-01 5.563804e-01 4.685799e-01 6.322076e-01 6.550454e-01 9.019195e-01 7.863659e-01 8.573795e-01 9.489361e-01 1.383051e+00 2.626755e-01 4.217923e-01 4.216586e-01 8.829572e-01 7.033550e-01 6.687115e-01 7.645784e-01 8.240387e-01 9.347619e-01 9.736695e-01 8.670151e-01 9.655759e-01 1.270699e+00 2.586453e-01
<GCONST> 3.793244e+01
<MIXTURE> 6 1.838738e-01
<MEAN> 39
 -1.036024e+00 3.070443e-01 -2.487116e-01 -4.525538e-01 4.131472e-01 6.111404e-01 3.249592e-01 2.899224e-01 1.943005e-01 -7.191348e-02 1.261526e-02 -4.340644e-02 -1.529548e+00 -1.837765e-01 -3.347451e-01 1.242940e-01 2.639970e-01 -9.048289e-02 -2.406130e-01 -1.319472e-01 1.281548e-01 2.330777e-01 -3.129013e-01 2.351368e-02 2.999028e-01 2.343872e-01 3.899793e-02 -4.880331e-01 -4.577493e-01 -4.440193e-01 -5.320551e-01 -3.022941e-01 -3.033508e-01 -2.426701e-01 2.683511e-01 1.992974e-01 5.074007e-01 4.144747e-01 5.211188e-01
<VARIANCE> 39
 3.488346e-02 9.540892e-02 2.862906e-01 1.626265e-01 1.948472e-01 4.470100e-01 2.888888e-01 4.863204e-01 2.582062e-01 3.265877e-01 6.203181e-01 4.704485e-01 6.414063e-02 1.805757e-01 6.710979e-01 6.135218e-01 6.677098e-01 5.449868e-01 6.427348e-01 6.945818e-01 8.497531e-01 7.197962e-01 9.224381e-01 8.377703e-01 9.682796e-01 3.924071e-01 3.791175e-01 5.707542e-01 6.981208e-01 6.011140e-01 5.949378e-01 9.216242e-01 8.961417e-01 9.584624e-01 8.239306e-01 8.852423e-01 8.745764e-01 9.918128e-01 2.602342e-01
<GCONST> 4.096080e+01
<MIXTURE> 7 1.130137e-01
<MEAN> 39
 3.116106e-01 3.262013e-01 1.019408e-01 7.246922e-01 8.553311e-01 4.501939e-01 1.727469e-01 -3.352655e-01 -1.012225e+00 -5.023268e-01 -2.666473e-01 1.151655e-01 -2.947680e-01 1.068046e+00 -5.403311e-01 -4.842629e-01 -4.303402e-01 -5.995613e-01 -7.457872e-01 -4.009824e-01 1.519441e-01 5.900681e-02 3.974062e-01 -2.356822e-03 1.195856e-02 2.308454e+00 6.641552e-01 3.962051e-02 -4.605298e-02 -3.955488e-01 -3.614853e-01 -2.941102e-01 -8.170208e-02 2.594367e-01 4.306948e-01 6.152284e-01 4.624715e-02 -9.347493e-02 1.007320e+00
<VARIANCE> 39
 3.462133e-01 3.147093e-01 5.090576e-01 4.755142e-01 3.288629e-01 5.466014e-01 5.296191e-01 7.261071e-01 6.924183e-01 5.681420e-01 5.394420e-01 7.004345e-01 3.796000e-01 1.116824e+00 9.355635e-01 1.609276e+00 1.277258e+00 9.843158e-01 1.097419e+00 1.042519e+00 1.144067e+00 1.494669e+00 1.547671e+00 1.052975e+00 1.360139e+00 2.069143e+00 1.763003e+00 1.305339e+00 1.588849e+00 1.306865e+00 1.198636e+00 1.276683e+00 1.284838e+00 1.482428e+00 1.573395e+00 1.410192e+00 9.301353e-01 1.363900e+00 2.514307e+00
<GCONST> 7.002872e+01
<MIXTURE> 8 7.307510e-02
<MEAN> 39
 -1.001318e+00 -5.556643e-01 -8.039342e-01 -5.955195e-01 -1.127513e-02 2.363870e-01 3.334299e-01 -3.039912e-02 4.879641e-01 -2.731253e-01 4.757240e-01 9.313981e-01 -9.109367e-01 7.516115e-01 9.011534e-01 -1.253858e+00 -1.193593e+00 -1.123614e-01 2.086769e-01 6.224056e-02 -7.415559e-01 -8.994547e-01 1.177359e+00 2.189550e-01 -3.706580e-01 -8.156916e-02 1.499876e-01 1.586620e+00 2.393465e-01 -2.669984e-02 4.809816e-01 -5.125860e-02 -1.529194e-02 -9.657013e-02 -7.239614e-01 7.589706e-01 -1.696105e-01 -5.739483e-01 -1.696758e+00
<VARIANCE> 39
 4.810751e-02 1.013396e-01 2.440348e-01 1.803290e-01 2.620693e-01 3.189716e-01 2.465139e-01 3.215345e-01 3.317440e-01 2.664043e-01 4.072225e-01 2.844359e-01 3.763974e-02 1.523921e-01 7.465408e-01 4.046100e-01 4.131919e-01 4.220861e-01 5.940822e-01 4.768657e-01 5.540040e-01 6.821959e-01 5.470250e-01 5.830757e-01 7.052831e-01 3.231091e-01 6.809345e-01 8.845858e-01 1.183859e+00 7.685750e-01 4.965827e-01 6.286565e-01 7.379879e-01 8.344099e-01 1.058414e+00 1.001997e+00 6.429740e-01 9.312992e-01 1.794264e-01
<GCONST> 3.624878e+01
<TRANSP> 7
 0.000000e+00 1.000000e+00 0.000000e+00 0.000000e+00 0.000000e+00 0.000000e+00 0.000000e+00
 0.000000e+00 6.997132e-01 3.002868e-01 0.000000e+00 0.000000e+00 0.000000e+00 0.000000e+00
 0.000000e+00 0.000000e+00 6.067038e-01 3.932962e-01 0.000000e+00 0.000000e+00 0.000000e+00
 0.000000e+00 0.000000e+00 0.000000e+00 6.983792e-01 3.016208e-01 0.000000e+00 0.000000e+00
 0.000000e+00 0.000000e+00 0.000000e+00 0.000000e+00 8.766431e-01 1.233570e-01 0.000000e+00
 0.000000e+00 0.000000e+00 0.000000e+00 0.000000e+00 0.000000e+00 8.893971e-01 1.106028e-01
 0.000000e+00 0.000000e+00 0.000000e+00 0.000000e+00 0.000000e+00 0.000000e+00 0.000000e+00
<ENDHMM>
~h "d"
<BEGINHMM>
<NUMSTATES> 7
<STATE> 2
<NUMMIXES> 8
<MIXTURE> 1 8.479321e-02
<MEAN> 39
 -7.688484e-01 2.514843e-01 -1.981838e-01 -2.445906e-01 1.223842e-01 4.012461e-02 3.326936e-01 -9.713633e-02 -2.601004e-01 5.931199e-01 6.573048e-03 1.049011e-01 -1.392208e+00 7.190301e-01 9.629013e-01 1.043602e+00 1.131567e+00 8.067546e-01 4.685522e-01 3.375440e-01 1.116635e-01 -3.501267e-01 -3.762439e-01 -2.447514e-01 -3.367412e-01 3.017500e-01 6.931975e-01 5.348123e-01 1.062837e+00 8.104215e-01 4.278717e-01 9.430180e-02 -1.226980e-01 -5.710883e-02 -2.878469e-01 -7.594151e-01 -5.661058e-01 -2.388097e-01 8.258295e-01
<VARIANCE> 39
 1.197586e-01 3.028924e-01 2.759137e-01 3.930068e-01 3.837948e-01 5.100515e-01 4.196894e-01 6.672787e-01 3.347545e-01 4.658192e-01 6.006561e-01 6.944556e-01 1.988602e-01 7.803774e-01 1.023905e+00 1.165146e+00 1.100572e+00 7.318524e-01 8.589626e-01 9.517232e-01 1.110551e+00 1.081236e+00 1.066800e+00 1.017470e+00 1.053248e+00 9.120907e-01 1.048247e+00 1.009274e+00 1.088142e+00 1.013106e+00 9.063785e-01 9.603764e-01 1.009084e+00 1.175127e+00 9.870095e-01 1.021308e+00 1.102233e+00 1.139253e+00 7.891421e-01
<GCONST> 5.880735e+01
<MIXTURE> 2 1.447694e-01
<MEAN> 39
 1.062838e+00 -8.345237e-01 -1.620656e-01 2.516356e-01 -5.928758e-01 -5.073074e-01 -8.688798e-01 -5.737823e-01 7.561705e-01 8.614520e-01 4.747794e-02 -8.103308e-01 9.493323e-01 -2.906434e-02 6.503752e-02 2.382923e-01 7.441507e-02 -1.294473e-02 -9.972692e-02 -1.286662e-01 -7.467580e-03 8.608848e-02 -1.323066e-01 -1.360508e-01 9.269661e-02 -3.080703e-03 -1.201911e-01 1.810981e-01 1.350460e-01 3.440231e-02 9.702744e-02 -1.393866e-02 -1.215992e-02 2.725982e-02 -1.524013e-01 -1.375584e-01 -6.251249e-02 1.255307e-01 -1.984552e-01
<VARIANCE> 39
 1.243059e-01 4.176173e-01 5.112260e-01 6.881422e-01 3.899276e-01 5.757378e-01 7.942682e-01 1.397649e+00 9.292372e-01 8.225781e-01 9.210643e-01 8.831035e-01 1.622732e-01 1.551415e-01 3.516709e-01 4.971817e-01 3.777092e-01 3.457699e-01 4.853730e-01 3.954874e-01 5.126489e-01 4.921628e-01 4.518746e-01 5.114285e-01 5.449346e-01 1.961554e-01 2.259556e-01 3.517313e-01 4.145128e-01 3.210437e-01 3.689853e-01 4.096834e-01 3.924011e-01 4.637429e-01 4.869378e-01 4.167071e-01 3.922446e-01 4.405325e-01 2.269144e-01
<GCONST> 3.864364e+01
<MIXTURE> 3 1.245530e-01
<MEAN> 39
 4.666227e-01 -2.849143e-01 1.450840e+00 9.269611e-01 -7.195282e-01 -1.281069e+00 -1.198840e+00 -9.845486e-02 -4.564066e-01 -1.016438e+00 -8.086385e-01 5.731373e-01 1.137088e+00 -4.081108e-01 7.290883e-01 5.062232e-01 4.960027e-01 1.129786e+00 5.085451e-01 8.960314e-02 -2.948906e-01 -2.548147e-01 -3.647392e-01 -7.941455e-01 -2.645705e-01 -1.959208e+00 -7.631433e-01 3.119176e-01 -9.531472e-01 -1.643627e-01 1.028404e+00 1.096289e+00 9.857588e-01 1.418876e-01 -1.385967e-01 7.363943e-01 3.453614e-01 -2.716165e-01 -2.250291e+00
<VARIANCE> 39
 1.880126e-01 3.189430e-01 6.119904e-01 4.345043e-01 3.929636e-01 8.582016e-01 6.051614e-01 9.295725e-01 1.404500e+00 5.751739e-01 6.922652e-01 1.224754e+00 2.118449e-01 2.704251e-01 4.152808e-01 1.326141e+00 7.197755e-01 7.185906e-01 8.886954e-01 8.601722e-01 1.022927e+00 8.765860e-01 7.955007e-01 7.930852e-01 9.856470e-01 7.566935e-01 5.054553e-01 4.865805e-01 9.435665e-01 6.646361e-01 7.269966e-01 1.091068e+00 8.919967e-01 8.680239e-01 1.074919e+00 7.476190e-01 8.774419e-01 1.199882e+00 6.919062e-01
<GCONST> 5.735875e+01
<MIXTURE> 4 1.235044e-01
<MEAN> 39
 9.065722e-01 2.700375e-01 -3.350177e-01 -6.843435e-01 3.758799e-02 5.589475e-01 1.810984e-01 -9.094786e-01 -1.025026e+00 3.597789e-01 -2.102705e-01 -1.137259e-01 4.382825e-01 -9.831861e-01 5.206889e-01 9.330236e-01 1.268790e+00 7.671976e-01 -2.760211e-02 -2.291841e-01 -5.873738e-02 -1.434237e-01 -6.027709e-01 -2.775086e-01 -2.404170e-02 -1.826297e+00 -9.983388e-01 1.749661e-02 2.184375e-01 5.403547e-01 5.107193e-01 7.418884e-02 2.797071e-01 6.171340e-01 2.303573e-02 -3.973559e-01 -3.681858e-02 2.587528e-01 -8.053354e-01
<VARIANCE> 39
 2.610212e-01 4.615207e-01 9.664414e-01 1.530749e+00 8.375700e-01 1.012794e+00 1.195117e+00 1.479891e+00 9.546142e-01 1.305482e+00 9.219183e-01 1.313702e+00 3.172664e-01 9.614311e-01 9.048454e-01 1.707773e+00 2.801507e+00 1.116783e+00 1.196481e+00 1.464820e+00 1.724347e+00 1.348355e+00 1.575769e+00 1.095846e+00 1.283888e+00 1.823399e+00 1.250757e+00 8.714526e-01 1.588802e+00 1.540951e+00 1.366382e+00 1.255405e+00 1.514347e+00 1.448017e+00 1.295372e+00 1.467785e+00 1.156794e+00 1.321508e+00 1.782477e+00
<GCONST> 7.791126e+01
<MIXTURE> 5 1.399243e-01
<MEAN> 39
 6.182344e-01 -2.642131e-01 1.149703e+00 6.986055e-01 -6.032058e-01 -1.527644e+00 -1.157139e+00 4.887888e-01 -9.156263e-01 -3.628772e-01 -5.995455e-01 3.812602e-01 9.804516e-01 -5.364668e-02 4.294014e-02 3.551680e-01 1.147424e-01 6.604172e-03 1.268326e-02 -1.375457e-01 1.578167e-03 -1.718540e-01 -2.648751e-01 -1.403191e-01 6.360390e-03 -6.290661e-02 -1.115061e-01 2.083481e-01 2.993783e-02 1.520231e-01 2.396707e-01 2.027728e-01 1.752033e-01 -1.850064e-01 2.743053e-02 -1.035811e-01 -1.343159e-01 -1.255387e-01 -5.019352e-01
<VARIANCE> 39
 2.592759e-01 3.557363e-01 9.312268e-01 5.651918e-01 7.483870e-01 1.002794e+00 7.021933e-01 9.435120e-01 1.035626e+00 1.374020e+00 1.221171e+00 1.254569e+00 2.345361e-01 2.596849e-01 3.812326e-01 5.537806e-01 5.192456e-01 5.052624e-01 5.611503e-01 6.356346e-01 6.534889e-01 5.114977e-01 6.665410e-01 5.788884e-01 6.548308e-01 3.726209e-01 3.408418e-01 3.384878e-01 5.137870e-01 4.512644e-01 5.259342e-01 5.521280e-01 5.853184e-01 6.348030e-01 5.284100e-01 5.782518e-01 5.132424e-01 6.102868e-01 3.984462e-01
<GCONST> 4.943663e+01
<MIXTURE> 6 1.351838e-01
<MEAN> 39
 4.214648e-01 2.457040e-01 8.110889e-01 9.976074e-01 8.235834e-02 -8.554111e-01 -4.964709e-01 -9.928524e-02 -7.385345e-01 -3.912241e-01 -6.866803e-01 4.431700e-02 3.028732e-01 4.356762e-01 -2.350874e-01 3.447374e-01 -1.073233e-01 -4.699775e-01 -2.632518e-01 -2.942037e-01 1.344045e-01 1.507578e-01 -1.067931e-01 -3.890544e-04 1.049194e-01 3.455879e-01 -6.347587e-01 -8.504432e-02 -5.354692e-01 -4.744060e-01 1.574943e-01 4.621994e-01 2.641485e-01 1.651188e-02 -5.310377e-02 2.598019e-01 1.981896e-01 2.328949e-02 -5.303155e-01
<VARIANCE> 39
 3.756633e-01 7.600548e-01 1.206977e+00 7.497082e-01 8.011943e-01 1.072723e+00 8.174424e-01 9.325450e-01 7.870793e-01 1.131476e+00 8.511254e-01 9.562604e-01 5.001670e-01 1.811691e+00 1.620110e+00 1.973178e+00 1.432606e+00 1.345717e+00 1.376516e+00 1.597127e+00 1.571674e+00 1.263842e+00 1.500689e+00 1.078513e+00 1.271693e+00 2.035743e+00 1.215116e+00 1.544898e+00 1.657457e+00 1.182052e+00 1.267648e+00 1.331621e+00 1.329320e+00 1.381120e+00 1.086279e+00 1.129213e+00 1.064179e+00 1.095785e+00 1.183069e+00
<GCONST> 7.716544e+01
<MIXTURE> 7 1.098939e-01
<MEAN> 39
 9.916310e-01 -5.246444e-01 7.386648e-02 2.017520e-01 2.239031e-02 -1.685441e+00 -1.398003e+00 4.214457e-01 -5.757232e-01 9.101967e-01 -1.142197e+00 -2.473687e-01 1.159559e+00 -2.243893e-01 7.492905e-01 1.203204e+00 9.787179e-01 5.737381e-01 5.020601e-01 -2.996091e-01 -1.163406e+00 -4.493580e-01 -9.734525e-01 -3.153124e-01 -1.918106e-01 -1.933094e+00 -1.192519e+00 2.153660e-01 -2.653171e-02 5.127795e-01 5.985237e-01 1.356954e+00 1.100992e+00 -5.795246e-02 -3.817534e-03 -4.867195e-01 2.308701e-01 -1.770399e-01 -2.103362e+00
<VARIANCE> 39
 1.339154e-01 3.440750e-01 4.200892e-01 4.771391e-01 5.738373e-01 8.846244e-01 6.101780e-01 1.185392e+00 1.518082e+00 8.527768e-01 8.338123e-01 1.143139e+00 2.295432e-01 3.433746e-01 5.877804e-01 6.394669e-01 7.158371e-01 7.512004e-01 9.393988e-01 1.033007e+00 1.079644e+00 1.305845e+00 8.742332e-01 8.734846e-01 1.252085e+00 7.923790e-01 7.683937e-01 5.578997e-01 7.211512e-01 6.835331e-01 9.369914e-01 1.006618e+00 9.954947e-01 9.807113e-01 1.302178e+00 8.510865e-01 8.729636e-01 1.366053e+00 7.224811e-01
<GCONST> 6.041409e+01
<MIXTURE> 8 1.373825e-01
<MEAN> 39
 -7.599853e-01 9.019164e-01 3.615802e-01 3.934766e-01 9.196222e-01 8.591698e-02 4.127071e-01 6.387295e-02 -8.369639e-01 2.994535e-02 -4.012116e-01 2.229505e-01 -4.725336e-01 3.097003e-03 8.988702e-02 -2.940612e-01 -2.210859e-01 8.981366e-02 7.987861e-02 1.512199e-01 -2.910183e-02 1.365706e-01 3.396057e-01 1.632565e-01 -1.256981e-01 -6.284000e-01 2.572835e-01 -7.653315e-02 2.641067e-01 1.840615e-01 -1.517934e-01 -2.814092e-01 -2.511592e-01 -8.255802e-02 -6.071276e-02 -1.977213e-01 -9.165850e-02 -2.787754e-02 5.664580e-01
<VARIANCE> 39
 5.379257e-01 6.700652e-01 6.402302e-01 5.886626e-01 4.320864e-01 7.254957e-01 5.612305e-01 8.813074e-01 5.449597e-01 5.783753e-01 6.416390e-01 6.069739e-01 5.160949e-01 1.210070e+00 1.080813e+00 1.131636e+00 8.885113e-01 8.879054e-01 1.357038e+00 1.063123e+00 1.242370e+00 9.942670e-01 1.012934e+00 9.779448e-01 1.114876e+00 2.584708e+00 1.269400e+00 1.368924e+00 1.130940e+00 8.934627e-01 1.023611e+00 1.019004e+00 1.074434e+00 1.199986e+00 1.159726e+00 1.069200e+00 1.088830e+00 1.122123e+00 1.886302e+00
<GCONST> 6.874885e+01
<STATE> 3
<NUMMIXES> 8
<MIXTURE> 1 1.517134e-01
<MEAN> 39
 1.464430e-01 1.334314e-01 1.508263e+00 1.092515e+00 1.359919e-01 -5.162703e-01 -5.783520e-01 -4.123427e-02 -7.338430e-01 -1.006883e+00 -1.111770e+00 4.287054e-01 1.611221e-01 -1.124116e+00 7.528557e-01 -1.117109e+00 -1.554332e-02 1.953326e+00 1.801637e+00 1.587128e+00 1.284574e-01 -2.130044e-01 9.250130e-01 4.103323e-01 -5.209681e-01 -3.246198e+00 -2.180195e-01 1.466970e-01 -3.408886e-01 -2.546553e-01 -1.984744e-01 -4.035211e-02 1.041561e-01 2.226044e-02 -5.039706e-03 4.248572e-01 7.133573e-01 1.601540e-02 5.171965e-01
<VARIANCE> 39
