~o
<STREAMINFO> 1 39
<VECSIZE> 39<NULLD><USER><DIAGC>
~h "a"
<BEGINHMM>
<NUMSTATES> 7
<STATE> 2
<NUMMIXES> 2
<MIXTURE> 1 3.581351e-01
<MEAN> 39
 -5.820392e-01 5.528489e-01 -8.467534e-02 6.763437e-01 8.049871e-01 7.458590e-04 5.938752e-01 -2.524709e-01 -7.892456e-01 -1.433834e-02 -5.106914e-01 3.477892e-01 1.400909e-01 1.080725e+00 1.345019e-01 3.938476e-01 2.806875e-01 -7.227981e-02 -4.029010e-01 -1.758981e-01 5.224501e-02 -4.767422e-02 -1.286372e-01 -3.053311e-01 -1.170543e-01 1.345618e+00 1.111548e+00 -3.575235e-01 1.032150e-01 -3.284912e-01 -5.748776e-01 -4.516540e-01 -3.211268e-01 2.487416e-01 3.561782e-01 2.764617e-01 5.006719e-02 -1.260909e-01 5.069518e-01
<VARIANCE> 39
 6.546038e-01 9.187927e-01 8.613341e-01 6.573821e-01 6.135903e-01 8.678716e-01 7.942377e-01 8.758773e-01 6.097481e-01 5.723923e-01 7.543160e-01 8.428602e-01 5.928673e-01 2.614811e+00 1.536194e+00 1.731036e+00 1.720914e+00 1.496356e+00 1.603644e+00 1.526112e+00 1.491238e+00 1.247281e+00 1.387200e+00 1.308459e+00 1.395125e+00 2.457335e+00 2.078249e+00 1.829612e+00 1.887000e+00 1.548795e+00 1.489581e+00 1.624709e+00 1.623927e+00 1.688697e+00 1.409105e+00 1.473866e+00 1.308188e+00 1.515087e+00 2.559534e+00
<GCONST> 8.046306e+01
<MIXTURE> 2 6.418602e-01
<MEAN> 39
 -4.679055e-01 -5.540922e-02 -3.279730e-01 -4.908390e-03 4.348876e-01 5.723363e-02 5.557720e-02 -2.856254e-01 -3.651693e-01 3.230951e-01 -1.542332e-01 1.789880e-01 -6.982837e-01 2.588823e-02 -1.014083e-01 -5.618466e-02 -2.008357e-02 -3.527249e-02 -4.915407e-02 -9.204764e-03 5.874576e-02 7.888699e-02 4.482073e-02 -4.328350e-03 -9.889437e-03 1.213657e-01 6.409454e-02 -5.078045e-02 -2.405503e-02 -2.023926e-02 -4.215956e-03 -2.593186e-03 5.474798e-02 9.605014e-02 2.622189e-02 -1.959967e-02 -2.940451e-02 4.773688e-03 1.455943e-01
<VARIANCE> 39
 7.738243e-01 8.232422e-01 9.416251e-01 7.335780e-01 7.450437e-01 8.438868e-01 9.542402e-01 1.072328e+00 8.981553e-01 8.663853e-01 1.116351e+00 1.699530e+00 1.335628e+00 2.995979e-01 6.145753e-01 7.166072e-01 7.575669e-01 6.947258e-01 8.594814e-01 8.438748e-01 9.805995e-01 8.884549e-01 8.735883e-01 8.925427e-01 1.034986e+00 6.130602e-01 5.225630e-01 7.234008e-01 9.154760e-01 7.925001e-01 8.577209e-01 9.351872e-01 9.844245e-01 1.093153e+00 1.002232e+00 9.590898e-01 9.409375e-01 1.085456e+00 7.372795e-01
<GCONST> 6.550022e+01
<STATE> 3
<NUMMIXES> 2
<MIXTURE> 1 3.986965e-01
<MEAN> 39
 5.838262e-01 3.029150e-02 -1.192803e-01 7.273151e-01 8.109217e-01 1.111978e-01 2.283141e-01 -2.165613e-01 -7.876532e-01 1.720680e-01 -4.506752e-01 -1.445725e-01 5.072801e-01 1.962343e+00 -7.119914e-01 -7.576577e-01 -8.314346e-01 -6.328559e-01 -5.336351e-01 3.165322e-02 8.346070e-01 8.566396e-01 1.030982e+00 1.679556e-02 -7.321118e-01 2.603439e+00 -3.325021e-01 -9.475980e-01 -9.756837e-01 -1.146803e+00 -8.008764e-01 -3.825904e-01 -5.086879e-02 2.795143e-01 5.998560e-01 7.044247e-01 2.611453e-01 -1.639698e-01 -5.326446e-02
<VARIANCE> 39
 2.938678e-01 3.977560e-01 5.165969e-01 3.783688e-01 4.845490e-01 5.596293e-01 7.799232e-01 1.107028e+00 6.976093e-01 5.902749e-01 7.555837e-01 9.628276e-01 3.978860e-01 1.259937e+00 1.137851e+00 1.881390e+00 1.764231e+00 1.521734e+00 1.648001e+00 1.725576e+00 1.952542e+00 1.869233e+00 1.791645e+00 1.589037e+00 1.800745e+00 1.923839e+00 2.276959e+00 1.382744e+00 1.528699e+00 1.276811e+00 1.312873e+00 1.368619e+00 1.492904e+00 2.096550e+00 1.521799e+00 1.397927e+00 1.346760e+00 1.461133e+00 3.437885e+00
<GCONST> 7.713715e+01
<MIXTURE> 2 6.013032e-01
<MEAN> 39
 3.701168e-01 1.085234e-01 5.918150e-01 6.993944e-01 -9.055109e-02 -9.354506e-01 -2.801268e-01 -9.925862e-02 -5.786825e-01 -3.796851e-02 -7.114592e-01 2.098623e-01 8.996298e-01 1.315156e+00 -1.245463e+00 2.319340e-01 -4.548919e-01 -1.167931e+00 -9.263959e-01 -7.227676e-01 6.130073e-01 6.575996e-01 2.614731e-01 1.281255e-01 2.304687e-01 1.327691e+00 -9.073855e-01 -5.456123e-01 -6.901835e-01 -4.759668e-01 -4.041144e-02 4.861283e-01 3.842514e-01 3.551571e-01 2.331406e-01 2.455720e-01 8.761349e-02 -1.110960e-02 -5.920526e-02
<VARIANCE> 39
 3.650464e-01 6.985390e-01 1.336479e+00 7.349346e-01 6.167782e-01 8.698662e-01 9.093779e-01 9.418872e-01 9.335782e-01 1.027651e+00 8.235508e-01 1.160539e+00 4.296186e-01 2.040886e+00 1.331581e+00 1.936453e+00 1.410452e+00 1.346962e+00 1.477896e+00 1.565205e+00 1.536115e+00 1.519198e+00 1.507620e+00 1.246555e+00 1.285130e+00 8.889441e-01 1.703949e+00 1.280963e+00 1.399980e+00 9.184728e-01 9.659216e-01 1.006611e+00 1.012059e+00 1.122552e+00 9.655027e-01 9.728765e-01 8.570032e-01 1.011211e+00 7.251993e-01
<GCONST> 7.394061e+01
<STATE> 4
<NUMMIXES> 2
<MIXTURE> 1 5.235931e-01
<MEAN> 39
 6.678851e-01 -7.020384e-01 6.276486e-01 3.654257e-01 -9.294574e-01 -1.225773e+00 -6.725890e-01 5.194124e-01 2.104180e-01 8.115451e-02 -5.295827e-01 3.458658e-01 1.355806e+00 2.727190e-01 -1.254779e+00 -8.070591e-01 -9.258559e-01 -8.372730e-01 -3.043165e-01 2.170145e-01 1.144795e+00 1.118526e+00 4.366622e-01 1.067819e-03 -2.054953e-02 1.254537e+00 -9.201545e-01 5.866808e-01 -3.349432e-01 2.066194e-01 9.900443e-01 6.214167e-01 6.347854e-01 -2.609179e-01 -5.629122e-01 -1.711809e-01 -3.421588e-01 -4.401997e-01 -9.841024e-01
<VARIANCE> 39
 1.886210e-01 3.906467e-01 7.457322e-01 4.425023e-01 4.922238e-01 7.650359e-01 8.257831e-01 1.048216e+00 1.393857e+00 7.680436e-01 9.402974e-01 1.257878e+00 1.963934e-01 5.645582e-01 8.127276e-01 1.620843e+00 9.099298e-01 9.796491e-01 1.098635e+00 1.297211e+00 1.525302e+00 1.365937e+00 1.045332e+00 1.066682e+00 1.085849e+00 6.837286e-01 1.100067e+00 7.409289e-01 1.257423e+00 7.971075e-01 9.041976e-01 9.399844e-01 9.735184e-01 1.059040e+00 1.044395e+00 9.195163e-01 8.728683e-01 9.334958e-01 6.725291e-01
<GCONST> 6.496004e+01
<MIXTURE> 2 4.764062e-01
<MEAN> 39
 1.071010e+00 -6.208749e-01 -1.107300e+00 -2.891528e-01 4.339980e-01 -2.255388e-01 2.949693e-01 1.497357e-01 -3.566053e-01 1.406976e+00 -2.790443e-01 -9.506035e-01 1.097151e+00 4.080397e-01 -1.190853e+00 -1.008364e+00 -1.180806e+00 -4.481971e-01 -2.982488e-01 2.352014e-01 5.068218e-01 4.566048e-01 9.486493e-01 -2.651463e-01 -7.823728e-01 1.365136e+00 -1.510466e+00 2.721746e-01 5.829362e-01 4.793081e-01 3.564048e-01 3.022320e-01 1.342675e-01 -7.387176e-02 -2.897096e-01 -8.480619e-01 -3.866234e-01 2.672755e-01 -1.072354e+00
<VARIANCE> 39
 3.312240e-01 4.719498e-01 4.616711e-01 5.338219e-01 4.979386e-01 1.143230e+00 9.664544e-01 1.316037e+00 1.039500e+00 8.435967e-01 1.385110e+00 1.238035e+00 5.425441e-01 1.037244e+00 1.098397e+00 1.326712e+00 1.444128e+00 9.204434e-01 1.385984e+00 1.262369e+00 1.705685e+00 1.566783e+00 1.484496e+00 1.298227e+00 1.323712e+00 1.193338e+00 1.556506e+00 9.881805e-01 1.277744e+00 1.088081e+00 9.421359e-01 1.100772e+00 1.136176e+00 1.200857e+00 1.146795e+00 1.246246e+00 1.186568e+00 1.188987e+00 1.373488e+00
<GCONST> 7.337353e+01
<STATE> 5
<NUMMIXES> 2
<MIXTURE> 1 5.747645e-01
<MEAN> 39
 6.331518e-01 -1.145572e+00 3.729430e-01 1.532738e-01 -1.156223e+00 -1.217025e+00 -3.445254e-01 1.257354e+00 6.938901e-01 3.234811e-03 -5.788251e-01 2.116583e-01 1.645766e+00 -2.647039e-02 -2.523389e-01 -2.830742e-01 -1.191748e-01 9.674094e-02 1.724810e-02 1.759789e-01 2.728342e-01 8.468010e-02 -1.961477e-02 -1.347809e-01 -2.046023e-01 1.909481e-01 -3.676537e-03 4.228516e-01 1.399445e-01 2.076340e-01 3.533402e-01 3.651025e-02 -7.854939e-02 -3.583980e-01 -4.151175e-01 1.093969e-02 2.732501e-02 2.293167e-02 -4.992707e-01
<VARIANCE> 39
 1.475862e-01 3.309956e-01 6.228997e-01 3.716925e-01 3.649770e-01 7.442172e-01 8.706865e-01 1.074175e+00 1.481743e+00 6.632190e-01 9.115705e-01 1.191566e+00 1.552981e-01 2.758865e-01 4.087935e-01 9.402448e-01 4.987353e-01 5.431731e-01 5.706833e-01 7.070571e-01 6.945746e-01 5.824308e-01 5.541835e-01 7.588588e-01 8.432224e-01 2.277830e-01 3.436634e-01 3.905653e-01 5.493186e-01 4.471591e-01 5.194371e-01 5.425652e-01 5.818704e-01 6.113830e-01 5.409937e-01 4.947070e-01 5.618035e-01 5.692499e-01 3.595424e-01
<GCONST> 4.695588e+01
<MIXTURE> 2 4.252374e-01
<MEAN> 39
 8.108215e-01 -1.117306e+00 -9.872725e-01 -4.527093e-01 7.821792e-02 -6.553258e-01 2.942735e-01 8.361768e-01 1.888556e-01 1.208071e+00 -1.090766e+00 -9.793069e-01 1.359154e+00 -1.693075e-01 -4.340066e-01 -4.952358e-01 -3.957523e-01 3.069182e-01 1.935225e-01 4.399972e-01 4.707654e-01 4.024157e-02 -6.102096e-02 -5.104480e-01 -4.755039e-01 4.146441e-01 -1.849655e-01 6.683241e-01 6.119753e-01 5.176283e-01 1.639097e-01 1.504582e-01 -2.096784e-01 -3.601103e-01 -3.682943e-01 -4.847637e-01 2.470531e-01 2.759877e-01 -7.148526e-01
<VARIANCE> 39
 3.186868e-01 5.788757e-01 6.626891e-01 5.519701e-01 6.892248e-01 1.704212e+00 1.035463e+00 1.799183e+00 1.505643e+00 1.091025e+00 1.404588e+00 1.407868e+00 5.670004e-01 4.556745e-01 6.469766e-01 1.213255e+00 8.593190e-01 9.130646e-01 1.052636e+00 9.709413e-01 1.212654e+00 8.639863e-01 8.952600e-01 9.440632e-01 1.073118e+00 5.212675e-01 7.040133e-01 6.736356e-01 9.935804e-01 8.749743e-01 9.128985e-01 9.621426e-01 9.134136e-01 1.113622e+00 1.001887e+00 9.082371e-01 8.541074e-01 8.988637e-01 7.577096e-01
<GCONST> 6.678893e+01
<STATE> 6
<NUMMIXES> 2
<MIXTURE> 1 5.253400e-01
<MEAN> 39
 8.705249e-01 -1.346722e+00 -7.106977e-01 -2.614056e-01 -1.733167e-01 -9.523796e-01 5.286552e-02 1.388062e+00 4.091607e-01 8.585392e-01 -1.223643e+00 -1.112665e+00 1.683442e+00 -6.780041e-03 8.199701e-02 2.704659e-01 1.937143e-01 -1.217029e-01 -1.624258e-01 -1.865869e-01 2.259396e-03 -1.184609e-01 -1.101314e-01 1.870799e-01 2.239276e-01 -8.635381e-02 4.584797e-02 2.096675e-01 1.806884e-01 1.546220e-01 -3.381172e-03 2.103332e-02 -1.297694e-01 -2.872185e-01 -1.556932e-01 1.983928e-02 1.962030e-01 1.549472e-01 -3.144262e-01
<VARIANCE> 39
 1.144998e-01 2.878879e-01 7.640547e-01 3.978693e-01 6.397125e-01 1.413783e+00 9.357650e-01 1.476270e+00 1.251307e+00 1.014986e+00 1.031263e+00 1.459159e+00 1.309950e-01 1.805918e-01 2.542960e-01 5.717219e-01 4.364464e-01 4.709502e-01 5.980303e-01 5.964595e-01 6.285891e-01 5.101422e-01 4.940731e-01 6.174224e-01 6.476027e-01 1.420605e-01 2.285445e-01 2.677618e-01 3.899931e-01 3.568488e-01 4.275135e-01 4.963461e-01 5.029043e-01 4.689420e-01 4.242945e-01 4.250496e-01 4.654898e-01 4.609134e-01 2.460449e-01
<GCONST> 4.253349e+01
<MIXTURE> 2 4.746190e-01
<MEAN> 39
 8.778287e-01 -1.134833e+00 -1.596462e+00 -8.637300e-01 7.761918e-01 1.958457e-01 9.314866e-01 4.583833e-01 -3.860131e-01 1.392203e+00 -1.131942e+00 -1.827911e+00 1.434124e+00 -4.017139e-02 5.327205e-02 5.404567e-03 -1.720054e-02 7.618684e-02 5.485153e-02 6.947202e-03 -1.759145e-02 -4.751157e-02 -2.984231e-02 -1.677695e-02 1.051010e-02 -5.384157e-02 3.116700e-02 1.319662e-01 1.655831e-01 1.710405e-01 -9.343458e-02 -9.537625e-02 -1.295925e-01 -1.605211e-03 4.691269e-02 -5.052566e-02 9.081209e-02 1.443472e-01 -2.219076e-01
<VARIANCE> 39
 2.138321e-01 4.583830e-01 5.743181e-01 6.123027e-01 6.626251e-01 1.475247e+00 8.954406e-01 1.609439e+00 1.148269e+00 8.927708e-01 1.174130e+00 1.397299e+00 3.893986e-01 2.460004e-01 3.724900e-01 4.876066e-01 5.392170e-01 4.969517e-01 6.485436e-01 5.764723e-01 6.744649e-01 5.323489e-01 5.430439e-01 5.711265e-01 6.588118e-01 3.628746e-01 3.660141e-01 4.144766e-01 5.506611e-01 4.975628e-01 5.218382e-01 5.799873e-01 5.567836e-01 5.340533e-01 4.838697e-01 5.227147e-01 4.754139e-01 5.833571e-01 3.867404e-01
<GCONST> 4.999831e+01
<TRANSP> 7
 0.000000e+00 1.000000e+00 0.000000e+00 0.000000e+00 0.000000e+00 0.000000e+00 0.000000e+00
 0.000000e+00 7.870578e-01 2.129422e-01 0.000000e+00 0.000000e+00 0.000000e+00 0.000000e+00
 0.000000e+00 0.000000e+00 5.202841e-01 4.797159e-01 0.000000e+00 0.000000e+00 0.000000e+00
 0.000000e+00 0.000000e+00 0.000000e+00 5.576319e-01 4.423681e-01 0.000000e+00 0.000000e+00
 0.000000e+00 0.000000e+00 0.000000e+00 0.000000e+00 6.799502e-01 3.200499e-01 0.000000e+00
 0.000000e+00 0.000000e+00 0.000000e+00 0.000000e+00 0.000000e+00 8.691732e-01 1.308269e-01
 0.000000e+00 0.000000e+00 0.000000e+00 0.000000e+00 0.000000e+00 0.000000e+00 0.000000e+00
<ENDHMM>
~h "b"
<BEGINHMM>
<NUMSTATES> 7
<STATE> 2
<NUMMIXES> 2
<MIXTURE> 1 4.529196e-01
<MEAN> 39
 9.647760e-01 -5.474003e-02 -4.662865e-01 1.510987e-01 2.771182e-01 -3.223492e-01 -3.506095e-01 -2.971146e-01 -8.220503e-01 4.234945e-01 1.714478e-01 -2.696897e-01 2.923056e-01 -8.278053e-01 1.138853e+00 6.874332e-01 9.240781e-01 1.247157e+00 1.307295e+00 3.069074e-01 -7.131268e-01 -5.757358e-01 -7.132363e-01 4.214589e-02 3.996775e-01 -2.583881e+00 -1.429344e+00 1.593753e-01 9.136950e-01 5.963954e-01 4.359185e-01 5.499496e-01 7.333436e-01 3.684126e-01 1.880374e-01 -6.502804e-01 -7.819430e-01 6.562401e-02 -6.665094e-01
<VARIANCE> 39
 3.726154e-01 5.032742e-01 8.956310e-01 8.824841e-01 3.765089e-01 9.224354e-01 9.086568e-01 9.189067e-01 1.056798e+00 1.291831e+00 1.006056e+00 1.010774e+00 5.838770e-01 1.054619e+00 9.058822e-01 2.000254e+00 2.065545e+00 1.143319e+00 1.768548e+00 1.666732e+00 1.563107e+00 1.665624e+00 2.273161e+00 1.337519e+00 1.969297e+00 1.765779e+00 1.518639e+00 8.805803e-01 1.151651e+00 9.883875e-01 1.089303e+00 1.291201e+00 1.288679e+00 1.274642e+00 1.216185e+00 1.399810e+00 1.306583e+00 1.181391e+00 1.693367e+00
<GCONST> 7.697375e+01
<MIXTURE> 2 5.470830e-01
<MEAN> 39
 7.599690e-01 -4.365553e-01 -3.769619e-01 1.049948e-01 -5.136738e-02 -5.602340e-01 -7.810371e-02 2.127579e-01 -1.029501e-01 4.565404e-01 -3.241446e-01 -4.449954e-01 6.081545e-01 2.655194e-01 3.716602e-01 -3.180438e-02 2.689413e-01 3.247584e-01 8.234467e-02 -3.491996e-01 -3.474152e-01 -3.555925e-01 1.941760e-02 3.231312e-01 -4.912441e-02 -6.660641e-01 -3.927511e-01 4.124329e-01 7.933276e-02 1.106451e-01 4.139197e-01 5.296597e-01 1.458203e-01 -3.292930e-01 -2.670792e-01 -1.539052e-01 3.146832e-02 1.179604e-01 -9.962034e-01
<VARIANCE> 39
 3.721643e-01 8.020456e-01 1.379406e+00 8.830631e-01 8.467318e-01 1.610030e+00 1.202111e+00 1.031688e+00 1.663375e+00 1.611843e+00 1.127318e+00 2.148047e+00 9.403344e-01 7.506397e-01 9.033678e-01 1.371177e+00 9.643322e-01 1.070042e+00 1.169251e+00 1.040163e+00 1.130282e+00 1.335841e+00 1.262474e+00 1.293699e+00 1.226494e+00 1.573325e+00 1.153778e+00 8.513543e-01 1.319494e+00 9.580291e-01 1.040789e+00 1.333763e+00 1.087422e+00 1.076293e+00 1.190046e+00 1.336206e+00 8.655699e-01 1.238852e+00 1.659928e+00
<GCONST> 7.645627e+01
<STATE> 3
<NUMMIXES> 2
<MIXTURE> 1 4.966380e-01
<MEAN> 39
 5.056145e-01 2.697371e-01 1.807817e-01 9.844710e-01 1.054137e+00 5.257883e-01 -1.804524e-02 -5.794104e-01 -1.152182e+00 -3.666999e-01 -1.866734e-01 1.659211e-01 -4.141204e-01 -1.477525e+00 1.008581e+00 9.489753e-01 1.056837e+00 1.290906e+00 1.270070e+00 8.221626e-01 -1.628463e-01 -9.792310e-02 -6.333031e-01 -5.119005e-01 9.950805e-02 -2.557371e+00 7.425476e-01 -1.828950e-01 -9.497144e-02 -6.702337e-01 -9.640009e-01 -1.001387e+00 -1.075339e-01 6.424911e-01 5.626247e-01 4.667265e-01 -6.303991e-02 -3.812549e-01 1.717820e+00
<VARIANCE> 39
 1.349392e-01 2.539384e-01 4.776760e-01 3.843180e-01 3.375366e-01 5.205025e-01 5.139078e-01 6.101708e-01 6.322330e-01 4.970680e-01 5.956720e-01 7.384162e-01 1.207512e-01 5.933424e-01 7.516251e-01 1.680944e+00 1.449713e+00 9.621742e-01 1.432452e+00 1.147822e+00 1.099912e+00 1.453802e+00 2.128904e+00 1.279321e+00 1.584932e+00 9.108354e-01 9.400730e-01 9.890653e-01 1.554407e+00 1.201081e+00 9.992403e-01 1.220752e+00 1.147784e+00 1.178021e+00 1.283090e+00 1.569215e+00 1.089908e+00 1.435874e+00 1.138830e+00
<GCONST> 6.432690e+01
<MIXTURE> 2 5.033606e-01
<MEAN> 39
 3.437073e-01 8.167045e-01 -4.818273e-02 3.076936e-01 6.638172e-01 4.417145e-01 3.416487e-01 -3.614378e-01 -8.005251e-01 -1.508531e-01 -3.665760e-01 -1.943851e-01 -8.075325e-01 -3.866144e-01 7.524678e-01 8.549664e-01 7.582282e-01 7.488324e-01 4.800388e-01 2.137982e-01 -6.356104e-02 -2.068696e-01 -3.887177e-01 -2.674401e-01 -9.693365e-02 -8.791417e-01 -1.693194e-01 -3.621046e-01 3.035094e-01 1.340990e-01 -2.577217e-01 -3.089829e-01 -1.806077e-01 1.920432e-01 2.261104e-01 -1.468251e-01 -7.907011e-02 8.022194e-02 5.000741e-01
<VARIANCE> 39
 3.984952e-01 3.224457e-01 4.299676e-01 4.027733e-01 3.784272e-01 5.535398e-01 5.879867e-01 7.729504e-01 6.712787e-01 6.614451e-01 5.931245e-01 7.643132e-01 3.322756e-01 1.213936e+00 9.963228e-01 1.197482e+00 9.369161e-01 8.046206e-01 9.532002e-01 1.046344e+00 1.164004e+00 1.132806e+00 1.245511e+00 9.047905e-01 1.083954e+00 1.029926e+00 9.746265e-01 7.140571e-01 1.149195e+00 8.002343e-01 7.851498e-01 9.750862e-01 1.030252e+00 1.236938e+00 1.053557e+00 1.211774e+00 9.555621e-01 1.055164e+00 7.924131e-01
<GCONST> 6.295560e+01
<STATE> 4
<NUMMIXES> 2
<MIXTURE> 1 6.423344e-01
<MEAN> 39
 2.082057e-01 9.587198e-01 6.500086e-01 1.247609e+00 1.378807e+00 8.156587e-01 4.375306e-01 -4.508402e-01 -1.106255e+00 -6.889339e-01 -7.079563e-01 -1.578314e-01 -1.009035e+00 -5.705052e-01 5.085919e-01 6.231350e-01 1.967420e-01 7.629395e-02 -2.993825e-02 2.128226e-01 2.557455e-01 4.002768e-01 -1.219236e-01 -2.478792e-01 -9.189137e-02 -7.690969e-01 5.769803e-01 -8.315073e-01 -5.185181e-01 -5.750939e-01 -9.407444e-01 -6.313986e-01 -3.511106e-01 1.318200e-01 2.280558e-01 3.397706e-01 4.893955e-01 2.505080e-01 1.628583e+00
<VARIANCE> 39
 7.948458e-02 2.328840e-01 2.959329e-01 2.436591e-01 2.867096e-01 4.350256e-01 3.876406e-01 5.335679e-01 3.923456e-01 4.227135e-01 5.871973e-01 7.840415e-01 8.528830e-02 3.073926e-01 1.142413e+00 8.642190e-01 6.421456e-01 7.661545e-01 8.261018e-01 7.571794e-01 8.131168e-01 9.264560e-01 7.438816e-01 9.534268e-01 1.103489e+00 8.048753e-01 6.340264e-01 1.004287e+00 1.185298e+00 7.262546e-01 8.106335e-01 1.005599e+00 8.617185e-01 8.637040e-01 9.422296e-01 9.845351e-01 1.050567e+00 1.104554e+00 9.854908e-01
<GCONST> 5.220840e+01
<MIXTURE> 2 3.576659e-01
<MEAN> 39
 1.151481e-01 6.230918e-01 3.886998e-01 7.944481e-01 8.277587e-01 3.286142e-01 1.463195e-01 -1.433514e-01 -5.967686e-01 -4.109860e-01 -4.564146e-01 -2.923766e-02 -8.519667e-01 -2.178252e-01 2.193700e-01 3.615151e-01 1.693343e-01 1.308313e-01 2.391879e-01 2.376722e-01 9.244733e-02 3.596166e-02 -1.552408e-01 -1.253568e-03 -7.327587e-02 -2.444183e-01 5.228721e-01 -1.427975e-01 -8.259283e-01 -7.081230e-01 -4.002951e-01 -2.043029e-01 -8.055984e-02 -6.839357e-02 -1.636794e-01 5.333754e-01 2.925491e-01 3.788933e-02 5.668458e-01
<VARIANCE> 39
 2.707807e-01 4.807915e-01 4.044859e-01 4.453489e-01 3.215702e-01 4.761126e-01 4.864619e-01 6.322867e-01 5.494951e-01 8.602628e-01 6.126812e-01 8.673620e-01 3.427829e-01 1.028364e+00 1.269489e+00 1.053559e+00 9.454944e-01 7.664422e-01 9.183224e-01 9.646919e-01 1.082247e+00 1.151724e+00 1.215172e+00 9.598042e-01 1.142758e+00 9.811796e-01 2.176752e+00 1.793500e+00 1.690200e+00 1.053053e+00 9.844335e-01 1.051063e+00 1.038916e+00 1.227662e+00 1.432504e+00 1.666025e+00 1.006206e+00 1.399288e+00 1.781198e+00
<GCONST> 6.678602e+01
<STATE> 5
<NUMMIXES> 2
<MIXTURE> 1 6.157715e-01
<MEAN> 39
 1.271905e-03 1.338821e+00 8.194156e-01 1.048376e+00 1.023872e+00 5.771829e-01 5.310599e-01 -1.204756e-01 -6.629924e-01 -2.335328e-01 -7.030308e-01 -3.659272e-01 -1.385370e+00 -1.595743e-01 -3.302623e-01 2.619137e-02 1.375804e-01 -4.015879e-03 -4.380091e-02 -1.810477e-02 6.225172e-02 9.984834e-02 -1.093489e-01 8.095577e-02 1.779798e-01 1.935951e-01 1.470938e-02 -6.341062e-01 -2.879945e-01 -1.962200e-01 -1.853579e-01 -6.168952e-03 -6.132505e-02 -7.055038e-04 7.823927e-02 -1.298355e-03 2.325102e-01 2.602757e-01 7.427144e-01
<VARIANCE> 39
 6.149605e-02 1.672029e-01 1.859701e-01 2.361664e-01 1.894083e-01 3.596669e-01 2.779852e-01 5.065495e-01 3.248612e-01 5.129808e-01 5.060070e-01 6.456382e-01 9.137378e-02 1.798583e-01 7.499381e-01 5.698410e-01 5.020584e-01 4.500801e-01 5.749928e-01 5.951623e-01 6.676639e-01 6.634755e-01 6.884187e-01 8.065111e-01 9.069455e-01 5.220706e-01 3.416989e-01 4.825799e-01 7.356060e-01 5.921202e-01 5.953529e-01 6.756684e-01 7.468026e-01 7.796088e-01 7.522548e-01 7.913033e-01 8.886278e-01 9.346367e-01 5.320676e-01
<GCONST> 4.132816e+01
<MIXTURE> 2 3.842286e-01
<MEAN> 39
 -2.862337e-02 7.101682e-01 4.020818e-01 6.377612e-01 7.486762e-01 5.391095e-01 4.264352e-01 -1.204717e-01 -4.544598e-01 -1.962295e-01 -1.365980e-01 1.789069e-01 -9.294127e-01 1.594722e-01 -4.726767e-02 -5.557035e-01 -4.660882e-01 -6.764490e-02 1.446197e-01 3.196741e-02 -1.502066e-01 -1.799875e-01 4.255700e-01 3.566565e-01 1.292123e-01 1.828760e-01 3.464590e-01 2.034284e-01 -8.177793e-03 2.324949e-01 1.916141e-01 -1.369810e-01 -8.493431e-02 -9.983321e-02 -2.567702e-01 -2.588212e-02 -2.506816e-01 -1.732001e-01 2.016957e-01
<VARIANCE> 39
 1.278295e-01 2.990171e-01 3.048083e-01 3.366879e-01 2.452778e-01 3.622345e-01 3.006778e-01 5.950195e-01 4.079849e-01 7.572350e-01 4.462350e-01 6.271107e-01 1.665953e-01 3.930149e-01 1.293806e+00 1.031015e+00 8.631144e-01 6.916102e-01 7.213625e-01 7.296973e-01 8.681796e-01 8.981914e-01 1.248733e+00 7.599752e-01 1.012004e+00 9.313220e-01 9.360722e-01 1.428626e+00 1.568947e+00 1.071538e+00 8.773404e-01 9.205034e-01 8.414150e-01 1.073252e+00 1.065742e+00 1.690975e+00 7.767364e-01 1.037148e+00 1.878714e+00
<GCONST> 5.708830e+01
<STATE> 6
<NUMMIXES> 2
<MIXTURE> 1 3.678044e-01
<MEAN> 39
 -5.018053e-01 -1.451907e-02 -1.610808e-01 1.482753e-01 5.244457e-01 3.650463e-01 2.071334e-01 -4.445052e-02 -1.523284e-01 -3.162059e-01 2.812411e-01 7.576068e-01 -8.328308e-01 3.276445e-01 -5.175198e-01 -5.797438e-01 -3.818641e-01 -2.804706e-01 -1.489448e-01 -2.835075e-02 -1.432290e-01 -4.352709e-02 2.243432e-01 2.530132e-01 1.878951e-01 1.042471e+00 7.974589e-01 7.741556e-01 -1.878522e-01 -3.560179e-01 -7.011682e-03 4.807434e-02 1.459818e-01 -8.269343e-02 -3.250749e-01 4.449179e-01 -3.049386e-01 -5.670585e-01 2.248065e-01
<VARIANCE> 39
 3.925505e-01 3.565878e-01 4.538668e-01 6.208287e-01 5.469604e-01 5.384968e-01 3.493360e-01 6.775393e-01 8.288819e-01 4.416062e-01 6.057502e-01 7.749162e-01 2.165803e-01 5.579569e-01 1.445505e+00 1.151704e+00 1.096160e+00 6.432098e-01 8.010649e-01 7.083275e-01 9.058134e-01 1.178156e+00 1.335721e+00 8.481690e-01 1.118877e+00 1.258075e+00 1.033781e+00 1.547333e+00 1.483757e+00 1.183115e+00 9.818319e-01 9.959767e-01 8.761708e-01 1.100218e+00 1.333179e+00 1.331089e+00 9.331529e-01 1.123671e+00 2.576813e+00
<GCONST> 6.457262e+01
<MIXTURE> 2 6.321865e-01
<MEAN> 39
 -8.876797e-01 2.845669e-01 -6.609205e-01 -8.711697e-01 1.673451e-01 4.321347e-01 2.432238e-01 -9.352221e-02 3.584295e-02 2.083590e-01 2.902441e-01 1.932905e-01 -1.418423e+00 -8.214166e-02 7.462365e-02 1.638555e-01 1.370731e-01 8.356390e-02 1.039311e-02 -1.485171e-02 7.695976e-02 -9.914096e-04 -9.342133e-02 -1.047653e-01 -4.974189e-02 -1.460964e-01 -1.032621e-01 -2.800627e-01 1.623617e-01 2.109384e-01 -1.308089e-03 -5.909133e-02 -4.810952e-02 1.005814e-01 1.553495e-01 -2.111790e-01 1.849387e-02 1.488128e-01 2.614017e-01
<VARIANCE> 39
 5.458121e-02 1.046938e-01 3.120160e-01 1.934322e-01 3.788050e-01 5.056684e-01 2.954019e-01 6.646309e-01 3.926462e-01 3.906811e-01 6.339893e-01 7.856179e-01 7.293100e-02 1.615324e-01 3.932754e-01 4.786199e-01 5.612530e-01 5.391101e-01 7.443135e-01 7.252396e-01 8.382031e-01 6.997899e-01 8.779196e-01 8.826150e-01 1.139714e+00 2.969721e-01 4.135084e-01 4.676282e-01 7.999018e-01 7.029309e-01 7.693604e-01 8.803300e-01 9.045205e-01 9.723256e-01 9.165565e-01 1.022706e+00 1.064747e+00 1.125532e+00 2.499692e-01
<GCONST> 4.405031e+01
<TRANSP> 7
 0.000000e+00 1.000000e+00 0.000000e+00 0.000000e+00 0.000000e+00 0.000000e+00 0.000000e+00
 0.000000e+00 6.867716e-01 3.132284e-01 0.000000e+00 0.000000e+00 0.000000e+00 0.000000e+00
 0.000000e+00 0.000000e+00 5.395202e-01 4.604798e-01 0.000000e+00 0.000000e+00 0.000000e+00
 0.000000e+00 0.000000e+00 0.000000e+00 5.944567e-01 4.055432e-01 0.000000e+00 0.000000e+00
 0.000000e+00 0.000000e+00 0.000000e+00 0.000000e+00 8.745072e-01 1.254928e-01 0.000000e+00
 0.000000e+00 0.000000e+00 0.000000e+00 0.000000e+00 0.000000e+00 8.926128e-01 1.073872e-01
 0.000000e+00 0.000000e+00 0.000000e+00 0.000000e+00 0.000000e+00 0.000000e+00 0.000000e+00
<ENDHMM>
~h "d"
<BEGINHMM>
<NUMSTATES> 7
<STATE> 2
<NUMMIXES> 2
<MIXTURE> 1 4.683732e-01
<MEAN> 39
 2.319839e-01 3.810928e-01 2.986951e-01 1.261538e-01 4.308327e-02 4.454859e-02 1.444342e-01 -2.994777e-01 -8.370674e-01 -7.544152e-02 -3.451997e-01 1.194237e-01 -4.883455e-02 7.279165e-02 2.061819e-01 3.009484e-01 3.636079e-01 2.119634e-01 3.011985e-03 -1.562066e-01 -7.561522e-02 -4.305033e-02 -7.366426e-02 -1.031638e-01 -1.246654e-01 -2.825575e-01 -2.455770e-01 5.530974e-02 4.138312e-02 1.878929e-01 2.821465e-01 2.680082e-02 4.190730e-02 1.535724e-01 -6.056306e-02 -1.031850e-01 -1.224907e-01 -4.720793e-02 -1.655117e-01
<VARIANCE> 39
 7.337134e-01 6.342679e-01 1.566815e+00 1.352245e+00 9.073387e-01 1.018927e+00 9.512413e-01 1.198303e+00 9.872552e-01 1.204718e+00 1.003617e+00 1.124409e+00 7.325538e-01 1.337464e+00 1.312845e+00 1.777908e+00 1.984693e+00 1.333049e+00 1.372029e+00 1.359677e+00 1.356223e+00 1.187116e+00 1.464364e+00 1.028595e+00 1.196039e+00 2.460792e+00 1.336033e+00 1.148436e+00 1.669367e+00 1.397402e+00 1.125589e+00 1.188336e+00 1.165854e+00 1.326833e+00 1.121002e+00 1.418195e+00 1.036057e+00 1.162959e+00 1.727747e+00
<GCONST> 7.959792e+01
<MIXTURE> 2 5.316224e-01
<MEAN> 39
 8.439171e-01 -6.234246e-01 3.219341e-01 3.837316e-01 -4.594988e-01 -1.243083e+00 -1.122110e+00 1.366937e-01 -2.062935e-01 3.372498e-01 -5.979298e-01 -5.575151e-02 1.194503e+00 -2.070083e-01 5.054292e-01 8.372080e-01 5.160733e-01 3.489404e-01 1.633352e-02 -3.305463e-01 -4.140197e-01 -2.665716e-01 -5.261655e-01 -4.009656e-01 3.071458e-02 -9.461505e-01 -5.916372e-01 3.495223e-01 -4.685520e-02 1.953346e-01 5.926683e-01 6.935560e-01 5.587528e-01 -9.689169e-02 -2.284099e-01 -1.297312e-01 -2.382402e-02 -1.084068e-01 -1.446715e+00
<VARIANCE> 39
 1.907157e-01 4.062141e-01 9.595253e-01 6.980922e-01 6.081811e-01 1.110094e+00 7.606336e-01 1.548745e+00 1.679711e+00 1.296705e+00 9.846221e-01 1.347381e+00 2.301844e-01 3.285237e-01 6.077538e-01 9.070301e-01 7.638937e-01 7.758997e-01 9.417956e-01 8.603410e-01 1.202502e+00 9.334167e-01 7.950896e-01 8.375323e-01 1.024513e+00 1.301748e+00 7.016776e-01 4.689865e-01 8.402006e-01 7.232099e-01 7.777275e-01 1.045396e+00 9.848773e-01 8.777843e-01 9.583294e-01 8.647032e-01 7.460711e-01 1.005975e+00 1.193127e+00
<GCONST> 6.337602e+01
<STATE> 3
<NUMMIXES> 2
<MIXTURE> 1 5.176468e-01
<MEAN> 39
 3.706668e-01 5.172374e-02 1.409326e+00 1.071311e+00 -6.706055e-02 -9.099197e-01 -1.024447e+00 -2.026500e-01 -6.781810e-01 -9.213142e-01 -1.152158e+00 3.356019e-01 4.708723e-01 -1.077291e+00 7.398808e-01 -3.058895e-01 2.368306e-01 1.569144e+00 1.457227e+00 1.170123e+00 -4.058410e-02 -2.192862e-01 2.199281e-01 -7.204371e-02 -2.940804e-01 -2.828407e+00 -6.556191e-01 4.211370e-02 -9.831114e-01 -3.250917e-01 3.936422e-01 7.338793e-01 9.105698e-01 2.747872e-01 -2.886811e-02 7.458044e-01 7.200779e-01 -9.896149e-02 -7.506611e-01
<VARIANCE> 39
 1.899794e-01 3.720285e-01 6.232452e-01 3.771077e-01 4.430957e-01 9.123496e-01 6.311418e-01 8.996691e-01 9.609151e-01 7.223206e-01 6.125029e-01 1.153111e+00 2.720498e-01 5.859044e-01 7.489867e-01 1.727162e+00 1.132506e+00 9.941125e-01 1.541529e+00 1.148307e+00 1.342292e+00 1.594589e+00 1.338811e+00 1.064571e+00 1.271917e+00 1.253752e+00 6.953422e-01 6.835788e-01 1.189732e+00 8.565643e-01 9.237221e-01 1.423413e+00 1.115214e+00 1.106574e+00 1.048268e+00 9.853886e-01 8.464658e-01 1.336236e+00 1.643888e+00
<GCONST> 6.649947e+01
<MIXTURE> 2 4.823566e-01
<MEAN> 39
 3.285227e-01 5.106460e-01 4.924558e-02 4.499078e-02 4.900238e-01 1.169451e-01 -9.507312e-02 -6.919977e-01 -8.786519e-01 2.645374e-01 -4.835497e-01 -1.497284e-01 -2.022785e-01 -8.585243e-01 6.414180e-01 9.617181e-01 1.269311e+00 8.901267e-01 3.628865e-01 1.765959e-01 -4.611591e-02 -3.677009e-01 -8.433147e-01 -2.864794e-01 4.812147e-03 -1.638079e+00 -5.971944e-01 -2.056868e-01 -3.230666e-02 5.512425e-02 1.388527e-01 1.620749e-01 4.501445e-01 5.202145e-01 4.738567e-02 -1.345495e-01 2.048263e-02 2.128450e-01 1.160035e-01
<VARIANCE> 39
 6.547788e-01 5.217814e-01 6.254455e-01 9.319800e-01 5.092701e-01 1.117550e+00 1.053406e+00 1.102386e+00 8.168450e-01 7.617947e-01 8.144903e-01 1.021261e+00 6.290702e-01 1.518308e+00 1.034186e+00 1.440664e+00 2.084328e+00 1.002548e+00 1.445150e+00 1.195798e+00 1.460071e+00 1.416324e+00 1.495923e+00 1.076483e+00 1.418311e+00 2.517309e+00 1.266522e+00 9.581220e-01 1.320888e+00 1.415565e+00 9.625199e-01 1.290487e+00 1.272912e+00 1.322509e+00 1.165903e+00 1.253249e+00 1.132037e+00 1.226583e+00 1.833973e+00
<GCONST> 7.597426e+01
<STATE> 4
<NUMMIXES> 2
<MIXTURE> 1 5.216451e-01
<MEAN> 39
 3.798857e-02 1.871636e-01 9.837440e-01 1.141998e+00 8.435712e-01 1.054980e-01 -2.535672e-01 -1.696464e-01 -7.461594e-01 -4.689897e-01 -8.996468e-01 4.887666e-02 -3.396028e-01 -1.180851e+00 7.470186e-01 -4.727643e-01 8.801097e-02 1.268014e+00 1.366184e+00 1.408905e+00 1.767468e-01 -1.558215e-01 4.191159e-01 4.268574e-01 -1.807561e-01 -2.387750e+00 6.385832e-01 1.669451e-01 -3.248687e-03 -5.680465e-01 -9.526035e-01 -9.874821e-01 -4.796791e-01 9.468844e-02 1.195475e-01 1.034532e-01 8.399349e-02 9.380499e-02 1.870830e+00
<VARIANCE> 39
 1.181365e-01 3.053046e-01 3.749144e-01 3.061066e-01 3.583795e-01 6.102948e-01 4.562651e-01 6.644987e-01 5.263647e-01 4.802681e-01 6.228499e-01 7.363110e-01 1.470817e-01 6.208012e-01 8.200076e-01 1.511158e+00 1.217583e+00 9.037346e-01 1.415792e+00 1.021253e+00 1.347824e+00 1.564187e+00 1.393376e+00 9.991419e-01 1.558464e+00 1.063439e+00 8.108203e-01 1.052824e+00 1.220638e+00 9.200869e-01 9.758102e-01 1.347998e+00 1.077828e+00 1.227865e+00 1.364880e+00 1.150990e+00 9.946963e-01 1.162774e+00 1.594706e+00
<GCONST> 6.276517e+01
<MIXTURE> 2 4.783568e-01
<MEAN> 39
 2.486823e-02 8.050045e-01 2.694561e-01 3.065752e-01 8.720000e-01 5.489267e-01 3.245835e-01 -6.468846e-01 -1.222700e+00 -1.632603e-01 -3.906353e-01 1.245951e-01 -6.079962e-01 -8.068320e-01 3.602084e-01 8.145181e-01 1.049185e+00 6.584948e-01 -1.534280e-02 1.237578e-01 2.805627e-01 -6.373683e-02 -5.226846e-01 -2.913635e-01 -7.883331e-02 -9.220337e-01 2.436068e-01 -4.535871e-01 -3.920604e-01 -7.119309e-01 -5.518152e-01 -3.722368e-01 -1.261597e-01 3.101440e-01 5.235662e-01 4.009177e-01 -1.996548e-02 -6.477019e-02 1.315815e+00
<VARIANCE> 39
 4.168825e-01 4.489583e-01 5.496626e-01 5.654593e-01 4.796763e-01 7.169510e-01 5.174230e-01 8.827145e-01 7.068669e-01 6.290979e-01 7.426871e-01 9.816158e-01 3.487242e-01 1.388882e+00 1.074757e+00 1.363447e+00 1.542470e+00 9.178356e-01 1.175823e+00 1.077094e+00 1.247574e+00 1.168826e+00 1.292094e+00 1.161755e+00 1.348485e+00 1.590736e+00 1.231902e+00 1.025042e+00 1.284119e+00 1.428373e+00 9.252287e-01 1.076163e+00 9.664556e-01 1.261312e+00 1.096666e+00 1.263875e+00 1.016919e+00 1.267803e+00 1.746818e+00
<GCONST> 6.981493e+01
<STATE> 5
<NUMMIXES> 2
<MIXTURE> 1 4.765425e-01
<MEAN> 39
 -1.853589e-01 9.631053e-01 8.245396e-01 8.262160e-01 1.024836e+00 3.939364e-01 3.745024e-01 -1.268061e-01 -8.138202e-01 -2.900191e-01 -5.985067e-01 -8.102991e-02 -9.139479e-01 -4.512472e-01 6.375948e-01 -3.055467e-01 -3.056755e-01 3.341897e-01 2.478917e-01 4.790272e-01 7.927423e-02 -8.451439e-02 3.464330e-01 1.103813e-01 -1.699459e-01 -7.180048e-01 3.216405e-02 -3.900810e-01 3.501361e-01 9.071665e-02 -4.752777e-01 -5.298102e-01 -5.002878e-01 -1.151594e-01 -4.678576e-02 -3.413429e-01 -2.414226e-01 1.558184e-01 1.412245e+00
<VARIANCE> 39
 1.126016e-01 3.321702e-01 3.157175e-01 2.548997e-01 2.881652e-01 5.108986e-01 3.482299e-01 6.031692e-01 3.602981e-01 4.188397e-01 5.194799e-01 6.637574e-01 1.621459e-01 5.207909e-01 8.268476e-01 8.605727e-01 7.361746e-01 6.075039e-01 8.429201e-01 8.007724e-01 1.024405e+00 9.872954e-01 8.469189e-01 8.920459e-01 1.014307e+00 7.477482e-01 7.504764e-01 9.853286e-01 8.557121e-01 6.994322e-01 8.558781e-01 1.056614e+00 9.744578e-01 1.056599e+00 1.100390e+00 8.473582e-01 9.202530e-01 9.999136e-01 1.568447e+00
<GCONST> 5.429445e+01
<MIXTURE> 2 5.234635e-01
<MEAN> 39
 -1.626021e-01 9.925615e-01 9.313797e-01 9.390432e-01 1.054458e+00 4.110112e-01 2.735781e-01 -3.035162e-01 -1.051887e+00 -5.779139e-01 -9.842287e-01 -2.699910e-01 -9.262253e-01 -4.173282e-01 -1.297407e-01 1.039065e-01 4.785233e-02 -4.760619e-02 -1.408701e-01 -2.180245e-02 1.845093e-01 2.044107e-01 -4.421487e-02 4.143542e-03 4.630420e-02 1.318884e-01 2.661190e-01 -5.123789e-01 -5.869303e-01 -6.394850e-01 -5.239025e-01 -3.233340e-01 -2.639630e-01 -2.670412e-02 2.132824e-01 5.034736e-01 3.278181e-01 2.168347e-01 1.329351e+00
<VARIANCE> 39
 2.184812e-01 4.741255e-01 4.777146e-01 4.508925e-01 4.366592e-01 6.341926e-01 5.112579e-01 6.924368e-01 5.008206e-01 5.530580e-01 6.481244e-01 8.904213e-01 2.858624e-01 5.698783e-01 9.270229e-01 8.429630e-01 7.789064e-01 6.561465e-01 9.119161e-01 8.243615e-01 9.146609e-01 9.221732e-01 9.545851e-01 9.738877e-01 1.039856e+00 7.301264e-01 1.048527e+00 1.220928e+00 1.071751e+00 1.069111e+00 1.013516e+00 1.287365e+00 1.061049e+00 1.118689e+00 1.076152e+00 1.112661e+00 1.020478e+00 1.285816e+00 2.228688e+00
<GCONST> 6.225603e+01
<STATE> 6
<NUMMIXES> 2
<MIXTURE> 1 5.365568e-01
<MEAN> 39
 -4.979763e-01 7.352017e-01 6.373563e-01 6.715082e-01 9.866687e-01 2.806729e-01 4.042541e-01 -8.604897e-02 -8.292676e-01 -1.269426e-01 -5.116648e-01 1.245170e-02 -7.402024e-01 -3.520141e-01 -3.886876e-01 -8.621235e-02 -1.466326e-01 -2.361418e-01 -5.053686e-01 -3.162180e-01 6.612036e-02 2.195126e-02 -5.280632e-02 -4.775162e-02 3.345504e-01 1.460605e+00 7.809274e-01 1.947370e-01 1.169619e-01 -8.147536e-02 -4.130812e-01 -3.259868e-01 -4.267304e-01 -1.305052e-01 7.035279e-02 -3.708430e-02 -1.949981e-01 7.824515e-02 1.310414e+00
<VARIANCE> 39
 2.135460e-01 4.511511e-01 3.874684e-01 3.841952e-01 3.689875e-01 6.219457e-01 5.211369e-01 6.606993e-01 4.366241e-01 4.968509e-01 6.246958e-01 7.288076e-01 2.508298e-01 8.673154e-01 1.306437e+00 1.061257e+00 9.825343e-01 7.673159e-01 1.102310e+00 9.996054e-01 1.136578e+00 9.891149e-01 1.100728e+00 1.114892e+00 1.171458e+00 1.168374e+00 1.200956e+00 1.420962e+00 1.272346e+00 1.084902e+00 9.109722e-01 1.041555e+00 1.012134e+00 1.145178e+00 1.135968e+00 1.129325e+00 1.119838e+00 1.215425e+00 1.429250e+00
<GCONST> 6.369762e+01
<MIXTURE> 2 4.634414e-01
<MEAN> 39
 -5.548536e-01 4.619457e-01 6.134587e-02 5.107942e-02 4.764756e-01 1.479507e-01 1.915564e-01 -2.299276e-02 -1.906184e-01 3.512042e-01 -3.359444e-01 -9.598462e-03 -1.313916e+00 -7.491561e-02 9.672653e-02 -1.715146e-01 -1.731747e-01 -1.237558e-02 8.536025e-03 3.728597e-02 -7.175300e-02 -1.102239e-01 1.875959e-01 5.137250e-02 -4.538077e-02 2.571321e-02 4.524745e-03 8.172643e-02 1.459829e-01 2.314329e-01 2.054892e-01 5.438172e-02 7.737249e-02 -5.812916e-02 -2.373125e-01 -1.460712e-01 -1.507202e-01 -3.666284e-03 1.783824e-01
<VARIANCE> 39
 1.626522e-01 5.785776e-01 4.225782e-01 4.514592e-01 2.493227e-01 5.270780e-01 4.895837e-01 5.691246e-01 3.843723e-01 6.496998e-01 5.530886e-01 7.893240e-01 2.750124e-01 2.848875e-01 7.700893e-01 7.682434e-01 8.985336e-01 5.781335e-01 6.414152e-01 6.743115e-01 7.850676e-01 8.034942e-01 1.135744e+00 8.054003e-01 8.989196e-01 5.349029e-01 5.426165e-01 1.125617e+00 1.024470e+00 9.707711e-01 7.475795e-01 7.606565e-01 8.015731e-01 9.014940e-01 1.013659e+00 1.324372e+00 9.283794e-01 1.053557e+00 8.937062e-01
<GCONST> 5.505915e+01
<TRANSP> 7
 0.000000e+00 1.000000e+00 0.000000e+00 0.000000e+00 0.000000e+00 0.000000e+00 0.000000e+00
 0.000000e+00 6.327590e-01 3.672410e-01 0.000000e+00 0.000000e+00 0.000000e+00 0.000000e+00
 0.000000e+00 0.000000e+00 4.243268e-01 5.756732e-01 0.000000e+00 0.000000e+00 0.000000e+00
 0.000000e+00 0.000000e+00 0.000000e+00 4.318646e-01 5.681354e-01 0.000000e+00 0.000000e+00
 0.000000e+00 0.000000e+00 0.000000e+00 0.000000e+00 7.104052e-01 2.895948e-01 0.000000e+00
 0.000000e+00 0.000000e+00 0.000000e+00 0.000000e+00 0.000000e+00 7.970253e-01 2.029747e-01
 0.000000e+00 0.000000e+00 0.000000e+00 0.000000e+00 0.000000e+00 0.000000e+00 0.000000e+00
<ENDHMM>
~h "e"
<BEGINHMM>
<NUMSTATES> 7
<STATE> 2
<NUMMIXES> 2
<MIXTURE> 1 4.125474e-01
<MEAN> 39
 -1.580902e+00 1.625402e+00 -1.864545e-01 9.293589e-01 9.187549e-01 -5.193781e-01 1.289720e+00 -1.044889e-01 -9.285800e-01 -8.638213e-02 -5.743999e-01 5.256806e-01 2.920110e-01 7.570201e-01 6.778908e-02 5.831586e-01 1.820202e-01 -9.593920e-02 -3.491635e-01 -2.296052e-01 -1.160828e-01 -1.214915e-01 -1.919416e-01 -2.009808e-01 -2.860242e-02 4.075464e-01 1.034219e+00 -2.896613e-01 5.516853e-01 1.286543e-01 -2.991087e-01 -3.073042e-01 -5.108793e-01 -9.655016e-03 -3.306351e-02 -1.107674e-01 -2.196839e-02 1.300722e-02 1.286277e-01
<VARIANCE> 39
 4.289279e-01 6.502870e-01 9.856921e-01 5.821412e-01 5.989999e-01 8.969513e-01 4.831763e-01 7.257195e-01 5.068056e-01 4.572622e-01 5.306028e-01 6.114311e-01 4.117368e-01 2.241608e+00 9.659310e-01 1.687854e+00 1.067722e+00 7.877637e-01 1.306260e+00 1.135327e+00 1.008344e+00 8.716569e-01 1.062310e+00 9.249303e-01 1.040582e+00 8.619038e-01 1.336850e+00 1.188486e+00 1.254848e+00 1.095259e+00 1.144151e+00 1.358199e+00 1.332400e+00 1.143725e+00 1.079893e+00 1.173185e+00 1.057158e+00 1.197577e+00 8.491384e-01
<GCONST> 6.791415e+01
<MIXTURE> 2 5.874540e-01
<MEAN> 39
 3.318291e-02 3.581433e-01 8.758470e-01 8.129216e-01 6.066596e-02 -7.901933e-01 -1.980881e-01 -2.409757e-01 -8.182327e-01 -3.656773e-01 -7.417582e-01 1.324473e-01 2.643646e-01 1.153581e+00 -4.123993e-01 1.049876e+00 2.676392e-01 -9.400967e-01 -1.216854e+00 -8.165368e-01 4.042456e-01 6.620609e-02 -3.575058e-01 2.378682e-02 5.257828e-01 1.288367e+00 -1.165480e-01 -5.904135e-01 -2.465812e-02 -2.498183e-01 -5.038680e-01 1.700511e-02 -9.252978e-02 3.548327e-01 1.769490e-01 4.867188e-02 3.499261e-01 3.324304e-01 2.223668e-01
<VARIANCE> 39
 3.458562e-01 9.552722e-01 1.122646e+00 6.473631e-01 6.819849e-01 9.145902e-01 8.556676e-01 1.030751e+00 8.101348e-01 1.001433e+00 8.838324e-01 8.908112e-01 6.126392e-01 1.778906e+00 1.300296e+00 1.887383e+00 1.376329e+00 1.172488e+00 1.509675e+00 1.416312e+00 1.566285e+00 1.283024e+00 1.300948e+00 1.325737e+00 1.448232e+00 1.251524e+00 1.293537e+00 1.454685e+00 1.424858e+00 1.097452e+00 1.080555e+00 1.413638e+00 1.189479e+00 1.272731e+00 1.177941e+00 1.139028e+00 1.133947e+00 1.245209e+00 1.016754e+00
<GCONST> 7.583781e+01
<STATE> 3
<NUMMIXES> 2
<MIXTURE> 1 5.817765e-01
<MEAN> 39
 4.396052e-01 -3.774725e-01 1.569949e+00 8.061091e-01 -1.157053e+00 -1.362829e+00 -8.050895e-01 3.162730e-01 -4.573583e-01 -7.800100e-01 -2.151331e-01 8.258223e-01 9.708055e-01 3.658635e-02 -4.750354e-01 6.091592e-01 -3.308061e-01 -9.878625e-01 -3.005289e-01 -3.441891e-01 3.300489e-01 2.009189e-01 -1.018874e-01 7.051410e-01 5.358692e-01 1.048812e+00 -5.094485e-01 5.546396e-01 -5.421139e-01 -1.395976e-02 7.884745e-01 5.229587e-01 3.277456e-01 -3.400086e-01 -3.109425e-01 1.773461e-01 -9.245285e-02 -3.986875e-01 -8.442185e-01
<VARIANCE> 39
 1.472153e-01 5.076178e-01 8.131208e-01 5.008889e-01 3.923321e-01 7.178947e-01 7.270628e-01 1.175881e+00 9.052047e-01 8.047161e-01 7.549487e-01 9.149144e-01 2.825845e-01 4.218331e-01 8.322160e-01 1.174439e+00 7.889017e-01 8.324807e-01 1.280556e+00 1.040135e+00 1.089017e+00 9.776145e-01 8.402320e-01 8.688220e-01 9.695262e-01 6.632289e-01 6.879787e-01 6.694114e-01 1.079500e+00 7.376429e-01 8.181873e-01 1.018098e+00 1.043751e+00 9.724029e-01 8.174077e-01 7.829277e-01 8.253928e-01 8.613144e-01 6.692357e-01
<GCONST> 6.073695e+01
<MIXTURE> 2 4.182238e-01
<MEAN> 39
 3.526469e-01 2.610072e-01 1.097561e+00 1.019623e+00 -1.043372e-01 -1.837394e+00 -4.170502e-01 1.917043e-01 -1.113588e+00 -3.243567e-01 -1.001574e+00 6.369230e-01 7.692886e-01 1.041578e+00 -1.341232e+00 6.020495e-01 -2.422992e-01 -1.117341e+00 -6.452666e-01 -8.956165e-01 5.380363e-01 -5.760301e-02 -5.750087e-02 9.331733e-02 4.128571e-01 8.968455e-01 -1.349033e+00 1.164015e-01 -4.795725e-01 -3.400536e-01 9.015018e-02 7.703674e-01 4.228098e-01 -1.170038e-01 1.346733e-01 9.039655e-02 2.516640e-01 -1.121425e-01 -3.757793e-01
<VARIANCE> 39
 2.722109e-01 4.896998e-01 7.631006e-01 4.775580e-01 4.118493e-01 1.037577e+00 6.013371e-01 7.566288e-01 6.672739e-01 8.347197e-01 8.054206e-01 7.219419e-01 4.987686e-01 1.196362e+00 1.234005e+00 1.120253e+00 1.026820e+00 8.540643e-01 1.054816e+00 1.213443e+00 9.291780e-01 8.983467e-01 8.975676e-01 8.433849e-01 9.231564e-01 7.573175e-01 1.290034e+00 1.105502e+00 1.171675e+00 9.026236e-01 7.744467e-01 9.304501e-01 9.215061e-01 8.286744e-01 7.158394e-01 8.818955e-01 7.020889e-01 8.458704e-01 6.040907e-01
<GCONST> 6.332206e+01
<STATE> 4
<NUMMIXES> 2
<MIXTURE> 1 5.445400e-01
<MEAN> 39
 4.495677e-01 -4.342420e-01 1.716986e+00 6.407671e-01 -1.412738e+00 -1.554946e+00 -9.636706e-01 4.114788e-01 -8.829677e-01 -6.252517e-01 -1.094469e-01 1.111296e+00 1.354800e+00 -1.820563e-02 7.966090e-03 2.292775e-02 4.187756e-02 -3.480390e-03 -2.932184e-02 -8.435158e-03 1.300770e-02 -3.566780e-02 -2.428618e-02 5.049603e-02 -8.189018e-03 1.069199e-02 2.087006e-02 2.028324e-02 -4.531408e-02 8.442781e-02 1.519912e-01 3.692286e-03 9.402250e-03 1.467948e-02 -2.534024e-02 -2.978499e-02 -8.418892e-02 -6.457298e-02 -1.829410e-01
<VARIANCE> 39
 1.454339e-01 3.212319e-01 4.400784e-01 3.634669e-01 3.103290e-01 7.321644e-01 5.375362e-01 9.278187e-01 1.051586e+00 5.139354e-01 1.134814e+00 8.359146e-01 1.925474e-01 1.365362e-01 1.867855e-01 3.450377e-01 3.011030e-01 2.801021e-01 3.733173e-01 3.622994e-01 4.064117e-01 3.629104e-01 3.766450e-01 3.878855e-01 4.597371e-01 1.188166e-01 1.777947e-01 1.837735e-01 3.178576e-01 2.769975e-01 3.124247e-01 3.727343e-01 3.720406e-01 3.728914e-01 3.355686e-01 3.520461e-01 3.507389e-01 4.301992e-01 1.430022e-01
<GCONST> 3.038768e+01
<MIXTURE> 2 4.554562e-01
<MEAN> 39
 4.392962e-01 -1.666555e-01 1.647255e+00 6.131760e-01 -1.070093e+00 -1.526696e+00 -9.362603e-01 3.630425e-01 -1.115994e+00 -6.497735e-01 -1.974435e-01 8.839814e-01 9.824249e-01 -1.179286e-02 -3.960168e-02 1.089322e-01 6.810074e-02 -1.058766e-01 -1.398011e-02 -2.025225e-02 2.419513e-02 -1.035755e-01 -8.898586e-02 1.029271e-01 -1.141571e-02 1.034258e-01 -3.836401e-02 1.066846e-01 -1.477964e-01 2.055610e-01 2.617703e-01 5.642565e-02 1.796405e-01 -5.080310e-02 2.562981e-02 -1.153938e-02 -1.659724e-01 -1.343735e-01 -3.473687e-01
<VARIANCE> 39
 2.322813e-01 4.782429e-01 7.723581e-01 5.245302e-01 5.521349e-01 1.134281e+00 5.982559e-01 1.130861e+00 9.330306e-01 8.355584e-01 1.153308e+00 9.520995e-01 3.627205e-01 3.080842e-01 4.543450e-01 6.522663e-01 6.473768e-01 4.632165e-01 6.933998e-01 6.475387e-01 7.145395e-01 5.774758e-01 6.640978e-01 5.558982e-01 6.861736e-01 3.027892e-01 4.720392e-01 5.274665e-01 7.095450e-01 5.770645e-01 6.712443e-01 7.596068e-01 7.205055e-01 7.081778e-01 5.850922e-01 6.510478e-01 5.720213e-01 6.936848e-01 4.530603e-01
<GCONST> 5.238524e+01
<STATE> 5
<NUMMIXES> 2
<MIXTURE> 1 5.849642e-01
<MEAN> 39
 4.099465e-01 -3.583940e-01 1.995094e+00 1.240111e+00 -1.085499e+00 -1.632447e+00 -9.222505e-01 4.149409e-01 -1.220942e+00 -1.100783e+00 -3.333759e-01 9.917399e-01 1.098301e+00 3.951503e-02 3.595303e-01 -4.834177e-01 5.804244e-01 8.412424e-01 7.325611e-02 4.870581e-01 -4.917614e-03 -1.029359e-01 -8.554877e-02 -3.580690e-01 -2.215326e-01 -9.507912e-01 -3.134351e-01 7.895651e-01 -1.006678e+00 -1.078914e-01 8.451785e-01 5.827274e-01 5.511693e-01 -2.911727e-01 2.323228e-01 4.426654e-01 -8.024832e-02 -2.965491e-01 -1.187779e+00
<VARIANCE> 39
 9.428083e-02 2.505434e-01 3.551578e-01 3.181788e-01 3.216470e-01 5.783286e-01 4.308911e-01 6.781188e-01 8.462489e-01 6.125942e-01 9.139808e-01 7.067156e-01 1.660663e-01 5.125582e-01 6.166120e-01 1.096372e+00 5.821917e-01 5.365661e-01 8.349636e-01 8.819670e-01 8.259361e-01 7.532814e-01 6.929930e-01 6.073191e-01 6.813892e-01 5.594890e-01 6.735983e-01 6.480273e-01 8.489203e-01 6.466864e-01 6.848125e-01 1.034697e+00 7.553491e-01 7.650465e-01 6.458052e-01 6.896700e-01 6.109836e-01 6.520651e-01 8.199031e-01
<GCONST> 5.086671e+01
<MIXTURE> 2 4.150395e-01
<MEAN> 39
 3.041524e-01 -4.023036e-01 1.169429e+00 4.738242e-01 -1.029932e+00 -1.320035e+00 -6.897401e-01 4.509848e-01 -4.261314e-01 -4.374822e-01 1.193901e-01 5.462744e-01 9.978700e-01 1.836085e-01 -1.037755e-02 -3.167983e-01 2.084996e-01 3.926547e-01 3.156292e-02 4.907823e-02 9.879281e-02 1.529525e-02 2.789052e-02 -2.759411e-01 -2.983960e-01 -3.421590e-01 6.938858e-02 3.881403e-01 -4.165857e-01 1.706673e-01 6.269855e-01 2.737260e-01 2.828767e-01 -2.347820e-01 -1.171145e-01 1.384621e-01 -3.421033e-01 -1.399611e-01 -7.472734e-01
<VARIANCE> 39
 3.693825e-01 6.080440e-01 1.128493e+00 5.703481e-01 8.260056e-01 1.180843e+00 7.770554e-01 1.233028e+00 1.158674e+00 9.586912e-01 1.046086e+00 1.139380e+00 6.649966e-01 4.145953e-01 5.832946e-01 1.029787e+00 8.770105e-01 5.982695e-01 8.597179e-01 8.564032e-01 9.070607e-01 8.841754e-01 8.097999e-01 7.538471e-01 8.988580e-01 5.224062e-01 6.536894e-01 6.609526e-01 8.609109e-01 6.439008e-01 7.682437e-01 9.556317e-01 8.233249e-01 9.284550e-01 7.696914e-01 7.912852e-01 7.196173e-01 8.348126e-01 8.281071e-01
<GCONST> 6.253582e+01
<STATE> 6
<NUMMIXES> 2
<MIXTURE> 1 4.783556e-01
<MEAN> 39
 4.131030e-01 2.954704e-02 1.518192e+00 1.308709e+00 -4.696153e-01 -1.334325e+00 -4.649431e-01 2.640933e-01 -1.076913e+00 -8.725714e-01 -4.599347e-01 6.626394e-01 6.086018e-01 -4.261344e-01 8.776999e-01 -1.202427e+00 2.236113e-01 1.395340e+00 9.086891e-01 8.335142e-01 -3.325872e-01 1.639463e-01 4.710025e-01 -2.815611e-01 -5.807436e-01 -1.623472e+00 -9.287631e-01 3.291446e-01 -4.580212e-01 -4.576466e-01 2.325395e-01 6.154495e-01 2.610063e-01 -2.046590e-01 1.006615e-01 3.746169e-01 1.058507e-01 -1.298562e-01 -5.479525e-01
<VARIANCE> 39
 1.679590e-01 4.719146e-01 5.467594e-01 4.248989e-01 4.726694e-01 8.952052e-01 8.006290e-01 9.008954e-01 8.211620e-01 8.041976e-01 8.187325e-01 8.316971e-01 3.397683e-01 6.918230e-01 1.013849e+00 1.354774e+00 1.014386e+00 8.179898e-01 1.527835e+00 1.259730e+00 1.080481e+00 1.093277e+00 1.003782e+00 1.006802e+00 9.514518e-01 1.141407e+00 1.057516e+00 1.152384e+00 1.252356e+00 8.939846e-01 1.048065e+00 1.392036e+00 1.153864e+00 1.148357e+00 1.038163e+00 1.033829e+00 8.346794e-01 1.002003e+00 1.419449e+00
<GCONST> 6.650595e+01
<MIXTURE> 2 5.216485e-01
<MEAN> 39
 -9.139790e-02 2.250426e-02 -1.092752e-01 -2.578230e-01 -2.375135e-01 -7.539786e-01 -4.060523e-01 -7.188047e-02 -2.572744e-01 6.442615e-01 8.793342e-02 4.986613e-01 -5.532902e-01 2.135096e-02 -1.503357e-02 -1.075019e-01 -4.266531e-02 4.127196e-02 6.147687e-02 7.398125e-02 -2.186371e-02 -2.253702e-02 6.032462e-02 -2.630467e-02 -8.064321e-02 -1.005592e-02 2.184137e-02 3.765478e-03 7.431425e-02 1.116581e-01 4.879069e-02 4.202003e-03 1.415314e-02 5.880336e-03 -4.041936e-02 -8.430076e-02 -4.208943e-02 -7.276636e-03 4.007285e-03
<VARIANCE> 39
 6.560223e-01 6.053264e-01 6.649216e-01 4.761910e-01 6.320924e-01 9.653205e-01 5.189751e-01 1.074289e+00 8.384704e-01 7.653986e-01 1.049657e+00 1.271339e+00 1.479762e+00 2.731221e-01 6.637252e-01 7.382891e-01 7.461305e-01 6.682248e-01 8.689015e-01 7.988752e-01 8.569378e-01 7.308199e-01 7.795044e-01 8.060114e-01 9.068409e-01 4.873162e-01 4.568274e-01 8.384195e-01 7.606110e-01 8.120680e-01 8.168572e-01 9.743968e-01 9.056288e-01 9.109445e-01 7.939539e-01 8.277651e-01 8.690516e-01 9.246600e-01 6.570002e-01
<GCONST> 6.102008e+01
<TRANSP> 7
 0.000000e+00 1.000000e+00 0.000000e+00 0.000000e+00 0.000000e+00 0.000000e+00 0.000000e+00
 0.000000e+00 7.112924e-01 2.887076e-01 0.000000e+00 0.000000e+00 0.000000e+00 0.000000e+00
 0.000000e+00 0.000000e+00 6.965263e-01 3.034738e-01 0.000000e+00 0.000000e+00 0.000000e+00
 0.000000e+00 0.000000e+00 0.000000e+00 8.837122e-01 1.162878e-01 0.000000e+00 0.000000e+00
 0.000000e+00 0.000000e+00 0.000000e+00 0.000000e+00 5.577197e-01 4.422803e-01 0.000000e+00
 0.000000e+00 0.000000e+00 0.000000e+00 0.000000e+00 0.000000e+00 6.325250e-01 3.674749e-01
 0.000000e+00 0.000000e+00 0.000000e+00 0.000000e+00 0.000000e+00 0.000000e+00 0.000000e+00
<ENDHMM>
~h "f"
<BEGINHMM>
<NUMSTATES> 7
<STATE> 2
<NUMMIXES> 2
<MIXTURE> 1 3.357629e-01
<MEAN> 39
 8.600330e-01 -4.965208e-01 -4.526476e-01 -4.175743e-02 2.451400e-01 -4.977030e-01 -2.452902e-02 4.912886e-01 -3.463224e-01 5.551648e-01 -7.553395e-01 -3.877886e-01 1.238490e+00 -2.586122e-01 9.459343e-01 2.798026e-01 6.401029e-01 6.084294e-01 3.655494e-01 4.161784e-01 -2.119566e-01 -3.241993e-01 -3.188455e-01 -3.926192e-02 2.758308e-01 -9.207171e-01 -6.402701e-01 5.590675e-01 2.002625e-01 1.437157e-01 9.093373e-02 3.508078e-01 1.469640e-01 -2.664743e-01 -1.200702e-01 -3.245167e-01 -3.924060e-03 9.784532e-02 -5.564163e-01
<VARIANCE> 39
 2.048115e-01 5.850246e-01 8.571905e-01 1.565642e+00 1.199318e+00 1.604931e+00 1.243161e+00 1.528704e+00 1.186598e+00 1.030928e+00 8.706558e-01 1.324925e+00 3.150320e-01 7.593209e-01 1.585605e+00 1.179351e+00 1.205822e+00 1.104735e+00 1.331474e+00 1.416326e+00 1.188187e+00 1.342529e+00 1.057248e+00 8.929577e-01 1.111166e+00 1.358639e+00 1.216241e+00 1.152877e+00 1.142015e+00 9.961283e-01 1.118593e+00 1.024300e+00 1.117010e+00 9.696353e-01 1.044834e+00 9.511520e-01 8.488796e-01 1.072150e+00 1.092396e+00
<GCONST> 7.309975e+01
<MIXTURE> 2 6.642391e-01
<MEAN> 39
 -4.076577e-01 4.582373e-01 3.763209e-02 4.919887e-02 4.815051e-01 3.046520e-01 3.231911e-01 1.623975e-01 -4.023012e-01 -1.940859e-02 5.459474e-02 3.240124e-01 -5.160648e-01 -4.013106e-01 3.778123e-01 -9.115413e-05 1.566219e-01 1.732055e-01 1.911673e-01 1.835314e-01 -5.645768e-02 -1.048062e-01 -6.831750e-02 -1.073391e-01 4.797709e-02 -1.221538e-01 -6.447762e-02 -2.805261e-01 -5.296059e-02 -2.167978e-01 -3.639042e-01 -3.258601e-01 -1.987830e-01 -1.999808e-02 -4.340532e-02 1.088408e-02 -5.895794e-02 -2.484301e-02 5.148087e-01
<VARIANCE> 39
 6.591914e-01 3.463351e-01 5.192775e-01 8.761986e-01 4.659772e-01 5.595807e-01 4.069922e-01 7.778952e-01 7.410694e-01 5.711849e-01 9.239101e-01 7.517202e-01 9.824954e-01 1.497795e+00 1.276153e+00 1.404945e+00 1.400437e+00 9.800099e-01 1.292037e+00 1.181402e+00 1.382068e+00 1.205375e+00 1.258759e+00 1.191877e+00 1.342077e+00 1.286091e+00 1.180008e+00 1.133777e+00 1.284903e+00 1.257934e+00 1.190377e+00 1.249892e+00 1.044695e+00 1.244950e+00 1.125092e+00 1.027380e+00 1.187380e+00 1.194288e+00 1.239249e+00
<GCONST> 7.100570e+01
<STATE> 3
<NUMMIXES> 2
<MIXTURE> 1 5.037577e-01
<MEAN> 39
 -6.246364e-01 7.302660e-01 1.227123e-01 9.925074e-01 7.854555e-01 1.997733e-01 8.640664e-01 2.624589e-01 -9.713781e-01 2.208137e-01 -7.900683e-01 4.105028e-01 2.257322e-01 -6.440711e-01 5.507696e-03 -2.374663e-01 -7.221717e-02 -7.146772e-03 1.977809e-02 2.057140e-01 1.478771e-01 -2.717617e-02 1.023934e-01 -4.140717e-02 8.488145e-02 5.308615e-01 7.225059e-01 -1.419647e-01 1.308093e-02 -2.928826e-01 -4.020393e-01 -4.072663e-01 -4.540327e-01 -1.928966e-01 -2.105963e-01 -2.261918e-01 8.146834e-03 2.063902e-02 3.468333e-01
<VARIANCE> 39
 4.876728e-01 4.815006e-01 7.078531e-01 4.219424e-01 3.538883e-01 6.594673e-01 4.675254e-01 8.062024e-01 3.799687e-01 5.140918e-01 5.700197e-01 8.414745e-01 5.374869e-01 1.244026e+00 1.016648e+00 1.065340e+00 1.100442e+00 8.044961e-01 1.015009e+00 9.115137e-01 1.114068e+00 9.159650e-01 1.060441e+00 1.066604e+00 1.221957e+00 9.802061e-01 1.390931e+00 1.292655e+00 1.263617e+00 1.160662e+00 1.155295e+00 1.387544e+00 1.238363e+00 1.428115e+00 1.109653e+00 1.228308e+00 1.221581e+00 1.484285e+00 1.050985e+00
<GCONST> 6.698910e+01
<MIXTURE> 2 4.962390e-01
<MEAN> 39
 -8.768430e-02 8.875642e-01 -4.379795e-02 8.009852e-01 6.629506e-01 3.805672e-02 5.223550e-01 5.987164e-02 -1.082666e+00 -4.931871e-02 -7.644594e-01 3.590355e-01 2.219570e-01 -7.260938e-01 1.894325e-01 -1.223069e-01 -2.089013e-01 -5.380144e-01 -7.755951e-01 -6.360118e-01 -7.403226e-01 -6.359636e-01 -3.174211e-01 -2.026280e-01 2.634881e-01 3.716634e-01 1.774780e-01 -6.237790e-01 -3.076910e-01 -3.996868e-01 -3.494200e-01 -2.503336e-01 -1.879279e-01 -1.907761e-02 1.752079e-02 1.937203e-01 1.437928e-01 -1.142211e-02 4.854429e-01
<VARIANCE> 39
 3.051727e-01 2.280299e-01 4.334298e-01 2.903269e-01 2.768452e-01 4.485765e-01 4.726942e-01 6.821592e-01 3.981020e-01 4.543092e-01 4.231199e-01 6.845526e-01 6.167694e-01 1.276852e+00 7.621629e-01 1.024141e+00 1.084006e+00 7.251990e-01 1.064754e+00 1.029853e+00 1.176554e+00 1.121895e+00 1.071849e+00 1.120737e+00 1.374559e+00 9.049501e-01 1.489831e+00 1.177111e+00 1.291124e+00 1.179484e+00 9.929138e-01 1.191385e+00 1.372500e+00 1.481798e+00 1.268304e+00 1.262884e+00 1.068890e+00 1.379269e+00 1.440498e+00
<GCONST> 6.390100e+01
<STATE> 4
<NUMMIXES> 2
<MIXTURE> 1 4.694148e-01
<MEAN> 39
 -3.813106e-01 1.028414e+00 -9.940961e-02 6.735721e-01 1.829637e-01 -7.756453e-01 -2.214324e-01 -7.984533e-01 -1.801360e+00 -3.561754e-01 -9.617951e-01 6.041502e-01 3.477573e-01 -1.310388e-01 -1.398829e-01 3.507125e-02 9.089220e-02 1.734060e-01 2.125662e-01 3.687017e-01 3.419926e-01 1.933458e-01 1.731198e-01 9.956700e-02 4.234847e-02 3.937931e-01 3.102185e-01 -1.269085e-01 -7.594967e-02 -3.110635e-02 2.378260e-01 5.395707e-01 5.738397e-01 5.956428e-01 4.907632e-01 2.540007e-01 1.501257e-01 -9.870718e-02 1.660425e-02
<VARIANCE> 39
 2.284329e-01 2.319519e-01 5.369431e-01 3.782750e-01 4.103187e-01 5.460713e-01 5.143676e-01 7.493351e-01 4.687461e-01 4.882814e-01 6.085415e-01 8.757110e-01 3.290311e-01 7.218031e-01 5.662762e-01 8.293496e-01 8.352773e-01 7.715129e-01 9.807995e-01 1.044540e+00 1.152000e+00 9.359804e-01 1.168801e+00 1.115425e+00 1.271119e+00 5.576984e-01 9.102284e-01 7.860482e-01 1.072741e+00 9.820153e-01 1.115674e+00 1.250287e+00 1.237195e+00 1.409672e+00 1.143500e+00 1.305213e+00 1.345251e+00 1.460041e+00 6.752005e-01
<GCONST> 6.126927e+01
<MIXTURE> 2 5.305832e-01
<MEAN> 39
 -2.575257e-01 1.074502e+00 -3.117511e-01 6.543834e-01 3.195129e-01 -5.028865e-01 -3.039723e-02 -4.414563e-01 -1.491415e+00 -2.351653e-01 -9.029359e-01 4.490594e-01 1.681221e-01 -1.236643e-01 2.027342e-02 -1.738263e-01 -2.722468e-01 -3.139685e-01 -3.460386e-01 -3.182802e-01 -3.986338e-01 -3.176993e-01 -1.249609e-01 -1.486700e-01 1.695338e-02 2.690447e-01 1.318148e-01 -1.171181e-01 1.577633e-01 9.069154e-02 7.531629e-02 3.604842e-02 -1.414211e-02 -4.509940e-02 1.868111e-02 -4.131185e-02 1.614460e-02 -5.381190e-02 7.230748e-02
<VARIANCE> 39
 1.627476e-01 2.277571e-01 3.453750e-01 3.801708e-01 2.870228e-01 4.065914e-01 4.734165e-01 6.506122e-01 4.417833e-01 5.110073e-01 5.603365e-01 8.681895e-01 4.825379e-01 4.726596e-01 5.141032e-01 7.456098e-01 7.603374e-01 6.286821e-01 8.064911e-01 8.376697e-01 9.903238e-01 9.401421e-01 1.068668e+00 1.092968e+00 1.184692e+00 4.539788e-01 6.388117e-01 6.621680e-01 9.619996e-01 8.760536e-01 8.565974e-01 1.009755e+00 1.161727e+00 1.217488e+00 1.137659e+00 1.344310e+00 1.266929e+00 1.402010e+00 4.783044e-01
<GCONST> 5.614566e+01
<STATE> 5
<NUMMIXES> 2
<MIXTURE> 1 4.678397e-01
<MEAN> 39
 -4.056991e-01 4.136467e-01 -5.387072e-01 5.180171e-01 3.183882e-01 -2.075071e-01 4.414109e-01 -6.396563e-02 -1.284066e+00 2.852137e-02 -7.940838e-01 3.589294e-01 1.058544e+00 2.015454e-01 -9.333230e-02 -3.249442e-03 1.252483e-01 3.040471e-01 5.272874e-01 5.365042e-01 4.539567e-01 3.320012e-01 2.053031e-01 1.913515e-01 -6.306195e-02 1.915005e-01 3.550939e-01 1.426284e-01 2.549955e-01 1.002266e-01 1.018894e-01 1.499832e-01 9.869894e-02 1.761350e-01 2.170616e-01 1.513204e-01 9.717381e-02 1.936118e-02 -2.804130e-01
<VARIANCE> 39
 2.032383e-01 2.921490e-01 4.771450e-01 3.288416e-01 3.114998e-01 5.108052e-01 4.321000e-01 7.481953e-01 3.964769e-01 4.522017e-01 5.091014e-01 7.763522e-01 2.692492e-01 6.636593e-01 5.227436e-01 7.779460e-01 7.785603e-01 6.096433e-01 8.801966e-01 8.569888e-01 1.121039e+00 8.692974e-01 9.173300e-01 9.635124e-01 1.224572e+00 5.243530e-01 7.850103e-01 6.298193e-01 9.599477e-01 9.836206e-01 9.676481e-01 1.213305e+00 1.142798e+00 1.351322e+00 1.086491e+00 1.235238e+00 1.208919e+00 1.457856e+00 5.594290e-01
<GCONST> 5.725894e+01
<MIXTURE> 2 5.321620e-01
<MEAN> 39
 -4.562570e-01 2.830512e-01 -5.964031e-01 5.014015e-01 3.006116e-01 -4.516331e-02 6.593432e-01 3.127126e-01 -1.052566e+00 2.809192e-01 -7.368023e-01 3.665194e-01 1.244345e+00 8.728849e-03 -1.150095e-01 -1.147806e-01 -1.625576e-01 -2.234788e-01 -2.655765e-01 -2.894818e-01 -2.535559e-01 -1.345811e-01 -1.154123e-01 -5.348446e-02 -8.018871e-02 7.366255e-02 1.573398e-01 2.823315e-02 1.074253e-01 9.823403e-02 4.987511e-02 -7.617443e-02 -1.435191e-01 -1.799666e-01 -1.761628e-01 -1.785696e-01 -6.068344e-02 -3.510389e-02 -2.042765e-01
<VARIANCE> 39
 1.187321e-01 2.815220e-01 4.182064e-01 2.867374e-01 2.513990e-01 4.706549e-01 4.276046e-01 6.443143e-01 3.542805e-01 3.652686e-01 4.102284e-01 5.870199e-01 1.411638e-01 3.867683e-01 4.014537e-01 7.265000e-01 6.997682e-01 5.858809e-01 7.660583e-01 7.896728e-01 9.421234e-01 7.792095e-01 9.159909e-01 9.769265e-01 1.101820e+00 2.654171e-01 5.428544e-01 5.421567e-01 9.106072e-01 8.179980e-01 8.530551e-01 1.104466e+00 1.138106e+00 1.171430e+00 8.808976e-01 1.026923e+00 1.068735e+00 1.222761e+00 3.476183e-01
<GCONST> 4.990297e+01
<STATE> 6
<NUMMIXES> 2
<MIXTURE> 1 5.242596e-01
<MEAN> 39
 -7.930369e-01 7.194307e-01 3.065269e-01 3.195403e-01 2.387821e-01 4.297543e-02 7.334042e-01 -2.988679e-01 -1.250778e+00 8.656477e-02 -7.143554e-01 5.036576e-01 8.663114e-01 3.437622e-01 3.925455e-02 3.238054e-01 3.754264e-02 3.747842e-01 4.738544e-01 2.372564e-01 3.184266e-01 3.478207e-01 1.525005e-01 2.374870e-01 7.884538e-02 -6.134783e-02 4.959463e-01 6.248887e-02 4.708358e-02 1.120915e-01 1.090246e-01 -1.027862e-01 -2.169431e-01 2.622809e-02 -3.600174e-02 -6.919988e-02 1.236972e-01 1.797360e-02 -1.564373e-01
<VARIANCE> 39
 6.125269e-01 2.813441e-01 8.685828e-01 4.339501e-01 3.827997e-01 5.955335e-01 4.158354e-01 7.359585e-01 3.723797e-01 4.018956e-01 4.430030e-01 7.144390e-01 2.310926e-01 1.290555e+00 5.760696e-01 9.623324e-01 1.112283e+00 8.682864e-01 1.052694e+00 9.960060e-01 1.088930e+00 9.445968e-01 9.379411e-01 9.520151e-01 1.280739e+00 6.152071e-01 1.037602e+00 7.542716e-01 1.194721e+00 1.133052e+00 1.223063e+00 1.331569e+00 1.275392e+00 1.240320e+00 1.035513e+00 1.227912e+00 1.048009e+00 1.282384e+00 6.333327e-01
<GCONST> 6.220323e+01
<MIXTURE> 2 4.757449e-01
<MEAN> 39
 -1.090050e+00 1.008190e+00 1.655647e-02 6.477141e-01 4.919531e-01 -3.307150e-02 9.701974e-01 -6.539923e-01 -1.059897e+00 -1.514063e-01 -4.577902e-01 2.632640e-01 8.841711e-01 -3.462747e-02 -2.939863e-02 1.001207e-01 -1.754477e-01 -4.517040e-02 -1.621413e-02 -1.490300e-01 -1.009081e-01 -1.601594e-02 -1.475513e-01 -1.150519e-01 -5.683399e-02 -5.214377e-02 1.571886e-01 -1.077482e-01 -8.011074e-02 -1.344424e-01 -1.260944e-01 -8.468430e-02 -1.349524e-01 -1.074985e-03 2.171871e-02 1.028823e-02 -6.353649e-02 5.714677e-02 -9.937428e-02
<VARIANCE> 39
 4.649688e-01 3.711976e-01 1.353012e+00 7.082149e-01 5.120260e-01 6.480304e-01 4.442301e-01 9.962836e-01 5.787387e-01 6.016849e-01 5.925992e-01 9.336310e-01 3.125898e-01 3.935629e-01 4.442715e-01 6.696806e-01 6.381387e-01 6.056377e-01 8.515394e-01 8.249819e-01 1.004755e+00 7.669851e-01 1.013117e+00 9.197896e-01 1.134548e+00 2.195046e-01 5.190421e-01 5.576652e-01 8.173953e-01 7.513950e-01 7.799082e-01 9.330040e-01 1.032683e+00 1.192813e+00 9.596568e-01 1.232574e+00 1.191488e+00 1.285576e+00 3.108225e-01
<GCONST> 5.756898e+01
<TRANSP> 7
 0.000000e+00 1.000000e+00 0.000000e+00 0.000000e+00 0.000000e+00 0.000000e+00 0.000000e+00
 0.000000e+00 8.216250e-01 1.783749e-01 0.000000e+00 0.000000e+00 0.000000e+00 0.000000e+00
 0.000000e+00 0.000000e+00 7.303813e-01 2.696187e-01 0.000000e+00 0.000000e+00 0.000000e+00
 0.000000e+00 0.000000e+00 0.000000e+00 8.543785e-01 1.456216e-01 0.000000e+00 0.000000e+00
 0.000000e+00 0.000000e+00 0.000000e+00 0.000000e+00 8.640099e-01 1.359901e-01 0.000000e+00
 0.000000e+00 0.000000e+00 0.000000e+00 0.000000e+00 0.000000e+00 7.543635e-01 2.456366e-01
 0.000000e+00 0.000000e+00 0.000000e+00 0.000000e+00 0.000000e+00 0.000000e+00 0.000000e+00
<ENDHMM>
~h "g"
<BEGINHMM>
<NUMSTATES> 7
<STATE> 2
<NUMMIXES> 2
<MIXTURE> 1 5.238531e-01
<MEAN> 39
 1.365502e-01 -2.025835e-01 4.905510e-01 2.995387e-01 -4.779320e-01 -7.202542e-01 4.784068e-02 2.523623e-01 -4.805478e-01 -3.106998e-02 -4.124517e-02 -7.083124e-03 2.702550e-01 9.468728e-02 2.753693e-01 3.795338e-01 5.240199e-01 1.157696e-01 -3.259392e-01 -2.125662e-01 -2.677869e-02 -2.409456e-01 -4.289633e-02 9.484430e-02 9.426568e-02 -3.902814e-01 2.352460e-02 1.294161e-01 1.558702e-01 2.579067e-01 2.482150e-01 1.029359e-01 -8.862001e-02 -2.134240e-01 -1.405815e-01 -4.227525e-02 -3.381886e-01 -2.033111e-01 -2.102363e-01
<VARIANCE> 39
 4.309985e-01 8.274459e-01 1.190706e+00 5.405617e-01 1.080726e+00 1.471407e+00 7.913547e-01 1.994038e+00 1.285487e+00 9.284815e-01 9.850172e-01 1.198306e+00 1.272539e+00 8.915656e-01 1.226389e+00 1.840129e+00 1.200706e+00 1.227970e+00 1.395550e+00 1.237041e+00 1.370913e+00 1.495761e+00 1.075369e+00 1.577375e+00 1.394147e+00 1.112895e+00 7.947049e-01 9.911579e-01 1.243259e+00 8.537190e-01 8.460328e-01 1.097722e+00 8.784482e-01 1.291312e+00 1.175360e+00 1.096634e+00 1.147972e+00 9.599826e-01 9.611905e-01
<GCONST> 7.521293e+01
<MIXTURE> 2 4.761456e-01
<MEAN> 39
 7.609805e-01 -8.197714e-01 8.665062e-01 1.091365e+00 -7.840866e-01 -1.843579e+00 -6.494298e-01 1.108791e+00 -1.013729e+00 -3.235995e-01 1.264639e-01 5.091274e-01 9.880103e-01 -3.688310e-01 6.304483e-01 6.509194e-01 1.105864e+00 8.640739e-01 4.927745e-01 -9.797290e-04 -8.681625e-01 -1.058138e+00 -5.697687e-01 -3.741880e-01 -1.531944e-01 -1.825833e+00 -5.684293e-01 9.329525e-02 -9.092256e-01 -1.247310e-01 9.298060e-01 9.119744e-01 5.396408e-01 -2.631889e-01 4.973747e-01 1.406638e-01 -7.583086e-01 -6.246516e-01 -1.133682e+00
<VARIANCE> 39
 1.133134e-01 3.342583e-01 7.504398e-01 4.691047e-01 8.657954e-01 9.537982e-01 7.189824e-01 1.347848e+00 1.694465e+00 9.229333e-01 1.353391e+00 9.853227e-01 2.251350e-01 3.583309e-01 4.233306e-01 1.513169e+00 6.676773e-01 1.234781e+00 1.251421e+00 1.291055e+00 1.324546e+00 1.302326e+00 9.609930e-01 1.454839e+00 1.205524e+00 7.745584e-01 4.545361e-01 5.586830e-01 1.116255e+00 7.179047e-01 9.771072e-01 9.464195e-01 8.006055e-01 9.987082e-01 1.198323e+00 9.802331e-01 1.137497e+00 1.002650e+00 5.587241e-01
<GCONST> 6.382397e+01
<STATE> 3
<NUMMIXES> 2
<MIXTURE> 1 5.388856e-01
<MEAN> 39
 3.389936e-01 -1.089181e-01 7.776358e-01 1.365513e+00 3.394035e-01 -4.165254e-01 8.054295e-02 -7.929552e-02 -1.642698e+00 -7.005148e-01 -4.556350e-01 -7.223389e-02 -2.312429e-01 -8.347670e-01 7.192765e-01 -4.590770e-01 2.219613e-01 1.307385e+00 1.053398e+00 5.742002e-01 -6.250484e-01 2.559669e-01 4.156089e-01 -5.598324e-01 -3.925523e-01 -2.057475e+00 6.021034e-02 9.448864e-02 2.971464e-01 -2.984984e-01 -5.550432e-01 -5.551714e-01 -4.474926e-01 2.617040e-01 6.268167e-01 4.286043e-01 2.907742e-01 3.007327e-01 9.362496e-01
<VARIANCE> 39
 1.854475e-01 4.200495e-01 8.155037e-01 6.590745e-01 6.414965e-01 1.032139e+00 6.060147e-01 1.187894e+00 8.597270e-01 7.860038e-01 6.615967e-01 8.931860e-01 2.073776e-01 4.636335e-01 9.761506e-01 1.189387e+00 9.042231e-01 1.207202e+00 1.441898e+00 1.287180e+00 1.121281e+00 1.333088e+00 1.288997e+00 1.350827e+00 1.270399e+00 8.561530e-01 6.873415e-01 1.017309e+00 1.500066e+00 1.178029e+00 1.239068e+00 1.115053e+00 1.089637e+00 1.252561e+00 1.155404e+00 1.215508e+00 1.144825e+00 1.074842e+00 1.052822e+00
<GCONST> 6.784343e+01
<MIXTURE> 2 4.611136e-01
<MEAN> 39
 3.844343e-01 -1.169946e-01 -2.255439e-01 1.290793e+00 1.268849e+00 -3.843569e-01 -7.490420e-01 -2.901425e-01 -4.048020e-01 4.838701e-02 -1.099872e+00 -4.261622e-01 -5.080487e-01 -2.711183e-01 1.234024e-01 2.198333e-01 1.312782e+00 1.198221e+00 -2.994780e-01 -6.315723e-01 3.084742e-01 7.231010e-01 -2.703718e-01 -1.311492e+00 -6.003965e-01 -8.070547e-01 -1.672364e-01 -2.216891e-01 2.020588e-01 -4.197980e-01 -6.247945e-01 -3.603459e-02 2.181634e-01 2.313631e-01 2.553762e-02 -4.449365e-02 1.680686e-01 1.342448e-01 5.881633e-01
<VARIANCE> 39
 4.211210e-01 5.372967e-01 5.424889e-01 9.409312e-01 7.656433e-01 1.184616e+00 1.301697e+00 1.174202e+00 9.325043e-01 5.986317e-01 1.071778e+00 8.368227e-01 6.027471e-01 1.086180e+00 1.575043e+00 1.996858e+00 1.210175e+00 1.132955e+00 1.988535e+00 1.538705e+00 2.119823e+00 1.817772e+00 1.320831e+00 1.271154e+00 1.039151e+00 1.648175e+00 8.850901e-01 8.018728e-01 1.151061e+00 9.989541e-01 9.814530e-01 1.382928e+00 1.320852e+00 1.645778e+00 1.335586e+00 9.983584e-01 1.378219e+00 9.559388e-01 9.468596e-01
<GCONST> 7.510253e+01
<STATE> 4
<NUMMIXES> 2
<MIXTURE> 1 5.033679e-01
<MEAN> 39
 1.104644e-01 -3.258571e-02 2.104769e-01 1.557504e+00 1.338668e+00 -3.671076e-01 -4.408220e-01 -3.921876e-02 -5.528123e-01 -1.792597e-01 -1.258991e+00 -4.153700e-01 -7.252737e-01 -2.695352e-01 5.136781e-01 3.476337e-01 -2.777043e-01 -1.016841e-01 4.560466e-01 4.713828e-01 -2.637613e-01 -3.256042e-01 3.526907e-02 2.567643e-01 1.576448e-01 -2.536286e-01 1.496334e-01 -2.531428e-01 -1.095628e-01 -6.487502e-01 -7.866469e-01 -4.108658e-02 2.034651e-01 9.845154e-02 -2.026609e-01 1.606947e-01 4.351078e-01 2.149975e-01 8.714647e-01
<VARIANCE> 39
 2.101975e-01 6.413198e-01 9.152138e-01 8.511909e-01 9.358608e-01 1.271281e+00 1.220899e+00 1.242930e+00 1.167148e+00 6.859986e-01 1.303436e+00 1.089264e+00 3.665918e-01 8.704284e-01 1.332247e+00 1.722055e+00 1.642139e+00 1.133624e+00 1.319038e+00 1.339696e+00 1.355001e+00 2.128199e+00 1.514207e+00 1.712982e+00 1.383134e+00 1.355022e+00 1.113558e+00 1.562385e+00 1.870803e+00 1.284533e+00 1.299013e+00 1.373131e+00 1.303161e+00 1.372821e+00 1.689458e+00 1.307449e+00 1.603111e+00 1.269317e+00 1.771193e+00
<GCONST> 7.832726e+01
<MIXTURE> 2 4.966272e-01
<MEAN> 39
 -3.012868e-01 -6.292930e-01 -5.181968e-01 1.342150e+00 1.479645e+00 -8.526892e-01 -1.139032e+00 4.677565e-01 1.082954e+00 6.359561e-01 -2.172925e+00 -1.289850e+00 -1.384237e+00 -2.884893e-02 -8.213460e-02 -4.997975e-02 1.306777e-01 1.201144e-01 -7.902861e-03 -2.706288e-02 8.317575e-02 1.889284e-02 3.889677e-02 -9.142615e-03 2.324743e-02 4.875904e-02 4.846594e-02 5.643649e-02 3.401861e-02 -2.297079e-01 -1.430693e-01 2.128580e-01 2.173559e-01 -1.319520e-01 -3.666559e-01 -8.340496e-02 2.802430e-01 1.887233e-01 2.179862e-01
<VARIANCE> 39
 1.840600e-01 5.711173e-01 3.603520e-01 9.004027e-01 6.282587e-01 5.714989e-01 7.495902e-01 5.558699e-01 7.692236e-01 6.785996e-01 6.744978e-01 6.453329e-01 2.342476e-01 2.912579e-01 8.518044e-01 7.723862e-01 8.199469e-01 7.491525e-01 7.637122e-01 9.126733e-01 8.318501e-01 1.060657e+00 9.227613e-01 1.036881e+00 8.626190e-01 5.416195e-01 5.617668e-01 8.247704e-01 9.042380e-01 9.668064e-01 1.045464e+00 8.521937e-01 1.048897e+00 8.186967e-01 1.207922e+00 1.020234e+00 1.168454e+00 9.565110e-01 7.988417e-01
<GCONST> 5.895916e+01
<STATE> 5
<NUMMIXES> 2
<MIXTURE> 1 4.159889e-01
<MEAN> 39
 -2.060910e-01 1.554105e-01 9.083713e-01 1.350531e+00 6.889439e-01 2.186967e-01 6.354257e-01 -1.928577e-01 -9.476001e-01 -3.535694e-02 -1.053495e+00 -4.504569e-01 -9.002688e-01 -2.578663e-01 -3.566911e-01 -1.874413e-01 -5.152686e-01 -2.384524e-01 2.263066e-01 1.704858e-01 -1.315799e-03 5.430098e-02 2.411767e-01 2.764384e-01 2.928134e-01 5.986288e-01 4.017650e-01 2.214200e-01 -3.556375e-01 -3.923207e-01 -1.747910e-01 -1.279157e-01 -9.184468e-02 -4.510080e-02 -1.761077e-01 1.865904e-01 4.780776e-02 1.015979e-01 4.278207e-01
<VARIANCE> 39
 1.933815e-01 4.648773e-01 7.038148e-01 4.845442e-01 6.929978e-01 9.785138e-01 1.110819e+00 1.059952e+00 8.538723e-01 9.135095e-01 9.000587e-01 1.091792e+00 3.216258e-01 5.243109e-01 1.036611e+00 1.065217e+00 1.122547e+00 8.102127e-01 9.533738e-01 1.013524e+00 1.104812e+00 1.325229e+00 1.196935e+00 1.026224e+00 1.174575e+00 8.757065e-01 6.906003e-01 1.180718e+00 1.128294e+00 1.033692e+00 1.089310e+00 1.017995e+00 1.177173e+00 1.177962e+00 1.396835e+00 1.266356e+00 1.201284e+00 1.232128e+00 1.659405e+00
<GCONST> 6.835532e+01
<MIXTURE> 2 5.840106e-01
<MEAN> 39
 -4.753235e-02 1.038402e+00 8.407440e-01 9.401742e-01 6.720550e-01 3.889297e-01 5.901462e-01 -5.468629e-01 -1.011769e+00 -5.727481e-02 -9.257081e-01 -4.140577e-01 -1.278007e+00 -1.943171e-01 6.527840e-02 1.445700e-01 8.569060e-02 3.328313e-02 2.089211e-02 9.847575e-02 -1.625758e-02 -7.018422e-03 3.433678e-02 -1.023793e-01 1.762551e-02 -8.787432e-02 -3.189442e-01 -5.779243e-01 -3.029682e-02 2.322233e-02 -4.694107e-02 -7.425781e-02 -4.706586e-02 1.504818e-01 1.536912e-01 -9.452649e-02 3.632653e-02 9.426393e-02 5.566330e-01
<VARIANCE> 39
 1.189948e-01 2.175332e-01 2.514519e-01 2.869812e-01 3.141472e-01 4.305983e-01 3.233309e-01 6.041735e-01 4.083860e-01 5.151396e-01 6.172920e-01 8.986976e-01 1.230508e-01 2.983539e-01 7.068423e-01 5.267562e-01 5.638216e-01 5.300336e-01 6.519270e-01 6.565920e-01 7.078211e-01 7.461461e-01 8.214826e-01 7.871127e-01 9.167700e-01 4.898999e-01 4.003649e-01 5.413435e-01 7.974364e-01 7.159860e-01 6.544913e-01 7.395615e-01 6.856397e-01 7.518034e-01 7.303247e-01 9.053689e-01 8.411377e-01 8.802019e-01 7.226700e-01
<GCONST> 4.687205e+01
<STATE> 6
<NUMMIXES> 2
<MIXTURE> 1 3.964457e-01
<MEAN> 39
 -4.823390e-01 6.623641e-04 3.315764e-01 2.785614e-01 2.744806e-01 -1.061887e-01 4.340659e-02 -7.760805e-02 -3.967145e-01 2.657925e-01 -2.756328e-01 4.698658e-01 -8.641456e-01 -3.655896e-03 -2.334285e-01 -2.970708e-01 -6.429873e-01 -2.606865e-01 9.051093e-02 8.997379e-02 -2.281199e-02 -5.926492e-02 1.954087e-01 1.866555e-01 1.505368e-01 9.418076e-01 5.843424e-01 7.232773e-01 -2.333704e-01 -1.373309e-01 -9.407367e-02 -2.108718e-01 -1.475446e-01 -1.849327e-01 -3.169199e-01 2.095914e-01 -1.503397e-01 -2.160710e-01 -1.365504e-01
<VARIANCE> 39
 3.402657e-01 7.675400e-01 7.642769e-01 7.124345e-01 7.399001e-01 7.122645e-01 7.609499e-01 9.928392e-01 8.312485e-01 7.599202e-01 7.598098e-01 7.664484e-01 4.488637e-01 6.659058e-01 1.212244e+00 1.333997e+00 1.289356e+00 7.486615e-01 8.146587e-01 7.378962e-01 8.845140e-01 1.009370e+00 1.241167e+00 1.022103e+00 8.669971e-01 1.257908e+00 1.073766e+00 1.713365e+00 1.350351e+00 1.379019e+00 9.130956e-01 8.267377e-01 8.085265e-01 1.091736e+00 1.106182e+00 1.484222e+00 1.066082e+00 1.065697e+00 1.880168e+00
<GCONST> 6.882594e+01
<MIXTURE> 2 6.035580e-01
<MEAN> 39
 -6.808459e-01 1.310488e-01 -4.839505e-01 -8.248612e-01 -3.828079e-01 -8.719321e-01 -6.103631e-01 -3.298497e-01 2.792556e-02 1.166864e+00 -9.187999e-02 6.647640e-01 -1.846754e+00 -5.466348e-02 6.819206e-02 1.106771e-01 1.669133e-01 5.083346e-02 -3.957640e-02 -1.358520e-02 2.333059e-02 -3.279089e-02 -8.723395e-02 -8.132503e-02 -1.359739e-02 -1.210111e-01 -9.071667e-02 -2.757453e-01 1.626233e-01 1.469444e-01 5.198872e-02 5.804688e-02 3.757752e-02 1.067804e-01 8.350309e-02 -1.774447e-01 1.916290e-02 4.123842e-02 2.584080e-01
<VARIANCE> 39
 3.748227e-02 1.358424e-01 1.246514e-01 1.868972e-01 2.108855e-01 2.838081e-01 2.692761e-01 5.956884e-01 3.322340e-01 4.475051e-01 4.159818e-01 4.984016e-01 1.012508e-01 1.295777e-01 7.357749e-01 4.579597e-01 6.923447e-01 4.195409e-01 5.742960e-01 5.233786e-01 7.192143e-01 5.834205e-01 7.283055e-01 7.761337e-01 7.463011e-01 4.681793e-01 2.916657e-01 4.781018e-01 7.521226e-01 1.055767e+00 5.417084e-01 7.102532e-01 5.925860e-01 6.809821e-01 7.009137e-01 8.044139e-01 8.066577e-01 7.655786e-01 3.993960e-01
<GCONST> 3.812593e+01
<TRANSP> 7
 0.000000e+00 1.000000e+00 0.000000e+00 0.000000e+00 0.000000e+00 0.000000e+00 0.000000e+00
 0.000000e+00 7.191416e-01 2.808584e-01 0.000000e+00 0.000000e+00 0.000000e+00 0.000000e+00
 0.000000e+00 0.000000e+00 6.179430e-01 3.820569e-01 0.000000e+00 0.000000e+00 0.000000e+00
 0.000000e+00 0.000000e+00 0.000000e+00 7.486876e-01 2.513124e-01 0.000000e+00 0.000000e+00
 0.000000e+00 0.000000e+00 0.000000e+00 0.000000e+00 8.549815e-01 1.450185e-01 0.000000e+00
 0.000000e+00 0.000000e+00 0.000000e+00 0.000000e+00 0.000000e+00 8.846703e-01 1.153297e-01
 0.000000e+00 0.000000e+00 0.000000e+00 0.000000e+00 0.000000e+00 0.000000e+00 0.000000e+00
<ENDHMM>
~h "h"
<BEGINHMM>
<NUMSTATES> 7
<STATE> 2
<NUMMIXES> 2
<MIXTURE> 1 3.817761e-01
<MEAN> 39
 -5.390752e-01 -2.661096e-01 -1.445691e-01 4.618087e-01 3.319847e-01 2.062462e-01 4.968431e-01 -1.899138e-01 -8.815080e-01 2.352222e-02 4.922065e-01 7.801352e-01 -6.100109e-01 8.865426e-01 8.743848e-02 8.478985e-01 1.202965e+00 4.774294e-01 2.917650e-01 6.025327e-01 4.388282e-01 -5.611680e-01 -2.182563e-01 -5.558089e-01 -4.315051e-01 2.652444e+00 5.268685e-01 2.869526e-01 4.214971e-01 -1.615321e-02 -1.851086e-01 -6.867821e-02 1.807096e-01 4.568733e-01 1.045256e-01 2.583645e-01 -7.940654e-01 -4.961758e-01 1.413187e+00
<VARIANCE> 39
 1.215242e-01 2.776081e-01 3.424968e-01 3.083116e-01 2.473547e-01 4.346782e-01 3.507493e-01 5.965987e-01 5.906271e-01 4.291811e-01 4.729972e-01 8.791132e-01 2.347777e-01 9.129365e-01 1.199361e+00 9.696811e-01 9.212090e-01 7.171494e-01 1.246349e+00 9.590530e-01 1.312040e+00 1.449627e+00 9.653233e-01 1.310896e+00 1.625502e+00 1.097463e+00 1.338576e+00 1.446234e+00 1.302911e+00 8.758981e-01 9.603620e-01 1.509374e+00 1.147559e+00 1.526322e+00 1.326297e+00 1.101471e+00 1.024136e+00 1.965737e+00 1.739253e+00
<GCONST> 6.318406e+01
<MIXTURE> 2 6.182237e-01
<MEAN> 39
 -9.425057e-01 4.956686e-01 1.055924e+00 4.148177e-01 9.034614e-02 4.232069e-01 2.096404e-01 5.795844e-03 -1.077506e+00 -7.328624e-02 -8.778305e-01 6.060079e-01 5.794723e-01 5.625644e-01 -6.062831e-01 5.314447e-01 6.777792e-01 -8.279312e-01 -2.088224e-01 -8.828938e-02 -3.495822e-01 -9.191272e-02 -1.048123e-02 4.514747e-02 -6.572926e-02 8.817053e-01 7.055675e-01 -1.629492e-01 -3.208496e-01 2.426517e-01 -1.445970e-02 -5.638399e-01 1.844668e-01 3.250595e-01 -2.916138e-01 -1.931602e-02 1.460091e-01 -2.059277e-01 -6.193466e-03
<VARIANCE> 39
 1.046056e+00 6.046246e-01 6.620069e-01 6.872914e-01 5.536854e-01 9.734548e-01 9.176551e-01 8.543060e-01 5.657909e-01 9.998822e-01 7.315918e-01 1.019235e+00 5.575101e-01 9.871099e-01 1.099207e+00 1.015805e+00 1.303517e+00 9.946597e-01 1.189451e+00 1.360840e+00 1.279024e+00 1.191618e+00 1.137755e+00 9.563388e-01 1.453072e+00 6.444356e-01 7.972592e-01 7.279082e-01 1.086396e+00 9.944462e-01 9.454325e-01 1.023540e+00 1.435782e+00 1.010456e+00 9.545683e-01 1.012488e+00 8.586639e-01 1.632140e+00 6.247624e-01
<GCONST> 6.910693e+01
<STATE> 3
<NUMMIXES> 2
<MIXTURE> 1 4.960240e-01
<MEAN> 39
 -2.384300e-02 -1.593629e-01 1.373959e-01 9.092147e-01 6.655246e-01 3.736695e-01 9.407712e-01 5.121381e-01 -1.076836e+00 3.438357e-02 -2.381533e-01 3.274587e-01 6.457113e-01 4.689476e-01 -5.780970e-01 5.558677e-03 2.811992e-01 -1.802234e-01 7.358336e-02 4.421162e-01 6.260216e-01 -3.410760e-01 3.465520e-01 -3.246594e-01 5.222160e-03 2.495312e+00 -1.115351e+00 -3.571634e-01 -4.689119e-01 -7.276257e-01 -8.168989e-01 -2.858893e-01 -4.502761e-01 -5.522251e-01 -3.906409e-02 2.268361e-01 3.642170e-01 3.863577e-01 -1.453845e+00
<VARIANCE> 39
 4.052132e-01 3.553331e-01 2.955912e-01 3.264394e-01 3.263182e-01 4.692185e-01 3.290697e-01 7.699822e-01 5.390258e-01 4.222888e-01 3.157480e-01 6.667029e-01 4.863143e-01 1.185032e+00 9.398183e-01 1.249717e+00 8.714509e-01 8.906344e-01 8.819772e-01 8.861217e-01 1.508211e+00 1.006852e+00 1.051031e+00 7.113001e-01 1.213438e+00 2.028090e+00 1.526322e+00 1.757242e+00 1.182131e+00 6.688991e-01 1.355460e+00 1.419637e+00 9.626097e-01 1.534286e+00 1.432137e+00 1.264803e+00 7.188775e-01 1.283930e+00 2.991053e+00
<GCONST> 6.465625e+01
<MIXTURE> 2 5.039764e-01
<MEAN> 39
 -2.444273e-01 -1.963027e-01 9.089338e-01 6.932420e-01 -1.523065e-01 -3.076413e-03 1.083032e-01 -3.159264e-01 -1.243281e+00 3.077552e-01 -7.792386e-01 1.447797e-01 8.193967e-01 7.150842e-01 -7.008637e-01 3.213923e-02 5.533075e-01 -5.806827e-01 -1.043687e+00 -8.450383e-02 3.854311e-01 -4.249263e-01 -1.086357e-01 7.995583e-02 -9.178416e-02 1.001102e+00 5.367403e-02 9.923913e-02 -3.632774e-01 1.096327e-01 1.820091e-01 -2.280897e-01 2.843571e-01 5.950095e-01 1.776187e-02 -7.375811e-01 2.920719e-01 5.302526e-01 -8.790172e-01
<VARIANCE> 39
 8.254284e-01 5.319918e-01 9.349543e-01 7.743800e-01 7.822186e-01 9.174225e-01 1.239139e+00 1.214345e+00 9.990310e-01 1.657225e+00 7.446521e-01 1.204879e+00 4.102219e-01 1.153732e+00 1.045751e+00 1.464260e+00 1.512029e+00 6.105281e-01 1.300437e+00 1.718389e+00 1.923110e+00 1.304239e+00 1.409465e+00 1.085736e+00 1.301618e+00 1.481987e+00 1.119605e+00 1.202862e+00 1.427190e+00 2.004905e+00 1.342660e+00 1.566397e+00 1.846835e+00 1.645393e+00 1.846198e+00 1.363557e+00 1.111273e+00 1.544541e+00 1.961201e+00
<GCONST> 7.874886e+01
<STATE> 4
<NUMMIXES> 2
<MIXTURE> 1 4.616508e-01
<MEAN> 39
 -3.584947e-01 -3.270646e-01 6.234890e-01 1.061071e+00 -5.927243e-01 -1.986870e-01 1.118826e+00 2.314405e-01 -2.010032e+00 -1.912430e-02 -5.820650e-01 3.053947e-01 1.109906e+00 7.838165e-01 -1.696770e-02 1.998427e-01 4.862317e-01 5.004131e-02 -2.694076e-01 1.526620e-01 2.404797e-01 6.744613e-02 -4.725860e-01 4.935565e-02 9.361485e-02 -2.257842e-01 -1.412017e-01 3.890698e-01 3.368770e-01 8.108477e-02 4.338478e-01 1.991931e-01 -4.834989e-01 -4.127101e-02 5.167792e-01 -1.445631e-01 -2.908343e-02 2.270023e-01 -4.910264e-01
<VARIANCE> 39
 3.602804e-01 3.176917e-01 4.854158e-01 4.955145e-01 4.398808e-01 5.478369e-01 4.589265e-01 7.700698e-01 4.343899e-01 5.294628e-01 4.260306e-01 6.268132e-01 1.450034e-01 1.400478e+00 8.795861e-01 1.313214e+00 1.093608e+00 1.213115e+00 1.397899e+00 1.368397e+00 1.562565e+00 1.289268e+00 1.086057e+00 9.899655e-01 1.243544e+00 5.912477e-01 9.139580e-01 7.623138e-01 1.132268e+00 9.959567e-01 1.230482e+00 1.229450e+00 1.323114e+00 1.440902e+00 1.212575e+00 1.088190e+00 1.051484e+00 1.258332e+00 6.391389e-01
<GCONST> 6.370576e+01
<MIXTURE> 2 5.383496e-01
<MEAN> 39
 3.446269e-01 -5.659596e-01 -3.450064e-02 1.039461e+00 1.584044e-01 -2.977537e-01 4.521845e-01 7.105839e-01 -1.289673e+00 -1.413950e-01 -2.953970e-01 5.664455e-01 9.634710e-01 -1.622596e-02 -2.812408e-02 3.989570e-01 2.597233e-01 -6.627808e-01 -5.685847e-01 -2.415768e-01 -7.199946e-02 -3.678780e-01 -5.650684e-01 -1.851474e-01 2.888449e-01 1.509343e-01 -5.126148e-01 5.306789e-01 8.679045e-01 -7.258363e-02 -3.809074e-01 9.882116e-02 6.400295e-02 -3.834884e-01 -8.585064e-02 -2.326415e-01 -1.682531e-01 -8.983279e-02 -6.274801e-01
<VARIANCE> 39
 5.396420e-01 3.823507e-01 7.282154e-01 5.124632e-01 3.829409e-01 8.729086e-01 7.954921e-01 9.233043e-01 7.189519e-01 7.618135e-01 5.285726e-01 8.717857e-01 4.280575e-01 8.160176e-01 1.005410e+00 1.278043e+00 1.186318e+00 1.119593e+00 1.475217e+00 1.114058e+00 1.257443e+00 1.114523e+00 1.285408e+00 8.634483e-01 1.448431e+00 8.249952e-01 7.908438e-01 1.143844e+00 1.395490e+00 1.017204e+00 1.072986e+00 1.479616e+00 1.048191e+00 1.205379e+00 1.101154e+00 1.323280e+00 7.943694e-01 1.397128e+00 1.506024e+00
<GCONST> 6.876774e+01
<STATE> 5
<NUMMIXES> 2
<MIXTURE> 1 5.570939e-01
<MEAN> 39
 8.242759e-01 -2.357531e-01 1.325930e+00 1.998607e+00 -3.654670e-01 -1.202443e+00 -5.132576e-01 6.560894e-01 -1.294410e+00 -1.797902e+00 -6.682034e-01 9.043163e-01 5.389209e-01 2.447900e-01 -3.003555e-02 1.680964e-02 1.231597e-01 6.442979e-02 -2.266863e-01 -1.041069e-01 3.182985e-01 1.239461e-02 -2.849561e-01 5.105409e-02 -5.144307e-02 -1.449172e-01 -2.351817e-01 -1.012618e-01 9.428979e-02 -2.512152e-01 -1.815849e-01 2.796784e-01 2.001341e-01 -9.706212e-02 7.630210e-02 3.111896e-01 1.174350e-02 -1.094556e-01 2.697088e-01
<VARIANCE> 39
 1.406768e-01 3.894903e-01 5.678462e-01 3.473661e-01 5.434479e-01 4.134971e-01 4.382769e-01 1.004332e+00 5.103692e-01 5.277644e-01 5.248109e-01 6.440920e-01 3.060920e-01 4.226644e-01 4.502813e-01 1.556130e+00 7.535623e-01 7.003204e-01 1.028727e+00 8.307220e-01 1.013311e+00 6.840738e-01 1.064533e+00 7.748840e-01 9.216683e-01 5.688379e-01 5.751544e-01 5.639406e-01 1.106915e+00 6.406500e-01 6.796488e-01 9.772735e-01 6.938740e-01 1.049753e+00 6.365695e-01 8.549853e-01 7.616021e-01 9.307367e-01 6.336505e-01
<GCONST> 5.443374e+01
<MIXTURE> 2 4.429061e-01
<MEAN> 39
 3.172178e-01 -4.057096e-01 1.315579e+00 1.530839e+00 -7.579005e-01 -9.787050e-01 7.516074e-02 6.416383e-01 -1.479914e+00 -1.145103e+00 -4.898218e-01 8.203468e-01 7.176732e-01 -6.908295e-01 2.817881e-01 1.734345e+00 -5.273855e-02 -7.224879e-01 4.771391e-01 -1.102082e-01 -8.331045e-01 -2.338432e-03 -2.058879e-01 -2.131878e-01 3.584711e-02 1.414003e-01 -2.392194e-01 4.650525e-01 2.481450e-02 -3.577025e-01 5.921383e-01 7.013732e-01 -2.356426e-01 -6.122549e-01 2.105095e-01 2.910453e-01 -1.550029e-01 -1.798078e-01 -2.197020e-01
<VARIANCE> 39
 5.175224e-01 3.521450e-01 7.986113e-01 6.220688e-01 5.447239e-01 9.361044e-01 1.031533e+00 1.345125e+00 7.130477e-01 1.354701e+00 6.441720e-01 8.122652e-01 2.234405e-01 6.918694e-01 8.210130e-01 1.277044e+00 1.362745e+00 9.324557e-01 1.242968e+00 1.258701e+00 1.440580e+00 1.124357e+00 1.391601e+00 8.793435e-01 9.712989e-01 6.855145e-01 7.067425e-01 6.975149e-01 1.453951e+00 1.064734e+00 1.115185e+00 1.146321e+00 1.440470e+00 1.435473e+00 1.160316e+00 1.292861e+00 9.685411e-01 1.096191e+00 5.891324e-01
<GCONST> 6.802988e+01
<STATE> 6
<NUMMIXES> 2
<MIXTURE> 1 6.571814e-01
<MEAN> 39
 -5.341215e-01 1.346048e-01 1.242491e+00 5.151846e-01 -6.772963e-01 5.152833e-01 9.003848e-01 -3.464431e-01 -1.366702e+00 1.511318e-01 -5.719804e-01 5.236455e-01 7.961140e-01 -4.388493e-01 8.184969e-01 1.020097e+00 -2.829813e-01 3.537383e-01 5.252405e-01 -3.725415e-01 -5.479256e-01 2.385879e-01 -1.863348e-01 -2.446550e-01 -5.686739e-02 -3.632130e-01 6.546288e-01 -2.700847e-02 -2.619577e-01 3.408308e-01 5.779107e-01 -5.496219e-01 -5.852780e-01 3.098444e-01 -7.345445e-03 -6.074652e-01 1.581813e-02 1.037320e-01 -7.219639e-02
<VARIANCE> 39
 6.652497e-01 5.135989e-01 7.841889e-01 7.869002e-01 7.109994e-01 5.995417e-01 5.689665e-01 1.045546e+00 5.968729e-01 6.567442e-01 6.557747e-01 7.954053e-01 3.163315e-01 8.563433e-01 9.650974e-01 1.786308e+00 1.372454e+00 1.117609e+00 1.014797e+00 8.973550e-01 1.161426e+00 9.145649e-01 1.198462e+00 1.206880e+00 1.298300e+00 6.857632e-01 1.145067e+00 8.680355e-01 1.619525e+00 1.163459e+00 1.219720e+00 1.222607e+00 9.770843e-01 1.142716e+00 1.009579e+00 1.142771e+00 1.023981e+00 1.365972e+00 5.767273e-01
<GCONST> 6.811259e+01
<MIXTURE> 2 3.428184e-01
<MEAN> 39
 5.781311e-01 -4.709242e-01 1.760642e+00 1.333476e+00 -8.677536e-01 -9.537151e-01 -6.648352e-01 1.400144e-01 -9.908645e-01 -1.099383e+00 -8.856336e-01 5.208380e-01 9.582666e-01 -3.772826e-01 3.545075e-01 6.177686e-01 -3.489016e-01 -1.437615e-01 6.734846e-01 -2.702033e-01 -7.800277e-01 3.262122e-01 -2.631295e-02 -1.265814e-01 1.242102e-01 3.076738e-01 -1.705271e-01 1.984662e-01 -4.357162e-01 -1.911681e-01 3.435525e-01 3.866603e-02 1.560235e-01 1.814417e-01 -6.136539e-02 3.260160e-02 -7.217724e-03 2.161366e-01 -2.145581e-01
<VARIANCE> 39
 2.371658e-01 3.186482e-01 1.114377e+00 8.775658e-01 6.803475e-01 7.344980e-01 5.788825e-01 1.243706e+00 3.850868e-01 1.260914e+00 3.971528e-01 1.928037e+00 1.814619e-01 4.986162e-01 5.204400e-01 1.127653e+00 7.924923e-01 4.492753e-01 1.081779e+00 6.391219e-01 6.888776e-01 5.755596e-01 7.230847e-01 4.858334e-01 9.253363e-01 4.261282e-01 3.421832e-01 3.806711e-01 7.774416e-01 5.885589e-01 5.712112e-01 4.795293e-01 5.686496e-01 5.603403e-01 4.528255e-01 5.446859e-01 6.097059e-01 6.780773e-01 2.908037e-01
<GCONST> 5.104454e+01
<TRANSP> 7
 0.000000e+00 1.000000e+00 0.000000e+00 0.000000e+00 0.000000e+00 0.000000e+00 0.000000e+00
 0.000000e+00 5.921959e-01 4.078040e-01 0.000000e+00 0.000000e+00 0.000000e+00 0.000000e+00
 0.000000e+00 0.000000e+00 5.292091e-01 4.707909e-01 0.000000e+00 0.000000e+00 0.000000e+00
 0.000000e+00 0.000000e+00 0.000000e+00 7.554047e-01 2.445953e-01 0.000000e+00 0.000000e+00
 0.000000e+00 0.000000e+00 0.000000e+00 0.000000e+00 7.974279e-01 2.025721e-01 0.000000e+00
 0.000000e+00 0.000000e+00 0.000000e+00 0.000000e+00 0.000000e+00 5.823225e-01 4.176775e-01
 0.000000e+00 0.000000e+00 0.000000e+00 0.000000e+00 0.000000e+00 0.000000e+00 0.000000e+00
<ENDHMM>
~h "i"
<BEGINHMM>
<NUMSTATES> 7
<STATE> 2
<NUMMIXES> 2
<MIXTURE> 1 5.608744e-01
<MEAN> 39
 -1.838192e+00 1.471757e+00 8.420660e-01 -1.609379e-01 1.008171e+00 4.242404e-01 8.424455e-01 -2.217533e-01 -9.786166e-01 7.979281e-02 -5.158663e-01 4.642667e-01 5.329786e-01 6.526729e-01 2.515799e-01 8.277413e-01 2.827874e-01 9.767612e-02 -1.075557e-02 -2.343984e-01 -1.188706e-01 -2.582445e-01 -4.640268e-01 -2.376163e-01 -1.750311e-01 -1.727378e-03 9.485899e-01 -1.788989e-02 5.212482e-01 5.989770e-01 -1.194426e-01 -2.800058e-01 -2.231307e-01 -4.249119e-02 -1.451790e-01 -3.967903e-01 -2.139753e-01 1.941244e-02 -9.593822e-03
<VARIANCE> 39
 1.922099e-01 3.375671e-01 3.988804e-01 4.256656e-01 3.475809e-01 6.827870e-01 3.453031e-01 5.897066e-01 2.952306e-01 3.234857e-01 4.190161e-01 5.899027e-01 2.729401e-01 1.119884e+00 6.950198e-01 1.168178e+00 1.168851e+00 6.677821e-01 8.878568e-01 8.195764e-01 9.540325e-01 6.973040e-01 9.320328e-01 8.811003e-01 9.166286e-01 5.054554e-01 9.918015e-01 7.952604e-01 1.047940e+00 1.080931e+00 8.176481e-01 9.792852e-01 9.265851e-01 1.082133e+00 7.872127e-01 1.011912e+00 9.240084e-01 1.095898e+00 4.495836e-01
<GCONST> 5.571303e+01
<MIXTURE> 2 4.391227e-01
<MEAN> 39
 -2.614725e-01 1.916632e-01 8.945384e-01 5.226467e-01 2.842350e-01 1.447228e-01 2.959310e-01 -8.420470e-02 -9.241868e-01 -3.227696e-01 -5.752040e-01 2.124432e-01 1.881759e-01 4.442414e-02 4.497325e-01 1.122549e+00 -2.813067e-02 -2.302563e-01 -3.621735e-03 -2.219075e-01 -1.771868e-01 -3.437483e-01 -4.546344e-01 -1.852975e-01 7.090014e-02 7.190274e-01 1.650640e-02 1.606408e-01 2.616596e-01 2.796396e-02 -3.626204e-02 -1.376307e-01 -2.927144e-01 -5.361103e-02 -5.997501e-02 -2.076013e-01 3.724072e-02 1.549139e-01 -2.053643e-01
<VARIANCE> 39
 5.029126e-01 5.790499e-01 8.691757e-01 6.854407e-01 7.541285e-01 9.327044e-01 8.322171e-01 9.323678e-01 6.535552e-01 7.773005e-01 7.721828e-01 8.349047e-01 9.220943e-01 1.520805e+00 1.349981e+00 1.876724e+00 1.658669e+00 1.421707e+00 1.599220e+00 1.329388e+00 1.691121e+00 1.278610e+00 1.441359e+00 1.242903e+00 1.330822e+00 2.610089e+00 2.038474e+00 1.308453e+00 1.822223e+00 1.530905e+00 1.513330e+00 1.661225e+00 1.381235e+00 1.620785e+00 1.223710e+00 1.393523e+00 1.239797e+00 1.333067e+00 3.273221e+00
<GCONST> 7.963969e+01
<STATE> 3
<NUMMIXES> 2
<MIXTURE> 1 5.009975e-01
<MEAN> 39
 -7.723750e-01 1.751123e+00 1.843924e+00 6.608291e-01 9.406088e-01 -9.478111e-03 3.153556e-01 -6.044114e-01 -1.452995e+00 -9.612190e-01 -1.055903e+00 3.383990e-01 3.467622e-01 1.343041e+00 -2.181158e-01 1.376097e+00 6.579068e-01 -5.060793e-01 -4.886870e-01 -7.818843e-01 5.148605e-03 -2.488712e-01 -1.039304e+00 -2.401545e-01 3.194318e-01 1.346998e-01 -4.012453e-01 -7.984309e-01 -4.867211e-01 -2.950575e-01 -4.989246e-01 -1.145839e-01 -1.734527e-01 3.063766e-01 3.331220e-01 1.035953e-01 2.613882e-01 2.688283e-01 1.416766e-01
<VARIANCE> 39
 2.349749e-01 4.006306e-01 3.662399e-01 2.993093e-01 3.922201e-01 5.797228e-01 3.402501e-01 5.916939e-01 3.217720e-01 4.413960e-01 5.274180e-01 6.484083e-01 2.884547e-01 1.007894e+00 9.766655e-01 1.111957e+00 1.230612e+00 8.617800e-01 1.091029e+00 8.068275e-01 1.040097e+00 7.779650e-01 9.409496e-01 9.320894e-01 1.100253e+00 4.276295e-01 9.149199e-01 7.604685e-01 9.347170e-01 9.724080e-01 8.848779e-01 9.750177e-01 8.504481e-01 1.041785e+00 7.429128e-01 9.321021e-01 8.446038e-01 1.052966e+00 4.314812e-01
<GCONST> 5.662407e+01
<MIXTURE> 2 4.990040e-01
<MEAN> 39
 -1.342317e-01 7.705101e-01 2.158455e+00 8.755729e-01 5.909281e-02 -4.030440e-01 -4.480635e-01 -3.280765e-01 -1.354608e+00 -1.367312e+00 -1.009986e+00 6.602265e-01 3.161637e-01 4.710527e-01 -4.766694e-01 9.986791e-01 4.118428e-02 -7.345648e-01 -2.922646e-01 -7.386252e-01 2.366355e-01 -5.514520e-02 -7.083637e-01 2.384356e-02 4.190888e-01 6.608567e-01 -6.595063e-01 -7.273615e-02 -9.422830e-01 -4.436969e-01 2.251115e-01 3.624335e-01 3.598683e-01 1.088194e-01 1.113375e-01 5.383894e-01 1.590572e-01 -2.459336e-01 -1.658810e-01
<VARIANCE> 39
 2.086090e-01 5.696857e-01 6.032388e-01 4.278105e-01 5.801922e-01 7.388832e-01 4.953696e-01 6.602536e-01 5.858784e-01 6.582601e-01 8.572789e-01 8.585389e-01 5.349841e-01 9.728107e-01 1.265306e+00 1.282879e+00 9.751357e-01 1.153634e+00 1.318055e+00 1.021417e+00 1.171540e+00 9.976732e-01 1.067742e+00 9.706286e-01 1.084788e+00 7.674403e-01 1.022056e+00 1.031904e+00 1.254442e+00 1.049177e+00 1.038032e+00 1.132146e+00 8.918415e-01 1.167406e+00 9.669293e-01 9.873703e-01 9.354923e-01 1.011343e+00 7.036843e-01
<GCONST> 6.530017e+01
<STATE> 4
<NUMMIXES> 2
<MIXTURE> 1 5.673972e-01
<MEAN> 39
 -2.390253e-01 1.017356e+00 2.768397e+00 6.822069e-01 -5.612649e-03 7.316890e-02 -7.598777e-01 -2.110445e-01 -1.722393e+00 -1.926409e+00 -8.013660e-01 4.931362e-01 5.579273e-01 -1.940697e-02 -9.189521e-03 1.331694e-02 6.395946e-02 -5.963516e-02 -1.866379e-02 -1.681584e-02 -2.968366e-02 1.746609e-02 -2.139556e-02 1.677072e-02 3.458358e-03 1.361672e-02 2.128840e-02 -7.790346e-02 -2.420715e-01 1.183014e-01 4.650733e-03 -1.292849e-01 1.406452e-01 -8.333788e-03 8.038918e-02 1.997528e-01 -3.297603e-02 4.927604e-05 -1.295579e-01
<VARIANCE> 39
 1.288117e-01 3.551832e-01 2.145195e-01 4.085162e-01 6.129245e-01 7.289969e-01 4.575639e-01 8.240282e-01 6.936285e-01 5.346978e-01 1.216212e+00 1.188604e+00 2.394078e-01 1.971299e-01 3.575968e-01 4.624178e-01 5.246375e-01 5.038908e-01 6.354501e-01 5.283939e-01 6.293480e-01 5.186926e-01 5.817398e-01 5.276136e-01 6.100575e-01 2.573769e-01 2.933407e-01 3.502284e-01 5.872834e-01 5.330675e-01 5.172675e-01 6.495356e-01 5.717357e-01 6.623895e-01 5.345774e-01 6.111935e-01 5.464389e-01 6.173910e-01 2.409639e-01
<GCONST> 4.319988e+01
<MIXTURE> 2 4.325993e-01
<MEAN> 39
 -3.431421e-04 2.679573e-01 2.251849e+00 8.583019e-01 -5.267897e-01 -7.821639e-01 -8.485922e-01 4.487010e-02 -1.481690e+00 -1.380121e+00 -9.796458e-01 9.828861e-01 7.793120e-01 5.036042e-02 -9.986000e-02 -8.692186e-02 1.175700e-02 -1.186289e-01 -6.578321e-02 -1.370167e-02 5.648676e-02 -1.962130e-02 -5.036728e-03 5.497134e-02 -1.261057e-03 -1.245112e-02 -9.956302e-02 1.740261e-01 -3.945647e-01 -2.439820e-02 3.050816e-01 2.170807e-01 2.730668e-01 -8.422052e-02 5.820676e-02 1.645002e-01 4.287629e-02 -1.863514e-01 -4.007886e-01
<VARIANCE> 39
 2.158501e-01 5.179931e-01 5.201108e-01 5.243307e-01 7.066703e-01 8.883536e-01 6.031603e-01 8.414927e-01 6.761041e-01 6.926267e-01 1.049699e+00 8.818451e-01 3.658487e-01 4.231226e-01 6.358092e-01 7.317901e-01 7.159309e-01 7.041106e-01 9.049606e-01 7.195877e-01 8.271496e-01 6.860623e-01 7.337947e-01 6.707448e-01 7.224565e-01 5.449194e-01 5.655542e-01 5.155091e-01 1.019840e+00 6.406977e-01 7.430766e-01 8.952484e-01 7.629067e-01 8.351195e-01 6.409242e-01 7.768885e-01 6.541427e-01 7.126286e-01 6.031189e-01
<GCONST> 5.577223e+01
<STATE> 5
<NUMMIXES> 2
<MIXTURE> 1 5.673447e-01
<MEAN> 39
 -5.455222e-01 1.245709e+00 1.143200e+00 2.911857e-01 5.549856e-01 3.777448e-01 3.388498e-01 -3.936067e-01 -1.115575e+00 -4.927687e-01 -5.249159e-01 -5.793974e-03 -4.215389e-01 -1.001781e-01 -7.575354e-02 -2.070354e-01 5.221023e-02 -2.960945e-02 -4.869056e-02 7.660249e-02 -1.961689e-02 9.311815e-02 1.287071e-01 -1.290479e-03 5.504987e-02 -2.793769e-01 -5.713912e-02 -2.879568e-01 3.248951e-02 1.194289e-01 -1.172875e-01 -1.145623e-01 -9.247626e-02 7.193755e-02 1.236793e-01 -8.546642e-02 1.234448e-02 1.254869e-01 1.522573e-01
<VARIANCE> 39
 7.385828e-01 5.051484e-01 8.295418e-01 6.300340e-01 5.109158e-01 5.777454e-01 5.016776e-01 8.221078e-01 4.921805e-01 8.198901e-01 6.671004e-01 8.873638e-01 7.036991e-01 4.248793e-01 6.632063e-01 7.990512e-01 7.550005e-01 6.095266e-01 7.842116e-01 7.848536e-01 9.293332e-01 7.807397e-01 8.827202e-01 8.340398e-01 1.010103e+00 4.739514e-01 5.584907e-01 5.686454e-01 7.974151e-01 7.897557e-01 7.049836e-01 8.864341e-01 8.777282e-01 1.031250e+00 8.654597e-01 9.047043e-01 8.970461e-01 1.067959e+00 3.597714e-01
<GCONST> 5.854833e+01
<MIXTURE> 2 4.326623e-01
<MEAN> 39
 -1.482101e-01 4.515121e-01 1.732252e+00 8.851936e-01 -8.468666e-02 -3.011101e-01 -2.303004e-01 -1.499823e-01 -1.136760e+00 -1.092940e+00 -7.893625e-01 5.513749e-01 1.454329e-01 -4.770050e-02 -2.321943e-01 -1.124799e+00 -1.739085e-01 2.193028e-01 1.261477e-01 4.676252e-01 1.206339e-01 4.341020e-01 7.055671e-01 2.359580e-01 -2.279256e-01 -6.125216e-01 -1.353917e-01 2.759497e-01 -4.879172e-01 -3.610750e-01 2.568272e-01 2.087769e-01 1.216224e-01 -4.560913e-03 1.083621e-02 3.653741e-01 1.167575e-01 -1.712567e-01 -3.394052e-01
<VARIANCE> 39
 3.255400e-01 6.201882e-01 9.774145e-01 6.132733e-01 8.135498e-01 9.754287e-01 7.440413e-01 9.988113e-01 7.792021e-01 1.011142e+00 9.285043e-01 9.973266e-01 5.923972e-01 7.741833e-01 1.126793e+00 1.346211e+00 1.247024e+00 1.174791e+00 1.391894e+00 1.077951e+00 1.254707e+00 1.145371e+00 1.264277e+00 1.112177e+00 1.129135e+00 1.391133e+00 8.755121e-01 1.128932e+00 1.439449e+00 1.138498e+00 1.336352e+00 1.343141e+00 1.109713e+00 1.272819e+00 1.076593e+00 1.190561e+00 1.035205e+00 1.133230e+00 1.373606e+00
<GCONST> 7.243973e+01
<STATE> 6
<NUMMIXES> 2
<MIXTURE> 1 3.262631e-01
<MEAN> 39
 -5.951021e-01 -8.406113e-02 2.543661e-01 1.018362e-01 -2.057580e-02 -2.599822e-01 3.026383e-02 -7.852917e-02 -2.008543e-01 -1.620990e-01 -8.469965e-02 6.745657e-01 -6.877902e-01 1.222524e-01 -1.733931e-01 -7.281649e-01 -5.194172e-01 -9.891661e-02 1.418064e-01 1.415578e-01 -4.648674e-03 1.378735e-01 4.253929e-01 3.173746e-01 -6.610718e-02 8.097191e-02 2.976343e-01 7.759597e-01 -3.387492e-01 -3.018233e-01 1.247466e-01 1.222504e-01 5.888423e-02 -3.923767e-01 -6.088755e-01 4.188614e-01 -1.635424e-01 -2.686329e-01 -6.253775e-01
<VARIANCE> 39
 3.677224e-01 6.589978e-01 1.104200e+00 6.351103e-01 6.349305e-01 6.806388e-01 5.112634e-01 6.774717e-01 7.711096e-01 8.685070e-01 8.648961e-01 9.094013e-01 7.296426e-01 5.354279e-01 1.271391e+00 1.113697e+00 1.124310e+00 7.217805e-01 8.517516e-01 7.690936e-01 1.072425e+00 1.276391e+00 1.553760e+00 8.356919e-01 1.055516e+00 9.971578e-01 9.092824e-01 1.353933e+00 1.292406e+00 1.221400e+00 9.400224e-01 9.518431e-01 8.666182e-01 1.082045e+00 1.229143e+00 1.447832e+00 8.704988e-01 1.064458e+00 1.181629e+00
<GCONST> 6.792300e+01
<MIXTURE> 2 6.737422e-01
<MEAN> 39
 -7.669584e-01 2.990388e-01 -5.635306e-01 -6.843340e-01 -2.437356e-01 -2.953810e-01 -4.710521e-02 -6.959882e-01 -3.099782e-01 4.828844e-01 1.491085e-02 5.226438e-01 -1.583609e+00 -7.830281e-02 3.468368e-02 1.436350e-01 1.903812e-01 5.104311e-02 -7.406734e-02 -3.473904e-02 -2.307743e-03 -2.514724e-03 -9.234200e-02 -1.151567e-01 4.252885e-04 -1.218345e-01 -1.048609e-01 -2.601238e-01 1.881358e-01 1.728926e-01 1.834862e-02 -1.390330e-02 -1.448931e-02 1.453117e-01 2.121610e-01 -2.158786e-01 3.040883e-02 7.900640e-02 2.981780e-01
<VARIANCE> 39
 4.799202e-02 1.309981e-01 1.872068e-01 2.112562e-01 2.723736e-01 4.285432e-01 3.959743e-01 4.793419e-01 2.415483e-01 4.535948e-01 4.798794e-01 5.627905e-01 8.881191e-02 1.423091e-01 4.822702e-01 4.908702e-01 5.402608e-01 4.463933e-01 5.788604e-01 6.869559e-01 7.763488e-01 7.167799e-01 8.153994e-01 8.558322e-01 8.900528e-01 3.974361e-01 3.398735e-01 3.723428e-01 8.253891e-01 7.598518e-01 5.960001e-01 7.131021e-01 8.376378e-01 8.424266e-01 8.519283e-01 1.000626e+00 9.819347e-01 9.759070e-01 2.372251e-01
<GCONST> 4.052741e+01
<TRANSP> 7
 0.000000e+00 1.000000e+00 0.000000e+00 0.000000e+00 0.000000e+00 0.000000e+00 0.000000e+00
 0.000000e+00 7.767270e-01 2.232730e-01 0.000000e+00 0.000000e+00 0.000000e+00 0.000000e+00
 0.000000e+00 0.000000e+00 7.499277e-01 2.500723e-01 0.000000e+00 0.000000e+00 0.000000e+00
 0.000000e+00 0.000000e+00 0.000000e+00 8.968125e-01 1.031875e-01 0.000000e+00 0.000000e+00
 0.000000e+00 0.000000e+00 0.000000e+00 0.000000e+00 8.337677e-01 1.662323e-01 0.000000e+00
 0.000000e+00 0.000000e+00 0.000000e+00 0.000000e+00 0.000000e+00 9.121447e-01 8.785529e-02
 0.000000e+00 0.000000e+00 0.000000e+00 0.000000e+00 0.000000e+00 0.000000e+00 0.000000e+00
<ENDHMM>
~h "j"
<BEGINHMM>
<NUMSTATES> 7
<STATE> 2
<NUMMIXES> 2
<MIXTURE> 1 6.224349e-01
<MEAN> 39
 -1.735333e+00 1.071117e+00 1.089495e+00 -4.910328e-02 7.053660e-01 6.689891e-01 8.233597e-01 -1.141394e-01 -1.201143e+00 1.889805e-01 -7.290483e-01 5.425546e-01 7.977222e-01 2.267692e-01 -1.988187e-01 3.358015e-01 1.136218e-01 -2.241900e-01 -5.376369e-03 -1.191545e-01 -1.316807e-01 2.734115e-03 -1.164385e-01 -1.177696e-01 -4.120179e-02 9.940067e-02 8.290429e-01 -4.185217e-02 3.226178e-02 3.846129e-01 -6.552607e-02 -3.367527e-01 -8.152437e-02 -2.671726e-02 -7.566490e-02 -1.379215e-01 -6.581731e-02 -8.453149e-02 -6.060682e-02
<VARIANCE> 39
 1.950404e-01 4.205075e-01 3.193274e-01 4.444109e-01 5.682570e-01 6.293539e-01 3.955161e-01 5.652213e-01 3.269728e-01 3.113070e-01 4.389271e-01 5.548986e-01 3.528502e-01 1.063243e+00 8.217523e-01 1.000065e+00 1.017725e+00 9.720944e-01 1.079492e+00 9.140337e-01 9.955642e-01 7.767203e-01 8.282187e-01 8.609924e-01 1.085015e+00 5.349908e-01 9.318358e-01 8.013143e-01 1.001178e+00 1.067426e+00 9.671230e-01 1.196049e+00 1.070620e+00 1.092995e+00 8.701433e-01 9.510495e-01 8.806560e-01 1.222094e+00 3.997611e-01
<GCONST> 5.770466e+01
<MIXTURE> 2 3.775656e-01
<MEAN> 39
 -4.341054e-02 9.491009e-02 9.325144e-01 4.081367e-01 -5.634543e-03 -4.045328e-02 1.636820e-01 2.265345e-01 -9.060927e-01 -2.549476e-01 -4.803002e-01 4.274805e-01 6.226763e-01 -5.436082e-01 4.865041e-01 1.063198e+00 -2.976060e-01 -7.263731e-02 2.400531e-01 -1.096721e-01 -1.341358e-01 -1.840255e-01 -1.325259e-01 -2.220890e-01 2.093691e-01 6.410543e-01 -4.103483e-01 2.424781e-01 -1.128986e-01 -2.067468e-01 1.355033e-01 7.664546e-02 -1.998965e-01 -1.618755e-01 -7.227430e-02 -1.416668e-01 9.915529e-02 6.807145e-02 -7.579469e-01
<VARIANCE> 39
 4.617991e-01 7.441651e-01 1.093284e+00 7.626011e-01 9.446592e-01 1.345167e+00 1.130352e+00 1.114268e+00 9.654722e-01 9.765016e-01 8.677655e-01 1.041780e+00 6.520914e-01 1.417756e+00 1.056192e+00 1.897695e+00 1.702256e+00 1.288631e+00 1.450184e+00 1.450781e+00 1.501435e+00 1.238422e+00 1.337707e+00 1.257352e+00 1.419902e+00 2.814374e+00 1.822212e+00 1.101530e+00 1.846041e+00 1.747891e+00 1.645461e+00 1.684277e+00 1.655892e+00 1.483858e+00 1.229621e+00 1.440582e+00 1.295990e+00 1.376351e+00 2.823286e+00
<GCONST> 8.138435e+01
<STATE> 3
<NUMMIXES> 2
<MIXTURE> 1 3.437613e-01
<MEAN> 39
 -7.987450e-01 8.956705e-01 1.445754e+00 3.989429e-01 4.965053e-01 2.751045e-01 3.357736e-01 -1.827909e-01 -1.344561e+00 -2.850957e-01 -8.754682e-01 1.944984e-01 4.395899e-01 1.250551e+00 -5.494644e-02 7.262266e-01 9.374221e-01 -2.931604e-01 -9.201075e-01 -5.473905e-01 -8.078104e-02 -2.032328e-01 -6.277553e-01 -2.286421e-01 7.207838e-02 2.395652e-01 9.252939e-01 -4.672965e-01 -1.157018e-01 2.623640e-01 -4.762095e-01 -7.294296e-01 -4.778452e-01 2.755371e-01 1.888294e-01 -4.683830e-01 1.588983e-01 5.733593e-01 4.274628e-01
<VARIANCE> 39
 4.256467e-01 5.906680e-01 5.891409e-01 5.911373e-01 6.596409e-01 6.671823e-01 7.199969e-01 8.877562e-01 5.087017e-01 6.597058e-01 5.716202e-01 6.785632e-01 4.581945e-01 2.018113e+00 8.798264e-01 1.739585e+00 1.594064e+00 9.503877e-01 1.684004e+00 1.375539e+00 1.277425e+00 1.091419e+00 1.169690e+00 9.878330e-01 1.175950e+00 7.004303e-01 1.278866e+00 9.902791e-01 1.490076e+00 1.179820e+00 1.267951e+00 1.323159e+00 1.660443e+00 1.313435e+00 1.067386e+00 1.274942e+00 9.921241e-01 1.150475e+00 6.028556e-01
<GCONST> 6.985194e+01
<MIXTURE> 2 6.562377e-01
<MEAN> 39
 -3.160342e-02 2.591422e-01 2.174803e+00 3.339485e-01 -5.365561e-01 -7.330890e-01 -9.650861e-01 2.122347e-01 -9.880556e-01 -1.288151e+00 -1.355174e-01 1.109404e+00 9.483685e-01 -4.296791e-01 7.937614e-01 7.631211e-01 8.796618e-02 5.677475e-01 3.534889e-01 -1.614393e-01 -2.627947e-01 -5.956885e-01 -5.780542e-01 -3.308928e-01 -9.210233e-02 -6.127210e-01 2.154198e-01 -2.123866e-01 -3.952374e-01 1.755098e-01 5.553355e-02 -1.531046e-01 1.586573e-01 1.941585e-01 9.747434e-02 1.440531e-01 -1.118878e-01 -2.197885e-01 -1.722816e-02
<VARIANCE> 39
 2.485590e-01 6.075754e-01 5.503614e-01 3.742178e-01 6.980355e-01 1.405797e+00 4.836433e-01 7.714783e-01 9.272667e-01 8.877343e-01 9.652210e-01 9.109523e-01 3.481862e-01 3.474874e-01 5.286674e-01 8.945333e-01 6.251178e-01 6.889712e-01 9.485418e-01 7.967123e-01 1.044883e+00 7.225198e-01 7.395847e-01 6.769186e-01 9.215860e-01 3.918575e-01 4.032812e-01 4.208243e-01 7.670978e-01 5.844159e-01 7.453029e-01 9.489054e-01 7.179536e-01 9.186827e-01 7.203068e-01 7.042694e-01 6.176889e-01 7.880179e-01 3.997998e-01
<GCONST> 5.524993e+01
<STATE> 4
<NUMMIXES> 2
<MIXTURE> 1 6.652592e-01
<MEAN> 39
