~o
<STREAMINFO> 1 39
<VECSIZE> 39<NULLD><USER><DIAGC>
~h "a"
<BEGINHMM>
<NUMSTATES> 7
<STATE> 2
<NUMMIXES> 2
<MIXTURE> 1 3.582202e-01
<MEAN> 39
 -5.059386e-01 5.149820e-01 -1.023218e-02 7.080720e-01 7.643978e-01 -3.782070e-02 5.185176e-01 -2.948090e-01 -7.949822e-01 -3.550100e-02 -5.638785e-01 2.739659e-01 1.703681e-01 1.131818e+00 4.955352e-02 3.697377e-01 1.901150e-01 -1.720713e-01 -4.673850e-01 -2.349351e-01 9.250255e-02 2.449055e-02 -9.988983e-02 -2.534260e-01 -9.200188e-02 1.351112e+00 1.033149e+00 -4.337279e-01 9.703867e-03 -3.876092e-01 -5.932865e-01 -4.389000e-01 -2.925333e-01 3.077976e-01 3.965597e-01 3.062518e-01 9.528998e-02 -8.651131e-02 5.089461e-01
<VARIANCE> 39
 6.883593e-01 9.014417e-01 9.274915e-01 6.383068e-01 6.300634e-01 8.869175e-01 8.845891e-01 8.940049e-01 6.449556e-01 6.176320e-01 7.677505e-01 8.978784e-01 5.931951e-01 2.528707e+00 1.552717e+00 1.808055e+00 1.768725e+00 1.519989e+00 1.635847e+00 1.536044e+00 1.504898e+00 1.328514e+00 1.443760e+00 1.330486e+00 1.408533e+00 2.308775e+00 2.066837e+00 1.785924e+00 1.888152e+00 1.525499e+00 1.455431e+00 1.626073e+00 1.628675e+00 1.691124e+00 1.442784e+00 1.491863e+00 1.292755e+00 1.494702e+00 2.451908e+00
<GCONST> 8.100031e+01
<MIXTURE> 2 6.417716e-01
<MEAN> 39
 -5.097787e-01 -1.149007e-01 -3.852205e-01 -4.070407e-02 4.621184e-01 6.644875e-02 7.827911e-02 -2.617664e-01 -3.167658e-01 3.541534e-01 -1.570394e-01 2.328205e-01 -7.783792e-01 1.042882e-02 -7.278636e-02 -3.673264e-02 -4.684993e-03 -1.152304e-02 -2.623034e-02 4.153188e-03 4.309551e-02 5.400589e-02 3.255051e-02 -1.245236e-02 -1.335684e-02 7.092465e-02 4.894621e-02 -3.080024e-02 3.632413e-03 4.820386e-03 1.025027e-02 6.306083e-03 4.465157e-02 6.093957e-02 -1.155751e-03 -3.713291e-02 -3.212610e-02 5.980181e-04 1.221553e-01
<VARIANCE> 39
 7.136590e-01 7.455502e-01 8.161868e-01 6.821263e-01 7.375234e-01 8.288688e-01 8.954995e-01 1.122120e+00 8.730265e-01 8.300730e-01 1.160591e+00 1.830958e+00 1.266669e+00 2.646618e-01 5.837038e-01 6.757668e-01 7.267749e-01 6.777871e-01 8.250990e-01 8.183267e-01 9.304560e-01 8.533393e-01 8.656127e-01 8.953283e-01 1.030577e+00 5.538270e-01 4.814104e-01 7.033230e-01 8.769715e-01 7.788251e-01 8.458487e-01 9.118417e-01 9.724159e-01 1.023029e+00 9.575196e-01 9.673471e-01 9.584868e-01 1.086881e+00 6.928132e-01
<GCONST> 6.410287e+01
<STATE> 3
<NUMMIXES> 2
<MIXTURE> 1 3.719972e-01
<MEAN> 39
 6.353714e-01 5.643493e-03 -2.088934e-01 7.003443e-01 8.636044e-01 1.578201e-01 2.839676e-01 -1.347254e-01 -7.684543e-01 2.187969e-01 -4.044411e-01 -1.470901e-01 5.130119e-01 1.989640e+00 -7.147424e-01 -8.270475e-01 -8.280174e-01 -5.440257e-01 -4.559736e-01 1.022922e-01 8.471331e-01 8.056698e-01 1.103033e+00 8.414034e-04 -8.381513e-01 2.656805e+00 -4.540945e-01 -9.223755e-01 -9.931012e-01 -1.170471e+00 -7.913243e-01 -3.734668e-01 -7.357644e-02 1.672476e-01 5.085236e-01 7.112890e-01 2.563348e-01 -1.979099e-01 -1.967057e-01
<VARIANCE> 39
 2.748919e-01 3.835135e-01 4.456782e-01 3.732469e-01 4.333407e-01 5.390346e-01 7.092880e-01 1.080928e+00 7.039829e-01 5.813018e-01 7.401699e-01 9.748229e-01 4.315133e-01 1.202507e+00 1.158784e+00 1.731993e+00 1.772217e+00 1.455876e+00 1.595728e+00 1.697518e+00 1.910625e+00 1.859226e+00 1.747405e+00 1.617377e+00 1.720783e+00 1.993373e+00 2.305356e+00 1.375877e+00 1.519103e+00 1.287885e+00 1.307812e+00 1.361152e+00 1.483496e+00 2.047107e+00 1.518810e+00 1.393877e+00 1.354054e+00 1.478333e+00 3.554477e+00
<GCONST> 7.644333e+01
<MIXTURE> 2 6.280026e-01
<MEAN> 39
 3.880161e-01 7.839018e-02 6.352584e-01 7.018963e-01 -1.249381e-01 -9.429324e-01 -3.165303e-01 -1.018735e-01 -5.792340e-01 -5.711317e-02 -7.035044e-01 2.042595e-01 8.962888e-01 1.255794e+00 -1.214460e+00 1.877441e-01 -4.794942e-01 -1.174059e+00 -9.023660e-01 -6.903910e-01 6.383761e-01 6.854050e-01 2.594979e-01 1.577266e-01 2.506350e-01 1.338319e+00 -9.009864e-01 -5.158982e-01 -6.966838e-01 -4.674071e-01 -2.603636e-02 4.851544e-01 3.978651e-01 3.639358e-01 2.430926e-01 2.396433e-01 7.770463e-02 -2.025030e-02 -6.469218e-02
<VARIANCE> 39
 3.525594e-01 6.827052e-01 1.322222e+00 7.213679e-01 6.031332e-01 8.861323e-01 9.114093e-01 9.585137e-01 9.441935e-01 1.026642e+00 8.165273e-01 1.171360e+00 4.219868e-01 1.975010e+00 1.325240e+00 1.934286e+00 1.401885e+00 1.349517e+00 1.494450e+00 1.553955e+00 1.591944e+00 1.563475e+00 1.472281e+00 1.238940e+00 1.265943e+00 9.074978e-01 1.659584e+00 1.256897e+00 1.402647e+00 9.116970e-01 9.649660e-01 1.013765e+00 1.010006e+00 1.150589e+00 9.875600e-01 9.702710e-01 8.550068e-01 1.004688e+00 7.251542e-01
<GCONST> 7.385265e+01
<STATE> 4
<NUMMIXES> 2
<MIXTURE> 1 5.232313e-01
<MEAN> 39
 6.573093e-01 -7.230179e-01 6.413569e-01 3.604884e-01 -9.621820e-01 -1.242573e+00 -6.571881e-01 5.667779e-01 2.300636e-01 6.821714e-02 -5.231950e-01 3.705163e-01 1.377854e+00 2.498357e-01 -1.235467e+00 -8.056437e-01 -9.058813e-01 -8.079752e-01 -2.730955e-01 2.290659e-01 1.124675e+00 1.089622e+00 4.076728e-01 -1.036713e-02 -4.494135e-02 1.214736e+00 -8.907818e-01 6.122903e-01 -3.325609e-01 2.148472e-01 1.013320e+00 6.157528e-01 6.138756e-01 -2.911209e-01 -5.806122e-01 -1.712762e-01 -3.410757e-01 -4.502533e-01 -1.006502e+00
<VARIANCE> 39
 1.870236e-01 3.861936e-01 7.263223e-01 4.463603e-01 4.792503e-01 7.540998e-01 8.266105e-01 1.036949e+00 1.407347e+00 7.557765e-01 9.382006e-01 1.248742e+00 1.942422e-01 5.567422e-01 8.098601e-01 1.617501e+00 8.867381e-01 9.758884e-01 1.056115e+00 1.261596e+00 1.483194e+00 1.327939e+00 1.018787e+00 1.031749e+00 1.075832e+00 6.660395e-01 1.105763e+00 7.375070e-01 1.244132e+00 7.958300e-01 8.812428e-01 9.360029e-01 9.768645e-01 1.047242e+00 1.033535e+00 9.014068e-01 8.729557e-01 9.234190e-01 6.583623e-01
<GCONST> 6.446541e+01
<MIXTURE> 2 4.767746e-01
<MEAN> 39
 1.069675e+00 -6.007560e-01 -1.086141e+00 -2.769068e-01 4.187895e-01 -2.222744e-01 2.696330e-01 1.372958e-01 -3.618734e-01 1.382020e+00 -2.594592e-01 -9.208921e-01 1.085802e+00 4.345259e-01 -1.182268e+00 -1.018338e+00 -1.185834e+00 -4.648142e-01 -3.023547e-01 2.266267e-01 5.011600e-01 4.625210e-01 9.747733e-01 -2.375657e-01 -7.697393e-01 1.367341e+00 -1.516625e+00 2.549782e-01 5.578120e-01 4.692775e-01 3.676314e-01 3.011937e-01 1.582280e-01 -6.484696e-02 -2.868141e-01 -8.228121e-01 -3.994665e-01 2.538119e-01 -1.048504e+00
<VARIANCE> 39
 3.369800e-01 4.819539e-01 4.595191e-01 5.357897e-01 4.976468e-01 1.125241e+00 9.754872e-01 1.310575e+00 1.055213e+00 8.522875e-01 1.367303e+00 1.257757e+00 5.430943e-01 1.020122e+00 1.131808e+00 1.327307e+00 1.461985e+00 9.228717e-01 1.384391e+00 1.274282e+00 1.720716e+00 1.619741e+00 1.481830e+00 1.298262e+00 1.333003e+00 1.201985e+00 1.557223e+00 9.756765e-01 1.266341e+00 1.082457e+00 9.343214e-01 1.102130e+00 1.140118e+00 1.193375e+00 1.148146e+00 1.273082e+00 1.182599e+00 1.192479e+00 1.395449e+00
<GCONST> 7.352159e+01
<STATE> 5
<NUMMIXES> 2
<MIXTURE> 1 5.525133e-01
<MEAN> 39
 6.126917e-01 -1.123722e+00 4.416398e-01 1.680388e-01 -1.215208e+00 -1.197631e+00 -3.313582e-01 1.215179e+00 7.032058e-01 -6.324233e-02 -5.227002e-01 2.563722e-01 1.637735e+00 -1.616140e-02 -2.284870e-01 -2.557093e-01 -9.933415e-02 9.785184e-02 2.089207e-02 1.625411e-01 2.367065e-01 6.429622e-02 -1.707669e-02 -1.245979e-01 -1.958554e-01 1.673322e-01 4.794163e-03 3.883241e-01 1.272090e-01 1.992201e-01 3.396526e-01 1.929037e-02 -8.790860e-02 -3.321490e-01 -3.887537e-01 2.621244e-02 1.342878e-02 1.418330e-02 -4.705047e-01
<VARIANCE> 39
 1.479088e-01 3.329679e-01 5.914354e-01 3.802061e-01 3.493660e-01 7.363926e-01 8.532733e-01 1.057879e+00 1.512081e+00 6.122341e-01 8.932988e-01 1.194297e+00 1.588959e-01 2.637200e-01 4.034026e-01 9.077166e-01 4.800669e-01 5.218423e-01 5.567817e-01 6.946625e-01 6.682272e-01 5.729248e-01 5.406381e-01 7.506077e-01 8.238289e-01 2.186852e-01 3.295940e-01 3.866444e-01 5.295313e-01 4.346593e-01 5.008545e-01 5.305742e-01 5.622734e-01 6.026390e-01 5.374708e-01 4.772277e-01 5.404659e-01 5.524158e-01 3.480681e-01
<GCONST> 4.605326e+01
<MIXTURE> 2 4.474764e-01
<MEAN> 39
 8.283167e-01 -1.125287e+00 -9.970554e-01 -4.495796e-01 8.999830e-02 -6.952818e-01 2.608199e-01 8.610666e-01 1.800438e-01 1.245252e+00 -1.095773e+00 -9.975832e-01 1.376416e+00 -1.791483e-01 -4.356422e-01 -4.826262e-01 -4.037590e-01 2.837682e-01 1.755774e-01 4.273405e-01 4.875435e-01 4.833324e-02 -6.634146e-02 -5.034038e-01 -4.640667e-01 4.278690e-01 -1.966207e-01 6.645393e-01 6.157887e-01 5.160679e-01 1.585713e-01 1.599612e-01 -1.951555e-01 -3.531483e-01 -3.616792e-01 -4.998291e-01 2.393305e-01 2.848769e-01 -7.151516e-01
<VARIANCE> 39
 3.092534e-01 5.610570e-01 6.118393e-01 5.340113e-01 6.535637e-01 1.697656e+00 1.045715e+00 1.799791e+00 1.460537e+00 1.060742e+00 1.385468e+00 1.368563e+00 5.376456e-01 4.522843e-01 6.490735e-01 1.191237e+00 8.715535e-01 9.011104e-01 1.042781e+00 9.612622e-01 1.184071e+00 8.587583e-01 8.818325e-01 9.154350e-01 1.060237e+00 5.091240e-01 7.039710e-01 6.713547e-01 9.843518e-01 8.700951e-01 8.980229e-01 9.546177e-01 9.102520e-01 1.090626e+00 9.786360e-01 8.958943e-01 8.458375e-01 8.806016e-01 7.432984e-01
<GCONST> 6.610806e+01
<STATE> 6
<NUMMIXES> 2
<MIXTURE> 1 5.175885e-01
<MEAN> 39
 8.469825e-01 -1.350351e+00 -6.294450e-01 -2.273666e-01 -2.328094e-01 -9.635339e-01 2.083152e-02 1.398099e+00 4.675660e-01 7.864326e-01 -1.220471e+00 -1.047665e+00 1.678205e+00 -5.396223e-03 7.774057e-02 2.716911e-01 1.983780e-01 -1.199979e-01 -1.659922e-01 -1.935137e-01 7.090069e-03 -1.241601e-01 -1.077987e-01 1.933274e-01 2.125904e-01 -8.706904e-02 5.625457e-02 2.213018e-01 1.676766e-01 1.625931e-01 8.722538e-03 8.354378e-03 -1.214124e-01 -2.972131e-01 -1.680638e-01 3.336823e-02 1.907606e-01 1.483868e-01 -3.286842e-01
<VARIANCE> 39
 1.215864e-01 3.053737e-01 7.309085e-01 3.891265e-01 5.915428e-01 1.453381e+00 9.319367e-01 1.490731e+00 1.236229e+00 9.937001e-01 1.031010e+00 1.449110e+00 1.378793e-01 1.869414e-01 2.622114e-01 5.854170e-01 4.329571e-01 4.756811e-01 5.981888e-01 5.967620e-01 6.267712e-01 5.137342e-01 4.997057e-01 6.148936e-01 6.605561e-01 1.480049e-01 2.379070e-01 2.758515e-01 3.920958e-01 3.601661e-01 4.318776e-01 4.999231e-01 5.066021e-01 4.743068e-01 4.282525e-01 4.272354e-01 4.748642e-01 4.717055e-01 2.566822e-01
<GCONST> 4.293584e+01
<MIXTURE> 2 4.823674e-01
<MEAN> 39
 8.941391e-01 -1.125122e+00 -1.670579e+00 -9.130701e-01 8.424838e-01 1.752990e-01 9.579602e-01 5.017960e-01 -4.563603e-01 1.464707e+00 -1.147191e+00 -1.895386e+00 1.454834e+00 -4.272143e-02 6.148916e-02 1.098314e-02 -1.845607e-02 7.360700e-02 5.673088e-02 1.474212e-02 -2.253504e-02 -4.623832e-02 -3.722588e-02 -2.112499e-02 2.826856e-02 -5.909321e-02 2.065748e-02 1.198518e-01 1.826578e-01 1.635477e-01 -1.007183e-01 -7.791497e-02 -1.393001e-01 5.993251e-04 5.656236e-02 -6.305669e-02 9.848007e-02 1.521301e-01 -2.115604e-01
<VARIANCE> 39
 2.034461e-01 4.403138e-01 4.737012e-01 5.772306e-01 6.064689e-01 1.470411e+00 8.693127e-01 1.598093e+00 1.055189e+00 8.542592e-01 1.143496e+00 1.342576e+00 3.762219e-01 2.381680e-01 3.658701e-01 4.777638e-01 5.458851e-01 4.968490e-01 6.474274e-01 5.765681e-01 6.657734e-01 5.246521e-01 5.343724e-01 5.665358e-01 6.544684e-01 3.523193e-01 3.517621e-01 3.997559e-01 5.402350e-01 4.935756e-01 5.151238e-01 5.751796e-01 5.511884e-01 5.185702e-01 4.700876e-01 5.164143e-01 4.645782e-01 5.683753e-01 3.624116e-01
<GCONST> 4.883186e+01
<TRANSP> 7
 0.000000e+00 1.000000e+00 0.000000e+00 0.000000e+00 0.000000e+00 0.000000e+00 0.000000e+00
 0.000000e+00 7.927070e-01 2.072930e-01 0.000000e+00 0.000000e+00 0.000000e+00 0.000000e+00
 0.000000e+00 0.000000e+00 5.118332e-01 4.881668e-01 0.000000e+00 0.000000e+00 0.000000e+00
 0.000000e+00 0.000000e+00 0.000000e+00 5.539031e-01 4.460969e-01 0.000000e+00 0.000000e+00
 0.000000e+00 0.000000e+00 0.000000e+00 0.000000e+00 6.838658e-01 3.161342e-01 0.000000e+00
 0.000000e+00 0.000000e+00 0.000000e+00 0.000000e+00 0.000000e+00 8.693380e-01 1.306621e-01
 0.000000e+00 0.000000e+00 0.000000e+00 0.000000e+00 0.000000e+00 0.000000e+00 0.000000e+00
<ENDHMM>
~h "b"
<BEGINHMM>
<NUMSTATES> 7
<STATE> 2
<NUMMIXES> 2
<MIXTURE> 1 4.244298e-01
<MEAN> 39
 1.043182e+00 -9.909357e-02 -4.618087e-01 1.790743e-01 2.723426e-01 -3.706746e-01 -4.185289e-01 -3.015893e-01 -8.656442e-01 4.277728e-01 1.861281e-01 -2.724568e-01 3.839338e-01 -9.043239e-01 1.157800e+00 6.845623e-01 9.470745e-01 1.283020e+00 1.344426e+00 3.123443e-01 -7.646494e-01 -5.854878e-01 -7.755910e-01 3.720745e-02 4.077236e-01 -2.753312e+00 -1.527184e+00 1.594051e-01 8.896726e-01 5.590239e-01 4.434880e-01 5.858054e-01 8.100348e-01 3.996392e-01 2.185012e-01 -6.366566e-01 -7.977589e-01 7.017516e-02 -7.524220e-01
<VARIANCE> 39
 2.805969e-01 4.799713e-01 9.317836e-01 8.855214e-01 3.767782e-01 9.370656e-01 8.907371e-01 9.480258e-01 1.070398e+00 1.322700e+00 1.000100e+00 1.000684e+00 4.496484e-01 9.381580e-01 8.453433e-01 2.047451e+00 2.076902e+00 1.120926e+00 1.696993e+00 1.677932e+00 1.561685e+00 1.628968e+00 2.258727e+00 1.350792e+00 1.924000e+00 1.401460e+00 1.285078e+00 8.472361e-01 1.156973e+00 9.908216e-01 1.089912e+00 1.276455e+00 1.229934e+00 1.235646e+00 1.197851e+00 1.439329e+00 1.301630e+00 1.169245e+00 1.654315e+00
<GCONST> 7.567488e+01
<MIXTURE> 2 5.755723e-01
<MEAN> 39
 7.267812e-01 -4.157334e-01 -4.468725e-01 -1.353732e-02 -2.071685e-02 -4.714131e-01 -3.275716e-02 2.130580e-01 -1.118653e-01 5.208091e-01 -3.158048e-01 -4.509024e-01 5.596080e-01 2.616980e-01 3.690917e-01 1.093565e-02 2.680570e-01 3.026236e-01 5.987746e-02 -3.152674e-01 -3.092086e-01 -3.460620e-01 3.353219e-02 3.102531e-01 -3.942869e-02 -5.859292e-01 -3.145218e-01 3.850152e-01 1.297138e-01 1.698662e-01 3.836553e-01 4.697688e-01 1.149630e-01 -3.092961e-01 -2.735534e-01 -1.978419e-01 1.504360e-02 1.140915e-01 -8.978767e-01
<VARIANCE> 39
 4.081262e-01 8.160220e-01 1.331488e+00 8.598322e-01 7.861140e-01 1.637885e+00 1.158818e+00 1.064756e+00 1.586790e+00 1.579676e+00 1.175474e+00 2.111504e+00 1.027344e+00 7.316318e-01 9.208238e-01 1.290581e+00 9.865577e-01 1.016524e+00 1.168389e+00 1.037235e+00 1.157475e+00 1.288046e+00 1.257849e+00 1.294879e+00 1.227611e+00 1.426402e+00 1.126852e+00 8.423399e-01 1.288936e+00 9.517137e-01 1.000460e+00 1.213330e+00 1.010744e+00 1.055918e+00 1.128297e+00 1.287569e+00 8.695486e-01 1.217796e+00 1.683504e+00
<GCONST> 7.589617e+01
<STATE> 3
<NUMMIXES> 2
<MIXTURE> 1 4.877847e-01
<MEAN> 39
 5.143338e-01 2.580703e-01 1.794031e-01 9.857959e-01 1.054070e+00 5.022544e-01 -3.073839e-02 -5.607021e-01 -1.137123e+00 -3.672298e-01 -2.153743e-01 1.431444e-01 -4.093185e-01 -1.472774e+00 1.009880e+00 9.357653e-01 1.050026e+00 1.285825e+00 1.253132e+00 8.333665e-01 -1.629772e-01 -9.751191e-02 -6.493065e-01 -4.992342e-01 8.859457e-02 -2.574902e+00 7.313137e-01 -1.894341e-01 -1.071297e-01 -6.916719e-01 -9.736556e-01 -9.875620e-01 -1.195914e-01 6.214939e-01 5.250182e-01 4.967178e-01 -2.552253e-02 -3.472518e-01 1.727584e+00
<VARIANCE> 39
 1.430288e-01 2.501683e-01 4.878121e-01 3.892503e-01 3.415136e-01 5.285771e-01 5.130548e-01 6.143059e-01 6.437439e-01 4.989741e-01 6.072075e-01 7.517721e-01 1.229056e-01 5.998796e-01 7.330895e-01 1.697802e+00 1.474941e+00 9.483530e-01 1.386817e+00 1.125267e+00 1.094489e+00 1.443071e+00 2.144873e+00 1.267313e+00 1.600492e+00 8.933396e-01 9.544244e-01 9.846238e-01 1.575434e+00 1.222520e+00 1.019603e+00 1.202975e+00 1.136647e+00 1.177046e+00 1.297566e+00 1.577225e+00 1.073431e+00 1.440669e+00 1.161088e+00
<GCONST> 6.449583e+01
<MIXTURE> 2 5.122147e-01
<MEAN> 39
 3.200125e-01 8.508811e-01 -6.298427e-02 2.690501e-01 6.550626e-01 4.478950e-01 3.732151e-01 -3.671115e-01 -7.909711e-01 -1.415330e-01 -3.508515e-01 -1.767281e-01 -8.415201e-01 -3.328461e-01 7.462744e-01 8.548610e-01 7.370379e-01 7.113469e-01 4.484291e-01 2.012918e-01 -6.506121e-02 -2.102829e-01 -3.771342e-01 -2.566403e-01 -8.947513e-02 -8.212417e-01 -1.399880e-01 -3.578028e-01 3.128495e-01 1.772039e-01 -2.254672e-01 -2.963465e-01 -2.137436e-01 1.785000e-01 2.267334e-01 -1.755023e-01 -1.056510e-01 5.757828e-02 4.939212e-01
<VARIANCE> 39
 3.934882e-01 3.058462e-01 3.981428e-01 3.968261e-01 3.709342e-01 5.490854e-01 5.405869e-01 7.205107e-01 6.374907e-01 6.393207e-01 5.871556e-01 7.778740e-01 3.173929e-01 1.152574e+00 9.558120e-01 1.138144e+00 9.060211e-01 8.127423e-01 9.248706e-01 9.908695e-01 1.127980e+00 1.066240e+00 1.217031e+00 8.733771e-01 1.090421e+00 9.642804e-01 9.469241e-01 7.113420e-01 1.094205e+00 7.668567e-01 7.767593e-01 9.837185e-01 9.941322e-01 1.202654e+00 1.045212e+00 1.190748e+00 9.187040e-01 1.062824e+00 7.309991e-01
<GCONST> 6.170099e+01
<STATE> 4
<NUMMIXES> 2
<MIXTURE> 1 6.459212e-01
<MEAN> 39
 2.114561e-01 9.859737e-01 6.353438e-01 1.219176e+00 1.370304e+00 8.132992e-01 4.404716e-01 -4.722238e-01 -1.115708e+00 -6.617682e-01 -6.921498e-01 -1.577579e-01 -1.026803e+00 -5.406495e-01 5.347782e-01 6.170021e-01 2.012202e-01 7.153168e-02 -4.465558e-02 2.056242e-01 2.344887e-01 3.549703e-01 -1.240826e-01 -2.613845e-01 -1.054745e-01 -7.633001e-01 5.124732e-01 -8.731976e-01 -4.645786e-01 -5.311549e-01 -9.268816e-01 -6.249874e-01 -3.362439e-01 1.703056e-01 2.603313e-01 2.996773e-01 4.557707e-01 2.489601e-01 1.634072e+00
<VARIANCE> 39
 7.771063e-02 2.205600e-01 2.942291e-01 2.494703e-01 2.757092e-01 4.340096e-01 3.852645e-01 5.257297e-01 3.806461e-01 4.255675e-01 5.918557e-01 7.686573e-01 8.189077e-02 3.137962e-01 1.070457e+00 8.625675e-01 6.322369e-01 7.343344e-01 8.225660e-01 7.368551e-01 8.306505e-01 9.228909e-01 7.353319e-01 9.508692e-01 1.068031e+00 7.763410e-01 6.098560e-01 9.631352e-01 1.106157e+00 7.155206e-01 7.807269e-01 9.874106e-01 8.434247e-01 8.659465e-01 9.075643e-01 9.512401e-01 1.052972e+00 1.091009e+00 9.852005e-01
<GCONST> 5.148773e+01
<MIXTURE> 2 3.540793e-01
<MEAN> 39
 1.072679e-01 5.846367e-01 4.177893e-01 8.297101e-01 8.169031e-01 2.923283e-01 1.394729e-01 -1.194240e-01 -5.783812e-01 -4.294631e-01 -4.832832e-01 -6.064260e-03 -8.520736e-01 -2.684905e-01 8.260731e-02 3.497705e-01 1.626762e-01 1.110097e-01 2.569874e-01 2.254228e-01 1.198106e-01 9.471116e-02 -1.440729e-01 4.980583e-02 -6.574161e-03 -1.654221e-01 6.276131e-01 -9.248725e-02 -9.068577e-01 -7.603449e-01 -3.737543e-01 -1.297570e-01 -5.740652e-02 -1.006241e-01 -2.112262e-01 5.855730e-01 3.231494e-01 1.666711e-02 6.240857e-01
<VARIANCE> 39
 2.780260e-01 4.491669e-01 3.963894e-01 4.735757e-01 3.165165e-01 4.601783e-01 4.806708e-01 6.456744e-01 5.317933e-01 8.393566e-01 5.869358e-01 8.783141e-01 3.497288e-01 1.004847e+00 1.325831e+00 1.018941e+00 9.491163e-01 7.892757e-01 9.451020e-01 9.829645e-01 1.098934e+00 1.125181e+00 1.222123e+00 9.612281e-01 1.230051e+00 1.021275e+00 2.142493e+00 1.755139e+00 1.702891e+00 1.077750e+00 1.013985e+00 1.059887e+00 1.037554e+00 1.239189e+00 1.378422e+00 1.652389e+00 1.011804e+00 1.444230e+00 1.879656e+00
<GCONST> 6.694085e+01
<STATE> 5
<NUMMIXES> 2
<MIXTURE> 1 6.200536e-01
<MEAN> 39
 1.967452e-03 1.354333e+00 8.080897e-01 1.015807e+00 1.000290e+00 5.663912e-01 5.280458e-01 -1.135760e-01 -6.426628e-01 -1.985888e-01 -6.801766e-01 -3.544471e-01 -1.395124e+00 -1.497121e-01 -2.858205e-01 4.436902e-02 1.500111e-01 7.013969e-03 -4.584862e-02 -2.050840e-02 6.084739e-02 9.176630e-02 -1.115918e-01 6.296549e-02 1.503368e-01 1.541851e-01 -7.591787e-03 -6.321599e-01 -2.694409e-01 -1.631013e-01 -1.568362e-01 -1.576757e-03 -5.786602e-02 -4.776219e-03 7.115347e-02 -1.990672e-02 2.092891e-01 2.552548e-01 7.031200e-01
<VARIANCE> 39
 6.129392e-02 1.590180e-01 1.878034e-01 2.505117e-01 1.916085e-01 3.581483e-01 2.793537e-01 5.086266e-01 3.291467e-01 5.350310e-01 5.158977e-01 6.526436e-01 9.049585e-02 1.775433e-01 7.112389e-01 5.602365e-01 5.015700e-01 4.432670e-01 5.726372e-01 5.920510e-01 6.566632e-01 6.577184e-01 6.905248e-01 7.932972e-01 8.946651e-01 4.800228e-01 3.281313e-01 4.679467e-01 7.301143e-01 6.006263e-01 5.928499e-01 6.753655e-01 7.498693e-01 7.765570e-01 7.533103e-01 7.928383e-01 8.996812e-01 9.338914e-01 4.797356e-01
<GCONST> 4.103287e+01
<MIXTURE> 2 3.799498e-01
<MEAN> 39
 -2.848296e-02 6.455173e-01 4.094897e-01 6.900129e-01 7.856709e-01 5.719432e-01 4.458961e-01 -1.314530e-01 -4.797467e-01 -2.392785e-01 -1.565241e-01 1.980086e-01 -8.934638e-01 1.742574e-01 -1.689143e-01 -6.469883e-01 -5.134163e-01 -9.641022e-02 1.443147e-01 1.957203e-02 -1.710348e-01 -1.854623e-01 4.498639e-01 4.210113e-01 1.937023e-01 3.356149e-01 4.424432e-01 2.678022e-01 -3.725019e-02 1.779353e-01 1.571470e-01 -1.636357e-01 -8.853348e-02 -9.207630e-02 -2.582268e-01 1.423135e-02 -2.486518e-01 -1.907998e-01 2.831136e-01
<VARIANCE> 39
 1.341439e-01 2.721494e-01 3.166425e-01 3.467385e-01 2.532989e-01 3.583927e-01 3.004757e-01 6.125409e-01 4.181622e-01 7.301082e-01 4.537457e-01 6.152550e-01 1.550423e-01 3.996706e-01 1.428452e+00 9.750759e-01 8.375586e-01 7.112861e-01 7.320601e-01 7.498077e-01 8.808180e-01 8.981341e-01 1.234854e+00 7.607617e-01 1.051362e+00 1.067500e+00 9.578494e-01 1.414046e+00 1.617884e+00 1.132073e+00 9.231398e-01 9.320679e-01 8.395207e-01 1.091130e+00 1.049627e+00 1.709019e+00 7.830225e-01 1.030840e+00 2.101987e+00
<GCONST> 5.763810e+01
<STATE> 6
<NUMMIXES> 2
<MIXTURE> 1 3.575631e-01
<MEAN> 39
 -4.753857e-01 -3.749550e-02 -1.702666e-01 1.632055e-01 5.167720e-01 3.501898e-01 2.034640e-01 -5.001765e-02 -1.563745e-01 -3.138141e-01 2.677387e-01 7.437558e-01 -7.982160e-01 3.967639e-01 -4.663139e-01 -5.962123e-01 -3.922678e-01 -2.713722e-01 -1.554472e-01 -1.321897e-02 -1.444913e-01 -6.967743e-02 2.597710e-01 2.155553e-01 1.369642e-01 1.099989e+00 8.142373e-01 8.183587e-01 -1.444949e-01 -3.490647e-01 4.072030e-03 6.336181e-02 1.632521e-01 -5.380654e-02 -3.187824e-01 4.521944e-01 -3.138623e-01 -5.953515e-01 1.983033e-01
<VARIANCE> 39
 4.184709e-01 3.553414e-01 4.647566e-01 6.373661e-01 5.230107e-01 5.011260e-01 3.524276e-01 6.606129e-01 8.499179e-01 4.394146e-01 5.934123e-01 7.196044e-01 2.252456e-01 5.938376e-01 1.505481e+00 1.153862e+00 1.111919e+00 6.639302e-01 8.120756e-01 7.172889e-01 9.208809e-01 1.210543e+00 1.378567e+00 8.450623e-01 1.139390e+00 1.434781e+00 1.088512e+00 1.512621e+00 1.540667e+00 1.226677e+00 9.729051e-01 9.996932e-01 8.878589e-01 1.129390e+00 1.344089e+00 1.337407e+00 9.234679e-01 1.122564e+00 2.641444e+00
<GCONST> 6.507570e+01
<MIXTURE> 2 6.424212e-01
<MEAN> 39
 -8.999104e-01 2.810026e-01 -6.276036e-01 -8.572626e-01 2.082325e-01 4.855723e-01 2.400443e-01 -6.759273e-02 4.367905e-02 1.854222e-01 3.185495e-01 1.854815e-01 -1.424583e+00 -8.688593e-02 5.247673e-02 1.672997e-01 1.421437e-01 7.566030e-02 6.151808e-03 -1.767889e-02 8.435094e-02 1.432781e-02 -1.021194e-01 -9.389915e-02 -3.303451e-02 -1.310231e-01 -9.349676e-02 -2.872187e-01 1.438944e-01 1.964936e-01 -1.326856e-02 -6.477144e-02 -5.135353e-02 8.872934e-02 1.555564e-01 -2.028792e-01 1.749104e-02 1.498741e-01 2.744863e-01
<VARIANCE> 39
 5.310198e-02 1.025562e-01 3.228145e-01 1.966079e-01 3.997252e-01 4.870719e-01 2.957048e-01 6.535629e-01 3.955952e-01 3.990532e-01 6.424556e-01 8.212143e-01 7.199699e-02 1.608760e-01 3.972441e-01 4.787057e-01 5.676506e-01 5.449269e-01 7.508523e-01 7.229009e-01 8.422203e-01 6.994013e-01 8.713636e-01 8.743510e-01 1.139184e+00 3.029802e-01 4.138632e-01 4.754006e-01 7.923455e-01 7.103464e-01 7.844610e-01 8.815063e-01 9.008837e-01 9.804223e-01 9.284859e-01 1.029709e+00 1.049453e+00 1.114567e+00 2.411409e-01
<GCONST> 4.416994e+01
<TRANSP> 7
 0.000000e+00 1.000000e+00 0.000000e+00 0.000000e+00 0.000000e+00 0.000000e+00 0.000000e+00
 0.000000e+00 6.949128e-01 3.050872e-01 0.000000e+00 0.000000e+00 0.000000e+00 0.000000e+00
 0.000000e+00 0.000000e+00 5.548365e-01 4.451636e-01 0.000000e+00 0.000000e+00 0.000000e+00
 0.000000e+00 0.000000e+00 0.000000e+00 6.060843e-01 3.939157e-01 0.000000e+00 0.000000e+00
 0.000000e+00 0.000000e+00 0.000000e+00 0.000000e+00 8.739035e-01 1.260965e-01 0.000000e+00
 0.000000e+00 0.000000e+00 0.000000e+00 0.000000e+00 0.000000e+00 8.914131e-01 1.085869e-01
 0.000000e+00 0.000000e+00 0.000000e+00 0.000000e+00 0.000000e+00 0.000000e+00 0.000000e+00
<ENDHMM>
~h "d"
<BEGINHMM>
<NUMSTATES> 7
<STATE> 2
<NUMMIXES> 2
<MIXTURE> 1 4.781875e-01
<MEAN> 39
 2.140514e-01 4.139244e-01 2.843222e-01 9.244572e-02 4.930151e-02 8.609404e-02 1.847880e-01 -2.928691e-01 -8.266236e-01 -7.127272e-02 -3.412691e-01 1.306771e-01 -3.506865e-02 6.464459e-02 2.124437e-01 2.904588e-01 3.581678e-01 2.081445e-01 1.010392e-03 -1.415658e-01 -7.677791e-02 -5.807693e-02 -7.072859e-02 -8.697096e-02 -1.126032e-01 -3.123631e-01 -2.477408e-01 6.136185e-02 7.659591e-02 2.035076e-01 2.697165e-01 2.873315e-02 3.542372e-02 1.359928e-01 -7.585261e-02 -1.254291e-01 -1.060253e-01 -2.972846e-02 -1.868113e-01
<VARIANCE> 39
 7.725754e-01 6.146904e-01 1.515455e+00 1.425956e+00 9.250945e-01 1.018132e+00 9.490174e-01 1.204620e+00 9.510867e-01 1.202155e+00 9.811801e-01 1.075470e+00 7.419836e-01 1.374908e+00 1.308447e+00 1.779017e+00 1.932642e+00 1.303171e+00 1.367320e+00 1.360306e+00 1.371991e+00 1.188870e+00 1.443558e+00 1.056193e+00 1.204286e+00 2.426522e+00 1.386901e+00 1.170075e+00 1.697554e+00 1.398123e+00 1.159272e+00 1.229293e+00 1.175959e+00 1.337960e+00 1.124954e+00 1.441920e+00 1.077708e+00 1.175933e+00 1.788969e+00
<GCONST> 7.981545e+01
<MIXTURE> 2 5.218251e-01
<MEAN> 39
 8.224014e-01 -6.076365e-01 4.250061e-01 4.435123e-01 -5.017451e-01 -1.273426e+00 -1.153757e+00 1.404659e-01 -1.892072e-01 2.466081e-01 -6.120440e-01 -1.044764e-02 1.182606e+00 -2.023538e-01 5.009278e-01 8.345506e-01 4.956025e-01 3.599211e-01 4.271971e-02 -3.178466e-01 -4.050168e-01 -2.781011e-01 -5.214314e-01 -4.127876e-01 3.084238e-02 -9.432763e-01 -5.812556e-01 3.426577e-01 -8.011489e-02 1.761016e-01 6.088476e-01 7.020492e-01 5.632259e-01 -1.025131e-01 -2.204064e-01 -1.012126e-01 -2.020485e-02 -1.190613e-01 -1.441041e+00
<VARIANCE> 39
 1.913698e-01 3.984938e-01 9.790663e-01 6.473070e-01 6.104630e-01 1.024785e+00 7.346241e-01 1.517378e+00 1.682105e+00 1.263151e+00 9.836578e-01 1.304902e+00 2.274494e-01 3.331436e-01 6.029113e-01 9.034375e-01 7.321448e-01 7.752723e-01 9.130436e-01 8.591969e-01 1.226417e+00 9.216776e-01 7.768459e-01 8.304839e-01 1.006719e+00 1.300058e+00 6.897168e-01 4.791160e-01 8.385395e-01 6.739548e-01 7.674780e-01 1.050813e+00 9.792519e-01 8.785266e-01 9.548743e-01 8.162590e-01 7.438489e-01 1.002252e+00 1.177997e+00
<GCONST> 6.282456e+01
<STATE> 3
<NUMMIXES> 2
<MIXTURE> 1 5.227569e-01
<MEAN> 39
 3.827361e-01 3.512764e-02 1.411808e+00 1.075301e+00 -8.479387e-02 -9.280967e-01 -1.054626e+00 -2.002808e-01 -6.793341e-01 -9.292363e-01 -1.146337e+00 3.320032e-01 4.895487e-01 -1.065982e+00 7.367404e-01 -2.598492e-01 2.517277e-01 1.563820e+00 1.435317e+00 1.146655e+00 -5.467226e-02 -2.264731e-01 1.896987e-01 -1.093496e-01 -3.060056e-01 -2.834387e+00 -6.635320e-01 4.968772e-02 -1.010720e+00 -3.467956e-01 4.090358e-01 7.784763e-01 9.480845e-01 2.824125e-01 -1.428417e-02 7.577440e-01 7.228177e-01 -1.009470e-01 -8.111825e-01
<VARIANCE> 39
 1.879379e-01 3.647129e-01 6.311945e-01 3.919384e-01 4.430723e-01 9.312050e-01 6.315076e-01 9.371738e-01 9.936458e-01 7.352574e-01 6.168951e-01 1.142015e+00 2.736961e-01 5.757180e-01 7.170253e-01 1.767678e+00 1.123443e+00 9.903592e-01 1.532584e+00 1.164834e+00 1.403992e+00 1.606749e+00 1.311032e+00 1.043318e+00 1.279924e+00 1.210509e+00 7.134275e-01 6.906394e-01 1.189844e+00 8.733664e-01 9.402696e-01 1.462373e+00 1.111221e+00 1.157187e+00 1.091208e+00 9.519043e-01 8.341807e-01 1.327433e+00 1.658649e+00
<GCONST> 6.671256e+01
<MIXTURE> 2 4.772452e-01
<MEAN> 39
 3.019305e-01 5.358205e-01 1.185497e-02 -2.751965e-02 5.207127e-01 2.098120e-01 -1.366382e-02 -6.710435e-01 -8.872938e-01 3.114528e-01 -4.508162e-01 -1.310236e-01 -2.382457e-01 -8.746784e-01 6.462500e-01 9.584331e-01 1.312819e+00 9.028736e-01 3.706212e-01 1.776461e-01 -6.928066e-02 -4.028223e-01 -8.124745e-01 -2.286079e-01 1.760818e-02 -1.658692e+00 -5.397938e-01 -2.193450e-01 7.395715e-02 1.348158e-01 7.836346e-02 4.387693e-02 3.631022e-01 4.898271e-01 6.189145e-02 -2.188082e-01 -3.184822e-02 1.961812e-01 2.371694e-01
<VARIANCE> 39
 6.492100e-01 4.950170e-01 5.969678e-01 9.191816e-01 4.973958e-01 9.881592e-01 9.750891e-01 1.087225e+00 7.775658e-01 7.347242e-01 8.313754e-01 9.812697e-01 6.014679e-01 1.540540e+00 1.003346e+00 1.485122e+00 2.153778e+00 1.017492e+00 1.458783e+00 1.219836e+00 1.457749e+00 1.417146e+00 1.529197e+00 1.126272e+00 1.434262e+00 2.527327e+00 1.226236e+00 9.027354e-01 1.241113e+00 1.360374e+00 9.289126e-01 1.179027e+00 1.228556e+00 1.337798e+00 1.143302e+00 1.194991e+00 1.154519e+00 1.218434e+00 1.703212e+00
<GCONST> 7.516608e+01
<STATE> 4
<NUMMIXES> 2
<MIXTURE> 1 5.339408e-01
<MEAN> 39
 2.037517e-02 1.942826e-01 1.004920e+00 1.162429e+00 8.513403e-01 1.060239e-01 -2.314211e-01 -1.440290e-01 -7.406918e-01 -4.845529e-01 -9.278829e-01 2.268378e-02 -3.553016e-01 -1.134166e+00 7.485192e-01 -4.926077e-01 2.342387e-02 1.214614e+00 1.333460e+00 1.373832e+00 1.501172e-01 -1.208293e-01 4.384362e-01 4.185286e-01 -1.952895e-01 -2.312091e+00 6.383472e-01 1.663440e-01 1.480251e-02 -5.765559e-01 -9.695439e-01 -9.921371e-01 -5.127109e-01 7.758851e-02 9.386644e-02 9.113745e-02 9.726949e-02 1.407636e-01 1.876272e+00
<VARIANCE> 39
 1.171058e-01 3.112340e-01 3.764341e-01 2.955076e-01 3.653199e-01 6.073757e-01 4.573363e-01 6.606484e-01 5.437272e-01 4.915326e-01 6.183622e-01 7.351087e-01 1.560581e-01 6.234141e-01 8.361943e-01 1.472231e+00 1.184893e+00 9.246957e-01 1.408030e+00 1.023728e+00 1.336488e+00 1.534049e+00 1.344442e+00 1.000026e+00 1.502112e+00 1.116755e+00 8.028662e-01 1.058693e+00 1.230273e+00 9.193465e-01 9.826348e-01 1.358941e+00 1.072393e+00 1.245985e+00 1.377734e+00 1.154283e+00 9.969442e-01 1.174508e+00 1.607348e+00
<GCONST> 6.286082e+01
<MIXTURE> 2 4.660622e-01
<MEAN> 39
 1.100827e-02 8.091876e-01 2.785768e-01 3.165621e-01 9.198526e-01 5.875565e-01 3.256646e-01 -6.637508e-01 -1.243578e+00 -1.636509e-01 -3.693651e-01 1.485999e-01 -6.289350e-01 -7.933199e-01 3.591249e-01 8.684218e-01 1.060038e+00 6.092073e-01 -7.904071e-02 9.491922e-02 2.856429e-01 -3.427966e-02 -5.300617e-01 -3.059222e-01 -7.407465e-02 -9.010726e-01 2.814610e-01 -4.917607e-01 -4.007740e-01 -7.295374e-01 -6.127084e-01 -4.114630e-01 -1.560226e-01 3.442643e-01 5.964900e-01 3.866676e-01 -5.723908e-02 -9.776972e-02 1.417605e+00
<VARIANCE> 39
 4.052545e-01 4.203743e-01 5.126141e-01 5.296900e-01 4.926106e-01 6.926243e-01 5.070482e-01 8.671921e-01 6.816208e-01 5.975766e-01 7.175164e-01 9.817377e-01 3.330385e-01 1.321907e+00 1.082810e+00 1.268314e+00 1.423655e+00 9.474833e-01 1.160717e+00 1.062327e+00 1.237544e+00 1.177938e+00 1.228083e+00 1.185044e+00 1.343245e+00 1.569440e+00 1.218022e+00 9.918518e-01 1.319378e+00 1.437720e+00 9.449373e-01 1.129941e+00 1.000416e+00 1.287894e+00 1.112217e+00 1.255128e+00 1.002303e+00 1.283855e+00 1.786297e+00
<GCONST> 6.927584e+01
<STATE> 5
<NUMMIXES> 2
<MIXTURE> 1 4.771700e-01
<MEAN> 39
 -1.799563e-01 1.013162e+00 7.871475e-01 7.732818e-01 9.960696e-01 4.062457e-01 3.936632e-01 -1.485460e-01 -7.963822e-01 -2.537680e-01 -5.624841e-01 -1.201676e-01 -9.606494e-01 -3.959446e-01 5.788022e-01 -2.823350e-01 -3.012693e-01 2.918549e-01 1.900309e-01 4.184334e-01 6.939277e-02 -1.003023e-01 3.335236e-01 8.406148e-02 -1.696479e-01 -6.427280e-01 -3.237538e-02 -4.131822e-01 3.566713e-01 1.537363e-01 -3.815206e-01 -4.611641e-01 -4.428236e-01 -8.263506e-02 -4.769680e-02 -3.661936e-01 -2.486896e-01 1.594730e-01 1.281561e+00
<VARIANCE> 39
 9.906166e-02 3.143399e-01 2.926799e-01 2.418615e-01 2.711363e-01 4.885256e-01 3.484555e-01 5.665274e-01 3.340747e-01 4.238304e-01 4.950406e-01 6.595830e-01 1.546486e-01 4.670729e-01 7.956995e-01 8.422021e-01 7.300246e-01 5.869086e-01 8.082589e-01 8.007717e-01 9.769796e-01 9.809325e-01 8.512350e-01 8.759510e-01 9.904152e-01 6.870450e-01 6.982080e-01 9.257647e-01 8.254527e-01 6.640790e-01 8.214113e-01 9.957356e-01 9.897295e-01 9.988186e-01 1.068042e+00 8.304668e-01 9.021336e-01 9.761088e-01 1.545792e+00
<GCONST> 5.274837e+01
<MIXTURE> 2 5.228269e-01
<MEAN> 39
 -1.914629e-01 1.011413e+00 9.516983e-01 9.478146e-01 1.042301e+00 4.086373e-01 2.996582e-01 -2.615438e-01 -1.017851e+00 -5.866191e-01 -9.882326e-01 -2.891747e-01 -9.448019e-01 -4.188979e-01 -1.940918e-01 7.894513e-02 4.208152e-02 -5.803752e-02 -1.178889e-01 -3.123965e-02 1.823999e-01 2.266438e-01 -4.321358e-02 3.854191e-02 7.962655e-02 1.980970e-01 2.372856e-01 -4.889234e-01 -5.863273e-01 -6.217221e-01 -4.774841e-01 -2.641816e-01 -2.261760e-01 -3.498199e-02 1.813475e-01 5.007219e-01 3.443274e-01 2.174423e-01 1.224349e+00
<VARIANCE> 39
 2.196435e-01 4.581809e-01 4.405766e-01 4.313581e-01 4.256587e-01 6.283600e-01 5.167977e-01 7.085681e-01 4.841345e-01 5.412942e-01 6.454534e-01 8.688879e-01 2.895730e-01 5.706111e-01 9.306948e-01 8.099544e-01 7.639679e-01 6.485822e-01 8.840492e-01 8.210971e-01 8.938214e-01 8.927895e-01 9.526591e-01 9.677461e-01 1.010015e+00 6.767975e-01 1.004524e+00 1.218384e+00 1.033633e+00 1.024489e+00 1.004338e+00 1.230957e+00 1.049447e+00 1.103452e+00 1.068836e+00 1.074085e+00 9.942930e-01 1.255030e+00 2.107114e+00
<GCONST> 6.140959e+01
<STATE> 6
<NUMMIXES> 2
<MIXTURE> 1 5.551493e-01
<MEAN> 39
 -5.230121e-01 6.674117e-01 6.295512e-01 6.664997e-01 9.758582e-01 2.529969e-01 3.693134e-01 -7.435918e-02 -8.112162e-01 -1.283127e-01 -4.942748e-01 6.802059e-02 -6.818108e-01 -3.262635e-01 -3.699232e-01 -1.038143e-01 -1.905261e-01 -2.620787e-01 -5.242266e-01 -3.304338e-01 5.694796e-02 1.123030e-02 -4.099392e-02 -6.204002e-02 3.272929e-01 1.582220e+00 8.928292e-01 3.058846e-01 1.244564e-01 -9.673266e-02 -4.142322e-01 -3.228471e-01 -4.131375e-01 -1.460723e-01 3.077665e-02 -1.991662e-02 -2.305030e-01 3.901910e-02 1.296296e+00
<VARIANCE> 39
 2.428776e-01 4.649222e-01 4.062181e-01 4.006351e-01 3.924291e-01 6.419007e-01 5.418109e-01 6.814992e-01 4.725780e-01 4.999199e-01 6.366429e-01 7.316222e-01 2.444891e-01 9.215491e-01 1.340696e+00 1.097895e+00 1.031521e+00 7.919426e-01 1.148893e+00 1.022697e+00 1.179889e+00 1.013624e+00 1.132433e+00 1.134023e+00 1.214231e+00 1.112696e+00 1.195367e+00 1.477979e+00 1.331053e+00 1.133513e+00 9.712003e-01 1.102898e+00 1.061722e+00 1.188729e+00 1.209049e+00 1.170809e+00 1.129399e+00 1.277384e+00 1.556735e+00
<GCONST> 6.512246e+01
<MIXTURE> 2 4.448512e-01
<MEAN> 39
 -5.853435e-01 4.291878e-01 1.919463e-03 -1.645475e-02 4.570123e-01 1.400104e-01 2.050756e-01 -2.486572e-02 -1.675712e-01 4.219231e-01 -3.217043e-01 8.479878e-05 -1.356007e+00 -8.338906e-02 1.183489e-01 -1.446465e-01 -1.368618e-01 -3.951936e-03 7.114297e-03 4.504209e-02 -7.040875e-02 -1.192777e-01 1.716321e-01 3.090349e-02 -4.834379e-02 3.061894e-03 -8.910095e-03 5.290974e-02 1.750157e-01 2.661265e-01 2.051550e-01 4.428781e-02 4.672044e-02 -5.442038e-02 -2.081294e-01 -1.749283e-01 -1.471376e-01 2.238564e-03 1.986803e-01
<VARIANCE> 39
 1.479482e-01 5.638406e-01 3.945051e-01 4.227086e-01 2.488886e-01 5.322717e-01 4.966471e-01 5.826208e-01 3.774195e-01 6.020223e-01 5.522625e-01 8.132839e-01 2.590933e-01 2.905970e-01 7.562975e-01 7.733311e-01 8.951793e-01 5.959336e-01 6.532899e-01 6.731497e-01 7.876828e-01 7.939459e-01 1.139603e+00 8.077696e-01 9.202870e-01 5.241809e-01 5.297058e-01 1.083027e+00 1.008673e+00 9.567220e-01 7.656549e-01 7.700388e-01 8.028516e-01 9.058180e-01 1.015174e+00 1.299238e+00 9.383743e-01 1.082078e+00 8.918636e-01
<GCONST> 5.474416e+01
<TRANSP> 7
 0.000000e+00 1.000000e+00 0.000000e+00 0.000000e+00 0.000000e+00 0.000000e+00 0.000000e+00
 0.000000e+00 6.298349e-01 3.701650e-01 0.000000e+00 0.000000e+00 0.000000e+00 0.000000e+00
 0.000000e+00 0.000000e+00 4.311359e-01 5.688641e-01 0.000000e+00 0.000000e+00 0.000000e+00
 0.000000e+00 0.000000e+00 0.000000e+00 4.568199e-01 5.431800e-01 0.000000e+00 0.000000e+00
 0.000000e+00 0.000000e+00 0.000000e+00 0.000000e+00 7.304283e-01 2.695718e-01 0.000000e+00
 0.000000e+00 0.000000e+00 0.000000e+00 0.000000e+00 0.000000e+00 7.867112e-01 2.132889e-01
 0.000000e+00 0.000000e+00 0.000000e+00 0.000000e+00 0.000000e+00 0.000000e+00 0.000000e+00
<ENDHMM>
~h "e"
<BEGINHMM>
<NUMSTATES> 7
<STATE> 2
<NUMMIXES> 2
<MIXTURE> 1 3.919080e-01
<MEAN> 39
 -1.649278e+00 1.688021e+00 -2.594700e-01 9.624841e-01 9.449964e-01 -5.180435e-01 1.333344e+00 -7.205203e-02 -9.394881e-01 -8.568364e-02 -5.678377e-01 5.295216e-01 3.216905e-01 6.985947e-01 3.104793e-02 5.445191e-01 1.280110e-01 -8.074857e-02 -3.078011e-01 -2.083068e-01 -9.695861e-02 -1.140155e-01 -1.698341e-01 -1.786829e-01 -8.214844e-03 3.515456e-01 1.009044e+00 -3.272426e-01 5.250096e-01 1.059900e-01 -2.785401e-01 -2.708335e-01 -4.769792e-01 -3.348167e-03 -3.228271e-02 -9.058268e-02 -2.612197e-02 -5.637946e-03 1.178122e-01
<VARIANCE> 39
 3.622794e-01 5.536484e-01 1.006530e+00 6.104432e-01 5.828506e-01 9.117442e-01 4.622984e-01 7.503077e-01 4.916985e-01 4.365756e-01 5.102955e-01 6.284216e-01 3.924047e-01 2.330460e+00 9.692180e-01 1.730988e+00 1.039847e+00 7.919534e-01 1.291637e+00 1.163554e+00 9.991468e-01 8.994666e-01 1.011115e+00 9.187778e-01 1.104643e+00 7.863104e-01 1.328918e+00 1.168897e+00 1.272387e+00 1.076612e+00 1.141325e+00 1.369012e+00 1.326517e+00 1.139050e+00 1.120061e+00 1.114743e+00 1.047304e+00 1.271465e+00 8.551648e-01
<GCONST> 6.750253e+01
<MIXTURE> 2 6.080896e-01
<MEAN> 39
 3.168909e-02 3.254002e-01 8.790033e-01 8.045922e-01 3.049646e-02 -7.814371e-01 -1.917253e-01 -2.190562e-01 -8.107529e-01 -3.649072e-01 -7.365207e-01 1.378104e-01 2.330572e-01 1.113822e+00 -3.558479e-01 1.052081e+00 2.763211e-01 -9.249567e-01 -1.169738e+00 -7.607659e-01 3.754134e-01 4.332317e-02 -3.653094e-01 3.583778e-02 5.212957e-01 1.302248e+00 -1.101751e-01 -5.579823e-01 -1.094706e-03 -2.320191e-01 -4.722590e-01 1.831652e-02 -1.024967e-01 3.261835e-01 1.690601e-01 5.844007e-02 3.541477e-01 3.082007e-01 2.100907e-01
<VARIANCE> 39
 3.388723e-01 9.243498e-01 1.063603e+00 6.370360e-01 6.824059e-01 9.124755e-01 8.626240e-01 1.059924e+00 8.164845e-01 9.678636e-01 8.568928e-01 9.127668e-01 6.267465e-01 1.725716e+00 1.280470e+00 1.860008e+00 1.350481e+00 1.195478e+00 1.550088e+00 1.432004e+00 1.590546e+00 1.269047e+00 1.270095e+00 1.318799e+00 1.442747e+00 1.319593e+00 1.289741e+00 1.436823e+00 1.432225e+00 1.094598e+00 1.116218e+00 1.413289e+00 1.228447e+00 1.300485e+00 1.169376e+00 1.126017e+00 1.116325e+00 1.231794e+00 1.078158e+00
<GCONST> 7.582713e+01
<STATE> 3
<NUMMIXES> 2
<MIXTURE> 1 5.862906e-01
<MEAN> 39
 4.329011e-01 -3.845607e-01 1.610606e+00 8.294389e-01 -1.187675e+00 -1.337442e+00 -8.200064e-01 2.859759e-01 -4.264098e-01 -8.228823e-01 -1.937368e-01 8.531784e-01 1.004549e+00 2.780318e-02 -4.990607e-01 5.849883e-01 -3.571019e-01 -9.781758e-01 -2.667952e-01 -3.635210e-01 3.346646e-01 2.076019e-01 -8.810950e-02 7.078645e-01 5.061547e-01 1.010771e+00 -5.114225e-01 6.068000e-01 -5.889490e-01 -1.154332e-02 8.435092e-01 5.019313e-01 3.637793e-01 -3.414422e-01 -3.406163e-01 1.957958e-01 -1.258078e-01 -4.133031e-01 -8.895640e-01
<VARIANCE> 39
 1.458424e-01 5.098137e-01 7.958501e-01 4.798258e-01 3.710849e-01 6.725649e-01 7.049282e-01 1.133287e+00 8.953025e-01 7.565481e-01 7.318355e-01 8.965183e-01 2.749093e-01 4.084859e-01 8.235395e-01 1.123006e+00 7.599570e-01 7.777974e-01 1.221184e+00 1.006193e+00 1.030689e+00 9.454668e-01 7.990078e-01 8.315440e-01 9.202441e-01 6.400902e-01 6.949324e-01 6.449347e-01 1.036956e+00 7.191916e-01 7.733479e-01 9.959987e-01 1.000840e+00 9.429768e-01 7.785957e-01 7.517345e-01 7.982693e-01 8.421273e-01 6.304017e-01
<GCONST> 5.933457e+01
<MIXTURE> 2 4.137096e-01
<MEAN> 39
 3.386535e-01 2.910988e-01 1.092653e+00 1.049502e+00 -6.549402e-02 -1.806960e+00 -3.913204e-01 1.640118e-01 -1.093763e+00 -3.464015e-01 -1.018151e+00 6.214865e-01 7.736113e-01 1.115444e+00 -1.405598e+00 6.248274e-01 -2.200988e-01 -1.167000e+00 -7.008939e-01 -9.344298e-01 5.486592e-01 -4.037362e-02 -5.801643e-02 1.011249e-01 4.216341e-01 9.344980e-01 -1.405871e+00 7.568773e-02 -4.928744e-01 -3.983921e-01 7.120628e-02 8.042729e-01 4.123759e-01 -9.300938e-02 1.333409e-01 1.149657e-01 2.738931e-01 -9.945737e-02 -3.881727e-01
<VARIANCE> 39
 2.686948e-01 4.802285e-01 7.523833e-01 4.520129e-01 3.858354e-01 9.957356e-01 6.060525e-01 7.115476e-01 6.647443e-01 8.137341e-01 7.875041e-01 7.081249e-01 4.950955e-01 1.218516e+00 1.186266e+00 1.168581e+00 1.044032e+00 8.595067e-01 1.067801e+00 1.199836e+00 9.125866e-01 9.281126e-01 9.010404e-01 8.728023e-01 9.664537e-01 7.819391e-01 1.260416e+00 1.109672e+00 1.178107e+00 8.805972e-01 7.619506e-01 9.147432e-01 8.972806e-01 8.045347e-01 7.210915e-01 8.788301e-01 7.161993e-01 8.652369e-01 5.889136e-01
<GCONST> 6.305029e+01
<STATE> 4
<NUMMIXES> 2
<MIXTURE> 1 5.334002e-01
<MEAN> 39
 4.598643e-01 -4.416305e-01 1.722937e+00 6.548350e-01 -1.412266e+00 -1.554234e+00 -1.014634e+00 4.386629e-01 -9.073266e-01 -6.438860e-01 -1.026975e-01 1.098281e+00 1.353255e+00 -1.163751e-02 8.776542e-03 1.239058e-02 4.527009e-02 -6.664554e-04 -4.287051e-02 -2.294397e-03 1.660095e-02 -3.602899e-02 -2.054919e-02 3.988130e-02 -1.242534e-02 1.848212e-03 2.423149e-02 2.283714e-02 -5.404398e-02 7.860527e-02 1.576608e-01 -9.315411e-03 2.836869e-02 1.076377e-02 -2.577036e-02 -2.054225e-02 -9.332557e-02 -6.323837e-02 -1.827718e-01
<VARIANCE> 39
 1.494667e-01 3.118621e-01 4.265527e-01 3.515918e-01 3.052447e-01 7.126013e-01 5.162948e-01 9.121003e-01 1.007391e+00 5.068628e-01 1.122820e+00 8.198507e-01 1.930257e-01 1.333771e-01 1.779568e-01 3.377970e-01 2.964282e-01 2.774331e-01 3.630726e-01 3.543185e-01 3.964887e-01 3.579294e-01 3.699812e-01 3.799502e-01 4.513388e-01 1.134486e-01 1.761016e-01 1.788741e-01 3.157183e-01 2.746900e-01 3.106406e-01 3.627649e-01 3.660611e-01 3.673830e-01 3.315440e-01 3.473879e-01 3.464913e-01 4.255014e-01 1.412802e-01
<GCONST> 2.964926e+01
<MIXTURE> 2 4.665960e-01
<MEAN> 39
 4.468013e-01 -1.442052e-01 1.608716e+00 5.895619e-01 -1.037729e+00 -1.579286e+00 -8.852238e-01 3.724914e-01 -1.153229e+00 -5.851109e-01 -2.368842e-01 8.632017e-01 9.451680e-01 -1.498061e-02 -3.025179e-02 1.240861e-01 5.873317e-02 -1.126574e-01 -2.564347e-03 -1.968347e-02 6.393278e-03 -1.141067e-01 -7.909047e-02 1.131171e-01 2.422738e-03 1.215534e-01 -4.990583e-02 8.225586e-02 -1.248372e-01 2.077329e-01 2.259997e-01 8.329101e-02 1.413825e-01 -4.386087e-02 4.697903e-02 -3.330302e-02 -1.383330e-01 -1.312821e-01 -3.190232e-01
<VARIANCE> 39
 2.394653e-01 4.829265e-01 7.632629e-01 5.189115e-01 5.594375e-01 1.226034e+00 6.035554e-01 1.172315e+00 9.414928e-01 8.688782e-01 1.196351e+00 9.697899e-01 3.640396e-01 3.185092e-01 4.730874e-01 6.698027e-01 6.515732e-01 4.685053e-01 7.069463e-01 6.640122e-01 7.372736e-01 5.916649e-01 6.851255e-01 5.593212e-01 7.035903e-01 3.150162e-01 4.934902e-01 5.478275e-01 7.251052e-01 5.833415e-01 6.714630e-01 7.712414e-01 7.407890e-01 7.328779e-01 6.002618e-01 6.659836e-01 5.868030e-01 7.044489e-01 4.542969e-01
<GCONST> 5.324979e+01
<STATE> 5
<NUMMIXES> 2
<MIXTURE> 1 5.926021e-01
<MEAN> 39
 4.078857e-01 -3.778777e-01 2.031810e+00 1.219332e+00 -1.155747e+00 -1.571913e+00 -9.656200e-01 3.872301e-01 -1.160385e+00 -1.133965e+00 -2.435823e-01 1.005044e+00 1.119162e+00 8.613398e-02 2.756313e-01 -4.292093e-01 5.840272e-01 7.840921e-01 2.392995e-02 4.009308e-01 3.189067e-02 -1.317773e-01 -1.310103e-01 -3.611318e-01 -2.053672e-01 -8.968989e-01 -2.519525e-01 7.701558e-01 -1.014560e+00 -8.940306e-02 8.858677e-01 5.181302e-01 5.433569e-01 -2.686526e-01 2.070965e-01 4.264822e-01 -1.553730e-01 -2.975545e-01 -1.186866e+00
<VARIANCE> 39
 9.630220e-02 2.517447e-01 3.580609e-01 3.068229e-01 3.222286e-01 5.868068e-01 4.084968e-01 6.736793e-01 8.777288e-01 5.779638e-01 9.260057e-01 7.145832e-01 1.648984e-01 4.848679e-01 5.972653e-01 1.040207e+00 5.702652e-01 5.171801e-01 8.064444e-01 8.614883e-01 7.964058e-01 7.328171e-01 6.649035e-01 6.032286e-01 6.702359e-01 4.893384e-01 6.291165e-01 6.107672e-01 8.166199e-01 6.205962e-01 6.749842e-01 9.995563e-01 7.285931e-01 7.608581e-01 6.506513e-01 6.614440e-01 6.150002e-01 6.424139e-01 7.738885e-01
<GCONST> 4.989955e+01
<MIXTURE> 2 4.073994e-01
<MEAN> 39
 2.922554e-01 -4.832233e-01 1.001141e+00 3.588468e-01 -1.012521e+00 -1.351161e+00 -6.031308e-01 5.565632e-01 -3.395877e-01 -2.533420e-01 1.243711e-01 4.756896e-01 1.036013e+00 1.554606e-01 -1.326312e-02 -3.492325e-01 1.314869e-01 3.422593e-01 4.554793e-03 8.205056e-02 1.174399e-01 6.983037e-02 8.809730e-02 -2.738997e-01 -2.840700e-01 -2.621605e-01 9.944528e-02 3.598663e-01 -3.037308e-01 2.105258e-01 5.427012e-01 2.455243e-01 2.079674e-01 -2.415285e-01 -1.258720e-01 6.552251e-02 -3.152499e-01 -1.104895e-01 -6.468947e-01
<VARIANCE> 39
 3.803225e-01 6.350880e-01 1.056421e+00 5.675919e-01 8.368403e-01 1.216272e+00 7.868398e-01 1.280788e+00 1.180518e+00 9.033139e-01 1.120090e+00 1.128180e+00 6.936025e-01 4.333754e-01 5.877912e-01 1.042748e+00 8.679376e-01 6.058071e-01 8.682575e-01 8.633314e-01 8.908198e-01 8.602633e-01 8.328322e-01 7.570859e-01 9.233713e-01 4.772575e-01 6.265669e-01 6.568049e-01 8.111231e-01 6.392508e-01 7.235062e-01 9.392513e-01 7.934644e-01 9.000483e-01 7.501680e-01 7.983271e-01 7.062035e-01 8.351539e-01 7.319512e-01
<GCONST> 6.227900e+01
<STATE> 6
<NUMMIXES> 2
<MIXTURE> 1 4.546552e-01
<MEAN> 39
 4.308017e-01 -1.436953e-02 1.537299e+00 1.301065e+00 -5.236102e-01 -1.374626e+00 -5.090811e-01 2.881387e-01 -1.065055e+00 -8.850706e-01 -4.473924e-01 6.855139e-01 6.406836e-01 -3.890177e-01 8.814631e-01 -1.186788e+00 2.352309e-01 1.409033e+00 8.983236e-01 8.147870e-01 -3.183380e-01 1.626521e-01 4.417278e-01 -3.102205e-01 -5.806988e-01 -1.611533e+00 -9.452018e-01 3.834537e-01 -4.778819e-01 -4.430510e-01 2.928748e-01 6.730556e-01 3.040471e-01 -2.375779e-01 9.356272e-02 3.841460e-01 1.061782e-01 -1.485909e-01 -6.257336e-01
<VARIANCE> 39
 1.642466e-01 4.537488e-01 5.352378e-01 4.005726e-01 4.565846e-01 8.802891e-01 7.637916e-01 8.976324e-01 8.466747e-01 7.766373e-01 8.196309e-01 8.176558e-01 3.273472e-01 7.043980e-01 9.342429e-01 1.353913e+00 9.919891e-01 7.859172e-01 1.527128e+00 1.278954e+00 1.062658e+00 1.067829e+00 9.934379e-01 9.919049e-01 9.334736e-01 1.121451e+00 1.021437e+00 1.140383e+00 1.251693e+00 8.921566e-01 1.006408e+00 1.386998e+00 1.162100e+00 1.136629e+00 1.039107e+00 1.013687e+00 8.309926e-01 9.720997e-01 1.396564e+00
<GCONST> 6.582542e+01
<MIXTURE> 2 5.453462e-01
<MEAN> 39
 -1.796539e-01 -5.803391e-02 -1.468246e-01 -1.763600e-01 -1.461552e-01 -7.962066e-01 -3.677844e-01 5.322657e-02 -1.985647e-01 6.776166e-01 -7.614905e-02 4.561023e-01 -6.293982e-01 1.010363e-02 -3.885897e-04 -8.337583e-02 -4.323474e-02 2.700865e-02 3.682366e-02 5.610915e-02 -1.544109e-02 -1.786814e-02 5.940746e-02 -2.220526e-02 -6.164166e-02 -8.204630e-03 1.419115e-02 1.278354e-02 8.261173e-02 1.037738e-01 3.180681e-02 -4.935858e-03 9.417741e-03 1.276370e-02 -2.958559e-02 -8.376437e-02 -3.358072e-02 -7.780255e-03 7.158298e-03
<VARIANCE> 39
 6.817583e-01 5.636702e-01 5.947144e-01 5.059686e-01 6.097175e-01 9.138140e-01 5.018507e-01 1.147233e+00 8.105256e-01 7.606834e-01 1.022016e+00 1.249342e+00 1.360682e+00 2.781034e-01 6.525333e-01 7.191282e-01 7.547458e-01 6.772618e-01 8.526236e-01 7.834855e-01 8.894151e-01 7.462807e-01 8.407097e-01 8.461118e-01 9.443561e-01 4.707841e-01 4.552366e-01 8.219863e-01 7.778085e-01 8.332857e-01 8.399040e-01 9.680805e-01 8.995554e-01 9.627894e-01 8.297074e-01 9.137753e-01 9.071316e-01 9.771581e-01 6.196004e-01
<GCONST> 6.113630e+01
<TRANSP> 7
 0.000000e+00 1.000000e+00 0.000000e+00 0.000000e+00 0.000000e+00 0.000000e+00 0.000000e+00
 0.000000e+00 7.097213e-01 2.902788e-01 0.000000e+00 0.000000e+00 0.000000e+00 0.000000e+00
 0.000000e+00 0.000000e+00 6.862184e-01 3.137816e-01 0.000000e+00 0.000000e+00 0.000000e+00
 0.000000e+00 0.000000e+00 0.000000e+00 8.830776e-01 1.169224e-01 0.000000e+00 0.000000e+00
 0.000000e+00 0.000000e+00 0.000000e+00 0.000000e+00 5.576761e-01 4.423240e-01 0.000000e+00
 0.000000e+00 0.000000e+00 0.000000e+00 0.000000e+00 0.000000e+00 6.566897e-01 3.433102e-01
 0.000000e+00 0.000000e+00 0.000000e+00 0.000000e+00 0.000000e+00 0.000000e+00 0.000000e+00
<ENDHMM>
~h "f"
<BEGINHMM>
<NUMSTATES> 7
<STATE> 2
<NUMMIXES> 2
<MIXTURE> 1 3.448938e-01
<MEAN> 39
 8.746909e-01 -4.846612e-01 -4.816643e-01 -3.595233e-02 2.675252e-01 -4.736430e-01 7.315384e-03 4.671384e-01 -3.442850e-01 5.738207e-01 -7.463046e-01 -4.195685e-01 1.248750e+00 -2.751119e-01 9.445323e-01 3.114823e-01 6.552114e-01 5.600482e-01 3.483114e-01 3.771144e-01 -2.348173e-01 -3.479274e-01 -3.492107e-01 -3.747668e-02 2.760211e-01 -9.328112e-01 -6.679704e-01 5.140719e-01 1.909832e-01 1.204654e-01 4.309483e-02 3.003516e-01 1.061135e-01 -2.621956e-01 -1.152798e-01 -3.231318e-01 3.529523e-03 1.152004e-01 -5.326309e-01
<VARIANCE> 39
 1.896004e-01 5.887697e-01 8.006415e-01 1.524606e+00 1.206961e+00 1.575635e+00 1.236195e+00 1.558225e+00 1.166392e+00 1.046507e+00 8.775634e-01 1.293352e+00 3.035526e-01 7.704347e-01 1.623306e+00 1.189332e+00 1.281490e+00 1.095826e+00 1.298725e+00 1.413133e+00 1.247400e+00 1.373896e+00 1.097712e+00 9.162170e-01 1.143690e+00 1.394286e+00 1.219414e+00 1.161628e+00 1.138003e+00 1.014647e+00 1.140070e+00 1.039940e+00 1.136883e+00 9.732828e-01 1.043915e+00 9.604909e-01 8.482959e-01 1.070178e+00 1.149786e+00
<GCONST> 7.328008e+01
<MIXTURE> 2 6.551067e-01
<MEAN> 39
 -4.861979e-01 4.599894e-01 5.266347e-02 -1.928966e-03 4.469966e-01 3.115884e-01 3.097841e-01 1.438985e-01 -3.742674e-01 -2.688538e-02 9.671833e-02 3.343718e-01 -6.270367e-01 -2.953888e-01 3.047875e-01 2.810158e-04 1.709329e-01 1.836587e-01 1.618658e-01 1.452684e-01 -2.552077e-02 -7.526714e-02 -4.096066e-02 -1.025991e-01 2.116969e-02 -5.169436e-02 5.601875e-03 -2.158815e-01 -2.110199e-02 -1.385737e-01 -2.796284e-01 -2.622917e-01 -1.404617e-01 -1.441130e-02 -4.676667e-02 -1.091052e-02 -9.182472e-02 -4.817942e-02 4.638589e-01
<VARIANCE> 39
 5.813875e-01 3.571277e-01 5.161713e-01 8.103296e-01 4.413341e-01 5.438898e-01 3.796735e-01 7.596590e-01 7.520974e-01 5.633834e-01 8.906434e-01 7.539310e-01 9.043241e-01 1.396608e+00 1.160880e+00 1.358386e+00 1.347637e+00 9.510424e-01 1.245383e+00 1.114407e+00 1.280393e+00 1.160197e+00 1.221924e+00 1.168916e+00 1.285863e+00 1.260409e+00 1.068425e+00 1.072804e+00 1.271552e+00 1.194557e+00 1.141483e+00 1.190781e+00 1.001593e+00 1.208135e+00 1.150630e+00 1.022400e+00 1.188419e+00 1.184264e+00 1.183762e+00
<GCONST> 6.953133e+01
<STATE> 3
<NUMMIXES> 2
<MIXTURE> 1 5.125619e-01
<MEAN> 39
 -6.004460e-01 6.964999e-01 9.994555e-02 1.011692e+00 7.923563e-01 2.270304e-01 9.053100e-01 3.135290e-01 -9.565003e-01 2.533164e-01 -8.170192e-01 3.983395e-01 2.884036e-01 -6.878993e-01 7.283582e-03 -2.795298e-01 -1.030169e-01 -3.777428e-02 4.396610e-02 2.255701e-01 1.213759e-01 -3.471564e-02 8.946119e-02 -2.510683e-02 6.423250e-02 5.024925e-01 7.246969e-01 -1.223374e-01 2.530668e-02 -3.107768e-01 -4.548327e-01 -4.884084e-01 -5.273073e-01 -2.544134e-01 -2.805759e-01 -2.542585e-01 3.189718e-02 5.144346e-02 3.503022e-01
<VARIANCE> 39
 4.905872e-01 4.663994e-01 6.861622e-01 4.153561e-01 3.628405e-01 6.531196e-01 4.435352e-01 8.230379e-01 3.626087e-01 5.013699e-01 5.685574e-01 8.436534e-01 5.154641e-01 1.215223e+00 1.014563e+00 1.068339e+00 1.125497e+00 8.390316e-01 1.081299e+00 9.445988e-01 1.150056e+00 9.181312e-01 1.105842e+00 1.069261e+00 1.231462e+00 9.297163e-01 1.319431e+00 1.264423e+00 1.246822e+00 1.172120e+00 1.155205e+00 1.462105e+00 1.244532e+00 1.446067e+00 1.078758e+00 1.256936e+00 1.226292e+00 1.489293e+00 1.025947e+00
<GCONST> 6.692943e+01
<MIXTURE> 2 4.874383e-01
<MEAN> 39
 -3.014001e-02 8.977422e-01 -4.203140e-02 8.137805e-01 6.872570e-01 3.189546e-02 4.899387e-01 2.145987e-02 -1.122213e+00 -7.291350e-02 -7.717871e-01 3.402054e-01 2.451133e-01 -8.217353e-01 2.909237e-01 -5.165751e-02 -1.301310e-01 -4.847696e-01 -7.309521e-01 -5.820673e-01 -7.438225e-01 -6.516564e-01 -3.475923e-01 -2.206582e-01 3.159344e-01 2.648323e-01 1.044127e-01 -7.405860e-01 -3.768847e-01 -4.602239e-01 -3.875067e-01 -2.638048e-01 -1.479864e-01 8.290812e-02 1.181181e-01 2.720362e-01 1.713784e-01 -1.347918e-02 5.791056e-01
<VARIANCE> 39
 3.158772e-01 2.177126e-01 4.102981e-01 2.811995e-01 2.801251e-01 4.552469e-01 4.804554e-01 6.654047e-01 3.896251e-01 4.295982e-01 4.101200e-01 6.633506e-01 5.864351e-01 1.297639e+00 8.898612e-01 1.062131e+00 1.133966e+00 7.550314e-01 1.145971e+00 1.116733e+00 1.229495e+00 1.176421e+00 1.064013e+00 1.127501e+00 1.436731e+00 9.955379e-01 1.575826e+00 1.194161e+00 1.304014e+00 1.218630e+00 1.043989e+00 1.228322e+00 1.370246e+00 1.438420e+00 1.238315e+00 1.200827e+00 1.041291e+00 1.354606e+00 1.511265e+00
<GCONST> 6.439877e+01
<STATE> 4
<NUMMIXES> 2
<MIXTURE> 1 4.563920e-01
<MEAN> 39
 -3.699283e-01 1.042461e+00 -8.772241e-02 6.703394e-01 1.588809e-01 -8.178652e-01 -2.726767e-01 -8.405918e-01 -1.837570e+00 -3.921982e-01 -9.572350e-01 6.385571e-01 3.491024e-01 -1.293764e-01 -1.358858e-01 2.599378e-02 7.851844e-02 1.582601e-01 1.760477e-01 3.264027e-01 2.911453e-01 1.390598e-01 1.413510e-01 7.706433e-02 3.082777e-02 3.862032e-01 2.866778e-01 -1.454758e-01 -9.296288e-02 -2.575022e-02 2.734578e-01 6.061237e-01 6.488252e-01 6.597301e-01 5.367662e-01 2.885984e-01 1.462311e-01 -1.297395e-01 1.020253e-02
<VARIANCE> 39
 2.246288e-01 2.275116e-01 5.546869e-01 3.790688e-01 4.164174e-01 5.292763e-01 5.003390e-01 7.261881e-01 4.603408e-01 4.934146e-01 6.066520e-01 8.795918e-01 3.269100e-01 7.001523e-01 5.640945e-01 8.267742e-01 8.257569e-01 7.777014e-01 1.007558e+00 1.078551e+00 1.190809e+00 9.579418e-01 1.176214e+00 1.108150e+00 1.269763e+00 5.489817e-01 8.941581e-01 7.820848e-01 1.087047e+00 9.830018e-01 1.124304e+00 1.206543e+00 1.176847e+00 1.348444e+00 1.129985e+00 1.302496e+00 1.341596e+00 1.468352e+00 6.738734e-01
<GCONST> 6.109288e+01
<MIXTURE> 2 5.436094e-01
<MEAN> 39
 -2.575146e-01 1.060811e+00 -3.312792e-01 6.641281e-01 3.424620e-01 -4.575210e-01 4.706992e-03 -4.003600e-01 -1.451918e+00 -2.058598e-01 -8.941218e-01 4.212603e-01 1.602631e-01 -1.150911e-01 1.698427e-02 -1.721048e-01 -2.654623e-01 -3.040971e-01 -3.271341e-01 -2.867251e-01 -3.612776e-01 -2.780561e-01 -1.024366e-01 -1.262106e-01 3.236169e-02 2.741134e-01 1.495933e-01 -1.007672e-01 1.706859e-01 8.031983e-02 3.940459e-02 -2.398517e-02 -8.475666e-02 -1.066314e-01 -3.073277e-02 -8.158042e-02 1.057197e-02 -3.231558e-02 8.611535e-02
<VARIANCE> 39
 1.617576e-01 2.335144e-01 3.434559e-01 3.792143e-01 2.781655e-01 4.040066e-01 4.630484e-01 6.491820e-01 4.315216e-01 5.212374e-01 5.574636e-01 8.580258e-01 4.806486e-01 4.769138e-01 5.205396e-01 7.436530e-01 7.709116e-01 6.374699e-01 8.069186e-01 8.436140e-01 1.004486e+00 9.501762e-01 1.078622e+00 1.091148e+00 1.184193e+00 4.670876e-01 6.422168e-01 6.660554e-01 9.526548e-01 8.647361e-01 8.454471e-01 9.927468e-01 1.128427e+00 1.194214e+00 1.107346e+00 1.329792e+00 1.254547e+00 1.395686e+00 4.794843e-01
<GCONST> 5.604457e+01
<STATE> 5
<NUMMIXES> 2
<MIXTURE> 1 4.556701e-01
<MEAN> 39
 -4.106984e-01 4.364417e-01 -5.120013e-01 5.046708e-01 2.985803e-01 -2.534252e-01 4.004993e-01 -1.268280e-01 -1.327350e+00 -1.541600e-02 -8.050150e-01 3.513812e-01 1.042550e+00 2.077034e-01 -1.101590e-01 -1.440321e-02 1.232354e-01 2.923417e-01 5.170066e-01 5.390165e-01 4.522586e-01 3.342777e-01 1.931361e-01 1.730500e-01 -8.308067e-02 2.080214e-01 3.515905e-01 1.202602e-01 2.392413e-01 1.079594e-01 1.281693e-01 2.036276e-01 1.606316e-01 2.459643e-01 2.932733e-01 2.105456e-01 1.271460e-01 3.769689e-02 -2.673655e-01
<VARIANCE> 39
 2.062918e-01 2.881310e-01 4.853412e-01 3.352681e-01 3.114792e-01 5.001515e-01 4.329762e-01 7.299747e-01 3.957631e-01 4.499768e-01 5.205337e-01 7.828370e-01 2.910401e-01 6.550696e-01 5.308201e-01 7.903920e-01 7.803072e-01 6.165419e-01 8.898745e-01 8.786274e-01 1.133887e+00 8.734543e-01 9.224730e-01 9.598852e-01 1.196374e+00 5.335276e-01 7.724090e-01 6.445034e-01 9.745008e-01 9.906908e-01 9.656645e-01 1.179952e+00 1.141165e+00 1.325956e+00 1.085219e+00 1.221530e+00 1.220817e+00 1.443771e+00 5.768271e-01
<GCONST> 5.743098e+01
<MIXTURE> 2 5.443316e-01
<MEAN> 39
 -4.532507e-01 2.562694e-01 -6.087239e-01 4.881373e-01 3.025852e-01 -2.982198e-02 6.850233e-01 3.575219e-01 -1.036589e+00 2.999211e-01 -7.274391e-01 3.859946e-01 1.264541e+00 1.450571e-02 -1.128301e-01 -9.778943e-02 -1.363523e-01 -1.995173e-01 -2.360951e-01 -2.667013e-01 -2.281911e-01 -1.143991e-01 -1.061037e-01 -4.067011e-02 -7.091241e-02 6.763247e-02 1.605879e-01 5.221089e-02 1.355953e-01 1.061330e-01 4.201446e-02 -9.579381e-02 -1.746558e-01 -2.130395e-01 -2.013716e-01 -1.987912e-01 -8.133733e-02 -4.382410e-02 -2.148637e-01
<VARIANCE> 39
 1.157099e-01 2.828742e-01 4.114443e-01 2.772177e-01 2.515280e-01 4.747958e-01 4.226987e-01 6.281556e-01 3.521646e-01 3.577152e-01 4.087215e-01 5.712339e-01 1.257450e-01 3.834605e-01 4.024439e-01 7.291639e-01 6.947429e-01 5.909861e-01 7.863766e-01 8.066161e-01 9.641731e-01 7.841084e-01 9.258081e-01 9.886347e-01 1.109955e+00 2.642263e-01 5.441610e-01 5.415674e-01 9.192404e-01 8.095708e-01 8.547277e-01 1.107871e+00 1.129667e+00 1.155827e+00 8.697686e-01 1.025487e+00 1.065623e+00 1.219565e+00 3.383344e-01
<GCONST> 4.966987e+01
<STATE> 6
<NUMMIXES> 2
<MIXTURE> 1 5.255836e-01
<MEAN> 39
 -7.186090e-01 6.813923e-01 2.760379e-01 3.429127e-01 2.148036e-01 1.241141e-02 7.097208e-01 -2.578167e-01 -1.251112e+00 8.791225e-02 -7.246584e-01 4.937479e-01 8.345318e-01 3.982552e-01 1.901080e-02 3.565447e-01 6.662656e-02 3.566003e-01 4.579750e-01 2.143845e-01 3.088184e-01 3.412151e-01 1.318057e-01 2.335225e-01 6.342817e-02 -5.067674e-02 4.858166e-01 6.199328e-02 5.829087e-02 1.030879e-01 1.122300e-01 -9.907008e-02 -2.331368e-01 -2.173365e-02 -4.998230e-02 -1.060742e-01 1.138312e-01 2.617991e-02 -1.599938e-01
<VARIANCE> 39
 5.916134e-01 2.680973e-01 8.784983e-01 4.179328e-01 3.749566e-01 5.615657e-01 4.139220e-01 7.388040e-01 3.713025e-01 4.100228e-01 4.383444e-01 7.001804e-01 2.508762e-01 1.297127e+00 6.034914e-01 9.991221e-01 1.176991e+00 8.957058e-01 1.090793e+00 1.045388e+00 1.129614e+00 1.001951e+00 9.690411e-01 9.562858e-01 1.277639e+00 6.604185e-01 1.081011e+00 7.857856e-01 1.232595e+00 1.149644e+00 1.252176e+00 1.344768e+00 1.280336e+00 1.281658e+00 1.055116e+00 1.236552e+00 1.025936e+00 1.257061e+00 6.769854e-01
<GCONST> 6.279312e+01
<MIXTURE> 2 4.744154e-01
<MEAN> 39
 -1.056780e+00 1.019138e+00 -3.520372e-02 7.259099e-01 4.909948e-01 -8.847092e-02 9.653501e-01 -7.259558e-01 -1.065346e+00 -2.383947e-01 -4.483860e-01 2.237705e-01 8.760925e-01 -3.322964e-02 -1.767473e-02 9.311319e-02 -1.731002e-01 -2.905863e-02 -1.824073e-03 -1.087658e-01 -5.701203e-02 -2.725566e-03 -1.088050e-01 -1.004179e-01 -4.280433e-02 -3.862371e-02 1.524372e-01 -1.120089e-01 -8.797413e-02 -1.449588e-01 -1.265119e-01 -7.962382e-02 -1.267122e-01 4.437543e-02 4.055072e-02 4.688490e-02 -4.086315e-02 5.795574e-02 -8.693853e-02
<VARIANCE> 39
 4.560501e-01 3.761428e-01 1.516896e+00 6.759069e-01 5.208809e-01 6.088988e-01 4.832697e-01 9.728189e-01 6.016194e-01 6.433366e-01 6.281157e-01 9.553368e-01 3.015125e-01 3.689114e-01 4.348493e-01 6.672107e-01 6.562487e-01 6.131397e-01 8.445612e-01 8.447538e-01 1.008896e+00 7.663365e-01 9.955032e-01 9.446971e-01 1.115197e+00 1.999972e-01 4.970550e-01 5.365207e-01 7.998382e-01 7.837406e-01 7.779838e-01 9.485573e-01 1.027734e+00 1.182884e+00 9.414452e-01 1.213279e+00 1.226086e+00 1.260084e+00 2.769066e-01
<GCONST> 5.746218e+01
<TRANSP> 7
 0.000000e+00 1.000000e+00 0.000000e+00 0.000000e+00 0.000000e+00 0.000000e+00 0.000000e+00
 0.000000e+00 8.186307e-01 1.813693e-01 0.000000e+00 0.000000e+00 0.000000e+00 0.000000e+00
 0.000000e+00 0.000000e+00 7.380788e-01 2.619212e-01 0.000000e+00 0.000000e+00 0.000000e+00
 0.000000e+00 0.000000e+00 0.000000e+00 8.552042e-01 1.447959e-01 0.000000e+00 0.000000e+00
 0.000000e+00 0.000000e+00 0.000000e+00 0.000000e+00 8.600392e-01 1.399609e-01 0.000000e+00
 0.000000e+00 0.000000e+00 0.000000e+00 0.000000e+00 0.000000e+00 7.560298e-01 2.439701e-01
 0.000000e+00 0.000000e+00 0.000000e+00 0.000000e+00 0.000000e+00 0.000000e+00 0.000000e+00
<ENDHMM>
~h "g"
<BEGINHMM>
<NUMSTATES> 7
<STATE> 2
<NUMMIXES> 2
<MIXTURE> 1 5.171665e-01
<MEAN> 39
 1.085720e-01 -1.322589e-01 4.336360e-01 2.535708e-01 -3.940548e-01 -6.013738e-01 7.117113e-02 7.699150e-02 -5.292415e-01 2.013752e-02 -6.474420e-02 -5.782400e-02 1.468748e-01 6.100348e-02 2.425443e-01 3.201541e-01 5.087841e-01 2.051529e-01 -2.716715e-01 -1.920872e-01 2.342682e-03 -1.553977e-01 -3.021625e-02 1.505128e-02 2.185485e-02 -4.083118e-01 1.763320e-02 1.104332e-01 1.668556e-01 2.658597e-01 2.305174e-01 7.280140e-02 -9.033403e-02 -1.448639e-01 -8.583482e-02 -4.410818e-02 -3.312524e-01 -1.731758e-01 -1.447805e-01
<VARIANCE> 39
 4.510100e-01 7.664286e-01 1.147857e+00 5.324634e-01 1.104603e+00 1.475341e+00 8.313639e-01 1.926864e+00 1.202330e+00 9.129483e-01 9.290723e-01 1.192220e+00 1.247009e+00 9.463549e-01 1.262651e+00 1.844443e+00 1.254628e+00 1.239325e+00 1.433607e+00 1.277164e+00 1.454466e+00 1.454021e+00 1.060387e+00 1.480132e+00 1.374440e+00 1.164546e+00 8.238208e-01 9.483487e-01 1.286189e+00 9.040189e-01 8.462293e-01 1.140905e+00 9.064574e-01 1.362319e+00 1.185398e+00 1.145887e+00 1.123445e+00 9.818317e-01 1.003391e+00
<GCONST> 7.549244e+01
<MIXTURE> 2 4.828332e-01
<MEAN> 39
 7.672471e-01 -8.674282e-01 8.303066e-01 1.053559e+00 -8.399953e-01 -1.858865e+00 -5.991321e-01 1.183512e+00 -9.543210e-01 -2.795426e-01 1.660741e-01 4.820455e-01 1.030881e+00 -3.353179e-01 6.515431e-01 7.550952e-01 1.132184e+00 7.710543e-01 4.238585e-01 -5.620761e-02 -8.851992e-01 -1.142440e+00 -5.691938e-01 -2.822410e-01 -9.081066e-02 -1.780302e+00 -5.390757e-01 1.007949e-01 -8.675548e-01 -1.015741e-01 9.317678e-01 9.275811e-01 5.296640e-01 -3.069895e-01 4.467540e-01 1.133121e-01 -7.901241e-01 -6.410823e-01 -1.144776e+00
<VARIANCE> 39
 1.097085e-01 3.169563e-01 7.092258e-01 4.660713e-01 8.514589e-01 9.337524e-01 7.214301e-01 1.293155e+00 1.768448e+00 9.321737e-01 1.347732e+00 9.510687e-01 2.141987e-01 3.453386e-01 3.997500e-01 1.456499e+00 6.050858e-01 1.233751e+00 1.246307e+00 1.244803e+00 1.294903e+00 1.229203e+00 9.462957e-01 1.562726e+00 1.241181e+00 7.504121e-01 4.381894e-01 5.479068e-01 1.129621e+00 6.903579e-01 9.541069e-01 9.102118e-01 8.038011e-01 1.004167e+00 1.226797e+00 9.625229e-01 1.109265e+00 9.910915e-01 4.862816e-01
<GCONST> 6.295674e+01
<STATE> 3
<NUMMIXES> 2
<MIXTURE> 1 5.307966e-01
<MEAN> 39
 3.319295e-01 -1.473218e-01 8.266592e-01 1.410834e+00 2.737677e-01 -4.727554e-01 6.645212e-02 -5.621776e-02 -1.661959e+00 -6.866077e-01 -4.301671e-01 -7.406063e-02 -2.020160e-01 -8.246423e-01 7.266731e-01 -4.546703e-01 2.045951e-01 1.297262e+00 1.068498e+00 5.774696e-01 -6.215226e-01 2.442788e-01 3.907329e-01 -5.852776e-01 -3.996960e-01 -2.073608e+00 6.026728e-02 1.238156e-01 2.405883e-01 -3.467442e-01 -5.184517e-01 -5.181334e-01 -3.932803e-01 2.624992e-01 6.491297e-01 4.342467e-01 2.893883e-01 2.841062e-01 8.858101e-01
<VARIANCE> 39
 1.858855e-01 3.832765e-01 7.662334e-01 6.124872e-01 6.342945e-01 1.020516e+00 5.912580e-01 1.163514e+00 8.909601e-01 7.625332e-01 6.641599e-01 8.811732e-01 2.113703e-01 4.609337e-01 9.917408e-01 1.159215e+00 8.802574e-01 1.220494e+00 1.454055e+00 1.271809e+00 1.114010e+00 1.352990e+00 1.261858e+00 1.313332e+00 1.243420e+00 8.301091e-01 6.696696e-01 9.699098e-01 1.543524e+00 1.105842e+00 1.216287e+00 1.128369e+00 1.085407e+00 1.233130e+00 1.184226e+00 1.193081e+00 1.139135e+00 1.047498e+00 1.049167e+00
<GCONST> 6.727375e+01
<MIXTURE> 2 4.692046e-01
<MEAN> 39
 4.068742e-01 -1.606774e-01 -2.707631e-01 1.318056e+00 1.341667e+00 -3.949716e-01 -8.052650e-01 -2.553171e-01 -3.550329e-01 5.352534e-02 -1.135894e+00 -4.391319e-01 -5.069569e-01 -3.079460e-01 1.000311e-01 2.194369e-01 1.317256e+00 1.177845e+00 -3.369554e-01 -6.478460e-01 3.188164e-01 7.350333e-01 -2.659345e-01 -1.265011e+00 -5.598220e-01 -8.142223e-01 -1.446845e-01 -1.946082e-01 2.194803e-01 -4.145860e-01 -6.470796e-01 -3.041134e-02 2.456820e-01 2.179184e-01 -3.038791e-02 -1.982731e-02 2.017550e-01 1.485535e-01 6.281943e-01
<VARIANCE> 39
 4.269770e-01 5.362649e-01 5.061315e-01 9.656811e-01 7.716941e-01 1.157620e+00 1.277097e+00 1.156623e+00 9.440867e-01 5.856121e-01 1.147240e+00 8.357849e-01 5.874129e-01 1.057402e+00 1.512969e+00 1.991552e+00 1.168099e+00 1.125853e+00 1.977171e+00 1.453311e+00 2.130688e+00 1.756286e+00 1.332718e+00 1.298157e+00 1.061976e+00 1.599012e+00 8.698868e-01 7.856724e-01 1.168208e+00 1.064426e+00 1.004425e+00 1.439035e+00 1.336347e+00 1.671005e+00 1.410240e+00 1.017265e+00 1.467995e+00 9.700660e-01 9.216512e-01
<GCONST> 7.512519e+01
<STATE> 4
<NUMMIXES> 2
<MIXTURE> 1 5.196447e-01
<MEAN> 39
 1.085144e-01 1.785897e-02 2.036036e-01 1.514996e+00 1.323498e+00 -3.121632e-01 -4.212433e-01 -1.062147e-01 -5.747404e-01 -1.638568e-01 -1.239030e+00 -4.304265e-01 -7.522128e-01 -2.597665e-01 5.301123e-01 3.636661e-01 -2.526064e-01 -7.555950e-02 4.477869e-01 4.713642e-01 -2.562869e-01 -3.672168e-01 1.303245e-02 2.459697e-01 1.593884e-01 -2.295034e-01 1.206682e-01 -3.357254e-01 -1.526391e-01 -6.302086e-01 -7.458602e-01 -6.346150e-02 1.775819e-01 1.389262e-01 -1.515160e-01 1.619408e-01 4.024095e-01 2.016376e-01 8.962277e-01
<VARIANCE> 39
 2.145974e-01 6.515089e-01 8.876367e-01 8.350639e-01 9.332647e-01 1.257842e+00 1.132167e+00 1.189176e+00 1.102050e+00 6.716237e-01 1.320244e+00 1.109841e+00 3.900973e-01 8.812030e-01 1.343657e+00 1.747309e+00 1.604686e+00 1.124496e+00 1.321450e+00 1.340383e+00 1.349167e+00 2.065610e+00 1.541125e+00 1.710078e+00 1.368794e+00 1.333314e+00 1.101965e+00 1.590748e+00 1.862424e+00 1.258700e+00 1.250725e+00 1.377777e+00 1.259010e+00 1.372251e+00 1.678360e+00 1.272872e+00 1.547846e+00 1.237487e+00 1.707923e+00
<GCONST> 7.794087e+01
<MIXTURE> 2 4.803568e-01
<MEAN> 39
 -3.111821e-01 -6.445866e-01 -5.625736e-01 1.317865e+00 1.484631e+00 -8.797534e-01 -1.183303e+00 4.725302e-01 1.146993e+00 6.902913e-01 -2.187482e+00 -1.305552e+00 -1.403441e+00 -3.144801e-02 -9.486640e-02 -6.772410e-02 1.096598e-01 1.087406e-01 -3.195866e-03 -1.993674e-02 7.448845e-02 1.697696e-02 5.505009e-02 1.580876e-02 2.920854e-02 4.448584e-02 5.477382e-02 7.098638e-02 4.570745e-02 -2.194088e-01 -1.273594e-01 2.242440e-01 2.268350e-01 -1.319652e-01 -3.690018e-01 -8.344251e-02 2.725964e-01 1.752618e-01 2.115055e-01
<VARIANCE> 39
 1.803769e-01 5.490840e-01 3.338188e-01 9.275246e-01 6.307224e-01 5.504233e-01 7.138092e-01 5.269065e-01 7.159719e-01 6.647390e-01 6.602186e-01 6.130943e-01 2.378601e-01 2.795016e-01 8.126826e-01 7.436587e-01 8.133888e-01 7.388149e-01 7.472513e-01 9.088321e-01 8.087904e-01 1.034641e+00 8.983513e-01 1.036376e+00 8.486603e-01 5.319560e-01 5.570791e-01 8.161073e-01 8.770749e-01 9.607336e-01 1.028545e+00 8.338476e-01 1.053633e+00 7.932059e-01 1.196636e+00 1.020870e+00 1.161953e+00 9.222962e-01 7.904736e-01
<GCONST> 5.809613e+01
<STATE> 5
<NUMMIXES> 2
<MIXTURE> 1 4.207800e-01
<MEAN> 39
 -2.363882e-01 6.348833e-02 8.988192e-01 1.358219e+00 6.513748e-01 1.623362e-01 6.491405e-01 -1.829013e-01 -9.853129e-01 1.519543e-02 -1.002601e+00 -4.322683e-01 -8.502413e-01 -2.513293e-01 -3.604265e-01 -1.845820e-01 -5.436211e-01 -2.586719e-01 1.700116e-01 1.592174e-01 1.313679e-02 5.771213e-02 2.649645e-01 2.223637e-01 2.871082e-01 6.938607e-01 4.337878e-01 2.796028e-01 -3.240220e-01 -3.772770e-01 -1.749970e-01 -1.421589e-01 -1.160782e-01 -4.162634e-02 -1.521400e-01 1.474951e-01 3.763683e-03 7.752220e-02 4.482980e-01
<VARIANCE> 39
 1.918341e-01 4.167659e-01 6.844905e-01 5.155333e-01 6.914310e-01 1.009665e+00 1.079031e+00 1.090137e+00 8.718787e-01 9.054406e-01 9.210544e-01 1.094567e+00 3.174370e-01 5.780528e-01 1.099252e+00 1.096076e+00 1.160421e+00 8.388554e-01 1.014969e+00 1.058264e+00 1.124854e+00 1.397645e+00 1.255483e+00 1.027523e+00 1.188434e+00 9.509804e-01 7.247824e-01 1.188966e+00 1.191779e+00 1.088301e+00 1.083300e+00 1.007251e+00 1.196855e+00 1.198761e+00 1.477632e+00 1.324275e+00 1.168020e+00 1.257283e+00 1.818230e+00
<GCONST> 6.926165e+01
<MIXTURE> 2 5.792229e-01
<MEAN> 39
 -4.651644e-02 1.045072e+00 8.452267e-01 9.583328e-01 6.950085e-01 3.838546e-01 5.843145e-01 -5.105522e-01 -9.953327e-01 -8.055548e-02 -9.569829e-01 -4.440385e-01 -1.308028e+00 -1.931461e-01 3.965569e-02 1.423256e-01 1.020733e-01 4.490093e-02 4.161380e-02 1.098636e-01 -1.071508e-03 -1.403119e-02 2.419144e-02 -8.909395e-02 2.525644e-02 -7.707558e-02 -3.013819e-01 -5.707511e-01 -4.900922e-02 5.437320e-03 -6.151690e-02 -6.028368e-02 -3.279407e-02 1.280939e-01 1.261446e-01 -6.713922e-02 5.840364e-02 1.048682e-01 5.394696e-01
<VARIANCE> 39
 1.210028e-01 2.121861e-01 2.526651e-01 2.993399e-01 3.118784e-01 4.510886e-01 3.375324e-01 6.090839e-01 4.124739e-01 5.426900e-01 6.399902e-01 8.993120e-01 1.188738e-01 2.839155e-01 6.828255e-01 5.098112e-01 5.593172e-01 5.059336e-01 6.365238e-01 6.333598e-01 6.956016e-01 7.259623e-01 7.994624e-01 7.986335e-01 9.005371e-01 4.518026e-01 3.886876e-01 4.989860e-01 7.668121e-01 7.082462e-01 6.431988e-01 7.348411e-01 6.767396e-01 7.613481e-01 7.152845e-01 8.996955e-01 8.584903e-01 8.895273e-01 6.139653e-01
<GCONST> 4.633334e+01
<STATE> 6
<NUMMIXES> 2
<MIXTURE> 1 4.086699e-01
<MEAN> 39
 -4.986421e-01 -3.846467e-02 3.152325e-01 2.210897e-01 2.767052e-01 -1.004844e-01 3.941307e-02 -5.667631e-02 -3.853621e-01 3.465616e-01 -2.905185e-01 4.565918e-01 -8.411645e-01 3.440711e-02 -1.353128e-01 -3.151167e-01 -6.583282e-01 -2.598103e-01 9.248020e-02 8.377885e-02 -6.974667e-02 -9.155574e-02 2.248078e-01 1.740262e-01 1.173102e-01 9.374582e-01 5.828229e-01 7.600845e-01 -1.490815e-01 -2.581227e-02 -6.409451e-02 -2.133837e-01 -1.626694e-01 -1.982467e-01 -3.131095e-01 1.302809e-01 -1.361234e-01 -1.986665e-01 -2.266748e-01
<VARIANCE> 39
 3.567611e-01 7.676312e-01 7.950541e-01 7.318853e-01 7.557298e-01 7.262020e-01 7.774513e-01 9.927516e-01 8.511298e-01 7.699221e-01 7.774307e-01 7.479318e-01 4.989888e-01 6.714672e-01 1.286269e+00 1.346948e+00 1.305110e+00 7.473573e-01 7.942372e-01 7.718160e-01 8.850231e-01 9.954528e-01 1.248655e+00 1.025382e+00 8.677283e-01 1.346280e+00 1.130798e+00 1.692150e+00 1.425274e+00 1.436774e+00 9.292721e-01 8.323641e-01 8.255372e-01 1.094363e+00 1.080015e+00 1.498276e+00 1.072526e+00 1.057676e+00 1.918531e+00
<GCONST> 6.950068e+01
<MIXTURE> 2 5.913315e-01
<MEAN> 39
 -6.810376e-01 1.323331e-01 -4.746671e-01 -8.251274e-01 -3.622505e-01 -8.688192e-01 -6.274571e-01 -3.216741e-01 3.443550e-02 1.207544e+00 -9.913669e-02 6.555644e-01 -1.876525e+00 -6.641148e-02 4.088330e-02 1.311436e-01 1.836658e-01 5.509578e-02 -4.123174e-02 -1.840090e-02 4.649567e-02 -2.275128e-02 -1.151450e-01 -9.052227e-02 4.550656e-04 -1.161683e-01 -8.468497e-02 -3.094653e-01 1.488696e-01 1.194162e-01 2.888420e-02 6.365259e-02 4.119929e-02 1.129031e-01 9.258377e-02 -1.630937e-01 2.339992e-02 3.868486e-02 2.931436e-01
<VARIANCE> 39
 3.841679e-02 1.168303e-01 1.228751e-01 1.873194e-01 2.111821e-01 2.913765e-01 2.711493e-01 5.703997e-01 3.197790e-01 4.158704e-01 4.082056e-01 5.180840e-01 9.050405e-02 1.203735e-01 6.988969e-01 4.319620e-01 6.680555e-01 4.173074e-01 5.793565e-01 5.244293e-01 7.166835e-01 5.815698e-01 6.954981e-01 7.403083e-01 7.455176e-01 4.685797e-01 2.843976e-01 4.271879e-01 7.464941e-01 1.065331e+00 5.375276e-01 7.153429e-01 6.021656e-01 6.948739e-01 6.891863e-01 8.089903e-01 7.636148e-01 7.675672e-01 3.195787e-01
<GCONST> 3.707394e+01
<TRANSP> 7
 0.000000e+00 1.000000e+00 0.000000e+00 0.000000e+00 0.000000e+00 0.000000e+00 0.000000e+00
 0.000000e+00 7.068337e-01 2.931662e-01 0.000000e+00 0.000000e+00 0.000000e+00 0.000000e+00
 0.000000e+00 0.000000e+00 6.264153e-01 3.735848e-01 0.000000e+00 0.000000e+00 0.000000e+00
 0.000000e+00 0.000000e+00 0.000000e+00 7.441490e-01 2.558511e-01 0.000000e+00 0.000000e+00
 0.000000e+00 0.000000e+00 0.000000e+00 0.000000e+00 8.578069e-01 1.421931e-01 0.000000e+00
 0.000000e+00 0.000000e+00 0.000000e+00 0.000000e+00 0.000000e+00 8.795914e-01 1.204086e-01
 0.000000e+00 0.000000e+00 0.000000e+00 0.000000e+00 0.000000e+00 0.000000e+00 0.000000e+00
<ENDHMM>
~h "h"
<BEGINHMM>
<NUMSTATES> 7
<STATE> 2
<NUMMIXES> 2
<MIXTURE> 1 3.530395e-01
<MEAN> 39
 -5.283949e-01 -2.672167e-01 -1.306287e-01 4.828722e-01 3.403362e-01 2.070182e-01 5.032451e-01 -1.877493e-01 -8.777242e-01 2.624339e-02 4.807906e-01 7.529709e-01 -5.996033e-01 8.933161e-01 1.006569e-01 8.628075e-01 1.202010e+00 4.784899e-01 2.765959e-01 6.040170e-01 4.619139e-01 -5.385801e-01 -2.293480e-01 -5.489656e-01 -4.115209e-01 2.655044e+00 5.130565e-01 2.737828e-01 3.892971e-01 -5.591501e-02 -2.014337e-01 -6.185298e-02 1.846220e-01 4.683673e-01 1.128706e-01 2.652875e-01 -7.823494e-01 -4.696996e-01 1.384263e+00
<VARIANCE> 39
 1.239944e-01 2.789364e-01 3.406791e-01 3.067484e-01 2.449779e-01 4.316024e-01 3.475863e-01 5.929353e-01 5.921587e-01 4.350328e-01 4.753786e-01 8.870356e-01 2.420486e-01 9.124505e-01 1.188757e+00 9.512358e-01 9.110740e-01 7.071348e-01 1.306757e+00 9.871424e-01 1.318444e+00 1.461552e+00 9.691583e-01 1.345170e+00 1.739399e+00 1.156389e+00 1.330273e+00 1.444283e+00 1.331478e+00 8.639340e-01 9.637415e-01 1.508722e+00 1.154722e+00 1.526714e+00 1.309982e+00 1.120618e+00 1.048383e+00 1.991452e+00 1.753540e+00
<GCONST> 6.347189e+01
<MIXTURE> 2 6.469614e-01
<MEAN> 39
 -1.001248e+00 5.597029e-01 1.070595e+00 4.159391e-01 1.132781e-01 4.247252e-01 2.137147e-01 8.092403e-02 -1.129641e+00 -1.004480e-01 -8.921617e-01 6.550276e-01 6.569235e-01 5.855366e-01 -6.398413e-01 4.776907e-01 6.476102e-01 -8.229710e-01 -1.580133e-01 -3.463556e-02 -4.277360e-01 -9.711947e-02 4.979812e-03 4.140010e-02 2.596460e-02 8.245339e-01 6.976262e-01 -1.138135e-01 -2.847940e-01 2.644076e-01 1.086812e-02 -5.264844e-01 1.884919e-01 2.435664e-01 -3.007860e-01 2.776569e-02 1.746737e-01 -1.952295e-01 -5.449162e-02
<VARIANCE> 39
 1.005422e+00 5.910935e-01 6.315689e-01 7.716595e-01 5.185095e-01 9.149553e-01 8.858007e-01 7.815359e-01 5.584156e-01 9.408726e-01 6.756065e-01 9.951342e-01 5.362653e-01 9.822833e-01 1.049940e+00 9.443360e-01 1.220582e+00 9.376840e-01 1.125482e+00 1.255120e+00 1.227605e+00 1.101075e+00 1.098913e+00 9.132853e-01 1.401008e+00 6.262774e-01 7.756394e-01 7.289136e-01 1.031009e+00 1.000104e+00 9.467948e-01 9.904496e-01 1.404124e+00 1.054566e+00 9.822921e-01 1.026897e+00 8.067931e-01 1.547297e+00 5.740557e-01
<GCONST> 6.775323e+01
<STATE> 3
<NUMMIXES> 2
<MIXTURE> 1 4.828664e-01
<MEAN> 39
 4.445840e-02 -2.051810e-01 1.139583e-01 9.358841e-01 6.868253e-01 3.856386e-01 9.733665e-01 5.370879e-01 -1.059743e+00 5.150747e-02 -2.379968e-01 2.924397e-01 6.890614e-01 4.454259e-01 -5.861689e-01 1.848453e-03 2.881190e-01 -1.939611e-01 7.133231e-02 4.160428e-01 5.763102e-01 -3.898674e-01 3.871819e-01 -3.382525e-01 2.740826e-02 2.553894e+00 -1.176686e+00 -3.693182e-01 -4.683710e-01 -7.417908e-01 -8.966244e-01 -3.267772e-01 -5.089555e-01 -6.102810e-01 -6.551056e-02 1.870531e-01 3.750379e-01 4.540733e-01 -1.529886e+00
<VARIANCE> 39
 3.306995e-01 3.273559e-01 2.713262e-01 3.112582e-01 2.995799e-01 4.323581e-01 3.156239e-01 7.640789e-01 5.647143e-01 4.398696e-01 3.263970e-01 7.130843e-01 4.286860e-01 1.171860e+00 9.723278e-01 1.295150e+00 8.655444e-01 9.148127e-01 9.185153e-01 9.107756e-01 1.659605e+00 1.035333e+00 1.001089e+00 7.160856e-01 1.235964e+00 1.920587e+00 1.508159e+00 1.810066e+00 1.183307e+00 6.377061e-01 1.295142e+00 1.442395e+00 1.007868e+00 1.534417e+00 1.558107e+00 1.332764e+00 6.903775e-01 1.363356e+00 3.007870e+00
<GCONST> 6.442387e+01
<MIXTURE> 2 5.171331e-01
<MEAN> 39
 -2.923500e-01 -1.574599e-01 9.368402e-01 7.222227e-01 -2.036322e-01 2.335639e-02 1.733883e-01 -3.354243e-01 -1.271791e+00 2.282811e-01 -7.668824e-01 2.415338e-01 7.843040e-01 7.646042e-01 -6.409279e-01 8.131172e-02 6.504782e-01 -5.782147e-01 -1.062453e+00 -7.397020e-02 3.762460e-01 -3.885810e-01 -1.840416e-01 1.259111e-01 -6.553642e-03 8.963768e-01 1.015604e-01 1.413961e-01 -2.784850e-01 8.124188e-02 2.381455e-01 -2.464539e-01 2.631776e-01 6.728818e-01 9.351116e-03 -7.595732e-01 2.727007e-01 4.293280e-01 -8.571768e-01
<VARIANCE> 39
 8.180233e-01 5.609932e-01 9.545979e-01 7.697155e-01 7.909082e-01 9.476461e-01 1.062538e+00 1.092107e+00 9.605518e-01 1.691661e+00 8.178692e-01 1.183153e+00 4.770739e-01 1.142959e+00 1.023109e+00 1.414376e+00 1.450960e+00 5.933924e-01 1.241234e+00 1.728104e+00 1.547401e+00 1.289396e+00 1.280589e+00 1.043302e+00 1.335180e+00 1.433277e+00 1.047468e+00 1.244665e+00 1.414278e+00 1.859263e+00 1.277376e+00 1.539881e+00 1.590587e+00 1.462737e+00 1.770730e+00 1.323517e+00 1.221876e+00 1.562555e+00 1.897424e+00
<GCONST> 7.780098e+01
<STATE> 4
<NUMMIXES> 2
<MIXTURE> 1 4.434569e-01
<MEAN> 39
 -3.319460e-01 -3.255155e-01 6.474269e-01 1.135102e+00 -5.793157e-01 -2.662402e-01 1.154050e+00 2.778321e-01 -2.026417e+00 -6.635842e-02 -5.718448e-01 3.030937e-01 1.095282e+00 9.165946e-01 -6.023154e-02 1.501267e-01 5.058295e-01 7.683555e-02 -3.303199e-01 4.949246e-02 2.552692e-01 6.432371e-02 -5.929650e-01 2.138991e-02 9.972003e-02 -2.226920e-01 -1.547904e-01 3.444915e-01 3.438426e-01 2.565853e-02 3.806193e-01 1.942328e-01 -5.689311e-01 -7.074206e-02 5.234920e-01 -1.592603e-01 -7.263553e-02 1.905271e-01 -4.199303e-01
<VARIANCE> 39
 3.619355e-01 2.928278e-01 4.769222e-01 4.626984e-01 4.356027e-01 4.864225e-01 4.503862e-01 7.119373e-01 4.259628e-01 5.236043e-01 4.100893e-01 6.057125e-01 1.426251e-01 1.210655e+00 8.395892e-01 1.330979e+00 1.083503e+00 1.198233e+00 1.390601e+00 1.428448e+00 1.603842e+00 1.311947e+00 1.018617e+00 1.037436e+00 1.214304e+00 6.117487e-01 8.499919e-01 7.281495e-01 1.123302e+00 9.992341e-01 1.195684e+00 1.158254e+00 1.322455e+00 1.422208e+00 1.215236e+00 1.077596e+00 1.016922e+00 1.218386e+00 6.654213e-01
<GCONST> 6.281301e+01
<MIXTURE> 2 5.565427e-01
<MEAN> 39
 3.511526e-01 -5.667682e-01 -3.365025e-02 1.043915e+00 1.657123e-01 -3.319796e-01 4.268768e-01 7.520515e-01 -1.318292e+00 -1.914338e-01 -2.961100e-01 6.201453e-01 9.526153e-01 -1.241751e-04 -3.556716e-02 4.075471e-01 2.631253e-01 -6.504461e-01 -5.407611e-01 -2.178057e-01 -4.147878e-02 -3.624083e-01 -5.565056e-01 -1.766235e-01 2.932280e-01 1.536572e-01 -4.824193e-01 5.396712e-01 8.695498e-01 -6.048781e-02 -3.894575e-01 1.320892e-01 1.306152e-01 -3.798194e-01 -8.432739e-02 -2.229436e-01 -1.762244e-01 -1.384164e-01 -6.082188e-01
<VARIANCE> 39
 5.151420e-01 4.046513e-01 7.350561e-01 5.109777e-01 3.749065e-01 9.026223e-01 7.692066e-01 9.513821e-01 6.653166e-01 7.234250e-01 5.499376e-01 8.548321e-01 4.313956e-01 7.968001e-01 1.003193e+00 1.239207e+00 1.194890e+00 1.151499e+00 1.516876e+00 1.135491e+00 1.267416e+00 1.136944e+00 1.318547e+00 8.786506e-01 1.463937e+00 8.352025e-01 8.203442e-01 1.166532e+00 1.359446e+00 1.044149e+00 1.091138e+00 1.513460e+00 1.011146e+00 1.204849e+00 1.142655e+00 1.353917e+00 8.372251e-01 1.440055e+00 1.458195e+00
<GCONST> 6.898016e+01
<STATE> 5
<NUMMIXES> 2
<MIXTURE> 1 5.835769e-01
<MEAN> 39
 8.409444e-01 -2.349601e-01 1.344427e+00 2.055895e+00 -3.247002e-01 -1.244660e+00 -5.084727e-01 7.331444e-01 -1.347503e+00 -1.823645e+00 -7.181546e-01 8.987626e-01 5.397285e-01 2.713852e-01 -5.726207e-02 3.024650e-02 1.449929e-01 4.945001e-02 -2.415531e-01 -1.159966e-01 3.033202e-01 -1.406435e-02 -2.895328e-01 2.553076e-02 -7.305023e-02 -1.157600e-01 -2.855911e-01 -8.755293e-02 1.139518e-01 -2.667058e-01 -1.786893e-01 2.880645e-01 1.894742e-01 -1.343097e-01 6.617544e-02 3.237517e-01 6.058877e-03 -9.762131e-02 2.747823e-01
<VARIANCE> 39
 1.175961e-01 3.848512e-01 5.284497e-01 3.354849e-01 5.170951e-01 4.400371e-01 4.147413e-01 9.161534e-01 5.508049e-01 5.020306e-01 5.347640e-01 6.479284e-01 3.042980e-01 4.103249e-01 4.560353e-01 1.533591e+00 7.287480e-01 7.205087e-01 1.026398e+00 8.884135e-01 1.025033e+00 6.534976e-01 1.048274e+00 7.716579e-01 8.820545e-01 5.807306e-01 5.948258e-01 5.638465e-01 1.070155e+00 6.543778e-01 6.627849e-01 9.627704e-01 6.750006e-01 1.021233e+00 6.407856e-01 8.510640e-01 7.673520e-01 8.884098e-01 6.054062e-01
<GCONST> 5.384069e+01
<MIXTURE> 2 4.164245e-01
<MEAN> 39
 3.121786e-01 -4.052435e-01 1.232605e+00 1.491317e+00 -7.390655e-01 -9.448730e-01 1.447186e-01 6.658683e-01 -1.465993e+00 -1.088062e+00 -4.571554e-01 8.384506e-01 7.024349e-01 -6.955664e-01 3.200667e-01 1.827215e+00 -2.386515e-02 -7.918856e-01 4.742883e-01 -6.644808e-02 -8.762794e-01 -8.739024e-02 -2.015052e-01 -2.460420e-01 -3.098827e-02 1.469592e-01 -2.357438e-01 4.847645e-01 8.272182e-02 -3.518088e-01 6.262330e-01 7.316762e-01 -2.387128e-01 -6.081544e-01 2.556430e-01 3.080101e-01 -1.304371e-01 -2.099278e-01 -2.704420e-01
<VARIANCE> 39
 5.120296e-01 3.924253e-01 8.100695e-01 6.322043e-01 5.346227e-01 9.557451e-01 9.767853e-01 1.446829e+00 7.411536e-01 1.362017e+00 6.817267e-01 8.514975e-01 2.466177e-01 6.743505e-01 8.183485e-01 1.128776e+00 1.357981e+00 8.949218e-01 1.222705e+00 1.213018e+00 1.507941e+00 1.157215e+00 1.443352e+00 8.669532e-01 9.691331e-01 6.946078e-01 7.250149e-01 7.642224e-01 1.489361e+00 1.068116e+00 1.114850e+00 1.199816e+00 1.458712e+00 1.580795e+00 1.239035e+00 1.301823e+00 9.739991e-01 1.164837e+00 6.373158e-01
<GCONST> 6.879831e+01
<STATE> 6
<NUMMIXES> 2
<MIXTURE> 1 6.411020e-01
<MEAN> 39
 -6.420240e-01 1.801781e-01 1.221561e+00 4.838840e-01 -6.342088e-01 6.245105e-01 9.474199e-01 -3.750156e-01 -1.393171e+00 2.361555e-01 -6.026312e-01 5.072805e-01 8.413653e-01 -4.175881e-01 8.000100e-01 1.058418e+00 -2.312134e-01 2.804711e-01 4.199241e-01 -3.726114e-01 -5.516471e-01 2.024409e-01 -2.177174e-01 -2.780015e-01 -3.392664e-02 -4.189650e-01 6.506314e-01 -7.189021e-02 -2.483904e-01 3.232078e-01 5.349620e-01 -5.274293e-01 -5.531584e-01 2.832835e-01 -1.064444e-02 -5.361403e-01 4.377827e-02 1.443921e-01 -9.081861e-02
<VARIANCE> 39
 6.564882e-01 4.766190e-01 6.139853e-01 7.424538e-01 6.174388e-01 5.586886e-01 4.927411e-01 9.115403e-01 5.710144e-01 5.180312e-01 6.230878e-01 7.768660e-01 2.969722e-01 8.700974e-01 9.352392e-01 1.595394e+00 1.284574e+00 1.087774e+00 1.013337e+00 9.120907e-01 1.098500e+00 8.807861e-01 1.179769e+00 1.126569e+00 1.347466e+00 5.887693e-01 1.261144e+00 8.847235e-01 1.451334e+00 1.236221e+00 1.276317e+00 1.224977e+00 9.999387e-01 1.123070e+00 9.544328e-01 1.185035e+00 1.022102e+00 1.407621e+00 6.214020e-01
<GCONST> 6.651218e+01
<MIXTURE> 2 3.588983e-01
<MEAN> 39
 4.943282e-01 -3.436868e-01 2.228189e+00 1.652457e+00 -1.094204e+00 -8.999441e-01 -6.631845e-01 -1.752123e-01 -1.114203e+00 -1.599805e+00 -8.415793e-01 7.178188e-01 1.011057e+00 -5.781330e-01 3.580735e-01 7.762688e-01 -6.014775e-01 -8.005945e-02 7.414353e-01 -4.095334e-01 -7.047226e-01 4.273080e-01 -3.465948e-02 -1.288527e-01 1.778058e-01 3.828606e-01 -1.874101e-01 1.790828e-01 -5.823275e-01 -2.192784e-01 4.108739e-01 2.910044e-02 1.270331e-01 2.485676e-01 -5.155297e-02 8.636063e-02 -3.102017e-02 2.137015e-01 -1.449415e-01
<VARIANCE> 39
 1.845048e-01 2.202204e-01 6.003675e-01 5.345169e-01 5.104725e-01 6.965938e-01 5.340900e-01 1.241585e+00 4.832823e-01 5.212473e-01 4.729803e-01 1.409364e+00 2.332106e-01 4.340685e-01 3.940059e-01 1.055651e+00 6.028931e-01 4.650334e-01 1.061010e+00 5.679477e-01 7.483495e-01 5.415547e-01 6.506029e-01 5.412828e-01 7.920072e-01 2.201901e-01 3.584337e-01 3.380906e-01 7.400347e-01 5.488931e-01 6.314309e-01 5.304813e-01 6.350292e-01 6.030536e-01 4.075638e-01 5.080660e-01 6.476110e-01 6.717836e-01 2.603268e-01
<GCONST> 4.665155e+01
<TRANSP> 7
 0.000000e+00 1.000000e+00 0.000000e+00 0.000000e+00 0.000000e+00 0.000000e+00 0.000000e+00
 0.000000e+00 6.154580e-01 3.845420e-01 0.000000e+00 0.000000e+00 0.000000e+00 0.000000e+00
 0.000000e+00 0.000000e+00 5.290740e-01 4.709260e-01 0.000000e+00 0.000000e+00 0.000000e+00
 0.000000e+00 0.000000e+00 0.000000e+00 7.453828e-01 2.546172e-01 0.000000e+00 0.000000e+00
 0.000000e+00 0.000000e+00 0.000000e+00 0.000000e+00 7.912328e-01 2.087672e-01 0.000000e+00
 0.000000e+00 0.000000e+00 0.000000e+00 0.000000e+00 0.000000e+00 6.573876e-01 3.426125e-01
 0.000000e+00 0.000000e+00 0.000000e+00 0.000000e+00 0.000000e+00 0.000000e+00 0.000000e+00
<ENDHMM>
~h "i"
<BEGINHMM>
<NUMSTATES> 7
<STATE> 2
<NUMMIXES> 2
<MIXTURE> 1 5.579861e-01
<MEAN> 39
 -1.866081e+00 1.482466e+00 8.154088e-01 -1.643859e-01 1.015982e+00 4.217174e-01 8.637310e-01 -2.153649e-01 -9.772083e-01 9.144701e-02 -5.182249e-01 4.710699e-01 5.508608e-01 6.214868e-01 2.217058e-01 7.942140e-01 2.294526e-01 9.071627e-02 4.349150e-03 -2.277752e-01 -1.107612e-01 -2.393274e-01 -4.342768e-01 -2.213696e-01 -1.694149e-01 6.826940e-03 9.322625e-01 -5.693397e-03 5.113847e-01 5.972044e-01 -1.011562e-01 -2.650038e-01 -2.119359e-01 -3.888002e-02 -1.441166e-01 -3.834602e-01 -2.105657e-01 1.042068e-02 -3.258464e-02
<VARIANCE> 39
 1.833807e-01 3.286554e-01 4.024481e-01 4.223676e-01 3.388767e-01 6.825200e-01 3.574424e-01 5.835995e-01 2.923340e-01 3.208348e-01 4.152137e-01 5.799618e-01 2.679204e-01 1.069125e+00 6.879354e-01 1.129997e+00 1.146448e+00 6.638332e-01 8.854732e-01 8.145263e-01 9.528597e-01 6.989399e-01 9.152956e-01 8.781108e-01 9.058055e-01 4.936171e-01 9.975591e-01 7.813982e-01 1.033761e+00 1.071377e+00 7.975227e-01 9.796002e-01 9.371731e-01 1.077309e+00 7.857007e-01 1.001081e+00 9.287325e-01 1.074975e+00 4.429025e-01
<GCONST> 5.530217e+01
<MIXTURE> 2 4.420141e-01
<MEAN> 39
 -2.502482e-01 1.855358e-01 8.993899e-01 5.155653e-01 2.693624e-01 1.319816e-01 2.834584e-01 -9.911976e-02 -9.517049e-01 -3.352131e-01 -5.762058e-01 2.151924e-01 1.632860e-01 5.919539e-02 4.495893e-01 1.155164e+00 1.230640e-02 -2.117906e-01 -7.961678e-03 -2.394681e-01 -1.709314e-01 -3.477053e-01 -4.878796e-01 -1.894223e-01 6.187892e-02 6.866357e-01 1.515986e-02 1.424029e-01 2.710086e-01 4.752771e-02 -4.284774e-02 -1.433111e-01 -2.961924e-01 -3.857552e-02 -4.144828e-02 -2.170617e-01 2.979491e-02 1.594113e-01 -1.644713e-01
<VARIANCE> 39
 4.708843e-01 5.569704e-01 8.747192e-01 6.980684e-01 7.352957e-01 9.542487e-01 8.429312e-01 9.462069e-01 6.755450e-01 7.911506e-01 7.797552e-01 8.533725e-01 9.549212e-01 1.548590e+00 1.357241e+00 1.888570e+00 1.709080e+00 1.419324e+00 1.594926e+00 1.334216e+00 1.702780e+00 1.295188e+00 1.452440e+00 1.256556e+00 1.335430e+00 2.523101e+00 2.022729e+00 1.310525e+00 1.842525e+00 1.544867e+00 1.500776e+00 1.660616e+00 1.399660e+00 1.638858e+00 1.245900e+00 1.383141e+00 1.265455e+00 1.345204e+00 3.148300e+00
<GCONST> 7.979969e+01
<STATE> 3
<NUMMIXES> 2
<MIXTURE> 1 4.812357e-01
<MEAN> 39
 -8.056312e-01 1.785874e+00 1.837388e+00 6.644709e-01 9.931120e-01 -3.055354e-02 3.220189e-01 -5.927914e-01 -1.465246e+00 -9.391997e-01 -1.093905e+00 3.492005e-01 3.703877e-01 1.429541e+00 -2.364497e-01 1.377635e+00 7.219098e-01 -4.943402e-01 -5.403936e-01 -8.020517e-01 1.047815e-02 -2.642793e-01 -1.056311e+00 -2.850722e-01 3.078021e-01 1.046973e-01 -4.144838e-01 -8.238797e-01 -4.991419e-01 -3.391064e-01 -5.380904e-01 -8.530512e-02 -1.602381e-01 3.036039e-01 3.428592e-01 1.137785e-01 2.803019e-01 2.650079e-01 1.454817e-01
<VARIANCE> 39
 2.193151e-01 3.636057e-01 3.555385e-01 2.900828e-01 3.441735e-01 5.854486e-01 3.436259e-01 5.833639e-01 3.086372e-01 4.309683e-01 5.117640e-01 6.375223e-01 2.816958e-01 9.534110e-01 1.003179e+00 1.107097e+00 1.182469e+00 8.459053e-01 1.067856e+00 8.240169e-01 1.042327e+00 7.713341e-01 9.416370e-01 9.224099e-01 1.100809e+00 4.115833e-01 9.347755e-01 7.392552e-01 9.468355e-01 9.591313e-01 8.422643e-01 9.939864e-01 8.619620e-01 1.053332e+00 7.322841e-01 9.637572e-01 8.467168e-01 1.057641e+00 4.275982e-01
<GCONST> 5.599331e+01
<MIXTURE> 2 5.187686e-01
<MEAN> 39
 -1.192049e-01 7.666778e-01 2.186123e+00 8.535600e-01 2.222723e-02 -3.490137e-01 -4.447792e-01 -3.254935e-01 -1.340567e+00 -1.394178e+00 -9.580834e-01 6.453100e-01 3.114641e-01 3.945750e-01 -4.484735e-01 9.767335e-01 -1.568653e-02 -7.267683e-01 -2.205524e-01 -7.153239e-01 2.303846e-01 -3.020372e-02 -6.763656e-01 8.175455e-02 4.280417e-01 6.748604e-01 -6.012535e-01 -3.576608e-02 -9.257158e-01 -3.750035e-01 2.551099e-01 3.025106e-01 3.411900e-01 8.996405e-02 7.631209e-02 5.143568e-01 1.262563e-01 -2.431756e-01 -1.860497e-01
<VARIANCE> 39
 2.001872e-01 5.452434e-01 5.999190e-01 4.397251e-01 5.756062e-01 7.592453e-01 5.053239e-01 6.645883e-01 5.815899e-01 6.655868e-01 8.719414e-01 8.834842e-01 5.091247e-01 9.217790e-01 1.221797e+00 1.251831e+00 9.763931e-01 1.152452e+00 1.320563e+00 9.959745e-01 1.145650e+00 9.814456e-01 1.030527e+00 9.429341e-01 1.055522e+00 7.397656e-01 1.022039e+00 1.000885e+00 1.256062e+00 1.072240e+00 1.029589e+00 1.149152e+00 8.908404e-01 1.137930e+00 9.603752e-01 9.846796e-01 9.132167e-01 1.002424e+00 6.961046e-01
<GCONST> 6.489806e+01
<STATE> 4
<NUMMIXES> 2
<MIXTURE> 1 5.739953e-01
<MEAN> 39
 -2.332588e-01 1.027480e+00 2.767863e+00 6.713353e-01 2.044827e-02 6.510159e-02 -7.779726e-01 -1.872245e-01 -1.750029e+00 -1.919089e+00 -8.145278e-01 4.801989e-01 5.450687e-01 -1.984170e-02 -7.024807e-03 9.880506e-03 6.885145e-02 -5.437712e-02 -2.912565e-02 -1.344693e-02 -2.418302e-02 1.618329e-02 -1.775715e-02 8.852191e-03 -3.295421e-03 1.028085e-02 1.669038e-02 -9.077716e-02 -2.371067e-01 1.234777e-01 -1.129249e-02 -1.225470e-01 1.453434e-01 -1.841296e-02 1.004873e-01 1.930595e-01 -3.304364e-02 1.268369e-03 -1.194217e-01
<VARIANCE> 39
 1.289570e-01 3.467368e-01 2.172568e-01 4.084249e-01 6.013938e-01 7.464356e-01 4.611006e-01 8.321359e-01 6.826097e-01 5.388503e-01 1.224419e+00 1.194735e+00 2.420043e-01 1.943118e-01 3.550376e-01 4.577882e-01 5.209463e-01 5.002902e-01 6.352140e-01 5.267724e-01 6.309431e-01 5.178961e-01 5.785545e-01 5.224290e-01 6.121706e-01 2.583686e-01 2.932515e-01 3.477140e-01 5.857205e-01 5.299537e-01 5.127134e-01 6.527956e-01 5.730246e-01 6.672928e-01 5.323172e-01 6.122252e-01 5.450664e-01 6.201280e-01 2.400574e-01
<GCONST> 4.315489e+01
<MIXTURE> 2 4.259765e-01
<MEAN> 39
 1.098203e-02 2.059068e-01 2.211032e+00 8.768466e-01 -5.908616e-01 -8.130399e-01 -8.396831e-01 2.383064e-02 -1.431398e+00 -1.347449e+00 -9.614882e-01 1.001845e+00 8.189703e-01 5.987092e-02 -1.074788e-01 -9.332015e-02 1.468971e-02 -1.231924e-01 -6.983893e-02 -1.480689e-02 5.029326e-02 -2.378068e-02 -1.589481e-03 6.650073e-02 6.796353e-03 -8.567018e-03 -8.944017e-02 1.925486e-01 -3.708150e-01 -2.832288e-02 3.269001e-01 2.098638e-01 2.563604e-01 -6.107074e-02 3.110757e-02 1.536782e-01 3.753857e-02 -1.782637e-01 -4.105080e-01
<VARIANCE> 39
 2.245067e-01 5.046020e-01 5.248498e-01 5.244610e-01 6.928467e-01 9.148862e-01 6.195705e-01 8.326117e-01 6.639305e-01 7.149828e-01 1.054732e+00 8.613281e-01 3.586026e-01 4.368112e-01 6.401505e-01 7.301556e-01 7.095379e-01 6.953826e-01 9.033300e-01 7.033643e-01 8.151171e-01 6.864330e-01 7.388437e-01 6.719146e-01 7.150768e-01 5.354757e-01 5.648105e-01 5.097440e-01 1.001682e+00 6.318266e-01 7.323745e-01 8.868951e-01 7.598734e-01 8.159179e-01 6.356339e-01 7.608227e-01 6.474893e-01 7.041308e-01 6.071995e-01
<GCONST> 5.561226e+01
<STATE> 5
<NUMMIXES> 2
<MIXTURE> 1 5.593798e-01
<MEAN> 39
 -5.277513e-01 1.222060e+00 1.066085e+00 2.564965e-01 5.507969e-01 3.840704e-01 3.547027e-01 -3.737206e-01 -1.096878e+00 -4.517666e-01 -5.194650e-01 -1.634352e-02 -4.466811e-01 -1.069597e-01 -9.157769e-02 -1.902168e-01 2.978698e-02 -4.568382e-02 -6.194845e-02 5.169761e-02 -1.099481e-02 9.089654e-02 1.080872e-01 -1.267873e-03 6.539243e-02 -2.556542e-01 -4.397364e-02 -2.805732e-01 6.590727e-02 1.240139e-01 -1.231765e-01 -1.232411e-01 -1.079034e-01 5.136720e-02 1.031149e-01 -1.104596e-01 8.051602e-03 1.356407e-01 1.742286e-01
<VARIANCE> 39
 7.857993e-01 5.159829e-01 8.417861e-01 6.082985e-01 5.263472e-01 5.586069e-01 4.995601e-01 8.151705e-01 5.049888e-01 7.897781e-01 6.575484e-01 8.797394e-01 7.260273e-01 4.228993e-01 6.817632e-01 7.960507e-01 7.655198e-01 6.220720e-01 7.867826e-01 7.822343e-01 9.243405e-01 7.932876e-01 8.829150e-01 8.272769e-01 1.026549e+00 4.711194e-01 5.566427e-01 5.627970e-01 7.895710e-01 7.814782e-01 7.179338e-01 8.942918e-01 8.898089e-01 1.027043e+00 8.852368e-01 8.926926e-01 8.947217e-01 1.078899e+00 3.618470e-01
<GCONST> 5.868208e+01
<MIXTURE> 2 4.406118e-01
<MEAN> 39
 -1.433861e-01 4.831659e-01 1.821046e+00 9.117935e-01 -9.124612e-02 -3.245798e-01 -2.711155e-01 -1.618381e-01 -1.198973e+00 -1.169920e+00 -8.242964e-01 5.942397e-01 2.012355e-01 -2.710586e-02 -1.947505e-01 -1.093283e+00 -1.174635e-01 2.472626e-01 1.254709e-01 4.804106e-01 9.615336e-02 4.119213e-01 6.868398e-01 2.160459e-01 -2.311177e-01 -6.134065e-01 -1.500097e-01 2.762058e-01 -5.625187e-01 -3.769170e-01 2.760695e-01 2.291178e-01 1.630192e-01 6.276228e-03 4.798120e-02 4.190253e-01 1.240248e-01 -2.031008e-01 -4.012285e-01
<VARIANCE> 39
 3.189486e-01 6.398856e-01 9.219853e-01 6.025333e-01 8.069620e-01 9.760596e-01 7.276229e-01 9.900395e-01 7.479637e-01 9.715481e-01 9.312301e-01 9.797630e-01 5.395630e-01 7.837777e-01 1.100516e+00 1.344530e+00 1.232513e+00 1.156227e+00 1.397804e+00 1.076387e+00 1.225405e+00 1.094653e+00 1.222504e+00 1.102582e+00 1.090155e+00 1.395784e+00 8.817072e-01 1.141014e+00 1.400083e+00 1.119374e+00 1.330737e+00 1.343192e+00 1.082134e+00 1.242557e+00 1.033946e+00 1.125130e+00 1.017158e+00 1.088977e+00 1.333456e+00
<GCONST> 7.170203e+01
<STATE> 6
<NUMMIXES> 2
<MIXTURE> 1 3.352695e-01
<MEAN> 39
 -5.676776e-01 -7.003302e-02 3.045973e-01 1.222226e-01 -6.483999e-02 -2.889037e-01 -2.290990e-03 -8.566882e-02 -2.450840e-01 -2.150742e-01 -7.589558e-02 7.130324e-01 -6.053760e-01 1.350459e-01 -1.091618e-01 -8.143916e-01 -5.663287e-01 -5.724942e-02 1.713795e-01 1.851200e-01 -5.989623e-03 9.157725e-02 5.228364e-01 3.061692e-01 -1.239110e-01 -2.368494e-02 2.534298e-01 7.840469e-01 -2.730170e-01 -2.254748e-01 1.728687e-01 1.132006e-01 4.339742e-02 -3.913327e-01 -6.026481e-01 3.850123e-01 -2.050386e-01 -2.595440e-01 -6.547270e-01
<VARIANCE> 39
 3.572987e-01 6.737084e-01 1.191967e+00 6.948676e-01 6.278645e-01 6.816723e-01 4.972534e-01 6.893792e-01 7.951535e-01 8.825676e-01 8.918217e-01 8.788601e-01 7.194338e-01 5.408945e-01 1.251627e+00 1.125814e+00 1.116905e+00 7.502490e-01 8.640052e-01 7.739807e-01 1.064363e+00 1.279920e+00 1.545222e+00 8.381301e-01 1.070171e+00 1.054961e+00 9.902582e-01 1.299287e+00 1.371695e+00 1.281882e+00 9.175875e-01 9.709350e-01 8.607208e-01 1.055754e+00 1.197076e+00 1.477557e+00 8.659497e-01 1.069819e+00 1.131590e+00
<GCONST> 6.827927e+01
<MIXTURE> 2 6.647269e-01
<MEAN> 39
 -7.418955e-01 3.108590e-01 -5.830354e-01 -6.640598e-01 -2.545834e-01 -3.611402e-01 -1.032530e-01 -7.399514e-01 -3.378609e-01 4.402457e-01 -1.719273e-02 5.743951e-01 -1.555102e+00 -8.514652e-02 6.620811e-03 1.561412e-01 2.114959e-01 4.261435e-02 -8.413350e-02 -4.412274e-02 -3.690951e-03 2.752310e-02 -1.179131e-01 -1.090255e-01 1.684665e-02 -9.320123e-02 -9.222780e-02 -2.585667e-01 1.660703e-01 1.431346e-01 8.796452e-03 -4.085712e-05 -6.378736e-03 1.425116e-01 2.055825e-01 -2.056482e-01 4.592619e-02 6.864662e-02 3.129807e-01
<VARIANCE> 39
 4.301400e-02 1.384847e-01 1.808024e-01 2.228238e-01 2.700167e-01 4.106861e-01 3.903497e-01 4.511577e-01 2.373617e-01 4.335856e-01 4.677411e-01 5.364301e-01 7.914586e-02 1.385991e-01 4.933880e-01 4.725828e-01 5.266078e-01 4.327904e-01 5.699304e-01 6.903036e-01 7.179201e-01 6.979638e-01 7.914017e-01 8.606883e-01 8.836980e-01 4.086744e-01 3.271067e-01 3.656364e-01 8.245481e-01 7.730394e-01 5.789796e-01 7.102425e-01 8.317637e-01 7.759871e-01 8.172110e-01 9.872528e-01 9.751487e-01 9.832547e-01 2.137551e-01
<GCONST> 3.957612e+01
<TRANSP> 7
 0.000000e+00 1.000000e+00 0.000000e+00 0.000000e+00 0.000000e+00 0.000000e+00 0.000000e+00
 0.000000e+00 7.773334e-01 2.226666e-01 0.000000e+00 0.000000e+00 0.000000e+00 0.000000e+00
 0.000000e+00 0.000000e+00 7.560990e-01 2.439010e-01 0.000000e+00 0.000000e+00 0.000000e+00
 0.000000e+00 0.000000e+00 0.000000e+00 8.962024e-01 1.037976e-01 0.000000e+00 0.000000e+00
 0.000000e+00 0.000000e+00 0.000000e+00 0.000000e+00 8.346349e-01 1.653651e-01 0.000000e+00
 0.000000e+00 0.000000e+00 0.000000e+00 0.000000e+00 0.000000e+00 8.983930e-01 1.016070e-01
 0.000000e+00 0.000000e+00 0.000000e+00 0.000000e+00 0.000000e+00 0.000000e+00 0.000000e+00
<ENDHMM>
~h "j"
<BEGINHMM>
<NUMSTATES> 7
<STATE> 2
<NUMMIXES> 2
<MIXTURE> 1 6.162190e-01
<MEAN> 39
 -1.768218e+00 1.087368e+00 1.076248e+00 -8.363244e-02 7.084079e-01 6.540268e-01 8.177311e-01 -1.240776e-01 -1.215968e+00 1.947862e-01 -7.042007e-01 5.271747e-01 8.562393e-01 2.275338e-01 -2.075804e-01 3.066165e-01 1.000966e-01 -2.314131e-01 -4.380207e-03 -1.160984e-01 -1.319919e-01 2.982886e-02 -1.084656e-01 -1.065588e-01 -2.613127e-02 4.437305e-02 7.977329e-01 -5.203215e-02 1.294426e-02 3.901350e-01 -5.375130e-02 -3.378364e-01 -6.126239e-02 -1.053331e-02 -6.772654e-02 -1.245340e-01 -7.035282e-02 -6.453987e-02 -7.219121e-02
<VARIANCE> 39
 1.672759e-01 3.915183e-01 2.952274e-01 4.374588e-01 5.491928e-01 6.312429e-01 4.032084e-01 5.775483e-01 3.373795e-01 3.162426e-01 4.373829e-01 5.793811e-01 3.121060e-01 9.953515e-01 7.804880e-01 9.422914e-01 1.005486e+00 9.672166e-01 1.068805e+00 8.909712e-01 9.747436e-01 7.674093e-01 8.279190e-01 8.489711e-01 1.098437e+00 4.442075e-01 9.260359e-01 7.437690e-01 9.766298e-01 1.066709e+00 9.530566e-01 1.175196e+00 1.064269e+00 1.093515e+00 8.647912e-01 9.701303e-01 8.692468e-01 1.261155e+00 3.841926e-01
<GCONST> 5.675664e+01
<MIXTURE> 2 3.837836e-01
<MEAN> 39
 -2.855307e-02 6.642976e-02 9.800067e-01 4.801085e-01 -3.274576e-02 -1.010440e-01 1.314305e-01 2.596310e-01 -9.017388e-01 -3.255315e-01 -5.162319e-01 4.248131e-01 6.312053e-01 -5.685945e-01 5.246487e-01 1.172697e+00 -3.299889e-01 -8.700922e-02 2.801772e-01 -7.262795e-02 -1.312452e-01 -2.144280e-01 -1.852586e-01 -2.359171e-01 2.165200e-01 5.914555e-01 -3.680002e-01 2.763757e-01 -1.714863e-01 -2.409817e-01 1.645504e-01 1.408183e-01 -2.346270e-01 -2.339463e-01 -8.352637e-02 -1.123972e-01 1.130850e-01 5.659473e-02 -7.372102e-01
<VARIANCE> 39
 4.320090e-01 7.344458e-01 1.012478e+00 8.554741e-01 9.686475e-01 1.437685e+00 1.116614e+00 1.079741e+00 9.250832e-01 1.008077e+00 8.669191e-01 1.016042e+00 6.580568e-01 1.393496e+00 1.046558e+00 1.970354e+00 1.581361e+00 1.301234e+00 1.490723e+00 1.448351e+00 1.538354e+00 1.247473e+00 1.332368e+00 1.227302e+00 1.389037e+00 2.831932e+00 1.770179e+00 1.101192e+00 1.757260e+00 1.765158e+00 1.601639e+00 1.794984e+00 1.606799e+00 1.501194e+00 1.221908e+00 1.385460e+00 1.255097e+00 1.335624e+00 2.695961e+00
<GCONST> 8.111939e+01
<STATE> 3
<NUMMIXES> 2
<MIXTURE> 1 3.205494e-01
<MEAN> 39
 -8.085687e-01 9.596674e-01 1.422145e+00 3.628760e-01 5.640683e-01 2.187289e-01 3.352061e-01 -2.003214e-01 -1.306083e+00 -2.874279e-01 -8.760543e-01 2.288596e-01 4.141929e-01 1.291417e+00 -4.774262e-02 8.296506e-01 9.261655e-01 -3.009415e-01 -8.843559e-01 -5.997645e-01 -9.460081e-02 -2.526363e-01 -6.999366e-01 -2.415928e-01 1.141606e-01 2.517849e-01 8.672708e-01 -5.400269e-01 -9.333877e-02 2.541282e-01 -5.103823e-01 -6.875054e-01 -4.583201e-01 2.701203e-01 1.882926e-01 -4.308881e-01 1.748805e-01 5.344957e-01 4.480608e-01
<VARIANCE> 39
 3.948136e-01 6.041766e-01 5.412030e-01 5.629653e-01 6.625967e-01 6.613649e-01 6.727130e-01 8.477613e-01 4.980118e-01 5.979702e-01 5.726527e-01 6.864258e-01 4.557754e-01 2.079098e+00 9.186775e-01 1.677045e+00 1.548020e+00 9.710149e-01 1.642467e+00 1.370962e+00 1.279762e+00 1.057907e+00 1.086695e+00 1.023913e+00 1.209673e+00 6.892374e-01 1.383106e+00 1.007674e+00 1.484169e+00 1.144217e+00 1.223707e+00 1.317337e+00 1.551007e+00 1.259883e+00 1.041081e+00 1.264730e+00 1.040938e+00 1.196609e+00 5.837870e-01
<GCONST> 6.931483e+01
<MIXTURE> 2 6.794537e-01
<MEAN> 39
 -1.469117e-03 2.779093e-01 2.251615e+00 4.314599e-01 -5.154715e-01 -8.032283e-01 -1.030883e+00 2.056496e-01 -1.102902e+00 -1.342074e+00 -3.840826e-01 1.121437e+00 9.652724e-01 -4.237044e-01 7.768607e-01 7.020213e-01 7.588625e-02 5.648917e-01 3.707060e-01 -1.569313e-01 -2.275850e-01 -5.571072e-01 -5.521469e-01 -2.923967e-01 -1.190085e-01 -6.109127e-01 2.230122e-01 -2.237884e-01 -4.003860e-01 1.330159e-01 1.949441e-02 -1.406386e-01 1.597719e-01 1.738285e-01 1.120679e-01 1.522314e-01 -6.483182e-02 -2.065263e-01 -8.450458e-03
<VARIANCE> 39
 2.001559e-01 5.078840e-01 4.412950e-01 4.250093e-01 6.527982e-01 1.264792e+00 4.762523e-01 7.217031e-01 9.223757e-01 8.459519e-01 1.220555e+00 9.464859e-01 3.017824e-01 3.096602e-01 4.660034e-01 8.196991e-01 5.945879e-01 6.294470e-01 9.147049e-01 7.615006e-01 9.725789e-01 6.788191e-01 6.827024e-01 6.455504e-01 8.851026e-01 3.452635e-01 3.693958e-01 3.997619e-01 7.418213e-01 5.565871e-01 7.136123e-01 8.991152e-01 6.952467e-01 8.829823e-01 6.838615e-01 6.525214e-01 6.004066e-01 7.816629e-01 3.935965e-01
<GCONST> 5.303200e+01
<STATE> 4
<NUMMIXES> 2
<MIXTURE> 1 7.077439e-01
<MEAN> 39
