~o
<STREAMINFO> 1 39
<VECSIZE> 39<NULLD><USER><DIAGC>
~h "a"
<BEGINHMM>
<NUMSTATES> 7
<STATE> 2
<NUMMIXES> 16
<MIXTURE> 1 3.084227e-02
<MEAN> 39
 3.440854e-02 1.831336e-01 -1.299286e-01 7.644739e-01 1.053611e+00 4.631172e-01 5.312396e-01 -2.484105e-01 -6.300075e-01 1.665704e-01 1.486581e-01 6.969887e-01 -9.407756e-02 2.084505e+00 5.028064e-01 6.371242e-01 8.786392e-01 6.663256e-01 2.701143e-01 6.494709e-01 9.856716e-01 3.714871e-01 3.803810e-01 -4.287504e-01 -5.215018e-01 3.032980e+00 1.221259e+00 -1.653236e-01 -4.110706e-01 -7.900493e-01 -6.121103e-01 -1.493951e-01 2.886404e-01 7.762145e-01 8.793623e-01 8.264756e-01 6.936117e-02 -3.460773e-01 1.317496e+00
<VARIANCE> 39
 2.988532e-01 3.872421e-01 3.706255e-01 3.111058e-01 3.437231e-01 4.397007e-01 4.792397e-01 7.378348e-01 5.369096e-01 4.836220e-01 6.593345e-01 7.900426e-01 3.667655e-01 1.281989e+00 1.122937e+00 1.147798e+00 1.364430e+00 1.171398e+00 1.316151e+00 1.287273e+00 1.388473e+00 1.312698e+00 1.467774e+00 1.335924e+00 1.432808e+00 2.676468e+00 1.363531e+00 1.423412e+00 1.522241e+00 1.090192e+00 1.149156e+00 1.324926e+00 1.305673e+00 1.478394e+00 1.487840e+00 1.456017e+00 1.279311e+00 1.504513e+00 2.082967e+00
<GCONST> 6.995324e+01
<MIXTURE> 2 6.249375e-02
<MEAN> 39
 -2.196931e-01 6.807852e-01 1.944320e-01 3.712518e-01 1.112923e+00 8.869634e-01 5.979944e-01 -8.838921e-01 -1.124911e+00 -1.695093e-01 4.564055e-01 1.567189e+00 -3.752280e-01 5.221769e-02 1.081060e-01 2.199900e-01 2.447624e-01 1.440537e-01 1.273530e-01 1.768520e-01 1.532628e-01 1.648923e-01 1.216788e-01 1.796101e-01 2.386588e-01 9.979107e-02 9.555734e-02 -1.230406e-01 1.112073e-01 1.405673e-01 2.293272e-02 -7.935339e-02 1.110628e-01 4.135727e-01 4.950679e-01 2.279012e-01 1.437013e-01 1.347369e-01 3.113590e-01
<VARIANCE> 39
 6.812535e-01 6.537231e-01 1.618609e+00 6.256261e-01 7.795036e-01 8.959064e-01 7.627155e-01 1.323615e+00 5.808860e-01 7.742009e-01 1.016533e+00 2.042590e+00 6.647174e-01 2.218842e-01 4.155794e-01 4.283241e-01 4.677089e-01 4.878964e-01 7.021417e-01 6.428324e-01 7.364602e-01 7.045785e-01 6.052008e-01 6.607724e-01 8.523561e-01 3.719820e-01 4.099288e-01 4.447841e-01 6.542862e-01 5.852670e-01 6.297662e-01 7.544478e-01 7.841290e-01 8.334161e-01 7.590185e-01 6.999954e-01 7.931996e-01 9.336257e-01 2.817922e-01
<GCONST> 5.579782e+01
<MIXTURE> 3 6.481640e-02
<MEAN> 39
 -8.362796e-01 -4.593830e-01 -3.988098e-01 -2.786083e-01 2.615224e-01 1.183728e-01 1.091726e-01 3.742492e-01 3.618688e-01 4.376495e-01 4.358347e-01 1.050466e+00 -1.111718e+00 2.815657e-01 1.895113e-01 -3.188627e-01 -2.103719e-01 2.694548e-01 3.943760e-01 1.858251e-01 -6.694521e-02 2.643408e-02 3.886890e-01 3.391944e-01 1.030782e-01 3.182029e-01 3.087787e-01 8.745000e-01 2.607104e-01 4.688004e-01 7.918402e-01 5.560064e-01 3.536318e-01 -7.397413e-02 -3.223835e-01 3.104840e-01 -1.455671e-01 -3.241428e-01 -3.877643e-01
<VARIANCE> 39
 7.548349e-02 2.855053e-01 4.126321e-01 3.491984e-01 3.147486e-01 4.003772e-01 3.631756e-01 5.887092e-01 3.065631e-01 6.385657e-01 8.925549e-01 8.857235e-01 1.072517e-01 2.585697e-01 9.221069e-01 7.121627e-01 7.161937e-01 9.328813e-01 8.326633e-01 7.166722e-01 8.036037e-01 8.858562e-01 8.869942e-01 8.034126e-01 1.202253e+00 8.489232e-01 6.487545e-01 9.019239e-01 1.340656e+00 8.774747e-01 8.924047e-01 9.557933e-01 8.922877e-01 9.287144e-01 8.377149e-01 1.137160e+00 8.754532e-01 1.153306e+00 1.291946e+00
<GCONST> 5.433593e+01
<MIXTURE> 4 4.150010e-02
<MEAN> 39
 7.961840e-01 -1.793119e-01 6.453807e-01 8.278684e-01 2.530004e-01 -2.289605e-01 -5.350396e-01 -4.664440e-01 -6.351948e-01 2.942497e-01 -4.503905e-01 -2.586116e-01 6.195508e-01 1.082103e+00 -8.433598e-01 -8.410625e-01 -1.159977e+00 -8.384261e-01 -5.603675e-01 1.104499e-01 1.555387e+00 1.634465e+00 1.239170e+00 5.088845e-01 2.601345e-01 2.230888e+00 2.373343e-01 -3.340929e-01 -4.057369e-01 -3.284038e-01 -6.977685e-02 1.315281e-01 7.246174e-01 1.221835e+00 9.714711e-01 4.666433e-01 3.062661e-02 1.062535e-01 9.876597e-01
<VARIANCE> 39
 1.573781e-01 3.684798e-01 8.893259e-01 4.573634e-01 5.843935e-01 7.034209e-01 9.787464e-01 9.856089e-01 9.017639e-01 8.854370e-01 8.071156e-01 1.086991e+00 2.040865e-01 9.174656e-01 7.349132e-01 1.573449e+00 1.131373e+00 1.229836e+00 1.701697e+00 1.536579e+00 1.760881e+00 1.640373e+00 1.465932e+00 1.229683e+00 1.594250e+00 9.227968e-01 6.866824e-01 7.011228e-01 1.063562e+00 7.514349e-01 1.028884e+00 1.110197e+00 1.059856e+00 1.254865e+00 1.051987e+00 1.078907e+00 9.490209e-01 1.052854e+00 7.341918e-01
<GCONST> 6.772659e+01
<MIXTURE> 5 1.270162e-01
<MEAN> 39
 -8.435154e-01 -1.090891e-02 -5.103302e-01 -2.675557e-01 4.171807e-01 1.791115e-01 2.401605e-01 -3.690492e-02 -2.779983e-02 6.846207e-01 -1.084653e-01 1.644640e-01 -1.691765e+00 1.262159e-02 1.207146e-01 2.937773e-01 2.958971e-01 1.325428e-01 7.947141e-02 1.563411e-01 3.040931e-01 2.444901e-01 1.173370e-01 1.041643e-01 2.223601e-01 8.394998e-02 1.404010e-01 -1.203458e-01 2.024833e-01 1.261888e-01 6.242663e-03 7.293327e-02 1.243299e-01 3.180938e-01 3.537117e-01 1.141859e-01 2.908641e-01 4.285224e-01 4.690072e-01
<VARIANCE> 39
 4.749329e-02 2.327232e-01 1.852890e-01 3.050247e-01 2.013011e-01 3.338099e-01 3.485835e-01 4.954392e-01 2.709852e-01 5.010044e-01 7.023374e-01 7.415959e-01 7.229970e-02 1.365449e-01 4.351366e-01 4.228652e-01 4.728296e-01 5.555795e-01 7.123756e-01 7.715567e-01 9.506550e-01 7.336060e-01 8.452681e-01 8.486665e-01 9.599588e-01 3.664667e-01 3.187336e-01 4.388295e-01 6.303355e-01 6.364175e-01 8.336791e-01 8.993152e-01 9.999182e-01 1.105093e+00 9.030223e-01 9.891711e-01 9.561788e-01 9.384362e-01 2.065402e-01
<GCONST> 4.234297e+01
<MIXTURE> 6 5.817885e-02
<MEAN> 39
 3.984351e-01 -4.019293e-01 -1.538649e-02 4.210995e-01 3.949522e-01 -2.709329e-01 1.083406e-01 5.901360e-01 1.165080e-01 6.966128e-01 -2.919431e-01 3.493752e-02 9.429107e-01 6.363262e-02 -4.078171e-02 1.950934e-01 2.438287e-01 1.305540e-01 1.056740e-02 2.358062e-01 3.718850e-01 3.470246e-01 2.488328e-01 7.900089e-03 6.741649e-02 2.618538e-01 5.263016e-02 2.220411e-01 1.868692e-01 6.151056e-02 1.720001e-01 3.152064e-01 3.253555e-01 7.762668e-02 -4.721963e-02 5.311166e-02 2.283425e-01 3.069519e-01 5.083350e-02
<VARIANCE> 39
 9.683817e-01 6.619785e-01 1.272357e+00 1.206338e+00 1.221783e+00 1.359903e+00 1.517251e+00 1.275317e+00 1.212789e+00 1.256290e+00 1.315337e+00 1.481414e+00 1.173576e+00 2.865327e-01 4.662138e-01 8.161653e-01 7.295688e-01 6.153370e-01 8.587672e-01 7.897432e-01 9.354109e-01 7.430461e-01 8.964671e-01 8.357633e-01 8.904138e-01 3.169302e-01 3.500675e-01 4.443029e-01 6.452050e-01 6.065959e-01 6.306297e-01 6.786863e-01 7.616420e-01 7.564837e-01 6.888176e-01 8.028066e-01 7.553682e-01 7.733070e-01 3.084033e-01
<GCONST> 6.224878e+01
<MIXTURE> 7 5.765565e-02
<MEAN> 39
 -1.230889e-01 1.006959e+00 7.279847e-01 1.059385e+00 5.146779e-01 -5.125538e-01 5.133204e-01 -2.844205e-01 -5.296578e-01 -2.973333e-03 -7.422048e-01 4.367657e-01 8.652974e-01 2.967468e+00 -7.465579e-01 1.322727e+00 1.864608e-01 -1.002872e+00 -1.104513e+00 -9.372619e-01 4.343791e-01 6.925921e-01 3.126312e-01 1.792113e-01 3.308348e-01 1.736503e+00 -5.096850e-02 -1.377803e+00 -3.228065e-01 -4.891067e-01 -5.698591e-01 2.059759e-01 5.188152e-03 8.607105e-01 8.022677e-01 6.447033e-01 5.195121e-01 4.485462e-01 5.404927e-01
<VARIANCE> 39
 2.100370e-01 3.530140e-01 9.138544e-01 4.198909e-01 3.722242e-01 6.618559e-01 4.848062e-01 6.065864e-01 6.064123e-01 5.736045e-01 4.417154e-01 6.178116e-01 2.179736e-01 1.297629e+00 1.579448e+00 1.880045e+00 1.818978e+00 1.247127e+00 1.390887e+00 1.399869e+00 1.379151e+00 1.650314e+00 1.745772e+00 1.319074e+00 1.447842e+00 7.808967e-01 1.804029e+00 1.277638e+00 1.354971e+00 1.018009e+00 1.007707e+00 1.231696e+00 1.085607e+00 1.200469e+00 1.240971e+00 1.151617e+00 9.551438e-01 1.114188e+00 9.217194e-01
<GCONST> 6.820374e+01
<MIXTURE> 8 5.749565e-02
<MEAN> 39
 -2.597299e-01 5.364054e-01 7.013531e-02 5.516714e-01 9.493189e-01 1.449965e-01 6.303949e-01 2.333880e-01 -5.119502e-01 2.341242e-01 -2.553343e-01 5.302904e-01 4.394984e-01 4.572142e-01 2.318703e-01 1.798403e-01 2.341531e-01 3.490331e-01 2.122844e-01 2.502815e-01 2.390616e-01 1.901841e-01 1.941375e-01 1.807659e-01 2.718301e-01 5.768555e-01 7.675708e-01 2.213123e-01 3.914567e-01 2.602995e-01 8.479533e-02 2.219144e-01 1.272973e-01 1.214468e-01 2.234645e-01 2.844739e-01 3.269136e-01 2.102173e-01 2.864513e-01
<VARIANCE> 39
 8.719925e-01 9.565548e-01 1.031088e+00 7.856657e-01 9.943942e-01 1.165493e+00 1.055774e+00 1.019754e+00 8.115281e-01 8.115056e-01 8.718240e-01 1.034614e+00 9.759166e-01 2.147605e+00 1.370345e+00 1.716246e+00 1.698184e+00 1.549528e+00 1.699008e+00 1.489879e+00 1.558726e+00 1.374718e+00 1.407442e+00 1.353617e+00 1.357985e+00 2.187763e+00 2.244107e+00 1.524540e+00 1.795346e+00 1.675511e+00 1.705733e+00 1.838775e+00 1.768903e+00 1.656790e+00 1.398647e+00 1.610917e+00 1.527011e+00 1.443179e+00 2.744649e+00
<GCONST> 8.413448e+01
<MIXTURE> 9 1.270162e-01
<MEAN> 39
 -9.306872e-01 -2.038745e-01 -6.825110e-01 -4.884719e-01 2.377143e-01 -5.199368e-02 3.996678e-03 -3.184547e-01 -2.360248e-01 4.014941e-01 -4.436876e-01 -1.799999e-01 -1.799319e+00 -1.351863e-01 -1.431449e-01 3.366493e-02 2.084668e-02 -1.656060e-01 -2.581380e-01 -1.950121e-01 -8.591308e-02 -9.811312e-02 -2.504169e-01 -2.643281e-01 -1.695498e-01 -1.581960e-01 -8.542496e-02 -3.853226e-01 -1.150914e-01 -1.929143e-01 -3.589815e-01 -3.063956e-01 -2.756538e-01 -1.023998e-01 -2.639827e-02 -2.836424e-01 -1.002735e-01 4.103076e-02 2.872204e-01
<VARIANCE> 39
 4.749329e-02 2.327232e-01 1.852890e-01 3.050247e-01 2.013011e-01 3.338099e-01 3.485835e-01 4.954392e-01 2.709852e-01 5.010044e-01 7.023374e-01 7.415959e-01 7.229970e-02 1.365449e-01 4.351366e-01 4.228652e-01 4.728296e-01 5.555795e-01 7.123756e-01 7.715567e-01 9.506550e-01 7.336060e-01 8.452681e-01 8.486665e-01 9.599588e-01 3.664667e-01 3.187336e-01 4.388295e-01 6.303355e-01 6.364175e-01 8.336791e-01 8.993152e-01 9.999182e-01 1.105093e+00 9.030223e-01 9.891711e-01 9.561788e-01 9.384362e-01 2.065402e-01
<GCONST> 4.234297e+01
<MIXTURE> 10 6.481640e-02
<MEAN> 39
 -9.461766e-01 -6.731138e-01 -6.557556e-01 -5.149803e-01 3.711259e-02 -1.347287e-01 -1.318837e-01 6.733961e-02 1.403962e-01 1.180083e-01 5.793425e-02 6.740146e-01 -1.242716e+00 7.816669e-02 -1.945943e-01 -6.564217e-01 -5.488847e-01 -1.168883e-01 2.937442e-02 -1.528009e-01 -4.255210e-01 -3.500457e-01 1.196757e-02 -1.933877e-02 -3.355110e-01 -5.034526e-02 -1.340249e-02 4.946214e-01 -2.024364e-01 9.410594e-02 4.139715e-01 1.649477e-01 -2.421215e-02 -4.594535e-01 -6.884906e-01 -1.160668e-01 -5.198298e-01 -7.537112e-01 -8.424195e-01
<VARIANCE> 39
 7.548349e-02 2.855053e-01 4.126321e-01 3.491984e-01 3.147486e-01 4.003772e-01 3.631756e-01 5.887092e-01 3.065631e-01 6.385657e-01 8.925549e-01 8.857235e-01 1.072517e-01 2.585697e-01 9.221069e-01 7.121627e-01 7.161937e-01 9.328813e-01 8.326633e-01 7.166722e-01 8.036037e-01 8.858562e-01 8.869942e-01 8.034126e-01 1.202253e+00 8.489232e-01 6.487545e-01 9.019239e-01 1.340656e+00 8.774747e-01 8.924047e-01 9.557933e-01 8.922877e-01 9.287144e-01 8.377149e-01 1.137160e+00 8.754532e-01 1.153306e+00 1.291946e+00
<GCONST> 5.433593e+01
<MIXTURE> 11 6.249375e-02
<MEAN> 39
 -5.498455e-01 3.573726e-01 -3.144663e-01 5.486563e-02 7.597649e-01 5.083541e-01 2.486601e-01 -1.344086e+00 -1.429775e+00 -5.214641e-01 5.311249e-02 9.955125e-01 -7.013488e-01 -1.362007e-01 -1.497558e-01 -4.179594e-02 -2.879459e-02 -1.353447e-01 -2.078227e-01 -1.438553e-01 -1.900062e-01 -1.708644e-01 -1.894998e-01 -1.455415e-01 -1.306337e-01 -1.441703e-01 -1.605454e-01 -3.898092e-01 -2.123446e-01 -1.654436e-01 -2.944985e-01 -4.267892e-01 -2.431414e-01 4.840614e-02 1.465813e-01 -1.067617e-01 -2.125457e-01 -2.517603e-01 9.902259e-02
<VARIANCE> 39
 6.812535e-01 6.537231e-01 1.618609e+00 6.256261e-01 7.795036e-01 8.959064e-01 7.627155e-01 1.323615e+00 5.808860e-01 7.742009e-01 1.016533e+00 2.042590e+00 6.647174e-01 2.218842e-01 4.155794e-01 4.283241e-01 4.677089e-01 4.878964e-01 7.021417e-01 6.428324e-01 7.364602e-01 7.045785e-01 6.052008e-01 6.607724e-01 8.523561e-01 3.719820e-01 4.099288e-01 4.447841e-01 6.542862e-01 5.852670e-01 6.297662e-01 7.544478e-01 7.841290e-01 8.334161e-01 7.590185e-01 6.999954e-01 7.931996e-01 9.336257e-01 2.817922e-01
<GCONST> 5.579782e+01
<MIXTURE> 12 5.817885e-02
<MEAN> 39
 4.809529e-03 -7.273775e-01 -4.665817e-01 -1.823425e-02 -4.718499e-02 -7.373924e-01 -3.843664e-01 1.384162e-01 -3.239988e-01 2.482754e-01 -7.506957e-01 -4.519159e-01 5.095839e-01 -1.504824e-01 -3.139011e-01 -1.662741e-01 -9.783044e-02 -1.832197e-01 -3.601114e-01 -1.196638e-01 -1.498158e-02 2.224043e-03 -1.298950e-01 -3.577803e-01 -3.100305e-01 3.666759e-02 -1.840359e-01 -4.458316e-02 -1.344295e-01 -2.500265e-01 -1.456487e-01 -1.432323e-02 -2.373290e-02 -2.702776e-01 -3.791998e-01 -3.052862e-01 -1.193052e-01 -4.479966e-02 -1.713028e-01
<VARIANCE> 39
 9.683817e-01 6.619785e-01 1.272357e+00 1.206338e+00 1.221783e+00 1.359903e+00 1.517251e+00 1.275317e+00 1.212789e+00 1.256290e+00 1.315337e+00 1.481414e+00 1.173576e+00 2.865327e-01 4.662138e-01 8.161653e-01 7.295688e-01 6.153370e-01 8.587672e-01 7.897432e-01 9.354109e-01 7.430461e-01 8.964671e-01 8.357633e-01 8.904138e-01 3.169302e-01 3.500675e-01 4.443029e-01 6.452050e-01 6.065959e-01 6.306297e-01 6.786863e-01 7.616420e-01 7.564837e-01 6.888176e-01 8.028066e-01 7.553682e-01 7.733070e-01 3.084033e-01
<GCONST> 6.224878e+01
<MIXTURE> 13 5.765565e-02
<MEAN> 39
 -3.064081e-01 7.692993e-01 3.456017e-01 8.001893e-01 2.706371e-01 -8.379719e-01 2.348083e-01 -5.959551e-01 -8.411478e-01 -3.059201e-01 -1.008052e+00 1.223617e-01 6.785468e-01 2.511814e+00 -1.249262e+00 7.742686e-01 -3.530171e-01 -1.449572e+00 -1.576257e+00 -1.410526e+00 -3.536992e-02 1.787339e-01 -2.158795e-01 -2.801925e-01 -1.504704e-01 1.383029e+00 -5.882251e-01 -1.829933e+00 -7.884194e-01 -8.926924e-01 -9.713976e-01 -2.379513e-01 -4.115818e-01 4.224468e-01 3.566722e-01 2.154495e-01 1.285863e-01 2.632579e-02 1.564678e-01
<VARIANCE> 39
 2.100370e-01 3.530140e-01 9.138544e-01 4.198909e-01 3.722242e-01 6.618559e-01 4.848062e-01 6.065864e-01 6.064123e-01 5.736045e-01 4.417154e-01 6.178116e-01 2.179736e-01 1.297629e+00 1.579448e+00 1.880045e+00 1.818978e+00 1.247127e+00 1.390887e+00 1.399869e+00 1.379151e+00 1.650314e+00 1.745772e+00 1.319074e+00 1.447842e+00 7.808967e-01 1.804029e+00 1.277638e+00 1.354971e+00 1.018009e+00 1.007707e+00 1.231696e+00 1.085607e+00 1.200469e+00 1.240971e+00 1.151617e+00 9.551438e-01 1.114188e+00 9.217194e-01
<GCONST> 6.820374e+01
<MIXTURE> 14 5.749565e-02
<MEAN> 39
 -6.332521e-01 1.451910e-01 -3.360347e-01 1.971202e-01 5.504417e-01 -2.868356e-01 2.193915e-01 -1.705435e-01 -8.722896e-01 -1.262102e-01 -6.288204e-01 1.234265e-01 4.434441e-02 -1.289742e-01 -2.363767e-01 -3.441820e-01 -2.871045e-01 -1.488871e-01 -3.090996e-01 -2.379609e-01 -2.603342e-01 -2.788093e-01 -2.804052e-01 -2.846143e-01 -1.943003e-01 -1.478809e-02 1.683570e-01 -2.725768e-01 -1.445055e-01 -2.574666e-01 -4.376195e-01 -3.204913e-01 -4.047031e-01 -3.934186e-01 -2.495932e-01 -2.232137e-01 -1.673756e-01 -2.703122e-01 -3.762280e-01
<VARIANCE> 39
 8.719925e-01 9.565548e-01 1.031088e+00 7.856657e-01 9.943942e-01 1.165493e+00 1.055774e+00 1.019754e+00 8.115281e-01 8.115056e-01 8.718240e-01 1.034614e+00 9.759166e-01 2.147605e+00 1.370345e+00 1.716246e+00 1.698184e+00 1.549528e+00 1.699008e+00 1.489879e+00 1.558726e+00 1.374718e+00 1.407442e+00 1.353617e+00 1.357985e+00 2.187763e+00 2.244107e+00 1.524540e+00 1.795346e+00 1.675511e+00 1.705733e+00 1.838775e+00 1.768903e+00 1.656790e+00 1.398647e+00 1.610917e+00 1.527011e+00 1.443179e+00 2.744649e+00
<GCONST> 8.413448e+01
<MIXTURE> 15 4.150010e-02
<MEAN> 39
 6.375003e-01 -4.221221e-01 2.681645e-01 5.573538e-01 -5.278218e-02 -5.644413e-01 -9.307660e-01 -8.635554e-01 -1.015040e+00 -8.214093e-02 -8.097489e-01 -6.756470e-01 4.388470e-01 6.989648e-01 -1.186268e+00 -1.342811e+00 -1.585441e+00 -1.282018e+00 -1.082164e+00 -3.853855e-01 1.024595e+00 1.122157e+00 7.548671e-01 6.532025e-02 -2.449200e-01 1.846638e+00 -9.413094e-02 -6.690252e-01 -8.182535e-01 -6.751451e-01 -4.755126e-01 -2.899354e-01 3.128201e-01 7.737523e-01 5.612054e-01 5.116150e-02 -3.590442e-01 -3.041812e-01 6.449198e-01
<VARIANCE> 39
 1.573781e-01 3.684798e-01 8.893259e-01 4.573634e-01 5.843935e-01 7.034209e-01 9.787464e-01 9.856089e-01 9.017639e-01 8.854370e-01 8.071156e-01 1.086991e+00 2.040865e-01 9.174656e-01 7.349132e-01 1.573449e+00 1.131373e+00 1.229836e+00 1.701697e+00 1.536579e+00 1.760881e+00 1.640373e+00 1.465932e+00 1.229683e+00 1.594250e+00 9.227968e-01 6.866824e-01 7.011228e-01 1.063562e+00 7.514349e-01 1.028884e+00 1.110197e+00 1.059856e+00 1.254865e+00 1.051987e+00 1.078907e+00 9.490209e-01 1.052854e+00 7.341918e-01
<GCONST> 6.772659e+01
<MIXTURE> 16 3.084227e-02
<MEAN> 39
 -1.842613e-01 -6.578153e-02 -3.734447e-01 5.413664e-01 8.190998e-01 1.978774e-01 2.543310e-01 -5.919997e-01 -9.231039e-01 -1.116013e-01 -1.761395e-01 3.414513e-01 -3.363222e-01 1.631605e+00 7.893147e-02 2.085829e-01 4.114040e-01 2.334010e-01 -1.887802e-01 1.956387e-01 5.143376e-01 -8.680508e-02 -1.042258e-01 -8.910792e-01 -1.000302e+00 2.378584e+00 7.541773e-01 -6.425509e-01 -9.045872e-01 -1.207698e+00 -1.040905e+00 -6.098169e-01 -1.684238e-01 2.898575e-01 3.914541e-01 3.438134e-01 -3.830653e-01 -8.367116e-01 7.401962e-01
<VARIANCE> 39
 2.988532e-01 3.872421e-01 3.706255e-01 3.111058e-01 3.437231e-01 4.397007e-01 4.792397e-01 7.378348e-01 5.369096e-01 4.836220e-01 6.593345e-01 7.900426e-01 3.667655e-01 1.281989e+00 1.122937e+00 1.147798e+00 1.364430e+00 1.171398e+00 1.316151e+00 1.287273e+00 1.388473e+00 1.312698e+00 1.467774e+00 1.335924e+00 1.432808e+00 2.676468e+00 1.363531e+00 1.423412e+00 1.522241e+00 1.090192e+00 1.149156e+00 1.324926e+00 1.305673e+00 1.478394e+00 1.487840e+00 1.456017e+00 1.279311e+00 1.504513e+00 2.082967e+00
<GCONST> 6.995324e+01
<STATE> 3
<NUMMIXES> 16
<MIXTURE> 1 3.943434e-02
<MEAN> 39
 6.818431e-01 1.552586e-01 1.477686e-02 1.013783e+00 1.284867e+00 5.103612e-01 7.874500e-01 4.062190e-01 -6.859705e-01 1.787962e-01 -3.228909e-01 2.645678e-01 6.206765e-01 2.689174e+00 -1.005877e-01 -3.183088e-01 5.863318e-02 2.389193e-01 2.266210e-01 8.949945e-01 1.516720e+00 9.054649e-01 1.233229e+00 -1.442846e-01 -9.418483e-01 4.105138e+00 -1.844014e-01 -1.040452e+00 -1.630989e+00 -1.696445e+00 -1.133704e+00 -2.142631e-01 -1.166964e-01 7.524639e-03 7.875379e-01 1.349232e+00 1.093157e+00 -1.067959e-01 -6.965023e-01
<VARIANCE> 39
 1.190489e-01 2.514482e-01 2.042891e-01 2.868370e-01 3.147570e-01 4.853162e-01 4.551508e-01 6.519311e-01 4.376074e-01 4.211371e-01 5.896018e-01 7.291828e-01 2.513660e-01 5.622433e-01 8.766764e-01 1.071846e+00 1.235252e+00 1.081527e+00 1.175505e+00 1.171852e+00 1.605847e+00 1.447994e+00 1.609058e+00 1.490638e+00 1.837972e+00 1.077477e+00 1.604434e+00 1.511564e+00 1.389145e+00 1.289448e+00 1.259399e+00 1.638916e+00 1.713827e+00 1.747535e+00 1.438169e+00 1.423104e+00 1.383324e+00 1.449152e+00 2.924865e+00
<GCONST> 6.647054e+01
<MIXTURE> 2 6.626050e-02
<MEAN> 39
 9.627006e-01 -7.225197e-01 6.561118e-01 4.462391e-01 -5.064138e-01 -7.294635e-01 -1.021939e+00 3.866991e-01 2.551600e-01 5.434567e-01 -6.077648e-01 -1.629657e-01 1.111271e+00 5.211453e-01 -9.676167e-01 -1.065397e+00 -1.209031e+00 -7.929462e-01 -2.772117e-01 7.567016e-01 2.273141e+00 1.971774e+00 9.480441e-01 2.184321e-01 2.315162e-01 1.968954e+00 -4.041698e-01 1.728026e-01 9.609545e-02 4.308425e-01 6.192795e-01 6.083646e-01 9.810347e-01 4.095604e-01 2.550651e-02 -2.780482e-01 -1.697013e-01 -8.750565e-02 -1.068043e-01
<VARIANCE> 39
 1.198275e-01 2.312041e-01 5.076062e-01 4.074634e-01 4.794535e-01 7.613634e-01 6.834726e-01 1.021780e+00 9.895816e-01 7.089939e-01 7.190636e-01 1.166252e+00 1.352925e-01 4.215813e-01 5.898107e-01 1.260225e+00 1.022056e+00 1.082180e+00 1.768557e+00 1.539223e+00 1.732504e+00 1.543734e+00 1.351093e+00 1.419263e+00 1.298785e+00 5.656281e-01 4.400905e-01 3.829625e-01 7.993175e-01 5.606351e-01 8.519534e-01 8.958970e-01 8.635324e-01 9.505908e-01 8.764948e-01 8.551971e-01 7.079972e-01 8.904501e-01 3.829539e-01
<GCONST> 5.912572e+01
<MIXTURE> 3 7.313440e-02
<MEAN> 39
 2.773642e-01 4.230752e-01 1.681677e+00 1.022925e+00 -5.003877e-01 -8.570037e-01 -3.930010e-02 -2.825037e-03 -5.150113e-01 -6.144105e-01 -3.531054e-01 9.986155e-01 1.022298e+00 1.500624e+00 -1.259441e+00 8.730927e-01 -1.045030e-01 -1.764446e+00 -8.260673e-01 -6.909464e-01 9.802998e-01 1.281977e+00 -6.085095e-02 9.592812e-01 1.015679e+00 2.004963e+00 -1.269088e+00 -4.689385e-01 -1.098974e+00 -5.246158e-01 4.694868e-01 8.805343e-01 6.415371e-01 4.770097e-01 6.758384e-01 7.828928e-01 2.689199e-01 -5.316678e-02 -1.909926e-01
<VARIANCE> 39
 1.029416e-01 2.814851e-01 4.806234e-01 4.031542e-01 3.328960e-01 4.926628e-01 5.931241e-01 7.320647e-01 8.933008e-01 4.626313e-01 5.965767e-01 7.462182e-01 1.951458e-01 1.057425e+00 1.001763e+00 1.848720e+00 1.209691e+00 9.301147e-01 1.302848e+00 1.195166e+00 1.557233e+00 1.689745e+00 9.441383e-01 1.077575e+00 1.229993e+00 6.549020e-01 1.291000e+00 1.047366e+00 1.624718e+00 1.062651e+00 1.010721e+00 9.794856e-01 9.805828e-01 1.094555e+00 1.017153e+00 8.595980e-01 8.954348e-01 1.154529e+00 7.766744e-01
<GCONST> 6.308178e+01
<MIXTURE> 4 5.890265e-02
<MEAN> 39
 1.300175e+00 -1.387943e-01 -6.571397e-01 1.459270e-01 5.230054e-01 -5.192578e-03 -8.553696e-02 -1.344560e-01 -5.926037e-01 1.163445e+00 4.349141e-01 -2.900388e-01 9.071364e-01 1.562339e+00 -9.729846e-01 -1.383753e+00 -1.364672e+00 -5.406461e-01 -4.696099e-01 2.832180e-02 1.124104e+00 1.258736e+00 2.152066e+00 7.062173e-01 -5.477593e-01 2.528588e+00 -1.380059e+00 -1.401710e-01 5.023035e-01 4.233074e-01 4.734232e-01 3.324504e-01 7.596835e-01 5.950514e-01 1.854660e-01 -9.800747e-02 -5.733423e-01 -1.216643e-02 -4.406930e-01
<VARIANCE> 39
 1.510172e-01 3.358479e-01 3.102068e-01 4.447802e-01 3.661300e-01 7.820300e-01 6.404676e-01 1.090397e+00 7.236379e-01 5.521272e-01 7.323393e-01 7.854405e-01 1.822400e-01 8.598568e-01 1.086800e+00 1.280216e+00 1.201861e+00 1.079461e+00 1.723463e+00 1.298826e+00 2.613161e+00 2.056594e+00 1.441760e+00 1.484404e+00 1.530399e+00 1.537037e+00 1.116557e+00 1.014138e+00 1.166890e+00 1.125014e+00 8.829318e-01 1.048042e+00 1.024528e+00 1.053099e+00 1.060599e+00 1.205297e+00 9.640945e-01 1.018224e+00 1.089965e+00
<GCONST> 6.718381e+01
<MIXTURE> 5 8.344355e-02
<MEAN> 39
 6.326292e-01 -3.024257e-01 -3.416128e-01 7.846819e-02 3.030397e-01 -1.533074e-01 2.079794e-01 5.391192e-01 -1.167451e-01 9.005425e-01 -2.029593e-01 -1.435636e-01 8.484909e-01 5.759749e-02 -6.581801e-02 2.679119e-01 3.183758e-01 1.869591e-01 -1.295807e-01 2.855990e-01 6.030021e-01 4.233589e-01 1.294241e-01 -1.482360e-01 9.514765e-02 4.544563e-01 1.598441e-01 2.577827e-01 3.276998e-01 1.147727e-01 1.513685e-01 3.269951e-01 2.329332e-01 1.419575e-01 -1.743247e-02 -3.249827e-02 2.355968e-01 3.416205e-01 1.889743e-01
<VARIANCE> 39
 7.440572e-01 9.022322e-01 1.169666e+00 1.000954e+00 9.895307e-01 1.638269e+00 1.283209e+00 1.390239e+00 1.205553e+00 1.255310e+00 1.159057e+00 1.398591e+00 1.397714e+00 5.359986e-01 6.847347e-01 1.334113e+00 9.390126e-01 8.674752e-01 1.128957e+00 9.701833e-01 1.102432e+00 8.519691e-01 1.140905e+00 1.060651e+00 1.233624e+00 6.042258e-01 5.397131e-01 5.111954e-01 7.346869e-01 7.457313e-01 7.062173e-01 8.799573e-01 8.805941e-01 9.309978e-01 8.239423e-01 8.061098e-01 8.209162e-01 8.452250e-01 5.090688e-01
<GCONST> 6.872291e+01
<MIXTURE> 6 6.715545e-02
<MEAN> 39
 6.025598e-01 7.390212e-02 5.287575e-01 8.527749e-01 7.970221e-02 -1.455379e+00 -1.949881e-01 2.678837e-01 -1.432107e-01 6.697668e-01 -9.265888e-01 4.093279e-01 1.460068e+00 2.070406e+00 -2.348214e+00 7.407148e-02 -8.598761e-01 -1.148112e+00 -7.089644e-01 -8.226124e-01 1.279304e+00 8.740532e-01 1.387620e+00 1.733197e-02 2.529116e-01 1.608632e+00 -2.158657e+00 1.817479e-01 -7.926764e-01 -3.138666e-01 4.424983e-01 1.154228e+00 9.864531e-01 4.950786e-01 2.795615e-01 2.504836e-01 2.211228e-01 8.709736e-02 -4.451137e-01
<VARIANCE> 39
 1.066042e-01 3.007569e-01 4.608206e-01 2.636642e-01 3.359066e-01 3.890569e-01 4.448969e-01 5.289467e-01 6.453162e-01 6.171006e-01 5.060770e-01 7.388098e-01 1.231036e-01 1.036064e+00 6.523290e-01 1.385682e+00 1.007845e+00 8.430160e-01 1.176142e+00 1.236040e+00 9.636427e-01 1.282016e+00 1.277547e+00 8.881561e-01 9.824686e-01 5.545129e-01 9.475720e-01 1.418276e+00 1.300884e+00 8.156930e-01 8.969749e-01 7.858256e-01 9.726924e-01 8.202200e-01 6.784672e-01 9.583661e-01 7.415721e-01 9.511141e-01 6.380548e-01
<GCONST> 5.707473e+01
<MIXTURE> 7 6.138360e-02
<MEAN> 39
 9.244204e-01 5.579236e-02 -6.900498e-01 2.779488e-01 5.949562e-01 -1.741655e-01 7.529809e-01 -6.872745e-02 5.606037e-01 9.736732e-01 -7.773502e-01 -6.718819e-01 1.195953e+00 1.977203e+00 -1.909761e+00 -7.129724e-01 -1.353751e+00 -9.259706e-01 -4.327153e-02 7.244635e-01 2.864822e-01 1.575034e+00 1.326203e+00 -2.258629e-01 -6.372069e-01 2.268769e+00 -2.476409e+00 -3.896238e-01 -2.757648e-02 8.477572e-02 4.984556e-01 8.042560e-01 4.879875e-01 1.096176e-01 -1.990668e-01 6.458071e-02 4.064191e-01 7.226241e-01 -6.905583e-01
<VARIANCE> 39
 1.317120e-01 4.296205e-01 3.147436e-01 3.123986e-01 4.550140e-01 7.447359e-01 5.383849e-01 6.163573e-01 8.157299e-01 6.643569e-01 6.369796e-01 8.215924e-01 1.620988e-01 1.382315e+00 8.992662e-01 1.189797e+00 1.162642e+00 1.077884e+00 1.224922e+00 1.629351e+00 1.463004e+00 2.151637e+00 1.507882e+00 1.247474e+00 1.531041e+00 9.462638e-01 1.120983e+00 1.269667e+00 1.299003e+00 9.914834e-01 1.103790e+00 1.131606e+00 1.233231e+00 1.103100e+00 1.179869e+00 1.187990e+00 9.702684e-01 1.214637e+00 1.386013e+00
<GCONST> 6.664269e+01
<MIXTURE> 8 5.029170e-02
<MEAN> 39
 1.180755e+00 -1.386029e-01 -2.064823e-01 8.842476e-01 1.175830e+00 4.907231e-01 8.080501e-01 9.828203e-01 -5.312198e-01 6.363782e-01 8.820593e-03 1.848829e-01 1.301273e+00 1.864597e+00 -6.646247e-01 -1.000178e+00 -8.757865e-01 -4.718579e-01 -2.236428e-01 1.351479e-01 9.124866e-01 6.171124e-01 1.713314e+00 8.844687e-01 -5.006192e-01 2.389973e+00 -1.644909e+00 -4.129001e-01 -6.423037e-01 -1.165171e+00 -9.593643e-01 -5.227218e-01 -4.894789e-01 -6.848133e-01 4.593144e-02 6.181543e-01 5.443013e-01 1.298957e-01 -1.982379e+00
<VARIANCE> 39
 9.386448e-02 1.867366e-01 2.682791e-01 2.937565e-01 2.632612e-01 4.786817e-01 4.289105e-01 5.737105e-01 4.142510e-01 6.015593e-01 4.454541e-01 7.532346e-01 1.634714e-01 9.160519e-01 9.750003e-01 1.614330e+00 1.641569e+00 1.257556e+00 1.523192e+00 1.593340e+00 1.985574e+00 1.497986e+00 1.819700e+00 1.392250e+00 1.713356e+00 2.014299e+00 1.354185e+00 1.218511e+00 1.576169e+00 1.202141e+00 1.127798e+00 1.458837e+00 1.381375e+00 1.639726e+00 1.470455e+00 1.686100e+00 1.218663e+00 1.373431e+00 2.262959e+00
<GCONST> 6.725728e+01
<MIXTURE> 9 8.344355e-02
<MEAN> 39
 2.875942e-01 -6.823693e-01 -7.742172e-01 -3.217226e-01 -9.486092e-02 -6.652870e-01 -2.451359e-01 6.748562e-02 -5.559359e-01 4.523800e-01 -6.335973e-01 -6.166118e-01 3.755911e-01 -2.352502e-01 -3.968128e-01 -1.941034e-01 -6.923483e-02 -1.855944e-01 -5.545903e-01 -1.083925e-01 1.830151e-01 5.415015e-02 -2.978285e-01 -5.601876e-01 -3.491269e-01 1.435285e-01 -1.340166e-01 -2.820906e-02 -1.515566e-02 -2.306502e-01 -1.847784e-01 -4.822908e-02 -1.424267e-01 -2.439954e-01 -3.805175e-01 -3.916327e-01 -1.268209e-01 -2.612394e-02 -9.642192e-02
<VARIANCE> 39
 7.440572e-01 9.022322e-01 1.169666e+00 1.000954e+00 9.895307e-01 1.638269e+00 1.283209e+00 1.390239e+00 1.205553e+00 1.255310e+00 1.159057e+00 1.398591e+00 1.397714e+00 5.359986e-01 6.847347e-01 1.334113e+00 9.390126e-01 8.674752e-01 1.128957e+00 9.701833e-01 1.102432e+00 8.519691e-01 1.140905e+00 1.060651e+00 1.233624e+00 6.042258e-01 5.397131e-01 5.111954e-01 7.346869e-01 7.457313e-01 7.062173e-01 8.799573e-01 8.805941e-01 9.309978e-01 8.239423e-01 8.061098e-01 8.209162e-01 8.452250e-01 5.090688e-01
<GCONST> 6.872291e+01
<MIXTURE> 10 7.313440e-02
<MEAN> 39
 1.490262e-01 2.108546e-01 1.404369e+00 7.689476e-01 -7.311763e-01 -1.137764e+00 -3.473583e-01 -3.450682e-01 -8.930697e-01 -8.864785e-01 -6.620589e-01 6.530797e-01 8.455968e-01 1.089300e+00 -1.659793e+00 3.292221e-01 -5.444468e-01 -2.150216e+00 -1.282637e+00 -1.128241e+00 4.811432e-01 7.620166e-01 -4.495181e-01 5.440559e-01 5.720583e-01 1.681259e+00 -1.723576e+00 -8.783021e-01 -1.608832e+00 -9.369557e-01 6.734836e-02 4.846584e-01 2.454395e-01 5.852573e-02 2.724224e-01 4.120347e-01 -1.095898e-01 -4.829628e-01 -5.435091e-01
<VARIANCE> 39
 1.029416e-01 2.814851e-01 4.806234e-01 4.031542e-01 3.328960e-01 4.926628e-01 5.931241e-01 7.320647e-01 8.933008e-01 4.626313e-01 5.965767e-01 7.462182e-01 1.951458e-01 1.057425e+00 1.001763e+00 1.848720e+00 1.209691e+00 9.301147e-01 1.302848e+00 1.195166e+00 1.557233e+00 1.689745e+00 9.441383e-01 1.077575e+00 1.229993e+00 6.549020e-01 1.291000e+00 1.047366e+00 1.624718e+00 1.062651e+00 1.010721e+00 9.794856e-01 9.805828e-01 1.094555e+00 1.017153e+00 8.595980e-01 8.954348e-01 1.154529e+00 7.766744e-01
<GCONST> 6.308178e+01
<MIXTURE> 11 6.715545e-02
<MEAN> 39
 4.719586e-01 -1.454631e-01 2.572224e-01 6.473819e-01 -1.521276e-01 -1.704877e+00 -4.617905e-01 -2.303125e-02 -4.645371e-01 3.555438e-01 -1.211145e+00 6.551170e-02 1.319724e+00 1.663258e+00 -2.671282e+00 -3.967885e-01 -1.261442e+00 -1.515376e+00 -1.142765e+00 -1.267322e+00 8.866424e-01 4.211486e-01 9.355058e-01 -3.596362e-01 -1.435666e-01 1.310770e+00 -2.548031e+00 -2.946177e-01 -1.248902e+00 -6.751295e-01 6.366326e-02 7.996409e-01 5.919523e-01 1.328146e-01 -4.991494e-02 -1.411011e-01 -1.233355e-01 -3.030030e-01 -7.646270e-01
<VARIANCE> 39
 1.066042e-01 3.007569e-01 4.608206e-01 2.636642e-01 3.359066e-01 3.890569e-01 4.448969e-01 5.289467e-01 6.453162e-01 6.171006e-01 5.060770e-01 7.388098e-01 1.231036e-01 1.036064e+00 6.523290e-01 1.385682e+00 1.007845e+00 8.430160e-01 1.176142e+00 1.236040e+00 9.636427e-01 1.282016e+00 1.277547e+00 8.881561e-01 9.824686e-01 5.545129e-01 9.475720e-01 1.418276e+00 1.300884e+00 8.156930e-01 8.969749e-01 7.858256e-01 9.726924e-01 8.202200e-01 6.784672e-01 9.583661e-01 7.415721e-01 9.511141e-01 6.380548e-01
<GCONST> 5.707473e+01
<MIXTURE> 12 6.626050e-02
<MEAN> 39
 8.242362e-01 -9.148545e-01 3.711258e-01 1.909077e-01 -7.833842e-01 -1.078488e+00 -1.352629e+00 -1.763347e-02 -1.427509e-01 2.066496e-01 -9.469553e-01 -5.949383e-01 9.641427e-01 2.614281e-01 -1.274813e+00 -1.514436e+00 -1.613419e+00 -1.209058e+00 -8.091601e-01 2.604399e-01 1.746643e+00 1.474786e+00 4.830979e-01 -2.580992e-01 -2.243408e-01 1.668121e+00 -6.695271e-01 -7.473327e-02 -2.615228e-01 1.313403e-01 2.500742e-01 2.297572e-01 6.093289e-01 1.956742e-02 -3.489787e-01 -6.479557e-01 -5.062715e-01 -4.649603e-01 -3.543373e-01
<VARIANCE> 39
 1.198275e-01 2.312041e-01 5.076062e-01 4.074634e-01 4.794535e-01 7.613634e-01 6.834726e-01 1.021780e+00 9.895816e-01 7.089939e-01 7.190636e-01 1.166252e+00 1.352925e-01 4.215813e-01 5.898107e-01 1.260225e+00 1.022056e+00 1.082180e+00 1.768557e+00 1.539223e+00 1.732504e+00 1.543734e+00 1.351093e+00 1.419263e+00 1.298785e+00 5.656281e-01 4.400905e-01 3.829625e-01 7.993175e-01 5.606351e-01 8.519534e-01 8.958970e-01 8.635324e-01 9.505908e-01 8.764948e-01 8.551971e-01 7.079972e-01 8.904501e-01 3.829539e-01
<GCONST> 5.912572e+01
<MIXTURE> 13 6.138360e-02
<MEAN> 39
 7.792517e-01 -2.063894e-01 -9.144578e-01 5.437824e-02 3.251373e-01 -5.193579e-01 4.594821e-01 -3.827612e-01 1.993327e-01 6.476408e-01 -1.096594e+00 -1.034449e+00 1.034907e+00 1.506915e+00 -2.289079e+00 -1.149284e+00 -1.785055e+00 -1.341255e+00 -4.859763e-01 2.138793e-01 -1.973366e-01 9.882958e-01 8.350193e-01 -6.726243e-01 -1.132148e+00 1.879665e+00 -2.899915e+00 -8.403418e-01 -4.834717e-01 -3.135173e-01 7.820997e-02 3.787481e-01 4.378372e-02 -3.104966e-01 -6.335539e-01 -3.713991e-01 1.241030e-02 2.817819e-01 -1.161474e+00
<VARIANCE> 39
 1.317120e-01 4.296205e-01 3.147436e-01 3.123986e-01 4.550140e-01 7.447359e-01 5.383849e-01 6.163573e-01 8.157299e-01 6.643569e-01 6.369796e-01 8.215924e-01 1.620988e-01 1.382315e+00 8.992662e-01 1.189797e+00 1.162642e+00 1.077884e+00 1.224922e+00 1.629351e+00 1.463004e+00 2.151637e+00 1.507882e+00 1.247474e+00 1.531041e+00 9.462638e-01 1.120983e+00 1.269667e+00 1.299003e+00 9.914834e-01 1.103790e+00 1.131606e+00 1.233231e+00 1.103100e+00 1.179869e+00 1.187990e+00 9.702684e-01 1.214637e+00 1.386013e+00
<GCONST> 6.664269e+01
<MIXTURE> 14 5.890265e-02
<MEAN> 39
 1.144731e+00 -3.706039e-01 -8.799245e-01 -1.208403e-01 2.809706e-01 -3.589224e-01 -4.056538e-01 -5.521443e-01 -9.328713e-01 8.662235e-01 9.260674e-02 -6.445391e-01 7.363782e-01 1.191425e+00 -1.389983e+00 -1.836339e+00 -1.803190e+00 -9.562346e-01 -9.947329e-01 -4.275424e-01 4.774930e-01 6.851032e-01 1.671772e+00 2.188729e-01 -1.042596e+00 2.032678e+00 -1.802728e+00 -5.429887e-01 7.021274e-02 -9.592474e-04 9.756540e-02 -7.704526e-02 3.548077e-01 1.845690e-01 -2.264756e-01 -5.371516e-01 -9.660955e-01 -4.157948e-01 -8.582985e-01
<VARIANCE> 39
 1.510172e-01 3.358479e-01 3.102068e-01 4.447802e-01 3.661300e-01 7.820300e-01 6.404676e-01 1.090397e+00 7.236379e-01 5.521272e-01 7.323393e-01 7.854405e-01 1.822400e-01 8.598568e-01 1.086800e+00 1.280216e+00 1.201861e+00 1.079461e+00 1.723463e+00 1.298826e+00 2.613161e+00 2.056594e+00 1.441760e+00 1.484404e+00 1.530399e+00 1.537037e+00 1.116557e+00 1.014138e+00 1.166890e+00 1.125014e+00 8.829318e-01 1.048042e+00 1.024528e+00 1.053099e+00 1.060599e+00 1.205297e+00 9.640945e-01 1.018224e+00 1.089965e+00
<GCONST> 6.718381e+01
<MIXTURE> 15 5.029170e-02
<MEAN> 39
 1.058205e+00 -3.114551e-01 -4.136649e-01 6.674504e-01 9.705940e-01 2.139758e-01 5.460851e-01 6.798456e-01 -7.886691e-01 3.261372e-01 -2.581488e-01 -1.622735e-01 1.139547e+00 1.481755e+00 -1.059593e+00 -1.508404e+00 -1.388281e+00 -9.204211e-01 -7.173134e-01 -3.697624e-01 3.488449e-01 1.275434e-01 1.173728e+00 4.124941e-01 -1.024200e+00 1.822269e+00 -2.110387e+00 -8.544449e-01 -1.144486e+00 -1.603739e+00 -1.384156e+00 -1.005851e+00 -9.596065e-01 -1.197021e+00 -4.391178e-01 9.875467e-02 1.027291e-01 -3.388782e-01 -2.584105e+00
<VARIANCE> 39
 9.386448e-02 1.867366e-01 2.682791e-01 2.937565e-01 2.632612e-01 4.786817e-01 4.289105e-01 5.737105e-01 4.142510e-01 6.015593e-01 4.454541e-01 7.532346e-01 1.634714e-01 9.160519e-01 9.750003e-01 1.614330e+00 1.641569e+00 1.257556e+00 1.523192e+00 1.593340e+00 1.985574e+00 1.497986e+00 1.819700e+00 1.392250e+00 1.713356e+00 2.014299e+00 1.354185e+00 1.218511e+00 1.576169e+00 1.202141e+00 1.127798e+00 1.458837e+00 1.381375e+00 1.639726e+00 1.470455e+00 1.686100e+00 1.218663e+00 1.373431e+00 2.262959e+00
<GCONST> 6.725728e+01
<MIXTURE> 16 3.943434e-02
<MEAN> 39
 5.438293e-01 -4.531989e-02 -1.660165e-01 7.995544e-01 1.060454e+00 2.317026e-01 5.175906e-01 8.324999e-02 -9.505782e-01 -8.078416e-02 -6.300331e-01 -7.700099e-02 4.201308e-01 2.389242e+00 -4.751117e-01 -7.324288e-01 -3.859344e-01 -1.770667e-01 -2.070619e-01 4.619861e-01 1.009832e+00 4.241344e-01 7.258343e-01 -6.326514e-01 -1.484136e+00 3.689932e+00 -6.910664e-01 -1.532234e+00 -2.102437e+00 -2.150661e+00 -1.582596e+00 -7.263437e-01 -6.403493e-01 -5.212529e-01 3.078431e-01 8.720561e-01 6.226978e-01 -5.883188e-01 -1.380592e+00
<VARIANCE> 39
 1.190489e-01 2.514482e-01 2.042891e-01 2.868370e-01 3.147570e-01 4.853162e-01 4.551508e-01 6.519311e-01 4.376074e-01 4.211371e-01 5.896018e-01 7.291828e-01 2.513660e-01 5.622433e-01 8.766764e-01 1.071846e+00 1.235252e+00 1.081527e+00 1.175505e+00 1.171852e+00 1.605847e+00 1.447994e+00 1.609058e+00 1.490638e+00 1.837972e+00 1.077477e+00 1.604434e+00 1.511564e+00 1.389145e+00 1.289448e+00 1.259399e+00 1.638916e+00 1.713827e+00 1.747535e+00 1.438169e+00 1.423104e+00 1.383324e+00 1.449152e+00 2.924865e+00
<GCONST> 6.647054e+01
<STATE> 4
<NUMMIXES> 16
<MIXTURE> 1 4.867471e-02
<MEAN> 39
 3.680350e-01 -3.052034e-01 1.495079e+00 4.026049e-01 -1.397095e+00 -9.530619e-01 -2.312367e-01 4.955645e-01 3.408801e-01 -4.285105e-01 4.061594e-01 1.316106e+00 1.525344e+00 5.023044e-01 -1.215988e+00 -8.020704e-01 -6.034558e-01 -7.911893e-01 -1.723113e-01 3.635830e-01 1.352637e+00 1.638274e+00 6.027573e-01 5.505632e-01 2.694200e-01 1.356807e+00 -5.015725e-01 5.610481e-01 -6.979137e-01 2.575512e-01 1.563576e+00 6.638488e-01 8.583103e-01 1.487081e-01 -2.380878e-01 4.615137e-01 -6.717988e-01 -5.340291e-01 -9.373952e-01
<VARIANCE> 39
 1.151884e-01 3.173477e-01 3.673045e-01 3.527310e-01 2.723900e-01 5.223609e-01 7.166994e-01 1.006318e+00 9.105622e-01 4.454138e-01 7.702230e-01 9.632720e-01 1.485550e-01 4.858747e-01 5.896148e-01 1.507610e+00 6.496406e-01 8.273876e-01 7.965516e-01 8.846294e-01 1.300734e+00 8.578103e-01 7.486590e-01 1.014639e+00 1.040067e+00 4.974938e-01 1.146922e+00 6.459337e-01 1.176270e+00 7.671026e-01 8.063563e-01 8.630134e-01 9.559173e-01 1.058566e+00 8.157084e-01 7.214283e-01 8.002169e-01 1.028618e+00 5.238638e-01
<GCONST> 5.618061e+01
<MIXTURE> 2 6.325420e-02
<MEAN> 39
 9.696610e-01 -1.451252e-01 -8.465723e-01 -5.194306e-01 4.149819e-01 5.489730e-01 7.542142e-01 2.976593e-01 -5.835315e-01 1.020866e+00 1.162128e-01 -4.924488e-02 1.200778e+00 7.558377e-02 5.608067e-03 1.712552e-01 2.624042e-01 1.188196e-01 1.193723e-02 1.587895e-01 2.985098e-01 2.783011e-01 2.393616e-01 7.729943e-02 8.841778e-02 2.760732e-01 8.396040e-02 1.896311e-01 3.798693e-01 4.759644e-01 2.717064e-01 4.604293e-02 -9.368092e-03 2.129367e-01 1.812851e-01 7.845213e-02 1.326156e-01 1.971320e-01 1.024181e-02
<VARIANCE> 39
 6.513281e-01 8.117347e-01 8.036201e-01 9.672519e-01 1.006369e+00 1.669097e+00 1.166013e+00 1.502524e+00 1.381403e+00 1.117554e+00 1.476944e+00 1.582207e+00 7.353278e-01 4.543660e-01 6.276851e-01 8.735703e-01 1.001709e+00 7.588708e-01 1.059887e+00 9.522123e-01 1.020492e+00 8.013821e-01 1.015137e+00 9.142337e-01 1.071908e+00 5.719061e-01 5.887556e-01 5.383603e-01 7.987248e-01 8.435931e-01 7.447135e-01 8.610116e-01 8.248717e-01 8.901744e-01 7.423250e-01 8.869234e-01 7.650153e-01 9.233522e-01 5.494389e-01
<GCONST> 6.676157e+01
<MIXTURE> 3 7.987325e-02
<MEAN> 39
 1.065747e+00 -1.059454e+00 1.635167e-01 3.238445e-01 -7.043973e-01 -1.244467e+00 -9.098278e-01 1.467941e+00 3.273354e-01 7.796519e-01 -4.188017e-01 -1.549247e-01 1.538379e+00 1.382013e-01 -8.200073e-01 -7.170110e-01 -6.060961e-01 -2.844315e-01 -9.890065e-02 6.600801e-01 1.639097e+00 9.929007e-01 6.151270e-01 -9.448975e-04 -1.043753e-01 1.278759e+00 -7.773789e-01 9.526458e-01 5.997257e-01 5.667624e-01 1.111766e+00 7.817837e-01 7.550643e-01 -5.186079e-01 -4.712429e-01 -4.277562e-01 -2.125773e-01 2.341568e-03 -8.838269e-01
<VARIANCE> 39
 1.024628e-01 2.175628e-01 4.049150e-01 3.133137e-01 4.333630e-01 6.038520e-01 5.459530e-01 6.412233e-01 7.610194e-01 4.678552e-01 6.730905e-01 1.134389e+00 1.441375e-01 4.324331e-01 6.827269e-01 1.183121e+00 8.103371e-01 8.961810e-01 1.012606e+00 1.140156e+00 1.129763e+00 9.220312e-01 1.008267e+00 8.340365e-01 9.283027e-01 5.734223e-01 7.190092e-01 5.728552e-01 8.481200e-01 7.551765e-01 7.782636e-01 8.580909e-01 8.549290e-01 8.559070e-01 7.521176e-01 6.332858e-01 8.103708e-01 8.621073e-01 5.272510e-01
<GCONST> 5.439937e+01
<MIXTURE> 4 7.426005e-02
<MEAN> 39
 1.232906e+00 -9.059364e-01 -1.092127e+00 -2.978693e-01 1.609892e-01 2.106665e-01 7.856270e-01 -2.565645e-01 4.262941e-01 1.837088e+00 -2.507259e-01 -1.220603e+00 1.454634e+00 -6.458446e-02 -1.127603e+00 -4.595959e-01 -7.564932e-01 -1.006354e-01 3.247229e-01 7.770823e-01 7.215369e-01 9.902004e-01 7.246283e-01 -6.742600e-01 -4.522061e-01 1.368176e+00 -1.123247e+00 1.005221e+00 1.167904e+00 1.034013e+00 9.965161e-01 3.329996e-01 1.115623e-01 5.289861e-01 -4.846534e-01 -1.036963e+00 -1.210216e-01 7.055987e-01 -1.130306e+00
<VARIANCE> 39
 9.653725e-02 3.233837e-01 3.206286e-01 4.502417e-01 4.765916e-01 1.242571e+00 1.092049e+00 1.086930e+00 8.358352e-01 5.901479e-01 1.178702e+00 8.266535e-01 1.344665e-01 5.804095e-01 7.792745e-01 8.630900e-01 1.057162e+00 8.865824e-01 1.098008e+00 1.046682e+00 1.727057e+00 1.270331e+00 1.075029e+00 1.039795e+00 9.368591e-01 5.057230e-01 9.262574e-01 7.156801e-01 1.134457e+00 8.788792e-01 8.184994e-01 9.707240e-01 1.133512e+00 1.022055e+00 1.142347e+00 8.440955e-01 9.280102e-01 9.537535e-01 8.397677e-01
<GCONST> 6.163715e+01
<MIXTURE> 5 6.205155e-02
<MEAN> 39
 6.919156e-01 -7.267890e-01 2.655481e-02 -2.995612e-02 -5.091407e-01 -7.433128e-01 2.392723e-01 4.477295e-01 1.743103e+00 7.326854e-01 -1.242342e+00 3.574449e-01 1.703089e+00 2.003417e-01 -1.411657e+00 -8.369000e-01 -9.560058e-01 -1.783289e-01 3.601368e-01 9.040524e-01 1.152919e+00 1.352767e+00 4.684451e-01 -4.185460e-01 -1.970014e-01 1.330992e+00 -8.212913e-01 1.076945e+00 1.567319e-01 8.981299e-01 1.141390e+00 7.193486e-01 4.420528e-01 -7.749118e-02 -1.154983e+00 -2.876084e-01 3.100258e-01 -2.857484e-01 -1.351159e+00
<VARIANCE> 39
 8.711063e-02 3.399223e-01 3.599797e-01 2.732978e-01 4.272209e-01 8.009728e-01 5.709794e-01 9.749561e-01 1.193143e+00 7.172377e-01 5.097236e-01 9.292683e-01 1.202464e-01 4.241407e-01 6.024295e-01 9.536008e-01 6.767130e-01 6.908824e-01 8.260483e-01 9.309389e-01 9.610402e-01 1.058037e+00 9.516303e-01 7.186073e-01 9.611496e-01 4.632870e-01 1.230842e+00 7.235743e-01 1.067849e+00 6.710104e-01 8.352529e-01 9.290254e-01 1.053846e+00 1.013400e+00 1.108900e+00 8.842915e-01 7.054342e-01 8.765397e-01 5.491167e-01
<GCONST> 5.581519e+01
<MIXTURE> 6 4.932500e-02
<MEAN> 39
 1.492486e+00 -5.340995e-01 -1.276008e+00 -2.478911e-01 8.676410e-01 -2.063977e-01 4.136460e-01 1.124902e+00 -8.263712e-01 2.050155e+00 6.138510e-01 -6.892328e-01 1.486939e+00 3.803869e-01 -1.020278e+00 -1.396014e+00 -1.343593e+00 -2.530082e-01 -5.502625e-01 1.693381e-01 8.374713e-01 7.090366e-02 1.436848e+00 1.999589e-01 -1.045323e+00 1.549982e+00 -1.707348e+00 4.445647e-01 1.182236e+00 8.744609e-01 3.633508e-01 6.615614e-01 3.796167e-01 -3.335482e-01 1.688079e-01 -1.227393e+00 -8.281153e-01 3.991347e-01 -1.223588e+00
<VARIANCE> 39
 1.030351e-01 2.386880e-01 3.112806e-01 4.483854e-01 2.693950e-01 7.177142e-01 8.329591e-01 7.788194e-01 6.654264e-01 4.906057e-01 8.992266e-01 1.277303e+00 1.520112e-01 7.137660e-01 6.720757e-01 9.549206e-01 1.259554e+00 7.853307e-01 1.369133e+00 1.087133e+00 1.425098e+00 1.136317e+00 1.329589e+00 1.100009e+00 1.136472e+00 8.855542e-01 1.073181e+00 9.053760e-01 1.204082e+00 1.092318e+00 7.819382e-01 9.987446e-01 1.029834e+00 1.089800e+00 1.095482e+00 9.679803e-01 1.008947e+00 1.236799e+00 1.540950e+00
<GCONST> 6.236267e+01
<MIXTURE> 7 7.350040e-02
<MEAN> 39
 1.775448e-01 -1.010311e+00 -1.249410e+00 3.769524e-01 1.212153e+00 -2.503946e-02 2.480656e-01 6.286643e-01 6.957901e-01 9.534941e-01 -1.445760e+00 -1.251931e+00 -2.711269e-01 8.330819e-01 -9.801285e-02 9.262979e-03 -4.870394e-02 2.077381e-01 3.426214e-01 7.485504e-01 5.855494e-01 -1.233075e-01 1.083511e-01 -1.929717e-02 -1.393164e-01 1.368454e+00 2.064505e-01 2.406574e-01 4.297055e-01 1.154223e-02 1.463525e-02 2.410794e-01 2.728738e-01 1.329122e-01 3.456877e-02 2.955679e-01 5.070906e-01 3.677717e-01 5.413909e-01
<VARIANCE> 39
 3.183673e-01 5.417264e-01 5.500389e-01 8.544694e-01 5.855700e-01 8.349541e-01 1.016273e+00 9.938103e-01 8.341952e-01 7.434891e-01 1.007653e+00 1.200946e+00 6.901472e-01 8.241199e-01 7.790149e-01 1.051853e+00 1.300190e+00 1.037751e+00 9.734480e-01 1.248094e+00 1.171358e+00 1.105688e+00 1.163872e+00 1.525081e+00 1.601813e+00 1.479797e+00 1.330983e+00 8.767617e-01 1.311114e+00 1.211805e+00 1.190167e+00 9.829434e-01 1.249248e+00 1.093702e+00 1.076356e+00 1.166744e+00 1.445901e+00 1.507918e+00 1.233993e+00
<GCONST> 7.190226e+01
<MIXTURE> 8 4.906576e-02
<MEAN> 39
 6.219575e-01 -1.946015e-01 1.476284e+00 1.258203e+00 -4.572137e-01 -1.439218e+00 -4.773166e-01 8.167558e-01 -7.596776e-01 -4.857976e-01 -3.905824e-01 1.014073e+00 1.215818e+00 2.505488e-01 -6.839343e-01 9.302499e-01 -1.606736e-01 -1.099838e+00 -3.557478e-01 -3.959139e-01 4.524032e-01 2.559882e-01 5.448279e-02 5.833865e-01 7.212592e-01 1.081509e+00 -7.149809e-01 8.103153e-01 -3.025305e-01 -1.880653e-01 6.327016e-01 1.126010e+00 5.643533e-01 -3.327059e-01 1.076618e-01 3.904245e-01 3.126783e-01 -1.096009e-01 -5.998242e-01
<VARIANCE> 39
 1.775268e-01 4.279007e-01 6.007504e-01 4.526210e-01 4.587359e-01 7.307781e-01 6.940708e-01 9.038540e-01 8.642591e-01 7.153522e-01 8.099890e-01 7.507903e-01 2.506785e-01 8.758113e-01 9.480519e-01 1.559397e+00 9.287333e-01 1.010623e+00 1.265767e+00 1.275432e+00 1.102280e+00 7.874761e-01 1.058310e+00 8.231407e-01 8.844655e-01 6.837580e-01 9.891527e-01 7.578666e-01 1.268453e+00 8.141633e-01 9.280424e-01 1.132939e+00 9.964024e-01 1.028200e+00 8.068799e-01 8.303176e-01 7.418679e-01 7.836338e-01 7.524069e-01
<GCONST> 6.235895e+01
<MIXTURE> 9 7.987325e-02
<MEAN> 39
 9.377074e-01 -1.246028e+00 -9.101503e-02 9.994674e-02 -9.677185e-01 -1.555299e+00 -1.205382e+00 1.147635e+00 -2.161035e-02 5.060521e-01 -7.469701e-01 -5.809555e-01 1.386517e+00 -1.248373e-01 -1.150517e+00 -1.152096e+00 -9.661710e-01 -6.630989e-01 -5.014139e-01 2.329677e-01 1.213935e+00 6.088109e-01 2.134770e-01 -3.662473e-01 -4.897692e-01 9.758607e-01 -1.116557e+00 6.498970e-01 2.313519e-01 2.191589e-01 7.588890e-01 4.112509e-01 3.852149e-01 -8.886689e-01 -8.181417e-01 -7.460733e-01 -5.726597e-01 -3.690574e-01 -1.174275e+00
<VARIANCE> 39
 1.024628e-01 2.175628e-01 4.049150e-01 3.133137e-01 4.333630e-01 6.038520e-01 5.459530e-01 6.412233e-01 7.610194e-01 4.678552e-01 6.730905e-01 1.134389e+00 1.441375e-01 4.324331e-01 6.827269e-01 1.183121e+00 8.103371e-01 8.961810e-01 1.012606e+00 1.140156e+00 1.129763e+00 9.220312e-01 1.008267e+00 8.340365e-01 9.283027e-01 5.734223e-01 7.190092e-01 5.728552e-01 8.481200e-01 7.551765e-01 7.782636e-01 8.580909e-01 8.549290e-01 8.559070e-01 7.521176e-01 6.332858e-01 8.103708e-01 8.621073e-01 5.272510e-01
<GCONST> 5.439937e+01
<MIXTURE> 10 7.426005e-02
<MEAN> 39
 1.108624e+00 -1.133404e+00 -1.318623e+00 -5.662695e-01 -1.151533e-01 -2.352162e-01 3.676224e-01 -6.735883e-01 6.059796e-02 1.529804e+00 -6.849981e-01 -1.584285e+00 1.307956e+00 -3.693229e-01 -1.480709e+00 -8.312064e-01 -1.167767e+00 -4.772694e-01 -9.442057e-02 3.678524e-01 1.958667e-01 5.393646e-01 3.098939e-01 -1.082141e+00 -8.393720e-01 1.083720e+00 -1.508216e+00 6.668300e-01 7.418607e-01 6.590185e-01 6.346323e-01 -6.110166e-02 -3.143038e-01 1.245991e-01 -9.121760e-01 -1.404461e+00 -5.063547e-01 3.149575e-01 -1.496862e+00
<VARIANCE> 39
 9.653725e-02 3.233837e-01 3.206286e-01 4.502417e-01 4.765916e-01 1.242571e+00 1.092049e+00 1.086930e+00 8.358352e-01 5.901479e-01 1.178702e+00 8.266535e-01 1.344665e-01 5.804095e-01 7.792745e-01 8.630900e-01 1.057162e+00 8.865824e-01 1.098008e+00 1.046682e+00 1.727057e+00 1.270331e+00 1.075029e+00 1.039795e+00 9.368591e-01 5.057230e-01 9.262574e-01 7.156801e-01 1.134457e+00 8.788792e-01 8.184994e-01 9.707240e-01 1.133512e+00 1.022055e+00 1.142347e+00 8.440955e-01 9.280102e-01 9.537535e-01 8.397677e-01
<GCONST> 6.163715e+01
<MIXTURE> 11 7.350040e-02
<MEAN> 39
 -4.815142e-02 -1.304719e+00 -1.546068e+00 7.202372e-03 9.060630e-01 -3.905427e-01 -1.551759e-01 2.299041e-01 3.304529e-01 6.085909e-01 -1.847288e+00 -1.690281e+00 -6.034273e-01 4.699576e-01 -4.510601e-01 -4.009766e-01 -5.048075e-01 -1.997422e-01 -5.203244e-02 3.016779e-01 1.526322e-01 -5.439143e-01 -3.231805e-01 -5.132738e-01 -6.455674e-01 8.818662e-01 -2.550225e-01 -1.338848e-01 -2.831006e-02 -4.287858e-01 -4.217439e-01 -1.554946e-01 -1.742052e-01 -2.854086e-01 -3.804216e-01 -1.364958e-01 2.610813e-02 -1.234175e-01 9.704991e-02
<VARIANCE> 39
 3.183673e-01 5.417264e-01 5.500389e-01 8.544694e-01 5.855700e-01 8.349541e-01 1.016273e+00 9.938103e-01 8.341952e-01 7.434891e-01 1.007653e+00 1.200946e+00 6.901472e-01 8.241199e-01 7.790149e-01 1.051853e+00 1.300190e+00 1.037751e+00 9.734480e-01 1.248094e+00 1.171358e+00 1.105688e+00 1.163872e+00 1.525081e+00 1.601813e+00 1.479797e+00 1.330983e+00 8.767617e-01 1.311114e+00 1.211805e+00 1.190167e+00 9.829434e-01 1.249248e+00 1.093702e+00 1.076356e+00 1.166744e+00 1.445901e+00 1.507918e+00 1.233993e+00
<GCONST> 7.190226e+01
<MIXTURE> 12 6.325420e-02
<MEAN> 39
 6.468414e-01 -5.055104e-01 -1.205152e+00 -9.128265e-01 1.371011e-02 3.219885e-02 3.222859e-01 -1.926507e-01 -1.053664e+00 5.980085e-01 -3.699056e-01 -5.523881e-01 8.577735e-01 -1.940429e-01 -3.112983e-01 -2.026048e-01 -1.379375e-01 -2.296332e-01 -3.998660e-01 -2.315360e-01 -1.055679e-01 -7.977866e-02 -1.636544e-01 -3.051628e-01 -3.257142e-01 -2.642465e-02 -2.229613e-01 -1.038610e-01 2.238369e-02 1.085750e-01 -7.348071e-02 -3.251199e-01 -3.726579e-01 -1.644595e-01 -1.633480e-01 -2.982543e-01 -2.172450e-01 -1.872328e-01 -2.862548e-01
<VARIANCE> 39
 6.513281e-01 8.117347e-01 8.036201e-01 9.672519e-01 1.006369e+00 1.669097e+00 1.166013e+00 1.502524e+00 1.381403e+00 1.117554e+00 1.476944e+00 1.582207e+00 7.353278e-01 4.543660e-01 6.276851e-01 8.735703e-01 1.001709e+00 7.588708e-01 1.059887e+00 9.522123e-01 1.020492e+00 8.013821e-01 1.015137e+00 9.142337e-01 1.071908e+00 5.719061e-01 5.887556e-01 5.383603e-01 7.987248e-01 8.435931e-01 7.447135e-01 8.610116e-01 8.248717e-01 8.901744e-01 7.423250e-01 8.869234e-01 7.650153e-01 9.233522e-01 5.494389e-01
<GCONST> 6.676157e+01
<MIXTURE> 13 6.205155e-02
<MEAN> 39
 5.738575e-01 -9.600004e-01 -2.134384e-01 -2.390677e-01 -7.705892e-01 -1.101301e+00 -6.298041e-02 5.276997e-02 1.306179e+00 3.939259e-01 -1.527922e+00 -2.814932e-02 1.564383e+00 -6.016265e-02 -1.722123e+00 -1.227510e+00 -1.285056e+00 -5.108063e-01 -3.412008e-03 5.181118e-01 7.607884e-01 9.413232e-01 7.823893e-02 -7.576288e-01 -5.891544e-01 1.058732e+00 -1.265065e+00 7.366923e-01 -2.566152e-01 5.704690e-01 7.758216e-01 3.338048e-01 3.142479e-02 -4.801623e-01 -1.576201e+00 -6.637555e-01 -2.593477e-02 -6.602432e-01 -1.647569e+00
<VARIANCE> 39
 8.711063e-02 3.399223e-01 3.599797e-01 2.732978e-01 4.272209e-01 8.009728e-01 5.709794e-01 9.749561e-01 1.193143e+00 7.172377e-01 5.097236e-01 9.292683e-01 1.202464e-01 4.241407e-01 6.024295e-01 9.536008e-01 6.767130e-01 6.908824e-01 8.260483e-01 9.309389e-01 9.610402e-01 1.058037e+00 9.516303e-01 7.186073e-01 9.611496e-01 4.632870e-01 1.230842e+00 7.235743e-01 1.067849e+00 6.710104e-01 8.352529e-01 9.290254e-01 1.053846e+00 1.013400e+00 1.108900e+00 8.842915e-01 7.054342e-01 8.765397e-01 5.491167e-01
<GCONST> 5.581519e+01
<MIXTURE> 14 4.932500e-02
<MEAN> 39
 1.364090e+00 -7.295223e-01 -1.499178e+00 -5.157375e-01 6.600279e-01 -5.452697e-01 4.857960e-02 7.718989e-01 -1.152666e+00 1.769982e+00 2.345408e-01 -1.141304e+00 1.330985e+00 4.244825e-02 -1.348198e+00 -1.786894e+00 -1.792513e+00 -6.074837e-01 -1.018302e+00 -2.477246e-01 3.599615e-01 -3.554890e-01 9.756163e-01 -2.195664e-01 -1.471745e+00 1.173566e+00 -2.121726e+00 6.395970e-02 7.433131e-01 4.564047e-01 9.641767e-03 2.618125e-01 -2.630627e-02 -7.511222e-01 -2.498532e-01 -1.620937e+00 -1.229901e+00 -4.571113e-02 -1.720128e+00
<VARIANCE> 39
 1.030351e-01 2.386880e-01 3.112806e-01 4.483854e-01 2.693950e-01 7.177142e-01 8.329591e-01 7.788194e-01 6.654264e-01 4.906057e-01 8.992266e-01 1.277303e+00 1.520112e-01 7.137660e-01 6.720757e-01 9.549206e-01 1.259554e+00 7.853307e-01 1.369133e+00 1.087133e+00 1.425098e+00 1.136317e+00 1.329589e+00 1.100009e+00 1.136472e+00 8.855542e-01 1.073181e+00 9.053760e-01 1.204082e+00 1.092318e+00 7.819382e-01 9.987446e-01 1.029834e+00 1.089800e+00 1.095482e+00 9.679803e-01 1.008947e+00 1.236799e+00 1.540950e+00
<GCONST> 6.236267e+01
<MIXTURE> 15 4.906576e-02
<MEAN> 39
 4.534218e-01 -4.562579e-01 1.166252e+00 9.890947e-01 -7.281339e-01 -1.781160e+00 -8.105603e-01 4.364708e-01 -1.131540e+00 -8.241116e-01 -7.505800e-01 6.674808e-01 1.015546e+00 -1.237904e-01 -1.073406e+00 4.307467e-01 -5.461568e-01 -1.501957e+00 -8.057731e-01 -8.476540e-01 3.244504e-02 -9.897125e-02 -3.570140e-01 2.204781e-01 3.450751e-01 7.507502e-01 -1.112806e+00 4.620931e-01 -7.530330e-01 -5.489893e-01 2.473618e-01 7.002518e-01 1.650735e-01 -7.383067e-01 -2.516442e-01 2.593745e-02 -3.184870e-02 -4.636933e-01 -9.467898e-01
<VARIANCE> 39
 1.775268e-01 4.279007e-01 6.007504e-01 4.526210e-01 4.587359e-01 7.307781e-01 6.940708e-01 9.038540e-01 8.642591e-01 7.153522e-01 8.099890e-01 7.507903e-01 2.506785e-01 8.758113e-01 9.480519e-01 1.559397e+00 9.287333e-01 1.010623e+00 1.265767e+00 1.275432e+00 1.102280e+00 7.874761e-01 1.058310e+00 8.231407e-01 8.844655e-01 6.837580e-01 9.891527e-01 7.578666e-01 1.268453e+00 8.141633e-01 9.280424e-01 1.132939e+00 9.964024e-01 1.028200e+00 8.068799e-01 8.303176e-01 7.418679e-01 7.836338e-01 7.524069e-01
<GCONST> 6.235895e+01
<MIXTURE> 16 4.867471e-02
<MEAN> 39
 2.322774e-01 -5.305380e-01 1.252657e+00 1.650403e-01 -1.605859e+00 -1.242160e+00 -5.698691e-01 9.430291e-02 -4.081348e-02 -6.954678e-01 5.510999e-02 9.235201e-01 1.371172e+00 2.234856e-01 -1.523134e+00 -1.293210e+00 -9.258570e-01 -1.155033e+00 -5.293103e-01 -1.263599e-02 8.964385e-01 1.267802e+00 2.566569e-01 1.476460e-01 -1.385147e-01 1.074675e+00 -9.299503e-01 2.395681e-01 -1.131738e+00 -9.278637e-02 1.204386e+00 2.922547e-01 4.672263e-01 -2.628384e-01 -5.993541e-01 1.217659e-01 -1.029618e+00 -9.397123e-01 -1.226909e+00
<VARIANCE> 39
 1.151884e-01 3.173477e-01 3.673045e-01 3.527310e-01 2.723900e-01 5.223609e-01 7.166994e-01 1.006318e+00 9.105622e-01 4.454138e-01 7.702230e-01 9.632720e-01 1.485550e-01 4.858747e-01 5.896148e-01 1.507610e+00 6.496406e-01 8.273876e-01 7.965516e-01 8.846294e-01 1.300734e+00 8.578103e-01 7.486590e-01 1.014639e+00 1.040067e+00 4.974938e-01 1.146922e+00 6.459337e-01 1.176270e+00 7.671026e-01 8.063563e-01 8.630134e-01 9.559173e-01 1.058566e+00 8.157084e-01 7.214283e-01 8.002169e-01 1.028618e+00 5.238638e-01
<GCONST> 5.618061e+01
<STATE> 5
<NUMMIXES> 16
<MIXTURE> 1 7.752610e-02
<MEAN> 39
 5.347539e-01 -1.073615e+00 2.842588e-01 -5.901266e-02 -8.937647e-01 -7.500593e-01 4.275184e-01 1.296201e+00 1.672247e+00 9.641460e-02 -8.529184e-01 2.743499e-01 1.907591e+00 4.622422e-02 9.426381e-02 2.465172e-01 1.516146e-01 4.637617e-02 5.283100e-02 9.835537e-02 2.637249e-01 1.357719e-03 -1.495688e-02 2.968338e-01 2.158854e-01 6.355495e-02 2.122824e-01 2.214195e-01 3.321211e-01 2.758881e-01 2.041327e-02 8.789781e-02 -2.423228e-01 -7.064559e-03 -7.191210e-02 1.730945e-01 3.666037e-01 1.655603e-01 -2.053819e-01
<VARIANCE> 39
 1.123928e-01 2.176367e-01 3.053556e-01 2.224091e-01 3.129638e-01 7.944611e-01 5.030607e-01 1.047599e+00 1.023595e+00 4.654797e-01 8.217562e-01 1.169000e+00 1.300025e-01 1.176693e-01 2.395272e-01 3.291353e-01 2.414083e-01 2.716329e-01 3.876336e-01 3.886128e-01 3.741092e-01 3.385175e-01 3.272453e-01 4.752080e-01 5.228390e-01 8.744606e-02 1.671951e-01 2.080394e-01 2.777279e-01 2.393903e-01 2.261027e-01 3.784966e-01 3.364840e-01 3.313783e-01 3.236529e-01 2.970652e-01 3.571824e-01 3.734383e-01 1.353956e-01
<GCONST> 2.703528e+01
<MIXTURE> 2 3.513845e-02
<MEAN> 39
 4.078490e-01 1.087869e-01 1.578572e-01 3.853539e-01 3.476753e-01 -1.433920e-01 3.958412e-01 3.407820e-01 -3.304006e-01 1.628305e-01 -3.267807e-01 2.877887e-01 7.342352e-01 4.946472e-02 2.835131e-01 5.492509e-01 3.287914e-01 3.467883e-02 1.476130e-01 1.916886e-01 1.481885e-01 5.694976e-02 6.944165e-03 3.063527e-01 4.822173e-01 1.787685e-01 2.543240e-01 3.657082e-01 1.561695e-01 2.644488e-01 4.141450e-01 4.488483e-01 2.415604e-01 9.186292e-02 1.170931e-01 3.732249e-01 2.415505e-01 1.310724e-01 2.915676e-02
<VARIANCE> 39
 7.874410e-01 8.875312e-01 1.238151e+00 1.016737e+00 1.010417e+00 1.847211e+00 1.483444e+00 1.677297e+00 1.171387e+00 1.039830e+00 1.235693e+00 1.181498e+00 1.084406e+00 9.624613e-01 7.765481e-01 1.482004e+00 1.331689e+00 1.164456e+00 1.308770e+00 1.150801e+00 1.384246e+00 1.088123e+00 1.178350e+00 1.069534e+00 1.275320e+00 7.050526e-01 1.325761e+00 9.757115e-01 1.575859e+00 1.262025e+00 1.287497e+00 1.625456e+00 1.272374e+00 1.639491e+00 1.127706e+00 1.245902e+00 1.098933e+00 1.311737e+00 1.066947e+00
<GCONST> 7.841579e+01
<MIXTURE> 3 4.758482e-02
<MEAN> 39
 4.820634e-01 -5.847776e-01 1.301731e+00 7.046670e-01 -1.178721e+00 -1.371869e+00 -3.441712e-01 8.152358e-01 7.064804e-02 -2.110122e-01 7.191518e-02 1.103847e+00 1.531222e+00 -2.963553e-02 -2.858472e-01 3.069869e-01 -3.050958e-01 -4.281583e-01 1.352840e-01 -1.553042e-02 3.576129e-01 3.890187e-01 1.997822e-01 5.693144e-01 3.778464e-01 6.172019e-01 3.200434e-02 8.924633e-01 -1.175685e-01 3.457853e-01 1.019583e+00 5.199691e-01 3.526667e-01 -5.700837e-02 -1.847571e-01 1.806785e-01 -2.690110e-02 -1.275927e-01 -7.670064e-01
<VARIANCE> 39
 1.833083e-01 4.221275e-01 6.018199e-01 5.002906e-01 3.933758e-01 6.508505e-01 7.765179e-01 1.066135e+00 1.224833e+00 6.292808e-01 1.029149e+00 9.807389e-01 1.894628e-01 4.142935e-01 4.882911e-01 8.928806e-01 6.219731e-01 5.600526e-01 6.517972e-01 7.526948e-01 7.321025e-01 6.478359e-01 6.075576e-01 5.823297e-01 6.556237e-01 3.890245e-01 6.691808e-01 6.876146e-01 8.377009e-01 6.240134e-01 6.900560e-01 7.549570e-01 8.202568e-01 8.382613e-01 6.244392e-01 6.115384e-01 6.014103e-01 6.917647e-01 6.506387e-01
<GCONST> 5.310149e+01
<MIXTURE> 4 7.599730e-02
<MEAN> 39
 1.068962e+00 -1.284924e+00 -9.780110e-01 -2.729121e-01 -8.518711e-03 -1.686111e-01 6.718348e-01 5.717143e-01 6.356823e-01 1.679939e+00 -6.951847e-01 -1.109444e+00 1.707986e+00 -2.833363e-01 -3.406621e-01 2.236367e-01 -6.108329e-03 1.492007e-01 1.517024e-01 2.993522e-01 7.335206e-01 4.806322e-01 -1.922565e-01 -4.242678e-01 -1.333672e-01 5.417156e-01 1.278740e-01 8.744579e-01 5.038964e-01 4.573748e-01 4.054022e-01 7.228199e-02 -1.282079e-01 1.595419e-01 -2.175202e-01 -2.770569e-01 4.443104e-01 5.147039e-01 -5.972204e-01
<VARIANCE> 39
 1.112089e-01 2.851349e-01 4.146076e-01 4.430124e-01 3.943186e-01 1.380510e+00 1.028100e+00 1.653271e+00 8.417582e-01 6.304162e-01 1.315373e+00 8.768884e-01 1.254530e-01 2.366513e-01 3.860679e-01 6.534504e-01 5.402424e-01 4.726665e-01 6.746262e-01 5.583624e-01 6.457959e-01 5.211087e-01 5.692948e-01 6.602154e-01 6.783916e-01 1.914390e-01 3.738959e-01 4.254292e-01 5.726299e-01 4.854000e-01 5.497285e-01 5.311370e-01 5.720114e-01 5.762899e-01 4.931951e-01 5.213102e-01 5.708533e-01 5.331002e-01 3.317750e-01
<GCONST> 4.550765e+01
<MIXTURE> 5 5.794545e-02
<MEAN> 39
 6.770944e-01 -1.431820e+00 -6.587064e-01 -3.934833e-01 -2.019685e-01 -3.923699e-03 8.194590e-01 1.210846e+00 1.723134e+00 5.705045e-01 -1.469309e+00 -8.165441e-01 1.827655e+00 -5.929951e-02 -2.856995e-01 -5.253088e-01 -1.371371e-01 7.933747e-01 6.838940e-01 9.328036e-01 3.876231e-01 -5.288057e-02 -1.426958e-02 -3.599209e-01 -2.967536e-01 3.795608e-01 2.584782e-01 8.206676e-01 8.010950e-01 6.598759e-01 1.594995e-01 -6.499311e-02 -3.127066e-01 -3.021828e-01 -6.056532e-01 2.213436e-01 7.408239e-01 4.610717e-01 -6.262673e-01
<VARIANCE> 39
 1.403003e-01 3.052008e-01 3.643879e-01 3.500735e-01 5.339687e-01 1.112910e+00 6.883740e-01 1.615164e+00 9.078970e-01 6.987697e-01 6.833653e-01 9.759955e-01 1.175100e-01 3.071448e-01 4.314303e-01 7.160618e-01 4.932942e-01 6.065900e-01 8.849183e-01 7.983881e-01 1.033298e+00 6.790282e-01 8.473379e-01 7.816814e-01 9.779474e-01 2.467473e-01 4.547055e-01 4.615145e-01 6.582606e-01 5.999287e-01 6.314359e-01 6.954809e-01 6.731727e-01 1.001325e+00 7.408612e-01 6.441790e-01 6.536108e-01 6.726110e-01 4.637485e-01
<GCONST> 5.091679e+01
<MIXTURE> 6 7.244875e-02
<MEAN> 39
 7.493268e-01 -1.294125e+00 6.589725e-01 3.705847e-01 -1.387451e+00 -8.763576e-01 -3.973406e-01 1.651598e+00 1.235458e+00 -9.698434e-02 -7.901113e-02 1.528299e-01 1.718417e+00 9.267839e-02 2.385143e-01 4.358633e-01 3.040040e-01 4.629470e-02 -2.305107e-02 -6.334181e-02 6.535747e-02 -1.245717e-01 -5.475894e-03 3.673069e-01 4.429905e-01 -6.549807e-02 9.720349e-02 4.216186e-01 1.739850e-01 2.189942e-01 3.985350e-01 2.049677e-02 1.211952e-01 -2.518556e-01 -2.095540e-01 1.782673e-01 4.687834e-02 3.209121e-01 -2.709360e-01
<VARIANCE> 39
 7.966003e-02 1.387010e-01 2.406426e-01 2.177920e-01 2.067402e-01 4.071933e-01 5.749557e-01 7.809981e-01 8.622590e-01 3.888492e-01 5.092134e-01 9.977486e-01 1.284519e-01 1.935309e-01 2.589413e-01 4.765488e-01 3.328737e-01 3.093932e-01 4.056500e-01 5.178176e-01 5.486109e-01 4.741037e-01 3.955781e-01 5.267902e-01 5.535945e-01 1.673028e-01 2.582579e-01 2.594315e-01 3.596752e-01 3.027043e-01 3.230675e-01 3.845443e-01 4.094945e-01 4.326870e-01 4.133470e-01 3.611045e-01 4.336185e-01 4.769303e-01 2.622599e-01
<GCONST> 3.070987e+01
<MIXTURE> 7 6.201700e-02
<MEAN> 39
 7.100843e-01 -1.185288e+00 3.059930e-01 3.572961e-02 -1.173102e+00 -9.801542e-01 2.238819e-02 1.870845e+00 1.097176e+00 1.504447e-01 -4.055998e-01 3.265056e-01 1.780339e+00 3.547618e-01 -5.172641e-01 -1.136721e+00 -6.669113e-02 7.791734e-01 3.426402e-01 8.121895e-01 8.135076e-01 5.297937e-01 3.158479e-01 -6.491401e-01 -7.700652e-01 3.531948e-01 3.931788e-02 6.077610e-01 4.062150e-01 4.370117e-01 7.758703e-01 2.303035e-01 1.771957e-02 -4.715056e-01 -5.274313e-01 1.179068e-01 7.053204e-02 8.786411e-02 -4.245783e-01
<VARIANCE> 39
 1.196680e-01 2.175557e-01 3.454995e-01 2.703385e-01 3.165483e-01 8.339871e-01 7.860523e-01 6.531883e-01 9.815460e-01 5.383698e-01 7.480006e-01 1.200801e+00 1.135470e-01 2.846878e-01 3.644227e-01 8.307523e-01 5.367385e-01 5.580906e-01 7.053176e-01 7.446190e-01 7.504334e-01 5.874643e-01 6.358934e-01 8.123955e-01 7.907386e-01 2.196857e-01 3.323864e-01 3.687482e-01 5.796289e-01 5.505501e-01 5.941183e-01 6.746904e-01 6.238627e-01 6.633918e-01 5.648314e-01 5.821674e-01 6.518099e-01 6.705332e-01 3.542499e-01
<GCONST> 4.519293e+01
<MIXTURE> 8 7.134885e-02
<MEAN> 39
 1.163450e+00 -9.190120e-01 -1.031290e+00 -4.125325e-01 5.828777e-01 -1.165612e+00 -2.597064e-02 1.686330e+00 -5.204523e-01 2.076291e+00 -6.850030e-01 -9.089171e-01 1.611199e+00 2.542001e-02 -2.436339e-01 -4.391950e-01 -3.706466e-01 4.549679e-01 -1.424029e-03 4.347646e-01 9.206302e-01 1.752985e-01 2.632555e-01 -2.823974e-01 -4.645706e-01 5.839702e-01 -1.450326e-01 6.907933e-01 8.594778e-01 7.541711e-01 1.639934e-01 6.964255e-01 2.291036e-01 -3.863596e-01 3.194732e-01 -6.478155e-01 2.414592e-01 5.231634e-01 -5.614693e-01
<VARIANCE> 39
 1.368344e-01 2.714359e-01 6.515213e-01 4.092862e-01 4.730517e-01 1.136585e+00 8.659407e-01 1.017151e+00 6.168184e-01 6.724759e-01 1.448146e+00 1.411522e+00 2.057637e-01 4.656903e-01 5.448211e-01 1.093771e+00 8.821807e-01 8.156545e-01 8.624007e-01 8.348176e-01 9.823987e-01 7.050272e-01 6.703346e-01 7.511177e-01 9.386954e-01 4.605540e-01 6.391768e-01 5.801401e-01 9.515206e-01 7.796049e-01 6.732322e-01 8.106632e-01 8.322071e-01 7.844503e-01 6.704541e-01 7.462662e-01 6.994496e-01 7.980676e-01 6.624753e-01
<GCONST> 5.672728e+01
<MIXTURE> 9 7.752610e-02
<MEAN> 39
 4.006537e-01 -1.260221e+00 6.322282e-02 -2.476538e-01 -1.117537e+00 -1.106590e+00 1.438113e-01 8.867914e-01 1.267555e+00 -1.764897e-01 -1.215522e+00 -1.581313e-01 1.763367e+00 -9.098762e-02 -1.015022e-01 1.703597e-02 -4.491866e-02 -1.620975e-01 -1.962099e-01 -1.509999e-01 1.906706e-02 -2.313713e-01 -2.437783e-01 2.109243e-02 -7.334504e-02 -5.473017e-02 4.872441e-02 3.897412e-02 1.213215e-01 8.017794e-02 -1.697878e-01 -1.581905e-01 -4.743518e-01 -2.373264e-01 -2.994741e-01 -4.492025e-02 1.275447e-01 -7.887813e-02 -3.525665e-01
<VARIANCE> 39
 1.123928e-01 2.176367e-01 3.053556e-01 2.224091e-01 3.129638e-01 7.944611e-01 5.030607e-01 1.047599e+00 1.023595e+00 4.654797e-01 8.217562e-01 1.169000e+00 1.300025e-01 1.176693e-01 2.395272e-01 3.291353e-01 2.414083e-01 2.716329e-01 3.876336e-01 3.886128e-01 3.741092e-01 3.385175e-01 3.272453e-01 4.752080e-01 5.228390e-01 8.744606e-02 1.671951e-01 2.080394e-01 2.777279e-01 2.393903e-01 2.261027e-01 3.784966e-01 3.364840e-01 3.313783e-01 3.236529e-01 2.970652e-01 3.571824e-01 3.734383e-01 1.353956e-01
<GCONST> 2.703528e+01
<MIXTURE> 10 7.599730e-02
<MEAN> 39
 9.355701e-01 -1.498516e+00 -1.235571e+00 -5.391489e-01 -2.596979e-01 -6.385915e-01 2.662538e-01 5.739594e-02 2.686927e-01 1.362344e+00 -1.153944e+00 -1.484014e+00 1.566308e+00 -4.779236e-01 -5.891995e-01 -9.970847e-02 -3.001131e-01 -1.258023e-01 -1.768402e-01 4.575998e-04 4.120749e-01 1.918808e-01 -4.940630e-01 -7.492824e-01 -4.628253e-01 3.667006e-01 -1.167141e-01 6.135581e-01 2.012072e-01 1.786922e-01 1.088275e-01 -2.192346e-01 -4.307337e-01 -1.441131e-01 -4.984316e-01 -5.658641e-01 1.420910e-01 2.226491e-01 -8.276200e-01
<VARIANCE> 39
 1.112089e-01 2.851349e-01 4.146076e-01 4.430124e-01 3.943186e-01 1.380510e+00 1.028100e+00 1.653271e+00 8.417582e-01 6.304162e-01 1.315373e+00 8.768884e-01 1.254530e-01 2.366513e-01 3.860679e-01 6.534504e-01 5.402424e-01 4.726665e-01 6.746262e-01 5.583624e-01 6.457959e-01 5.211087e-01 5.692948e-01 6.602154e-01 6.783916e-01 1.914390e-01 3.738959e-01 4.254292e-01 5.726299e-01 4.854000e-01 5.497285e-01 5.311370e-01 5.720114e-01 5.762899e-01 4.931951e-01 5.213102e-01 5.708533e-01 5.331002e-01 3.317750e-01
<GCONST> 4.550765e+01
<MIXTURE> 11 7.244875e-02
<MEAN> 39
 6.364304e-01 -1.443095e+00 4.627512e-01 1.839119e-01 -1.569325e+00 -1.131604e+00 -7.006440e-01 1.298102e+00 8.640262e-01 -3.464155e-01 -3.644479e-01 -2.467196e-01 1.575057e+00 -8.329020e-02 3.496926e-02 1.597333e-01 7.322317e-02 -1.761978e-01 -2.778137e-01 -3.511800e-01 -2.309156e-01 -3.999925e-01 -2.570559e-01 7.698567e-02 1.453747e-01 -2.291087e-01 -1.060728e-01 2.178809e-01 -6.590667e-02 -1.080044e-03 1.711788e-01 -2.275498e-01 -1.347718e-01 -5.149714e-01 -4.667222e-01 -6.210059e-02 -2.165205e-01 4.467152e-02 -4.757812e-01
<VARIANCE> 39
 7.966003e-02 1.387010e-01 2.406426e-01 2.177920e-01 2.067402e-01 4.071933e-01 5.749557e-01 7.809981e-01 8.622590e-01 3.888492e-01 5.092134e-01 9.977486e-01 1.284519e-01 1.935309e-01 2.589413e-01 4.765488e-01 3.328737e-01 3.093932e-01 4.056500e-01 5.178176e-01 5.486109e-01 4.741037e-01 3.955781e-01 5.267902e-01 5.535945e-01 1.673028e-01 2.582579e-01 2.594315e-01 3.596752e-01 3.027043e-01 3.230675e-01 3.845443e-01 4.094945e-01 4.326870e-01 4.133470e-01 3.611045e-01 4.336185e-01 4.769303e-01 2.622599e-01
<GCONST> 3.070987e+01
<MIXTURE> 12 7.134885e-02
<MEAN> 39
 1.015486e+00 -1.127410e+00 -1.354158e+00 -6.684344e-01 3.077627e-01 -1.592055e+00 -3.981944e-01 1.282914e+00 -8.346035e-01 1.748273e+00 -1.166359e+00 -1.384147e+00 1.429755e+00 -2.475460e-01 -5.388819e-01 -8.575290e-01 -7.463444e-01 9.371349e-02 -3.728862e-01 6.929119e-02 5.241660e-01 -1.605651e-01 -6.424036e-02 -6.290656e-01 -8.521158e-01 3.125138e-01 -4.648268e-01 3.861256e-01 4.692941e-01 4.009902e-01 -1.642095e-01 3.362781e-01 -1.357980e-01 -7.406364e-01 -8.051828e-03 -9.933623e-01 -9.307318e-02 1.658248e-01 -8.870397e-01
<VARIANCE> 39
 1.368344e-01 2.714359e-01 6.515213e-01 4.092862e-01 4.730517e-01 1.136585e+00 8.659407e-01 1.017151e+00 6.168184e-01 6.724759e-01 1.448146e+00 1.411522e+00 2.057637e-01 4.656903e-01 5.448211e-01 1.093771e+00 8.821807e-01 8.156545e-01 8.624007e-01 8.348176e-01 9.823987e-01 7.050272e-01 6.703346e-01 7.511177e-01 9.386954e-01 4.605540e-01 6.391768e-01 5.801401e-01 9.515206e-01 7.796049e-01 6.732322e-01 8.106632e-01 8.322071e-01 7.844503e-01 6.704541e-01 7.462662e-01 6.994496e-01 7.980676e-01 6.624753e-01
<GCONST> 5.672728e+01
<MIXTURE> 13 6.201700e-02
<MEAN> 39
 5.717120e-01 -1.371860e+00 7.087619e-02 -1.722468e-01 -1.398152e+00 -1.345446e+00 -3.322502e-01 1.547565e+00 7.008843e-01 -1.430501e-01 -7.515479e-01 -1.118186e-01 1.645553e+00 1.413372e-01 -7.587339e-01 -1.501303e+00 -3.597409e-01 4.803515e-01 6.707415e-03 4.670243e-01 4.669973e-01 2.232089e-01 -3.123745e-03 -1.009672e+00 -1.125759e+00 1.657122e-01 -1.912940e-01 3.648624e-01 1.016816e-01 1.402155e-01 4.675541e-01 -9.825473e-02 -2.982204e-01 -7.973011e-01 -8.280523e-01 -1.872928e-01 -2.524070e-01 -2.396803e-01 -6.626539e-01
<VARIANCE> 39
 1.196680e-01 2.175557e-01 3.454995e-01 2.703385e-01 3.165483e-01 8.339871e-01 7.860523e-01 6.531883e-01 9.815460e-01 5.383698e-01 7.480006e-01 1.200801e+00 1.135470e-01 2.846878e-01 3.644227e-01 8.307523e-01 5.367385e-01 5.580906e-01 7.053176e-01 7.446190e-01 7.504334e-01 5.874643e-01 6.358934e-01 8.123955e-01 7.907386e-01 2.196857e-01 3.323864e-01 3.687482e-01 5.796289e-01 5.505501e-01 5.941183e-01 6.746904e-01 6.238627e-01 6.633918e-01 5.648314e-01 5.821674e-01 6.518099e-01 6.705332e-01 3.542499e-01
<GCONST> 4.519293e+01
<MIXTURE> 14 5.794545e-02
<MEAN> 39
 5.272676e-01 -1.652800e+00 -9.001646e-01 -6.301513e-01 -4.942611e-01 -4.259019e-01 4.875858e-01 7.024892e-01 1.342000e+00 2.361347e-01 -1.799973e+00 -1.211714e+00 1.690537e+00 -2.809821e-01 -5.484329e-01 -8.637905e-01 -4.180767e-01 4.818392e-01 3.076136e-01 5.753933e-01 -1.898193e-02 -3.824933e-01 -3.824734e-01 -7.135719e-01 -6.923184e-01 1.808662e-01 -1.124922e-02 5.489281e-01 4.765620e-01 3.500556e-01 -1.583522e-01 -3.985751e-01 -6.408950e-01 -7.024477e-01 -9.499464e-01 -9.969947e-02 4.174391e-01 1.330203e-01 -8.986636e-01
<VARIANCE> 39
 1.403003e-01 3.052008e-01 3.643879e-01 3.500735e-01 5.339687e-01 1.112910e+00 6.883740e-01 1.615164e+00 9.078970e-01 6.987697e-01 6.833653e-01 9.759955e-01 1.175100e-01 3.071448e-01 4.314303e-01 7.160618e-01 4.932942e-01 6.065900e-01 8.849183e-01 7.983881e-01 1.033298e+00 6.790282e-01 8.473379e-01 7.816814e-01 9.779474e-01 2.467473e-01 4.547055e-01 4.615145e-01 6.582606e-01 5.999287e-01 6.314359e-01 6.954809e-01 6.731727e-01 1.001325e+00 7.408612e-01 6.441790e-01 6.536108e-01 6.726110e-01 4.637485e-01
<GCONST> 5.091679e+01
<MIXTURE> 15 4.758482e-02
<MEAN> 39
 3.108054e-01 -8.446630e-01 9.914229e-01 4.217421e-01 -1.429599e+00 -1.694571e+00 -6.966522e-01 4.022205e-01 -3.720407e-01 -5.283210e-01 -3.338728e-01 7.077183e-01 1.357112e+00 -2.870981e-01 -5.653586e-01 -7.098252e-02 -6.205568e-01 -7.275050e-01 -1.876518e-01 -3.625624e-01 1.536092e-02 6.706569e-02 -1.120018e-01 2.640722e-01 5.396402e-02 3.677145e-01 -2.952095e-01 5.607733e-01 -4.836725e-01 2.980725e-02 6.873041e-01 1.724161e-01 -9.605467e-03 -4.232348e-01 -5.008429e-01 -1.321252e-01 -3.371037e-01 -4.602823e-01 -1.089655e+00
<VARIANCE> 39
 1.833083e-01 4.221275e-01 6.018199e-01 5.002906e-01 3.933758e-01 6.508505e-01 7.765179e-01 1.066135e+00 1.224833e+00 6.292808e-01 1.029149e+00 9.807389e-01 1.894628e-01 4.142935e-01 4.882911e-01 8.928806e-01 6.219731e-01 5.600526e-01 6.517972e-01 7.526948e-01 7.321025e-01 6.478359e-01 6.075576e-01 5.823297e-01 6.556237e-01 3.890245e-01 6.691808e-01 6.876146e-01 8.377009e-01 6.240134e-01 6.900560e-01 7.549570e-01 8.202568e-01 8.382613e-01 6.244392e-01 6.115384e-01 6.014103e-01 6.917647e-01 6.506387e-01
<GCONST> 5.310149e+01
<MIXTURE> 16 3.513845e-02
<MEAN> 39
 5.289754e-02 -2.680486e-01 -2.872317e-01 -1.797965e-02 -5.440269e-02 -6.870406e-01 -9.134564e-02 -1.772600e-01 -7.633231e-01 -2.450578e-01 -7.714277e-01 -1.469982e-01 3.176959e-01 -3.429557e-01 -6.897473e-02 6.230052e-02 -1.328039e-01 -3.969610e-01 -3.099930e-01 -2.374130e-01 -3.224274e-01 -3.603028e-01 -4.272631e-01 -1.073204e-01 3.049695e-02 -1.571011e-01 -2.062428e-01 -2.940422e-02 -3.459634e-01 -1.849107e-01 -3.972676e-02 -6.112513e-02 -2.096378e-01 -4.203075e-01 -3.076810e-01 -7.325506e-02 -1.777695e-01 -3.270519e-01 -3.840157e-01
<VARIANCE> 39
 7.874410e-01 8.875312e-01 1.238151e+00 1.016737e+00 1.010417e+00 1.847211e+00 1.483444e+00 1.677297e+00 1.171387e+00 1.039830e+00 1.235693e+00 1.181498e+00 1.084406e+00 9.624613e-01 7.765481e-01 1.482004e+00 1.331689e+00 1.164456e+00 1.308770e+00 1.150801e+00 1.384246e+00 1.088123e+00 1.178350e+00 1.069534e+00 1.275320e+00 7.050526e-01 1.325761e+00 9.757115e-01 1.575859e+00 1.262025e+00 1.287497e+00 1.625456e+00 1.272374e+00 1.639491e+00 1.127706e+00 1.245902e+00 1.098933e+00 1.311737e+00 1.066947e+00
<GCONST> 7.841579e+01
<STATE> 6
<NUMMIXES> 16
<MIXTURE> 1 9.136130e-02
<MEAN> 39
 9.684940e-01 -1.190737e+00 -4.711068e-01 -1.549097e-01 -4.165287e-02 -1.606627e+00 -4.021464e-01 2.347486e+00 -6.945509e-02 1.269751e+00 -9.959010e-01 -5.758001e-01 1.859656e+00 3.758315e-02 1.869675e-01 4.742844e-01 3.045253e-01 8.910991e-02 -3.871050e-02 -1.829554e-02 1.672971e-01 -6.357384e-02 2.779128e-02 2.457704e-01 4.435959e-01 4.183223e-02 1.574943e-01 2.537618e-01 3.533480e-01 3.529401e-01 1.182749e-01 1.902432e-01 5.666043e-02 -2.678024e-01 4.574455e-03 1.086111e-01 2.615981e-01 2.738324e-01 -1.770103e-01
<VARIANCE> 39
 1.001438e-01 2.164705e-01 4.777992e-01 2.514462e-01 3.035257e-01 5.261432e-01 5.767240e-01 6.023037e-01 3.734579e-01 5.693818e-01 7.884812e-01 1.219218e+00 1.157257e-01 2.062726e-01 2.267613e-01 6.511698e-01 4.500525e-01 4.750135e-01 5.162551e-01 5.199106e-01 5.160936e-01 4.196368e-01 4.811959e-01 5.170941e-01 6.546917e-01 1.540465e-01 2.728001e-01 2.469998e-01 4.279774e-01 3.983524e-01 4.254151e-01 4.542822e-01 4.588208e-01 3.989781e-01 3.902723e-01 4.258912e-01 4.097449e-01 4.400495e-01 2.235718e-01
<GCONST> 3.471254e+01
<MIXTURE> 2 5.864105e-02
<MEAN> 39
 1.159805e+00 -8.823505e-01 -1.563390e+00 -6.644283e-01 1.130970e+00 -1.322715e+00 3.528876e-01 1.968134e+00 -4.768938e-01 1.984819e+00 -1.333172e+00 -1.628483e+00 1.662050e+00 6.842524e-03 1.219603e-01 2.612480e-01 2.437628e-01 1.829813e-01 1.451661e-01 1.645233e-01 2.121248e-01 1.464805e-01 5.482704e-02 1.129225e-01 2.520832e-01 8.751990e-02 6.596392e-02 5.309029e-02 6.323646e-01 4.292264e-01 -3.456111e-01 6.018177e-01 -1.175983e-02 -2.182850e-01 2.238106e-01 -2.753115e-02 5.247712e-01 3.971393e-01 -2.040657e-02
<VARIANCE> 39
 7.883137e-02 2.249363e-01 3.853564e-01 3.740074e-01 3.739666e-01 7.243673e-01 7.733536e-01 8.985025e-01 4.652799e-01 6.050234e-01 9.395462e-01 9.571546e-01 1.037644e-01 2.010182e-01 2.981256e-01 7.377463e-01 8.187057e-01 7.603388e-01 8.929296e-01 8.381208e-01 9.055037e-01 6.344184e-01 6.090744e-01 6.999135e-01 7.275171e-01 1.640548e-01 2.710305e-01 3.287936e-01 6.111545e-01 6.200868e-01 5.642107e-01 6.268669e-01 7.290288e-01 6.775596e-01 5.371211e-01 5.388827e-01 4.952852e-01 5.386787e-01 2.335399e-01
<GCONST> 4.383482e+01
<MIXTURE> 3 4.072422e-02
<MEAN> 39
 7.929016e-01 -1.256500e+00 -4.277516e-01 2.312496e-03 -2.785183e-01 -7.837371e-01 1.954117e-01 1.530194e+00 1.065130e+00 8.107408e-01 -6.040623e-01 -4.943213e-01 1.656440e+00 2.592607e-01 7.245860e-01 6.520718e-01 6.739507e-01 1.656914e-01 -2.597286e-01 -3.911121e-01 -1.471019e-01 -2.696126e-01 7.873484e-02 6.930817e-01 7.091562e-01 -4.961854e-01 1.675963e-01 9.494146e-01 2.791460e-01 5.259749e-01 7.240213e-01 3.884588e-01 2.956648e-01 -3.838373e-01 -5.246828e-01 1.019203e-01 9.267795e-02 3.291928e-01 -9.241899e-01
<VARIANCE> 39
 1.787121e-01 3.922846e-01 5.173771e-01 4.854034e-01 6.251892e-01 1.070905e+00 8.823032e-01 1.659843e+00 1.126234e+00 8.127477e-01 9.041032e-01 1.129319e+00 2.131147e-01 4.522290e-01 5.551382e-01 9.148217e-01 7.435835e-01 8.309096e-01 9.493803e-01 9.785722e-01 1.028334e+00 7.997088e-01 7.780466e-01 9.800618e-01 8.676201e-01 4.255043e-01 8.525937e-01 6.571779e-01 7.970967e-01 7.344584e-01 7.106947e-01 9.199170e-01 9.283597e-01 9.579045e-01 7.079521e-01 7.425503e-01 7.674343e-01 7.578728e-01 8.140373e-01
<GCONST> 5.946729e+01
<MIXTURE> 4 7.031570e-02
<MEAN> 39
 1.092631e+00 -1.011039e+00 -1.693763e+00 -8.464463e-01 1.068767e+00 -4.906999e-01 6.535399e-01 1.755202e+00 -6.916457e-01 1.986790e+00 -1.134051e+00 -2.137226e+00 1.864431e+00 1.133632e-02 6.701376e-02 8.025271e-02 8.577364e-02 1.738639e-01 1.084012e-01 1.663724e-01 1.469102e-01 9.091210e-02 1.160749e-01 5.333361e-02 8.931784e-02 5.917456e-02 8.742175e-02 8.479179e-02 1.926449e-01 1.477407e-01 3.491459e-02 8.730689e-02 4.152755e-02 3.212252e-02 1.283169e-01 1.085262e-01 1.935995e-01 2.182368e-01 -1.096841e-02
<VARIANCE> 39
 9.382109e-02 2.179074e-01 3.608885e-01 3.176987e-01 4.248128e-01 7.474517e-01 9.432268e-01 8.526341e-01 4.932497e-01 5.262629e-01 9.622225e-01 9.196150e-01 1.032346e-01 7.634597e-02 1.346977e-01 2.254839e-01 2.441114e-01 2.459055e-01 3.379629e-01 3.187163e-01 3.208171e-01 2.585422e-01 2.609960e-01 2.968065e-01 3.290492e-01 5.595063e-02 1.208044e-01 1.509812e-01 2.510384e-01 2.272148e-01 2.608225e-01 2.994926e-01 3.222868e-01 2.747887e-01 2.593704e-01 2.567796e-01 2.544861e-01 2.910272e-01 6.993256e-02
<GCONST> 2.055030e+01
<MIXTURE> 5 6.432300e-02
<MEAN> 39
 8.577502e-01 -1.406903e+00 -1.323910e+00 -6.890018e-01 7.256791e-01 1.176472e+00 1.559559e+00 -1.037007e-01 4.341444e-01 1.224459e+00 -1.249319e+00 -1.749657e+00 1.708743e+00 8.466043e-02 5.222703e-02 7.577561e-02 8.021322e-02 1.713025e-01 1.639275e-01 5.966705e-02 2.187195e-01 3.551719e-02 1.233696e-01 1.183535e-01 6.910553e-02 4.017879e-02 1.939411e-01 1.998883e-01 1.341317e-01 1.500569e-01 4.144366e-02 -6.632940e-02 -1.393087e-02 2.454641e-01 1.136675e-01 1.658343e-01 2.207629e-01 1.770850e-01 -9.936943e-02
<VARIANCE> 39
 1.363693e-01 2.353654e-01 2.837661e-01 4.972328e-01 4.758591e-01 1.006152e+00 5.738216e-01 1.238246e+00 6.786225e-01 5.461269e-01 8.099169e-01 9.205100e-01 1.781827e-01 1.211209e-01 1.916268e-01 2.424607e-01 2.562559e-01 2.748098e-01 4.000330e-01 3.414899e-01 4.310469e-01 3.608578e-01 3.713998e-01 3.962219e-01 3.979336e-01 1.113349e-01 1.722408e-01 1.910157e-01 2.417296e-01 2.400130e-01 2.799076e-01 3.450998e-01 3.239894e-01 3.345611e-01 2.987809e-01 3.324625e-01 3.260262e-01 3.797980e-01 1.177693e-01
<GCONST> 2.811509e+01
<MIXTURE> 6 7.233260e-02
<MEAN> 39
 8.584405e-01 -1.615389e+00 -6.256188e-01 -7.716325e-02 -2.448904e-01 5.857559e-01 1.050582e+00 7.661648e-01 1.577263e+00 3.577633e-01 -1.591766e+00 -1.410262e+00 1.633556e+00 1.636726e-01 1.094256e-01 2.402537e-01 2.793068e-01 -3.220259e-02 6.698877e-03 -4.851896e-02 3.080048e-01 1.541071e-01 1.287609e-01 4.110405e-01 1.624443e-01 -1.979789e-02 2.013839e-01 3.541023e-01 2.664049e-01 1.710589e-01 2.007313e-02 -1.071410e-01 -1.848708e-01 4.690079e-02 3.174924e-02 3.262446e-01 5.027817e-01 3.576266e-01 -1.799630e-01
<VARIANCE> 39
 9.066443e-02 2.125982e-01 2.141350e-01 3.599697e-01 3.342779e-01 8.598779e-01 5.598258e-01 1.062596e+00 4.594531e-01 5.579501e-01 6.435428e-01 7.472355e-01 1.520857e-01 1.402725e-01 2.706474e-01 4.593990e-01 2.883264e-01 4.753551e-01 6.250038e-01 6.235207e-01 6.459929e-01 5.875214e-01 5.576970e-01 5.738119e-01 6.970866e-01 1.246434e-01 1.946828e-01 2.743080e-01 3.118891e-01 2.713139e-01 3.520196e-01 4.402266e-01 4.656425e-01 4.540564e-01 4.515560e-01 4.214796e-01 4.828585e-01 5.100406e-01 1.908894e-01
<GCONST> 3.435829e+01
<MIXTURE> 7 6.581005e-02
<MEAN> 39
 9.568250e-01 -1.037499e+00 -1.904249e+00 -9.271166e-01 1.327059e+00 5.676429e-01 1.339717e+00 7.956275e-01 -4.785344e-01 1.627254e+00 -9.082193e-01 -2.164025e+00 1.434542e+00 5.040561e-02 2.599717e-01 2.223735e-01 2.398486e-01 2.126076e-01 2.039853e-01 1.510595e-01 1.309474e-01 1.698420e-01 3.276697e-02 1.471956e-01 2.847126e-01 2.865262e-02 1.062227e-01 3.185710e-01 3.789719e-01 3.653668e-01 1.327320e-01 3.923818e-03 6.784438e-02 1.011094e-01 2.319491e-01 1.200194e-01 1.556196e-01 3.940100e-01 -1.369079e-01
<VARIANCE> 39
 1.473123e-01 3.555169e-01 2.913556e-01 4.506128e-01 4.681185e-01 9.630922e-01 6.527451e-01 1.183606e+00 7.559119e-01 6.454844e-01 8.950259e-01 1.030918e+00 3.533081e-01 3.458386e-01 4.909550e-01 6.297579e-01 7.070029e-01 6.249908e-01 7.160276e-01 6.175096e-01 6.688890e-01 5.487905e-01 6.230669e-01 6.041520e-01 7.317432e-01 7.651676e-01 5.350226e-01 5.510251e-01 7.236816e-01 6.701120e-01 6.356163e-01 6.630822e-01 6.484903e-01 5.879374e-01 5.579404e-01 6.636325e-01 5.259786e-01 6.974772e-01 5.258273e-01
<GCONST> 5.096426e+01
<MIXTURE> 8 3.645915e-02
<MEAN> 39
 4.793745e-01 -2.383805e-01 1.068535e+00 5.884722e-01 -6.927123e-01 -9.895895e-01 -2.334304e-01 7.271493e-01 -9.692183e-02 -1.901909e-01 4.462928e-03 1.000687e+00 1.201068e+00 -1.974694e-02 4.686207e-01 6.451633e-01 3.622807e-01 1.786706e-01 3.110151e-01 -4.533049e-02 -1.910975e-01 -2.377744e-01 -2.365580e-02 3.283639e-01 3.738780e-01 -1.047267e-01 1.214291e-01 4.736518e-01 -6.395538e-02 3.496574e-01 7.861346e-01 4.796140e-01 3.743433e-01 1.433592e-02 3.001226e-02 2.697436e-01 -1.461171e-01 -2.365869e-01 -4.482261e-01
<VARIANCE> 39
 4.152664e-01 6.691500e-01 1.030231e+00 6.340569e-01 9.020782e-01 1.196218e+00 9.057274e-01 1.290748e+00 1.305066e+00 8.141496e-01 9.754776e-01 1.091483e+00 8.102522e-01 4.843036e-01 6.282316e-01 1.017757e+00 9.191476e-01 6.908598e-01 8.747661e-01 8.533612e-01 9.018127e-01 8.662379e-01 8.389360e-01 7.381285e-01 8.451499e-01 7.017283e-01 6.200145e-01 6.102586e-01 8.953950e-01 6.893348e-01 7.774242e-01 8.629884e-01 8.337227e-01 8.747076e-01 6.961296e-01 7.740739e-01 6.580999e-01 7.799360e-01 8.602855e-01
<GCONST> 6.334363e+01
<MIXTURE> 9 9.136130e-02
<MEAN> 39
 8.419120e-01 -1.376843e+00 -7.475989e-01 -3.554873e-01 -2.620255e-01 -1.896770e+00 -7.059157e-01 2.037053e+00 -3.138999e-01 9.679213e-01 -1.351087e+00 -1.017473e+00 1.723582e+00 -1.440858e-01 -3.510356e-03 1.515040e-01 3.618149e-02 -1.865750e-01 -3.261141e-01 -3.067148e-01 -1.200615e-01 -3.226914e-01 -2.496819e-01 -4.186662e-02 1.199439e-01 -1.151628e-01 -5.142674e-02 5.496545e-02 9.166802e-02 1.004795e-01 -1.426205e-01 -7.935865e-02 -2.142848e-01 -5.204613e-01 -2.453127e-01 -1.524303e-01 5.552754e-03 8.487538e-03 -3.661439e-01
<VARIANCE> 39
 1.001438e-01 2.164705e-01 4.777992e-01 2.514462e-01 3.035257e-01 5.261432e-01 5.767240e-01 6.023037e-01 3.734579e-01 5.693818e-01 7.884812e-01 1.219218e+00 1.157257e-01 2.062726e-01 2.267613e-01 6.511698e-01 4.500525e-01 4.750135e-01 5.162551e-01 5.199106e-01 5.160936e-01 4.196368e-01 4.811959e-01 5.170941e-01 6.546917e-01 1.540465e-01 2.728001e-01 2.469998e-01 4.279774e-01 3.983524e-01 4.254151e-01 4.542822e-01 4.588208e-01 3.989781e-01 3.902723e-01 4.258912e-01 4.097449e-01 4.400495e-01 2.235718e-01
<GCONST> 3.471254e+01
<MIXTURE> 10 7.233260e-02
<MEAN> 39
 7.379983e-01 -1.799823e+00 -8.107176e-01 -3.171532e-01 -4.761575e-01 2.148375e-01 7.512956e-01 3.538356e-01 1.306131e+00 5.897909e-02 -1.912650e+00 -1.756034e+00 1.477564e+00 1.386068e-02 -9.866951e-02 -3.086226e-02 6.452262e-02 -3.079866e-01 -3.095299e-01 -3.643723e-01 -1.348996e-02 -1.524927e-01 -1.699555e-01 1.080391e-01 -1.715225e-01 -1.610174e-01 2.489245e-02 1.446047e-01 4.301673e-02 -3.729235e-02 -2.172518e-01 -3.725393e-01 -4.578228e-01 -2.226340e-01 -2.370424e-01 6.655878e-02 2.248297e-01 7.195815e-02 -3.547266e-01
<VARIANCE> 39
 9.066443e-02 2.125982e-01 2.141350e-01 3.599697e-01 3.342779e-01 8.598779e-01 5.598258e-01 1.062596e+00 4.594531e-01 5.579501e-01 6.435428e-01 7.472355e-01 1.520857e-01 1.402725e-01 2.706474e-01 4.593990e-01 2.883264e-01 4.753551e-01 6.250038e-01 6.235207e-01 6.459929e-01 5.875214e-01 5.576970e-01 5.738119e-01 6.970866e-01 1.246434e-01 1.946828e-01 2.743080e-01 3.118891e-01 2.713139e-01 3.520196e-01 4.402266e-01 4.656425e-01 4.540564e-01 4.515560e-01 4.214796e-01 4.828585e-01 5.100406e-01 1.908894e-01
<GCONST> 3.435829e+01
<MIXTURE> 11 7.031570e-02
<MEAN> 39
 9.701096e-01 -1.197761e+00 -1.934059e+00 -1.071905e+00 8.080561e-01 -8.365211e-01 2.650605e-01 1.385850e+00 -9.725727e-01 1.696614e+00 -1.526423e+00 -2.520812e+00 1.735911e+00 -9.918678e-02 -7.979099e-02 -1.096879e-01 -1.118569e-01 -2.449150e-02 -1.241371e-01 -5.944741e-02 -7.965270e-02 -1.124761e-01 -8.827623e-02 -1.645862e-01 -1.401334e-01 -3.544098e-02 -5.160597e-02 -7.063341e-02 -7.770061e-03 -4.292754e-02 -1.693686e-01 -1.315968e-01 -1.855537e-01 -1.775587e-01 -7.539679e-02 -9.416749e-02 -8.186974e-03 2.449021e-03 -1.167475e-01
<VARIANCE> 39
 9.382109e-02 2.179074e-01 3.608885e-01 3.176987e-01 4.248128e-01 7.474517e-01 9.432268e-01 8.526341e-01 4.932497e-01 5.262629e-01 9.622225e-01 9.196150e-01 1.032346e-01 7.634597e-02 1.346977e-01 2.254839e-01 2.441114e-01 2.459055e-01 3.379629e-01 3.187163e-01 3.208171e-01 2.585422e-01 2.609960e-01 2.968065e-01 3.290492e-01 5.595063e-02 1.208044e-01 1.509812e-01 2.510384e-01 2.272148e-01 2.608225e-01 2.994926e-01 3.222868e-01 2.747887e-01 2.593704e-01 2.567796e-01 2.544861e-01 2.910272e-01 6.993256e-02
<GCONST> 2.055030e+01
<MIXTURE> 12 6.581005e-02
<MEAN> 39
 8.032998e-01 -1.276000e+00 -2.120159e+00 -1.195627e+00 1.053383e+00 1.750939e-01 1.016547e+00 3.604528e-01 -8.263072e-01 1.305886e+00 -1.286643e+00 -2.570161e+00 1.196784e+00 -1.848266e-01 -2.030106e-02 -9.505565e-02 -9.648532e-02 -1.036179e-01 -1.344884e-01 -1.632676e-01 -1.961952e-01 -1.264796e-01 -2.829714e-01 -1.637133e-01 -5.745538e-02 -3.212428e-01 -1.863583e-01 2.164677e-02 3.869395e-02 3.792536e-02 -1.861702e-01 -3.217956e-01 -2.542712e-01 -2.055990e-01 -6.683255e-02 -2.058352e-01 -1.344780e-01 5.994961e-02 -4.269637e-01
<VARIANCE> 39
 1.473123e-01 3.555169e-01 2.913556e-01 4.506128e-01 4.681185e-01 9.630922e-01 6.527451e-01 1.183606e+00 7.559119e-01 6.454844e-01 8.950259e-01 1.030918e+00 3.533081e-01 3.458386e-01 4.909550e-01 6.297579e-01 7.070029e-01 6.249908e-01 7.160276e-01 6.175096e-01 6.688890e-01 5.487905e-01 6.230669e-01 6.041520e-01 7.317432e-01 7.651676e-01 5.350226e-01 5.510251e-01 7.236816e-01 6.701120e-01 6.356163e-01 6.630822e-01 6.484903e-01 5.879374e-01 5.579404e-01 6.636325e-01 5.259786e-01 6.974772e-01 5.258273e-01
<GCONST> 5.096426e+01
<MIXTURE> 13 6.432300e-02
<MEAN> 39
 7.100374e-01 -1.600961e+00 -1.536988e+00 -9.710608e-01 4.497489e-01 7.752432e-01 1.256555e+00 -5.488067e-01 1.046302e-01 9.288572e-01 -1.609301e+00 -2.133430e+00 1.539897e+00 -5.454929e-02 -1.228738e-01 -1.211856e-01 -1.222737e-01 -3.838669e-02 -8.906519e-02 -1.740815e-01 -4.389711e-02 -2.047686e-01 -1.204007e-01 -1.334312e-01 -1.832224e-01 -9.328875e-02 2.793349e-02 2.506691e-02 -6.253231e-02 -4.590760e-02 -1.701815e-01 -3.013102e-01 -2.416111e-01 1.409908e-02 -1.049759e-01 -6.480397e-02 -7.631913e-03 -6.942602e-02 -2.366396e-01
<VARIANCE> 39
 1.363693e-01 2.353654e-01 2.837661e-01 4.972328e-01 4.758591e-01 1.006152e+00 5.738216e-01 1.238246e+00 6.786225e-01 5.461269e-01 8.099169e-01 9.205100e-01 1.781827e-01 1.211209e-01 1.916268e-01 2.424607e-01 2.562559e-01 2.748098e-01 4.000330e-01 3.414899e-01 4.310469e-01 3.608578e-01 3.713998e-01 3.962219e-01 3.979336e-01 1.113349e-01 1.722408e-01 1.910157e-01 2.417296e-01 2.400130e-01 2.799076e-01 3.450998e-01 3.239894e-01 3.345611e-01 2.987809e-01 3.324625e-01 3.260262e-01 3.797980e-01 1.177693e-01
<GCONST> 2.811509e+01
<MIXTURE> 14 5.864105e-02
<MEAN> 39
 1.047497e+00 -1.072060e+00 -1.811698e+00 -9.090529e-01 8.863584e-01 -1.663154e+00 1.125440e-03 1.588976e+00 -7.497396e-01 1.673687e+00 -1.720892e+00 -2.019820e+00 1.533200e+00 -1.724977e-01 -9.644323e-02 -8.232065e-02 -1.181667e-01 -1.658084e-01 -2.328137e-01 -2.016725e-01 -1.685070e-01 -1.721210e-01 -2.573459e-01 -2.217209e-01 -8.909533e-02 -7.449482e-02 -1.422784e-01 -1.762718e-01 3.196592e-01 1.142440e-01 -6.460669e-01 2.851180e-01 -3.532926e-01 -5.475410e-01 -6.934363e-02 -3.211657e-01 2.432652e-01 1.035603e-01 -2.137104e-01
<VARIANCE> 39
 7.883137e-02 2.249363e-01 3.853564e-01 3.740074e-01 3.739666e-01 7.243673e-01 7.733536e-01 8.985025e-01 4.652799e-01 6.050234e-01 9.395462e-01 9.571546e-01 1.037644e-01 2.010182e-01 2.981256e-01 7.377463e-01 8.187057e-01 7.603388e-01 8.929296e-01 8.381208e-01 9.055037e-01 6.344184e-01 6.090744e-01 6.999135e-01 7.275171e-01 1.640548e-01 2.710305e-01 3.287936e-01 6.111545e-01 6.200868e-01 5.642107e-01 6.268669e-01 7.290288e-01 6.775596e-01 5.371211e-01 5.388827e-01 4.952852e-01 5.386787e-01 2.335399e-01
<GCONST> 4.383482e+01
<MIXTURE> 15 4.072422e-02
<MEAN> 39
 6.238042e-01 -1.507030e+00 -7.154673e-01 -2.763711e-01 -5.947939e-01 -1.197675e+00 -1.803123e-01 1.014854e+00 6.406332e-01 4.501306e-01 -9.843997e-01 -9.193990e-01 1.471782e+00 -9.731144e-03 4.265556e-01 2.694865e-01 3.290255e-01 -1.989256e-01 -6.494732e-01 -7.868034e-01 -5.527291e-01 -6.273184e-01 -2.740930e-01 2.970893e-01 3.365717e-01 -7.571082e-01 -2.017477e-01 6.251485e-01 -7.797515e-02 1.831727e-01 3.868105e-01 4.809588e-03 -8.974084e-02 -7.753277e-01 -8.612423e-01 -2.427651e-01 -2.577354e-01 -1.903078e-02 -1.285086e+00
<VARIANCE> 39
 1.787121e-01 3.922846e-01 5.173771e-01 4.854034e-01 6.251892e-01 1.070905e+00 8.823032e-01 1.659843e+00 1.126234e+00 8.127477e-01 9.041032e-01 1.129319e+00 2.131147e-01 4.522290e-01 5.551382e-01 9.148217e-01 7.435835e-01 8.309096e-01 9.493803e-01 9.785722e-01 1.028334e+00 7.997088e-01 7.780466e-01 9.800618e-01 8.676201e-01 4.255043e-01 8.525937e-01 6.571779e-01 7.970967e-01 7.344584e-01 7.106947e-01 9.199170e-01 9.283597e-01 9.579045e-01 7.079521e-01 7.425503e-01 7.674343e-01 7.578728e-01 8.140373e-01
<GCONST> 5.946729e+01
<MIXTURE> 16 3.645915e-02
<MEAN> 39
 2.216099e-01 -5.655869e-01 6.625342e-01 2.699615e-01 -1.072623e+00 -1.427077e+00 -6.141092e-01 2.727049e-01 -5.538797e-01 -5.511119e-01 -3.906021e-01 5.827903e-01 8.410119e-01 -2.981147e-01 1.515765e-01 2.416275e-01 -2.120808e-02 -1.538013e-01 -6.310067e-02 -4.148407e-01 -5.709528e-01 -6.100620e-01 -3.900296e-01 -1.529370e-02 6.149828e-03 -4.398035e-01 -1.935349e-01 1.611756e-01 -4.424567e-01 1.755261e-02 4.334480e-01 1.080253e-01 9.109661e-03 -3.597673e-01 -3.037252e-01 -8.218226e-02 -4.706105e-01 -5.898429e-01 -8.192323e-01
<VARIANCE> 39
 4.152664e-01 6.691500e-01 1.030231e+00 6.340569e-01 9.020782e-01 1.196218e+00 9.057274e-01 1.290748e+00 1.305066e+00 8.141496e-01 9.754776e-01 1.091483e+00 8.102522e-01 4.843036e-01 6.282316e-01 1.017757e+00 9.191476e-01 6.908598e-01 8.747661e-01 8.533612e-01 9.018127e-01 8.662379e-01 8.389360e-01 7.381285e-01 8.451499e-01 7.017283e-01 6.200145e-01 6.102586e-01 8.953950e-01 6.893348e-01 7.774242e-01 8.629884e-01 8.337227e-01 8.747076e-01 6.961296e-01 7.740739e-01 6.580999e-01 7.799360e-01 8.602855e-01
<GCONST> 6.334363e+01
<TRANSP> 7
 0.000000e+00 1.000000e+00 0.000000e+00 0.000000e+00 0.000000e+00 0.000000e+00 0.000000e+00
 0.000000e+00 7.587575e-01 2.412425e-01 0.000000e+00 0.000000e+00 0.000000e+00 0.000000e+00
 0.000000e+00 0.000000e+00 3.989436e-01 6.010564e-01 0.000000e+00 0.000000e+00 0.000000e+00
 0.000000e+00 0.000000e+00 0.000000e+00 5.430911e-01 4.569089e-01 0.000000e+00 0.000000e+00
 0.000000e+00 0.000000e+00 0.000000e+00 0.000000e+00 6.916125e-01 3.083874e-01 0.000000e+00
 0.000000e+00 0.000000e+00 0.000000e+00 0.000000e+00 0.000000e+00 8.515779e-01 1.484221e-01
 0.000000e+00 0.000000e+00 0.000000e+00 0.000000e+00 0.000000e+00 0.000000e+00 0.000000e+00
<ENDHMM>
~h "b"
<BEGINHMM>
<NUMSTATES> 7
<STATE> 2
<NUMMIXES> 16
<MIXTURE> 1 6.059535e-02
<MEAN> 39
 8.005760e-01 5.556903e-02 1.003390e+00 1.473126e+00 2.177462e-01 -6.078502e-01 -4.660030e-01 3.128114e-01 -7.718107e-01 -9.618032e-01 -3.307886e-01 5.227785e-01 2.100996e-01 -6.637726e-01 1.485463e+00 -6.835726e-01 -1.733410e-01 1.882944e+00 2.227724e+00 1.159949e+00 -6.130322e-01 2.852257e-01 1.078250e+00 4.084194e-01 -3.154925e-01 -2.732196e+00 -1.132437e+00 5.993909e-01 1.164200e+00 2.863391e-01 3.223322e-01 7.294727e-01 7.484533e-01 1.318044e-01 1.788264e-01 3.135041e-01 -1.199417e-02 2.548594e-01 -8.920424e-02
<VARIANCE> 39
 1.453249e-01 2.632953e-01 4.768801e-01 2.944098e-01 2.986416e-01 5.282155e-01 6.724641e-01 6.964307e-01 5.084410e-01 5.420329e-01 6.431675e-01 7.613083e-01 1.219329e-01 5.771939e-01 6.708088e-01 1.544469e+00 1.389084e+00 1.354533e+00 1.478699e+00 1.074931e+00 1.294572e+00 1.252830e+00 1.326393e+00 1.103759e+00 1.373288e+00 9.195873e-01 1.064384e+00 7.671843e-01 1.224079e+00 9.265508e-01 1.023798e+00 1.159620e+00 1.255181e+00 1.182161e+00 1.071599e+00 1.060310e+00 9.360421e-01 1.185688e+00 9.491734e-01
<GCONST> 6.208691e+01
<MIXTURE> 2 6.197825e-02
<MEAN> 39
 -2.329725e-01 4.855301e-01 -2.966990e-01 -5.516878e-02 3.510950e-01 1.137908e-01 8.459060e-02 -1.130158e-01 1.077004e-01 5.918191e-01 2.830502e-01 7.087810e-02 -1.053080e+00 4.792678e-01 9.212977e-01 7.175664e-01 5.978732e-01 6.025742e-01 5.565600e-01 5.092814e-01 2.016652e-01 -1.320564e-01 1.850758e-01 1.812981e-01 1.978227e-02 -5.912571e-02 6.991496e-01 3.890836e-01 8.247174e-01 8.066284e-01 5.671445e-01 4.968438e-01 4.129995e-01 2.907299e-01 1.896183e-01 -2.521454e-01 -2.099346e-01 3.476711e-02 6.747186e-01
<VARIANCE> 39
 2.660946e-01 3.154292e-01 3.501303e-01 3.623307e-01 3.398053e-01 5.470340e-01 4.363421e-01 4.894262e-01 5.628635e-01 6.460173e-01 8.017755e-01 9.098432e-01 3.202721e-01 7.248757e-01 9.695936e-01 8.844885e-01 8.825997e-01 8.194492e-01 8.753588e-01 1.041395e+00 1.187769e+00 1.186844e+00 1.413874e+00 1.020972e+00 1.162321e+00 8.182667e-01 1.153551e+00 9.343852e-01 1.275955e+00 9.656916e-01 7.726312e-01 9.387696e-01 8.935984e-01 1.058203e+00 1.094837e+00 1.408260e+00 8.825536e-01 1.205423e+00 9.168317e-01
<GCONST> 6.152580e+01
<MIXTURE> 3 5.349730e-02
<MEAN> 39
 1.165151e+00 -9.834546e-01 -1.282369e+00 -5.086040e-01 3.662428e-01 -6.488502e-01 2.958179e-01 9.754816e-01 2.019241e-01 1.847213e+00 -1.152561e-01 -1.320750e+00 1.670537e+00 9.063364e-01 8.121668e-01 5.034741e-01 5.364625e-01 3.412722e-02 -9.504154e-02 -9.988454e-01 -7.507138e-01 -7.749875e-01 5.058671e-01 1.788169e+00 8.918214e-01 -8.012956e-01 -4.915719e-02 6.898327e-01 6.187921e-01 6.175174e-01 5.526043e-01 9.094925e-01 7.112821e-02 -4.755627e-01 -4.511541e-01 -5.871417e-01 3.584001e-01 7.273690e-01 -1.486468e+00
<VARIANCE> 39
 9.911940e-02 2.983527e-01 3.809984e-01 4.737028e-01 3.909528e-01 1.149050e+00 8.917336e-01 1.784120e+00 1.446196e+00 5.768809e-01 1.008050e+00 1.469497e+00 8.691036e-02 1.346575e-01 2.602449e-01 4.359623e-01 3.425081e-01 5.017039e-01 8.102452e-01 5.326560e-01 6.912404e-01 5.931495e-01 7.602281e-01 7.847624e-01 8.313460e-01 2.347841e-01 5.966544e-01 4.072281e-01 5.147246e-01 5.133721e-01 4.396761e-01 7.212872e-01 8.260466e-01 7.494502e-01 6.458330e-01 7.207904e-01 7.824595e-01 7.172984e-01 7.751619e-01
<GCONST> 4.808189e+01
<MIXTURE> 4 5.643935e-02
<MEAN> 39
 1.342123e+00 -1.989626e-02 -8.103623e-01 1.660399e-02 5.734136e-01 -6.489168e-02 -2.965144e-01 -5.082194e-01 -8.704932e-01 1.174713e+00 9.359245e-01 -1.381523e-01 5.750996e-01 -1.319276e+00 1.465390e+00 1.919968e+00 2.016993e+00 1.494687e+00 1.827015e+00 6.136211e-01 -4.116970e-01 -5.175657e-01 -1.922347e+00 -3.433943e-01 1.302764e+00 -3.152038e+00 -1.529381e+00 -5.199699e-02 8.926501e-01 7.444658e-01 6.397895e-01 5.794420e-01 1.133897e+00 1.063495e+00 8.046194e-01 -5.183609e-01 -1.128415e+00 -5.160883e-03 -2.916928e-01
<VARIANCE> 39
 1.266661e-01 3.090639e-01 2.838824e-01 5.108446e-01 3.145359e-01 5.438591e-01 6.627377e-01 7.657781e-01 1.094919e+00 5.460736e-01 7.115999e-01 9.572855e-01 1.472490e-01 6.826406e-01 8.811832e-01 1.193701e+00 1.665543e+00 9.140318e-01 1.459339e+00 1.395599e+00 1.820933e+00 1.549047e+00 9.301507e-01 1.019924e+00 1.534625e+00 1.081084e+00 7.754668e-01 5.981508e-01 1.024265e+00 7.292274e-01 7.638649e-01 8.786240e-01 9.128549e-01 9.548571e-01 1.249916e+00 1.221114e+00 1.076767e+00 1.308099e+00 1.008553e+00
<GCONST> 6.271679e+01
<MIXTURE> 5 1.037255e-01
<MEAN> 39
 8.749261e-01 5.866669e-01 -4.165019e-01 1.748819e-01 7.419411e-01 8.761814e-01 6.546558e-01 2.067266e-02 -4.963469e-01 3.987026e-02 3.554668e-02 -1.067860e-01 1.141349e-01 -1.598427e-01 3.417596e-01 5.142779e-01 6.267816e-01 7.099158e-01 3.358027e-01 7.722390e-02 7.418112e-02 1.628269e-01 -2.325916e-02 2.295397e-01 3.522037e-01 -4.150424e-01 -8.014295e-02 1.678654e-01 4.846296e-01 1.183961e-01 -1.892447e-06 -1.187220e-02 1.885758e-01 3.510813e-01 3.450930e-01 3.492136e-01 2.505832e-01 2.991468e-01 1.051862e-01
<VARIANCE> 39
 4.977489e-01 6.651627e-01 7.779342e-01 1.109762e+00 1.036568e+00 6.521785e-01 8.280513e-01 1.078566e+00 1.190072e+00 8.033363e-01 9.000059e-01 9.772512e-01 3.224978e-01 1.364089e+00 1.069309e+00 1.740944e+00 1.769579e+00 1.461862e+00 9.651072e-01 1.269294e+00 1.239249e+00 1.224996e+00 1.581846e+00 1.023004e+00 1.503601e+00 1.792697e+00 1.446851e+00 1.078066e+00 1.771811e+00 1.117060e+00 1.198967e+00 8.981531e-01 1.191200e+00 1.256940e+00 1.131476e+00 1.335300e+00 8.549932e-01 1.332595e+00 1.145385e+00
<GCONST> 7.487481e+01
<MIXTURE> 6 6.259325e-02
<MEAN> 39
 1.027032e+00 -4.374681e-01 1.005072e+00 1.180451e+00 -1.617323e-01 -1.815851e+00 -1.239388e+00 8.874025e-01 -6.627303e-01 -3.147686e-01 -4.745550e-01 5.587982e-01 1.066540e+00 2.865474e-01 8.386662e-01 -3.955943e-01 7.116937e-01 1.443307e+00 1.429464e+00 4.211784e-01 -4.839545e-01 -1.181991e-02 -6.635544e-02 2.434053e-01 -4.081183e-01 -1.921456e+00 -1.083479e+00 9.478644e-01 -1.361553e-02 -1.565334e-01 8.403435e-01 1.817720e+00 1.372200e+00 -2.358465e-01 3.641846e-01 5.717373e-01 2.343779e-01 3.040183e-02 -1.689929e+00
<VARIANCE> 39
 1.509997e-01 2.882029e-01 6.494114e-01 4.802298e-01 6.045432e-01 5.495431e-01 5.919834e-01 7.337422e-01 1.242887e+00 1.047424e+00 8.588348e-01 1.117140e+00 1.639597e-01 5.733703e-01 6.041728e-01 1.490021e+00 8.772249e-01 1.093367e+00 1.489416e+00 1.396807e+00 1.130088e+00 1.190127e+00 1.319084e+00 8.109571e-01 9.640813e-01 1.381160e+00 9.948569e-01 5.496027e-01 1.315011e+00 8.557049e-01 1.241257e+00 1.013539e+00 1.078178e+00 1.169767e+00 1.002473e+00 1.273383e+00 7.086042e-01 1.061674e+00 7.942539e-01
<GCONST> 6.424060e+01
<MIXTURE> 7 5.396860e-02
<MEAN> 39
 9.036405e-01 -7.050492e-01 -1.582818e+00 -5.491931e-01 3.076425e-01 2.813292e-01 6.200759e-01 1.122867e-01 1.029113e+00 1.781461e+00 3.574893e-02 -1.814430e+00 8.359082e-01 3.635716e-02 3.214728e-01 -4.334989e-02 3.173947e-02 1.316011e-01 -2.060804e-01 2.717037e-02 4.455672e-01 3.521733e-01 3.514133e-01 2.449491e-01 1.473358e-01 -3.406701e-01 -2.163583e-02 7.040036e-01 8.948886e-01 6.220571e-01 4.148643e-01 3.313633e-01 9.641815e-02 9.348720e-03 -3.386846e-01 -2.656782e-01 3.163732e-01 7.792416e-01 -4.868233e-01
<VARIANCE> 39
 1.714396e-01 3.468234e-01 4.721857e-01 4.640870e-01 4.168668e-01 1.608710e+00 1.012650e+00 1.271096e+00 7.172005e-01 6.371512e-01 1.534871e+00 1.248352e+00 5.610753e-01 6.462011e-01 1.030005e+00 1.181343e+00 9.078219e-01 8.653127e-01 1.113093e+00 8.611411e-01 1.065817e+00 9.655454e-01 1.295890e+00 1.287728e+00 1.333336e+00 9.385632e-01 8.367499e-01 1.071373e+00 1.130746e+00 7.777753e-01 8.196657e-01 8.015642e-01 9.152414e-01 8.660333e-01 1.091414e+00 1.083127e+00 1.015308e+00 9.288639e-01 1.459735e+00
<GCONST> 6.631646e+01
<MIXTURE> 8 4.720284e-02
<MEAN> 39
 1.386962e+00 -7.172492e-01 -1.024122e+00 -2.989672e-01 1.817618e-01 -4.665892e-01 -1.609091e-01 1.714768e-02 -2.935115e-02 1.695212e+00 7.868295e-01 -8.486664e-01 1.315079e+00 1.540560e-01 1.532297e+00 1.036174e+00 1.178224e+00 7.811065e-01 8.889810e-01 -5.512707e-01 -1.109671e+00 -1.177993e+00 -4.444320e-01 1.366872e+00 1.402893e+00 -2.475198e+00 -2.124102e+00 7.551588e-01 1.205035e+00 1.256964e+00 1.336845e+00 1.506138e+00 1.281739e+00 4.643775e-01 9.550064e-02 -1.441527e+00 -1.271062e+00 6.215491e-01 -2.259901e+00
<VARIANCE> 39
 8.724446e-02 2.776519e-01 3.563378e-01 5.239976e-01 4.380718e-01 8.200225e-01 9.187241e-01 1.350138e+00 1.410398e+00 5.251139e-01 6.472202e-01 8.539845e-01 9.921820e-02 4.725479e-01 4.825944e-01 7.453469e-01 7.251021e-01 7.493964e-01 1.214200e+00 9.433293e-01 1.176851e+00 1.005814e+00 1.045896e+00 9.489349e-01 1.192234e+00 8.133002e-01 6.501610e-01 5.495261e-01 7.436847e-01 7.845561e-01 6.706908e-01 9.670082e-01 1.037130e+00 1.280795e+00 1.119447e+00 8.789645e-01 8.148633e-01 1.010200e+00 5.853290e-01
<GCONST> 5.768724e+01
<MIXTURE> 9 1.037255e-01
<MEAN> 39
 5.927207e-01 2.604369e-01 -7.693042e-01 -2.464991e-01 3.346931e-01 5.531510e-01 2.906665e-01 -3.947434e-01 -9.327086e-01 -3.186459e-01 -3.439279e-01 -5.022100e-01 -1.130207e-01 -6.270195e-01 -7.187000e-02 -1.350138e-02 9.467945e-02 2.262858e-01 -5.715674e-02 -3.734279e-01 -3.711051e-01 -2.798913e-01 -5.263450e-01 -1.750350e-01 -1.382819e-01 -9.506090e-01 -5.612835e-01 -2.474545e-01 -4.780798e-02 -3.043682e-01 -4.379913e-01 -3.909560e-01 -2.479927e-01 -9.737207e-02 -8.039053e-02 -1.130072e-01 -1.192802e-01 -1.626055e-01 -3.229044e-01
<VARIANCE> 39
 4.977489e-01 6.651627e-01 7.779342e-01 1.109762e+00 1.036568e+00 6.521785e-01 8.280513e-01 1.078566e+00 1.190072e+00 8.033363e-01 9.000059e-01 9.772512e-01 3.224978e-01 1.364089e+00 1.069309e+00 1.740944e+00 1.769579e+00 1.461862e+00 9.651072e-01 1.269294e+00 1.239249e+00 1.224996e+00 1.581846e+00 1.023004e+00 1.503601e+00 1.792697e+00 1.446851e+00 1.078066e+00 1.771811e+00 1.117060e+00 1.198967e+00 8.981531e-01 1.191200e+00 1.256940e+00 1.131476e+00 1.335300e+00 8.549932e-01 1.332595e+00 1.145385e+00
<GCONST> 7.487481e+01
<MIXTURE> 10 6.259325e-02
<MEAN> 39
 8.715971e-01 -6.522062e-01 6.827273e-01 9.032568e-01 -4.727419e-01 -2.112375e+00 -1.547150e+00 5.447675e-01 -1.108670e+00 -7.241436e-01 -8.452483e-01 1.360188e-01 9.045724e-01 -1.633744e-02 5.277520e-01 -8.838599e-01 3.370525e-01 1.025051e+00 9.412978e-01 -5.156799e-02 -9.091769e-01 -4.481917e-01 -5.257610e-01 -1.168073e-01 -8.008689e-01 -2.391546e+00 -1.482449e+00 6.513236e-01 -4.723113e-01 -5.265508e-01 3.946967e-01 1.415022e+00 9.568583e-01 -6.684695e-01 -3.630975e-02 1.203602e-01 -1.023366e-01 -3.817484e-01 -2.046413e+00
<VARIANCE> 39
