~o
<STREAMINFO> 1 39
<VECSIZE> 39<NULLD><USER><DIAGC>
~h "a"
<BEGINHMM>
<NUMSTATES> 7
<STATE> 2
<NUMMIXES> 4
<MIXTURE> 1 1.721228e-01
<MEAN> 39
 -4.300860e-01 4.733065e-01 1.365067e-02 7.063460e-01 7.333803e-01 -3.865504e-02 4.721224e-01 -3.233183e-01 -7.924778e-01 -4.777648e-02 -5.211449e-01 2.983387e-01 2.176915e-01 1.326566e+00 7.553872e-02 4.938413e-01 3.141445e-01 -8.557163e-02 -3.521147e-01 -9.257795e-02 3.258532e-01 2.386697e-01 6.440780e-02 -1.226534e-01 1.587380e-02 1.551036e+00 1.038567e+00 -4.395066e-01 2.247122e-02 -3.544793e-01 -5.239202e-01 -3.010467e-01 -1.580819e-01 4.245205e-01 5.303154e-01 3.677016e-01 1.490061e-01 -4.301430e-02 5.961383e-01
<VARIANCE> 39
 6.693833e-01 8.430989e-01 9.247254e-01 5.722755e-01 6.470468e-01 8.602824e-01 9.075773e-01 8.864645e-01 6.378615e-01 6.351855e-01 7.744479e-01 8.967646e-01 5.622777e-01 2.343461e+00 1.486849e+00 1.808647e+00 1.766734e+00 1.595425e+00 1.604245e+00 1.507168e+00 1.491083e+00 1.359072e+00 1.412986e+00 1.337794e+00 1.435074e+00 2.420284e+00 1.949657e+00 1.599590e+00 1.858957e+00 1.477169e+00 1.450558e+00 1.600493e+00 1.654267e+00 1.695901e+00 1.474919e+00 1.501306e+00 1.276899e+00 1.519117e+00 2.365038e+00
<GCONST> 8.050948e+01
<MIXTURE> 2 3.137659e-01
<MEAN> 39
 -5.659507e-01 -1.424781e-01 -4.093938e-01 -2.743352e-02 5.477857e-01 1.468869e-01 1.397881e-01 -2.229014e-01 -3.092621e-01 3.127727e-01 -1.488769e-01 3.318860e-01 -7.222589e-01 4.950016e-02 1.299219e-02 9.127998e-02 1.431366e-01 1.274825e-01 1.208812e-01 1.390909e-01 1.809255e-01 1.562181e-01 1.389864e-01 1.236294e-01 9.886306e-02 9.201609e-02 1.264164e-01 3.230356e-02 1.400177e-01 1.159058e-01 9.154499e-02 7.403056e-02 1.099332e-01 1.309198e-01 6.827079e-02 1.548268e-02 5.081210e-02 5.861622e-02 1.969561e-01
<VARIANCE> 39
 6.792305e-01 7.348819e-01 8.120198e-01 6.592855e-01 7.471042e-01 8.661420e-01 8.525503e-01 1.262856e+00 8.877486e-01 8.542569e-01 1.240236e+00 1.911731e+00 1.240560e+00 2.582669e-01 5.578282e-01 6.253342e-01 6.762082e-01 6.450915e-01 8.053201e-01 7.875587e-01 8.673376e-01 7.984278e-01 8.297058e-01 8.619083e-01 9.765781e-01 4.901249e-01 4.832178e-01 7.003937e-01 8.381404e-01 7.554049e-01 8.297281e-01 8.902149e-01 9.381597e-01 9.698694e-01 8.994757e-01 9.435918e-01 9.682390e-01 1.053635e+00 6.548695e-01
<GCONST> 6.316183e+01
<MIXTURE> 3 3.173023e-01
<MEAN> 39
 -6.735555e-01 -2.874250e-01 -5.046306e-01 -9.637922e-02 4.694703e-01 2.124854e-02 4.427524e-02 -1.933887e-01 -1.658137e-01 4.384231e-01 -2.028792e-01 2.707002e-01 -1.056037e+00 -4.818884e-02 -9.025960e-02 -1.258100e-01 -1.066912e-01 -9.106784e-02 -1.267575e-01 -1.129213e-01 -1.277393e-01 -1.020902e-01 -8.277372e-02 -1.515826e-01 -1.349660e-01 -3.413768e-02 -3.581683e-02 -4.054950e-02 -5.018254e-02 -5.262597e-02 -5.240353e-02 -4.944381e-02 -4.285871e-02 -7.707872e-02 -1.233735e-01 -1.061498e-01 -1.045203e-01 -6.077279e-02 8.772619e-03
<VARIANCE> 39
 4.582791e-01 5.578343e-01 5.729529e-01 6.030320e-01 6.429406e-01 7.553663e-01 7.146320e-01 1.091866e+00 7.520258e-01 7.236806e-01 1.202184e+00 1.865673e+00 9.307526e-01 2.243687e-01 5.609615e-01 6.128725e-01 6.872969e-01 6.552494e-01 7.782135e-01 7.599039e-01 8.706149e-01 8.118455e-01 8.502405e-01 8.747095e-01 1.021788e+00 4.909156e-01 4.393903e-01 6.891525e-01 8.230810e-01 7.714942e-01 8.688465e-01 9.287708e-01 9.521680e-01 9.802677e-01 9.426991e-01 9.867436e-01 9.744920e-01 1.094327e+00 6.360588e-01
<GCONST> 6.079676e+01
<MIXTURE> 4 1.967865e-01
<MEAN> 39
 -3.345835e-01 4.497440e-01 1.675968e-01 7.300346e-01 6.667668e-01 -1.453848e-01 2.886086e-01 -3.654637e-01 -7.932578e-01 -7.608458e-02 -6.849495e-01 1.043559e-01 1.752003e-01 1.041246e+00 -2.298875e-01 1.528163e-01 -1.303679e-01 -4.775947e-01 -7.110290e-01 -4.812048e-01 1.125041e-02 1.176426e-02 -1.444595e-01 -2.818780e-01 -1.649016e-01 1.134613e+00 6.756294e-01 -6.214746e-01 -2.857569e-01 -5.268638e-01 -6.519501e-01 -4.537407e-01 -2.849351e-01 3.387745e-01 3.712381e-01 2.933743e-01 9.717533e-02 -5.275668e-02 4.051824e-01
<VARIANCE> 39
 7.233446e-01 9.946564e-01 1.113288e+00 6.416395e-01 6.689493e-01 9.228920e-01 1.115388e+00 9.474256e-01 7.714181e-01 7.373601e-01 7.940770e-01 1.044262e+00 6.623767e-01 2.462586e+00 1.515592e+00 1.951112e+00 1.708407e+00 1.419144e+00 1.637716e+00 1.491589e+00 1.583091e+00 1.480658e+00 1.545627e+00 1.344609e+00 1.443887e+00 1.868681e+00 2.030540e+00 1.748186e+00 1.782865e+00 1.410836e+00 1.344576e+00 1.577867e+00 1.606207e+00 1.678216e+00 1.426472e+00 1.438360e+00 1.252763e+00 1.453915e+00 2.168177e+00
<GCONST> 8.178651e+01
<STATE> 3
<NUMMIXES> 4
<MIXTURE> 1 1.572303e-01
<MEAN> 39
 6.689545e-01 9.542719e-03 -2.399434e-01 7.368374e-01 9.937450e-01 2.910850e-01 4.358734e-01 6.414092e-02 -7.987115e-01 2.404514e-01 -2.988389e-01 5.293822e-02 5.728415e-01 2.205289e+00 -4.861382e-01 -6.623880e-01 -4.764733e-01 -1.686337e-01 -1.385438e-01 3.917133e-01 1.068654e+00 7.885317e-01 1.262954e+00 1.178914e-01 -7.411228e-01 2.997872e+00 -4.024146e-01 -8.305692e-01 -1.055341e+00 -1.228874e+00 -7.974066e-01 -3.204589e-01 -1.291197e-01 1.497537e-02 4.178394e-01 8.027114e-01 4.029311e-01 -2.534249e-01 -5.037381e-01
<VARIANCE> 39
 2.149033e-01 3.100527e-01 3.128200e-01 3.400372e-01 3.605567e-01 4.996686e-01 5.435790e-01 9.225826e-01 6.010652e-01 5.423948e-01 6.913924e-01 8.456173e-01 4.123809e-01 9.898695e-01 1.130688e+00 1.545940e+00 1.836489e+00 1.384669e+00 1.466232e+00 1.638043e+00 1.832225e+00 1.681828e+00 1.673068e+00 1.615792e+00 1.562325e+00 2.278615e+00 1.995474e+00 1.310966e+00 1.550225e+00 1.364910e+00 1.341393e+00 1.414004e+00 1.532080e+00 1.906243e+00 1.506490e+00 1.433610e+00 1.433501e+00 1.474421e+00 3.898710e+00
<GCONST> 7.382986e+01
<MIXTURE> 2 3.393210e-01
<MEAN> 39
 4.499579e-01 -1.139338e-02 6.034396e-01 6.488974e-01 -1.750929e-01 -8.716381e-01 -3.552400e-01 -9.559746e-02 -5.210401e-01 -7.938661e-02 -6.344160e-01 1.834385e-01 9.316849e-01 1.160825e+00 -1.119857e+00 1.190714e-01 -4.807756e-01 -1.148312e+00 -7.994895e-01 -4.804536e-01 7.733350e-01 9.079221e-01 3.303279e-01 2.863761e-01 3.780417e-01 1.448875e+00 -7.974471e-01 -4.566531e-01 -5.820444e-01 -3.907876e-01 5.813120e-02 5.184742e-01 4.858651e-01 4.127100e-01 3.247160e-01 2.787090e-01 1.013413e-01 1.353987e-02 1.124973e-02
<VARIANCE> 39
 3.264181e-01 6.527361e-01 1.292202e+00 7.119404e-01 6.085897e-01 8.957968e-01 9.564691e-01 1.030443e+00 9.190937e-01 1.031130e+00 8.393511e-01 1.160119e+00 3.382496e-01 1.833275e+00 1.216154e+00 1.971279e+00 1.440195e+00 1.389623e+00 1.518495e+00 1.521618e+00 1.698935e+00 1.671280e+00 1.444827e+00 1.273093e+00 1.270795e+00 9.768413e-01 1.499063e+00 1.142556e+00 1.352098e+00 8.644567e-01 9.726845e-01 1.059140e+00 1.009158e+00 1.201126e+00 1.016134e+00 9.864969e-01 8.732417e-01 9.945869e-01 7.257316e-01
<GCONST> 7.360032e+01
<MIXTURE> 3 3.272854e-01
<MEAN> 39
 4.138304e-01 5.800608e-02 7.055434e-01 7.349616e-01 -1.565768e-01 -1.025449e+00 -3.981943e-01 -8.699822e-02 -5.908536e-01 -6.634788e-02 -7.345127e-01 2.299809e-01 8.708145e-01 1.183701e+00 -1.295529e+00 7.996222e-02 -5.696421e-01 -1.222682e+00 -9.478991e-01 -7.831917e-01 6.194187e-01 5.999551e-01 2.265640e-01 7.113042e-02 1.378383e-01 1.273756e+00 -1.056302e+00 -4.628874e-01 -8.281450e-01 -5.094297e-01 -1.447073e-02 4.552810e-01 4.017808e-01 3.077208e-01 1.710178e-01 1.926468e-01 1.083501e-03 -1.090531e-01 -1.928367e-01
<VARIANCE> 39
 3.231389e-01 6.589664e-01 1.268189e+00 6.893169e-01 5.864170e-01 9.029430e-01 8.988659e-01 9.630083e-01 9.534760e-01 1.038009e+00 8.014286e-01 1.219617e+00 4.752361e-01 1.790441e+00 1.361151e+00 1.881395e+00 1.367067e+00 1.300742e+00 1.457846e+00 1.532598e+00 1.577917e+00 1.535480e+00 1.482453e+00 1.148274e+00 1.145292e+00 9.304693e-01 1.688732e+00 1.287052e+00 1.427774e+00 9.351854e-01 9.630718e-01 1.016543e+00 1.007536e+00 1.154244e+00 9.561222e-01 9.763173e-01 8.475621e-01 1.012182e+00 7.232669e-01
<GCONST> 7.347067e+01
<MIXTURE> 4 1.761715e-01
<MEAN> 39
 7.245611e-01 -5.920268e-02 -4.136100e-01 5.696617e-01 8.963346e-01 1.428647e-01 3.414173e-01 -1.516677e-02 -6.515183e-01 3.255776e-01 -4.057949e-01 -3.383615e-01 5.511835e-01 1.881966e+00 -9.356407e-01 -1.145291e+00 -1.152992e+00 -7.294732e-01 -5.798650e-01 1.338316e-02 5.988752e-01 6.370270e-01 1.150819e+00 -1.101521e-01 -1.189599e+00 2.446661e+00 -8.974226e-01 -9.447387e-01 -9.580256e-01 -1.163327e+00 -7.913555e-01 -4.034323e-01 -1.685414e-01 -9.260058e-02 2.913620e-01 6.129430e-01 1.724801e-01 -1.985050e-01 -4.721672e-01
<VARIANCE> 39
 2.916152e-01 4.077008e-01 4.239535e-01 3.947455e-01 3.781759e-01 5.506245e-01 6.388131e-01 1.029048e+00 7.576070e-01 6.176305e-01 7.317337e-01 1.016749e+00 5.371020e-01 1.265294e+00 1.202792e+00 1.592299e+00 1.546452e+00 1.239406e+00 1.405123e+00 1.613079e+00 1.803425e+00 1.916653e+00 1.808023e+00 1.739568e+00 1.666355e+00 1.912445e+00 2.510588e+00 1.424497e+00 1.525520e+00 1.270457e+00 1.290902e+00 1.328436e+00 1.372978e+00 1.889596e+00 1.418039e+00 1.374910e+00 1.317964e+00 1.509961e+00 3.378036e+00
<GCONST> 7.599567e+01
<STATE> 4
<NUMMIXES> 4
<MIXTURE> 1 2.614901e-01
<MEAN> 39
 6.580352e-01 -7.515243e-01 6.862618e-01 3.603781e-01 -1.010635e+00 -1.226401e+00 -6.599383e-01 6.073100e-01 2.474695e-01 3.777722e-02 -4.960631e-01 4.089411e-01 1.405941e+00 2.289209e-01 -1.124721e+00 -7.665793e-01 -8.207565e-01 -7.450575e-01 -2.067044e-01 3.306515e-01 1.152310e+00 1.124312e+00 4.253766e-01 5.576670e-02 4.651751e-02 1.205889e+00 -7.789119e-01 6.482620e-01 -2.549252e-01 2.512434e-01 1.046871e+00 6.111211e-01 5.860384e-01 -2.864965e-01 -5.630234e-01 -1.464529e-01 -2.997164e-01 -4.031627e-01 -9.602970e-01
<VARIANCE> 39
 1.844128e-01 3.857322e-01 7.015035e-01 4.609363e-01 4.634143e-01 7.310420e-01 8.381314e-01 1.042987e+00 1.350500e+00 7.366177e-01 9.577163e-01 1.242809e+00 1.839743e-01 5.306952e-01 7.608455e-01 1.624577e+00 8.624432e-01 9.439673e-01 1.015044e+00 1.180481e+00 1.447164e+00 1.291324e+00 9.994520e-01 1.006948e+00 1.051249e+00 6.551119e-01 1.015010e+00 6.833553e-01 1.156084e+00 7.759616e-01 8.611069e-01 9.338143e-01 9.708056e-01 1.018330e+00 9.708949e-01 8.949438e-01 8.613949e-01 8.951970e-01 6.181927e-01
<GCONST> 6.339099e+01
<MIXTURE> 2 2.441209e-01
<MEAN> 39
 1.066140e+00 -5.536482e-01 -1.046008e+00 -2.852130e-01 3.814765e-01 -1.920165e-01 2.247856e-01 -2.801508e-03 -4.369580e-01 1.306938e+00 -2.289221e-01 -8.187913e-01 1.065949e+00 4.880908e-01 -1.075007e+00 -8.872359e-01 -1.048547e+00 -3.745525e-01 -2.009234e-01 3.145455e-01 5.735843e-01 5.845350e-01 1.046539e+00 -1.277658e-01 -5.429332e-01 1.371574e+00 -1.369907e+00 2.553478e-01 5.985848e-01 5.160692e-01 4.314726e-01 3.599782e-01 2.397117e-01 6.124514e-02 -1.906765e-01 -7.006747e-01 -3.407139e-01 2.591683e-01 -8.709831e-01
<VARIANCE> 39
 3.228405e-01 5.139021e-01 4.660454e-01 5.810606e-01 5.239144e-01 1.128515e+00 9.935055e-01 1.322702e+00 1.094679e+00 8.608711e-01 1.387538e+00 1.334386e+00 4.694582e-01 9.936612e-01 1.180902e+00 1.324212e+00 1.482895e+00 8.961521e-01 1.405309e+00 1.274250e+00 1.775000e+00 1.727447e+00 1.526825e+00 1.338115e+00 1.295725e+00 1.285826e+00 1.500989e+00 9.375224e-01 1.232685e+00 1.105357e+00 8.970858e-01 1.090704e+00 1.129476e+00 1.144647e+00 1.148886e+00 1.268731e+00 1.164848e+00 1.175917e+00 1.351637e+00
<GCONST> 7.365451e+01
<MIXTURE> 3 2.595986e-01
<MEAN> 39
 6.451435e-01 -7.616591e-01 5.954800e-01 3.224383e-01 -9.939914e-01 -1.292688e+00 -6.236217e-01 6.640850e-01 2.865164e-01 7.948107e-02 -5.455503e-01 3.722171e-01 1.407345e+00 2.073881e-01 -1.277533e+00 -8.701807e-01 -9.217414e-01 -7.516448e-01 -2.749499e-01 2.155874e-01 1.050050e+00 9.690233e-01 3.483561e-01 -1.316285e-01 -2.152801e-01 1.110103e+00 -9.097016e-01 6.478748e-01 -3.483120e-01 2.320113e-01 1.042794e+00 5.793541e-01 5.566475e-01 -3.927072e-01 -6.812023e-01 -2.040947e-01 -3.865244e-01 -5.054845e-01 -1.096599e+00
<VARIANCE> 39
 1.802466e-01 3.834247e-01 7.060214e-01 4.278085e-01 4.555910e-01 7.652575e-01 8.254350e-01 9.869671e-01 1.487755e+00 7.389663e-01 9.093078e-01 1.251881e+00 1.878278e-01 5.467581e-01 8.171515e-01 1.568185e+00 8.372996e-01 1.002029e+00 1.008292e+00 1.246429e+00 1.340107e+00 1.219099e+00 9.951091e-01 1.002509e+00 1.058023e+00 6.228976e-01 1.149445e+00 7.381022e-01 1.257723e+00 7.951235e-01 8.490960e-01 9.137067e-01 9.867628e-01 9.870628e-01 1.012413e+00 8.826571e-01 8.605567e-01 9.280443e-01 6.426931e-01
<GCONST> 6.364621e+01
<MIXTURE> 4 2.347936e-01
<MEAN> 39
 1.066319e+00 -6.134660e-01 -1.114943e+00 -2.689655e-01 4.456239e-01 -2.322855e-01 2.901611e-01 2.425978e-01 -3.053928e-01 1.421261e+00 -2.479693e-01 -9.555856e-01 1.066798e+00 4.056225e-01 -1.251417e+00 -1.133236e+00 -1.285832e+00 -5.672924e-01 -4.225250e-01 1.232145e-01 4.031281e-01 3.310381e-01 9.086440e-01 -3.092757e-01 -9.564557e-01 1.326944e+00 -1.643104e+00 2.001507e-01 4.958988e-01 4.191921e-01 3.031216e-01 2.364716e-01 8.732113e-02 -1.643410e-01 -3.551910e-01 -9.115428e-01 -4.897297e-01 2.180710e-01 -1.155391e+00
<VARIANCE> 39
 3.616710e-01 4.576419e-01 4.637814e-01 5.182923e-01 4.735171e-01 1.095637e+00 9.647911e-01 1.286212e+00 1.048072e+00 8.559128e-01 1.379181e+00 1.312269e+00 6.400680e-01 9.823968e-01 1.139690e+00 1.314667e+00 1.459962e+00 9.281275e-01 1.341378e+00 1.246276e+00 1.724939e+00 1.527803e+00 1.433640e+00 1.250045e+00 1.301059e+00 1.192119e+00 1.634524e+00 1.000054e+00 1.300188e+00 1.083404e+00 9.479268e-01 1.098536e+00 1.128026e+00 1.241696e+00 1.177657e+00 1.290616e+00 1.211632e+00 1.232571e+00 1.447853e+00
<GCONST> 7.364787e+01
<STATE> 5
<NUMMIXES> 4
<MIXTURE> 1 2.566240e-01
<MEAN> 39
 5.922405e-01 -1.072312e+00 5.465063e-01 2.143748e-01 -1.277952e+00 -1.163073e+00 -3.134884e-01 1.163860e+00 7.185442e-01 -1.400224e-01 -4.353705e-01 3.665653e-01 1.651075e+00 -2.093943e-02 -1.568917e-01 -1.537509e-01 -3.602197e-02 9.297536e-02 3.999773e-02 1.335815e-01 2.131643e-01 6.927209e-02 2.503316e-02 -2.321032e-02 -8.543193e-02 1.730473e-01 2.074622e-02 3.508369e-01 1.344652e-01 1.920305e-01 3.300991e-01 3.858232e-02 -7.958869e-02 -2.665039e-01 -3.203889e-01 5.605257e-02 3.727064e-02 4.739452e-02 -4.008525e-01
<VARIANCE> 39
 1.545610e-01 3.262569e-01 5.362556e-01 3.920295e-01 3.180712e-01 7.115662e-01 8.576335e-01 1.025463e+00 1.498933e+00 5.482697e-01 8.566761e-01 1.129277e+00 1.651805e-01 2.447968e-01 3.764035e-01 8.158530e-01 4.446991e-01 4.726878e-01 5.307208e-01 6.338738e-01 6.231786e-01 5.493527e-01 5.113670e-01 6.913356e-01 7.647928e-01 1.989728e-01 3.085204e-01 3.700506e-01 5.048670e-01 4.137351e-01 4.892523e-01 5.119089e-01 5.422880e-01 5.557345e-01 5.131444e-01 4.478282e-01 5.076973e-01 5.201307e-01 3.150190e-01
<GCONST> 4.397744e+01
<MIXTURE> 2 2.466654e-01
<MEAN> 39
 8.591754e-01 -1.103604e+00 -9.756960e-01 -4.024835e-01 9.004568e-02 -7.428786e-01 2.160494e-01 8.407812e-01 1.528094e-01 1.256798e+00 -1.060335e+00 -9.575406e-01 1.402775e+00 -1.658328e-01 -3.907093e-01 -3.735916e-01 -3.212907e-01 2.727786e-01 1.708646e-01 4.341936e-01 5.341614e-01 1.262862e-01 -1.883130e-02 -4.295590e-01 -3.416268e-01 4.509095e-01 -1.606457e-01 6.614398e-01 6.258167e-01 5.013533e-01 1.816435e-01 2.180959e-01 -1.325617e-01 -2.813217e-01 -3.012186e-01 -4.618240e-01 2.765441e-01 3.279907e-01 -6.386515e-01
<VARIANCE> 39
 2.906262e-01 5.638869e-01 6.044848e-01 5.523612e-01 6.565272e-01 1.685536e+00 1.088853e+00 1.797535e+00 1.432596e+00 1.040118e+00 1.384292e+00 1.310387e+00 4.649587e-01 4.513082e-01 6.440101e-01 1.169567e+00 8.739992e-01 8.643258e-01 1.015868e+00 9.357083e-01 1.126823e+00 8.314613e-01 8.714948e-01 8.822869e-01 1.036259e+00 4.840495e-01 7.068211e-01 6.733328e-01 9.886951e-01 8.621120e-01 8.920985e-01 9.252608e-01 8.969262e-01 1.051414e+00 9.391196e-01 8.623965e-01 8.185921e-01 8.333627e-01 7.280962e-01
<GCONST> 6.528153e+01
<MIXTURE> 3 2.512138e-01
<MEAN> 39
 5.839353e-01 -1.106328e+00 5.333332e-01 1.832899e-01 -1.301103e+00 -1.178796e+00 -3.585087e-01 1.171872e+00 7.014822e-01 -1.623583e-01 -4.446349e-01 2.851968e-01 1.611089e+00 -1.162506e-02 -2.311246e-01 -2.609181e-01 -1.293823e-01 7.800110e-02 -2.823509e-03 1.394029e-01 1.600391e-01 2.641991e-03 -4.829366e-02 -1.847239e-01 -2.419309e-01 1.124845e-01 -9.055398e-03 3.497801e-01 8.257471e-02 1.816120e-01 3.313646e-01 -1.936029e-02 -1.138658e-01 -3.400883e-01 -3.995081e-01 2.048396e-02 -5.567396e-02 -5.430546e-02 -4.807768e-01
<VARIANCE> 39
 1.456667e-01 3.391016e-01 5.551447e-01 3.911262e-01 3.243038e-01 7.509674e-01 8.206216e-01 1.086797e+00 1.534700e+00 5.493695e-01 8.551534e-01 1.241133e+00 1.650515e-01 2.577885e-01 4.028163e-01 9.015486e-01 4.666042e-01 5.191237e-01 5.590372e-01 7.078714e-01 6.554968e-01 5.635367e-01 5.223644e-01 7.609915e-01 8.139046e-01 2.198948e-01 3.173210e-01 3.696098e-01 5.175796e-01 4.277253e-01 4.796031e-01 5.284606e-01 5.482360e-01 6.065386e-01 5.337156e-01 4.629267e-01 5.205569e-01 5.371552e-01 3.385135e-01
<GCONST> 4.546994e+01
<MIXTURE> 4 2.454934e-01
<MEAN> 39
 8.279677e-01 -1.156434e+00 -9.967170e-01 -4.572137e-01 7.887921e-02 -7.084796e-01 2.388926e-01 8.879137e-01 2.051117e-01 1.247388e+00 -1.110674e+00 -1.060745e+00 1.374937e+00 -1.964710e-01 -4.935786e-01 -5.553095e-01 -4.711849e-01 2.434766e-01 1.041839e-01 3.683498e-01 4.796952e-01 5.207703e-03 -1.177786e-01 -5.926797e-01 -5.731892e-01 4.296054e-01 -2.403790e-01 6.308237e-01 5.621048e-01 4.956182e-01 1.410201e-01 1.068943e-01 -2.282311e-01 -3.889757e-01 -3.881191e-01 -5.317726e-01 1.668288e-01 2.310366e-01 -7.609477e-01
<VARIANCE> 39
 2.985163e-01 5.004269e-01 5.711404e-01 4.948303e-01 6.463852e-01 1.624545e+00 1.029287e+00 1.767241e+00 1.383361e+00 1.024271e+00 1.299121e+00 1.346668e+00 5.661599e-01 4.397636e-01 6.422582e-01 1.154646e+00 8.460643e-01 8.858450e-01 9.874079e-01 9.511289e-01 1.155932e+00 8.170797e-01 8.432551e-01 8.852736e-01 1.045673e+00 5.289826e-01 6.897265e-01 6.651018e-01 9.565195e-01 8.389273e-01 8.484454e-01 9.110783e-01 8.745344e-01 1.070276e+00 9.656906e-01 8.847799e-01 8.142015e-01 8.589758e-01 7.506286e-01
<GCONST> 6.496046e+01
<STATE> 6
<NUMMIXES> 4
<MIXTURE> 1 2.535408e-01
<MEAN> 39
 8.289676e-01 -1.341377e+00 -5.384958e-01 -1.602163e-01 -3.253116e-01 -9.360095e-01 3.154700e-02 1.326920e+00 5.637485e-01 6.860280e-01 -1.198678e+00 -9.165064e-01 1.699268e+00 2.370805e-03 1.131176e-01 3.170836e-01 2.532675e-01 -1.058870e-01 -1.598268e-01 -1.853671e-01 3.907596e-02 -1.160581e-01 -8.484942e-02 2.586942e-01 2.864715e-01 -6.234575e-02 8.135733e-02 2.737597e-01 1.975803e-01 1.893771e-01 4.505603e-02 2.073228e-02 -1.085099e-01 -2.758414e-01 -1.762836e-01 7.012658e-02 2.219199e-01 2.012208e-01 -3.450618e-01
<VARIANCE> 39
 1.303290e-01 3.127428e-01 6.411517e-01 3.820245e-01 5.076672e-01 1.435838e+00 9.366620e-01 1.532413e+00 1.246788e+00 9.395810e-01 1.012549e+00 1.382255e+00 1.462512e-01 2.077046e-01 2.859795e-01 6.052406e-01 4.383509e-01 4.913391e-01 6.090332e-01 6.034276e-01 6.382233e-01 5.377402e-01 5.210970e-01 6.493849e-01 6.971014e-01 1.570142e-01 2.650161e-01 3.044778e-01 4.145611e-01 3.711996e-01 4.455049e-01 5.164227e-01 5.314783e-01 4.885052e-01 4.416133e-01 4.422307e-01 5.032772e-01 4.893675e-01 2.773877e-01
<GCONST> 4.393702e+01
<MIXTURE> 2 2.488628e-01
<MEAN> 39
 9.469975e-01 -1.077767e+00 -1.706739e+00 -9.152813e-01 8.770497e-01 4.400423e-02 9.337198e-01 5.692052e-01 -5.255320e-01 1.565641e+00 -1.158691e+00 -1.858779e+00 1.488526e+00 -2.338113e-02 9.195773e-02 6.868015e-02 2.479950e-02 8.829146e-02 7.165876e-02 4.357784e-02 1.630701e-02 -2.935626e-03 -2.063760e-02 1.751738e-02 1.134669e-01 -3.268132e-02 3.225753e-02 1.116346e-01 2.366706e-01 1.726026e-01 -9.797221e-02 3.149755e-03 -1.213929e-01 9.171501e-03 8.027984e-02 -5.799331e-02 1.586086e-01 2.111772e-01 -1.670428e-01
<VARIANCE> 39
 1.831597e-01 4.198977e-01 3.872466e-01 5.414069e-01 5.387002e-01 1.552288e+00 8.692347e-01 1.648290e+00 9.594889e-01 7.739512e-01 1.131912e+00 1.218220e+00 3.423738e-01 2.251445e-01 3.437608e-01 4.608910e-01 5.327858e-01 4.818600e-01 6.365010e-01 5.541165e-01 6.344249e-01 5.019114e-01 4.994263e-01 5.567065e-01 6.250921e-01 2.913200e-01 3.208341e-01 3.696454e-01 5.148004e-01 4.730067e-01 4.894877e-01 5.551836e-01 5.313748e-01 4.955812e-01 4.423460e-01 4.828979e-01 4.450339e-01 5.301301e-01 3.184040e-01
<GCONST> 4.650537e+01
<MIXTURE> 3 2.527182e-01
<MEAN> 39
 8.066377e-01 -1.387877e+00 -5.136728e-01 -2.017082e-01 -3.453628e-01 -8.598067e-01 1.032479e-02 1.333764e+00 5.689657e-01 6.566123e-01 -1.214982e+00 -9.979042e-01 1.636077e+00 -4.559912e-03 5.419037e-02 2.447740e-01 1.712719e-01 -1.352792e-01 -1.883111e-01 -2.324210e-01 -4.035273e-02 -1.682063e-01 -1.293756e-01 1.611161e-01 1.277378e-01 -1.354035e-01 5.470549e-02 2.388970e-01 1.146297e-01 1.594328e-01 3.056268e-02 -4.618201e-02 -1.401234e-01 -3.308360e-01 -2.104411e-01 2.188659e-02 1.446278e-01 8.562171e-02 -3.941527e-01
<VARIANCE> 39
 1.293794e-01 3.416081e-01 6.811320e-01 3.862208e-01 5.110352e-01 1.616769e+00 9.643252e-01 1.580751e+00 1.234895e+00 9.368103e-01 1.031952e+00 1.442880e+00 1.503744e-01 2.000859e-01 2.864842e-01 6.261475e-01 4.368166e-01 4.949614e-01 6.221672e-01 6.209662e-01 6.607474e-01 5.413353e-01 5.280286e-01 6.165927e-01 6.933285e-01 1.715107e-01 2.621647e-01 3.006869e-01 4.030996e-01 3.675377e-01 4.458676e-01 5.166532e-01 5.192738e-01 5.124645e-01 4.560955e-01 4.483241e-01 4.930967e-01 5.019793e-01 3.056412e-01
<GCONST> 4.460239e+01
<MIXTURE> 4 2.448449e-01
<MEAN> 39
 9.031594e-01 -1.166033e+00 -1.762610e+00 -9.533809e-01 9.023828e-01 6.366107e-02 9.062529e-01 7.113334e-01 -4.935815e-01 1.499982e+00 -1.216145e+00 -2.065965e+00 1.464334e+00 -6.831773e-02 4.966374e-03 -3.130662e-02 -5.548129e-02 4.565174e-02 8.737423e-03 -1.522784e-02 -2.980731e-02 -5.330156e-02 -6.798678e-02 -9.106628e-02 -5.465045e-02 -4.876003e-02 -5.195260e-03 7.166359e-02 1.520797e-01 1.275660e-01 -1.363792e-01 -9.822188e-02 -1.405996e-01 -5.259214e-02 3.615594e-02 -6.158280e-02 6.496322e-02 1.047614e-01 -1.958163e-01
<VARIANCE> 39
 1.917332e-01 3.971172e-01 4.086215e-01 5.076755e-01 5.263039e-01 1.487649e+00 8.228633e-01 1.624682e+00 8.822556e-01 7.876987e-01 1.059689e+00 1.285452e+00 3.970628e-01 2.115356e-01 3.180149e-01 4.539842e-01 5.115540e-01 4.756083e-01 6.093450e-01 5.535650e-01 6.350553e-01 4.874557e-01 5.099979e-01 5.249503e-01 6.001472e-01 3.299693e-01 3.115025e-01 3.493963e-01 5.031969e-01 4.620484e-01 4.957480e-01 5.474615e-01 5.247639e-01 5.034217e-01 4.486372e-01 4.899410e-01 4.356179e-01 5.298593e-01 2.944427e-01
<GCONST> 4.598182e+01
<TRANSP> 7
 0.000000e+00 1.000000e+00 0.000000e+00 0.000000e+00 0.000000e+00 0.000000e+00 0.000000e+00
 0.000000e+00 7.956061e-01 2.043939e-01 0.000000e+00 0.000000e+00 0.000000e+00 0.000000e+00
 0.000000e+00 0.000000e+00 4.903927e-01 5.096074e-01 0.000000e+00 0.000000e+00 0.000000e+00
 0.000000e+00 0.000000e+00 0.000000e+00 5.485799e-01 4.514201e-01 0.000000e+00 0.000000e+00
 0.000000e+00 0.000000e+00 0.000000e+00 0.000000e+00 6.809207e-01 3.190793e-01 0.000000e+00
 0.000000e+00 0.000000e+00 0.000000e+00 0.000000e+00 0.000000e+00 8.695007e-01 1.304993e-01
 0.000000e+00 0.000000e+00 0.000000e+00 0.000000e+00 0.000000e+00 0.000000e+00 0.000000e+00
<ENDHMM>
~h "b"
<BEGINHMM>
<NUMSTATES> 7
<STATE> 2
<NUMMIXES> 4
<MIXTURE> 1 2.010125e-01
<MEAN> 39
 1.109354e+00 -1.664570e-01 -4.007691e-01 2.451806e-01 2.702102e-01 -4.683384e-01 -4.792456e-01 -2.062091e-01 -9.350926e-01 3.511923e-01 1.510836e-01 -2.607366e-01 5.271588e-01 -9.208487e-01 1.204271e+00 6.922346e-01 1.028424e+00 1.411907e+00 1.516828e+00 3.784710e-01 -7.700523e-01 -5.006423e-01 -6.829238e-01 1.714061e-01 5.494701e-01 -2.963092e+00 -1.648029e+00 2.494017e-01 9.344527e-01 5.849210e-01 5.296392e-01 7.318197e-01 9.367119e-01 3.830441e-01 2.993189e-01 -4.996050e-01 -7.249436e-01 1.071895e-01 -8.799644e-01
<VARIANCE> 39
 1.831137e-01 4.443590e-01 1.025204e+00 8.998104e-01 3.764873e-01 9.539368e-01 8.602961e-01 9.760187e-01 1.040097e+00 1.474953e+00 1.045093e+00 1.038321e+00 3.415734e-01 9.090791e-01 7.887759e-01 2.188739e+00 2.079225e+00 1.179138e+00 1.626727e+00 1.682403e+00 1.531544e+00 1.533871e+00 2.280565e+00 1.377067e+00 1.911534e+00 1.089301e+00 9.885914e-01 8.317335e-01 1.153005e+00 9.958174e-01 1.064518e+00 1.327407e+00 1.178759e+00 1.302982e+00 1.220997e+00 1.568795e+00 1.338942e+00 1.161803e+00 1.715839e+00
<GCONST> 7.475970e+01
<MIXTURE> 2 2.996855e-01
<MEAN> 39
 6.517686e-01 -2.864199e-01 -5.329300e-01 -9.367892e-02 5.548351e-02 -1.966365e-01 1.367859e-01 1.736314e-01 -1.783988e-01 5.463961e-01 -2.056668e-01 -4.327766e-01 3.437434e-01 3.359442e-01 5.204064e-01 1.922262e-01 4.128439e-01 4.361328e-01 2.202722e-01 -1.173162e-01 -1.886035e-01 -3.024793e-01 1.304616e-01 3.819172e-01 6.733657e-02 -4.852283e-01 -1.420653e-01 4.036502e-01 3.625037e-01 3.348518e-01 3.733544e-01 3.927321e-01 7.468784e-02 -2.073921e-01 -2.173284e-01 -2.791727e-01 4.370557e-02 1.843175e-01 -6.134195e-01
<VARIANCE> 39
 4.897260e-01 8.760114e-01 1.107225e+00 8.129537e-01 7.415472e-01 1.393259e+00 1.042443e+00 1.015800e+00 1.442677e+00 1.394838e+00 1.125582e+00 1.726939e+00 1.286129e+00 7.555746e-01 9.374344e-01 1.173540e+00 9.845381e-01 9.816110e-01 1.140349e+00 1.096619e+00 1.126948e+00 1.245056e+00 1.223236e+00 1.186526e+00 1.210239e+00 1.165078e+00 9.998914e-01 8.215900e-01 1.297620e+00 9.810540e-01 9.946882e-01 1.130625e+00 9.219062e-01 1.103679e+00 1.049501e+00 1.237693e+00 8.671757e-01 1.142258e+00 1.612060e+00
<GCONST> 7.439967e+01
<MIXTURE> 3 2.930271e-01
<MEAN> 39
 6.883941e-01 -4.289833e-01 -5.660173e-01 -9.071745e-02 7.575437e-03 -4.596785e-01 -2.709579e-02 1.490397e-01 -6.885806e-02 6.287797e-01 -3.136235e-01 -5.453444e-01 5.351201e-01 1.876007e-01 3.295121e-01 -2.239698e-02 1.539442e-01 1.535097e-01 -1.049038e-01 -4.126216e-01 -3.819324e-01 -4.208359e-01 -3.808281e-02 2.090774e-01 -1.364242e-01 -6.107116e-01 -3.348678e-01 2.915209e-01 1.048281e-01 1.467471e-01 2.932056e-01 3.383903e-01 5.204354e-02 -2.819056e-01 -2.994757e-01 -2.945330e-01 -6.014168e-02 7.868449e-02 -9.030026e-01
<VARIANCE> 39
 4.319071e-01 8.368815e-01 1.286825e+00 8.117195e-01 8.002110e-01 1.559031e+00 1.077879e+00 1.104070e+00 1.612826e+00 1.486986e+00 1.167060e+00 2.212740e+00 1.056455e+00 7.394720e-01 9.777797e-01 1.225770e+00 1.006149e+00 9.967881e-01 1.095975e+00 1.022168e+00 1.195400e+00 1.318885e+00 1.276813e+00 1.360726e+00 1.244661e+00 1.317612e+00 1.046591e+00 8.689665e-01 1.290975e+00 9.300089e-01 1.033683e+00 1.147137e+00 9.668912e-01 1.066833e+00 1.116733e+00 1.294095e+00 8.740942e-01 1.245987e+00 1.662050e+00
<GCONST> 7.572581e+01
<MIXTURE> 4 2.062751e-01
<MEAN> 39
 1.142097e+00 -2.178641e-01 -4.044102e-01 2.762002e-01 2.240601e-01 -5.497054e-01 -5.747618e-01 -2.435544e-01 -8.469639e-01 4.105609e-01 1.921295e-01 -2.665752e-01 5.318407e-01 -9.229620e-01 1.132000e+00 5.840796e-01 8.731511e-01 1.204196e+00 1.324800e+00 2.061793e-01 -9.501127e-01 -6.916344e-01 -9.746252e-01 -4.944915e-02 2.563308e-01 -2.888410e+00 -1.714984e+00 1.657969e-01 7.046088e-01 3.550260e-01 3.874028e-01 6.124948e-01 8.833597e-01 3.254540e-01 1.750276e-01 -5.783805e-01 -8.469823e-01 5.127838e-02 -9.506425e-01
<VARIANCE> 39
 1.768055e-01 4.614132e-01 9.824801e-01 8.606415e-01 4.149384e-01 1.057254e+00 8.988428e-01 1.100818e+00 1.084895e+00 1.349016e+00 9.994840e-01 1.027759e+00 3.005451e-01 8.437513e-01 8.028013e-01 2.081016e+00 1.954313e+00 1.047554e+00 1.610502e+00 1.649082e+00 1.493223e+00 1.588338e+00 2.055154e+00 1.354344e+00 1.815722e+00 1.018614e+00 1.064320e+00 8.157013e-01 1.218034e+00 9.247606e-01 1.039747e+00 1.340878e+00 1.220771e+00 1.248715e+00 1.171770e+00 1.549380e+00 1.323083e+00 1.167530e+00 1.565430e+00
<GCONST> 7.412404e+01
<STATE> 3
<NUMMIXES> 4
<MIXTURE> 1 2.365453e-01
<MEAN> 39
 5.228070e-01 2.646952e-01 1.962503e-01 1.015425e+00 1.073368e+00 5.217822e-01 1.351551e-02 -5.399558e-01 -1.160264e+00 -3.371764e-01 -1.926433e-01 1.891079e-01 -4.119101e-01 -1.397909e+00 1.074244e+00 9.574447e-01 1.089779e+00 1.380947e+00 1.336769e+00 9.299710e-01 -1.060399e-01 9.401888e-04 -4.516390e-01 -2.986602e-01 2.231712e-01 -2.554581e+00 7.469481e-01 -1.527222e-01 -4.137321e-02 -6.218795e-01 -9.173843e-01 -9.616234e-01 -1.230191e-01 7.000836e-01 5.504580e-01 4.613632e-01 2.199535e-02 -3.108066e-01 1.796421e+00
<VARIANCE> 39
 1.438124e-01 2.568854e-01 5.148324e-01 3.789901e-01 3.558759e-01 5.399887e-01 4.875665e-01 5.973784e-01 6.395650e-01 4.827620e-01 5.913700e-01 7.428492e-01 1.204151e-01 6.109847e-01 7.175066e-01 1.777994e+00 1.413998e+00 9.586629e-01 1.363056e+00 1.049845e+00 1.126589e+00 1.344079e+00 2.033495e+00 1.213131e+00 1.604608e+00 8.736784e-01 9.163225e-01 9.661078e-01 1.540786e+00 1.162848e+00 1.019972e+00 1.165323e+00 1.086574e+00 1.177549e+00 1.255230e+00 1.556258e+00 1.053071e+00 1.429765e+00 1.058627e+00
<GCONST> 6.383261e+01
<MIXTURE> 2 2.577174e-01
<MEAN> 39
 3.015741e-01 9.137200e-01 -1.745343e-02 3.056728e-01 7.006083e-01 4.763635e-01 3.875495e-01 -2.824840e-01 -7.572720e-01 -9.898764e-02 -2.714138e-01 -1.351312e-01 -8.806177e-01 -2.810060e-01 8.047871e-01 9.524701e-01 8.545352e-01 7.816618e-01 5.473949e-01 3.144096e-01 1.356930e-01 -1.744311e-02 -2.565656e-01 -1.303863e-01 3.243526e-02 -7.454069e-01 -3.635261e-03 -3.285660e-01 3.931151e-01 3.234141e-01 -9.225111e-02 -1.824619e-01 -1.589637e-01 1.699076e-01 1.902284e-01 -2.268724e-01 -1.547472e-01 6.600752e-02 5.911441e-01
<VARIANCE> 39
 3.398468e-01 2.669673e-01 3.443278e-01 3.667745e-01 3.443273e-01 5.238125e-01 4.960081e-01 6.832855e-01 5.685166e-01 6.493890e-01 5.554461e-01 7.275046e-01 3.166763e-01 1.200457e+00 9.519863e-01 1.090194e+00 9.271425e-01 8.171093e-01 8.663425e-01 8.847687e-01 1.007455e+00 9.786130e-01 1.108542e+00 7.876394e-01 1.109223e+00 9.770205e-01 8.590382e-01 6.780568e-01 1.002537e+00 8.096941e-01 7.859293e-01 9.561785e-01 9.463074e-01 1.171021e+00 1.008380e+00 1.063237e+00 9.139135e-01 1.035758e+00 7.137166e-01
<GCONST> 5.971325e+01
<MIXTURE> 3 2.640111e-01
<MEAN> 39
 3.278882e-01 8.874615e-01 -1.022698e-01 2.018616e-01 5.799158e-01 3.558214e-01 2.921323e-01 -4.822835e-01 -8.016555e-01 -1.339922e-01 -3.689778e-01 -2.458371e-01 -8.472306e-01 -2.834696e-01 6.545812e-01 7.259200e-01 5.592793e-01 4.517185e-01 2.211707e-01 6.026758e-02 -2.061915e-01 -3.017833e-01 -4.843816e-01 -3.491262e-01 -1.731842e-01 -7.417231e-01 -3.112093e-01 -4.257559e-01 2.119574e-01 1.075423e-01 -2.558657e-01 -3.303831e-01 -2.232075e-01 2.073941e-01 2.387197e-01 -2.109925e-01 -1.285966e-01 4.443641e-02 3.141100e-01
<VARIANCE> 39
 3.899967e-01 2.985497e-01 3.427432e-01 3.805853e-01 3.765047e-01 5.472465e-01 5.271236e-01 6.662931e-01 6.369532e-01 6.559165e-01 6.067472e-01 7.886655e-01 2.770531e-01 1.013610e+00 9.116136e-01 9.416973e-01 8.468655e-01 7.854429e-01 8.780152e-01 8.826417e-01 1.076010e+00 1.053518e+00 1.279090e+00 8.836934e-01 1.091673e+00 8.096011e-01 9.574814e-01 7.154428e-01 1.024770e+00 7.563509e-01 7.679303e-01 9.432594e-01 9.505343e-01 1.106257e+00 1.023923e+00 1.301747e+00 8.490412e-01 1.086933e+00 6.769301e-01
<GCONST> 6.020477e+01
<MIXTURE> 4 2.417259e-01
<MEAN> 39
 5.225576e-01 2.595423e-01 1.950568e-01 9.677648e-01 1.003303e+00 4.481519e-01 -7.783020e-02 -5.400640e-01 -1.108481e+00 -4.094530e-01 -2.725238e-01 3.359551e-02 -3.921553e-01 -1.489177e+00 9.666160e-01 8.125660e-01 8.817612e-01 1.174721e+00 1.156206e+00 7.308415e-01 -2.365801e-01 -2.181796e-01 -7.391754e-01 -6.806390e-01 -1.006191e-01 -2.575159e+00 6.168116e-01 -2.449132e-01 -1.186610e-01 -7.110832e-01 -1.018276e+00 -9.879315e-01 -1.238223e-01 5.001839e-01 4.407078e-01 4.678103e-01 -3.891268e-02 -2.540435e-01 1.631829e+00
<VARIANCE> 39
 1.587878e-01 2.443859e-01 5.339022e-01 4.228854e-01 3.563886e-01 5.122586e-01 5.352135e-01 6.275476e-01 6.527261e-01 5.204563e-01 6.625552e-01 7.517926e-01 1.280141e-01 6.229184e-01 6.972578e-01 1.730960e+00 1.494806e+00 9.272546e-01 1.325496e+00 1.109919e+00 1.113129e+00 1.426722e+00 2.228263e+00 1.218856e+00 1.580014e+00 8.490098e-01 1.048370e+00 9.611162e-01 1.602933e+00 1.243267e+00 1.016394e+00 1.231081e+00 1.184274e+00 1.140822e+00 1.312500e+00 1.607540e+00 1.080175e+00 1.452203e+00 1.266916e+00
<GCONST> 6.515428e+01
<STATE> 4
<NUMMIXES> 4
<MIXTURE> 1 3.253291e-01
<MEAN> 39
 2.349162e-01 1.019630e+00 6.572130e-01 1.234751e+00 1.407912e+00 8.616151e-01 5.029758e-01 -4.658606e-01 -1.154366e+00 -6.163132e-01 -6.404197e-01 -9.186141e-02 -1.031640e+00 -4.850345e-01 5.632753e-01 6.133216e-01 2.374948e-01 1.153438e-01 6.740987e-03 2.467580e-01 2.613267e-01 3.828967e-01 -4.475792e-02 -1.521188e-01 -5.762279e-05 -7.366401e-01 4.685638e-01 -8.659509e-01 -3.704902e-01 -4.395114e-01 -8.579267e-01 -5.590663e-01 -2.849628e-01 2.449749e-01 2.892035e-01 2.493322e-01 4.104121e-01 2.435937e-01 1.645501e+00
<VARIANCE> 39
 8.062260e-02 2.150972e-01 2.930480e-01 2.307571e-01 2.725528e-01 4.247300e-01 3.874870e-01 5.271693e-01 3.857898e-01 4.129738e-01 5.945253e-01 7.852060e-01 8.399515e-02 3.054806e-01 1.002201e+00 8.562393e-01 6.107898e-01 7.103721e-01 7.994372e-01 7.125725e-01 8.262923e-01 9.580410e-01 6.969972e-01 9.246219e-01 9.751313e-01 7.812706e-01 5.805881e-01 9.164717e-01 9.792355e-01 6.754075e-01 7.675852e-01 9.461091e-01 8.658488e-01 8.555944e-01 8.611807e-01 9.404393e-01 1.051266e+00 1.068733e+00 9.978995e-01
<GCONST> 5.066623e+01
<MIXTURE> 2 1.811291e-01
<MEAN> 39
 1.324686e-01 5.506780e-01 4.832363e-01 9.773813e-01 8.797994e-01 3.186572e-01 1.817812e-01 4.690010e-03 -5.744932e-01 -4.563544e-01 -5.201567e-01 5.889949e-02 -8.247514e-01 -4.016980e-01 -1.373079e-01 4.080531e-01 2.478240e-01 1.780557e-01 3.590508e-01 3.489423e-01 3.273329e-01 3.432175e-01 -2.269332e-02 2.841551e-01 2.333088e-01 -8.113254e-02 9.210680e-01 1.423705e-02 -8.583011e-01 -7.345366e-01 -2.605985e-01 1.132733e-02 -3.026237e-02 -1.915465e-01 -3.568029e-01 5.717548e-01 4.039468e-01 3.432395e-02 9.166170e-01
<VARIANCE> 39
 2.545400e-01 3.916087e-01 3.882822e-01 4.498810e-01 3.270675e-01 4.442569e-01 4.950412e-01 6.343690e-01 4.972505e-01 7.922140e-01 5.919967e-01 8.689837e-01 3.266614e-01 9.024822e-01 1.411945e+00 1.008835e+00 9.233844e-01 7.947141e-01 9.646987e-01 9.439406e-01 1.078147e+00 1.090527e+00 1.174866e+00 9.136255e-01 1.298204e+00 1.036442e+00 1.757586e+00 1.677497e+00 1.852792e+00 1.089570e+00 1.018726e+00 1.116798e+00 1.022936e+00 1.181955e+00 1.234884e+00 1.649962e+00 9.934782e-01 1.452749e+00 1.928606e+00
<GCONST> 6.603990e+01
<MIXTURE> 3 3.224490e-01
<MEAN> 39
 1.862072e-01 1.032461e+00 6.285801e-01 1.151908e+00 1.284864e+00 7.729943e-01 4.263282e-01 -5.347341e-01 -1.110001e+00 -6.558025e-01 -7.174440e-01 -2.567584e-01 -1.058434e+00 -5.151767e-01 5.304270e-01 5.684066e-01 1.544446e-01 2.938174e-02 -1.066261e-01 1.495050e-01 1.641237e-01 2.454619e-01 -1.905174e-01 -3.838724e-01 -2.163815e-01 -7.303048e-01 3.799942e-01 -9.592678e-01 -4.697399e-01 -4.966575e-01 -9.169286e-01 -6.660579e-01 -3.610149e-01 1.875591e-01 2.853054e-01 2.257635e-01 4.144201e-01 2.491892e-01 1.548418e+00
<VARIANCE> 39
 8.030915e-02 2.058537e-01 2.971438e-01 2.744677e-01 2.615947e-01 4.272063e-01 3.741767e-01 5.154693e-01 3.566826e-01 4.513374e-01 6.113221e-01 7.381831e-01 8.197439e-02 3.328688e-01 9.756459e-01 8.995392e-01 6.360171e-01 7.022234e-01 8.022721e-01 7.250518e-01 8.660086e-01 9.173754e-01 7.673595e-01 9.077056e-01 1.042969e+00 6.999881e-01 5.939401e-01 9.022552e-01 1.063140e+00 6.945660e-01 7.715697e-01 9.746037e-01 8.260679e-01 9.044740e-01 9.034498e-01 9.138674e-01 1.039578e+00 1.063808e+00 9.742606e-01
<GCONST> 5.100228e+01
<MIXTURE> 4 1.710944e-01
<MEAN> 39
 8.409846e-02 5.867486e-01 4.481559e-01 8.431548e-01 7.530600e-01 1.950814e-01 7.149436e-02 -1.539584e-01 -6.133913e-01 -4.849733e-01 -5.639877e-01 -6.817959e-02 -8.769126e-01 -3.646707e-01 -9.582542e-02 2.274504e-01 8.328867e-02 -2.498445e-02 7.510425e-02 1.124495e-01 2.497473e-02 3.041275e-02 -2.771488e-01 -3.109222e-02 -1.714811e-03 -1.046334e-01 5.231619e-01 -2.506465e-01 -1.063026e+00 -8.490711e-01 -3.568458e-01 -9.449193e-02 -5.160747e-02 -1.698000e-01 -1.795164e-01 6.122649e-01 3.352953e-01 3.966041e-02 6.195180e-01
<VARIANCE> 39
 2.806372e-01 4.541334e-01 4.462613e-01 5.483491e-01 3.253549e-01 4.301852e-01 4.610141e-01 6.452500e-01 5.645688e-01 7.972358e-01 6.274753e-01 9.231545e-01 3.253430e-01 9.673236e-01 1.334769e+00 9.760929e-01 9.795851e-01 8.092272e-01 9.291396e-01 9.701356e-01 1.135837e+00 1.193503e+00 1.171999e+00 9.122515e-01 1.282013e+00 1.080408e+00 2.218021e+00 1.712816e+00 1.545296e+00 1.050988e+00 1.097821e+00 1.072020e+00 9.940417e-01 1.279970e+00 1.454005e+00 1.547615e+00 1.063649e+00 1.558106e+00 1.927247e+00
<GCONST> 6.735130e+01
<STATE> 5
<NUMMIXES> 4
<MIXTURE> 1 3.047019e-01
<MEAN> 39
 2.844841e-02 1.395149e+00 8.246781e-01 1.020797e+00 1.009467e+00 5.600843e-01 5.571469e-01 -1.184126e-02 -6.007532e-01 -1.320702e-01 -6.175089e-01 -2.505414e-01 -1.410317e+00 -1.130587e-01 -1.879554e-01 6.878871e-02 1.858200e-01 6.806730e-02 4.045121e-03 1.511565e-02 9.424640e-02 1.241615e-01 -4.855384e-02 1.331685e-01 1.998255e-01 9.100594e-02 -1.746759e-03 -6.033542e-01 -1.742735e-01 -8.378632e-02 -1.050618e-01 3.425179e-02 -4.760240e-02 -8.036122e-03 7.622829e-02 -1.648697e-02 1.978058e-01 2.656019e-01 6.971146e-01
<VARIANCE> 39
 5.908233e-02 1.452999e-01 1.846870e-01 2.653880e-01 1.909894e-01 3.646826e-01 2.703091e-01 4.968091e-01 3.409874e-01 5.799664e-01 5.282545e-01 6.478682e-01 9.749609e-02 1.702526e-01 6.323153e-01 5.296961e-01 4.952152e-01 4.341686e-01 5.628128e-01 5.856645e-01 6.371289e-01 6.316758e-01 6.748955e-01 7.560368e-01 8.550965e-01 4.363331e-01 3.010397e-01 4.396181e-01 7.371735e-01 6.126599e-01 5.915402e-01 6.757517e-01 7.620572e-01 7.793822e-01 7.546467e-01 7.754775e-01 9.274547e-01 9.245124e-01 4.328518e-01
<GCONST> 4.034866e+01
<MIXTURE> 2 2.022744e-01
<MEAN> 39
 -2.638083e-03 5.727828e-01 4.604791e-01 8.409837e-01 9.157864e-01 6.621170e-01 5.055637e-01 -1.236369e-01 -5.623067e-01 -2.875462e-01 -1.670495e-01 2.642000e-01 -8.383753e-01 2.362054e-01 -4.473137e-01 -6.794369e-01 -4.353715e-01 -7.129730e-02 1.872151e-01 6.379598e-02 -6.892133e-02 -8.762775e-02 4.771598e-01 5.890490e-01 3.642280e-01 7.651110e-01 6.780738e-01 3.771148e-01 -5.452397e-02 6.918803e-02 7.327065e-02 -1.433771e-01 -4.387305e-02 1.119974e-02 -1.794077e-01 1.347549e-01 -1.968838e-01 -1.945730e-01 5.742570e-01
<VARIANCE> 39
 1.307599e-01 2.238176e-01 3.229965e-01 3.113991e-01 2.465778e-01 3.770596e-01 2.900429e-01 6.281573e-01 4.430893e-01 6.209840e-01 4.728732e-01 6.115242e-01 1.390407e-01 3.860511e-01 1.525294e+00 8.984775e-01 8.061013e-01 7.060996e-01 7.545961e-01 7.514216e-01 8.858258e-01 9.012954e-01 1.148133e+00 7.842130e-01 1.075032e+00 1.310726e+00 9.875553e-01 1.338969e+00 1.619614e+00 1.161313e+00 9.534230e-01 9.812076e-01 8.705786e-01 1.102570e+00 1.029458e+00 1.598778e+00 8.137512e-01 1.037809e+00 2.399496e+00
<GCONST> 5.752014e+01
<MIXTURE> 3 2.953691e-01
<MEAN> 39
 -3.526929e-02 1.346135e+00 7.404928e-01 9.094110e-01 9.258993e-01 5.496542e-01 4.904837e-01 -1.833594e-01 -6.105581e-01 -1.649926e-01 -6.573457e-01 -4.114881e-01 -1.402462e+00 -1.536313e-01 -2.560269e-01 4.811119e-02 1.334192e-01 -2.137324e-02 -8.856116e-02 -5.383115e-02 1.875924e-02 2.271491e-02 -1.750133e-01 -5.258241e-02 1.669635e-02 9.727128e-02 -8.118013e-02 -6.525114e-01 -2.751366e-01 -1.367452e-01 -1.404603e-01 -2.985173e-02 -6.005445e-02 -1.342593e-02 5.596291e-02 -8.399610e-02 1.518171e-01 2.159555e-01 5.920730e-01
<VARIANCE> 39
 5.840643e-02 1.467565e-01 1.909906e-01 2.635903e-01 1.983833e-01 3.433556e-01 2.929608e-01 4.846559e-01 3.057441e-01 5.545492e-01 5.344890e-01 6.694781e-01 8.529720e-02 1.757911e-01 6.499048e-01 5.413641e-01 4.901712e-01 4.302686e-01 5.634007e-01 5.927283e-01 6.490654e-01 6.410822e-01 7.033315e-01 7.424515e-01 8.574982e-01 4.080958e-01 3.285159e-01 4.566768e-01 7.373617e-01 6.269762e-01 5.871188e-01 6.772629e-01 7.515826e-01 7.836252e-01 7.564965e-01 8.520868e-01 8.948396e-01 9.294739e-01 3.832741e-01
<GCONST> 4.031132e+01
<MIXTURE> 4 1.976471e-01
<MEAN> 39
 -7.179001e-02 5.529240e-01 3.987304e-01 7.574305e-01 8.202927e-01 5.866295e-01 4.327464e-01 -1.758818e-01 -5.043807e-01 -3.497385e-01 -2.168248e-01 1.752394e-01 -8.832569e-01 1.265960e-01 -4.118120e-01 -8.303940e-01 -6.467580e-01 -2.547117e-01 -2.002362e-02 -1.136962e-01 -2.885014e-01 -2.320154e-01 3.822144e-01 3.845182e-01 2.106664e-01 5.251334e-01 5.253180e-01 3.195894e-01 -1.787819e-01 -8.695096e-03 3.876707e-02 -2.504312e-01 -1.173951e-01 -1.251553e-01 -3.164313e-01 8.878610e-02 -2.591421e-01 -2.696607e-01 3.613860e-01
<VARIANCE> 39
 1.346792e-01 2.503649e-01 3.385911e-01 3.621340e-01 2.629611e-01 3.676472e-01 3.020566e-01 6.144453e-01 4.383146e-01 6.490774e-01 4.635941e-01 6.042965e-01 1.385849e-01 4.474801e-01 1.561034e+00 9.118440e-01 7.838228e-01 7.142701e-01 7.824771e-01 7.809616e-01 8.699399e-01 9.137534e-01 1.295158e+00 7.671692e-01 1.102841e+00 1.156305e+00 9.282477e-01 1.389402e+00 1.575289e+00 1.136881e+00 9.887065e-01 9.254920e-01 8.496454e-01 1.108088e+00 1.043686e+00 1.705470e+00 8.293715e-01 1.044825e+00 2.210280e+00
<GCONST> 5.806059e+01
<STATE> 6
<NUMMIXES> 4
<MIXTURE> 1 1.720258e-01
<MEAN> 39
 -1.597355e-01 9.257358e-02 -4.726286e-02 4.440737e-01 7.185557e-01 4.375192e-01 2.390668e-01 -1.634575e-01 -4.891238e-01 -2.261514e-01 2.218426e-01 6.644307e-01 -5.880160e-01 7.034470e-01 -4.305718e-01 -3.930675e-01 -1.130937e-01 -9.984213e-02 -8.206251e-02 1.340597e-01 1.424275e-01 -1.656893e-02 2.862922e-01 1.371840e-01 1.069060e-01 1.716752e+00 1.093562e+00 6.972001e-01 2.094214e-01 -9.623591e-02 1.038906e-02 7.057369e-02 2.238272e-01 2.052768e-01 -6.993709e-02 2.744599e-01 -3.815525e-01 -5.684306e-01 8.550695e-01
<VARIANCE> 39
 3.897710e-01 3.289940e-01 4.235756e-01 5.403885e-01 4.206126e-01 4.704842e-01 3.711717e-01 6.757053e-01 7.534915e-01 4.741442e-01 5.505539e-01 6.970162e-01 2.871353e-01 7.106301e-01 1.214467e+00 1.241033e+00 1.110351e+00 7.805932e-01 8.703851e-01 7.924008e-01 9.525884e-01 1.170376e+00 1.379907e+00 9.064654e-01 1.166499e+00 1.927794e+00 1.221071e+00 1.425056e+00 1.518262e+00 1.288733e+00 1.090749e+00 1.071023e+00 1.009158e+00 1.178237e+00 1.350809e+00 1.409847e+00 9.775199e-01 1.176888e+00 2.526067e+00
<GCONST> 6.587267e+01
<MIXTURE> 2 3.231114e-01
<MEAN> 39
 -9.220092e-01 2.717770e-01 -5.526196e-01 -7.903454e-01 3.367595e-01 6.039851e-01 2.229914e-01 -3.833985e-02 -3.630474e-03 9.829485e-02 4.328291e-01 2.601308e-01 -1.401658e+00 -2.409972e-02 8.305921e-02 2.676988e-01 2.731560e-01 1.832880e-01 9.312339e-02 9.034362e-02 2.704127e-01 1.616603e-01 3.050938e-04 8.313836e-02 1.487797e-01 -4.348300e-02 1.460314e-06 -2.477253e-01 1.911285e-01 2.616071e-01 4.949937e-02 -3.866626e-02 -8.140191e-03 1.302847e-01 1.923347e-01 -1.610142e-01 8.478868e-02 2.173917e-01 3.402657e-01
<VARIANCE> 39
 5.919369e-02 1.110289e-01 3.249945e-01 1.931401e-01 4.349512e-01 4.604161e-01 2.877655e-01 7.136851e-01 4.379306e-01 3.940586e-01 6.738958e-01 9.744260e-01 7.712989e-02 1.659679e-01 4.412601e-01 4.809546e-01 5.487612e-01 5.479617e-01 7.674040e-01 7.327524e-01 8.169864e-01 7.219909e-01 8.485968e-01 8.441703e-01 1.116149e+00 3.203897e-01 4.131214e-01 5.273196e-01 7.405171e-01 6.831930e-01 8.033042e-01 8.826567e-01 9.223551e-01 9.695869e-01 9.398683e-01 1.027918e+00 1.023943e+00 1.110451e+00 2.546365e-01
<GCONST> 4.500510e+01
<MIXTURE> 3 3.254198e-01
<MEAN> 39
 -9.103327e-01 2.609261e-01 -6.380386e-01 -8.601809e-01 2.213372e-01 4.982057e-01 2.517517e-01 -3.494217e-02 5.975954e-02 2.244297e-01 3.085665e-01 1.225087e-01 -1.449208e+00 -1.522661e-01 -1.297553e-02 6.226126e-02 2.534762e-02 -3.897154e-02 -1.012148e-01 -1.327942e-01 -7.969851e-02 -1.039179e-01 -1.958819e-01 -2.408686e-01 -1.732129e-01 -1.914450e-01 -1.469207e-01 -3.261408e-01 5.869995e-02 1.044137e-01 -9.850568e-02 -9.819911e-02 -9.041284e-02 3.455357e-02 1.140773e-01 -2.349173e-01 -5.812442e-02 9.373392e-02 2.261761e-01
<VARIANCE> 39
 4.951739e-02 9.961362e-02 3.361812e-01 1.925492e-01 3.440819e-01 4.338508e-01 2.823275e-01 6.218588e-01 3.514252e-01 3.848957e-01 5.884113e-01 7.336377e-01 6.973941e-02 1.494874e-01 3.868201e-01 4.505443e-01 5.361412e-01 5.348229e-01 7.380061e-01 6.865353e-01 8.100759e-01 6.530264e-01 8.676237e-01 8.286763e-01 1.147404e+00 2.861489e-01 3.921839e-01 4.439425e-01 7.608566e-01 6.974178e-01 8.015201e-01 8.778254e-01 8.958951e-01 1.007987e+00 9.425044e-01 1.016257e+00 1.021485e+00 1.154799e+00 2.282645e-01
<GCONST> 4.263495e+01
<MIXTURE> 4 1.794515e-01
<MEAN> 39
 -7.077724e-01 -2.242520e-01 -3.505330e-01 -1.057226e-01 3.176499e-01 2.363751e-01 1.704697e-01 7.076660e-02 9.891304e-02 -3.598008e-01 3.363602e-01 8.333296e-01 -8.704802e-01 3.344054e-01 -2.976682e-01 -7.268842e-01 -6.521832e-01 -4.090562e-01 -2.126514e-01 -8.179130e-02 -3.776962e-01 -2.104535e-01 2.757050e-01 1.152567e-01 -3.344855e-02 7.364363e-01 5.510940e-01 9.965698e-01 -2.780257e-01 -4.990045e-01 6.874076e-02 1.165646e-01 1.142539e-01 -2.340139e-01 -5.163174e-01 5.775390e-01 -2.629576e-01 -6.563491e-01 -4.635823e-01
<VARIANCE> 39
 3.650824e-01 3.307261e-01 4.258128e-01 5.509487e-01 4.634618e-01 4.254004e-01 3.241507e-01 6.292823e-01 7.942336e-01 3.928070e-01 5.833452e-01 7.048929e-01 1.855348e-01 5.288627e-01 1.668142e+00 1.023615e+00 9.869894e-01 6.010880e-01 8.111740e-01 6.887362e-01 8.179427e-01 1.284344e+00 1.464704e+00 7.423466e-01 1.136068e+00 1.162389e+00 1.006910e+00 1.548673e+00 1.548799e+00 1.213382e+00 8.659921e-01 9.324836e-01 8.763956e-01 1.044777e+00 1.378332e+00 1.343602e+00 8.118412e-01 1.111288e+00 2.067821e+00
<GCONST> 6.237960e+01
<TRANSP> 7
 0.000000e+00 1.000000e+00 0.000000e+00 0.000000e+00 0.000000e+00 0.000000e+00 0.000000e+00
 0.000000e+00 6.881567e-01 3.118432e-01 0.000000e+00 0.000000e+00 0.000000e+00 0.000000e+00
 0.000000e+00 0.000000e+00 5.820838e-01 4.179161e-01 0.000000e+00 0.000000e+00 0.000000e+00
 0.000000e+00 0.000000e+00 0.000000e+00 6.267292e-01 3.732708e-01 0.000000e+00 0.000000e+00
 0.000000e+00 0.000000e+00 0.000000e+00 0.000000e+00 8.753709e-01 1.246291e-01 0.000000e+00
 0.000000e+00 0.000000e+00 0.000000e+00 0.000000e+00 0.000000e+00 8.812265e-01 1.187735e-01
 0.000000e+00 0.000000e+00 0.000000e+00 0.000000e+00 0.000000e+00 0.000000e+00 0.000000e+00
<ENDHMM>
~h "d"
<BEGINHMM>
<NUMSTATES> 7
<STATE> 2
<NUMMIXES> 4
<MIXTURE> 1 2.422272e-01
<MEAN> 39
 6.897324e-02 4.778105e-01 1.360641e-01 6.095082e-03 1.727454e-01 1.574820e-01 2.987920e-01 -2.769470e-01 -7.520761e-01 3.204945e-02 -2.375172e-01 1.317634e-01 -1.369166e-01 6.420363e-02 3.711511e-01 3.571267e-01 4.350510e-01 3.821087e-01 1.689575e-01 6.816029e-02 2.903541e-02 7.759988e-03 5.265426e-02 6.740770e-02 -2.928876e-02 -3.147821e-01 -7.790104e-02 1.547976e-01 2.760624e-01 3.577497e-01 3.040418e-01 5.193256e-02 4.207508e-02 1.634355e-01 -2.719630e-02 -1.508010e-01 -8.416729e-02 8.217737e-03 -4.905979e-02
<VARIANCE> 39
 8.872669e-01 6.082764e-01 1.312977e+00 1.272794e+00 9.435231e-01 9.546047e-01 8.951740e-01 1.214511e+00 8.016874e-01 1.065555e+00 9.140900e-01 1.037580e+00 7.493047e-01 1.466568e+00 1.284015e+00 1.772176e+00 1.903905e+00 1.256093e+00 1.237521e+00 1.328668e+00 1.375457e+00 1.166313e+00 1.368755e+00 1.003769e+00 1.195504e+00 2.515779e+00 1.485447e+00 1.223898e+00 1.716999e+00 1.402743e+00 1.220434e+00 1.215561e+00 1.260117e+00 1.321457e+00 1.171191e+00 1.469619e+00 1.102507e+00 1.204314e+00 1.841339e+00
<GCONST> 7.933781e+01
<MIXTURE> 2 2.594689e-01
<MEAN> 39
 8.032337e-01 -5.837541e-01 5.331347e-01 5.154355e-01 -5.274280e-01 -1.223930e+00 -1.090298e+00 1.061791e-01 -1.732540e-01 1.256710e-01 -5.949327e-01 8.175701e-02 1.185345e+00 -1.824390e-01 5.120339e-01 8.284557e-01 4.857806e-01 3.878219e-01 1.020212e-01 -2.227977e-01 -3.502173e-01 -2.054152e-01 -4.510649e-01 -3.278434e-01 1.241036e-01 -9.304036e-01 -5.484331e-01 3.762634e-01 -9.719199e-02 1.900440e-01 6.492454e-01 7.159370e-01 5.808812e-01 -2.694666e-02 -1.912857e-01 -2.462590e-02 1.782101e-02 -9.329832e-02 -1.399993e+00
<VARIANCE> 39
 2.010030e-01 3.938838e-01 1.031301e+00 6.283572e-01 6.209309e-01 9.288633e-01 7.270066e-01 1.511014e+00 1.663061e+00 1.320825e+00 9.763456e-01 1.332486e+00 2.300766e-01 3.430995e-01 5.926753e-01 9.185064e-01 7.775104e-01 7.869140e-01 8.984393e-01 8.506997e-01 1.195725e+00 9.356079e-01 7.661253e-01 8.013528e-01 9.661191e-01 1.400861e+00 6.980349e-01 5.100492e-01 8.144673e-01 6.403148e-01 7.543392e-01 1.070801e+00 9.848780e-01 8.433840e-01 9.720535e-01 7.786323e-01 7.409078e-01 9.623525e-01 1.179350e+00
<GCONST> 6.278589e+01
<MIXTURE> 3 2.526642e-01
<MEAN> 39
 7.845174e-01 -6.182706e-01 5.096976e-01 4.788801e-01 -5.254958e-01 -1.363832e+00 -1.245384e+00 2.090271e-01 -2.088329e-01 1.681896e-01 -6.238122e-01 1.309367e-02 1.146569e+00 -2.039548e-01 4.935685e-01 7.998066e-01 4.753448e-01 3.703651e-01 4.197140e-02 -3.663408e-01 -5.348506e-01 -3.557238e-01 -5.742207e-01 -4.935316e-01 -8.650908e-02 -1.045079e+00 -6.193516e-01 2.976002e-01 -1.703560e-01 1.549225e-01 6.307777e-01 7.063753e-01 5.993752e-01 -1.331451e-01 -2.367977e-01 -9.725326e-02 -7.542554e-02 -1.979427e-01 -1.493117e+00
<VARIANCE> 39
 1.956773e-01 4.196217e-01 9.888048e-01 6.448294e-01 6.111485e-01 9.694471e-01 6.551009e-01 1.421910e+00 1.612977e+00 1.299780e+00 9.528956e-01 1.351392e+00 2.264931e-01 3.381001e-01 6.219161e-01 8.964845e-01 7.775497e-01 7.916261e-01 8.825759e-01 8.582916e-01 1.177154e+00 9.262145e-01 7.703186e-01 8.264859e-01 9.942182e-01 1.239792e+00 6.953080e-01 4.836599e-01 8.666612e-01 6.945582e-01 7.535202e-01 1.053044e+00 9.446354e-01 8.673446e-01 9.845927e-01 7.990081e-01 7.385902e-01 1.023372e+00 1.152409e+00
<GCONST> 6.264771e+01
<MIXTURE> 4 2.456466e-01
<MEAN> 39
 2.853219e-01 4.169343e-01 2.052988e-01 6.019263e-02 9.151563e-02 1.658827e-02 1.363949e-01 -3.777282e-01 -8.121781e-01 1.573402e-02 -3.814654e-01 -2.224639e-03 -4.310279e-02 3.309697e-04 1.216834e-01 2.538998e-01 2.956653e-01 7.437091e-02 -1.672399e-01 -3.095988e-01 -2.566992e-01 -1.715821e-01 -1.906894e-01 -1.907417e-01 -2.076058e-01 -4.365977e-01 -4.170453e-01 -9.953052e-03 -4.648484e-02 7.545166e-02 1.930675e-01 -1.833813e-02 2.611049e-02 1.005963e-01 -1.338572e-01 -1.500094e-01 -1.260595e-01 -2.589177e-02 -2.811148e-01
<VARIANCE> 39
 7.825590e-01 6.385036e-01 1.306222e+00 1.411338e+00 9.376850e-01 1.068027e+00 9.958079e-01 1.286265e+00 8.515078e-01 1.140142e+00 9.689720e-01 1.136564e+00 6.940205e-01 1.398624e+00 1.356519e+00 1.662165e+00 1.940207e+00 1.288903e+00 1.298282e+00 1.376435e+00 1.394431e+00 1.182918e+00 1.420893e+00 1.091981e+00 1.212024e+00 2.290169e+00 1.383454e+00 1.206849e+00 1.619114e+00 1.390972e+00 1.171940e+00 1.188117e+00 1.225597e+00 1.370144e+00 1.137695e+00 1.489085e+00 1.098157e+00 1.188183e+00 1.711818e+00
<GCONST> 7.965668e+01
<STATE> 3
<NUMMIXES> 4
<MIXTURE> 1 2.649101e-01
<MEAN> 39
 3.879709e-01 3.022153e-02 1.372870e+00 1.100976e+00 -1.983900e-02 -8.832676e-01 -1.018297e+00 -2.160475e-01 -7.253124e-01 -9.093157e-01 -1.107020e+00 3.162491e-01 4.919859e-01 -1.068018e+00 7.776859e-01 -1.777832e-01 3.487186e-01 1.644885e+00 1.553051e+00 1.293593e+00 2.903782e-02 -1.393684e-01 2.481981e-01 2.957332e-02 -1.594964e-01 -2.928636e+00 -6.522259e-01 1.277105e-01 -9.062340e-01 -3.079258e-01 4.333694e-01 8.274533e-01 9.684623e-01 3.638286e-01 2.092969e-02 7.891782e-01 7.592483e-01 -3.214830e-02 -7.321237e-01
<VARIANCE> 39
 1.916109e-01 3.656640e-01 6.664723e-01 3.882138e-01 4.367216e-01 9.092979e-01 6.376051e-01 9.022369e-01 8.995972e-01 7.506619e-01 6.119878e-01 1.120867e+00 2.865939e-01 6.021852e-01 7.129077e-01 1.872175e+00 1.106681e+00 1.001503e+00 1.617868e+00 1.140823e+00 1.322222e+00 1.587173e+00 1.350608e+00 9.795187e-01 1.335849e+00 1.275975e+00 7.322550e-01 6.743658e-01 1.159120e+00 8.337438e-01 9.660185e-01 1.507936e+00 1.110221e+00 1.206435e+00 1.088096e+00 9.528293e-01 8.430926e-01 1.352564e+00 1.729007e+00
<GCONST> 6.686649e+01
<MIXTURE> 2 2.381527e-01
<MEAN> 39
 1.725947e-01 6.261857e-01 6.403361e-02 9.751216e-03 6.168665e-01 3.464691e-01 1.009541e-01 -6.310173e-01 -9.232434e-01 2.993571e-01 -3.671001e-01 -2.763522e-02 -3.172445e-01 -8.627998e-01 7.520429e-01 9.813594e-01 1.335400e+00 1.030532e+00 4.643018e-01 3.480142e-01 8.246315e-02 -3.532301e-01 -6.195537e-01 -4.766379e-02 1.264411e-01 -1.603937e+00 -3.676231e-01 -1.931717e-01 2.098347e-01 2.083288e-01 5.783328e-02 -2.197908e-02 2.739042e-01 4.888669e-01 1.400487e-01 -2.319032e-01 -5.219311e-02 2.057063e-01 5.189251e-01
<VARIANCE> 39
 6.614445e-01 4.368055e-01 6.055242e-01 7.585759e-01 4.891045e-01 8.369654e-01 8.364010e-01 1.021237e+00 7.029386e-01 6.982285e-01 7.914957e-01 9.306388e-01 5.256842e-01 1.720356e+00 1.040918e+00 1.611409e+00 2.133862e+00 9.845027e-01 1.404260e+00 1.205497e+00 1.451470e+00 1.362090e+00 1.606485e+00 1.054338e+00 1.470816e+00 2.693549e+00 1.141021e+00 8.606988e-01 1.189401e+00 1.297210e+00 8.648881e-01 1.102390e+00 1.143473e+00 1.288316e+00 1.111159e+00 1.177315e+00 1.117701e+00 1.136546e+00 1.498163e+00
<GCONST> 7.352752e+01
<MIXTURE> 3 2.618693e-01
<MEAN> 39
 4.293816e-01 2.729699e-03 1.362092e+00 1.056391e+00 -1.223755e-01 -1.023550e+00 -1.139643e+00 -2.288483e-01 -6.131483e-01 -8.850576e-01 -1.183033e+00 2.647686e-01 4.790702e-01 -1.091434e+00 7.251182e-01 -2.186505e-01 2.340554e-01 1.479666e+00 1.321137e+00 9.874694e-01 -1.346798e-01 -3.215900e-01 1.745040e-02 -3.161729e-01 -4.482922e-01 -2.764875e+00 -7.284254e-01 -2.769473e-02 -1.107815e+00 -4.223510e-01 3.710057e-01 7.729369e-01 9.994961e-01 2.848250e-01 -6.354575e-02 7.016296e-01 6.929670e-01 -1.360520e-01 -8.606691e-01
<VARIANCE> 39
 1.844685e-01 3.524380e-01 6.448629e-01 4.234419e-01 4.584694e-01 9.439697e-01 6.084875e-01 9.686937e-01 1.087147e+00 7.301531e-01 6.032764e-01 1.096724e+00 2.681266e-01 5.580885e-01 7.078595e-01 1.685375e+00 1.200868e+00 9.917368e-01 1.478609e+00 1.184922e+00 1.458148e+00 1.628672e+00 1.263708e+00 1.059224e+00 1.231941e+00 1.120458e+00 6.993058e-01 6.782826e-01 1.180617e+00 9.476138e-01 9.558522e-01 1.411409e+00 1.071517e+00 1.135007e+00 1.132525e+00 9.425879e-01 8.410965e-01 1.318826e+00 1.621117e+00
<GCONST> 6.664085e+01
<MIXTURE> 4 2.350691e-01
<MEAN> 39
 3.307175e-01 5.231972e-01 -2.213173e-02 -7.681635e-02 5.031364e-01 2.192446e-01 3.305782e-02 -6.937729e-01 -9.073023e-01 3.038006e-01 -4.435040e-01 -1.792138e-01 -2.735804e-01 -8.476253e-01 5.716978e-01 8.754247e-01 1.276114e+00 8.110585e-01 2.180068e-01 3.399341e-02 -1.888957e-01 -5.420415e-01 -8.783501e-01 -3.770424e-01 -1.038394e-01 -1.608495e+00 -5.262033e-01 -3.122966e-01 3.969747e-02 6.082646e-02 -1.482871e-02 -7.056202e-02 2.149407e-01 4.194266e-01 6.729679e-02 -2.672774e-01 -9.882425e-02 1.515794e-01 2.666163e-01
<VARIANCE> 39
 6.021869e-01 5.081847e-01 5.920646e-01 8.671222e-01 5.014903e-01 9.044630e-01 8.676129e-01 1.082040e+00 7.773602e-01 7.557691e-01 8.412181e-01 9.955129e-01 5.824383e-01 1.424954e+00 9.971527e-01 1.473905e+00 2.239022e+00 1.021486e+00 1.359160e+00 1.172964e+00 1.469204e+00 1.396778e+00 1.612844e+00 1.140405e+00 1.408401e+00 2.399042e+00 1.205843e+00 8.710069e-01 1.149048e+00 1.286524e+00 9.166002e-01 1.089749e+00 1.139636e+00 1.319471e+00 1.061446e+00 1.198852e+00 1.144630e+00 1.133541e+00 1.523804e+00
<GCONST> 7.407092e+01
<STATE> 4
<NUMMIXES> 4
<MIXTURE> 1 2.730996e-01
<MEAN> 39
 -1.059793e-03 2.239796e-01 1.052635e+00 1.200634e+00 8.893995e-01 1.687635e-01 -1.314850e-01 -7.280074e-02 -7.489900e-01 -4.668853e-01 -8.695633e-01 6.579859e-02 -3.708271e-01 -1.051211e+00 8.704357e-01 -3.944305e-01 4.653539e-02 1.224244e+00 1.335120e+00 1.393027e+00 2.352512e-01 9.240344e-03 5.536898e-01 5.395676e-01 -6.230651e-02 -2.232009e+00 5.807782e-01 1.748667e-01 6.686592e-02 -4.953629e-01 -9.281650e-01 -9.566208e-01 -5.317054e-01 6.437461e-02 7.985894e-02 5.927724e-02 1.052539e-01 1.743621e-01 1.900851e+00
<VARIANCE> 39
 1.156964e-01 3.152553e-01 3.608070e-01 2.787030e-01 3.705176e-01 5.955161e-01 4.475718e-01 6.490586e-01 5.006328e-01 4.780380e-01 6.141144e-01 7.139438e-01 1.695083e-01 6.598077e-01 8.081381e-01 1.439069e+00 1.063985e+00 9.765083e-01 1.461112e+00 1.016024e+00 1.296797e+00 1.393617e+00 1.247221e+00 9.670503e-01 1.429150e+00 1.213434e+00 8.009495e-01 1.065294e+00 1.222192e+00 8.860217e-01 9.767912e-01 1.336721e+00 1.065810e+00 1.269849e+00 1.332601e+00 1.113518e+00 1.005846e+00 1.129387e+00 1.667627e+00
<GCONST> 6.231449e+01
<MIXTURE> 2 2.233233e-01
<MEAN> 39
 -3.419054e-02 8.490055e-01 3.141738e-01 3.743582e-01 1.040478e+00 6.932490e-01 3.603142e-01 -6.932039e-01 -1.313686e+00 -1.778076e-01 -2.847227e-01 2.752552e-01 -5.998642e-01 -8.817399e-01 4.154882e-01 9.491892e-01 1.083432e+00 6.425205e-01 -5.811687e-02 1.984561e-01 4.201749e-01 1.002032e-01 -4.211504e-01 -1.682673e-01 4.627499e-02 -8.791488e-01 4.081879e-01 -4.688803e-01 -3.390405e-01 -6.939622e-01 -6.678412e-01 -4.100841e-01 -1.959805e-01 4.009696e-01 7.176812e-01 4.190728e-01 -9.961066e-02 -1.194990e-01 1.658778e+00
<VARIANCE> 39
 4.161946e-01 3.668351e-01 4.893109e-01 4.727890e-01 4.959375e-01 6.945302e-01 4.899688e-01 8.250501e-01 5.869573e-01 5.915384e-01 6.690132e-01 8.971003e-01 2.821471e-01 1.330033e+00 1.070703e+00 1.142884e+00 1.347208e+00 9.247565e-01 1.091856e+00 1.024438e+00 1.263004e+00 1.106000e+00 1.209051e+00 1.141133e+00 1.334060e+00 1.597062e+00 1.196901e+00 9.798258e-01 1.406530e+00 1.453565e+00 9.205566e-01 1.167846e+00 1.052138e+00 1.259226e+00 1.094183e+00 1.326172e+00 1.021436e+00 1.285263e+00 1.837365e+00
<GCONST> 6.824103e+01
<MIXTURE> 3 2.788971e-01
<MEAN> 39
 -2.547536e-03 2.325902e-01 9.638944e-01 1.128804e+00 8.357072e-01 3.569813e-02 -2.185707e-01 -1.336206e-01 -7.256193e-01 -5.374389e-01 -9.950331e-01 -7.291318e-02 -4.029576e-01 -1.045489e+00 6.958961e-01 -6.141604e-01 -1.532489e-01 9.908670e-01 1.095695e+00 1.176012e+00 2.494046e-02 -2.199993e-01 3.539053e-01 2.486575e-01 -3.505442e-01 -2.107781e+00 6.583502e-01 9.218740e-02 4.000318e-02 -5.936526e-01 -1.037216e+00 -9.947172e-01 -5.790880e-01 -2.935709e-02 7.017823e-02 7.790801e-02 7.774817e-02 1.665844e-01 1.847286e+00
<VARIANCE> 39
 1.206833e-01 3.241012e-01 4.061349e-01 3.058574e-01 3.730137e-01 6.216774e-01 4.548619e-01 6.301469e-01 5.614792e-01 5.037695e-01 6.263608e-01 7.171468e-01 1.690865e-01 6.249349e-01 8.528379e-01 1.363451e+00 1.178825e+00 9.133601e-01 1.381083e+00 1.035067e+00 1.238973e+00 1.494649e+00 1.299873e+00 9.897554e-01 1.398712e+00 1.085289e+00 8.100997e-01 1.093709e+00 1.258075e+00 9.702421e-01 9.624507e-01 1.377466e+00 1.071488e+00 1.239052e+00 1.397140e+00 1.214677e+00 1.038502e+00 1.197569e+00 1.668457e+00
<GCONST> 6.309881e+01
<MIXTURE> 4 2.246817e-01
<MEAN> 39
 1.743035e-02 7.755284e-01 2.731892e-01 3.449599e-01 9.354116e-01 5.437036e-01 3.167259e-01 -7.125999e-01 -1.265006e+00 -1.804814e-01 -3.990681e-01 8.406405e-02 -6.958103e-01 -6.830966e-01 2.960975e-01 8.161872e-01 9.211510e-01 4.309651e-01 -2.192366e-01 -4.833318e-02 1.807314e-01 -8.876836e-02 -5.757093e-01 -4.832985e-01 -2.400870e-01 -8.021573e-01 2.625341e-01 -5.797611e-01 -4.828733e-01 -8.049266e-01 -6.987998e-01 -4.937689e-01 -2.798680e-01 3.119842e-01 6.044460e-01 3.557508e-01 -9.815150e-02 -1.093334e-01 1.361246e+00
<VARIANCE> 39
 3.794352e-01 4.380072e-01 4.885480e-01 4.966350e-01 5.018346e-01 6.916882e-01 4.734737e-01 8.158910e-01 6.834580e-01 6.284741e-01 6.947245e-01 9.953805e-01 3.187423e-01 1.189675e+00 1.097888e+00 1.156934e+00 1.334330e+00 9.480441e-01 1.099411e+00 9.979686e-01 1.193803e+00 1.176734e+00 1.230511e+00 1.158671e+00 1.265451e+00 1.386120e+00 1.230217e+00 9.914250e-01 1.374763e+00 1.417950e+00 9.684637e-01 1.192056e+00 1.052495e+00 1.246246e+00 1.087150e+00 1.278085e+00 9.802970e-01 1.255782e+00 1.793723e+00
<GCONST> 6.849914e+01
<STATE> 5
<NUMMIXES> 4
<MIXTURE> 1 2.434812e-01
<MEAN> 39
 -1.874798e-01 1.106161e+00 7.272481e-01 7.038369e-01 9.551410e-01 4.960710e-01 4.956640e-01 -1.852031e-01 -7.600240e-01 -1.235062e-01 -4.845334e-01 -2.067491e-01 -1.052324e+00 -2.933947e-01 4.870506e-01 -1.518757e-01 -1.337236e-01 2.745678e-01 1.608113e-01 3.459168e-01 1.113081e-01 -3.618513e-02 3.488395e-01 1.118709e-01 -4.368782e-02 -4.672397e-01 -1.419918e-01 -3.813870e-01 3.738530e-01 3.061292e-01 -1.641727e-01 -2.900741e-01 -2.997402e-01 -1.624554e-03 -4.685715e-03 -3.702803e-01 -1.860996e-01 1.904246e-01 9.544402e-01
<VARIANCE> 39
 8.011393e-02 2.614629e-01 2.713512e-01 2.315214e-01 2.808874e-01 4.430778e-01 3.402390e-01 5.616478e-01 3.028802e-01 4.443751e-01 4.467744e-01 6.933227e-01 1.434306e-01 3.748993e-01 7.468590e-01 7.718921e-01 7.196410e-01 5.508308e-01 7.593966e-01 7.525749e-01 9.118906e-01 8.553287e-01 8.661435e-01 8.411146e-01 9.344943e-01 5.914388e-01 5.867209e-01 7.758533e-01 7.604769e-01 6.223656e-01 7.460324e-01 8.950335e-01 9.183155e-01 9.234990e-01 9.565011e-01 8.534697e-01 8.634362e-01 9.226233e-01 1.352057e+00
<GCONST> 4.977858e+01
<MIXTURE> 2 2.568416e-01
<MEAN> 39
 -2.847786e-01 9.924386e-01 9.833417e-01 9.893187e-01 1.035024e+00 4.348392e-01 3.775496e-01 -1.656176e-01 -9.292954e-01 -5.470816e-01 -9.334997e-01 -2.385038e-01 -9.152039e-01 -4.613415e-01 -2.777559e-01 6.448187e-02 5.630669e-02 -4.757508e-02 -1.654796e-02 4.113391e-02 2.459350e-01 3.339528e-01 4.032550e-02 2.336272e-01 2.855077e-01 3.979976e-01 3.117227e-01 -3.182034e-01 -4.724910e-01 -5.421610e-01 -4.141058e-01 -1.479156e-01 -1.548214e-01 -4.763043e-02 1.084848e-01 4.743351e-01 3.818290e-01 2.448788e-01 1.143694e+00
<VARIANCE> 39
 2.313588e-01 4.382528e-01 4.270488e-01 4.069399e-01 4.285473e-01 6.287323e-01 5.194796e-01 7.094291e-01 4.702882e-01 5.352712e-01 6.281222e-01 8.513485e-01 2.888294e-01 6.360769e-01 1.024067e+00 7.960722e-01 7.797918e-01 6.449485e-01 8.705118e-01 8.288081e-01 8.604316e-01 8.608096e-01 9.543514e-01 9.538095e-01 1.004178e+00 6.809031e-01 9.244195e-01 1.285347e+00 9.609929e-01 9.095747e-01 9.494369e-01 1.086831e+00 1.012975e+00 1.060426e+00 1.087974e+00 1.080542e+00 9.644369e-01 1.226206e+00 2.018284e+00
<GCONST> 6.080932e+01
<MIXTURE> 3 2.435073e-01
<MEAN> 39
 -2.084104e-01 9.524243e-01 9.217317e-01 9.413121e-01 9.703052e-01 3.118460e-01 2.902177e-01 -2.569193e-01 -9.498737e-01 -5.585924e-01 -9.840461e-01 -3.204587e-01 -9.631820e-01 -4.113553e-01 -3.331325e-01 -4.514236e-02 -1.049646e-01 -1.688529e-01 -1.901701e-01 -1.461372e-01 9.302559e-02 1.726541e-01 -1.157165e-01 -7.838525e-03 5.287678e-02 2.903964e-01 2.505668e-01 -4.361331e-01 -6.555895e-01 -6.807553e-01 -4.695737e-01 -2.669041e-01 -2.336818e-01 -1.040950e-01 6.121663e-02 4.641199e-01 2.877843e-01 1.858110e-01 1.159070e+00
<VARIANCE> 39
 2.168086e-01 4.650173e-01 4.229749e-01 3.979856e-01 4.094304e-01 6.036844e-01 5.057974e-01 6.823682e-01 4.921439e-01 5.354400e-01 6.364317e-01 8.188194e-01 2.559589e-01 5.388038e-01 1.002829e+00 7.982337e-01 7.818938e-01 6.279447e-01 8.745731e-01 8.110666e-01 8.598218e-01 8.917329e-01 9.792410e-01 9.278951e-01 9.983303e-01 6.888530e-01 9.674922e-01 1.350368e+00 1.004958e+00 9.471037e-01 9.844812e-01 1.194096e+00 1.065984e+00 1.073119e+00 1.102411e+00 1.087026e+00 9.730997e-01 1.250968e+00 2.171751e+00
<GCONST> 6.082710e+01
<MIXTURE> 4 2.561694e-01
<MEAN> 39
 -2.031493e-01 1.109810e+00 6.583120e-01 6.260138e-01 8.738941e-01 3.837705e-01 4.269694e-01 -2.774834e-01 -7.731057e-01 -1.354514e-01 -5.356452e-01 -2.789225e-01 -1.074768e+00 -3.054770e-01 3.302045e-01 -2.156848e-01 -2.504585e-01 1.181744e-01 -1.884222e-02 1.556230e-01 -3.577390e-02 -1.888699e-01 1.593346e-01 -9.718189e-02 -2.239354e-01 -3.988963e-01 -1.338931e-01 -4.969448e-01 2.310454e-01 1.725401e-01 -2.390140e-01 -3.485880e-01 -3.309030e-01 -3.794101e-02 -1.725170e-02 -3.747383e-01 -2.708808e-01 1.372499e-01 9.896417e-01
<VARIANCE> 39
 8.005557e-02 2.680978e-01 2.718218e-01 2.423317e-01 2.574047e-01 4.229119e-01 3.303148e-01 5.022954e-01 2.916436e-01 4.433129e-01 4.504787e-01 6.549756e-01 1.273805e-01 3.786120e-01 7.445087e-01 7.632846e-01 7.109705e-01 5.516455e-01 6.944445e-01 7.637666e-01 8.649586e-01 8.547768e-01 8.833508e-01 8.263200e-01 9.009643e-01 5.641133e-01 5.473353e-01 7.904760e-01 7.819995e-01 6.026949e-01 7.387279e-01 8.701638e-01 9.670025e-01 9.111555e-01 9.123609e-01 8.498981e-01 8.786916e-01 9.609784e-01 1.366583e+00
<GCONST> 4.910504e+01
<STATE> 6
<NUMMIXES> 4
<MIXTURE> 1 3.034272e-01
<MEAN> 39
 -6.107430e-01 6.066118e-01 5.954685e-01 6.383257e-01 9.778385e-01 2.440580e-01 3.532532e-01 -3.988422e-02 -8.004209e-01 -9.165494e-02 -4.209534e-01 2.290088e-01 -4.994066e-01 -2.242147e-01 -9.980401e-02 -8.387020e-02 -1.250055e-01 -1.723503e-01 -4.094015e-01 -2.216112e-01 1.456632e-01 2.399108e-02 8.362226e-02 -9.622341e-02 3.553431e-01 1.925898e+00 1.169994e+00 5.787230e-01 2.869799e-01 3.378813e-02 -3.682793e-01 -2.191444e-01 -3.435529e-01 -1.490907e-01 6.405383e-02 1.392484e-02 -2.450960e-01 -3.753544e-02 1.126371e+00
<VARIANCE> 39
 2.974349e-01 4.929965e-01 4.704549e-01 4.421117e-01 4.332840e-01 6.810464e-01 5.505492e-01 7.293051e-01 5.027400e-01 5.299531e-01 6.477530e-01 6.865841e-01 2.228487e-01 1.166606e+00 1.446714e+00 1.165008e+00 1.070895e+00 8.513982e-01 1.195638e+00 1.059724e+00 1.261102e+00 1.026827e+00 1.220649e+00 1.167247e+00 1.232019e+00 1.086100e+00 1.299296e+00 1.593146e+00 1.497701e+00 1.204966e+00 1.136740e+00 1.151698e+00 1.155723e+00 1.319407e+00 1.350639e+00 1.259843e+00 1.141514e+00 1.308468e+00 1.746137e+00
<GCONST> 6.764355e+01
<MIXTURE> 2 1.882785e-01
<MEAN> 39
 -6.111041e-01 3.676941e-01 -4.429928e-02 -4.419972e-02 4.428930e-01 1.114895e-01 2.155254e-01 8.607718e-02 -1.183891e-01 5.085135e-01 -2.383083e-01 1.027016e-01 -1.320341e+00 -5.038578e-02 1.842492e-01 -3.858481e-02 8.880362e-03 1.278716e-01 1.354096e-01 1.676964e-01 3.573290e-02 -5.980916e-02 2.710292e-01 1.744904e-01 8.714046e-02 1.230100e-01 3.877231e-02 6.625918e-02 3.644119e-01 4.527430e-01 3.132418e-01 1.389548e-01 1.231296e-01 -1.015681e-02 -1.951668e-01 -2.761111e-01 -1.498679e-01 4.226956e-02 3.849021e-01
<VARIANCE> 39
 1.478457e-01 5.466868e-01 3.462941e-01 3.713452e-01 3.135210e-01 5.839073e-01 5.303761e-01 6.156155e-01 4.193501e-01 5.604154e-01 6.111027e-01 7.778276e-01 2.395422e-01 3.464590e-01 8.000380e-01 8.457137e-01 9.999662e-01 6.400719e-01 7.453532e-01 7.221029e-01 8.463334e-01 8.677351e-01 1.142522e+00 8.681478e-01 9.719188e-01 5.255091e-01 5.789805e-01 1.042487e+00 1.031834e+00 1.051049e+00 8.022448e-01 8.361641e-01 8.639055e-01 9.337749e-01 1.025887e+00 1.250841e+00 1.038186e+00 1.134830e+00 9.754570e-01
<GCONST> 5.651812e+01
<MIXTURE> 3 2.923775e-01
<MEAN> 39
 -4.932560e-01 5.441088e-01 6.052008e-01 6.196794e-01 9.144508e-01 1.726128e-01 2.350436e-01 -8.549370e-02 -7.966167e-01 -1.824006e-01 -5.102516e-01 1.357494e-01 -6.227101e-01 -2.095362e-01 -3.393026e-01 -2.128270e-01 -3.689029e-01 -3.665437e-01 -6.728711e-01 -4.822334e-01 -9.675736e-02 -1.145204e-01 -8.205166e-02 -2.220287e-01 1.540387e-01 1.568094e+00 9.731990e-01 3.836226e-01 3.635824e-02 -1.526984e-01 -4.275962e-01 -4.064180e-01 -4.390548e-01 -2.331583e-01 -6.960514e-02 3.505293e-02 -2.924140e-01 -8.195890e-02 1.171198e+00
<VARIANCE> 39
 2.829283e-01 5.037331e-01 4.231045e-01 4.109273e-01 4.261349e-01 6.786922e-01 5.646833e-01 7.192150e-01 5.400909e-01 5.358660e-01 7.065756e-01 7.283916e-01 2.377078e-01 8.974056e-01 1.408284e+00 1.165467e+00 1.124699e+00 8.260073e-01 1.207658e+00 1.069946e+00 1.209361e+00 1.043500e+00 1.209715e+00 1.125420e+00 1.229595e+00 1.150022e+00 1.156344e+00 1.564505e+00 1.378370e+00 1.200303e+00 1.076604e+00 1.202299e+00 1.128052e+00 1.252998e+00 1.313978e+00 1.282310e+00 1.161548e+00 1.306484e+00 1.837604e+00
<GCONST> 6.720219e+01
<MIXTURE> 4 2.159110e-01
<MEAN> 39
 -7.692507e-01 4.828892e-02 -3.229824e-01 -2.846234e-01 3.242683e-01 -1.077529e-01 -1.995351e-02 -2.764553e-03 -3.229018e-02 5.973859e-01 -4.894899e-01 1.544192e-01 -1.568684e+00 -9.626578e-02 3.105578e-02 -1.241349e-01 -1.270693e-01 -8.454254e-02 -1.166845e-01 -9.544319e-02 -1.310282e-01 -1.535855e-01 -8.939005e-03 -1.000672e-01 -9.062272e-02 -8.748345e-02 -1.326117e-02 -3.899398e-02 9.204670e-02 1.504081e-01 8.434010e-02 -3.487885e-02 -4.879726e-02 -4.629156e-02 -1.054694e-01 -1.403292e-01 -9.615169e-02 -4.387736e-03 1.472864e-01
<VARIANCE> 39
 9.498238e-02 4.267699e-01 2.775010e-01 3.246063e-01 2.912594e-01 5.631199e-01 5.127971e-01 6.463668e-01 3.880271e-01 5.738804e-01 6.037564e-01 7.752520e-01 2.058574e-01 2.629248e-01 6.938339e-01 6.851177e-01 7.678239e-01 6.055573e-01 6.693150e-01 6.547837e-01 8.041482e-01 8.679624e-01 1.080275e+00 8.085934e-01 9.892204e-01 5.047300e-01 4.910857e-01 9.066339e-01 9.153268e-01 9.222897e-01 8.458048e-01 7.987140e-01 7.853835e-01 9.771093e-01 1.106862e+00 1.182114e+00 9.665707e-01 1.128694e+00 7.915871e-01
<GCONST> 5.293774e+01
<TRANSP> 7
 0.000000e+00 1.000000e+00 0.000000e+00 0.000000e+00 0.000000e+00 0.000000e+00 0.000000e+00
 0.000000e+00 6.180688e-01 3.819312e-01 0.000000e+00 0.000000e+00 0.000000e+00 0.000000e+00
 0.000000e+00 0.000000e+00 4.258951e-01 5.741049e-01 0.000000e+00 0.000000e+00 0.000000e+00
 0.000000e+00 0.000000e+00 0.000000e+00 5.029573e-01 4.970428e-01 0.000000e+00 0.000000e+00
 0.000000e+00 0.000000e+00 0.000000e+00 0.000000e+00 7.716287e-01 2.283712e-01 0.000000e+00
 0.000000e+00 0.000000e+00 0.000000e+00 0.000000e+00 0.000000e+00 7.633154e-01 2.366846e-01
 0.000000e+00 0.000000e+00 0.000000e+00 0.000000e+00 0.000000e+00 0.000000e+00 0.000000e+00
<ENDHMM>
~h "e"
<BEGINHMM>
<NUMSTATES> 7
<STATE> 2
<NUMMIXES> 4
<MIXTURE> 1 1.811522e-01
<MEAN> 39
 -1.768796e+00 1.840900e+00 -4.164730e-01 9.883154e-01 9.933618e-01 -6.453243e-01 1.427872e+00 -8.061595e-02 -9.786116e-01 -1.057935e-01 -5.277143e-01 6.045693e-01 3.944351e-01 6.483688e-01 1.023460e-01 5.915138e-01 1.972625e-01 7.370608e-02 -1.234178e-01 2.551173e-02 5.200941e-02 5.707019e-02 -6.293952e-03 -3.162610e-02 1.087113e-01 3.420931e-01 1.139203e+00 -2.749276e-01 6.645215e-01 1.972118e-01 -1.741499e-01 -1.586787e-01 -3.860773e-01 9.762374e-02 6.410439e-02 -4.989514e-02 -2.486593e-02 6.283104e-03 1.347523e-01
<VARIANCE> 39
 2.803354e-01 3.634701e-01 9.068118e-01 5.555819e-01 6.145167e-01 8.067058e-01 4.226325e-01 7.260957e-01 4.870539e-01 4.004285e-01 4.795406e-01 6.133628e-01 2.887503e-01 2.377651e+00 9.015114e-01 1.736240e+00 9.313201e-01 7.885615e-01 1.174957e+00 1.072475e+00 9.901783e-01 8.706645e-01 9.176745e-01 8.715433e-01 1.107197e+00 6.226993e-01 1.305909e+00 1.091779e+00 1.238986e+00 1.049701e+00 1.110556e+00 1.338465e+00 1.273725e+00 1.105652e+00 1.121595e+00 1.105502e+00 1.017255e+00 1.278457e+00 7.253127e-01
<GCONST> 6.473022e+01
<MIXTURE> 2 3.212292e-01
<MEAN> 39
 5.658805e-03 3.027584e-01 8.737459e-01 7.739711e-01 1.662578e-02 -6.768070e-01 -1.246848e-01 -1.998397e-01 -7.832832e-01 -3.776368e-01 -7.005192e-01 1.705417e-01 2.248219e-01 1.087812e+00 -2.053418e-01 1.141860e+00 4.008237e-01 -8.386641e-01 -9.640531e-01 -5.239884e-01 3.920851e-01 9.791560e-02 -2.861192e-01 1.726335e-01 6.366816e-01 1.339585e+00 2.565774e-02 -4.349225e-01 1.809889e-01 -1.202740e-01 -4.508802e-01 3.905228e-02 -1.169101e-01 2.916450e-01 2.090012e-01 7.528248e-02 4.285567e-01 3.523068e-01 2.710983e-01
<VARIANCE> 39
 3.543215e-01 8.851312e-01 9.622253e-01 5.856578e-01 6.851287e-01 9.216725e-01 8.582352e-01 1.052708e+00 7.795049e-01 9.274607e-01 8.071321e-01 8.720258e-01 6.207950e-01 1.660318e+00 1.260214e+00 1.917242e+00 1.327830e+00 1.243200e+00 1.663231e+00 1.457912e+00 1.538092e+00 1.212200e+00 1.297396e+00 1.223679e+00 1.405477e+00 1.344108e+00 1.262229e+00 1.305606e+00 1.377883e+00 1.052419e+00 1.126041e+00 1.445751e+00 1.287668e+00 1.273115e+00 1.148297e+00 1.122288e+00 1.096051e+00 1.172299e+00 1.120925e+00
<GCONST> 7.519933e+01
<MIXTURE> 3 3.183772e-01
<MEAN> 39
 3.640962e-02 2.640435e-01 8.123422e-01 7.439514e-01 1.944852e-02 -8.361287e-01 -2.162760e-01 -1.969996e-01 -8.334025e-01 -2.460023e-01 -7.531075e-01 7.374299e-02 1.534333e-01 9.770120e-01 -3.632143e-01 8.897638e-01 1.504252e-01 -8.814045e-01 -1.207368e+00 -8.084559e-01 2.981343e-01 -9.656879e-02 -3.955259e-01 -5.894287e-02 3.235161e-01 1.116446e+00 -1.459926e-01 -5.278565e-01 -6.274769e-02 -2.321770e-01 -4.532882e-01 -5.720201e-02 -1.198616e-01 2.889392e-01 6.376658e-02 -1.332086e-02 2.242462e-01 2.470666e-01 1.305991e-01
<VARIANCE> 39
 3.562695e-01 1.014313e+00 1.150645e+00 6.558336e-01 7.442806e-01 9.945838e-01 9.244447e-01 1.125100e+00 8.702220e-01 1.073193e+00 8.880598e-01 1.021045e+00 7.102432e-01 1.734965e+00 1.253697e+00 1.813584e+00 1.334713e+00 1.195207e+00 1.614663e+00 1.369563e+00 1.613638e+00 1.266440e+00 1.310215e+00 1.335757e+00 1.452956e+00 1.319626e+00 1.337454e+00 1.574462e+00 1.445628e+00 1.131568e+00 1.177073e+00 1.390747e+00 1.274214e+00 1.397878e+00 1.195462e+00 1.131467e+00 1.152920e+00 1.248422e+00 1.049708e+00
<GCONST> 7.718810e+01
<MIXTURE> 4 1.792414e-01
<MEAN> 39
 -1.727198e+00 1.837718e+00 -2.714265e-01 9.804312e-01 1.024863e+00 -6.118591e-01 1.402319e+00 -8.199239e-02 -9.539372e-01 -1.369245e-01 -6.058261e-01 5.250528e-01 3.353384e-01 5.884562e-01 -1.089743e-01 3.943042e-01 -8.143449e-02 -2.192163e-01 -4.308894e-01 -3.404659e-01 -2.501588e-01 -2.535217e-01 -2.547838e-01 -3.017921e-01 -1.241314e-01 2.010419e-01 8.619868e-01 -4.708316e-01 3.087729e-01 -6.938741e-02 -3.045571e-01 -2.905331e-01 -4.828754e-01 -7.546182e-02 -9.136127e-02 -4.091090e-02 -5.487369e-02 -3.776488e-02 5.873869e-02
<VARIANCE> 39
 3.030859e-01 4.028312e-01 1.007770e+00 5.812855e-01 5.485592e-01 7.981429e-01 4.664451e-01 7.261484e-01 4.722930e-01 4.261143e-01 4.792035e-01 6.264634e-01 3.361134e-01 2.383446e+00 8.955997e-01 1.606294e+00 9.647144e-01 7.528021e-01 1.222920e+00 1.196930e+00 9.661167e-01 8.984415e-01 9.838634e-01 9.163368e-01 1.053120e+00 7.537685e-01 1.308909e+00 1.164568e+00 1.153446e+00 1.024418e+00 1.101726e+00 1.272464e+00 1.300650e+00 1.135899e+00 1.083017e+00 1.078169e+00 1.010629e+00 1.246130e+00 7.834510e-01
<GCONST> 6.550945e+01
<STATE> 3
<NUMMIXES> 4
<MIXTURE> 1 2.873318e-01
<MEAN> 39
 4.292291e-01 -3.632929e-01 1.707191e+00 8.753194e-01 -1.249566e+00 -1.227418e+00 -7.875478e-01 1.837956e-01 -3.466775e-01 -9.282291e-01 -1.281098e-01 9.331039e-01 1.050614e+00 3.520832e-02 -4.933147e-01 5.881366e-01 -3.182029e-01 -9.409262e-01 -1.825047e-01 -3.430605e-01 3.541458e-01 3.054179e-01 -4.424360e-02 7.878714e-01 5.637297e-01 9.711816e-01 -4.918961e-01 6.458371e-01 -5.761847e-01 2.760130e-02 9.157325e-01 4.794997e-01 3.585969e-01 -3.107477e-01 -3.406597e-01 2.263454e-01 -1.189853e-01 -3.773843e-01 -8.752182e-01
<VARIANCE> 39
 1.387571e-01 5.101416e-01 6.957973e-01 4.308042e-01 3.409041e-01 6.229247e-01 6.734011e-01 1.046769e+00 8.336521e-01 6.513647e-01 6.778384e-01 8.268827e-01 2.445399e-01 4.047685e-01 7.433234e-01 1.058839e+00 7.016241e-01 7.473450e-01 1.121401e+00 9.498255e-01 9.833550e-01 9.233119e-01 7.774472e-01 7.982212e-01 8.752134e-01 6.002662e-01 6.734890e-01 6.045098e-01 9.131093e-01 6.751803e-01 7.105420e-01 9.615093e-01 9.416475e-01 8.890241e-01 7.355703e-01 7.190078e-01 7.321952e-01 7.722239e-01 5.656289e-01
<GCONST> 5.666542e+01
<MIXTURE> 2 2.186219e-01
<MEAN> 39
 2.902954e-01 3.591577e-01 1.152380e+00 1.065509e+00 -8.271968e-02 -1.668396e+00 -3.039852e-01 1.044486e-01 -1.010060e+00 -4.192556e-01 -9.642342e-01 6.347293e-01 7.635993e-01 1.216422e+00 -1.387987e+00 7.924332e-01 -5.403423e-02 -1.212254e+00 -7.238345e-01 -8.939502e-01 5.949889e-01 1.427409e-01 -3.868179e-02 2.316564e-01 6.247667e-01 1.085288e+00 -1.347998e+00 -5.921477e-02 -4.003842e-01 -4.199896e-01 8.035316e-02 9.342442e-01 3.589883e-01 -3.655956e-02 1.863977e-01 1.742365e-01 3.864560e-01 -9.579679e-02 -3.133751e-01
<VARIANCE> 39
 2.777864e-01 4.986139e-01 7.501178e-01 4.643607e-01 4.135422e-01 9.968659e-01 5.999179e-01 7.394683e-01 7.023216e-01 7.976159e-01 7.592762e-01 7.208560e-01 4.538455e-01 1.259848e+00 1.156027e+00 1.364848e+00 9.929500e-01 9.269320e-01 1.159678e+00 1.180167e+00 9.311175e-01 9.793230e-01 9.513485e-01 9.239371e-01 9.947022e-01 8.120406e-01 1.203240e+00 1.114184e+00 1.222729e+00 8.646126e-01 7.858385e-01 9.292793e-01 8.911424e-01 8.133876e-01 7.406159e-01 8.754610e-01 7.099263e-01 8.916640e-01 5.510799e-01
<GCONST> 6.368395e+01
<MIXTURE> 3 2.892899e-01
<MEAN> 39
 3.956052e-01 -3.030357e-01 1.755077e+00 8.657408e-01 -1.243732e+00 -1.339998e+00 -8.917350e-01 1.786794e-01 -5.207785e-01 -9.134346e-01 -1.509660e-01 8.889981e-01 1.024137e+00 5.268194e-03 -5.408746e-01 4.908960e-01 -4.569927e-01 -9.568734e-01 -2.160559e-01 -4.592250e-01 2.440202e-01 1.493124e-01 -9.721948e-02 5.772544e-01 3.648357e-01 9.299916e-01 -5.143022e-01 6.334026e-01 -7.342573e-01 -3.089726e-02 8.908821e-01 4.073213e-01 4.464676e-01 -3.084754e-01 -3.838757e-01 2.068213e-01 -2.311038e-01 -4.510214e-01 -9.879225e-01
<VARIANCE> 39
 1.425234e-01 4.994239e-01 6.961635e-01 4.635890e-01 3.536327e-01 6.486220e-01 6.466457e-01 1.036257e+00 8.243127e-01 6.785148e-01 6.902620e-01 8.604131e-01 2.607489e-01 3.915642e-01 8.359013e-01 1.037754e+00 7.261621e-01 7.395006e-01 1.097420e+00 9.293376e-01 9.371081e-01 8.006306e-01 7.382256e-01 7.275797e-01 8.418044e-01 5.731541e-01 7.495046e-01 6.396136e-01 9.965454e-01 6.962109e-01 7.104907e-01 9.720352e-01 9.152398e-01 9.458439e-01 7.099980e-01 7.144654e-01 7.237101e-01 8.258585e-01 5.648557e-01
<GCONST> 5.688536e+01
<MIXTURE> 4 2.047603e-01
<MEAN> 39
 3.276288e-01 3.334130e-01 1.058775e+00 1.061737e+00 -1.856130e-02 -1.813345e+00 -3.752878e-01 1.250488e-01 -1.130379e+00 -3.222049e-01 -9.962888e-01 5.530400e-01 7.358529e-01 1.210130e+00 -1.528084e+00 6.259843e-01 -2.854384e-01 -1.272883e+00 -8.470236e-01 -1.109493e+00 5.775279e-01 -1.395169e-01 -1.064622e-01 7.880129e-03 3.149473e-01 9.195548e-01 -1.584132e+00 -1.331770e-02 -6.327711e-01 -4.815376e-01 1.566348e-02 7.404080e-01 4.078734e-01 -6.515765e-02 9.170370e-02 1.087114e-01 1.832946e-01 -9.066378e-02 -4.547076e-01
<VARIANCE> 39
 2.598938e-01 4.964831e-01 7.410139e-01 4.526634e-01 3.731797e-01 9.706250e-01 6.275048e-01 6.712385e-01 6.469502e-01 8.378038e-01 7.760619e-01 7.089499e-01 5.304703e-01 1.269890e+00 1.171740e+00 1.194964e+00 1.080603e+00 8.393401e-01 1.078846e+00 1.216204e+00 9.552804e-01 9.009523e-01 9.409616e-01 9.186164e-01 9.598049e-01 8.266205e-01 1.190685e+00 1.255064e+00 1.207640e+00 8.472495e-01 7.762893e-01 9.084834e-01 9.086214e-01 8.220075e-01 7.042090e-01 8.991484e-01 7.370298e-01 8.901815e-01 5.675496e-01
<GCONST> 6.337412e+01
<STATE> 4
<NUMMIXES> 4
<MIXTURE> 1 2.679696e-01
<MEAN> 39
 4.432565e-01 -4.272090e-01 1.766488e+00 6.868796e-01 -1.417138e+00 -1.525957e+00 -9.824416e-01 3.963827e-01 -8.627374e-01 -6.528733e-01 -1.085774e-01 1.170562e+00 1.368965e+00 -7.476855e-03 2.234776e-02 1.425392e-02 5.968169e-02 2.230785e-02 -2.010978e-02 1.305448e-02 5.395638e-02 -1.322350e-02 1.123025e-02 9.897921e-02 3.820041e-02 3.537522e-02 4.325363e-02 4.050607e-02 -4.958928e-02 9.593823e-02 1.757973e-01 -1.299165e-02 5.865426e-02 2.329717e-02 -1.851220e-02 1.034410e-02 -7.168692e-02 -3.234445e-02 -1.688295e-01
<VARIANCE> 39
 1.403736e-01 3.161773e-01 4.197606e-01 3.344128e-01 3.010484e-01 6.809711e-01 4.939573e-01 9.027959e-01 1.004135e+00 5.080947e-01 1.094632e+00 8.317754e-01 1.943159e-01 1.353029e-01 1.740943e-01 3.341053e-01 2.908241e-01 2.746744e-01 3.615350e-01 3.585018e-01 4.009119e-01 3.600042e-01 3.648032e-01 3.687199e-01 4.438578e-01 1.122096e-01 1.818254e-01 1.825996e-01 3.169474e-01 2.755806e-01 3.163866e-01 3.661332e-01 3.670288e-01 3.672678e-01 3.324137e-01 3.447922e-01 3.381965e-01 4.264050e-01 1.428329e-01
<GCONST> 2.939369e+01
<MIXTURE> 2 2.350681e-01
<MEAN> 39
 4.761037e-01 -1.170786e-01 1.548039e+00 5.608513e-01 -9.598098e-01 -1.689815e+00 -7.862331e-01 4.305248e-01 -1.213486e+00 -4.217547e-01 -3.462790e-01 9.378752e-01 9.299703e-01 -4.174978e-03 -1.160161e-02 1.734529e-01 8.718030e-02 -9.648532e-02 4.606007e-02 1.211140e-02 4.274699e-02 -8.371119e-02 -4.412872e-02 1.921275e-01 1.007568e-01 1.834907e-01 -6.384718e-02 7.521632e-02 -4.257694e-02 2.205941e-01 1.944669e-01 1.651173e-01 9.486797e-02 -3.280632e-02 8.562344e-02 -7.334112e-02 -4.510750e-02 -9.037566e-02 -2.490913e-01
<VARIANCE> 39
 2.372107e-01 4.872783e-01 7.325173e-01 4.906149e-01 5.862814e-01 1.377690e+00 6.068959e-01 1.181623e+00 9.834575e-01 9.205287e-01 1.182962e+00 1.024134e+00 3.477966e-01 3.249189e-01 4.944724e-01 6.826470e-01 6.371219e-01 4.753153e-01 7.252692e-01 6.740388e-01 7.445828e-01 6.058900e-01 6.963748e-01 5.549995e-01 7.167793e-01 3.133663e-01 4.951436e-01 5.562478e-01 7.103089e-01 5.730999e-01 6.577973e-01 8.014513e-01 7.566853e-01 7.467371e-01 6.054478e-01 6.815628e-01 5.927166e-01 7.201104e-01 4.163937e-01
<GCONST> 5.361392e+01
<MIXTURE> 3 2.665038e-01
<MEAN> 39
 4.603392e-01 -4.361293e-01 1.756175e+00 6.769916e-01 -1.432950e+00 -1.548471e+00 -1.105756e+00 4.083676e-01 -9.797089e-01 -7.089496e-01 -8.151904e-02 1.040275e+00 1.321119e+00 -1.094285e-02 -1.467595e-02 -7.894479e-03 3.289633e-02 -2.014352e-02 -7.458388e-02 -1.230782e-02 7.466227e-04 -6.417459e-02 -6.136601e-02 -1.090141e-02 -7.869383e-02 -3.382484e-02 2.166454e-02 1.331726e-02 -8.908577e-02 6.759857e-02 1.596519e-01 -5.477062e-02 4.409889e-02 1.149841e-03 -4.573297e-02 -1.917562e-02 -1.554802e-01 -9.002180e-02 -2.159827e-01
<VARIANCE> 39
 1.429164e-01 2.969937e-01 4.174759e-01 3.394420e-01 2.968505e-01 6.521226e-01 4.785433e-01 8.848717e-01 9.269167e-01 4.835278e-01 1.035090e+00 8.013758e-01 1.968313e-01 1.348072e-01 1.771672e-01 3.376846e-01 3.031918e-01 2.808598e-01 3.665225e-01 3.448820e-01 3.961501e-01 3.592058e-01 3.727329e-01 3.693726e-01 4.488160e-01 1.140671e-01 1.862261e-01 1.815370e-01 3.171833e-01 2.798840e-01 3.194759e-01 3.686947e-01 3.696150e-01 3.754420e-01 3.333125e-01 3.483939e-01 3.507443e-01 4.259914e-01 1.500500e-01
<GCONST> 2.931744e+01
<MIXTURE> 4 2.304533e-01
<MEAN> 39
 4.781657e-01 -1.214843e-01 1.499014e+00 5.213974e-01 -9.299432e-01 -1.759090e+00 -9.100308e-01 4.574974e-01 -1.336815e+00 -4.530447e-01 -3.658567e-01 8.182290e-01 8.713300e-01 -3.491752e-02 -5.294792e-02 1.201586e-01 2.065964e-02 -1.857715e-01 -4.770548e-02 -3.081191e-02 -3.016751e-02 -1.604833e-01 -9.692125e-02 5.052708e-02 -6.034321e-02 1.010500e-01 -9.360646e-02 4.381903e-02 -1.167965e-01 1.929661e-01 1.711632e-01 1.172695e-01 8.662044e-02 -7.055593e-02 7.470702e-02 -9.480128e-02 -1.244218e-01 -1.767329e-01 -3.088139e-01
<VARIANCE> 39
 2.516284e-01 4.480751e-01 7.301334e-01 4.835295e-01 5.475733e-01 1.310440e+00 5.815925e-01 1.139166e+00 9.614571e-01 8.743555e-01 1.196013e+00 9.799278e-01 4.060918e-01 3.241856e-01 4.936885e-01 6.952334e-01 6.714210e-01 4.829011e-01 7.364826e-01 6.850212e-01 7.493781e-01 5.993921e-01 7.280504e-01 5.711580e-01 7.390696e-01 3.259795e-01 5.085504e-01 5.474858e-01 7.277140e-01 5.903629e-01 6.571166e-01 8.040370e-01 7.376455e-01 7.644648e-01 6.136953e-01 6.878060e-01 6.152750e-01 7.230840e-01 4.499464e-01
<GCONST> 5.388102e+01
<STATE> 5
<NUMMIXES> 4
<MIXTURE> 1 2.814094e-01
<MEAN> 39
 3.725811e-01 -3.301401e-01 2.092183e+00 1.187220e+00 -1.230080e+00 -1.432323e+00 -9.322057e-01 3.266331e-01 -1.081258e+00 -1.163631e+00 -1.303085e-01 1.057308e+00 1.144443e+00 1.225323e-01 2.488063e-01 -3.812116e-01 6.120909e-01 7.088161e-01 -2.732149e-02 4.467052e-01 1.415623e-01 -1.473914e-01 -7.090985e-02 -2.492280e-01 -6.824273e-02 -7.066742e-01 -6.235694e-02 7.851858e-01 -9.788687e-01 2.721421e-02 8.961877e-01 3.866607e-01 5.764827e-01 -1.847932e-01 1.636282e-01 4.411917e-01 -1.866660e-01 -1.961950e-01 -1.076108e+00
<VARIANCE> 39
 9.863241e-02 2.817663e-01 3.529813e-01 3.148440e-01 3.223068e-01 6.044149e-01 3.927648e-01 7.181529e-01 8.584585e-01 5.529160e-01 9.001504e-01 7.175393e-01 1.768759e-01 4.693387e-01 5.945302e-01 9.676977e-01 5.739230e-01 4.988823e-01 7.820860e-01 8.181747e-01 7.922522e-01 6.916624e-01 6.463531e-01 5.739083e-01 6.646944e-01 4.150248e-01 6.129650e-01 5.978223e-01 7.692673e-01 5.740064e-01 6.597424e-01 9.493219e-01 6.887096e-01 7.381015e-01 6.640332e-01 6.349261e-01 5.972228e-01 6.233829e-01 6.475621e-01
<GCONST> 4.894162e+01
<MIXTURE> 2 2.149734e-01
<MEAN> 39
 3.264686e-01 -7.073805e-01 6.265262e-01 8.756131e-02 -1.016564e+00 -1.390733e+00 -4.321056e-01 8.872374e-01 -1.257927e-01 1.135544e-01 1.653473e-01 4.010562e-01 1.171541e+00 1.094708e-01 5.073158e-02 -3.028619e-01 1.227196e-01 3.647702e-01 6.537996e-02 2.107042e-01 1.951779e-01 2.000438e-01 1.514576e-01 -1.686880e-01 -1.894102e-01 -3.582627e-02 1.281096e-01 3.475269e-01 1.052541e-02 2.945366e-01 4.022292e-01 2.251207e-01 1.395389e-01 -2.025010e-01 -6.614022e-02 -3.796327e-02 -1.707715e-01 -4.165475e-02 -3.756639e-01
<VARIANCE> 39
 3.912956e-01 6.654123e-01 8.773009e-01 6.531305e-01 8.186259e-01 1.269102e+00 7.625647e-01 1.378747e+00 1.281689e+00 7.798769e-01 1.179379e+00 1.295364e+00 5.794002e-01 4.045738e-01 5.860099e-01 1.020712e+00 7.808576e-01 5.682629e-01 8.053024e-01 7.959313e-01 8.716470e-01 7.778273e-01 7.353278e-01 7.439945e-01 8.692481e-01 4.353577e-01 5.973548e-01 7.102407e-01 6.835060e-01 6.311542e-01 6.164961e-01 8.534915e-01 7.788454e-01 8.331144e-01 6.814983e-01 7.126011e-01 6.388779e-01 7.535061e-01 5.772970e-01
<GCONST> 6.032538e+01
<MIXTURE> 3 2.974876e-01
<MEAN> 39
 4.024332e-01 -4.033400e-01 2.074210e+00 1.146744e+00 -1.290934e+00 -1.456212e+00 -1.067783e+00 2.973705e-01 -9.845680e-01 -1.217697e+00 -2.988166e-02 9.524574e-01 1.135215e+00 1.456601e-01 8.087042e-02 -2.789288e-01 5.593935e-01 6.320018e-01 -8.082094e-02 1.288479e-01 3.973281e-02 -2.302758e-01 -2.853637e-01 -4.358223e-01 -2.678393e-01 -8.458605e-01 -1.746987e-01 5.966055e-01 -1.019542e+00 -9.463014e-02 9.105805e-01 3.498666e-01 4.622010e-01 -2.471441e-01 9.955006e-02 3.566838e-01 -3.566667e-01 -3.163159e-01 -1.230629e+00
<VARIANCE> 39
 1.029539e-01 2.699338e-01 3.770970e-01 3.265034e-01 3.317662e-01 6.053199e-01 3.876522e-01 6.932150e-01 9.282622e-01 4.883442e-01 9.070711e-01 7.447340e-01 1.655087e-01 3.922237e-01 5.135055e-01 9.736657e-01 5.903577e-01 5.074275e-01 7.722774e-01 7.556091e-01 7.815636e-01 7.037084e-01 6.178271e-01 6.191380e-01 6.518745e-01 4.341365e-01 5.555246e-01 5.286891e-01 7.688630e-01 5.778348e-01 6.480579e-01 9.178851e-01 6.954197e-01 7.696776e-01 6.483827e-01 6.328973e-01 5.907331e-01 6.476649e-01 7.321576e-01
<GCONST> 4.855948e+01
<MIXTURE> 4 2.061332e-01
<MEAN> 39
 2.835139e-01 -7.320499e-01 5.912895e-01 4.749002e-02 -9.824623e-01 -1.477186e+00 -5.684283e-01 8.999157e-01 -1.836627e-01 1.379283e-01 1.576173e-01 3.059320e-01 1.052835e+00 5.817296e-02 -8.131523e-02 -3.957562e-01 -6.625298e-02 1.969898e-01 -8.654160e-02 1.841515e-02 2.932322e-02 4.042666e-02 1.108345e-01 -2.848381e-01 -3.317972e-01 -2.241702e-01 4.067355e-02 2.338097e-01 -1.291905e-01 1.952220e-01 3.325675e-01 1.511742e-01 5.671073e-02 -2.701691e-01 -1.474113e-01 -7.674717e-02 -2.678239e-01 -1.500759e-01 -4.623294e-01
<VARIANCE> 39
 4.066801e-01 6.007642e-01 8.566337e-01 6.472067e-01 8.070821e-01 1.215244e+00 8.126607e-01 1.399986e+00 1.208382e+00 7.965797e-01 1.159080e+00 1.187714e+00 7.809401e-01 4.128307e-01 5.580052e-01 1.037491e+00 7.763666e-01 6.257144e-01 8.288839e-01 8.395061e-01 8.392846e-01 7.925712e-01 8.265532e-01 7.371951e-01 9.375228e-01 4.721882e-01 5.737526e-01 5.846780e-01 6.968517e-01 6.520167e-01 7.010196e-01 8.996472e-01 7.515343e-01 8.412335e-01 6.771659e-01 7.643301e-01 6.781458e-01 7.991093e-01 6.195298e-01
<GCONST> 6.103745e+01
<STATE> 6
<NUMMIXES> 4
<MIXTURE> 1 2.332774e-01
<MEAN> 39
 4.412464e-01 -4.239199e-02 1.579137e+00 1.335051e+00 -5.580820e-01 -1.443362e+00 -4.408578e-01 3.868507e-01 -1.139793e+00 -8.116664e-01 -4.497331e-01 7.626634e-01 7.312191e-01 -2.894478e-01 9.974102e-01 -1.124824e+00 3.886516e-01 1.449420e+00 9.598533e-01 1.027563e+00 -2.064603e-01 2.878528e-01 4.990420e-01 -1.698555e-01 -4.238199e-01 -1.510556e+00 -9.421331e-01 5.446473e-01 -4.698766e-01 -3.673495e-01 4.003319e-01 7.983615e-01 3.634878e-01 -2.652433e-01 1.759726e-01 4.148593e-01 1.678328e-01 -1.718141e-01 -6.612638e-01
<VARIANCE> 39
 1.546916e-01 4.343903e-01 4.807066e-01 3.883682e-01 4.276630e-01 8.034016e-01 7.724194e-01 9.021536e-01 8.147919e-01 7.926021e-01 8.083308e-01 7.978588e-01 2.985354e-01 7.336297e-01 8.978286e-01 1.282491e+00 9.640046e-01 7.721363e-01 1.463572e+00 1.237705e+00 1.039560e+00 1.008532e+00 9.830073e-01 8.979954e-01 9.219711e-01 1.041095e+00 9.986873e-01 1.139195e+00 1.220239e+00 9.235848e-01 9.506990e-01 1.317172e+00 1.138427e+00 1.079724e+00 9.317883e-01 9.807502e-01 7.397987e-01 9.314784e-01 1.313821e+00
<GCONST> 6.428661e+01
<MIXTURE> 2 2.634648e-01
<MEAN> 39
 -1.010859e-01 -7.312921e-02 -1.672988e-01 -1.143394e-01 -2.943918e-03 -7.138074e-01 -3.233491e-01 1.686680e-01 -3.007211e-01 7.830984e-01 -1.195236e-01 3.614866e-01 -4.926205e-01 5.881378e-02 5.729375e-02 1.485872e-02 9.328299e-02 1.435685e-01 1.209162e-01 1.350037e-01 1.022157e-01 9.044515e-02 1.173543e-01 8.302543e-02 4.883967e-02 3.982281e-02 7.147533e-02 2.439411e-02 1.365935e-01 1.658414e-01 7.243623e-02 2.622530e-02 5.026732e-02 1.087492e-01 4.904447e-02 -3.195153e-02 2.668552e-02 7.771707e-02 8.435033e-02
<VARIANCE> 39
 7.835348e-01 6.024088e-01 6.905936e-01 5.200099e-01 7.124245e-01 8.832602e-01 5.133490e-01 1.142373e+00 8.724499e-01 9.497698e-01 1.002878e+00 1.504139e+00 1.343212e+00 2.958110e-01 6.420903e-01 7.263088e-01 7.080870e-01 6.282513e-01 8.091316e-01 6.963197e-01 8.809333e-01 7.204742e-01 7.920504e-01 7.526788e-01 8.923371e-01 4.844642e-01 4.757545e-01 8.031484e-01 7.946439e-01 7.885214e-01 7.734959e-01 9.294994e-01 8.395215e-01 9.212779e-01 7.929623e-01 9.055573e-01 8.096980e-01 9.344975e-01 6.219462e-01
<GCONST> 6.114722e+01
<MIXTURE> 3 2.625805e-01
<MEAN> 39
 -2.302244e-01 -1.429576e-01 -3.032984e-01 -1.933565e-01 -6.812455e-02 -8.451112e-01 -4.019008e-01 6.286170e-02 -2.178959e-01 7.668235e-01 -1.694266e-01 3.791060e-01 -7.440212e-01 -7.298818e-02 -5.850488e-02 -1.513585e-01 -1.524316e-01 -9.906082e-02 -5.726498e-02 -6.602880e-02 -1.429920e-01 -1.104622e-01 -3.624986e-02 -1.395439e-01 -1.445324e-01 -8.789230e-02 -4.824350e-02 -2.368703e-03 3.581227e-02 2.975749e-02 -5.416433e-02 -3.425133e-02 -4.502636e-02 -9.611361e-02 -1.075932e-01 -1.220917e-01 -7.538638e-02 -6.222479e-02 -2.994825e-02
<VARIANCE> 39
 6.730921e-01 4.614699e-01 5.302830e-01 5.148934e-01 5.281205e-01 7.715442e-01 5.033989e-01 1.150353e+00 7.200460e-01 8.189614e-01 9.093457e-01 1.219969e+00 1.180492e+00 2.915977e-01 6.462626e-01 7.245997e-01 7.489480e-01 6.391487e-01 8.689350e-01 7.753152e-01 8.509307e-01 7.570923e-01 8.758189e-01 8.254875e-01 9.562157e-01 5.125890e-01 4.580681e-01 8.223034e-01 8.198317e-01 8.492729e-01 7.801344e-01 9.834604e-01 8.535689e-01 9.551857e-01 8.109065e-01 9.219793e-01 8.550336e-01 9.989051e-01 6.517280e-01
<GCONST> 6.022323e+01
<MIXTURE> 4 2.406879e-01
<MEAN> 39
 4.700634e-01 -1.228802e-01 1.550755e+00 1.280374e+00 -5.921501e-01 -1.440035e+00 -7.117332e-01 2.957605e-01 -1.052952e+00 -9.737310e-01 -4.324390e-01 6.510829e-01 6.510984e-01 -3.460288e-01 7.181133e-01 -1.202353e+00 1.316895e-01 1.332741e+00 7.589995e-01 5.507791e-01 -4.230483e-01 8.671626e-02 3.076038e-01 -4.907197e-01 -6.816924e-01 -1.694236e+00 -9.564227e-01 3.622518e-01 -5.775710e-01 -5.077925e-01 3.152529e-01 7.055250e-01 3.596437e-01 -3.146186e-01 6.411725e-02 4.120458e-01 5.698161e-02 -1.717399e-01 -7.918578e-01
<VARIANCE> 39
 1.702087e-01 4.368968e-01 5.371640e-01 4.374395e-01 4.503922e-01 8.787208e-01 7.027155e-01 8.631337e-01 9.059946e-01 6.992615e-01 8.066306e-01 7.896288e-01 3.151529e-01 6.873587e-01 8.183969e-01 1.483733e+00 9.890727e-01 8.007817e-01 1.457042e+00 1.230600e+00 1.050361e+00 1.074548e+00 1.000185e+00 9.245877e-01 9.246448e-01 1.123401e+00 9.613816e-01 1.049565e+00 1.298335e+00 9.043061e-01 1.055578e+00 1.421246e+00 1.187977e+00 1.119865e+00 1.088041e+00 9.856347e-01 8.289437e-01 9.514288e-01 1.452128e+00
<GCONST> 6.545795e+01
<TRANSP> 7
 0.000000e+00 1.000000e+00 0.000000e+00 0.000000e+00 0.000000e+00 0.000000e+00 0.000000e+00
 0.000000e+00 7.005653e-01 2.994347e-01 0.000000e+00 0.000000e+00 0.000000e+00 0.000000e+00
 0.000000e+00 0.000000e+00 6.823024e-01 3.176976e-01 0.000000e+00 0.000000e+00 0.000000e+00
 0.000000e+00 0.000000e+00 0.000000e+00 8.788058e-01 1.211942e-01 0.000000e+00 0.000000e+00
 0.000000e+00 0.000000e+00 0.000000e+00 0.000000e+00 6.083697e-01 3.916303e-01 0.000000e+00
 0.000000e+00 0.000000e+00 0.000000e+00 0.000000e+00 0.000000e+00 6.658837e-01 3.341163e-01
 0.000000e+00 0.000000e+00 0.000000e+00 0.000000e+00 0.000000e+00 0.000000e+00 0.000000e+00
<ENDHMM>
~h "f"
<BEGINHMM>
<NUMSTATES> 7
<STATE> 2
<NUMMIXES> 4
<MIXTURE> 1 1.846868e-01
<MEAN> 39
 9.151186e-01 -4.659625e-01 -5.133865e-01 -1.023880e-02 3.572405e-01 -5.109317e-01 6.447342e-02 5.933841e-01 -4.634787e-01 7.441608e-01 -7.307765e-01 -3.148241e-01 1.264307e+00 -2.510737e-01 1.067595e+00 4.088128e-01 8.177370e-01 6.911255e-01 5.163566e-01 5.979524e-01 -1.201700e-01 -2.092444e-01 -3.397562e-01 3.975462e-02 3.849308e-01 -9.706288e-01 -6.662139e-01 5.704992e-01 2.840275e-01 1.862766e-01 3.572866e-02 4.148626e-01 1.620295e-01 -2.690410e-01 -1.988449e-02 -3.502422e-01 5.277386e-02 1.188497e-01 -4.930438e-01
<VARIANCE> 39
 1.645361e-01 5.694186e-01 7.092260e-01 1.411474e+00 1.072681e+00 1.525804e+00 1.204394e+00 1.614766e+00 1.139348e+00 1.007042e+00 8.359403e-01 1.289723e+00 3.121986e-01 8.204756e-01 1.618573e+00 1.259280e+00 1.463360e+00 1.090474e+00 1.439390e+00 1.360764e+00 1.261042e+00 1.384222e+00 1.168028e+00 9.615390e-01 1.116537e+00 1.383566e+00 1.271951e+00 1.315004e+00 1.113449e+00 1.048832e+00 1.198394e+00 1.155411e+00 1.167604e+00 1.063234e+00 1.092150e+00 1.056435e+00 9.023722e-01 1.059067e+00 1.215074e+00
<GCONST> 7.378257e+01
<MIXTURE> 2 2.992466e-01
<MEAN> 39
 -6.142514e-01 4.789035e-01 1.263459e-01 -1.866896e-02 4.198066e-01 3.268226e-01 3.442155e-01 1.626298e-01 -3.781727e-01 -5.832977e-02 1.448592e-01 3.973954e-01 -7.522141e-01 -9.961352e-04 3.250672e-01 1.867220e-01 3.549156e-01 3.361405e-01 2.610291e-01 2.527008e-01 1.989682e-01 4.214102e-02 5.585134e-02 2.867299e-02 8.401757e-02 2.335718e-01 2.380512e-01 -4.301463e-02 1.355614e-01 6.625099e-02 -6.194874e-02 -7.732104e-02 1.427755e-04 5.355458e-02 4.842205e-02 -3.898427e-03 -1.226031e-01 -8.639507e-02 4.660150e-01
<VARIANCE> 39
 4.730358e-01 3.770544e-01 5.268610e-01 7.215569e-01 4.163949e-01 4.908412e-01 3.553954e-01 7.361484e-01 6.460052e-01 5.177245e-01 8.674068e-01 7.556944e-01 8.227128e-01 1.185026e+00 1.032529e+00 1.268084e+00 1.214087e+00 9.306660e-01 1.062001e+00 9.515161e-01 1.207130e+00 9.499512e-01 1.157805e+00 1.128085e+00 1.260389e+00 1.155197e+00 9.308940e-01 1.038429e+00 1.253610e+00 1.126825e+00 1.069565e+00 1.107728e+00 9.074956e-01 1.253394e+00 1.031410e+00 9.914510e-01 1.176958e+00 1.193125e+00 1.141316e+00
<GCONST> 6.680016e+01
<MIXTURE> 3 3.092130e-01
<MEAN> 39
 -6.248195e-01 4.135464e-01 4.337320e-02 -1.824161e-01 3.355401e-01 3.106107e-01 2.382496e-01 1.305814e-01 -2.193023e-01 -2.834582e-02 2.071306e-01 3.289915e-01 -8.395507e-01 -2.265081e-01 4.339031e-02 -2.270256e-01 -6.192851e-02 -3.301956e-02 -1.079690e-01 -9.283965e-02 -1.991776e-01 -1.309818e-01 -2.837057e-02 -2.032107e-01 -1.031826e-01 -2.709800e-02 -2.922603e-02 -1.865146e-01 -9.318240e-02 -1.447418e-01 -2.591007e-01 -2.630849e-01 -1.316618e-01 -8.352494e-02 -1.497472e-01 -8.829150e-02 -1.351506e-01 -7.518087e-02 2.547718e-01
<VARIANCE> 39
 4.644581e-01 3.504321e-01 4.927852e-01 7.069617e-01 3.498300e-01 5.022743e-01 3.412385e-01 7.449204e-01 7.847834e-01 5.574791e-01 8.497791e-01 7.305952e-01 7.299095e-01 1.023641e+00 8.997185e-01 1.143461e+00 1.162503e+00 8.345088e-01 1.048545e+00 9.640285e-01 1.132290e+00 1.073234e+00 1.064989e+00 1.219588e+00 1.198819e+00 1.033449e+00 8.751150e-01 1.023302e+00 1.205241e+00 1.066107e+00 1.017954e+00 1.107465e+00 9.689737e-01 1.134039e+00 1.234009e+00 9.816053e-01 1.318251e+00 1.227985e+00 9.977053e-01
<GCONST> 6.580888e+01
<MIXTURE> 4 2.068511e-01
<MEAN> 39
 8.628799e-01 -3.802075e-01 -4.357418e-01 -7.388271e-02 1.902246e-01 -2.881327e-01 6.780978e-02 2.269086e-01 -3.016458e-01 4.229109e-01 -7.416403e-01 -4.446499e-01 1.118597e+00 -4.204389e-01 8.261896e-01 1.546926e-01 4.332719e-01 4.083484e-01 2.271604e-01 1.716773e-01 -3.186895e-01 -4.462011e-01 -3.806697e-01 -1.704094e-01 1.048475e-01 -9.004092e-01 -6.970832e-01 2.770709e-01 7.578297e-02 -2.663002e-02 -8.289041e-02 6.232498e-02 -4.111140e-02 -2.455778e-01 -2.077242e-01 -2.879859e-01 -3.877315e-02 1.049354e-01 -3.743111e-01
<VARIANCE> 39
 2.187813e-01 6.597588e-01 8.081377e-01 1.737466e+00 1.237281e+00 1.621437e+00 1.277759e+00 1.501202e+00 1.153847e+00 9.395717e-01 8.949688e-01 1.251865e+00 3.303961e-01 9.537854e-01 1.636955e+00 1.197620e+00 1.461192e+00 1.110250e+00 1.382972e+00 1.446197e+00 1.355677e+00 1.470884e+00 1.211513e+00 9.821548e-01 1.159077e+00 1.634730e+00 1.116929e+00 1.065760e+00 1.009754e+00 1.066162e+00 1.179619e+00 1.100223e+00 1.117378e+00 1.048428e+00 1.043077e+00 9.198883e-01 8.699175e-01 1.061898e+00 1.225994e+00
<GCONST> 7.457176e+01
<STATE> 3
<NUMMIXES> 4
<MIXTURE> 1 2.464120e-01
<MEAN> 39
 -6.045547e-01 6.393761e-01 4.791585e-02 1.071717e+00 8.601637e-01 2.910117e-01 1.004643e+00 4.796193e-01 -9.076267e-01 3.365241e-01 -7.991532e-01 4.176416e-01 3.480837e-01 -6.937464e-01 1.001368e-01 -1.926024e-01 -2.485570e-02 9.605814e-02 2.012915e-01 3.730363e-01 2.916337e-01 1.188995e-01 1.964000e-01 1.226751e-01 1.437822e-01 5.383275e-01 7.929471e-01 -5.873781e-02 1.034588e-01 -2.548721e-01 -3.712332e-01 -4.791099e-01 -4.442191e-01 -2.646735e-01 -2.848067e-01 -2.094152e-01 6.643425e-02 1.315660e-01 4.089353e-01
<VARIANCE> 39
 5.412716e-01 5.018290e-01 6.330842e-01 4.108261e-01 3.747767e-01 6.409870e-01 3.997325e-01 7.866628e-01 3.422446e-01 4.506194e-01 5.741091e-01 8.609021e-01 5.045907e-01 1.270813e+00 1.056647e+00 1.106252e+00 1.142605e+00 8.782444e-01 1.245284e+00 1.027932e+00 1.262056e+00 9.237158e-01 1.157061e+00 1.123016e+00 1.338377e+00 9.999310e-01 1.364387e+00 1.263467e+00 1.245220e+00 1.215555e+00 1.187995e+00 1.452597e+00 1.202139e+00 1.455395e+00 1.006417e+00 1.261810e+00 1.266122e+00 1.639985e+00 1.125844e+00
<GCONST> 6.769098e+01
<MIXTURE> 2 2.584035e-01
<MEAN> 39
 7.699925e-02 8.782912e-01 2.979866e-02 8.985352e-01 8.222022e-01 9.222056e-02 4.974474e-01 3.811222e-02 -1.144736e+00 -1.000596e-02 -7.684807e-01 3.401372e-01 2.940251e-01 -1.107441e+00 6.239608e-01 3.136013e-01 2.909556e-01 -8.869411e-02 -2.003030e-01 -1.362982e-01 -4.622648e-01 -3.576162e-01 -2.671540e-01 -9.753257e-02 4.543830e-01 4.601854e-02 -7.048965e-03 -9.517355e-01 -4.502191e-01 -6.184514e-01 -4.720589e-01 -2.406178e-01 2.015261e-02 3.960594e-01 3.388163e-01 4.860675e-01 2.402177e-01 4.562181e-02 9.006209e-01
<VARIANCE> 39
 3.244959e-01 2.105505e-01 4.447284e-01 2.570812e-01 2.843287e-01 5.074875e-01 5.056521e-01 6.739017e-01 3.798692e-01 4.184446e-01 4.196053e-01 6.277161e-01 5.246767e-01 1.628710e+00 1.151379e+00 1.108663e+00 1.321191e+00 8.740851e-01 1.568191e+00 1.371382e+00 1.321305e+00 1.299821e+00 1.131711e+00 1.141396e+00 1.494689e+00 1.258902e+00 1.893305e+00 1.083837e+00 1.339502e+00 1.252751e+00 1.139793e+00 1.301205e+00 1.346272e+00 1.293080e+00 1.136164e+00 1.172163e+00 1.016005e+00 1.355908e+00 1.528834e+00
<GCONST> 6.628126e+01
<MIXTURE> 3 2.841426e-01
<MEAN> 39
 -5.311913e-01 6.706387e-01 1.181506e-01 9.574875e-01 7.487969e-01 2.375309e-01 9.521139e-01 3.706316e-01 -9.126126e-01 2.567970e-01 -8.102449e-01 3.734094e-01 3.588839e-01 -7.735543e-01 -1.189045e-01 -5.031752e-01 -3.504966e-01 -2.901715e-01 -1.677558e-01 1.231450e-02 -2.126331e-01 -2.758195e-01 -8.752935e-02 -1.876391e-01 -8.684018e-02 3.944669e-01 6.208184e-01 -1.716972e-01 -3.860450e-02 -3.836052e-01 -6.274288e-01 -7.087320e-01 -8.422379e-01 -5.015901e-01 -5.073178e-01 -4.074941e-01 -1.739360e-02 3.454329e-02 2.858289e-01
<VARIANCE> 39
 4.945191e-01 4.119897e-01 6.937247e-01 4.273897e-01 3.798313e-01 6.087210e-01 4.237380e-01 8.288172e-01 3.525429e-01 5.041665e-01 5.286379e-01 8.317280e-01 4.979964e-01 1.185246e+00 9.211839e-01 1.105243e+00 1.124126e+00 8.657057e-01 1.161027e+00 1.108802e+00 1.238265e+00 9.180150e-01 1.132447e+00 1.031220e+00 1.213890e+00 9.353577e-01 1.304561e+00 1.202885e+00 1.274813e+00 1.232977e+00 1.167457e+00 1.428664e+00 1.190836e+00 1.474837e+00 1.041442e+00 1.298971e+00 1.226886e+00 1.468477e+00 1.123573e+00
<GCONST> 6.692203e+01
<MIXTURE> 4 2.110443e-01
<MEAN> 39
