~o
<STREAMINFO> 1 39
<VECSIZE> 39<NULLD><USER><DIAGC>
~h "a"
<BEGINHMM>
<NUMSTATES> 7
<STATE> 2
<NUMMIXES> 8
<MIXTURE> 1 8.182920e-02
<MEAN> 39
 -4.767874e-01 2.419958e-01 -2.499346e-01 5.340670e-01 8.925899e-01 1.650121e-01 5.666026e-01 -1.402720e-01 -6.466179e-01 1.178440e-01 -2.617857e-01 4.908054e-01 -4.634947e-03 1.175311e+00 3.011399e-01 4.249194e-01 5.055492e-01 4.604526e-01 1.414235e-01 3.191998e-01 4.160088e-01 9.330308e-02 9.777302e-02 -2.657094e-01 -2.400039e-01 1.600812e+00 1.111672e+00 -6.010547e-02 -4.659712e-03 -2.911930e-01 -4.315601e-01 -2.385142e-01 -1.009916e-01 2.267252e-01 2.724188e-01 3.174176e-01 -4.030387e-02 -3.399859e-01 5.273429e-01
<VARIANCE> 39
 6.615446e-01 8.220322e-01 6.956428e-01 5.234790e-01 6.056811e-01 8.225854e-01 6.952531e-01 8.778284e-01 6.307809e-01 6.218152e-01 8.190159e-01 8.977297e-01 6.961085e-01 2.440984e+00 1.229046e+00 1.441431e+00 1.582402e+00 1.252077e+00 1.409625e+00 1.400388e+00 1.539309e+00 1.206748e+00 1.299697e+00 1.306118e+00 1.510023e+00 3.703733e+00 1.884388e+00 1.599090e+00 2.003198e+00 1.654245e+00 1.562060e+00 1.572451e+00 1.568319e+00 1.662602e+00 1.467350e+00 1.554489e+00 1.438147e+00 1.599610e+00 2.916941e+00
<GCONST> 7.984612e+01
<MIXTURE> 2 1.237224e-01
<MEAN> 39
 -1.813686e-01 4.920603e-02 -1.772043e-01 2.117474e-01 6.410547e-01 1.180431e-01 2.035997e-01 -3.882905e-01 -6.892182e-01 6.356493e-02 -1.299839e-01 4.219425e-01 9.610821e-02 3.812392e-02 -2.500826e-02 1.188384e-01 1.505120e-01 6.015953e-02 2.366319e-02 9.764893e-02 1.676595e-01 1.786226e-01 1.090435e-01 4.902442e-02 8.739884e-02 1.164778e-01 9.297661e-02 -1.605029e-02 7.419483e-02 5.467027e-03 2.305895e-03 6.181581e-02 1.366487e-01 1.513316e-01 1.052069e-01 3.452110e-02 7.504457e-02 7.859865e-02 1.327913e-01
<VARIANCE> 39
 1.019383e+00 1.198495e+00 1.579715e+00 8.391889e-01 1.165240e+00 1.356371e+00 1.293973e+00 1.727178e+00 1.311187e+00 1.132011e+00 1.451021e+00 2.414005e+00 1.337244e+00 2.773427e-01 4.534750e-01 6.220719e-01 6.310389e-01 5.340443e-01 7.883027e-01 7.338299e-01 8.132631e-01 7.395386e-01 7.115629e-01 7.272121e-01 8.603908e-01 3.437569e-01 4.556521e-01 5.157853e-01 7.241268e-01 6.353218e-01 6.467375e-01 7.717408e-01 7.956995e-01 8.415323e-01 7.893732e-01 7.494633e-01 7.787744e-01 9.269994e-01 3.445826e-01
<GCONST> 6.355529e+01
<MIXTURE> 3 1.887521e-01
<MEAN> 39
 -8.658077e-01 -2.472537e-01 -4.580604e-01 -2.506984e-01 3.472611e-01 1.243167e-01 5.826204e-02 -6.729430e-02 -2.894804e-03 4.805914e-01 -1.478018e-01 2.355531e-01 -1.561845e+00 5.656696e-02 4.794822e-02 5.130019e-02 1.070724e-01 1.483158e-01 1.558069e-01 1.387125e-01 1.645244e-01 1.425129e-01 1.545483e-01 1.747320e-01 1.274609e-01 4.799370e-02 1.148328e-01 3.255500e-02 1.102054e-01 1.569882e-01 1.308531e-01 6.590144e-02 3.143944e-02 6.708133e-02 2.776703e-02 1.929270e-02 6.779359e-02 7.923435e-02 1.661690e-01
<VARIANCE> 39
 7.096991e-02 3.404569e-01 2.132830e-01 3.422796e-01 2.889126e-01 4.161390e-01 3.893103e-01 5.502283e-01 3.614363e-01 5.978426e-01 8.856407e-01 1.054217e+00 1.364271e-01 2.020048e-01 6.144220e-01 6.153154e-01 6.497200e-01 6.939585e-01 7.801881e-01 8.029625e-01 8.842972e-01 8.358101e-01 9.085581e-01 8.762510e-01 1.045720e+00 5.258497e-01 4.420306e-01 7.938250e-01 8.597582e-01 7.600576e-01 9.609674e-01 9.965556e-01 1.013018e+00 1.022036e+00 1.023609e+00 1.060603e+00 9.947880e-01 1.145666e+00 8.564772e-01
<GCONST> 5.169711e+01
<MIXTURE> 4 9.438702e-02
<MEAN> 39
 1.684836e-01 3.340223e-01 4.540622e-01 8.422301e-01 3.236364e-01 -4.048868e-01 -4.544444e-02 -5.780383e-01 -7.909474e-01 -9.761772e-02 -7.156296e-01 -1.841277e-02 5.634679e-01 1.872351e+00 -8.013073e-01 1.402650e-01 -4.945029e-01 -1.009157e+00 -9.490853e-01 -4.981430e-01 7.215800e-01 9.331380e-01 4.734854e-01 2.381325e-01 1.662714e-01 1.857310e+00 1.078383e-01 -1.008357e+00 -5.326593e-01 -6.443894e-01 -5.339321e-01 -2.173638e-02 1.912623e-01 8.483993e-01 8.325855e-01 4.493721e-01 2.077718e-01 1.442658e-01 7.375895e-01
<VARIANCE> 39
 3.822581e-01 5.992807e-01 8.921361e-01 4.190686e-01 5.069582e-01 6.654167e-01 9.806013e-01 8.719452e-01 7.559944e-01 6.995722e-01 6.541725e-01 9.157960e-01 2.828470e-01 2.053778e+00 1.103648e+00 2.659699e+00 1.937972e+00 1.364894e+00 1.530570e+00 1.644978e+00 1.769758e+00 1.729967e+00 1.776926e+00 1.347637e+00 1.597447e+00 1.139494e+00 1.236104e+00 1.202434e+00 1.288547e+00 9.706480e-01 1.102133e+00 1.199980e+00 1.269302e+00 1.380938e+00 1.239519e+00 1.186931e+00 1.035187e+00 1.200854e+00 1.007082e+00
<GCONST> 7.391953e+01
<MIXTURE> 5 1.928094e-01
<MEAN> 39
 -9.126415e-01 -3.356999e-01 -5.348505e-01 -2.769046e-01 2.805804e-01 -1.336201e-02 5.362485e-02 -1.471636e-01 -7.813417e-02 5.140674e-01 -2.889876e-01 2.003119e-02 -1.664015e+00 -3.760995e-02 -4.591348e-02 -9.255849e-02 -9.613070e-02 -1.060290e-01 -1.308477e-01 -1.295626e-01 -1.600674e-01 -1.384697e-01 -1.143493e-01 -1.619960e-01 -1.376454e-01 -5.355164e-02 -1.328118e-02 -2.792662e-02 -2.934772e-02 7.410496e-04 1.389310e-03 -1.911023e-02 -3.098002e-02 -6.776071e-02 -7.673159e-02 -9.383221e-02 -8.324692e-02 -4.985279e-02 1.498055e-02
<VARIANCE> 39
 4.901809e-02 2.865267e-01 1.765642e-01 3.106304e-01 2.529447e-01 3.573318e-01 3.530194e-01 5.147180e-01 3.240092e-01 5.005790e-01 7.754662e-01 9.983795e-01 1.243608e-01 1.640734e-01 5.589217e-01 5.648993e-01 6.048746e-01 6.832899e-01 7.645679e-01 7.612491e-01 8.714842e-01 8.152595e-01 8.921494e-01 8.670387e-01 1.114573e+00 4.996203e-01 3.766093e-01 7.069070e-01 8.225043e-01 7.062442e-01 9.898804e-01 1.002371e+00 1.006880e+00 1.043618e+00 1.041499e+00 1.087882e+00 9.972399e-01 1.217865e+00 7.170194e-01
<GCONST> 4.883258e+01
<MIXTURE> 6 1.284864e-01
<MEAN> 39
 -1.836302e-01 -7.271127e-02 -1.599333e-01 2.378320e-01 6.164719e-01 1.536272e-02 4.058431e-02 -2.889442e-01 -5.542579e-01 1.601894e-01 -1.997787e-01 4.081393e-01 -6.775644e-02 -6.459363e-02 -1.482243e-01 -7.911412e-02 -6.691840e-02 -1.084711e-01 -1.806498e-01 -9.832440e-02 -4.825171e-02 -2.654935e-02 -6.934328e-02 -1.393852e-01 -1.187055e-01 2.065579e-02 -7.551603e-02 -1.046583e-01 -1.000860e-01 -1.421628e-01 -1.472317e-01 -7.347632e-02 -6.820649e-03 -1.789816e-02 -7.373504e-02 -1.102458e-01 -6.896201e-02 -4.627183e-02 -4.141066e-03
<VARIANCE> 39
 9.100195e-01 1.108005e+00 1.607352e+00 8.469707e-01 1.145637e+00 1.440540e+00 1.382923e+00 1.654887e+00 1.406610e+00 1.187338e+00 1.588853e+00 2.544868e+00 1.340230e+00 2.603694e-01 4.555679e-01 6.239031e-01 6.477438e-01 5.458699e-01 7.549866e-01 7.191211e-01 8.483465e-01 7.505976e-01 7.190038e-01 7.620913e-01 8.731219e-01 3.394927e-01 4.269498e-01 4.876127e-01 7.180877e-01 6.681056e-01 6.545436e-01 7.964740e-01 8.109514e-01 8.535814e-01 7.799954e-01 7.543030e-01 8.048198e-01 9.402004e-01 3.458732e-01
<GCONST> 6.380880e+01
<MIXTURE> 7 9.587381e-02
<MEAN> 39
 1.809954e-01 3.949134e-01 5.963402e-01 8.827960e-01 2.739270e-01 -5.524412e-01 -1.877102e-01 -5.840427e-01 -8.095711e-01 -1.195201e-01 -8.229275e-01 -1.045489e-01 5.634981e-01 1.758025e+00 -9.731061e-01 6.262988e-02 -6.141517e-01 -1.153621e+00 -1.208585e+00 -7.966939e-01 5.237720e-01 6.527913e-01 3.203669e-01 2.055267e-02 -3.392285e-02 1.622008e+00 -1.578852e-01 -1.138059e+00 -7.150973e-01 -7.204466e-01 -5.922088e-01 -1.284234e-01 9.963502e-02 8.148713e-01 6.365951e-01 3.593476e-01 1.132363e-01 9.454620e-02 5.266170e-01
<VARIANCE> 39
 3.865237e-01 7.047409e-01 9.522599e-01 4.675382e-01 5.163787e-01 7.632011e-01 1.050274e+00 8.601578e-01 7.960561e-01 7.389202e-01 6.597118e-01 1.054669e+00 3.284367e-01 2.092563e+00 1.201690e+00 2.622480e+00 1.837049e+00 1.192423e+00 1.577753e+00 1.654727e+00 1.840419e+00 1.700355e+00 1.823905e+00 1.300441e+00 1.501038e+00 9.385810e-01 1.369962e+00 1.424734e+00 1.228420e+00 9.408197e-01 1.056612e+00 1.207381e+00 1.224330e+00 1.356690e+00 1.216844e+00 1.133455e+00 1.002007e+00 1.119472e+00 9.787124e-01
<GCONST> 7.448464e+01
<MIXTURE> 8 9.412719e-02
<MEAN> 39
 -5.711942e-01 1.495188e-01 -2.996979e-01 4.584765e-01 8.865788e-01 8.906658e-02 4.332778e-01 -1.374950e-01 -5.375818e-01 1.371542e-01 -4.050811e-01 3.174975e-01 -2.069171e-01 6.958645e-01 2.177878e-02 -2.024862e-02 7.198706e-03 4.681975e-03 -2.354321e-01 -1.325484e-01 -1.324477e-01 -2.688600e-01 -2.552066e-01 -4.703370e-01 -4.037163e-01 8.767752e-01 7.730452e-01 -1.066473e-01 -1.228657e-01 -3.847306e-01 -5.005149e-01 -3.601627e-01 -2.191054e-01 1.048283e-02 5.774790e-02 1.908826e-01 -1.773648e-01 -3.871294e-01 3.209850e-01
<VARIANCE> 39
 6.391853e-01 1.094585e+00 8.819287e-01 6.171335e-01 6.364555e-01 8.941497e-01 8.562129e-01 9.125066e-01 7.712454e-01 7.456856e-01 9.041830e-01 1.078100e+00 8.388656e-01 2.471200e+00 1.309185e+00 1.539415e+00 1.483996e+00 1.241789e+00 1.434662e+00 1.385291e+00 1.444236e+00 1.269583e+00 1.337075e+00 1.365695e+00 1.602839e+00 2.592757e+00 2.080109e+00 1.682572e+00 1.838181e+00 1.518679e+00 1.498799e+00 1.575393e+00 1.634557e+00 1.528417e+00 1.407919e+00 1.556774e+00 1.449150e+00 1.636860e+00 2.732809e+00
<GCONST> 8.139127e+01
<STATE> 3
<NUMMIXES> 8
<MIXTURE> 1 6.524079e-02
<MEAN> 39
 7.432008e-01 -3.869082e-02 -3.242140e-02 9.870762e-01 1.224350e+00 4.859222e-01 7.223133e-01 4.992172e-01 -7.880880e-01 1.870884e-01 -3.331850e-01 2.346216e-01 7.645655e-01 2.348287e+00 -1.915329e-01 -4.523586e-01 -2.820387e-02 2.105763e-01 1.715872e-01 6.170821e-01 1.357210e+00 6.426823e-01 1.207894e+00 1.615406e-01 -7.064468e-01 3.465721e+00 -6.001306e-01 -8.809245e-01 -1.534681e+00 -1.766822e+00 -1.284745e+00 -6.756303e-01 -6.335752e-01 -4.350490e-01 2.023629e-01 8.571756e-01 7.331386e-01 -2.543456e-01 -1.577165e+00
<VARIANCE> 39
 1.478546e-01 2.361156e-01 1.890687e-01 2.560995e-01 3.052128e-01 4.460574e-01 4.153149e-01 6.847964e-01 4.024610e-01 4.532652e-01 5.893003e-01 6.645673e-01 3.554330e-01 7.599411e-01 8.904831e-01 1.183034e+00 1.398271e+00 1.132618e+00 1.250748e+00 1.401697e+00 1.722744e+00 1.368043e+00 1.650463e+00 1.487519e+00 1.635810e+00 2.202074e+00 1.710831e+00 1.399121e+00 1.536936e+00 1.270036e+00 1.323619e+00 1.643447e+00 1.581243e+00 1.897631e+00 1.587024e+00 1.557640e+00 1.397580e+00 1.439246e+00 3.694376e+00
<GCONST> 6.853384e+01
<MIXTURE> 2 1.512343e-01
<MEAN> 39
 7.340682e-01 -5.994720e-01 -1.450002e-02 1.599096e-01 -2.466920e-01 -6.089985e-01 -5.989392e-01 8.058597e-02 -2.452813e-01 4.843315e-01 -4.321096e-01 -2.795377e-01 8.989727e-01 1.994459e-01 -5.931028e-01 -4.896664e-01 -6.336322e-01 -5.293308e-01 -3.943254e-01 2.515883e-01 1.081529e+00 9.365162e-01 4.513334e-01 1.053211e-02 8.971248e-02 1.073923e+00 -1.686826e-01 6.416120e-02 -6.331459e-03 4.321203e-02 1.874868e-01 2.744902e-01 4.817197e-01 2.350121e-01 -3.446399e-02 -1.748634e-01 -1.337536e-01 -3.431137e-02 2.578203e-02
<VARIANCE> 39
 4.480067e-01 5.969082e-01 1.279397e+00 8.332083e-01 8.138454e-01 1.280830e+00 1.286429e+00 1.423433e+00 1.095082e+00 1.074017e+00 1.075822e+00 1.321513e+00 5.736314e-01 5.365391e-01 7.577657e-01 1.770248e+00 1.539108e+00 1.098582e+00 1.418050e+00 1.199699e+00 1.926116e+00 1.661889e+00 1.416784e+00 1.255434e+00 1.180457e+00 1.046142e+00 5.011413e-01 4.486361e-01 8.153270e-01 6.518415e-01 7.541418e-01 8.714734e-01 9.339824e-01 1.094657e+00 8.526179e-01 8.432224e-01 8.405554e-01 8.853907e-01 4.095179e-01
<GCONST> 6.966470e+01
<MIXTURE> 3 1.426343e-01
<MEAN> 39
 3.163727e-01 2.178134e-01 1.031302e+00 8.707987e-01 -3.197683e-01 -1.185933e+00 -1.507476e-01 1.306981e-04 -4.920585e-01 -3.288146e-01 -7.577536e-01 6.430522e-01 1.113394e+00 1.711953e+00 -1.772966e+00 4.595147e-01 -4.645695e-01 -1.732229e+00 -1.104609e+00 -9.280428e-01 9.137258e-01 1.087897e+00 2.248104e-01 4.186130e-01 6.875314e-01 1.829726e+00 -1.731018e+00 -6.530657e-01 -1.125250e+00 -6.657652e-01 2.227469e-01 8.875368e-01 5.608979e-01 3.250667e-01 4.495568e-01 5.318574e-01 1.698005e-01 -1.477451e-01 -3.420003e-01
<VARIANCE> 39
 1.289116e-01 3.271248e-01 6.117433e-01 3.443034e-01 4.074340e-01 4.703673e-01 5.245772e-01 6.291738e-01 8.679944e-01 5.487222e-01 5.448387e-01 6.897826e-01 1.840103e-01 1.296860e+00 1.044639e+00 1.880911e+00 1.315292e+00 1.015844e+00 1.345551e+00 1.403860e+00 1.431137e+00 1.777674e+00 1.306325e+00 1.132093e+00 1.230769e+00 7.011275e-01 1.272829e+00 1.316161e+00 1.541919e+00 9.190695e-01 1.070312e+00 9.779266e-01 1.018754e+00 1.049378e+00 9.214694e-01 8.857984e-01 8.575775e-01 1.050662e+00 7.691289e-01
<GCONST> 6.422576e+01
<MIXTURE> 4 1.371576e-01
<MEAN> 39
 9.109766e-01 -5.824175e-02 -6.761315e-01 2.572355e-01 6.145899e-01 -2.038348e-01 2.280875e-01 -1.413558e-01 -4.018187e-01 8.068768e-01 -4.205786e-01 -4.884520e-01 9.088861e-01 1.920276e+00 -1.417139e+00 -1.177783e+00 -1.448651e+00 -8.360301e-01 -4.628626e-01 8.170983e-02 5.046544e-01 9.363409e-01 1.672333e+00 2.604619e-01 -6.859206e-01 2.135313e+00 -1.751413e+00 -5.479001e-01 -1.451658e-01 -2.169910e-01 6.360342e-02 3.222509e-01 3.319994e-01 8.405095e-02 -5.771708e-02 5.301803e-02 -3.298879e-02 1.224592e-01 -5.363162e-01
<VARIANCE> 39
 2.118437e-01 3.895390e-01 3.049090e-01 3.393841e-01 3.667863e-01 7.449001e-01 6.240526e-01 9.054406e-01 9.194595e-01 6.095532e-01 1.011600e+00 8.110231e-01 2.741809e-01 1.137401e+00 1.382920e+00 1.410706e+00 1.275707e+00 1.096964e+00 1.650693e+00 1.774188e+00 2.085665e+00 2.198280e+00 1.744630e+00 1.706242e+00 1.493616e+00 1.461240e+00 1.598620e+00 1.108053e+00 1.198429e+00 9.708787e-01 1.045813e+00 1.215210e+00 1.179235e+00 1.316332e+00 1.149129e+00 1.226071e+00 1.220839e+00 1.252876e+00 1.599418e+00
<GCONST> 7.121670e+01
<MIXTURE> 5 1.539978e-01
<MEAN> 39
 6.653346e-01 -6.066474e-01 -6.937349e-02 1.270266e-01 -2.420688e-01 -6.740241e-01 -5.950276e-01 1.220249e-01 -2.594764e-01 5.419294e-01 -5.050228e-01 -3.252841e-01 7.530328e-01 1.207011e-01 -6.585350e-01 -5.721540e-01 -6.590605e-01 -5.295728e-01 -4.903982e-01 1.302516e-01 9.454398e-01 7.518088e-01 3.151358e-01 -1.874488e-01 -1.914182e-01 9.346083e-01 -2.509959e-01 -2.091127e-02 -1.061219e-01 -1.602361e-02 1.557329e-01 1.974792e-01 3.755203e-01 1.873200e-01 -1.164213e-01 -2.686098e-01 -2.544632e-01 -1.374394e-01 -7.259778e-02
<VARIANCE> 39
 5.182872e-01 5.901514e-01 1.194095e+00 8.070388e-01 7.993170e-01 1.308143e+00 1.269266e+00 1.345381e+00 1.084334e+00 1.041858e+00 1.094676e+00 1.457389e+00 8.901510e-01 5.265521e-01 7.639803e-01 1.703578e+00 1.466883e+00 1.054307e+00 1.352261e+00 1.218576e+00 2.041206e+00 1.592601e+00 1.429332e+00 1.229031e+00 1.207828e+00 1.108406e+00 4.812163e-01 4.534629e-01 8.082505e-01 6.639333e-01 7.694613e-01 8.629063e-01 9.602817e-01 1.072954e+00 8.813977e-01 8.328902e-01 8.738009e-01 9.282243e-01 4.016617e-01
<GCONST> 7.014476e+01
<MIXTURE> 6 1.402318e-01
<MEAN> 39
 3.394675e-01 2.205965e-01 1.037482e+00 9.286890e-01 -3.058556e-01 -1.326164e+00 -2.361378e-01 -1.211441e-02 -5.464301e-01 -2.914040e-01 -8.137907e-01 6.111829e-01 1.109934e+00 1.655934e+00 -2.030695e+00 3.840411e-01 -5.970330e-01 -1.780082e+00 -1.159026e+00 -1.231747e+00 8.170440e-01 8.000501e-01 1.779055e-01 1.982405e-01 3.623155e-01 1.599377e+00 -1.944499e+00 -5.356675e-01 -1.311308e+00 -7.731280e-01 1.143026e-01 7.809614e-01 5.135876e-01 2.227704e-01 2.401671e-01 4.021662e-01 7.621588e-02 -2.085969e-01 -5.320215e-01
<VARIANCE> 39
 1.340856e-01 3.389005e-01 6.332094e-01 3.551721e-01 3.975961e-01 5.235733e-01 5.027933e-01 6.064550e-01 9.454755e-01 5.967938e-01 5.580083e-01 7.190316e-01 1.853842e-01 1.199843e+00 1.028198e+00 1.820922e+00 1.247031e+00 9.583378e-01 1.321155e+00 1.241803e+00 1.287865e+00 1.693505e+00 1.382715e+00 1.069437e+00 1.071285e+00 6.918181e-01 1.196856e+00 1.506564e+00 1.531436e+00 9.583301e-01 1.075730e+00 9.100293e-01 1.026405e+00 9.917127e-01 8.821758e-01 8.994595e-01 8.106655e-01 1.053119e+00 7.279496e-01
<GCONST> 6.378252e+01
<MIXTURE> 7 1.340629e-01
<MEAN> 39
 9.561365e-01 -1.170392e-01 -7.380953e-01 2.378377e-01 6.045469e-01 -2.535088e-01 2.888669e-01 -3.975920e-02 -1.642859e-01 8.521199e-01 -4.945833e-01 -7.226536e-01 9.091879e-01 1.757283e+00 -1.626078e+00 -1.381313e+00 -1.716010e+00 -1.060170e+00 -5.753692e-01 -3.383888e-02 3.517073e-01 7.917188e-01 1.493377e+00 -6.477761e-02 -1.146742e+00 2.123593e+00 -2.187420e+00 -6.485124e-01 -3.515208e-01 -3.616449e-01 -9.523967e-02 1.661438e-01 2.398351e-01 -8.443892e-02 -2.578797e-01 -1.088291e-01 -1.084780e-01 1.494729e-01 -9.110289e-01
<VARIANCE> 39
 1.984167e-01 4.095867e-01 3.331968e-01 3.516448e-01 3.745803e-01 8.903476e-01 6.736699e-01 9.175066e-01 8.842033e-01 6.255378e-01 1.024025e+00 8.985764e-01 3.403248e-01 1.160083e+00 1.372652e+00 1.497776e+00 1.287458e+00 1.105279e+00 1.509057e+00 1.746495e+00 2.048465e+00 2.106147e+00 1.689590e+00 1.653501e+00 1.577589e+00 1.433024e+00 1.669695e+00 1.225031e+00 1.242086e+00 1.085727e+00 1.044039e+00 1.212248e+00 1.180441e+00 1.407799e+00 1.197984e+00 1.241290e+00 1.175155e+00 1.357268e+00 1.705026e+00
<GCONST> 7.234204e+01
<MIXTURE> 8 7.545082e-02
<MEAN> 39
 8.448576e-01 -5.665489e-02 -1.466203e-01 8.786315e-01 1.138569e+00 3.605618e-01 6.780893e-01 5.020863e-01 -7.482976e-01 1.435250e-01 -3.570890e-01 1.893263e-02 8.359500e-01 2.019994e+00 -6.489931e-01 -9.512473e-01 -7.444491e-01 -4.973030e-01 -4.009843e-01 9.222644e-02 7.130614e-01 3.458198e-01 9.394788e-01 -8.552633e-02 -1.180340e+00 2.869653e+00 -1.259327e+00 -1.056466e+00 -1.530477e+00 -1.850601e+00 -1.487037e+00 -7.447152e-01 -6.644868e-01 -7.180957e-01 2.562213e-01 8.292471e-01 6.270890e-01 -2.693800e-01 -1.699707e+00
<VARIANCE> 39
 1.722152e-01 2.583642e-01 2.207718e-01 2.643796e-01 2.807188e-01 4.607016e-01 4.195598e-01 7.285259e-01 4.010509e-01 5.067337e-01 4.775857e-01 7.379533e-01 3.842399e-01 9.353917e-01 9.548508e-01 1.383274e+00 1.312308e+00 1.158539e+00 1.297880e+00 1.453949e+00 1.759350e+00 1.444411e+00 1.714165e+00 1.683098e+00 1.919381e+00 2.199186e+00 2.078382e+00 1.562057e+00 1.742540e+00 1.215811e+00 1.135381e+00 1.619376e+00 1.597313e+00 1.887010e+00 1.601847e+00 1.685718e+00 1.238519e+00 1.499991e+00 3.088998e+00
<GCONST> 6.997929e+01
<STATE> 4
<NUMMIXES> 8
<MIXTURE> 1 1.057492e-01
<MEAN> 39
 3.831400e-01 -3.826203e-01 1.494800e+00 7.115725e-01 -1.173354e+00 -1.323674e+00 -5.957620e-01 3.805799e-01 -4.615789e-01 -6.433817e-01 -1.369570e-01 1.001296e+00 1.289571e+00 1.480329e-01 -9.012069e-01 -1.561409e-01 -5.369532e-01 -9.853236e-01 -2.767765e-01 -1.413941e-01 6.297725e-01 8.141767e-01 2.445034e-01 5.572993e-01 4.184404e-01 1.071110e+00 -5.407484e-01 5.465439e-01 -7.064043e-01 -6.430367e-02 9.792154e-01 6.205878e-01 5.358924e-01 -1.583032e-01 -1.349111e-01 2.935632e-01 -3.168165e-01 -4.602549e-01 -8.614234e-01
<VARIANCE> 39
 1.612562e-01 4.065787e-01 4.772000e-01 5.622914e-01 4.630395e-01 6.569307e-01 7.367514e-01 9.988454e-01 1.043563e+00 5.674517e-01 9.506970e-01 9.183253e-01 2.097689e-01 5.845134e-01 7.180476e-01 1.809971e+00 7.235255e-01 8.489955e-01 9.330064e-01 9.720851e-01 1.250353e+00 1.125083e+00 8.476935e-01 7.746099e-01 8.486309e-01 6.274419e-01 9.128929e-01 6.872699e-01 1.045381e+00 7.311385e-01 9.210891e-01 1.000945e+00 9.261872e-01 1.124642e+00 7.659263e-01 7.041322e-01 8.772388e-01 9.016040e-01 6.020722e-01
<GCONST> 6.021443e+01
<MIXTURE> 2 1.199708e-01
<MEAN> 39
 6.730305e-01 -5.594081e-01 -1.190186e+00 -4.872079e-01 4.198286e-01 2.681251e-01 5.508480e-01 5.314028e-02 -4.381294e-01 7.191808e-01 -5.260828e-01 -6.652666e-01 6.920043e-01 1.708140e-01 -2.187093e-01 -4.070124e-02 -8.736500e-02 5.018953e-02 1.021964e-01 3.663553e-01 3.373662e-01 2.833182e-02 1.618181e-01 -5.646638e-02 -8.067200e-02 5.352496e-01 -2.090239e-01 1.117227e-01 3.620033e-01 2.292300e-01 1.725546e-01 -2.656361e-02 -6.120640e-02 6.070679e-02 -7.677600e-03 1.266398e-02 8.292605e-02 1.559037e-01 -4.375070e-02
<VARIANCE> 39
 5.506237e-01 8.772123e-01 7.449033e-01 9.229978e-01 8.416924e-01 1.311482e+00 1.086468e+00 1.388420e+00 1.324786e+00 1.000280e+00 1.847070e+00 2.044342e+00 8.801037e-01 6.950521e-01 8.088070e-01 1.085559e+00 1.220726e+00 8.566256e-01 1.157618e+00 1.111956e+00 1.162935e+00 9.829092e-01 1.178897e+00 1.215959e+00 1.342373e+00 1.211603e+00 1.000958e+00 7.717060e-01 1.073670e+00 1.125888e+00 9.510813e-01 1.035224e+00 1.005698e+00 1.171887e+00 9.012999e-01 1.111269e+00 1.161872e+00 1.261794e+00 1.113599e+00
<GCONST> 7.392274e+01
<MIXTURE> 3 1.496364e-01
<MEAN> 39
 8.264625e-01 -9.809385e-01 1.334180e-01 1.355702e-01 -8.084064e-01 -1.120851e+00 -5.824144e-01 6.867079e-01 7.118143e-01 5.669339e-01 -8.797178e-01 -5.154175e-02 1.504829e+00 2.051796e-01 -1.320039e+00 -1.029725e+00 -9.771127e-01 -5.683272e-01 -7.162568e-02 6.088240e-01 1.354503e+00 1.251931e+00 4.637251e-01 -2.984205e-01 -2.157735e-01 1.282613e+00 -1.039336e+00 8.279688e-01 9.920122e-02 5.117813e-01 1.056425e+00 6.016794e-01 5.481665e-01 -4.071985e-01 -8.932649e-01 -5.079513e-01 -1.874880e-01 -3.178063e-01 -1.117739e+00
<VARIANCE> 39
 1.218292e-01 2.913842e-01 3.672715e-01 3.087753e-01 4.018447e-01 7.557901e-01 8.205276e-01 1.060004e+00 1.206341e+00 5.737840e-01 7.323995e-01 1.128943e+00 1.462702e-01 5.127105e-01 7.191076e-01 1.200554e+00 7.863041e-01 9.077151e-01 1.017550e+00 1.141951e+00 1.284229e+00 1.139698e+00 1.054513e+00 8.872859e-01 1.004230e+00 6.089635e-01 9.868625e-01 6.644207e-01 1.075033e+00 7.116351e-01 8.363674e-01 9.299765e-01 1.020196e+00 9.525397e-01 9.998599e-01 7.912274e-01 8.349380e-01 9.005703e-01 5.773878e-01
<GCONST> 5.913264e+01
<MIXTURE> 4 1.340023e-01
<MEAN> 39
 1.287966e+00 -7.646601e-01 -1.183761e+00 -3.519477e-01 3.862808e-01 -4.816487e-01 1.230524e-01 1.601008e-01 -4.799464e-01 1.779813e+00 -1.466920e-01 -1.048859e+00 1.353276e+00 1.482657e-01 -1.262511e+00 -1.054281e+00 -1.204145e+00 -3.098567e-01 -3.487187e-01 3.044917e-01 7.827927e-01 5.838018e-01 1.074818e+00 -3.782758e-01 -7.796950e-01 1.450245e+00 -1.635125e+00 5.344060e-01 9.683703e-01 8.225952e-01 5.215363e-01 5.449879e-01 2.844257e-01 -5.950511e-03 -2.441115e-01 -1.251516e+00 -5.577318e-01 3.324386e-01 -1.293068e+00
<VARIANCE> 39
 1.080601e-01 2.793162e-01 3.674233e-01 4.237497e-01 4.378723e-01 1.081405e+00 9.932528e-01 1.453041e+00 9.048430e-01 5.640454e-01 1.319545e+00 1.014332e+00 1.588118e-01 7.197350e-01 7.782431e-01 1.005782e+00 1.122751e+00 7.974310e-01 1.354984e+00 1.132023e+00 1.747017e+00 1.509628e+00 1.268769e+00 1.202939e+00 1.100899e+00 8.051019e-01 9.867169e-01 7.805985e-01 1.158930e+00 9.586923e-01 8.528361e-01 9.885558e-01 1.090753e+00 1.172314e+00 1.142583e+00 8.855870e-01 1.072558e+00 1.109157e+00 1.054250e+00
<GCONST> 6.488805e+01
<MIXTURE> 5 1.472041e-01
<MEAN> 39
 7.906625e-01 -9.706067e-01 2.717140e-02 4.719852e-02 -8.045048e-01 -1.157845e+00 -4.839730e-01 7.482777e-01 8.173954e-01 5.697976e-01 -9.257217e-01 -6.808899e-02 1.517674e+00 1.673940e-01 -1.480478e+00 -1.195233e+00 -1.088723e+00 -4.908416e-01 -1.034962e-01 5.493606e-01 1.249736e+00 1.092856e+00 4.212461e-01 -4.907670e-01 -4.993041e-01 1.188140e+00 -1.134303e+00 7.909281e-01 4.251301e-05 5.079073e-01 1.054052e+00 5.964606e-01 5.075485e-01 -4.919078e-01 -1.025654e+00 -5.423536e-01 -2.766483e-01 -4.341201e-01 -1.241628e+00
<VARIANCE> 39
 1.227728e-01 2.993232e-01 3.880539e-01 2.944635e-01 4.178077e-01 8.400515e-01 8.490151e-01 1.008999e+00 1.302539e+00 5.994082e-01 7.467343e-01 1.188963e+00 1.377581e-01 5.023149e-01 7.594559e-01 1.155178e+00 7.715227e-01 9.615996e-01 9.989055e-01 1.140725e+00 1.159369e+00 1.093203e+00 1.028830e+00 8.776219e-01 1.032631e+00 5.741124e-01 1.125423e+00 7.091160e-01 1.150130e+00 7.197752e-01 8.175082e-01 9.231477e-01 1.033159e+00 9.943932e-01 1.067784e+00 8.130712e-01 8.628283e-01 9.530658e-01 6.253393e-01
<GCONST> 5.980312e+01
<MIXTURE> 6 1.257595e-01
<MEAN> 39
 1.283461e+00 -7.919452e-01 -1.231416e+00 -3.336046e-01 4.517094e-01 -3.946826e-01 2.722876e-01 4.526384e-01 -3.776404e-01 1.822414e+00 -9.019679e-02 -1.191472e+00 1.388773e+00 1.106480e-01 -1.415354e+00 -1.303566e+00 -1.442191e+00 -5.237461e-01 -4.925818e-01 1.186577e-01 5.185079e-01 2.960988e-01 9.340382e-01 -4.478062e-01 -1.119131e+00 1.388704e+00 -1.850985e+00 4.639748e-01 8.413460e-01 6.892049e-01 4.041493e-01 3.731514e-01 1.087573e-01 -2.862333e-01 -3.683283e-01 -1.401297e+00 -7.166197e-01 3.435099e-01 -1.503587e+00
<VARIANCE> 39
 1.124909e-01 2.878970e-01 3.523713e-01 4.229870e-01 4.209490e-01 1.121153e+00 9.885489e-01 1.365036e+00 9.019036e-01 5.485686e-01 1.285247e+00 1.040787e+00 1.572465e-01 7.533532e-01 7.900563e-01 1.094284e+00 1.212750e+00 8.809537e-01 1.352382e+00 1.147286e+00 1.748707e+00 1.350613e+00 1.180566e+00 1.172306e+00 1.099428e+00 7.736286e-01 1.086711e+00 8.596725e-01 1.239192e+00 9.742401e-01 8.976650e-01 9.990960e-01 1.092488e+00 1.265943e+00 1.174480e+00 9.379013e-01 1.121513e+00 1.166098e+00 1.242003e+00
<GCONST> 6.564643e+01
<MIXTURE> 7 1.162959e-01
<MEAN> 39
 5.994834e-01 -6.254554e-01 -1.257562e+00 -5.052873e-01 4.023067e-01 1.987824e-01 4.779604e-01 2.674732e-02 -2.823357e-01 7.711073e-01 -5.959725e-01 -8.231254e-01 4.694424e-01 1.340571e-01 -3.344207e-01 -2.151855e-01 -2.347465e-01 -1.402567e-01 -6.143720e-02 1.867245e-01 8.363704e-02 -1.678256e-01 -3.717944e-02 -2.765131e-01 -3.641092e-01 4.359225e-01 -2.897993e-01 2.087238e-02 2.257214e-01 1.694459e-01 8.343399e-02 -1.593598e-01 -2.126908e-01 -2.007547e-02 -1.315079e-01 -1.399411e-01 -1.064397e-01 8.607715e-03 -1.371712e-01
<VARIANCE> 39
 5.577885e-01 8.027155e-01 7.471549e-01 8.956653e-01 7.908016e-01 1.242134e+00 1.093277e+00 1.241433e+00 1.304183e+00 9.560084e-01 1.751376e+00 1.975257e+00 1.052734e+00 6.654254e-01 7.709205e-01 1.076109e+00 1.286378e+00 9.286955e-01 1.092009e+00 1.134710e+00 1.270724e+00 1.009629e+00 1.216888e+00 1.255024e+00 1.408476e+00 1.378114e+00 1.007818e+00 7.506614e-01 1.129473e+00 1.136824e+00 9.538711e-01 1.034895e+00 1.043295e+00 1.183521e+00 9.784123e-01 1.132659e+00 1.190631e+00 1.312528e+00 1.025543e+00
<GCONST> 7.414992e+01
<MIXTURE> 8 1.013923e-01
<MEAN> 39
 3.946680e-01 -4.011676e-01 1.412561e+00 7.832751e-01 -1.079641e+00 -1.450355e+00 -6.342008e-01 4.469302e-01 -5.847884e-01 -6.300296e-01 -2.092345e-01 9.283621e-01 1.251180e+00 1.018507e-01 -1.020066e+00 -5.555388e-02 -6.744735e-01 -1.150112e+00 -4.370420e-01 -4.395054e-01 4.391248e-01 5.121329e-01 8.759692e-02 3.961519e-01 2.209373e-01 9.318237e-01 -7.066337e-01 5.932330e-01 -8.074983e-01 -1.492375e-01 9.114852e-01 5.615343e-01 4.948516e-01 -3.003917e-01 -2.064157e-01 2.285849e-01 -3.217142e-01 -4.681673e-01 -9.803952e-01
<VARIANCE> 39
 1.633715e-01 3.905660e-01 4.865642e-01 5.529125e-01 4.885877e-01 6.840127e-01 7.220501e-01 9.647961e-01 9.984848e-01 5.693228e-01 9.002874e-01 8.936143e-01 2.195461e-01 6.613697e-01 7.720740e-01 1.730478e+00 7.813876e-01 9.355042e-01 9.722998e-01 1.078760e+00 1.158229e+00 1.005820e+00 9.021437e-01 7.310382e-01 8.268623e-01 5.916682e-01 9.552420e-01 7.215863e-01 1.144683e+00 7.865689e-01 9.765323e-01 9.592977e-01 9.703584e-01 1.060039e+00 7.322474e-01 7.251526e-01 8.377346e-01 9.614241e-01 6.532608e-01
<GCONST> 6.069917e+01
<STATE> 5
<NUMMIXES> 8
<MIXTURE> 1 1.418597e-01
<MEAN> 39
 5.838150e-01 -1.204592e+00 4.661462e-01 1.421870e-01 -1.302230e+00 -9.761197e-01 -1.588255e-01 1.226551e+00 1.188231e+00 -1.619458e-01 -5.048417e-01 1.209194e-01 1.726687e+00 -1.476241e-02 7.643471e-02 2.040752e-01 1.157672e-01 -1.607673e-02 -4.008186e-02 -6.027431e-02 7.469977e-02 -1.543149e-01 -6.964928e-02 2.008875e-01 1.918754e-01 -2.296132e-02 4.930209e-02 2.080498e-01 1.636325e-01 1.429233e-01 9.266572e-02 -2.118454e-02 -1.708117e-01 -1.855621e-01 -2.054793e-01 6.470884e-02 1.015500e-01 1.225378e-01 -2.486468e-01
<VARIANCE> 39
 1.147718e-01 2.000931e-01 2.849424e-01 2.291113e-01 2.413014e-01 6.394064e-01 7.334369e-01 9.611497e-01 1.198092e+00 4.578349e-01 7.378947e-01 1.132745e+00 1.449940e-01 1.481122e-01 2.304228e-01 3.892451e-01 2.712444e-01 2.800105e-01 3.676088e-01 4.229980e-01 4.326984e-01 3.895554e-01 3.731939e-01 4.761867e-01 5.250906e-01 1.258695e-01 1.970119e-01 2.186081e-01 3.121721e-01 2.573261e-01 2.760777e-01 3.634954e-01 3.752116e-01 3.593069e-01 3.608753e-01 3.320279e-01 3.937252e-01 4.095166e-01 1.703705e-01
<GCONST> 2.957434e+01
<MIXTURE> 2 9.361867e-02
<MEAN> 39
 7.598004e-01 -6.840636e-01 -7.811898e-01 -2.887920e-01 3.621740e-01 -1.196711e+00 -1.565496e-01 1.169479e+00 -5.546162e-01 1.154874e+00 -8.490615e-01 -6.061177e-01 1.119941e+00 -1.247164e-01 -7.060647e-02 -4.425016e-02 -1.085508e-01 1.536415e-01 -1.256490e-01 1.702453e-01 4.706016e-01 6.622463e-03 -6.203443e-03 -1.236109e-01 -7.858148e-02 3.066598e-01 -1.096393e-01 3.361693e-01 4.756079e-01 4.122420e-01 -1.627208e-02 4.205908e-01 8.644681e-02 -4.227250e-01 3.122310e-02 -3.629481e-01 1.847857e-01 2.464174e-01 -3.747584e-01
<VARIANCE> 39
 5.075796e-01 7.453165e-01 1.035709e+00 8.012702e-01 6.760414e-01 1.834517e+00 1.072527e+00 1.601737e+00 8.446628e-01 1.295936e+00 1.362395e+00 1.516303e+00 6.754249e-01 5.948559e-01 6.409934e-01 1.353399e+00 1.073078e+00 8.987892e-01 9.598668e-01 8.922310e-01 1.139869e+00 8.390016e-01 8.601418e-01 8.644157e-01 1.122665e+00 5.961846e-01 9.222874e-01 7.518900e-01 1.278068e+00 9.870610e-01 9.011782e-01 1.032173e+00 9.291525e-01 1.012803e+00 8.058420e-01 9.808670e-01 8.203524e-01 9.043404e-01 8.077704e-01
<GCONST> 6.908929e+01
<MIXTURE> 3 1.171622e-01
<MEAN> 39
 5.581815e-01 -1.023512e+00 5.718943e-01 2.029087e-01 -1.317132e+00 -1.274743e+00 -3.584519e-01 1.188083e+00 5.502665e-01 -1.356110e-01 -3.301246e-01 4.893808e-01 1.614115e+00 5.467582e-02 -4.547343e-01 -6.152238e-01 -2.066661e-01 1.381191e-01 1.004862e-01 3.304710e-01 5.110263e-01 3.839492e-01 1.447794e-01 -2.117542e-01 -3.561069e-01 3.771921e-01 -2.371173e-02 5.532414e-01 7.331805e-02 2.644946e-01 7.115548e-01 1.277002e-01 2.904990e-02 -4.218534e-01 -5.338060e-01 4.760113e-02 -1.191802e-01 -7.585414e-02 -6.430500e-01
<VARIANCE> 39
 1.750804e-01 3.785135e-01 6.814209e-01 4.563711e-01 3.354263e-01 7.545915e-01 8.638282e-01 1.150231e+00 1.356470e+00 5.871257e-01 9.000592e-01 1.161602e+00 1.617827e-01 3.509631e-01 4.131052e-01 1.165397e+00 6.030073e-01 7.043770e-01 7.031288e-01 8.384168e-01 8.210755e-01 6.655867e-01 6.317034e-01 9.632838e-01 9.175128e-01 2.616506e-01 4.541463e-01 4.865569e-01 6.939458e-01 5.864102e-01 5.867432e-01 6.824440e-01 7.040724e-01 7.515185e-01 6.182707e-01 5.630545e-01 6.397429e-01 6.705905e-01 4.566721e-01
<GCONST> 5.207371e+01
<MIXTURE> 4 1.523321e-01
<MEAN> 39
 8.631337e-01 -1.401115e+00 -9.402179e-01 -4.378160e-01 -2.005476e-01 -4.029178e-01 5.737266e-01 5.213752e-01 8.564796e-01 1.120342e+00 -1.297543e+00 -1.117724e+00 1.699240e+00 -2.646344e-01 -5.182388e-01 -3.820987e-01 -2.887676e-01 3.225181e-01 2.630442e-01 5.241749e-01 4.811119e-01 1.487459e-01 -1.349413e-01 -5.877008e-01 -4.276008e-01 4.528334e-01 -3.700375e-02 8.283706e-01 5.786344e-01 4.943475e-01 2.426122e-01 -1.377744e-02 -3.471336e-01 -1.403022e-01 -5.092743e-01 -3.437635e-01 4.337613e-01 3.596857e-01 -7.979047e-01
<VARIANCE> 39
 1.337998e-01 2.732415e-01 3.763995e-01 3.789390e-01 4.502180e-01 1.432324e+00 9.087468e-01 1.729392e+00 1.244829e+00 9.270930e-01 1.076417e+00 9.484635e-01 1.184433e-01 3.116301e-01 4.475081e-01 8.625070e-01 5.655193e-01 6.730239e-01 8.538947e-01 7.749891e-01 8.946424e-01 6.967869e-01 7.397687e-01 7.024189e-01 8.207238e-01 2.592882e-01 4.732326e-01 4.473687e-01 6.974954e-01 6.106460e-01 6.579022e-01 6.840406e-01 6.910908e-01 8.833922e-01 7.338246e-01 7.139114e-01 6.452952e-01 6.425106e-01 4.382425e-01
<GCONST> 5.224376e+01
<MIXTURE> 5 1.477138e-01
<MEAN> 39
 8.395979e-01 -1.466580e+00 -9.720051e-01 -4.782625e-01 -1.990549e-01 -2.977633e-01 5.941967e-01 6.260024e-01 8.589834e-01 1.050032e+00 -1.351357e+00 -1.243443e+00 1.661714e+00 -2.617042e-01 -6.030705e-01 -5.822222e-01 -3.970408e-01 3.466808e-01 2.679554e-01 5.145571e-01 4.404386e-01 2.101106e-02 -2.099265e-01 -7.187125e-01 -6.031638e-01 4.249765e-01 -9.594701e-02 7.988399e-01 5.524015e-01 4.728125e-01 1.813557e-01 -1.562685e-01 -4.289676e-01 -2.550801e-01 -5.821534e-01 -3.635272e-01 3.362658e-01 2.700569e-01 -8.752099e-01
<VARIANCE> 39
 1.342381e-01 2.910686e-01 3.888860e-01 3.730828e-01 4.875631e-01 1.532624e+00 8.854976e-01 1.755669e+00 1.192919e+00 9.894345e-01 1.027701e+00 9.591664e-01 1.216672e-01 3.201393e-01 4.678478e-01 8.524733e-01 5.749705e-01 6.862151e-01 8.253553e-01 7.843500e-01 9.052688e-01 6.761888e-01 7.063703e-01 7.044068e-01 8.583546e-01 2.714942e-01 4.963669e-01 4.599721e-01 6.895825e-01 6.278015e-01 6.422088e-01 7.065195e-01 6.764410e-01 9.112028e-01 7.640277e-01 7.610600e-01 6.457807e-01 6.700006e-01 4.966976e-01
<GCONST> 5.296273e+01
<MIXTURE> 6 1.393809e-01
<MEAN> 39
 5.907787e-01 -1.267366e+00 4.507448e-01 1.168025e-01 -1.329381e+00 -1.027112e+00 -2.673159e-01 1.256665e+00 1.123511e+00 -1.839555e-01 -5.125201e-01 3.594457e-02 1.713534e+00 -9.580128e-03 3.476563e-02 1.475376e-01 6.714533e-02 -6.117246e-02 -1.200729e-01 -9.849601e-02 -1.708835e-02 -1.980735e-01 -1.498832e-01 8.522187e-02 7.687422e-02 -9.420960e-02 4.494893e-02 1.760050e-01 1.101159e-01 1.242645e-01 7.393987e-02 -7.544053e-02 -1.924836e-01 -2.345186e-01 -2.581837e-01 3.901317e-02 3.115401e-02 3.444458e-02 -3.148410e-01
<VARIANCE> 39
 1.041915e-01 1.899841e-01 2.794794e-01 2.273240e-01 2.424981e-01 6.761174e-01 7.314427e-01 9.573969e-01 1.212117e+00 4.259592e-01 7.286289e-01 1.173375e+00 1.381014e-01 1.485012e-01 2.347905e-01 4.100263e-01 2.810945e-01 2.789541e-01 3.700629e-01 4.306740e-01 4.453515e-01 4.022552e-01 3.611705e-01 4.815391e-01 5.295211e-01 1.326320e-01 2.093750e-01 2.127116e-01 3.157273e-01 2.663934e-01 2.744106e-01 3.665944e-01 3.607193e-01 3.754422e-01 3.583081e-01 3.274492e-01 4.037008e-01 4.193742e-01 1.823939e-01
<GCONST> 2.977853e+01
<MIXTURE> 7 1.150589e-01
<MEAN> 39
 5.506014e-01 -1.051377e+00 5.492201e-01 1.528852e-01 -1.336122e+00 -1.248451e+00 -3.638281e-01 1.246068e+00 5.624323e-01 -1.751025e-01 -3.363333e-01 3.748078e-01 1.569105e+00 5.810631e-02 -5.348580e-01 -7.228279e-01 -3.065418e-01 1.359720e-01 5.025928e-02 3.266488e-01 4.450057e-01 2.647659e-01 4.112890e-02 -3.773390e-01 -5.298178e-01 2.869470e-01 -6.376135e-02 5.534748e-01 3.228375e-02 2.691111e-01 6.862151e-01 5.285805e-02 -1.732682e-02 -5.243655e-01 -6.108263e-01 4.192606e-03 -2.104767e-01 -1.864755e-01 -7.177333e-01
<VARIANCE> 39
 1.672353e-01 3.921263e-01 6.855547e-01 4.594293e-01 3.384767e-01 7.946048e-01 8.182769e-01 1.177575e+00 1.378122e+00 5.887282e-01 8.871397e-01 1.228393e+00 1.715644e-01 3.672487e-01 4.355950e-01 1.207281e+00 6.067614e-01 7.619808e-01 7.232357e-01 9.195509e-01 8.365319e-01 6.397305e-01 6.473706e-01 1.065678e+00 9.728336e-01 2.810596e-01 4.354088e-01 4.921713e-01 7.193874e-01 5.824611e-01 5.906566e-01 6.893002e-01 6.935016e-01 7.906920e-01 6.207209e-01 5.695669e-01 6.428388e-01 6.739302e-01 4.781012e-01
<GCONST> 5.292041e+01
<MIXTURE> 8 9.287612e-02
<MEAN> 39
 7.660395e-01 -7.534767e-01 -8.095963e-01 -3.449903e-01 3.466152e-01 -1.170271e+00 -1.913722e-01 1.209559e+00 -5.860913e-01 1.198434e+00 -8.260237e-01 -6.855531e-01 1.045629e+00 -1.507782e-01 -1.874346e-01 -1.785371e-01 -2.709660e-01 7.731315e-02 -2.269156e-01 4.013201e-02 3.500677e-01 -1.385161e-01 -1.169768e-01 -2.961935e-01 -3.062674e-01 2.788453e-01 -2.139144e-01 2.992058e-01 4.055384e-01 3.947385e-01 -8.749568e-02 3.195859e-01 2.572019e-02 -5.393213e-01 -2.487810e-02 -4.601637e-01 3.802379e-02 1.311516e-01 -5.075787e-01
<VARIANCE> 39
 4.884000e-01 6.309418e-01 9.690357e-01 7.486154e-01 6.772072e-01 1.728352e+00 1.069867e+00 1.576164e+00 8.233443e-01 1.260762e+00 1.377113e+00 1.694908e+00 8.384833e-01 5.614265e-01 5.782751e-01 1.351109e+00 1.070668e+00 9.590666e-01 9.590126e-01 9.179057e-01 1.211159e+00 8.641973e-01 8.358765e-01 8.561176e-01 1.113389e+00 6.354675e-01 8.722256e-01 7.017675e-01 1.217022e+00 9.714705e-01 8.820339e-01 1.000805e+00 9.143257e-01 1.040291e+00 8.494963e-01 9.699704e-01 8.536809e-01 9.555055e-01 8.449196e-01
<GCONST> 6.894367e+01
<STATE> 6
<NUMMIXES> 8
<MIXTURE> 1 1.439088e-01
<MEAN> 39
 8.521031e-01 -1.409726e+00 -6.430488e-01 -2.584967e-01 -2.213681e-01 -1.051366e+00 1.646689e-02 1.562725e+00 5.120248e-01 8.081862e-01 -1.416452e+00 -1.001255e+00 1.784420e+00 -4.266985e-03 6.311272e-02 2.729437e-01 2.311571e-01 -1.097251e-01 -1.585603e-01 -1.713343e-01 1.283443e-01 -5.685512e-02 -1.016381e-01 2.274102e-01 2.494423e-01 -7.150762e-03 8.334856e-02 2.037730e-01 2.510903e-01 1.969570e-01 -7.923110e-02 6.261118e-03 -1.851289e-01 -2.726968e-01 -1.093073e-01 5.782600e-02 3.159763e-01 2.452987e-01 -2.396966e-01
<VARIANCE> 39
 1.045325e-01 2.353070e-01 3.246020e-01 2.685731e-01 3.143947e-01 1.371418e+00 9.045406e-01 1.266157e+00 1.041847e+00 7.643546e-01 7.838009e-01 1.122391e+00 1.135063e-01 1.751398e-01 2.343499e-01 5.594590e-01 3.744814e-01 4.811035e-01 5.748466e-01 5.504487e-01 5.639383e-01 4.767582e-01 4.941813e-01 5.681733e-01 7.076272e-01 1.190706e-01 2.291934e-01 2.370835e-01 3.661048e-01 3.305301e-01 3.746338e-01 4.567863e-01 4.720702e-01 4.170400e-01 3.985282e-01 4.107081e-01 4.487917e-01 4.421168e-01 1.777731e-01
<GCONST> 3.702943e+01
<MIXTURE> 2 1.180596e-01
<MEAN> 39
 1.032756e+00 -9.863424e-01 -1.808179e+00 -8.850301e-01 1.059721e+00 -5.856403e-01 6.198304e-01 1.070016e+00 -6.690710e-01 1.773692e+00 -1.187147e+00 -1.960180e+00 1.455724e+00 -4.839407e-02 1.185680e-01 1.502731e-01 1.021188e-01 4.975274e-02 7.433027e-03 5.002931e-03 2.145234e-02 1.214929e-02 -8.074720e-02 3.884554e-03 1.997691e-01 -3.415325e-02 -1.500958e-02 1.036972e-01 4.106745e-01 2.570222e-01 -2.240331e-01 2.076982e-01 -1.116969e-01 -1.735662e-01 1.133803e-01 -1.763940e-01 2.247779e-01 3.233870e-01 -2.188113e-01
<VARIANCE> 39
 1.299977e-01 3.085877e-01 3.504527e-01 4.725362e-01 4.256689e-01 1.534739e+00 1.057502e+00 1.363504e+00 7.017520e-01 6.573514e-01 1.062097e+00 1.025915e+00 2.500151e-01 2.886606e-01 4.089085e-01 6.873105e-01 7.950994e-01 6.720963e-01 8.256315e-01 7.418759e-01 7.977248e-01 6.164401e-01 6.170616e-01 7.078166e-01 7.559502e-01 3.816456e-01 4.070183e-01 4.728078e-01 6.981525e-01 6.596467e-01 6.557500e-01 7.317643e-01 7.016200e-01 6.527852e-01 5.434139e-01 6.058260e-01 5.450026e-01 6.068897e-01 4.301386e-01
<GCONST> 5.111988e+01
<MIXTURE> 3 8.687143e-02
<MEAN> 39
 6.022830e-01 -1.028282e+00 -2.650324e-02 1.443479e-01 -6.273639e-01 -9.461662e-01 -6.939867e-02 9.808431e-01 4.542609e-01 1.946648e-01 -6.616187e-01 -1.930381e-01 1.409455e+00 4.424259e-02 4.257892e-01 4.892849e-01 4.122008e-01 -2.822099e-02 -1.998426e-01 -3.194052e-01 -2.447982e-01 -3.230953e-01 -8.389120e-02 4.271005e-01 4.700362e-01 -3.232670e-01 5.960125e-02 5.870965e-01 4.268534e-02 2.547073e-01 5.385245e-01 1.281822e-01 9.921513e-02 -3.384048e-01 -3.930272e-01 1.052584e-01 -6.409241e-02 5.841611e-02 -7.536058e-01
<VARIANCE> 39
 3.003982e-01 7.126421e-01 1.032790e+00 5.602756e-01 7.509865e-01 1.289115e+00 1.039056e+00 1.580145e+00 1.513509e+00 8.871611e-01 1.029852e+00 1.619868e+00 4.708056e-01 4.426109e-01 5.179891e-01 8.942087e-01 7.393049e-01 7.252764e-01 8.972583e-01 8.649195e-01 8.934212e-01 7.605613e-01 7.761258e-01 8.619183e-01 8.754857e-01 4.188743e-01 6.474262e-01 6.316590e-01 7.352843e-01 6.815805e-01 6.426154e-01 8.589363e-01 8.267052e-01 8.484841e-01 7.096577e-01 7.088522e-01 6.947120e-01 7.968729e-01 7.435439e-01
<GCONST> 6.174366e+01
<MIXTURE> 4 1.540048e-01
<MEAN> 39
 9.085512e-01 -1.281145e+00 -1.591381e+00 -8.628709e-01 7.343257e-01 7.109168e-02 9.393889e-01 6.122427e-01 -2.161955e-01 1.453300e+00 -1.367570e+00 -2.015571e+00 1.706979e+00 -2.733544e-03 1.548822e-02 1.223269e-02 9.654269e-03 8.650490e-02 3.639308e-02 3.709380e-02 7.353470e-02 -1.724797e-02 3.210975e-02 3.615111e-03 1.212677e-02 1.311463e-02 7.475446e-02 8.401410e-02 1.051787e-01 8.416564e-02 -5.605673e-02 -7.365659e-02 -8.995570e-02 4.015072e-02 1.591884e-02 5.926786e-02 1.349030e-01 1.427580e-01 -9.884280e-02
<VARIANCE> 39
 1.340202e-01 2.642681e-01 3.693344e-01 4.516355e-01 5.325439e-01 1.572969e+00 8.511210e-01 1.855952e+00 1.025136e+00 7.828885e-01 9.938231e-01 9.212061e-01 1.677930e-01 1.033209e-01 1.693942e-01 2.466032e-01 2.662699e-01 2.768973e-01 3.957901e-01 3.538522e-01 4.046360e-01 3.263620e-01 3.286586e-01 3.678506e-01 3.847852e-01 8.739591e-02 1.547138e-01 1.785522e-01 2.599455e-01 2.478612e-01 2.893526e-01 3.346733e-01 3.359405e-01 3.293597e-01 2.898509e-01 3.059332e-01 3.030699e-01 3.471889e-01 1.014446e-01
<GCONST> 2.935430e+01
<MIXTURE> 5 1.480277e-01
<MEAN> 39
 8.853367e-01 -1.372161e+00 -1.654270e+00 -8.684416e-01 7.644770e-01 1.906545e-01 9.701585e-01 6.853834e-01 -2.065729e-01 1.360806e+00 -1.397841e+00 -2.227465e+00 1.672535e+00 -2.807827e-02 -4.533211e-02 -6.302665e-02 -5.090800e-02 5.118642e-02 -1.452934e-02 -5.087122e-03 1.923309e-02 -7.138938e-02 -1.446702e-03 -6.561192e-02 -1.083875e-01 -2.434839e-02 5.203325e-02 5.169697e-02 3.823824e-02 3.619479e-02 -8.390743e-02 -1.530966e-01 -1.072241e-01 5.886480e-03 -1.830440e-02 3.898718e-02 6.536837e-02 4.745746e-02 -1.426063e-01
<VARIANCE> 39
 1.247993e-01 2.653686e-01 3.759153e-01 4.464358e-01 5.279436e-01 1.589708e+00 7.821939e-01 1.790453e+00 9.636419e-01 7.745229e-01 9.207281e-01 9.547327e-01 1.630607e-01 1.052342e-01 1.728086e-01 2.565002e-01 2.702155e-01 2.842610e-01 3.960760e-01 3.568833e-01 4.047222e-01 3.290130e-01 3.426540e-01 3.621564e-01 3.834040e-01 9.211086e-02 1.603487e-01 1.849854e-01 2.680936e-01 2.491587e-01 2.939419e-01 3.449238e-01 3.325223e-01 3.337454e-01 2.969818e-01 3.116233e-01 3.060469e-01 3.522092e-01 1.014471e-01
<GCONST> 2.946718e+01
<MIXTURE> 6 1.462756e-01
<MEAN> 39
 8.246347e-01 -1.480344e+00 -6.632740e-01 -3.161519e-01 -2.523975e-01 -8.585549e-01 7.496731e-02 1.547227e+00 5.966325e-01 7.342543e-01 -1.451894e+00 -1.183992e+00 1.716302e+00 -9.488016e-04 -6.510563e-03 1.695104e-01 1.377493e-01 -1.225656e-01 -1.701197e-01 -1.868358e-01 7.908937e-02 -1.066917e-01 -1.227461e-01 1.324146e-01 7.501806e-02 -6.697101e-02 7.955338e-02 1.665544e-01 1.695352e-01 1.508419e-01 -1.058883e-01 -7.513453e-02 -2.205350e-01 -3.175513e-01 -1.273805e-01 4.045474e-02 2.655457e-01 1.474916e-01 -2.773465e-01
<VARIANCE> 39
 1.010443e-01 2.625426e-01 3.374279e-01 2.729682e-01 3.191268e-01 1.614467e+00 9.161070e-01 1.357332e+00 1.044255e+00 7.991551e-01 8.169146e-01 1.102054e+00 1.174833e-01 1.705792e-01 2.373164e-01 5.703790e-01 3.605330e-01 4.982985e-01 5.886531e-01 5.740006e-01 5.731694e-01 4.809017e-01 5.018479e-01 5.394697e-01 7.021542e-01 1.210547e-01 2.216841e-01 2.386646e-01 3.522897e-01 3.160827e-01 3.674394e-01 4.644774e-01 4.712218e-01 4.297943e-01 4.060197e-01 4.182722e-01 4.364276e-01 4.589975e-01 1.760208e-01
<GCONST> 3.754251e+01
<MIXTURE> 7 1.158037e-01
<MEAN> 39
 9.751434e-01 -1.090349e+00 -1.907640e+00 -9.624398e-01 1.089497e+00 -4.256052e-01 6.853423e-01 1.143328e+00 -6.624293e-01 1.694691e+00 -1.228896e+00 -2.218887e+00 1.387078e+00 -9.483949e-02 1.873725e-02 3.588890e-02 9.573400e-04 1.337135e-02 -3.344120e-02 -4.039140e-02 -2.882059e-02 -2.226190e-02 -1.255309e-01 -1.017065e-01 -8.646943e-03 -5.006142e-02 -5.489619e-02 6.335431e-02 3.021131e-01 2.024158e-01 -2.563137e-01 6.213168e-02 -1.442953e-01 -2.274283e-01 9.043919e-02 -1.630190e-01 1.179427e-01 2.006716e-01 -2.366999e-01
<VARIANCE> 39
 1.331091e-01 3.179084e-01 3.646854e-01 4.443163e-01 4.218035e-01 1.474790e+00 9.450152e-01 1.362095e+00 6.542473e-01 7.172002e-01 1.004962e+00 1.068116e+00 2.754166e-01 3.012576e-01 3.966824e-01 6.673239e-01 7.630944e-01 6.598297e-01 8.029686e-01 7.350628e-01 8.027496e-01 5.895544e-01 6.260219e-01 6.623360e-01 7.299569e-01 5.253235e-01 4.351273e-01 4.726719e-01 6.966034e-01 6.655177e-01 6.597827e-01 7.338708e-01 6.962438e-01 6.622937e-01 5.642388e-01 6.190404e-01 5.305045e-01 6.293005e-01 4.423520e-01
<GCONST> 5.135379e+01
<MIXTURE> 8 8.701786e-02
<MEAN> 39
 5.787282e-01 -1.038256e+00 3.162277e-02 8.793777e-02 -6.653627e-01 -1.013214e+00 -1.979216e-01 9.691980e-01 4.236344e-01 1.871241e-01 -6.602952e-01 -1.516074e-01 1.329846e+00 2.337399e-02 3.485351e-01 4.620239e-01 3.300163e-01 -1.268584e-01 -3.068493e-01 -5.153250e-01 -4.387896e-01 -4.294998e-01 -1.926221e-01 2.717325e-01 3.056772e-01 -4.815353e-01 7.829443e-04 4.671409e-01 -6.555676e-02 2.389898e-01 4.926863e-01 7.228389e-02 3.290747e-02 -4.346514e-01 -4.682019e-01 5.940273e-03 -1.907444e-01 -1.177560e-01 -8.685560e-01
<VARIANCE> 39
 2.977760e-01 6.631202e-01 1.018074e+00 5.572499e-01 7.036732e-01 1.387440e+00 1.021628e+00 1.551917e+00 1.542841e+00 8.796356e-01 1.003922e+00 1.706762e+00 5.772861e-01 4.064649e-01 4.870640e-01 8.753355e-01 7.636037e-01 7.029326e-01 9.065503e-01 8.400506e-01 9.406784e-01 7.762240e-01 7.824156e-01 8.668599e-01 8.850061e-01 4.771157e-01 6.131973e-01 5.604866e-01 7.145523e-01 6.664499e-01 6.908829e-01 8.601236e-01 7.932006e-01 9.047074e-01 7.547197e-01 7.079152e-01 6.744533e-01 8.189750e-01 7.981445e-01
<GCONST> 6.189926e+01
<TRANSP> 7
 0.000000e+00 1.000000e+00 0.000000e+00 0.000000e+00 0.000000e+00 0.000000e+00 0.000000e+00
 0.000000e+00 7.678107e-01 2.321893e-01 0.000000e+00 0.000000e+00 0.000000e+00 0.000000e+00
 0.000000e+00 0.000000e+00 4.089136e-01 5.910864e-01 0.000000e+00 0.000000e+00 0.000000e+00
 0.000000e+00 0.000000e+00 0.000000e+00 5.454513e-01 4.545487e-01 0.000000e+00 0.000000e+00
 0.000000e+00 0.000000e+00 0.000000e+00 0.000000e+00 6.914535e-01 3.085465e-01 0.000000e+00
 0.000000e+00 0.000000e+00 0.000000e+00 0.000000e+00 0.000000e+00 8.569454e-01 1.430546e-01
 0.000000e+00 0.000000e+00 0.000000e+00 0.000000e+00 0.000000e+00 0.000000e+00 0.000000e+00
<ENDHMM>
~h "b"
<BEGINHMM>
<NUMSTATES> 7
<STATE> 2
<NUMMIXES> 8
<MIXTURE> 1 1.204279e-01
<MEAN> 39
 8.694581e-01 -1.076312e-01 5.767369e-01 1.014660e+00 7.907227e-02 -8.761578e-01 -7.616671e-01 1.181789e-01 -9.863815e-01 -7.413710e-01 -4.302658e-01 2.562539e-01 3.399317e-01 -8.069977e-01 1.148056e+00 -3.790594e-01 3.024558e-01 1.636424e+00 1.875115e+00 8.998654e-01 -6.811286e-01 -3.254834e-02 1.789246e-01 5.163640e-02 -2.611716e-01 -2.882725e+00 -1.323970e+00 5.014989e-01 5.912083e-01 7.601359e-02 3.946109e-01 8.047142e-01 8.362717e-01 2.278671e-02 1.483847e-01 2.869568e-01 -9.719072e-02 4.186255e-02 -7.231030e-01
<VARIANCE> 39
 1.783983e-01 3.134190e-01 8.419867e-01 4.859521e-01 4.708334e-01 9.034359e-01 7.725540e-01 7.825999e-01 7.849435e-01 8.163170e-01 7.062688e-01 8.529186e-01 2.417096e-01 8.547036e-01 7.447463e-01 2.225592e+00 1.868877e+00 1.198149e+00 1.477924e+00 1.228828e+00 1.350639e+00 1.369515e+00 2.311324e+00 1.147062e+00 1.409730e+00 9.345622e-01 1.002303e+00 8.138013e-01 1.712882e+00 8.880471e-01 1.097749e+00 1.465088e+00 1.174454e+00 1.285602e+00 1.094991e+00 1.204831e+00 8.811991e-01 1.160071e+00 1.424551e+00
<GCONST> 6.954244e+01
<MIXTURE> 2 1.748434e-01
<MEAN> 39
 3.144687e-01 4.120511e-01 -5.192072e-01 -1.260943e-01 2.915902e-01 3.598956e-01 3.261142e-01 -1.583056e-01 -4.590577e-01 1.832276e-01 -2.904266e-02 -2.048259e-01 -5.433979e-01 1.435940e-02 4.416489e-01 5.271977e-01 5.665139e-01 5.965722e-01 4.084485e-01 1.877314e-01 1.150564e-01 9.060182e-03 -1.167439e-02 1.448030e-01 1.104632e-01 -3.227677e-01 1.605385e-01 1.646427e-01 5.049027e-01 3.463367e-01 1.870929e-01 6.751541e-02 7.752328e-02 1.057975e-01 3.486609e-02 -2.135946e-01 -7.117099e-02 8.635378e-02 2.553736e-01
<VARIANCE> 39
 6.712148e-01 4.528123e-01 6.789360e-01 5.539585e-01 5.706360e-01 6.817583e-01 8.041728e-01 7.225149e-01 1.061867e+00 7.732440e-01 8.514255e-01 1.111181e+00 7.088788e-01 1.218134e+00 1.064512e+00 1.207285e+00 1.267622e+00 1.084666e+00 9.558688e-01 1.176087e+00 1.163343e+00 1.222276e+00 1.397334e+00 8.637542e-01 1.345276e+00 1.366957e+00 1.353598e+00 1.015401e+00 1.431498e+00 1.184497e+00 1.268587e+00 1.072125e+00 1.090643e+00 1.076065e+00 1.133092e+00 1.282214e+00 9.274593e-01 1.246536e+00 1.136898e+00
<GCONST> 7.141828e+01
<MIXTURE> 3 1.186264e-01
<MEAN> 39
 1.108812e+00 -9.918554e-01 -1.345216e+00 -4.939751e-01 1.280099e-01 -4.212450e-01 2.025419e-01 1.633962e-01 1.690198e-01 1.569788e+00 -4.102971e-02 -1.423564e+00 1.335530e+00 5.224227e-01 6.166651e-01 1.928237e-01 2.850710e-01 3.955695e-02 -1.862911e-01 -7.114512e-01 -5.003823e-01 -5.930155e-01 2.853947e-01 1.058733e+00 5.166869e-01 -8.231837e-01 -3.230761e-01 6.479431e-01 5.693251e-01 4.731100e-01 4.501376e-01 6.671340e-01 4.338215e-02 -3.414279e-01 -5.063089e-01 -6.868646e-01 6.843755e-02 5.078847e-01 -1.418839e+00
<VARIANCE> 39
 9.716403e-02 2.772081e-01 4.623109e-01 6.582379e-01 4.198913e-01 1.636845e+00 1.118393e+00 1.603893e+00 1.509484e+00 6.533372e-01 1.262930e+00 1.584736e+00 2.460716e-01 4.101495e-01 5.283394e-01 7.417076e-01 4.826163e-01 6.319281e-01 9.158784e-01 8.676641e-01 1.034674e+00 8.628026e-01 8.779305e-01 1.362234e+00 1.049919e+00 5.282132e-01 7.447383e-01 5.578729e-01 8.067174e-01 6.657021e-01 6.130649e-01 8.840784e-01 8.586307e-01 8.850094e-01 7.450383e-01 9.484465e-01 7.701319e-01 8.606781e-01 1.086324e+00
<GCONST> 5.952806e+01
<MIXTURE> 4 8.774959e-02
<MEAN> 39
 1.328272e+00 -5.051207e-01 -1.035049e+00 -2.901493e-01 3.263289e-01 -5.143186e-01 -5.157126e-01 -3.336023e-01 -8.821758e-01 1.423572e+00 8.003605e-01 -6.897672e-01 9.860620e-01 -6.584432e-01 1.374828e+00 1.372054e+00 1.512556e+00 1.067201e+00 1.293137e+00 -6.723598e-02 -1.011772e+00 -1.035944e+00 -1.334351e+00 3.932633e-01 1.339024e+00 -3.167997e+00 -2.083708e+00 2.406045e-01 9.293716e-01 1.001756e+00 9.467273e-01 1.057984e+00 1.251754e+00 5.808625e-01 3.882062e-01 -1.295324e+00 -1.512121e+00 5.805169e-02 -1.659855e+00
<VARIANCE> 39
 9.307023e-02 2.983434e-01 3.100050e-01 4.982935e-01 3.478780e-01 7.130283e-01 8.150873e-01 1.134652e+00 1.442868e+00 5.192158e-01 6.874474e-01 9.851716e-01 1.760125e-01 9.340566e-01 6.005371e-01 1.158758e+00 1.221652e+00 8.174938e-01 1.216720e+00 1.339102e+00 1.536360e+00 1.192488e+00 1.307102e+00 1.545549e+00 1.443066e+00 1.134455e+00 6.400095e-01 6.080711e-01 7.861995e-01 7.639092e-01 7.434695e-01 1.070872e+00 9.277887e-01 1.191580e+00 1.248803e+00 1.131861e+00 8.792782e-01 1.113041e+00 1.294517e+00
<GCONST> 6.319663e+01
<MIXTURE> 5 1.807232e-01
<MEAN> 39
 4.141730e-01 3.233048e-01 -6.423500e-01 -1.433534e-01 2.889997e-01 2.574113e-01 2.799264e-01 -2.799905e-01 -4.214227e-01 2.019165e-01 -7.551055e-02 -3.721524e-01 -3.509227e-01 -1.491035e-01 2.803918e-01 1.963395e-01 1.071971e-01 1.678938e-01 7.245053e-03 -1.379922e-01 -1.794586e-01 -1.899222e-01 -1.963822e-01 -8.884653e-02 -1.606553e-01 -4.575164e-01 -1.524666e-01 -3.746700e-02 2.777303e-01 1.019139e-01 -7.685453e-02 -1.408940e-01 -1.169015e-01 -1.799650e-02 -3.450710e-02 -1.776094e-01 -1.174870e-01 3.212480e-02 -1.152666e-02
<VARIANCE> 39
 5.972830e-01 5.000163e-01 7.133979e-01 5.579200e-01 6.283859e-01 7.600289e-01 8.597941e-01 7.727708e-01 1.507865e+00 8.282074e-01 9.185305e-01 1.418045e+00 5.757331e-01 1.206746e+00 1.188948e+00 1.378487e+00 1.349838e+00 1.210333e+00 1.067363e+00 1.172503e+00 1.154525e+00 1.345863e+00 1.567164e+00 1.121741e+00 1.541898e+00 1.632592e+00 1.599535e+00 1.028690e+00 1.474842e+00 1.074203e+00 1.153958e+00 1.019358e+00 1.164116e+00 1.096608e+00 1.220205e+00 1.395458e+00 1.065319e+00 1.387571e+00 1.115249e+00
<GCONST> 7.405611e+01
<MIXTURE> 6 1.237425e-01
<MEAN> 39
 9.072896e-01 -1.761386e-01 5.682907e-01 9.885945e-01 6.098052e-02 -9.706302e-01 -9.243296e-01 1.100536e-01 -9.845613e-01 -6.590506e-01 -4.250343e-01 1.976895e-01 4.210452e-01 -7.700936e-01 1.021081e+00 -3.899194e-01 2.035554e-01 1.389403e+00 1.608251e+00 6.491557e-01 -8.213152e-01 -1.533118e-01 -1.877584e-01 -1.737536e-01 -5.361964e-01 -2.823088e+00 -1.387975e+00 4.145336e-01 3.415242e-01 -6.847803e-02 2.865531e-01 7.375510e-01 8.504937e-01 -2.350187e-02 7.560001e-02 2.209814e-01 -1.967511e-01 -5.106413e-02 -9.013473e-01
<VARIANCE> 39
 1.866188e-01 3.092368e-01 8.223126e-01 4.879305e-01 5.401386e-01 9.972075e-01 7.708063e-01 9.071253e-01 8.217475e-01 8.420922e-01 7.700337e-01 9.089728e-01 2.388092e-01 8.362101e-01 6.979306e-01 2.146613e+00 1.744943e+00 1.141556e+00 1.581910e+00 1.407044e+00 1.256209e+00 1.349030e+00 2.118562e+00 1.192636e+00 1.357360e+00 8.363248e-01 1.055505e+00 7.657076e-01 1.819987e+00 9.144318e-01 1.204643e+00 1.387746e+00 1.192998e+00 1.217013e+00 1.025521e+00 1.273651e+00 9.701622e-01 1.264104e+00 1.426378e+00
<GCONST> 7.008339e+01
<MIXTURE> 7 1.084884e-01
<MEAN> 39
 1.016396e+00 -1.057099e+00 -1.363981e+00 -5.187247e-01 4.004254e-02 -6.047677e-01 9.760554e-02 2.293623e-01 4.864825e-01 1.492569e+00 -1.910396e-01 -1.563890e+00 1.235250e+00 3.563646e-01 4.659109e-01 -3.788182e-02 1.347938e-01 -2.234439e-02 -3.939918e-01 -7.901108e-01 -4.845515e-01 -5.864370e-01 1.742446e-01 7.674578e-01 1.669414e-01 -9.009082e-01 -4.501067e-01 7.001992e-01 4.878280e-01 4.411739e-01 4.520043e-01 5.982301e-01 7.257812e-03 -4.784281e-01 -6.737779e-01 -7.210470e-01 -9.966917e-02 4.314258e-01 -1.558967e+00
<VARIANCE> 39
 1.193849e-01 3.124473e-01 5.296105e-01 6.267139e-01 4.512693e-01 1.468051e+00 9.914092e-01 1.601980e+00 1.214159e+00 5.942519e-01 1.278219e+00 1.589869e+00 3.252955e-01 6.238648e-01 8.416370e-01 9.343973e-01 7.412360e-01 7.660477e-01 9.591554e-01 9.661243e-01 1.268026e+00 1.126225e+00 9.269689e-01 1.727094e+00 9.413854e-01 6.849941e-01 8.219026e-01 7.200413e-01 8.896935e-01 7.091954e-01 7.377005e-01 9.561129e-01 8.505804e-01 9.317689e-01 9.039776e-01 1.004706e+00 9.343745e-01 8.490530e-01 1.310078e+00
<GCONST> 6.400578e+01
<MIXTURE> 8 8.539984e-02
<MEAN> 39
 1.306528e+00 -5.849420e-01 -1.012567e+00 -2.786338e-01 1.845311e-01 -6.122659e-01 -5.285562e-01 -3.546237e-01 -5.093440e-01 1.324738e+00 7.208802e-01 -6.682937e-01 9.378630e-01 -6.351258e-01 1.426168e+00 1.106981e+00 1.315123e+00 8.950639e-01 1.075567e+00 -3.191270e-01 -1.309722e+00 -1.329697e+00 -1.506221e+00 2.907921e-01 9.375569e-01 -3.051701e+00 -2.190760e+00 2.129893e-01 7.788408e-01 7.389422e-01 8.160830e-01 9.503409e-01 1.091240e+00 4.887767e-01 1.547449e-01 -1.254355e+00 -1.512063e+00 9.668668e-02 -1.618085e+00
<VARIANCE> 39
 1.049232e-01 3.683152e-01 4.011783e-01 4.808232e-01 4.289328e-01 9.121776e-01 8.146300e-01 1.223400e+00 1.336944e+00 5.455909e-01 6.630931e-01 1.016949e+00 1.840602e-01 8.876663e-01 6.731874e-01 1.145235e+00 1.152874e+00 8.118890e-01 1.304117e+00 1.325355e+00 1.505264e+00 1.134379e+00 1.225413e+00 1.326592e+00 1.379040e+00 9.783539e-01 7.014014e-01 6.484193e-01 8.965746e-01 7.026590e-01 7.747780e-01 1.192054e+00 9.226647e-01 1.112224e+00 1.127433e+00 1.065784e+00 9.453636e-01 1.177738e+00 1.305100e+00
<GCONST> 6.411047e+01
<STATE> 3
<NUMMIXES> 8
<MIXTURE> 1 1.150899e-01
<MEAN> 39
 4.722186e-01 3.702011e-01 3.318349e-02 9.768282e-01 1.413515e+00 9.872571e-01 2.754328e-01 -7.293397e-01 -1.415871e+00 -3.396700e-01 -1.099601e-01 2.617719e-01 -5.585433e-01 -1.348869e+00 9.273399e-01 1.522215e+00 1.430280e+00 1.150320e+00 8.654329e-01 5.869777e-01 5.007698e-02 -3.805181e-02 -9.737263e-01 -4.609143e-01 4.320344e-01 -2.189102e+00 1.309027e+00 -2.446983e-01 -5.740095e-01 -1.127090e+00 -1.298413e+00 -1.250255e+00 -2.582526e-01 6.906217e-01 8.909512e-01 9.622524e-01 1.428594e-01 -6.188817e-01 2.249107e+00
<VARIANCE> 39
 9.784953e-02 2.815508e-01 3.197425e-01 3.902739e-01 3.278012e-01 3.973278e-01 4.612193e-01 4.795591e-01 6.175632e-01 4.242452e-01 5.608432e-01 6.849958e-01 9.476974e-02 5.491307e-01 7.586462e-01 1.167948e+00 1.034913e+00 7.710388e-01 9.325862e-01 8.879972e-01 9.580013e-01 1.314730e+00 1.326771e+00 1.252998e+00 1.484894e+00 8.648420e-01 5.039995e-01 1.001584e+00 1.368492e+00 9.683572e-01 1.004114e+00 1.040953e+00 1.103795e+00 1.189223e+00 1.172455e+00 1.270339e+00 1.175324e+00 1.212662e+00 9.423507e-01
<GCONST> 5.826690e+01
<MIXTURE> 2 8.652065e-02
<MEAN> 39
 -3.575436e-01 6.102608e-01 -1.533926e-04 1.981335e-01 5.148742e-01 1.193573e-01 1.747936e-01 1.703416e-01 -1.045741e-02 5.915351e-01 -2.004279e-01 -3.842050e-02 -1.515167e+00 9.063882e-01 1.362879e+00 1.561273e+00 1.543051e+00 1.143178e+00 7.045891e-01 4.575269e-01 2.599730e-01 -2.448423e-01 -5.928875e-01 -3.721568e-01 -3.088949e-01 3.068025e-01 5.168625e-01 6.066579e-03 3.076538e-01 1.188838e-01 -1.362527e-01 6.384170e-02 -2.169915e-01 -4.304408e-01 -3.704885e-01 -5.268636e-01 -2.716884e-01 -6.227033e-02 6.773286e-01
<VARIANCE> 39
 1.497681e-01 2.588795e-01 2.191375e-01 3.081134e-01 2.970282e-01 5.190974e-01 5.336900e-01 4.306347e-01 3.604872e-01 5.494398e-01 5.646085e-01 6.263459e-01 1.734383e-01 7.666019e-01 8.460342e-01 7.149854e-01 8.392340e-01 6.947633e-01 9.018863e-01 7.941960e-01 1.009103e+00 9.956779e-01 9.374148e-01 8.020897e-01 8.467838e-01 8.404081e-01 1.056114e+00 8.267059e-01 1.094672e+00 9.369005e-01 8.021110e-01 1.153161e+00 1.017660e+00 1.332168e+00 1.286169e+00 9.850634e-01 1.069425e+00 9.915179e-01 6.102092e-01
<GCONST> 5.563612e+01
<MIXTURE> 3 1.446074e-01
<MEAN> 39
 7.071400e-01 1.036287e+00 -1.735716e-02 4.180272e-01 6.942361e-01 4.994293e-01 4.963793e-01 -4.400039e-01 -1.249534e+00 -5.897611e-01 -4.701568e-01 -1.841419e-01 -5.014586e-01 -7.426059e-01 3.318952e-01 7.140485e-01 5.681060e-01 5.234478e-01 3.378331e-01 1.585175e-01 2.984370e-01 3.264177e-01 -2.207403e-01 1.220122e-01 3.327306e-01 -9.155277e-01 -1.352235e-01 -3.916496e-01 2.453139e-01 2.777571e-01 5.992062e-02 -8.663194e-02 -9.936167e-02 1.782164e-01 3.184092e-01 2.270747e-01 8.913210e-02 9.924445e-02 5.820290e-01
<VARIANCE> 39
 2.244892e-01 2.642682e-01 4.521459e-01 3.541704e-01 4.113988e-01 4.474615e-01 5.279695e-01 6.847830e-01 4.185097e-01 4.950791e-01 5.123827e-01 8.301753e-01 2.106195e-01 7.017303e-01 6.805796e-01 9.877918e-01 6.884221e-01 8.368782e-01 8.701977e-01 9.356086e-01 8.744719e-01 8.813506e-01 9.978824e-01 6.609208e-01 1.185680e+00 7.536020e-01 7.441934e-01 6.698360e-01 9.462392e-01 8.065872e-01 7.587837e-01 9.005660e-01 9.428096e-01 9.528396e-01 7.966046e-01 1.054195e+00 8.326038e-01 1.044713e+00 9.062942e-01
<GCONST> 5.616005e+01
<MIXTURE> 4 1.538526e-01
<MEAN> 39
 5.497062e-01 2.514111e-01 3.288624e-01 9.767571e-01 7.859830e-01 1.770329e-01 -2.058398e-01 -3.516025e-01 -8.827301e-01 -3.259851e-01 -3.182369e-01 -3.110975e-03 -3.469968e-01 -1.338588e+00 1.274894e+00 4.521714e-01 6.653690e-01 1.537612e+00 1.714655e+00 1.162117e+00 -2.307415e-01 -4.585625e-02 -4.996166e-02 -1.771359e-01 6.073375e-02 -2.776125e+00 2.578053e-01 -1.837053e-01 5.719502e-01 7.517917e-02 -5.808333e-01 -7.738180e-01 -5.691409e-02 6.397903e-01 1.927270e-01 -1.542577e-01 -6.756613e-02 8.130032e-02 1.484753e+00
<VARIANCE> 39
 1.706829e-01 2.411496e-01 6.161985e-01 3.707737e-01 2.241587e-01 3.614457e-01 4.303192e-01 6.067630e-01 4.807091e-01 5.562264e-01 6.271831e-01 6.752985e-01 1.265613e-01 7.216305e-01 7.017597e-01 1.785542e+00 1.603285e+00 1.037954e+00 1.339305e+00 9.583265e-01 1.251779e+00 1.330771e+00 2.167755e+00 1.247088e+00 1.691745e+00 9.304143e-01 8.554774e-01 9.185785e-01 1.131116e+00 8.849817e-01 8.100752e-01 1.081865e+00 1.022221e+00 1.206578e+00 1.087295e+00 1.377949e+00 1.144278e+00 1.393093e+00 9.082235e-01
<GCONST> 6.213827e+01
<MIXTURE> 5 1.558028e-01
<MEAN> 39
 5.661802e-01 2.775232e-01 3.513378e-01 9.495553e-01 7.398239e-01 8.543443e-02 -3.544935e-01 -3.953168e-01 -8.545421e-01 -3.909399e-01 -3.474867e-01 -1.596681e-01 -3.352732e-01 -1.389098e+00 1.154928e+00 2.888882e-01 3.951261e-01 1.273968e+00 1.516092e+00 9.542691e-01 -3.400599e-01 -1.975599e-01 -3.615056e-01 -4.966014e-01 -2.504569e-01 -2.705519e+00 7.499545e-02 -3.032161e-01 5.082956e-01 -9.125039e-03 -6.991574e-01 -8.102745e-01 -6.392165e-02 4.695358e-01 6.208148e-02 -2.067660e-01 -1.608512e-01 1.516646e-01 1.320850e+00
<VARIANCE> 39
 1.890654e-01 2.497889e-01 6.464348e-01 3.891474e-01 2.419744e-01 3.548756e-01 4.649788e-01 6.226825e-01 4.945842e-01 5.973120e-01 7.143044e-01 6.765900e-01 1.267931e-01 7.155139e-01 7.090353e-01 1.691339e+00 1.577338e+00 9.690950e-01 1.261748e+00 9.436665e-01 1.247495e+00 1.318335e+00 2.393983e+00 1.272037e+00 1.595016e+00 8.315960e-01 9.562944e-01 9.880191e-01 1.127447e+00 9.443004e-01 8.690451e-01 1.065668e+00 1.064875e+00 1.043330e+00 1.032156e+00 1.466295e+00 1.130674e+00 1.421568e+00 1.050169e+00
<GCONST> 6.284993e+01
<MIXTURE> 6 1.403659e-01
<MEAN> 39
 7.134695e-01 1.020120e+00 2.314419e-02 3.961850e-01 5.804029e-01 4.165672e-01 4.446886e-01 -6.499087e-01 -1.356995e+00 -6.549619e-01 -6.422485e-01 -2.387631e-01 -5.406571e-01 -6.893887e-01 2.402830e-01 5.363432e-01 3.856532e-01 1.872713e-01 2.432948e-02 3.329431e-02 7.776071e-02 9.594291e-02 -4.475129e-01 -1.819662e-01 3.186144e-02 -8.485021e-01 -3.677588e-01 -4.953709e-01 1.126742e-01 1.335989e-01 -8.567567e-02 -2.042734e-01 -2.276720e-01 2.043457e-01 3.647294e-01 2.414688e-01 1.393928e-01 8.455759e-02 3.305030e-01
<VARIANCE> 39
 2.546722e-01 2.562684e-01 4.742805e-01 3.619268e-01 4.262950e-01 4.817028e-01 5.983847e-01 7.152677e-01 4.415285e-01 5.910813e-01 5.921524e-01 9.056033e-01 1.732669e-01 7.052989e-01 6.898158e-01 8.991022e-01 7.347975e-01 8.049324e-01 8.317972e-01 9.789174e-01 8.380520e-01 9.348350e-01 9.831395e-01 6.801705e-01 1.052907e+00 7.278519e-01 7.822574e-01 7.336628e-01 9.433611e-01 6.957400e-01 7.284328e-01 9.117959e-01 9.205368e-01 9.046159e-01 9.530829e-01 1.227294e+00 7.636854e-01 1.036013e+00 8.247452e-01
<GCONST> 5.672581e+01
<MIXTURE> 7 1.169313e-01
<MEAN> 39
 4.561588e-01 3.762282e-01 -7.237256e-03 9.250259e-01 1.323018e+00 8.775963e-01 1.870198e-01 -8.084453e-01 -1.332454e+00 -3.970044e-01 -2.180143e-01 9.500206e-02 -5.455322e-01 -1.389174e+00 8.586371e-01 1.412542e+00 1.282661e+00 9.812438e-01 6.460328e-01 3.624350e-01 -7.480018e-02 -3.259760e-01 -1.296036e+00 -8.578090e-01 1.809483e-01 -2.170646e+00 1.224072e+00 -3.724572e-01 -6.432652e-01 -1.234196e+00 -1.350443e+00 -1.303595e+00 -2.779830e-01 5.602640e-01 8.836475e-01 9.502960e-01 1.021344e-01 -5.838698e-01 2.162997e+00
<VARIANCE> 39
 1.131840e-01 2.605284e-01 3.729742e-01 4.470287e-01 3.415329e-01 3.572386e-01 5.185621e-01 5.406941e-01 5.936705e-01 5.052944e-01 6.483079e-01 7.021068e-01 8.910251e-02 5.677804e-01 7.276123e-01 9.980451e-01 1.025936e+00 7.912003e-01 9.968704e-01 9.471967e-01 9.165034e-01 1.370128e+00 1.398905e+00 1.261883e+00 1.702601e+00 9.465435e-01 5.351713e-01 9.481765e-01 1.260780e+00 1.009562e+00 9.355447e-01 1.100154e+00 1.181993e+00 1.225575e+00 1.114900e+00 1.196307e+00 1.240633e+00 1.213180e+00 9.460650e-01
<GCONST> 5.930273e+01
<MIXTURE> 8 8.683021e-02
<MEAN> 39
 -3.830142e-01 5.504006e-01 -1.027899e-01 1.262548e-01 4.758350e-01 1.529766e-01 2.022272e-01 -5.824528e-02 -1.132765e-01 4.161602e-01 -2.679209e-01 -2.048684e-01 -1.422328e+00 6.392026e-01 1.156965e+00 1.216063e+00 1.024779e+00 6.485313e-01 3.327846e-01 1.128225e-01 -2.967198e-01 -6.428567e-01 -8.018397e-01 -6.116325e-01 -4.559810e-01 1.235744e-02 1.452374e-01 -2.259729e-01 1.340644e-01 -3.194062e-02 -3.093524e-01 -2.355759e-01 -2.966611e-01 -3.030238e-01 -2.775035e-01 -5.685308e-01 -2.153541e-01 4.254067e-02 4.744677e-01
<VARIANCE> 39
 1.445451e-01 3.401547e-01 2.762750e-01 3.312844e-01 2.929985e-01 5.198062e-01 4.981206e-01 4.431469e-01 3.633159e-01 4.915839e-01 5.724620e-01 6.920435e-01 1.851286e-01 8.553569e-01 9.579442e-01 8.131287e-01 7.755883e-01 7.202294e-01 9.741074e-01 8.076810e-01 1.136726e+00 1.078032e+00 1.056056e+00 8.180629e-01 9.300758e-01 7.787872e-01 1.105323e+00 7.108204e-01 1.029082e+00 7.456958e-01 7.707708e-01 1.120426e+00 1.063274e+00 1.274163e+00 1.088565e+00 1.153069e+00 1.014740e+00 1.130560e+00 6.196222e-01
<GCONST> 5.658898e+01
<STATE> 4
<NUMMIXES> 8
<MIXTURE> 1 1.396442e-01
<MEAN> 39
 3.010550e-01 9.148806e-01 4.175592e-01 1.120783e+00 1.446500e+00 9.869488e-01 4.956256e-01 -7.485067e-01 -1.347496e+00 -4.896899e-01 -1.300673e-01 4.354472e-01 -9.362065e-01 -4.672271e-01 6.433945e-01 6.709864e-01 3.123205e-01 1.273311e-01 -1.520015e-02 1.913892e-01 2.145091e-01 4.327378e-01 4.585853e-02 -1.851173e-01 -2.140728e-02 -7.677335e-01 3.813704e-01 -4.966697e-01 -5.475718e-02 -3.478376e-01 -8.225173e-01 -6.661851e-01 -1.338619e-01 5.958297e-01 6.281145e-01 5.299045e-02 -2.693551e-01 -3.760186e-01 1.220318e+00
<VARIANCE> 39
 8.533531e-02 1.975724e-01 2.918492e-01 2.429712e-01 2.890255e-01 4.671075e-01 4.324350e-01 5.799416e-01 3.579388e-01 3.965176e-01 4.577922e-01 7.002096e-01 6.609532e-02 3.055471e-01 8.262458e-01 7.968577e-01 5.238418e-01 5.658650e-01 8.033426e-01 6.851010e-01 7.390104e-01 9.000698e-01 6.921592e-01 9.157718e-01 8.275311e-01 6.500177e-01 4.986882e-01 6.704190e-01 6.542032e-01 6.008243e-01 7.275991e-01 7.901126e-01 8.608629e-01 7.055015e-01 7.292153e-01 9.279236e-01 7.385306e-01 7.949185e-01 7.766454e-01
<GCONST> 4.659760e+01
<MIXTURE> 2 9.550055e-02
<MEAN> 39
 1.926019e-02 2.212867e-01 6.658608e-01 1.214777e+00 9.540169e-01 4.193716e-01 2.615671e-01 6.291901e-02 -4.505640e-01 -8.112973e-01 -4.317857e-01 4.084899e-01 -6.511080e-01 -5.108868e-01 -3.813928e-01 1.419310e-01 -1.235554e-01 4.364423e-02 5.073679e-01 5.438734e-01 3.805433e-01 5.754840e-01 1.826625e-01 3.886262e-01 1.802531e-01 -3.022076e-02 1.661017e+00 9.416292e-01 -1.280149e+00 -1.062654e+00 -2.285864e-01 -5.716795e-02 -1.383134e-01 -3.473150e-01 -7.218778e-01 1.076941e+00 2.840362e-01 -4.046488e-01 4.835261e-01
<VARIANCE> 39
 1.496935e-01 2.166660e-01 3.168221e-01 3.022633e-01 3.137399e-01 3.997487e-01 3.854179e-01 5.884783e-01 4.552085e-01 5.874997e-01 4.887189e-01 6.304854e-01 1.188749e-01 6.363270e-01 1.267918e+00 1.144240e+00 8.457336e-01 9.130976e-01 1.067635e+00 8.128768e-01 9.258297e-01 8.758624e-01 1.208518e+00 8.686987e-01 1.214803e+00 1.025070e+00 7.592067e-01 1.004434e+00 1.822402e+00 8.329018e-01 1.124293e+00 1.139492e+00 9.606041e-01 9.583081e-01 8.374460e-01 1.417298e+00 8.849160e-01 1.285951e+00 1.869149e+00
<GCONST> 5.853278e+01
<MIXTURE> 3 1.709970e-01
<MEAN> 39
 1.831566e-01 1.160162e+00 8.538504e-01 1.251437e+00 1.261602e+00 7.016399e-01 4.714821e-01 -1.393993e-01 -8.376775e-01 -6.355108e-01 -9.907997e-01 -5.020656e-01 -1.125206e+00 -3.948069e-01 5.872239e-01 4.174846e-01 8.805561e-02 6.289700e-02 5.334958e-02 3.413369e-01 1.661723e-01 2.011995e-01 3.636972e-02 -4.424207e-02 1.643756e-02 -6.593770e-01 4.512600e-01 -1.191956e+00 -5.478347e-01 -3.097599e-01 -6.435517e-01 -3.357888e-01 -3.990082e-01 -1.644143e-01 -1.961391e-01 2.019027e-01 9.064580e-01 8.089063e-01 1.877153e+00
<VARIANCE> 39
 5.452875e-02 1.932328e-01 2.277036e-01 2.225910e-01 2.353827e-01 4.145243e-01 3.350825e-01 4.014996e-01 2.943775e-01 4.137205e-01 4.200465e-01 5.088681e-01 8.608326e-02 2.956602e-01 9.418091e-01 8.715888e-01 6.582278e-01 7.824261e-01 8.254958e-01 8.548537e-01 9.193734e-01 9.472363e-01 7.433324e-01 9.273074e-01 1.053116e+00 7.064120e-01 5.796334e-01 9.160657e-01 1.089635e+00 6.834004e-01 8.558913e-01 1.121693e+00 8.374714e-01 8.253489e-01 7.786901e-01 8.594483e-01 8.298241e-01 8.638254e-01 9.813139e-01
<GCONST> 4.838264e+01
<MIXTURE> 4 9.856431e-02
<MEAN> 39
 2.782165e-01 9.553509e-01 2.902230e-01 6.292872e-01 7.161176e-01 1.114832e-01 -2.070788e-02 -2.645862e-02 -5.378013e-01 -9.226213e-02 -4.963310e-01 -3.750497e-01 -9.318330e-01 7.925504e-02 1.603375e-01 5.389946e-01 4.939053e-01 2.983876e-01 2.273982e-01 2.378979e-02 1.676458e-01 3.894594e-02 -1.964668e-01 1.062189e-01 1.536731e-01 1.339815e-01 -2.814278e-01 -7.509168e-01 -2.564795e-01 -1.892144e-01 -1.503141e-01 1.875249e-01 2.199326e-01 1.407879e-01 1.648415e-01 8.176106e-02 2.197219e-01 4.017271e-01 5.155041e-01
<VARIANCE> 39
 3.458296e-01 3.375145e-01 4.032176e-01 3.813855e-01 3.960529e-01 5.865166e-01 5.879585e-01 9.260164e-01 7.235191e-01 7.862564e-01 5.543962e-01 8.933110e-01 4.503215e-01 1.043679e+00 1.145064e+00 8.670440e-01 8.436515e-01 6.764693e-01 8.603321e-01 9.966844e-01 1.225088e+00 1.157047e+00 1.102926e+00 9.701442e-01 1.050070e+00 7.670270e-01 1.318528e+00 1.076852e+00 1.288118e+00 1.119085e+00 9.511331e-01 1.063222e+00 1.106237e+00 1.313575e+00 1.168514e+00 1.336204e+00 9.533741e-01 1.056204e+00 1.180992e+00
<GCONST> 6.476579e+01
<MIXTURE> 5 1.685343e-01
<MEAN> 39
 1.456995e-01 1.141906e+00 8.060709e-01 1.197751e+00 1.169292e+00 6.461455e-01 4.269927e-01 -2.484815e-01 -8.628365e-01 -7.077101e-01 -1.035913e+00 -6.654766e-01 -1.126853e+00 -4.382517e-01 5.386776e-01 4.122087e-01 5.927460e-02 8.986577e-03 -3.311487e-02 2.347618e-01 7.777241e-02 9.738907e-02 -9.564266e-02 -2.743519e-01 -1.712229e-01 -6.613762e-01 3.600302e-01 -1.255280e+00 -6.675641e-01 -3.913614e-01 -6.772655e-01 -4.504476e-01 -4.789218e-01 -2.087815e-01 -1.589334e-01 1.892820e-01 8.525382e-01 7.935520e-01 1.781366e+00
<VARIANCE> 39
 5.907468e-02 1.924337e-01 2.530290e-01 2.647778e-01 2.502034e-01 3.896837e-01 3.387086e-01 4.302415e-01 3.003869e-01 4.190304e-01 4.250875e-01 5.149434e-01 8.442941e-02 3.122712e-01 9.324389e-01 9.059488e-01 6.787031e-01 7.821161e-01 8.267349e-01 8.400763e-01 9.580301e-01 1.018849e+00 8.119596e-01 8.918808e-01 1.125612e+00 6.318656e-01 5.499761e-01 8.761188e-01 1.148556e+00 7.257721e-01 9.000204e-01 1.107269e+00 7.991680e-01 8.383638e-01 8.544776e-01 8.327922e-01 8.303131e-01 8.926767e-01 9.655701e-01
<GCONST> 4.917072e+01
<MIXTURE> 6 1.377175e-01
<MEAN> 39
 2.384217e-01 9.072342e-01 3.957726e-01 1.070554e+00 1.365427e+00 8.944998e-01 3.958089e-01 -7.555287e-01 -1.271191e+00 -4.779837e-01 -1.963047e-01 2.980790e-01 -9.921421e-01 -5.409477e-01 6.148558e-01 6.534275e-01 1.895821e-01 2.441790e-02 -1.617905e-01 6.556195e-02 1.302525e-01 3.610004e-01 -7.090648e-02 -4.126334e-01 -2.180080e-01 -8.062583e-01 3.206730e-01 -5.614892e-01 -1.447323e-01 -4.460189e-01 -9.103335e-01 -7.200258e-01 -1.709978e-01 5.085226e-01 5.940837e-01 2.495414e-02 -3.412157e-01 -4.992878e-01 1.155698e+00
<VARIANCE> 39
 7.988977e-02 2.026712e-01 2.845106e-01 2.549768e-01 2.707089e-01 5.172542e-01 4.032806e-01 5.502387e-01 3.399054e-01 4.278073e-01 4.707789e-01 6.764766e-01 6.526235e-02 3.113030e-01 7.710801e-01 8.816726e-01 5.412025e-01 5.580598e-01 7.758527e-01 6.946126e-01 7.274149e-01 7.629646e-01 7.436389e-01 9.197779e-01 8.879760e-01 5.294304e-01 4.892442e-01 6.946177e-01 7.288648e-01 6.053700e-01 6.713796e-01 8.332836e-01 7.929569e-01 7.986267e-01 7.089134e-01 9.061314e-01 7.420430e-01 8.211574e-01 7.254522e-01
<GCONST> 4.637139e+01
<MIXTURE> 7 9.839733e-02
<MEAN> 39
 -4.568885e-02 2.091265e-01 7.006785e-01 1.178596e+00 8.315032e-01 2.775720e-01 1.221100e-01 3.920719e-04 -4.368805e-01 -9.046019e-01 -4.924878e-01 2.546703e-01 -6.619496e-01 -5.097750e-01 -3.815118e-01 -3.853302e-02 -3.538583e-01 -1.390959e-01 3.422713e-01 3.776136e-01 1.951629e-01 3.810126e-01 -7.654544e-02 6.491019e-02 5.236818e-02 -2.837881e-03 1.450155e+00 8.567228e-01 -1.427863e+00 -1.117205e+00 -2.321080e-01 -1.055351e-01 -1.213553e-01 -4.644329e-01 -7.176372e-01 1.135159e+00 2.052933e-01 -3.887169e-01 2.440082e-01
<VARIANCE> 39
 1.348422e-01 2.117904e-01 3.182205e-01 3.049198e-01 2.996970e-01 3.512121e-01 3.450697e-01 5.382398e-01 4.468657e-01 5.483260e-01 5.546663e-01 6.445552e-01 1.205498e-01 7.343750e-01 1.189754e+00 1.120841e+00 8.240430e-01 8.637527e-01 9.036484e-01 7.396595e-01 9.062836e-01 9.163769e-01 1.124315e+00 8.727733e-01 1.188053e+00 1.005832e+00 8.900865e-01 1.074909e+00 1.657377e+00 8.426110e-01 1.031869e+00 1.147562e+00 9.751669e-01 1.041859e+00 9.670789e-01 1.387303e+00 9.649107e-01 1.325479e+00 1.840626e+00
<GCONST> 5.813763e+01
<MIXTURE> 8 9.064376e-02
<MEAN> 39
 1.636949e-01 9.678092e-01 3.470012e-01 5.650554e-01 5.862095e-01 -6.743588e-03 -4.232092e-02 -3.102860e-01 -6.143518e-01 -7.702745e-02 -6.353356e-01 -4.116448e-01 -1.093877e+00 1.843257e-01 2.196223e-01 3.657241e-01 3.514564e-01 1.429575e-01 -7.524833e-02 -2.551333e-01 -2.549321e-01 -3.048284e-01 -4.382781e-01 -1.956613e-01 -1.692186e-01 1.177593e-01 -7.238581e-01 -1.053343e+00 -6.879259e-01 -4.981804e-01 -3.261214e-01 -9.206533e-04 1.404784e-02 2.525654e-01 3.076186e-01 1.589721e-01 2.982379e-01 3.724972e-01 1.394405e-01
<VARIANCE> 39
 3.982166e-01 4.231571e-01 3.759980e-01 4.619162e-01 3.449051e-01 6.155683e-01 6.143324e-01 6.990521e-01 5.968584e-01 7.398196e-01 6.306843e-01 8.260056e-01 3.426369e-01 9.820138e-01 1.136487e+00 9.333173e-01 8.987214e-01 6.639460e-01 7.956201e-01 8.247555e-01 1.237128e+00 1.194205e+00 1.258471e+00 9.553229e-01 1.175536e+00 7.019868e-01 1.656291e+00 9.592118e-01 1.194086e+00 1.121247e+00 9.740072e-01 1.013700e+00 1.008894e+00 1.260272e+00 1.092670e+00 1.196509e+00 9.793625e-01 1.207158e+00 1.057925e+00
<GCONST> 6.416980e+01
<STATE> 5
<NUMMIXES> 8
<MIXTURE> 1 1.487013e-01
<MEAN> 39
 2.097138e-02 1.445790e+00 1.007505e+00 1.261883e+00 1.116687e+00 6.127032e-01 6.644458e-01 5.925964e-02 -6.829081e-01 -3.088831e-01 -9.056161e-01 -4.611678e-01 -1.492844e+00 -1.217674e-01 -1.662447e-01 -5.789183e-03 1.239877e-01 6.914890e-02 6.029461e-02 5.220765e-02 6.577373e-02 1.061373e-01 -1.970895e-02 1.344599e-01 2.010516e-01 6.977843e-02 1.638386e-02 -5.597748e-01 -3.109049e-01 -2.377816e-01 -1.069351e-01 5.247833e-02 -1.081804e-01 -7.143280e-02 5.888118e-02 1.008081e-01 3.566420e-01 3.448107e-01 6.633817e-01
<VARIANCE> 39
 5.718138e-02 1.521916e-01 1.276983e-01 1.991141e-01 1.717821e-01 3.849647e-01 2.438538e-01 5.087689e-01 3.024977e-01 4.291714e-01 4.617777e-01 5.678584e-01 6.288731e-02 1.512434e-01 3.957924e-01 4.451291e-01 4.472692e-01 4.063239e-01 5.197286e-01 5.409814e-01 6.263006e-01 6.142684e-01 6.101460e-01 7.093772e-01 7.337494e-01 2.535679e-01 2.418151e-01 4.140543e-01 6.326977e-01 5.298754e-01 5.889316e-01 6.281963e-01 7.045103e-01 7.959598e-01 7.401613e-01 7.099330e-01 8.788663e-01 8.976325e-01 3.307379e-01
<GCONST> 3.528391e+01
<MIXTURE> 2 1.400899e-01
<MEAN> 39
 4.467558e-03 7.149651e-01 5.602310e-01 1.044740e+00 1.099166e+00 6.552634e-01 4.493519e-01 -1.697791e-01 -7.132524e-01 -3.815598e-01 -3.693131e-01 1.250459e-01 -9.574540e-01 -4.310738e-02 -1.265680e+00 -3.549038e-01 -9.856725e-02 -1.979549e-01 -1.428169e-02 -6.865194e-02 8.603218e-02 1.947054e-01 -1.293635e-02 6.873561e-01 8.122187e-01 1.403093e+00 8.273983e-01 -6.812458e-02 -3.105867e-01 -4.183930e-01 -3.878514e-01 -1.283368e-01 5.306123e-02 8.615851e-02 1.631534e-02 3.281576e-01 9.471782e-02 -4.055782e-02 1.372355e+00
<VARIANCE> 39
 1.573151e-01 2.487552e-01 3.288991e-01 2.632446e-01 2.332166e-01 4.492419e-01 3.245732e-01 5.837281e-01 4.460204e-01 5.186670e-01 5.040765e-01 7.115991e-01 1.641298e-01 4.164297e-01 7.413459e-01 9.190055e-01 6.477147e-01 5.961581e-01 7.497619e-01 7.313278e-01 8.395624e-01 8.631611e-01 9.211797e-01 8.680777e-01 9.439716e-01 5.768253e-01 8.118428e-01 1.184894e+00 1.143877e+00 7.441081e-01 7.464069e-01 1.022409e+00 8.769666e-01 9.161283e-01 8.653706e-01 1.156554e+00 9.595206e-01 1.172237e+00 1.583097e+00
<GCONST> 5.369690e+01
<MIXTURE> 3 1.483569e-01
<MEAN> 39
 2.543722e-02 1.328605e+00 5.064218e-01 5.663645e-01 7.884206e-01 4.907316e-01 4.274752e-01 -9.802775e-02 -4.622709e-01 2.843005e-01 -1.129299e-01 7.603610e-02 -1.328324e+00 -1.608538e-02 1.997781e-01 2.123240e-01 2.970382e-01 2.063559e-01 -1.248428e-02 -8.760206e-03 5.052187e-02 -2.160184e-03 -1.929707e-02 2.659030e-02 2.180318e-02 -2.166964e-01 -1.740767e-01 -5.936233e-01 2.830547e-01 4.014044e-01 3.821412e-02 -4.188457e-02 1.500702e-02 1.397276e-01 1.770469e-01 -4.274598e-01 -2.303201e-01 6.184563e-02 4.873657e-01
<VARIANCE> 39
 5.557225e-02 1.378167e-01 1.798804e-01 1.841480e-01 1.783942e-01 3.213466e-01 2.649360e-01 4.837156e-01 3.323574e-01 5.970116e-01 3.096814e-01 5.991188e-01 1.330317e-01 1.665655e-01 6.071188e-01 5.849223e-01 5.658894e-01 4.794765e-01 6.202449e-01 6.165699e-01 6.907980e-01 7.010243e-01 7.276740e-01 7.138034e-01 8.710755e-01 3.970873e-01 3.608153e-01 4.343529e-01 9.257349e-01 6.954715e-01 5.726253e-01 7.339603e-01 7.802122e-01 7.576341e-01 7.717299e-01 8.909337e-01 7.325422e-01 8.861661e-01 3.538198e-01
<GCONST> 4.009832e+01
<MIXTURE> 4 7.174324e-02
<MEAN> 39
 -1.158042e-01 2.942468e-01 5.335419e-01 7.581439e-01 6.743199e-01 5.784507e-01 5.662054e-01 1.175572e-01 -1.656472e-01 -3.276443e-01 -1.419146e-01 3.657926e-01 -7.435728e-01 6.045545e-01 4.275947e-01 -1.238999e+00 -1.019107e+00 -2.565623e-02 4.722543e-01 2.219930e-01 -3.133947e-01 -4.165709e-01 1.257659e+00 5.023015e-01 -1.475095e-01 1.082359e-01 5.448509e-01 1.303485e+00 -7.144158e-02 4.314921e-01 7.333220e-01 -4.491795e-02 -1.863754e-01 -3.807353e-01 -7.704322e-01 3.030753e-01 -3.298620e-01 -3.234712e-01 -8.445189e-01
<VARIANCE> 39
 6.608463e-02 2.067750e-01 2.454996e-01 2.458929e-01 1.660629e-01 2.573325e-01 2.269674e-01 5.076383e-01 2.681195e-01 6.070521e-01 4.628512e-01 5.780218e-01 8.067774e-02 2.141400e-01 9.810708e-01 5.530885e-01 5.542321e-01 6.365234e-01 6.408644e-01 6.257506e-01 7.646815e-01 7.496567e-01 8.702931e-01 5.953364e-01 8.549863e-01 7.446806e-01 9.591764e-01 1.045775e+00 1.625406e+00 9.502006e-01 7.230611e-01 9.023623e-01 8.355368e-01 9.998015e-01 8.596864e-01 1.645836e+00 7.386439e-01 1.076381e+00 9.853072e-01
<GCONST> 4.777221e+01
<MIXTURE> 5 1.487439e-01
<MEAN> 39
 -5.793086e-02 1.389174e+00 9.374710e-01 1.151410e+00 1.045733e+00 6.273197e-01 5.992745e-01 -1.140717e-01 -6.785865e-01 -3.633276e-01 -9.968805e-01 -6.566142e-01 -1.493993e+00 -1.574312e-01 -2.520019e-01 -2.629350e-02 8.906225e-02 -1.364316e-02 -3.940173e-02 2.481489e-02 4.465830e-02 7.100046e-03 -1.508962e-01 -7.982320e-02 2.581602e-02 8.450043e-02 -4.874992e-02 -6.123233e-01 -3.969035e-01 -2.711438e-01 -1.423526e-01 -1.040066e-02 -1.012984e-01 -4.042728e-02 5.447064e-02 7.517214e-02 3.404672e-01 2.700195e-01 5.864332e-01
<VARIANCE> 39
 5.756693e-02 1.598001e-01 1.290712e-01 1.784751e-01 1.700110e-01 3.206094e-01 2.619242e-01 4.963221e-01 2.819523e-01 3.987744e-01 4.454186e-01 5.696585e-01 5.097265e-02 1.543452e-01 4.152428e-01 4.316425e-01 4.411300e-01 3.927946e-01 5.079624e-01 5.505222e-01 6.432678e-01 6.050451e-01 6.305733e-01 7.108269e-01 7.376445e-01 2.466712e-01 2.679409e-01 4.361143e-01 6.263919e-01 5.512537e-01 5.785277e-01 6.398232e-01 6.922339e-01 8.250451e-01 7.629063e-01 7.439944e-01 8.088263e-01 8.835556e-01 3.095685e-01
<GCONST> 3.483104e+01
<MIXTURE> 6 1.345340e-01
<MEAN> 39
 -4.530799e-02 1.261459e+00 3.707833e-01 4.262085e-01 6.835060e-01 4.445454e-01 3.913164e-01 -3.046114e-01 -5.198165e-01 1.550983e-01 -1.799262e-01 -1.357565e-01 -1.277119e+00 -1.015034e-01 1.531420e-01 1.610603e-01 1.887544e-01 9.751780e-02 -9.101033e-02 -8.161687e-02 -5.478324e-02 -1.269572e-01 -1.414537e-01 -1.662266e-01 -1.861578e-01 -2.624860e-01 -2.793546e-01 -6.582861e-01 1.850129e-01 3.469185e-01 2.753034e-03 -6.918462e-02 -1.974291e-02 9.349535e-02 1.373239e-01 -4.912325e-01 -2.167490e-01 6.007932e-02 3.633560e-01
<VARIANCE> 39
 5.810920e-02 1.406348e-01 2.064894e-01 1.994459e-01 1.807436e-01 3.345436e-01 3.067254e-01 4.576041e-01 2.854255e-01 5.642343e-01 3.470032e-01 6.242265e-01 1.166660e-01 1.824261e-01 6.430238e-01 5.965869e-01 5.574929e-01 4.940156e-01 6.286876e-01 6.179704e-01 7.471485e-01 6.829934e-01 8.073806e-01 7.123644e-01 9.192111e-01 3.725711e-01 3.819981e-01 4.534480e-01 1.006683e+00 7.166759e-01 6.028920e-01 8.035474e-01 7.632903e-01 8.098220e-01 7.941742e-01 1.074712e+00 7.476766e-01 9.532435e-01 3.047421e-01
<GCONST> 4.124436e+01
<MIXTURE> 7 1.363801e-01
<MEAN> 39
 -7.432118e-02 6.979711e-01 5.244920e-01 9.913099e-01 1.039835e+00 6.167210e-01 4.124813e-01 -1.812927e-01 -6.617606e-01 -4.241704e-01 -4.157323e-01 5.820373e-02 -1.038552e+00 -1.910598e-01 -1.372823e+00 -5.134700e-01 -2.802235e-01 -3.668948e-01 -1.976474e-01 -3.034431e-01 -1.165046e-01 1.061482e-01 -1.997500e-01 5.170540e-01 6.842000e-01 1.164106e+00 6.537644e-01 -1.762242e-01 -5.193275e-01 -5.637235e-01 -4.616426e-01 -2.369901e-01 -8.018443e-02 -8.999770e-02 -1.044381e-01 2.252460e-01 4.674728e-02 -9.039769e-02 1.149898e+00
<VARIANCE> 39
 1.632247e-01 2.559325e-01 3.449746e-01 3.302657e-01 2.453197e-01 4.382154e-01 3.481636e-01 6.263438e-01 4.702047e-01 5.527670e-01 5.395612e-01 7.400035e-01 1.497099e-01 3.870620e-01 6.784353e-01 8.982756e-01 6.668304e-01 6.235844e-01 7.975774e-01 7.493924e-01 8.632690e-01 9.139897e-01 9.300607e-01 8.346832e-01 1.001302e+00 5.553861e-01 7.152225e-01 1.122038e+00 1.134280e+00 7.345850e-01 7.276002e-01 9.266459e-01 8.981146e-01 9.510511e-01 9.138439e-01 1.199986e+00 9.964253e-01 1.234517e+00 1.494059e+00
<GCONST> 5.424483e+01
<MIXTURE> 8 7.146396e-02
<MEAN> 39
 -1.725188e-01 2.939129e-01 4.510891e-01 6.627938e-01 5.714416e-01 4.993037e-01 4.506890e-01 -2.951460e-02 -1.329190e-01 -4.512863e-01 -1.739805e-01 2.986487e-01 -7.491286e-01 5.419809e-01 4.245418e-01 -1.362273e+00 -1.180660e+00 -1.650303e-01 3.205394e-01 1.778209e-01 -4.677985e-01 -5.646157e-01 1.134429e+00 2.499959e-01 -2.868341e-01 2.714982e-02 4.626731e-01 1.312126e+00 -1.284245e-01 2.924093e-01 6.328838e-01 -1.090365e-01 -1.181423e-01 -3.788841e-01 -8.327777e-01 4.006243e-01 -3.578241e-01 -4.438126e-01 -1.077704e+00
<VARIANCE> 39
 7.103290e-02 2.028348e-01 2.615491e-01 2.486590e-01 2.047360e-01 2.826730e-01 2.224077e-01 4.773803e-01 2.643011e-01 6.734216e-01 4.459793e-01 5.184888e-01 7.540365e-02 2.505947e-01 1.054207e+00 5.796551e-01 4.795732e-01 6.230265e-01 5.912502e-01 5.990430e-01 7.261660e-01 7.382672e-01 9.765183e-01 5.994676e-01 8.495010e-01 6.331487e-01 8.863854e-01 9.544272e-01 1.593220e+00 9.221674e-01 7.750205e-01 8.773235e-01 8.386980e-01 9.775095e-01 8.556550e-01 1.701402e+00 7.548879e-01 1.020431e+00 7.703841e-01
<GCONST> 4.742233e+01
<STATE> 6
<NUMMIXES> 8
<MIXTURE> 1 1.209203e-01
<MEAN> 39
 1.931272e-01 2.566741e-01 5.834607e-02 7.678387e-01 9.702063e-01 5.611538e-01 3.432137e-01 -3.435862e-01 -8.690315e-01 -1.646438e-01 5.832693e-02 4.923146e-01 -3.967979e-01 1.174801e+00 -4.350772e-01 -2.744322e-01 9.795363e-02 -7.012719e-02 -2.235615e-01 1.795596e-01 5.504181e-01 8.168977e-02 2.401258e-01 -7.477199e-02 -3.196945e-02 2.569731e+00 1.236849e+00 3.203523e-01 3.964702e-01 -4.103447e-02 -2.330201e-01 -1.105764e-01 1.863439e-01 5.616980e-01 3.647709e-01 1.350519e-01 -3.659999e-01 -4.173585e-01 1.509117e+00
<VARIANCE> 39
 1.622460e-01 2.412584e-01 3.374027e-01 3.191899e-01 2.713182e-01 4.806716e-01 4.246323e-01 6.300485e-01 4.952562e-01 4.862965e-01 5.035924e-01 6.651825e-01 2.422617e-01 8.143563e-01 8.674893e-01 1.313037e+00 1.197702e+00 9.277025e-01 1.052757e+00 9.839353e-01 1.166029e+00 1.160750e+00 1.350266e+00 1.021886e+00 1.191471e+00 1.708996e+00 1.199887e+00 1.169789e+00 1.361851e+00 1.303723e+00 1.093208e+00 1.130612e+00 1.219141e+00 1.373710e+00 1.286224e+00 1.589874e+00 1.053209e+00 1.288334e+00 1.882344e+00
<GCONST> 6.361253e+01
<MIXTURE> 2 1.259625e-01
<MEAN> 39
 -1.016326e+00 1.353302e-01 -4.480027e-01 -4.872386e-01 8.050622e-01 9.033967e-01 2.500863e-01 -1.536448e-01 -2.194233e-01 -1.817745e-01 6.093226e-01 6.692698e-01 -1.360356e+00 -9.811614e-02 -2.635827e-01 2.425394e-01 3.870953e-01 1.067853e-01 -2.728403e-03 9.770857e-02 3.374620e-01 3.132055e-01 -1.988323e-01 1.271748e-01 3.724810e-01 2.604134e-01 1.493129e-01 -2.337588e-01 -1.607222e-01 -1.830708e-01 -3.486000e-01 -2.349089e-01 -1.302417e-01 -3.198002e-02 3.182163e-01 1.285343e-01 3.272661e-01 2.291666e-01 4.655136e-01
<VARIANCE> 39
 3.152429e-02 1.080609e-01 3.635126e-01 1.468667e-01 4.067245e-01 5.148937e-01 2.846124e-01 1.045021e+00 5.358257e-01 2.780603e-01 8.590842e-01 1.354681e+00 7.601824e-02 1.833338e-01 7.055671e-01 5.133423e-01 5.835580e-01 5.212020e-01 8.247212e-01 6.624397e-01 7.422317e-01 6.135604e-01 7.526261e-01 7.900323e-01 1.010122e+00 4.465021e-01 4.479502e-01 6.458109e-01 6.773978e-01 6.317997e-01 6.084608e-01 9.135243e-01 9.145525e-01 9.873484e-01 7.019330e-01 8.531225e-01 9.065441e-01 1.053354e+00 2.497444e-01
<GCONST> 4.462600e+01
<MIXTURE> 3 1.847955e-01
<MEAN> 39
 -9.389605e-01 2.303611e-01 -6.178637e-01 -9.508995e-01 7.071510e-02 4.543004e-01 1.905517e-01 1.022196e-01 2.676726e-01 3.116220e-01 4.376205e-01 4.393698e-02 -1.423065e+00 2.069029e-02 2.267891e-01 2.967358e-01 2.185152e-01 1.952337e-01 1.357628e-01 1.360518e-01 2.353233e-01 1.349659e-01 1.513807e-01 4.877217e-02 2.122483e-02 -1.577816e-01 -4.832952e-02 -2.187732e-01 3.632937e-01 5.000405e-01 3.358827e-01 1.608492e-01 1.226149e-01 1.874677e-01 5.773619e-02 -3.723397e-01 -1.035278e-01 1.593973e-01 2.598642e-01
<VARIANCE> 39
 4.532377e-02 8.180022e-02 2.890579e-01 1.689021e-01 2.317851e-01 3.485620e-01 2.785383e-01 6.220492e-01 3.133371e-01 3.575061e-01 6.473760e-01 5.434015e-01 6.902111e-02 1.622730e-01 3.330084e-01 5.343615e-01 5.536133e-01 5.512532e-01 7.256060e-01 7.283276e-01 9.858223e-01 7.942769e-01 8.766031e-01 8.540132e-01 1.188567e+00 2.542774e-01 4.404178e-01 5.077142e-01 7.988725e-01 6.424388e-01 7.102002e-01 8.225561e-01 8.822170e-01 1.069779e+00 1.011031e+00 9.969600e-01 9.887240e-01 1.189647e+00 2.236057e-01
<GCONST> 4.169628e+01
<MIXTURE> 4 6.241474e-02
<MEAN> 39
 -1.018167e+00 -5.265551e-01 -5.512827e-01 -4.004285e-01 1.885743e-01 2.541783e-01 1.926692e-01 2.577610e-01 4.606970e-01 -4.342747e-01 6.881198e-01 1.104123e+00 -8.710917e-01 4.241326e-01 1.588370e-01 -7.183790e-01 -7.417101e-01 -1.681127e-01 2.944056e-01 1.841831e-01 -3.896611e-01 -2.552394e-01 5.409763e-01 5.072332e-01 -3.445705e-02 3.264352e-01 3.977277e-01 1.416360e+00 -3.294167e-02 -3.879456e-01 3.014714e-01 2.672613e-01 8.224492e-02 -8.748789e-02 -6.115884e-01 7.799910e-01 -7.996857e-02 -6.413661e-01 -1.228349e+00
<VARIANCE> 39
 6.063818e-02 1.101872e-01 3.187500e-01 3.143485e-01 2.979094e-01 3.284092e-01 2.867683e-01 5.472001e-01 4.472970e-01 2.615986e-01 6.646236e-01 4.236651e-01 5.955325e-02 2.695765e-01 1.594597e+00 5.394337e-01 6.102601e-01 4.311957e-01 6.241907e-01 4.874303e-01 6.275581e-01 9.345403e-01 1.150975e+00 6.549112e-01 9.442458e-01 6.975426e-01 9.211476e-01 1.047232e+00 1.605068e+00 1.353743e+00 5.250827e-01 7.046920e-01 6.862251e-01 9.280633e-01 9.214713e-01 1.031876e+00 7.525550e-01 8.182756e-01 3.630440e-01
<GCONST> 4.648389e+01
<MIXTURE> 5 1.854719e-01
<MEAN> 39
 -9.033368e-01 2.083235e-01 -7.530288e-01 -9.811512e-01 3.177264e-02 3.622292e-01 2.609308e-01 -4.106606e-02 1.996296e-01 4.133829e-01 3.302511e-01 5.323356e-02 -1.449944e+00 -1.376580e-01 8.821602e-02 5.891117e-02 -2.408804e-02 -3.484556e-02 -9.120402e-02 -1.053145e-01 -1.288029e-01 -1.351017e-01 -4.282591e-02 -2.664843e-01 -3.058936e-01 -3.093191e-01 -1.891955e-01 -3.175658e-01 1.942530e-01 3.247665e-01 1.550565e-01 9.499590e-02 3.701963e-02 7.829246e-02 6.795228e-03 -4.052042e-01 -2.267833e-01 3.544074e-02 1.658110e-01
<VARIANCE> 39
 4.179261e-02 7.890742e-02 2.695169e-01 1.533644e-01 2.182415e-01 3.586410e-01 2.608990e-01 6.086528e-01 2.934227e-01 3.240515e-01 5.683903e-01 5.656950e-01 6.220983e-02 1.481578e-01 3.078728e-01 5.057953e-01 5.375870e-01 5.270583e-01 7.160346e-01 7.002435e-01 9.687786e-01 7.357125e-01 8.445138e-01 8.300015e-01 1.328723e+00 2.325856e-01 4.081731e-01 4.021001e-01 7.529911e-01 6.368401e-01 7.023891e-01 8.219481e-01 8.578035e-01 1.110092e+00 1.040752e+00 9.543632e-01 9.316469e-01 1.285170e+00 1.925199e-01
<GCONST> 3.992059e+01
<MIXTURE> 6 1.289296e-01
<MEAN> 39
 -1.029804e+00 1.610838e-01 -3.520571e-01 -5.014763e-01 6.736792e-01 8.237052e-01 2.212150e-01 6.709641e-02 -2.530417e-02 -1.787428e-01 4.434499e-01 4.188581e-01 -1.425057e+00 -2.152576e-01 -3.917640e-01 7.557534e-04 1.115416e-01 -1.582610e-01 -2.413550e-01 -1.776794e-01 4.912956e-02 9.388898e-02 -4.200640e-01 -1.789856e-01 1.917960e-01 1.653565e-01 3.925731e-02 -3.015562e-01 -3.936404e-01 -4.194386e-01 -5.606648e-01 -3.147976e-01 -1.912801e-01 -1.981800e-01 1.860175e-01 1.362517e-01 2.096816e-01 1.161963e-01 3.549583e-01
<VARIANCE> 39
 3.205331e-02 1.149047e-01 3.596593e-01 1.451607e-01 3.618895e-01 4.837219e-01 3.010262e-01 9.370490e-01 4.945197e-01 2.900905e-01 8.375376e-01 1.067616e+00 7.615236e-02 1.721824e-01 6.793299e-01 4.957967e-01 5.814017e-01 5.572125e-01 7.889538e-01 6.495615e-01 8.002336e-01 5.915700e-01 7.935331e-01 8.087631e-01 9.572169e-01 4.415710e-01 4.172901e-01 6.448500e-01 6.617969e-01 6.131078e-01 6.368999e-01 9.325650e-01 8.982738e-01 1.092332e+00 7.423259e-01 8.778240e-01 9.376233e-01 1.108183e+00 2.487181e-01
<GCONST> 4.425226e+01
<MIXTURE> 7 1.283779e-01
<MEAN> 39
 1.807437e-01 3.139707e-01 3.865647e-02 6.884273e-01 8.615854e-01 5.152855e-01 2.073101e-01 -4.552221e-01 -9.361387e-01 -3.161333e-01 -3.513955e-02 3.233827e-01 -4.823578e-01 8.944827e-01 -5.959005e-01 -5.524436e-01 -2.931041e-01 -4.575771e-01 -6.163245e-01 -2.779514e-01 2.889065e-02 -2.110978e-01 5.122349e-02 -2.920433e-01 -2.163275e-01 2.011047e+00 9.161451e-01 1.561593e-01 1.350455e-01 -2.210836e-01 -3.817568e-01 -3.585375e-01 1.998976e-02 3.799601e-01 3.079650e-01 1.624279e-01 -4.150563e-01 -4.753747e-01 1.346610e+00
<VARIANCE> 39
 2.333352e-01 2.840507e-01 4.146063e-01 3.796172e-01 3.007630e-01 4.873206e-01 4.344885e-01 7.166887e-01 6.111819e-01 5.711330e-01 5.602273e-01 7.348709e-01 2.896013e-01 9.333256e-01 9.898470e-01 1.510055e+00 1.282842e+00 9.955297e-01 1.098419e+00 9.506634e-01 1.174091e+00 1.300109e+00 1.525178e+00 1.009619e+00 1.245891e+00 1.758817e+00 1.441319e+00 1.186731e+00 1.452676e+00 1.309624e+00 1.160979e+00 1.151962e+00 1.148784e+00 1.399956e+00 1.408414e+00 1.569290e+00 1.052215e+00 1.297744e+00 1.932086e+00
<GCONST> 6.681705e+01
<MIXTURE> 8 6.312554e-02
<MEAN> 39
 -1.043118e+00 -5.940784e-01 -6.417970e-01 -4.492227e-01 7.909312e-02 1.964612e-01 2.444777e-01 1.482175e-01 4.713691e-01 -4.437817e-01 5.150771e-01 1.132035e+00 -9.390851e-01 4.169963e-01 1.848262e-01 -1.007620e+00 -1.079207e+00 -3.949015e-01 1.026408e-02 -6.560849e-02 -6.764312e-01 -5.023978e-01 5.785424e-01 2.694397e-01 -2.701167e-01 2.438312e-01 3.507926e-01 1.569638e+00 -2.018260e-01 -5.174029e-01 2.629154e-01 1.100117e-01 7.108528e-02 -2.784265e-01 -8.005824e-01 9.277141e-01 -2.220169e-01 -7.898685e-01 -1.493331e+00
<VARIANCE> 39
 6.008621e-02 9.419795e-02 2.773531e-01 2.693713e-01 2.749434e-01 3.308464e-01 2.712048e-01 4.172245e-01 3.731137e-01 2.556323e-01 5.255026e-01 3.778017e-01 4.902285e-02 2.505188e-01 1.604011e+00 5.106953e-01 4.952644e-01 3.895797e-01 5.725288e-01 4.886274e-01 5.792785e-01 9.044111e-01 1.117542e+00 6.144912e-01 8.774152e-01 5.993223e-01 8.195522e-01 9.748297e-01 1.476796e+00 1.207966e+00 4.896722e-01 6.961666e-01 7.562001e-01 8.909062e-01 1.011123e+00 1.137932e+00 6.322232e-01 9.473014e-01 3.104558e-01
<GCONST> 4.352349e+01
<TRANSP> 7
 0.000000e+00 1.000000e+00 0.000000e+00 0.000000e+00 0.000000e+00 0.000000e+00 0.000000e+00
 0.000000e+00 6.764291e-01 3.235709e-01 0.000000e+00 0.000000e+00 0.000000e+00 0.000000e+00
 0.000000e+00 0.000000e+00 5.873527e-01 4.126474e-01 0.000000e+00 0.000000e+00 0.000000e+00
 0.000000e+00 0.000000e+00 0.000000e+00 6.786262e-01 3.213738e-01 0.000000e+00 0.000000e+00
 0.000000e+00 0.000000e+00 0.000000e+00 0.000000e+00 8.775412e-01 1.224588e-01 0.000000e+00
 0.000000e+00 0.000000e+00 0.000000e+00 0.000000e+00 0.000000e+00 8.825113e-01 1.174887e-01
 0.000000e+00 0.000000e+00 0.000000e+00 0.000000e+00 0.000000e+00 0.000000e+00 0.000000e+00
<ENDHMM>
~h "d"
<BEGINHMM>
<NUMSTATES> 7
<STATE> 2
<NUMMIXES> 8
<MIXTURE> 1 9.874242e-02
<MEAN> 39
 -6.986652e-01 4.989703e-01 1.382664e-01 6.472340e-02 4.790621e-01 1.997460e-01 4.247944e-01 8.086902e-02 -4.689168e-01 3.089575e-01 -8.898169e-02 2.889022e-01 -8.780343e-01 3.912627e-01 6.570814e-01 3.989621e-01 4.540402e-01 6.045641e-01 4.512615e-01 4.252259e-01 1.856020e-01 -1.042069e-01 1.317458e-01 1.265849e-01 -1.414756e-01 -1.390844e-01 4.899355e-01 4.402786e-01 8.550642e-01 6.687074e-01 2.543219e-01 -8.887553e-02 -1.835468e-01 -1.110038e-01 -2.361794e-01 -5.496079e-01 -4.156892e-01 -1.193156e-01 7.865695e-01
<VARIANCE> 39
 3.562301e-01 5.335392e-01 5.696167e-01 5.547167e-01 5.704804e-01 6.150060e-01 4.434536e-01 7.116943e-01 4.585617e-01 6.137581e-01 6.385837e-01 7.484244e-01 4.784317e-01 1.278077e+00 1.229136e+00 1.697812e+00 1.464351e+00 8.158060e-01 9.563391e-01 9.425084e-01 1.213417e+00 1.101173e+00 1.200420e+00 9.319142e-01 1.067109e+00 1.951376e+00 1.250327e+00 1.225023e+00 1.370334e+00 1.204257e+00 1.105735e+00 1.029594e+00 1.035110e+00 1.176953e+00 1.164606e+00 1.245661e+00 1.062027e+00 1.168262e+00 1.457562e+00
<GCONST> 6.833006e+01
<MIXTURE> 2 1.446285e-01
<MEAN> 39
 8.768015e-01 -5.956278e-01 3.273226e-01 4.078785e-01 -6.301434e-01 -8.914831e-01 -8.824145e-01 -1.438011e-01 1.025076e-01 3.662040e-01 -2.588928e-01 -1.425899e-01 9.461011e-01 -1.868013e-02 1.215798e-01 4.396451e-01 1.423818e-01 -3.760806e-02 -2.412342e-03 -1.293399e-01 -3.830463e-03 -3.311154e-02 -1.922421e-01 -9.076795e-02 1.258424e-01 5.726399e-02 -1.389983e-01 2.458145e-01 1.462387e-01 1.149375e-01 2.225648e-01 1.334582e-01 9.633280e-02 -2.331541e-02 -1.108396e-01 -1.196226e-01 -7.258026e-02 4.129798e-02 -3.594152e-01
<VARIANCE> 39
 2.292300e-01 5.243317e-01 1.218877e+00 7.503508e-01 6.512360e-01 1.047240e+00 8.580108e-01 1.340181e+00 1.486021e+00 1.418334e+00 1.048591e+00 1.428694e+00 2.673832e-01 2.107329e-01 4.041209e-01 5.771981e-01 4.837083e-01 4.512565e-01 5.744374e-01 4.773437e-01 6.225191e-01 5.855923e-01 5.490891e-01 5.633407e-01 6.164585e-01 3.277402e-01 2.969711e-01 3.742351e-01 5.169746e-01 4.018025e-01 4.847121e-01 5.299838e-01 4.669551e-01 5.790291e-01 5.439596e-01 4.739898e-01 4.630355e-01 5.323504e-01 3.377594e-01
<GCONST> 4.916963e+01
<MIXTURE> 3 1.147201e-01
<MEAN> 39
 7.530156e-01 -4.533217e-01 6.711620e-01 5.014307e-01 -3.518161e-01 -1.498553e+00 -1.273147e+00 2.217374e-01 -4.793819e-01 -4.903436e-03 -9.249164e-01 2.169158e-01 1.256034e+00 -2.766580e-01 7.954950e-01 9.899681e-01 8.578697e-01 8.458937e-01 4.944428e-01 -1.564307e-01 -7.049621e-01 -3.810561e-01 -6.591066e-01 -4.666712e-01 -1.504090e-01 -1.880561e+00 -9.626603e-01 3.524446e-01 -3.759273e-01 2.542002e-01 8.881682e-01 1.292714e+00 1.071893e+00 6.626375e-02 -7.593364e-02 7.762639e-02 2.280135e-01 -1.952597e-01 -2.215959e+00
<VARIANCE> 39
 2.091712e-01 3.185943e-01 8.013433e-01 5.706934e-01 5.665420e-01 9.322169e-01 6.211032e-01 1.115901e+00 1.590597e+00 1.359433e+00 8.183963e-01 1.235389e+00 2.025402e-01 3.426771e-01 4.911237e-01 9.151851e-01 7.087817e-01 7.696143e-01 9.568686e-01 1.014692e+00 1.170112e+00 1.011338e+00 9.202785e-01 8.957286e-01 1.150510e+00 8.216971e-01 7.165067e-01 5.493021e-01 8.845909e-01 7.260107e-01 8.425006e-01 1.015585e+00 9.552730e-01 9.079438e-01 1.225175e+00 1.074941e+00 8.798721e-01 1.287883e+00 6.711916e-01
<GCONST> 6.210763e+01
<MIXTURE> 4 1.443262e-01
<MEAN> 39
 5.710686e-01 3.880961e-01 4.814628e-01 1.912169e-01 1.010717e-02 -4.698992e-02 -9.152390e-02 -5.164539e-01 -1.023437e+00 -3.010935e-01 -5.598776e-01 1.207756e-01 3.416069e-01 -4.059408e-01 2.317309e-01 3.962742e-01 5.200418e-01 4.187098e-01 5.914566e-02 -1.195748e-02 1.923413e-01 1.315762e-01 -1.643414e-01 -4.684119e-02 1.128223e-01 -9.024009e-01 -6.478569e-01 -3.961787e-02 -2.029849e-01 7.276420e-02 4.236100e-01 3.691863e-01 3.542941e-01 3.364653e-01 1.120583e-01 1.375374e-01 2.835792e-01 1.174173e-01 -6.056823e-01
<VARIANCE> 39
 4.067153e-01 5.609012e-01 1.828245e+00 1.808442e+00 8.301924e-01 1.343402e+00 1.064484e+00 1.206226e+00 8.493546e-01 1.522486e+00 9.242766e-01 1.273725e+00 3.922572e-01 1.480772e+00 1.137596e+00 2.144814e+00 2.284785e+00 1.562676e+00 1.410298e+00 1.361075e+00 1.579678e+00 1.205231e+00 1.541347e+00 1.058413e+00 1.351728e+00 2.813955e+00 1.361940e+00 1.078276e+00 1.717348e+00 1.556740e+00 1.273564e+00 1.451245e+00 1.320162e+00 1.363523e+00 1.127820e+00 1.382779e+00 1.048514e+00 1.320436e+00 1.535031e+00
<GCONST> 8.068526e+01
<MIXTURE> 5 1.397969e-01
<MEAN> 39
 8.513478e-01 -5.608960e-01 4.077795e-01 3.826949e-01 -6.273277e-01 -1.101337e+00 -1.016087e+00 1.774551e-02 -1.490403e-01 3.517001e-01 -3.845634e-01 -1.845082e-01 9.212252e-01 -7.249141e-02 7.369796e-02 4.029770e-01 1.435374e-01 -7.184868e-02 -7.734106e-02 -2.123076e-01 -1.486669e-01 -1.598078e-01 -2.887390e-01 -2.503870e-01 -3.284249e-02 -7.896131e-02 -1.916416e-01 2.289386e-01 6.830163e-02 7.083383e-02 2.425430e-01 8.165119e-02 6.644883e-02 -1.141695e-01 -1.402921e-01 -1.477605e-01 -1.801212e-01 -6.335904e-02 -4.823383e-01
<VARIANCE> 39
 2.164710e-01 5.714461e-01 1.143529e+00 8.264939e-01 7.319760e-01 1.230304e+00 8.726676e-01 1.346973e+00 1.507233e+00 1.537541e+00 1.163594e+00 1.311547e+00 2.389602e-01 2.130984e-01 4.231980e-01 5.807879e-01 4.700518e-01 4.628722e-01 5.800076e-01 4.985122e-01 6.166435e-01 5.711775e-01 5.748823e-01 5.309281e-01 6.496496e-01 3.475442e-01 3.172952e-01 3.735356e-01 4.852690e-01 4.045375e-01 5.054786e-01 5.673746e-01 4.729101e-01 6.098772e-01 5.485845e-01 5.039049e-01 4.431323e-01 5.686184e-01 3.829862e-01
<GCONST> 5.010873e+01
<MIXTURE> 6 1.421907e-01
<MEAN> 39
 5.993127e-01 3.772866e-01 5.627742e-01 3.190118e-01 -3.716497e-02 -2.666076e-01 -2.346731e-01 -5.426244e-01 -9.885675e-01 -2.346353e-01 -6.630112e-01 2.993023e-02 2.464210e-01 -2.533594e-01 6.737831e-02 4.173668e-01 3.961845e-01 1.161596e-01 -2.383935e-01 -3.013002e-01 -3.442268e-02 -4.392897e-02 -3.728914e-01 -2.601150e-01 -8.694188e-02 -7.008029e-01 -7.905238e-01 -1.680082e-01 -4.516835e-01 -1.520711e-01 3.210893e-01 2.778242e-01 3.006332e-01 2.991071e-01 3.076482e-02 8.842567e-02 1.537057e-01 3.579377e-02 -6.424716e-01
<VARIANCE> 39
 3.620371e-01 5.778613e-01 1.606535e+00 1.693122e+00 8.414441e-01 1.396356e+00 1.049890e+00 1.273757e+00 8.610283e-01 1.438300e+00 9.539787e-01 1.250515e+00 3.847764e-01 1.622185e+00 1.292306e+00 1.955752e+00 2.309005e+00 1.634859e+00 1.366692e+00 1.430792e+00 1.551136e+00 1.261478e+00 1.513486e+00 1.103139e+00 1.315720e+00 2.786486e+00 1.323761e+00 1.168902e+00 1.707780e+00 1.570723e+00 1.218831e+00 1.364479e+00 1.311345e+00 1.405756e+00 1.110734e+00 1.407528e+00 1.057295e+00 1.233563e+00 1.511024e+00
<GCONST> 8.056232e+01
<MIXTURE> 7 1.109560e-01
<MEAN> 39
 7.618203e-01 -5.334506e-01 5.763449e-01 4.440334e-01 -3.544330e-01 -1.553571e+00 -1.350324e+00 2.819524e-01 -4.165088e-01 1.663195e-01 -9.345540e-01 2.408849e-02 1.200147e+00 -2.935361e-01 7.536035e-01 9.741569e-01 7.626011e-01 7.721094e-01 3.960688e-01 -3.272697e-01 -8.807546e-01 -4.647880e-01 -7.871228e-01 -6.283552e-01 -3.283470e-01 -1.896786e+00 -1.031548e+00 2.679675e-01 -3.690959e-01 2.363622e-01 7.902712e-01 1.200043e+00 1.005855e+00 -8.332019e-02 -1.343762e-01 -4.646648e-02 1.653186e-01 -2.153565e-01 -2.254687e+00
<VARIANCE> 39
 1.999524e-01 3.388259e-01 8.085670e-01 5.750807e-01 5.950022e-01 9.468508e-01 5.842432e-01 1.183796e+00 1.608351e+00 1.355421e+00 8.485203e-01 1.322824e+00 2.032326e-01 3.107734e-01 4.845257e-01 8.760717e-01 7.240421e-01 7.308140e-01 9.527881e-01 9.543785e-01 1.137178e+00 1.024354e+00 8.843156e-01 8.768262e-01 1.174365e+00 7.484720e-01 6.938938e-01 5.252801e-01 9.361642e-01 7.765198e-01 8.941623e-01 9.814323e-01 9.157956e-01 9.560548e-01 1.232514e+00 1.100318e+00 8.843763e-01 1.349293e+00 6.596739e-01
<GCONST> 6.206421e+01
<MIXTURE> 8 1.046421e-01
<MEAN> 39
 -6.157199e-01 4.612305e-01 7.335334e-02 2.823578e-02 5.099410e-01 9.285384e-02 3.490625e-01 6.700024e-02 -4.958389e-01 2.667678e-01 -1.573200e-01 1.950875e-01 -8.409227e-01 1.632701e-01 4.192123e-01 8.125238e-02 5.570176e-02 2.117496e-01 6.917027e-02 4.708707e-02 -2.596475e-01 -2.985755e-01 -1.225603e-02 -1.357796e-01 -3.343927e-01 -3.186628e-01 2.469584e-01 2.099960e-01 5.422602e-01 3.931800e-01 9.416583e-02 -2.219560e-01 -2.511112e-01 -1.272838e-01 -3.091248e-01 -5.126126e-01 -4.904815e-01 -2.285089e-01 5.882508e-01
<VARIANCE> 39
 3.396218e-01 6.299939e-01 5.675634e-01 5.682403e-01 4.520855e-01 6.316654e-01 5.259125e-01 7.201357e-01 5.343407e-01 6.330180e-01 7.002922e-01 6.827323e-01 4.589299e-01 1.090356e+00 1.203848e+00 1.412188e+00 1.175371e+00 8.396730e-01 1.144030e+00 1.069279e+00 1.154864e+00 1.201219e+00 1.259283e+00 9.530686e-01 1.077438e+00 1.757994e+00 1.176715e+00 1.398130e+00 1.255300e+00 1.083441e+00 1.120318e+00 1.025481e+00 1.052501e+00 1.145137e+00 1.172263e+00 1.187369e+00 1.060374e+00 1.157361e+00 1.471253e+00
<GCONST> 6.818515e+01
<STATE> 3
<NUMMIXES> 8
<MIXTURE> 1 1.604268e-01
<MEAN> 39
 1.859167e-01 2.096586e-01 1.479156e+00 1.164556e+00 2.391185e-01 -5.309610e-01 -6.372087e-01 -9.037161e-02 -8.520694e-01 -9.969888e-01 -1.140322e+00 3.069779e-01 1.427725e-01 -1.105171e+00 6.740787e-01 -7.430493e-01 5.309299e-03 1.645354e+00 1.648206e+00 1.501812e+00 2.568250e-01 6.490669e-02 7.443513e-01 3.741598e-01 -2.396363e-01 -2.848610e+00 -2.257364e-01 1.021749e-01 -5.830886e-01 -2.810021e-01 -3.131855e-02 2.036731e-01 3.498311e-01 9.884897e-02 2.503340e-02 6.518317e-01 7.103735e-01 1.650175e-02 2.982532e-01
<VARIANCE> 39
