~o
<STREAMINFO> 1 39
<VECSIZE> 39<NULLD><USER><DIAGC>
~h "a"
<BEGINHMM>
<NUMSTATES> 7
<STATE> 2
<NUMMIXES> 4
<MIXTURE> 1 1.589734e-01
<MEAN> 39
 -5.401427e-01 4.126336e-01 -2.759544e-01 5.562174e-01 8.564014e-01 1.328287e-01 6.470294e-01 -2.429609e-01 -6.968833e-01 4.657410e-02 -3.349811e-01 4.616320e-01 1.427319e-02 1.207211e+00 2.363166e-01 4.811781e-01 4.376531e-01 1.949773e-01 -2.085060e-01 -8.882345e-03 1.822781e-01 -2.021573e-02 -1.367635e-01 -4.426908e-01 -2.884685e-01 1.431837e+00 1.167292e+00 -3.385975e-01 9.180231e-02 -3.721876e-01 -6.025242e-01 -4.584010e-01 -3.434131e-01 1.902997e-01 3.367178e-01 2.906150e-01 -6.918891e-02 -3.336563e-01 4.887434e-01
<VARIANCE> 39
 6.225094e-01 8.735580e-01 7.370443e-01 5.888117e-01 5.419168e-01 8.011650e-01 6.780649e-01 7.935339e-01 5.466591e-01 5.606735e-01 7.101222e-01 7.896904e-01 6.403311e-01 2.475102e+00 1.306258e+00 1.546011e+00 1.541971e+00 1.344281e+00 1.551230e+00 1.420701e+00 1.453610e+00 1.239291e+00 1.403764e+00 1.327378e+00 1.492843e+00 3.315963e+00 1.917352e+00 1.828321e+00 1.897876e+00 1.630228e+00 1.522604e+00 1.673224e+00 1.694351e+00 1.591862e+00 1.449620e+00 1.604702e+00 1.371005e+00 1.588064e+00 2.950215e+00
<GCONST> 7.952641e+01
<MIXTURE> 2 2.395792e-01
<MEAN> 39
 -1.831626e-01 -1.820527e-02 -3.928387e-01 9.867925e-02 6.402635e-01 1.194572e-01 2.286596e-01 -4.376970e-01 -6.538513e-01 2.266026e-01 -1.337644e-01 4.926232e-01 -2.595860e-02 -3.582645e-02 -9.189806e-02 3.984949e-02 9.048591e-02 1.119548e-02 -3.198221e-02 5.478120e-02 9.541371e-02 8.313777e-02 2.672217e-02 -9.834561e-03 1.032373e-02 6.816884e-02 1.656001e-02 -8.119129e-02 3.892441e-02 -4.088450e-03 -5.808952e-02 -3.989225e-02 5.236758e-02 1.229368e-01 8.519243e-02 -3.070010e-02 -3.356420e-03 1.251858e-02 1.301832e-01
<VARIANCE> 39
 1.059953e+00 1.072803e+00 1.338492e+00 8.287538e-01 1.232770e+00 1.375923e+00 1.290636e+00 1.729175e+00 1.187701e+00 1.044267e+00 1.430743e+00 2.656371e+00 1.348925e+00 2.606773e-01 4.475215e-01 5.954325e-01 6.325864e-01 5.549141e-01 7.806542e-01 7.339112e-01 8.530253e-01 7.562909e-01 7.276955e-01 7.926859e-01 8.841476e-01 3.808911e-01 4.341451e-01 5.162792e-01 7.313849e-01 6.769029e-01 6.571519e-01 7.730749e-01 8.160300e-01 9.038072e-01 7.860652e-01 8.000795e-01 8.535122e-01 9.372923e-01 3.897888e-01
<GCONST> 6.393342e+01
<MIXTURE> 3 4.056411e-01
<MEAN> 39
 -8.727443e-01 -3.554779e-01 -5.349663e-01 -2.020373e-01 3.368689e-01 -2.837244e-02 2.636161e-02 -5.325864e-02 -1.452263e-02 5.150432e-01 -2.497587e-01 2.514255e-01 -1.490058e+00 1.614255e-02 1.950206e-03 -5.353922e-02 -2.682504e-02 1.402646e-02 3.363371e-03 -1.738803e-02 -3.463699e-02 -2.257191e-02 2.443520e-02 -1.875976e-02 -3.676264e-02 -8.386021e-03 5.588192e-02 3.743899e-02 3.583033e-02 6.086794e-02 6.264098e-02 3.308038e-02 -8.673437e-04 -3.907862e-02 -7.950852e-02 -4.471514e-02 -3.894917e-02 -1.152341e-02 5.886549e-02
<VARIANCE> 39
 8.484132e-02 3.276845e-01 2.403532e-01 3.784235e-01 3.362508e-01 4.773707e-01 4.069792e-01 6.561183e-01 3.879931e-01 5.491892e-01 9.306825e-01 1.122716e+00 1.887838e-01 2.004941e-01 5.886109e-01 6.093044e-01 6.827229e-01 7.247313e-01 7.762192e-01 7.879363e-01 9.150472e-01 8.215719e-01 9.292823e-01 9.240779e-01 1.048852e+00 4.986867e-01 4.399008e-01 7.645638e-01 8.628969e-01 8.073243e-01 1.008228e+00 9.696793e-01 9.853292e-01 1.050882e+00 9.963306e-01 1.098410e+00 1.033959e+00 1.143623e+00 7.725553e-01
<GCONST> 5.302551e+01
<MIXTURE> 4 1.957956e-01
<MEAN> 39
 2.842355e-02 3.568268e-01 4.369286e-01 8.484407e-01 4.481386e-01 -3.823786e-01 -5.687764e-02 -5.007562e-01 -7.855089e-01 -1.117307e-01 -8.395029e-01 -9.333879e-02 4.268763e-01 1.421020e+00 -6.575971e-01 9.635946e-02 -4.418838e-01 -8.888215e-01 -9.183950e-01 -5.849049e-01 3.550771e-01 5.066565e-01 2.031879e-01 1.099910e-01 9.870511e-02 1.359966e+00 2.312918e-01 -8.453152e-01 -5.391040e-01 -6.220861e-01 -5.549973e-01 -1.350458e-01 8.409955e-02 6.469930e-01 5.642730e-01 3.925778e-01 2.677746e-01 1.765159e-01 5.618544e-01
<VARIANCE> 39
 5.292680e-01 8.746805e-01 1.105843e+00 5.190365e-01 6.558969e-01 8.292341e-01 1.113395e+00 9.904886e-01 9.212210e-01 8.295373e-01 7.307360e-01 1.053275e+00 4.907875e-01 2.366912e+00 1.319524e+00 2.393073e+00 1.793644e+00 1.370482e+00 1.605573e+00 1.576143e+00 1.793775e+00 1.664696e+00 1.674114e+00 1.360073e+00 1.495911e+00 1.230808e+00 1.631657e+00 1.526813e+00 1.482798e+00 1.117854e+00 1.184027e+00 1.329656e+00 1.407248e+00 1.567477e+00 1.399295e+00 1.267582e+00 1.135079e+00 1.256168e+00 1.408655e+00
<GCONST> 7.889828e+01
<STATE> 3
<NUMMIXES> 4
<MIXTURE> 1 1.295455e-01
<MEAN> 39
 6.874338e-01 -9.254657e-03 -5.070567e-02 9.506521e-01 1.155132e+00 3.833751e-01 6.168128e-01 3.485080e-01 -8.001562e-01 8.620273e-02 -3.497052e-01 2.163747e-01 6.632159e-01 2.273185e+00 -3.289760e-01 -5.050475e-01 -1.717869e-01 -6.885378e-03 -4.811630e-02 4.479923e-01 1.131234e+00 5.464100e-01 9.837608e-01 -5.953488e-02 -8.999736e-01 3.343673e+00 -5.903564e-01 -1.014918e+00 -1.586777e+00 -1.800183e+00 -1.342757e+00 -6.175761e-01 -5.258205e-01 -3.407034e-01 3.806079e-01 9.545465e-01 6.762459e-01 -3.574343e-01 -1.258154e+00
<VARIANCE> 39
 1.674092e-01 2.462480e-01 1.984239e-01 2.467897e-01 3.095428e-01 4.723023e-01 4.493038e-01 7.296230e-01 4.131556e-01 4.519362e-01 5.417357e-01 6.751935e-01 4.030504e-01 7.661562e-01 9.177682e-01 1.256897e+00 1.386616e+00 1.236270e+00 1.293365e+00 1.421124e+00 1.725015e+00 1.406761e+00 1.588584e+00 1.545061e+00 1.764950e+00 2.038824e+00 1.988113e+00 1.491635e+00 1.606743e+00 1.282332e+00 1.352587e+00 1.684685e+00 1.694724e+00 1.949574e+00 1.577776e+00 1.530173e+00 1.317507e+00 1.482445e+00 3.874080e+00
<GCONST> 6.966412e+01
<MIXTURE> 2 3.144624e-01
<MEAN> 39
 7.648925e-01 -5.174748e-01 2.122615e-01 2.821851e-01 -3.162796e-01 -6.853954e-01 -6.716780e-01 -3.676126e-02 -3.649448e-01 3.272222e-01 -4.469631e-01 -2.133023e-01 9.556153e-01 4.069535e-01 -8.067355e-01 -4.807266e-01 -7.361834e-01 -8.333411e-01 -5.691917e-01 4.150170e-02 1.033280e+00 1.047651e+00 4.140342e-01 1.072942e-01 1.233479e-01 1.279269e+00 -3.867638e-01 -1.158740e-01 -2.320040e-01 -6.414855e-02 1.543726e-01 2.347043e-01 5.063421e-01 3.663714e-01 9.375028e-02 -9.574796e-02 -2.163971e-01 -8.028261e-02 4.007389e-02
<VARIANCE> 39
 2.864011e-01 5.264550e-01 1.309028e+00 8.208290e-01 6.724782e-01 1.148895e+00 1.241251e+00 1.449860e+00 1.076163e+00 1.111052e+00 1.063044e+00 1.386627e+00 3.293556e-01 7.900668e-01 8.291271e-01 1.895204e+00 1.583001e+00 1.321751e+00 1.485809e+00 1.294994e+00 2.072499e+00 1.769616e+00 1.369537e+00 1.352022e+00 1.262031e+00 1.131770e+00 7.653612e-01 6.037230e-01 1.024155e+00 7.090915e-01 8.571505e-01 9.365324e-01 9.865164e-01 1.212408e+00 9.716305e-01 8.752679e-01 8.591378e-01 9.171593e-01 5.432341e-01
<GCONST> 7.138079e+01
<MIXTURE> 3 3.270752e-01
<MEAN> 39
 2.733859e-01 3.021840e-01 9.861888e-01 9.548273e-01 -1.844005e-01 -1.262147e+00 -1.832658e-01 -4.245095e-02 -6.325312e-01 -2.956832e-01 -8.203808e-01 5.927843e-01 1.025912e+00 1.707631e+00 -1.733303e+00 5.021735e-01 -4.437933e-01 -1.580029e+00 -1.116177e+00 -1.152444e+00 6.745139e-01 6.925333e-01 2.117152e-01 2.324120e-01 4.350026e-01 1.566702e+00 -1.632466e+00 -5.911605e-01 -1.126863e+00 -7.334301e-01 5.928078e-02 7.905368e-01 4.812405e-01 2.637840e-01 3.234319e-01 4.435623e-01 1.805657e-01 -1.231941e-01 -3.770586e-01
<VARIANCE> 39
 1.902239e-01 3.888533e-01 7.696633e-01 3.834597e-01 4.621346e-01 5.583031e-01 5.102971e-01 6.449327e-01 8.183529e-01 7.052211e-01 5.725948e-01 7.544723e-01 3.146300e-01 1.593324e+00 1.219483e+00 1.811096e+00 1.297904e+00 1.038699e+00 1.356133e+00 1.255494e+00 1.310004e+00 1.554479e+00 1.465653e+00 1.063509e+00 1.166542e+00 7.687753e-01 1.473653e+00 1.590913e+00 1.517711e+00 9.364725e-01 1.047214e+00 9.300755e-01 1.000462e+00 1.058673e+00 9.045679e-01 9.520865e-01 8.233666e-01 1.045854e+00 7.588142e-01
<GCONST> 6.663631e+01
<MIXTURE> 4 2.289246e-01
<MEAN> 39
 8.164902e-01 -4.790723e-02 -6.957703e-01 3.118909e-01 7.872980e-01 1.302247e-02 3.595529e-01 6.068293e-03 -4.182962e-01 6.547099e-01 -4.127999e-01 -5.414530e-01 6.853427e-01 1.887717e+00 -1.215352e+00 -1.302059e+00 -1.467200e+00 -8.416126e-01 -5.383695e-01 6.853373e-02 4.282556e-01 7.488919e-01 1.533622e+00 1.213151e-01 -1.061894e+00 2.153109e+00 -1.470941e+00 -7.607167e-01 -4.294618e-01 -5.644453e-01 -3.017416e-01 -5.298660e-02 7.532725e-02 -1.346164e-01 -1.263491e-02 2.610025e-01 1.898340e-02 3.104975e-02 -5.383660e-01
<VARIANCE> 39
 3.284912e-01 4.420668e-01 3.335027e-01 3.421155e-01 3.356824e-01 6.121610e-01 5.825801e-01 8.771853e-01 8.464436e-01 5.910222e-01 8.869048e-01 9.038397e-01 5.521552e-01 1.375159e+00 1.358996e+00 1.481245e+00 1.336778e+00 1.133028e+00 1.501925e+00 1.746221e+00 1.860328e+00 2.092949e+00 1.857607e+00 1.786101e+00 1.590529e+00 1.729870e+00 2.174095e+00 1.190473e+00 1.203143e+00 1.034212e+00 1.076251e+00 1.182249e+00 1.156868e+00 1.505867e+00 1.199608e+00 1.201342e+00 1.212918e+00 1.363362e+00 2.232779e+00
<GCONST> 7.342112e+01
<STATE> 4
<NUMMIXES> 4
<MIXTURE> 1 2.516313e-01
<MEAN> 39
 5.125629e-01 -5.483556e-01 1.151386e+00 5.798863e-01 -1.140174e+00 -1.366507e+00 -7.327624e-01 5.382900e-01 -2.916133e-01 -4.002561e-01 -1.409876e-01 6.976721e-01 1.285681e+00 3.260914e-02 -8.256636e-01 -2.570858e-01 -6.551249e-01 -9.195224e-01 -3.077717e-01 -2.630633e-02 7.356324e-01 7.246236e-01 2.233364e-01 3.722801e-01 2.545601e-01 1.041442e+00 -5.513305e-01 5.684133e-01 -4.596985e-01 8.141611e-02 9.527059e-01 5.683603e-01 4.927819e-01 -2.957614e-01 -3.313535e-01 9.576224e-02 -3.727006e-01 -4.309874e-01 -9.053876e-01
<VARIANCE> 39
 2.266580e-01 4.252988e-01 6.997485e-01 5.668222e-01 5.032814e-01 7.063062e-01 8.290576e-01 1.093442e+00 1.069831e+00 6.806410e-01 9.677961e-01 1.144514e+00 1.910991e-01 4.919669e-01 6.487077e-01 1.652436e+00 8.184592e-01 8.271067e-01 9.433093e-01 1.039664e+00 1.424947e+00 1.186470e+00 9.221312e-01 8.485187e-01 8.861808e-01 5.999831e-01 8.012517e-01 6.376191e-01 1.091886e+00 7.538402e-01 8.480724e-01 9.235001e-01 9.085860e-01 1.055231e+00 7.170828e-01 7.885506e-01 8.610276e-01 9.095766e-01 5.613752e-01
<GCONST> 6.146478e+01
<MIXTURE> 2 2.255166e-01
<MEAN> 39
 9.168683e-01 -5.032637e-01 -1.084578e+00 -4.954585e-01 1.899834e-01 1.757593e-01 3.494283e-01 -2.970395e-01 -3.863358e-01 1.061823e+00 -1.859311e-01 -6.083972e-01 8.779142e-01 2.547788e-01 -6.979885e-01 -5.220923e-01 -6.530844e-01 -2.859763e-01 6.523028e-03 2.822927e-01 2.145348e-01 3.981950e-01 5.171578e-01 -2.147105e-01 -3.585945e-01 8.691360e-01 -8.251234e-01 1.883329e-01 4.355395e-01 4.324084e-01 4.419446e-01 -2.512068e-02 4.456961e-02 2.770350e-01 -2.188635e-01 -4.250902e-01 -3.217017e-01 3.669561e-02 -5.056443e-01
<VARIANCE> 39
 4.644614e-01 6.739162e-01 5.760977e-01 7.374604e-01 6.587895e-01 1.189426e+00 1.099230e+00 1.362352e+00 1.255809e+00 9.263648e-01 1.539384e+00 1.608470e+00 7.496505e-01 7.377742e-01 1.098134e+00 1.218954e+00 1.549463e+00 9.046223e-01 1.235001e+00 1.227252e+00 1.620722e+00 1.689435e+00 1.403051e+00 1.277568e+00 1.315474e+00 1.228259e+00 1.249282e+00 7.865527e-01 1.061005e+00 1.081279e+00 9.161568e-01 1.028363e+00 1.091879e+00 1.120290e+00 1.102439e+00 1.174714e+00 1.134517e+00 1.133493e+00 1.004253e+00
<GCONST> 7.417714e+01
<MIXTURE> 3 2.829869e-01
<MEAN> 39
 7.359908e-01 -9.483337e-01 2.081959e-01 1.251746e-01 -9.019881e-01 -1.195145e+00 -4.609634e-01 7.611325e-01 7.701808e-01 4.380405e-01 -8.606018e-01 1.719244e-01 1.558844e+00 2.766341e-01 -1.484992e+00 -1.212481e+00 -9.977779e-01 -5.229421e-01 -9.582497e-02 5.544156e-01 1.266674e+00 1.208163e+00 4.704176e-01 -4.107197e-01 -4.079008e-01 1.179146e+00 -1.072909e+00 8.088961e-01 -1.085107e-01 4.184346e-01 1.158974e+00 6.208771e-01 5.444293e-01 -4.387097e-01 -9.525239e-01 -4.222593e-01 -2.843331e-01 -4.718487e-01 -1.221369e+00
<VARIANCE> 39
 1.243980e-01 2.944481e-01 4.084176e-01 2.859846e-01 3.889682e-01 7.592398e-01 7.720409e-01 9.129521e-01 1.325930e+00 5.697461e-01 7.241105e-01 1.186770e+00 1.351290e-01 5.414955e-01 7.112157e-01 1.191925e+00 7.408889e-01 9.732251e-01 9.609103e-01 1.170696e+00 1.093515e+00 1.092720e+00 9.822291e-01 8.665972e-01 1.025695e+00 6.079150e-01 1.238072e+00 7.213773e-01 1.217185e+00 7.534770e-01 7.976070e-01 9.074880e-01 1.021581e+00 8.813061e-01 1.038719e+00 8.559349e-01 8.460035e-01 9.138566e-01 6.073319e-01
<GCONST> 5.927529e+01
<MIXTURE> 4 2.398714e-01
<MEAN> 39
 1.242561e+00 -7.238083e-01 -1.179326e+00 -2.448867e-01 5.558588e-01 -5.226222e-01 2.004838e-01 4.979214e-01 -4.311440e-01 1.733788e+00 -2.167742e-01 -1.143808e+00 1.320599e+00 3.635694e-01 -1.456457e+00 -1.285147e+00 -1.428920e+00 -5.373207e-01 -5.480109e-01 1.491432e-01 6.946027e-01 3.474075e-01 1.143148e+00 -3.004162e-01 -1.034370e+00 1.563819e+00 -1.957700e+00 3.983833e-01 8.088174e-01 6.388799e-01 3.468721e-01 5.610695e-01 2.106098e-01 -2.981848e-01 -2.807483e-01 -1.274536e+00 -5.727614e-01 3.884945e-01 -1.465234e+00
<VARIANCE> 39
 1.343807e-01 2.808180e-01 3.965087e-01 4.017329e-01 3.642398e-01 9.877756e-01 9.519200e-01 1.134308e+00 8.886006e-01 5.979922e-01 1.317332e+00 1.065352e+00 2.295433e-01 9.585827e-01 8.844199e-01 1.103438e+00 1.180175e+00 8.763460e-01 1.329686e+00 1.198164e+00 1.748697e+00 1.391221e+00 1.278419e+00 1.200592e+00 1.158714e+00 8.971617e-01 1.164640e+00 9.373675e-01 1.360398e+00 1.032809e+00 8.990799e-01 1.031141e+00 1.171561e+00 1.156175e+00 1.171117e+00 1.013576e+00 1.199203e+00 1.208800e+00 1.266719e+00
<GCONST> 6.707621e+01
<STATE> 5
<NUMMIXES> 4
<MIXTURE> 1 2.754567e-01
<MEAN> 39
 5.399941e-01 -1.079268e+00 6.196560e-01 1.995447e-01 -1.366035e+00 -1.167591e+00 -2.655233e-01 1.105082e+00 8.414537e-01 -1.704025e-01 -3.668383e-01 3.838603e-01 1.694744e+00 -4.707833e-02 4.368991e-03 1.192144e-01 2.356991e-02 -3.202406e-02 -2.502043e-02 -4.421804e-02 4.975134e-02 -1.013518e-01 -7.005984e-02 1.192614e-01 8.966167e-02 1.501188e-02 3.008842e-02 1.877649e-01 1.192779e-01 1.268071e-01 1.262557e-01 3.863312e-05 -1.545495e-01 -1.616519e-01 -1.926723e-01 7.287222e-04 2.489139e-02 2.251192e-02 -2.812065e-01
<VARIANCE> 39
 1.291525e-01 2.510938e-01 3.660594e-01 3.016011e-01 2.675267e-01 6.276510e-01 7.392253e-01 9.703106e-01 1.429998e+00 4.362082e-01 7.204733e-01 1.046425e+00 1.662699e-01 1.692044e-01 2.543500e-01 4.466889e-01 3.211109e-01 3.033727e-01 3.890180e-01 4.280706e-01 4.593207e-01 4.337645e-01 3.879468e-01 4.526876e-01 5.304083e-01 1.565471e-01 2.378825e-01 2.509354e-01 3.701777e-01 2.934162e-01 3.333510e-01 4.005274e-01 3.964946e-01 3.842368e-01 3.838961e-01 3.463633e-01 3.927513e-01 4.260967e-01 2.092945e-01
<GCONST> 3.316265e+01
<MIXTURE> 2 2.471794e-01
<MEAN> 39
 9.031835e-01 -9.482392e-01 -1.000292e+00 -3.988796e-01 2.795122e-01 -9.796456e-01 -1.367316e-02 1.001365e+00 -2.962642e-01 1.340682e+00 -9.262677e-01 -9.141151e-01 1.330039e+00 -2.074614e-01 -2.531144e-01 -1.251519e-01 -2.091603e-01 8.580954e-02 -1.032244e-01 1.680760e-01 4.622509e-01 5.829471e-02 -1.241166e-01 -3.315281e-01 -2.267622e-01 3.564547e-01 -1.556747e-01 4.373183e-01 5.085883e-01 3.655621e-01 -1.647279e-02 2.608393e-01 -3.589091e-02 -3.115698e-01 -7.254220e-02 -4.541600e-01 1.652382e-01 2.461892e-01 -4.870858e-01
<VARIANCE> 39
 3.074899e-01 6.359730e-01 8.091059e-01 7.036547e-01 6.978929e-01 1.795285e+00 1.195681e+00 1.778368e+00 1.064964e+00 1.119805e+00 1.458341e+00 1.368006e+00 3.949236e-01 4.786671e-01 6.228396e-01 1.204220e+00 1.034750e+00 8.810865e-01 9.736739e-01 8.804352e-01 1.154200e+00 8.370960e-01 8.669986e-01 8.383000e-01 1.040046e+00 5.242837e-01 7.951432e-01 7.069033e-01 1.154254e+00 9.735482e-01 9.312578e-01 9.614969e-01 9.259747e-01 9.892413e-01 7.995142e-01 9.012100e-01 8.223795e-01 8.044014e-01 7.226014e-01
<GCONST> 6.644524e+01
<MIXTURE> 3 2.224962e-01
<MEAN> 39
 5.599973e-01 -1.061616e+00 5.693198e-01 1.478045e-01 -1.336165e+00 -1.103130e+00 -3.017837e-01 1.222969e+00 6.945496e-01 -2.304046e-01 -3.658105e-01 2.775003e-01 1.586879e+00 4.776914e-02 -3.893874e-01 -5.751920e-01 -1.865429e-01 2.096944e-01 9.049082e-02 3.219063e-01 3.328258e-01 1.903739e-01 4.630169e-02 -3.463107e-01 -4.177724e-01 2.446885e-01 -7.224094e-03 4.939298e-01 6.581888e-02 2.492920e-01 5.796068e-01 1.050154e-02 -4.545160e-02 -4.581059e-01 -5.476661e-01 9.766006e-02 -1.042040e-01 -4.525729e-02 -6.030848e-01
<VARIANCE> 39
 1.562975e-01 3.886867e-01 6.752602e-01 4.419438e-01 3.364015e-01 8.159352e-01 7.983078e-01 1.178294e+00 1.473559e+00 5.751454e-01 9.367429e-01 1.273903e+00 1.647929e-01 3.289069e-01 4.450800e-01 1.097991e+00 5.555917e-01 6.728585e-01 7.107260e-01 8.834298e-01 7.987964e-01 6.290017e-01 6.294409e-01 9.853427e-01 9.428422e-01 2.457661e-01 3.830832e-01 4.297003e-01 6.469271e-01 5.274777e-01 5.459738e-01 6.624730e-01 6.513800e-01 7.417969e-01 6.079839e-01 5.443259e-01 6.217388e-01 6.421479e-01 3.968517e-01
<GCONST> 5.104381e+01
<MIXTURE> 4 2.548772e-01
<MEAN> 39
 8.002384e-01 -1.325466e+00 -9.964487e-01 -4.788293e-01 -6.366895e-02 -5.360305e-01 4.250432e-01 7.657621e-01 6.010808e-01 1.181509e+00 -1.251664e+00 -1.142459e+00 1.497225e+00 -1.796765e-01 -6.097177e-01 -6.675853e-01 -4.871895e-01 3.846287e-01 2.998190e-01 5.701101e-01 5.741888e-01 8.143778e-02 -7.544947e-02 -6.696158e-01 -6.364175e-01 5.284212e-01 -1.865188e-01 8.133242e-01 6.261876e-01 5.853257e-01 2.978496e-01 3.364278e-02 -3.009779e-01 -3.327544e-01 -5.580556e-01 -4.883756e-01 2.742982e-01 2.942996e-01 -8.672231e-01
<VARIANCE> 39
 2.354216e-01 3.167492e-01 4.393100e-01 3.669385e-01 5.233247e-01 1.444380e+00 9.169530e-01 1.780008e+00 1.300243e+00 8.999804e-01 1.084555e+00 1.231494e+00 5.056661e-01 3.911882e-01 5.432348e-01 9.608612e-01 6.383377e-01 7.747985e-01 8.868844e-01 8.685254e-01 9.840461e-01 7.430624e-01 7.802040e-01 8.276075e-01 9.185460e-01 4.325547e-01 5.786240e-01 5.367106e-01 7.875508e-01 6.985438e-01 7.180805e-01 7.953048e-01 7.979406e-01 1.016796e+00 9.082707e-01 8.227752e-01 7.356404e-01 8.081306e-01 6.508690e-01
<GCONST> 5.922654e+01
<STATE> 6
<NUMMIXES> 4
<MIXTURE> 1 2.656615e-01
<MEAN> 39
 8.416151e-01 -1.403204e+00 -6.239982e-01 -2.616001e-01 -2.393187e-01 -1.115002e+00 -2.356757e-02 1.604094e+00 4.863949e-01 8.264413e-01 -1.387754e+00 -1.013854e+00 1.771863e+00 -5.336453e-02 4.896963e-02 3.457599e-01 2.163464e-01 -1.577400e-01 -1.925053e-01 -1.876512e-01 1.010330e-01 -1.104919e-01 -1.784141e-01 1.828072e-01 2.706235e-01 -2.636647e-02 7.119446e-02 1.913178e-01 2.495034e-01 1.706936e-01 -8.065302e-02 2.969709e-02 -1.915733e-01 -3.197244e-01 -1.551942e-01 1.709666e-02 2.822234e-01 1.911171e-01 -2.875863e-01
<VARIANCE> 39
 9.981869e-02 2.239675e-01 3.506257e-01 2.694304e-01 3.384194e-01 1.276099e+00 8.921695e-01 1.243698e+00 1.060656e+00 7.507436e-01 7.966446e-01 1.110013e+00 1.105372e-01 1.798787e-01 2.483991e-01 5.754336e-01 3.952322e-01 4.755781e-01 5.747439e-01 5.648084e-01 5.834900e-01 4.803892e-01 4.945739e-01 5.892167e-01 6.871622e-01 1.234224e-01 2.377099e-01 2.429302e-01 3.715369e-01 3.422484e-01 3.875353e-01 4.625545e-01 4.772770e-01 4.206168e-01 3.935511e-01 4.173831e-01 4.610015e-01 4.389281e-01 1.933064e-01
<GCONST> 3.751236e+01
<MIXTURE> 2 2.255004e-01
<MEAN> 39
 1.007563e+00 -1.033284e+00 -1.769333e+00 -8.986250e-01 9.087126e-01 -2.595801e-01 8.729300e-01 6.791174e-01 -6.059188e-01 1.735335e+00 -1.225679e+00 -1.852465e+00 1.455947e+00 -5.844408e-02 8.329626e-02 7.172332e-02 2.825358e-02 3.769742e-02 2.016821e-02 -1.236576e-02 -1.900874e-02 -1.407795e-02 -1.048516e-01 -3.563733e-02 1.045503e-01 -9.706137e-02 -1.933480e-02 7.647486e-02 3.344476e-01 1.896255e-01 -1.955891e-01 1.246216e-01 -2.363943e-01 -4.615089e-02 1.266020e-01 -2.267732e-01 2.248733e-01 1.976528e-01 -2.022439e-01
<VARIANCE> 39
 1.356481e-01 3.837206e-01 3.727692e-01 5.576721e-01 4.924924e-01 1.660888e+00 1.044399e+00 1.715075e+00 8.651137e-01 6.892437e-01 1.098477e+00 1.172347e+00 2.547378e-01 2.685607e-01 3.823372e-01 5.719275e-01 6.674338e-01 5.884259e-01 7.291670e-01 6.493816e-01 7.075028e-01 5.577551e-01 5.693815e-01 6.413530e-01 7.020848e-01 3.233166e-01 3.718785e-01 4.328903e-01 5.979837e-01 5.728561e-01 5.772043e-01 6.312895e-01 6.071141e-01 5.844667e-01 4.889045e-01 5.124338e-01 4.900643e-01 5.626200e-01 3.749945e-01
<GCONST> 4.936729e+01
<MIXTURE> 3 2.268982e-01
<MEAN> 39
 7.092165e-01 -1.317216e+00 -2.308566e-01 -4.555628e-03 -5.934302e-01 -5.045413e-01 1.437515e-01 8.502750e-01 7.974904e-01 2.659175e-01 -1.012406e+00 -6.844522e-01 1.505025e+00 7.033104e-02 1.615580e-01 2.042038e-01 2.115525e-01 -5.035901e-02 -1.632722e-01 -2.553802e-01 -1.358794e-01 -2.127784e-01 -2.539679e-02 2.538742e-01 1.297197e-01 -2.140942e-01 9.064742e-02 4.248218e-01 2.035446e-02 1.905502e-01 2.585071e-01 -1.005693e-01 -7.550128e-02 -2.673878e-01 -2.909608e-01 1.112182e-01 6.128065e-02 6.943982e-02 -5.686339e-01
<VARIANCE> 39
 1.901987e-01 5.531554e-01 8.762155e-01 5.136010e-01 5.475124e-01 1.691744e+00 1.101248e+00 1.614863e+00 1.446374e+00 8.988550e-01 1.174863e+00 1.715983e+00 2.231506e-01 2.691041e-01 3.959090e-01 7.042061e-01 5.212724e-01 5.550859e-01 7.062978e-01 7.263731e-01 7.627370e-01 6.437844e-01 6.195468e-01 7.224906e-01 7.833350e-01 2.594472e-01 3.682724e-01 4.264207e-01 4.934098e-01 4.476844e-01 5.148191e-01 6.252005e-01 6.367894e-01 6.698898e-01 5.759987e-01 5.422575e-01 5.867837e-01 6.375002e-01 4.672897e-01
<GCONST> 5.272910e+01
<MIXTURE> 4 2.818985e-01
<MEAN> 39
 8.869701e-01 -1.265656e+00 -1.718938e+00 -9.265491e-01 8.957075e-01 3.060582e-02 8.427420e-01 8.827580e-01 -3.558452e-01 1.429895e+00 -1.325091e+00 -2.195280e+00 1.600774e+00 -3.654687e-02 -2.308612e-02 -1.268150e-02 -2.815201e-02 8.052959e-02 1.109545e-02 2.577113e-02 5.557369e-02 -3.086003e-02 7.790146e-03 -6.330155e-02 -5.423031e-02 4.111820e-02 4.026492e-02 6.638614e-02 9.070764e-02 1.018718e-01 -8.645985e-02 -1.361336e-01 -2.868492e-02 -6.074297e-02 -9.355488e-03 8.812843e-02 5.769071e-02 1.359051e-01 -1.210842e-01
<VARIANCE> 39
 1.662743e-01 2.867955e-01 3.734200e-01 4.004187e-01 4.692713e-01 1.549541e+00 7.548311e-01 1.681550e+00 7.649826e-01 7.174018e-01 9.437447e-01 1.036819e+00 3.423814e-01 1.346853e-01 2.059389e-01 3.226957e-01 3.310609e-01 3.448229e-01 4.720858e-01 4.179827e-01 4.772149e-01 3.688258e-01 3.874623e-01 4.001938e-01 4.347117e-01 1.708979e-01 2.035689e-01 2.183037e-01 3.411879e-01 3.147968e-01 3.696302e-01 4.082962e-01 3.929743e-01 3.897884e-01 3.460680e-01 3.593080e-01 3.371814e-01 4.108731e-01 1.407894e-01
<GCONST> 3.511628e+01
<TRANSP> 7
 0.000000e+00 1.000000e+00 0.000000e+00 0.000000e+00 0.000000e+00 0.000000e+00 0.000000e+00
 0.000000e+00 7.879468e-01 2.120532e-01 0.000000e+00 0.000000e+00 0.000000e+00 0.000000e+00
 0.000000e+00 0.000000e+00 4.610409e-01 5.389591e-01 0.000000e+00 0.000000e+00 0.000000e+00
 0.000000e+00 0.000000e+00 0.000000e+00 5.308694e-01 4.691307e-01 0.000000e+00 0.000000e+00
 0.000000e+00 0.000000e+00 0.000000e+00 0.000000e+00 6.801523e-01 3.198477e-01 0.000000e+00
 0.000000e+00 0.000000e+00 0.000000e+00 0.000000e+00 0.000000e+00 8.618231e-01 1.381769e-01
 0.000000e+00 0.000000e+00 0.000000e+00 0.000000e+00 0.000000e+00 0.000000e+00 0.000000e+00
<ENDHMM>
~h "b"
<BEGINHMM>
<NUMSTATES> 7
<STATE> 2
<NUMMIXES> 4
<MIXTURE> 1 2.031915e-01
<MEAN> 39
 9.318627e-01 5.854066e-02 9.460092e-02 6.317388e-01 2.116972e-01 -4.512410e-01 -4.239440e-01 -2.008011e-01 -1.064959e+00 -3.482763e-01 -1.642684e-01 7.344303e-02 2.120535e-01 -1.234780e+00 1.102126e+00 2.051338e-01 7.167134e-01 1.667400e+00 1.721622e+00 7.047167e-01 -6.659046e-01 -1.336562e-01 -3.477940e-01 -1.558385e-01 1.232815e-02 -3.107597e+00 -1.401797e+00 1.730985e-01 8.734845e-01 2.960322e-01 2.719317e-01 5.256470e-01 6.354975e-01 2.382156e-01 2.242503e-01 -7.565412e-02 -3.929461e-01 -3.462717e-03 -2.685405e-01
<VARIANCE> 39
 1.936647e-01 3.494028e-01 1.189741e+00 9.853402e-01 3.514048e-01 8.987273e-01 7.861795e-01 8.420465e-01 6.893096e-01 1.133433e+00 9.342338e-01 8.597359e-01 1.753922e-01 8.059285e-01 8.661196e-01 3.222672e+00 2.915794e+00 1.212288e+00 1.823689e+00 1.683247e+00 1.484079e+00 1.495741e+00 2.949495e+00 1.283302e+00 1.985535e+00 9.084569e-01 9.739229e-01 9.856179e-01 1.442192e+00 1.039727e+00 1.025106e+00 1.253603e+00 1.139322e+00 1.360945e+00 1.192807e+00 1.232440e+00 1.183865e+00 1.241843e+00 1.199565e+00
<GCONST> 7.329086e+01
<MIXTURE> 2 3.066192e-01
<MEAN> 39
 3.336963e-01 2.945727e-01 -5.052940e-01 -1.375539e-01 2.130793e-01 2.922761e-01 3.816642e-01 -4.976929e-02 -4.184836e-01 1.488886e-01 -8.537423e-02 -1.803049e-01 -4.058902e-01 9.132662e-02 5.093523e-01 2.179404e-01 3.332100e-01 5.122589e-01 3.462384e-01 1.220995e-01 -1.105809e-01 -2.353008e-01 3.071453e-02 -1.779565e-02 -1.477689e-01 -3.804148e-01 1.215727e-01 1.588324e-01 4.643342e-01 3.409138e-01 1.151754e-01 -6.029782e-02 -1.242738e-01 -5.702779e-02 -4.150089e-02 -2.518989e-01 -1.423460e-01 -7.938389e-03 9.855034e-02
<VARIANCE> 39
 6.513116e-01 5.599172e-01 7.977806e-01 6.722397e-01 6.710178e-01 6.775239e-01 8.141137e-01 6.676816e-01 1.177881e+00 9.238152e-01 9.650183e-01 1.204181e+00 7.981646e-01 1.051769e+00 1.113742e+00 1.249529e+00 1.108747e+00 1.036529e+00 1.017879e+00 1.051594e+00 1.117769e+00 1.185199e+00 1.376587e+00 8.761135e-01 1.290393e+00 1.142272e+00 1.045690e+00 9.332521e-01 1.430798e+00 1.069269e+00 1.094138e+00 9.810750e-01 9.178960e-01 1.079029e+00 1.076772e+00 1.341035e+00 8.686262e-01 1.166193e+00 9.190471e-01
<GCONST> 7.085941e+01
<MIXTURE> 3 2.834250e-01
<MEAN> 39
 9.813223e-01 -9.465247e-01 -9.117510e-01 -2.641558e-01 -9.913044e-02 -7.111214e-01 -9.149422e-02 3.287547e-01 1.860041e-01 1.139370e+00 -2.197285e-01 -9.939898e-01 1.210922e+00 4.133974e-01 3.999821e-01 2.504408e-02 2.822195e-01 8.611449e-02 -2.536390e-01 -6.772144e-01 -4.061649e-01 -4.709544e-01 6.288901e-02 7.149882e-01 2.068225e-01 -7.689926e-01 -4.640388e-01 5.819322e-01 2.693000e-01 3.285097e-01 5.285355e-01 6.564571e-01 1.302795e-01 -3.575378e-01 -4.753391e-01 -4.935998e-01 5.968969e-03 3.000441e-01 -1.482660e+00
<VARIANCE> 39
 1.548060e-01 4.571832e-01 1.203252e+00 8.235503e-01 7.142115e-01 1.572438e+00 1.153699e+00 1.471345e+00 1.551657e+00 1.166186e+00 1.225528e+00 2.109549e+00 3.420923e-01 5.693085e-01 8.295396e-01 1.088410e+00 8.974945e-01 8.306878e-01 9.814070e-01 9.478270e-01 1.179128e+00 1.271640e+00 1.139902e+00 1.552545e+00 1.171191e+00 1.059142e+00 9.614887e-01 7.367963e-01 1.223235e+00 8.835247e-01 8.271220e-01 9.985520e-01 8.883823e-01 1.002398e+00 9.790058e-01 1.105314e+00 8.723915e-01 1.107281e+00 1.253528e+00
<GCONST> 6.999118e+01
<MIXTURE> 4 2.067662e-01
<MEAN> 39
 1.285143e+00 -5.554513e-01 -6.366031e-01 1.055928e-01 1.790843e-01 -8.760188e-01 -8.412483e-01 -8.605033e-02 -7.189776e-01 9.102119e-01 4.520748e-01 -5.003648e-01 9.384645e-01 -4.937167e-01 1.287073e+00 7.730715e-01 1.029303e+00 1.042772e+00 1.309353e+00 -2.318621e-05 -1.123881e+00 -9.994941e-01 -1.166891e+00 2.352498e-01 6.544238e-01 -2.861784e+00 -1.963883e+00 3.567472e-01 6.384380e-01 5.308725e-01 7.395486e-01 1.050148e+00 1.294298e+00 3.564450e-01 2.620948e-01 -8.426828e-01 -1.188359e+00 1.193762e-01 -1.722259e+00
<VARIANCE> 39
 1.181092e-01 2.951846e-01 7.423254e-01 5.815758e-01 4.728652e-01 1.020948e+00 8.389220e-01 1.210790e+00 1.375853e+00 1.043509e+00 9.404025e-01 1.106077e+00 1.798723e-01 7.441360e-01 6.504257e-01 1.275177e+00 1.047546e+00 7.832698e-01 1.150658e+00 1.390136e+00 1.475475e+00 1.367223e+00 1.164809e+00 1.282040e+00 1.704197e+00 9.911762e-01 7.866030e-01 5.714362e-01 1.029990e+00 8.171659e-01 9.583586e-01 1.228668e+00 1.002148e+00 1.198604e+00 1.115200e+00 1.459340e+00 1.166140e+00 1.079837e+00 1.039524e+00
<GCONST> 6.700121e+01
<STATE> 3
<NUMMIXES> 4
<MIXTURE> 1 2.484531e-01
<MEAN> 39
 4.511882e-01 3.145437e-01 1.657734e-01 1.074884e+00 1.248199e+00 7.786132e-01 1.530979e-01 -7.327847e-01 -1.317937e+00 -3.341493e-01 -1.543580e-01 2.267570e-01 -5.390505e-01 -1.324245e+00 1.102772e+00 1.095616e+00 1.111489e+00 1.259153e+00 1.100922e+00 7.256200e-01 -2.033531e-01 -2.147146e-01 -6.618033e-01 -4.436009e-01 2.086745e-01 -2.428227e+00 1.035275e+00 -1.761267e-01 -1.246857e-01 -7.829880e-01 -1.207204e+00 -1.372599e+00 -3.242859e-01 8.124610e-01 8.184059e-01 4.451416e-01 -1.595223e-01 -5.269155e-01 1.992166e+00
<VARIANCE> 39
 9.892564e-02 2.537159e-01 4.461991e-01 3.693228e-01 3.445680e-01 4.398008e-01 4.460517e-01 5.624840e-01 6.038067e-01 4.491993e-01 5.402772e-01 6.637393e-01 8.861408e-02 5.073745e-01 6.082243e-01 1.355915e+00 1.124190e+00 8.376626e-01 1.309840e+00 9.607769e-01 9.702569e-01 1.173259e+00 1.807738e+00 1.278008e+00 1.617211e+00 8.475593e-01 6.336415e-01 8.419128e-01 1.366326e+00 1.175207e+00 1.038432e+00 1.059637e+00 1.055491e+00 1.040190e+00 1.069883e+00 1.475198e+00 1.191447e+00 1.274885e+00 9.042457e-01
<GCONST> 5.955463e+01
<MIXTURE> 2 2.396689e-01
<MEAN> 39
 3.428818e-02 7.931057e-01 -4.828271e-02 2.119473e-01 6.187364e-01 3.466330e-01 2.773472e-01 -3.884422e-02 -4.189174e-01 1.420458e-01 -1.502824e-01 -5.065862e-03 -1.142425e+00 -7.307589e-03 9.563630e-01 1.295445e+00 1.139963e+00 8.686761e-01 5.571958e-01 3.384662e-01 1.633214e-01 -1.156278e-01 -5.333553e-01 -4.333580e-01 -1.872740e-01 -4.798185e-01 2.777469e-01 -2.669614e-01 2.795973e-01 2.130308e-01 -1.778376e-01 -1.745641e-01 -1.960485e-01 -2.451034e-01 -1.972391e-01 -4.313458e-01 -3.268707e-01 -1.487001e-01 7.827351e-01
<VARIANCE> 39
 3.111507e-01 2.282490e-01 3.206001e-01 3.464209e-01 2.976709e-01 5.360750e-01 4.482169e-01 5.654818e-01 4.713110e-01 6.379247e-01 5.325719e-01 6.287882e-01 2.792231e-01 1.507120e+00 1.079236e+00 9.447542e-01 9.463220e-01 7.715750e-01 9.242173e-01 8.232921e-01 9.844493e-01 1.034174e+00 1.023253e+00 8.203031e-01 1.046089e+00 1.241996e+00 7.743344e-01 6.196437e-01 9.073958e-01 8.000530e-01 7.554871e-01 1.059069e+00 9.833040e-01 1.217205e+00 9.418055e-01 9.246641e-01 9.237231e-01 1.026372e+00 6.226239e-01
<GCONST> 5.823862e+01
<MIXTURE> 3 2.607419e-01
<MEAN> 39
 5.526440e-01 9.623860e-01 -7.728176e-02 3.046303e-01 6.491688e-01 4.160562e-01 3.505279e-01 -6.577846e-01 -1.035253e+00 -2.804776e-01 -4.263923e-01 -2.631719e-01 -6.460375e-01 -3.897710e-01 5.057085e-01 5.807760e-01 3.716184e-01 2.713058e-01 7.684915e-02 -6.666493e-02 -3.447618e-02 -9.069823e-02 -2.813726e-01 -1.137356e-01 2.502744e-02 -7.676581e-01 -4.564394e-01 -4.281278e-01 1.927006e-01 1.740081e-01 -1.175142e-01 -2.312126e-01 -1.492578e-01 4.639008e-01 4.617962e-01 -2.714090e-03 -2.189279e-03 1.597201e-01 1.494047e-01
<VARIANCE> 39
 3.300799e-01 2.798394e-01 3.491896e-01 3.542933e-01 4.668311e-01 5.283468e-01 5.719090e-01 6.374469e-01 5.844928e-01 6.737929e-01 5.826169e-01 8.803505e-01 2.568246e-01 7.185914e-01 7.135251e-01 6.934305e-01 6.137410e-01 7.965209e-01 7.222608e-01 9.140135e-01 9.978667e-01 9.249578e-01 1.180930e+00 7.783606e-01 1.103243e+00 5.738019e-01 9.512575e-01 7.493956e-01 1.013445e+00 7.692394e-01 7.687102e-01 8.884895e-01 9.669729e-01 9.428745e-01 8.347885e-01 1.430395e+00 8.335053e-01 1.131205e+00 7.338476e-01
<GCONST> 5.779903e+01
<MIXTURE> 4 2.511355e-01
<MEAN> 39
 6.223302e-01 2.806452e-01 1.906337e-01 8.605987e-01 8.226981e-01 2.047222e-01 -2.290615e-01 -3.834760e-01 -9.544440e-01 -4.640922e-01 -3.599885e-01 -5.237630e-02 -2.748251e-01 -1.511951e+00 9.895579e-01 6.690925e-01 7.807161e-01 1.272385e+00 1.368934e+00 9.295091e-01 -1.296920e-01 -2.464652e-03 -5.597693e-01 -6.073307e-01 -1.000760e-01 -2.629521e+00 2.575157e-01 -2.509580e-01 1.096393e-01 -4.002079e-01 -7.059379e-01 -6.174163e-01 6.878799e-02 4.066465e-01 1.527217e-01 3.879813e-01 2.024928e-01 3.095408e-02 1.386798e+00
<VARIANCE> 39
 2.115504e-01 2.478151e-01 6.231952e-01 4.391338e-01 2.711081e-01 4.756626e-01 5.474470e-01 6.095777e-01 6.356017e-01 5.574385e-01 6.812499e-01 7.307945e-01 1.271285e-01 6.950111e-01 8.067846e-01 2.009013e+00 1.743013e+00 1.065089e+00 1.324239e+00 1.200652e+00 1.283324e+00 1.523631e+00 2.341550e+00 1.148079e+00 1.609152e+00 8.856665e-01 1.137543e+00 1.076471e+00 1.715377e+00 1.164816e+00 8.493432e-01 1.022106e+00 1.204425e+00 1.199031e+00 1.249759e+00 1.643187e+00 9.100484e-01 1.466256e+00 1.303555e+00
<GCONST> 6.609887e+01
<STATE> 4
<NUMMIXES> 4
<MIXTURE> 1 2.819890e-01
<MEAN> 39
 2.518971e-01 9.073192e-01 5.409573e-01 1.242997e+00 1.492986e+00 9.490744e-01 4.868762e-01 -7.002223e-01 -1.341166e+00 -5.966284e-01 -4.093230e-01 1.923903e-01 -9.890285e-01 -5.252604e-01 5.184515e-01 5.739549e-01 1.815982e-01 4.059562e-02 -5.545644e-02 1.571461e-01 1.530982e-01 4.175317e-01 -2.431101e-02 -1.774438e-01 3.072046e-03 -7.471906e-01 4.016936e-01 -6.831959e-01 -2.481889e-01 -5.576120e-01 -1.021803e+00 -7.200681e-01 -2.252805e-01 4.901120e-01 5.690104e-01 1.942420e-01 2.379777e-02 -1.437320e-01 1.451926e+00
<VARIANCE> 39
 7.907344e-02 2.040803e-01 2.926117e-01 2.096122e-01 2.920464e-01 4.784116e-01 4.371052e-01 5.556676e-01 3.644664e-01 3.993652e-01 5.415673e-01 8.257366e-01 7.283640e-02 2.877432e-01 9.741403e-01 8.000425e-01 5.472794e-01 6.361172e-01 7.577544e-01 6.738691e-01 7.336847e-01 8.601693e-01 6.945715e-01 9.012166e-01 8.897324e-01 7.415140e-01 5.445998e-01 8.280822e-01 8.409650e-01 6.390014e-01 7.550361e-01 8.849924e-01 8.817641e-01 7.862976e-01 7.608383e-01 9.431162e-01 9.003332e-01 1.000741e+00 9.780801e-01
<GCONST> 4.881231e+01
<MIXTURE> 2 2.157163e-01
<MEAN> 39
 2.830203e-02 3.439691e-01 6.066002e-01 1.141476e+00 9.202259e-01 3.401344e-01 2.392076e-01 1.840070e-01 -4.347028e-01 -6.925333e-01 -5.973766e-01 9.887306e-02 -7.579659e-01 -6.726401e-01 -4.439003e-01 2.186213e-01 -2.285302e-02 -5.086347e-03 3.622524e-01 4.270183e-01 3.541688e-01 5.624363e-01 6.783991e-03 2.522936e-01 1.482297e-01 -1.435047e-01 1.425073e+00 4.782404e-01 -1.094092e+00 -9.259190e-01 -2.729310e-01 -6.050847e-02 -1.867205e-01 -5.555391e-01 -7.455549e-01 7.747003e-01 4.292260e-01 -7.313153e-02 8.020982e-01
<VARIANCE> 39
 1.710656e-01 2.477860e-01 3.466474e-01 3.618481e-01 3.096345e-01 3.823229e-01 4.296304e-01 5.733492e-01 4.456478e-01 6.414883e-01 5.783914e-01 8.061631e-01 1.861248e-01 6.517859e-01 1.252908e+00 1.084732e+00 8.716763e-01 8.964874e-01 1.060564e+00 8.929496e-01 1.006132e+00 9.237339e-01 1.157650e+00 8.857740e-01 1.270410e+00 1.087132e+00 9.773520e-01 1.353163e+00 1.906470e+00 9.810674e-01 1.101284e+00 1.186629e+00 9.837481e-01 1.017056e+00 9.741464e-01 1.587648e+00 9.963524e-01 1.483613e+00 1.936999e+00
<GCONST> 6.172319e+01
<MIXTURE> 3 3.277556e-01
<MEAN> 39
 1.762363e-01 1.202665e+00 7.587854e-01 1.117002e+00 1.170573e+00 7.298521e-01 4.797377e-01 -3.157750e-01 -9.106227e-01 -6.711646e-01 -9.271232e-01 -5.150789e-01 -1.106681e+00 -4.128251e-01 6.461574e-01 5.630574e-01 2.005953e-01 9.169400e-02 -6.936760e-02 2.370709e-01 2.207583e-01 1.616654e-01 -1.611178e-01 -3.384920e-01 -2.516791e-01 -7.334689e-01 3.435770e-01 -1.134862e+00 -5.205869e-01 -2.840415e-01 -6.576507e-01 -4.570467e-01 -4.164936e-01 -4.452412e-02 -1.489684e-03 1.834122e-01 7.504333e-01 6.321033e-01 1.617372e+00
<VARIANCE> 39
 6.938160e-02 1.738386e-01 2.614619e-01 2.801642e-01 2.299723e-01 4.051257e-01 3.206466e-01 4.393429e-01 2.922102e-01 4.163565e-01 4.963497e-01 5.258096e-01 9.029400e-02 3.290629e-01 7.608516e-01 9.215710e-01 6.682313e-01 7.058241e-01 8.611348e-01 8.266894e-01 9.404912e-01 9.871847e-01 7.883068e-01 8.740547e-01 1.031202e+00 5.616907e-01 5.605343e-01 8.493345e-01 1.068942e+00 6.974050e-01 7.374472e-01 1.011913e+00 7.929482e-01 8.630924e-01 8.630405e-01 8.587822e-01 8.911384e-01 8.783436e-01 9.427966e-01
<GCONST> 4.859597e+01
<MIXTURE> 4 1.745401e-01
<MEAN> 39
 1.899504e-01 9.605043e-01 4.084181e-01 6.520794e-01 6.757618e-01 6.334259e-02 -1.052690e-02 -1.484142e-01 -6.663653e-01 -2.520706e-01 -6.055974e-01 -2.807602e-01 -9.649503e-01 1.240421e-01 2.022570e-01 3.847992e-01 4.178746e-01 2.495488e-01 1.125599e-01 -1.462565e-02 -7.282327e-02 -2.606322e-01 -3.860370e-01 -1.261726e-01 -1.419805e-02 1.057618e-01 -3.439793e-01 -8.716795e-01 -7.441070e-01 -4.878331e-01 -2.623898e-01 1.749380e-01 1.988568e-01 1.151901e-01 2.186070e-01 3.185223e-01 3.545544e-01 2.495577e-01 4.010235e-01
<VARIANCE> 39
 3.289678e-01 4.313482e-01 5.286826e-01 4.172854e-01 3.454376e-01 4.890208e-01 4.989453e-01 8.962415e-01 7.510357e-01 8.007801e-01 5.958480e-01 9.795741e-01 4.434347e-01 1.003429e+00 1.164683e+00 9.388263e-01 9.701318e-01 7.058334e-01 8.876696e-01 9.639789e-01 1.298660e+00 1.207577e+00 1.058834e+00 8.932800e-01 1.206376e+00 8.966025e-01 1.842148e+00 1.104790e+00 1.261412e+00 1.010675e+00 1.043069e+00 1.088310e+00 1.008432e+00 1.264764e+00 1.284856e+00 1.281878e+00 8.961330e-01 1.426256e+00 1.783369e+00
<GCONST> 6.644738e+01
<STATE> 5
<NUMMIXES> 4
<MIXTURE> 1 2.849991e-01
<MEAN> 39
 2.626393e-02 1.412761e+00 9.473659e-01 1.185599e+00 1.048055e+00 5.324712e-01 5.938600e-01 7.636140e-02 -6.575541e-01 -2.918630e-01 -8.483943e-01 -3.436721e-01 -1.478607e+00 -1.457254e-01 -2.883910e-01 -6.981354e-02 6.090247e-02 -8.270688e-03 -7.135556e-03 -3.650562e-03 2.393503e-02 1.004843e-01 -4.556369e-03 1.536818e-01 2.164326e-01 1.547524e-01 -2.147389e-02 -6.531741e-01 -3.461708e-01 -2.262700e-01 -1.219858e-01 6.718380e-02 -1.087453e-01 -1.696882e-01 3.098771e-02 1.063312e-01 3.147300e-01 2.133404e-01 7.292078e-01
<VARIANCE> 39
 5.886856e-02 1.532605e-01 1.452439e-01 2.174874e-01 1.899283e-01 3.913426e-01 2.495417e-01 5.000722e-01 3.241461e-01 5.209094e-01 5.215740e-01 6.064147e-01 7.174716e-02 1.665854e-01 5.259830e-01 4.697879e-01 4.702325e-01 4.145370e-01 5.520710e-01 5.469264e-01 6.321192e-01 6.239524e-01 6.133124e-01 7.084562e-01 7.599325e-01 3.197243e-01 2.615079e-01 4.543130e-01 6.668155e-01 5.699988e-01 5.981379e-01 6.828762e-01 6.980512e-01 7.785664e-01 7.726212e-01 6.943300e-01 8.761261e-01 8.849891e-01 4.297725e-01
<GCONST> 3.774329e+01
<MIXTURE> 2 2.316201e-01
<MEAN> 39
 9.210582e-03 6.496601e-01 5.029637e-01 1.029343e+00 1.110984e+00 7.216635e-01 4.635906e-01 -2.680346e-01 -8.002129e-01 -4.621515e-01 -3.381506e-01 1.404649e-01 -9.385122e-01 -4.036931e-02 -1.232255e+00 -5.359060e-01 -2.477367e-01 -2.652956e-01 -8.818421e-02 -2.004847e-01 -9.299128e-02 6.486730e-02 -3.668323e-03 6.731565e-01 7.390046e-01 1.274796e+00 8.083761e-01 -3.245690e-02 -3.728203e-01 -4.550276e-01 -4.565109e-01 -3.151019e-01 -8.293441e-02 9.986123e-02 4.436260e-02 3.291605e-01 -3.824759e-02 -1.524463e-01 1.300658e+00
<VARIANCE> 39
 1.584432e-01 2.367125e-01 3.488370e-01 2.799737e-01 2.211791e-01 4.393370e-01 3.337248e-01 6.078354e-01 4.460641e-01 5.125748e-01 5.063222e-01 7.183260e-01 1.472612e-01 3.795145e-01 8.435570e-01 9.273143e-01 6.840537e-01 6.705221e-01 7.838246e-01 7.764722e-01 9.106094e-01 9.212328e-01 9.175054e-01 8.438096e-01 1.000069e+00 7.229616e-01 8.190913e-01 1.129570e+00 1.304621e+00 8.196560e-01 7.360709e-01 9.930047e-01 9.014458e-01 9.638019e-01 8.769728e-01 1.227603e+00 9.556932e-01 1.209423e+00 1.631356e+00
<GCONST> 5.473550e+01
<MIXTURE> 3 2.927198e-01
<MEAN> 39
 -4.381499e-02 1.339469e+00 5.703265e-01 6.580286e-01 8.197990e-01 5.250362e-01 4.339779e-01 -2.771659e-01 -5.170604e-01 8.832762e-02 -3.644135e-01 -2.864870e-01 -1.351130e+00 -1.036741e-01 -2.686009e-04 2.248122e-01 2.842128e-01 1.058608e-01 -5.228267e-02 -1.177952e-02 7.845027e-02 1.053022e-02 -2.021049e-01 -1.178019e-01 -6.720833e-02 -1.061174e-01 -1.416815e-01 -6.009954e-01 3.265807e-02 1.380457e-01 -5.868140e-02 -3.933123e-02 1.966605e-02 1.768726e-01 1.198415e-01 -3.260604e-01 -4.470775e-02 2.283669e-01 4.572714e-01
<VARIANCE> 39
 5.498753e-02 1.245561e-01 1.958638e-01 2.114569e-01 1.877051e-01 3.248432e-01 2.990059e-01 4.467269e-01 2.839778e-01 5.519942e-01 4.383807e-01 7.203596e-01 1.008434e-01 1.645066e-01 6.214104e-01 5.133197e-01 4.885527e-01 4.482148e-01 5.589115e-01 6.128423e-01 6.618495e-01 6.279488e-01 7.486843e-01 7.231900e-01 9.215260e-01 4.050783e-01 3.368208e-01 4.189975e-01 8.482941e-01 6.617321e-01 5.819497e-01 6.710696e-01 7.745847e-01 7.350408e-01 7.041318e-01 9.283099e-01 8.502315e-01 9.827377e-01 2.662776e-01
<GCONST> 3.941751e+01
<MIXTURE> 4 1.906533e-01
<MEAN> 39
 -1.418887e-01 3.922138e-01 4.382335e-01 6.436802e-01 6.293809e-01 5.119118e-01 4.901245e-01 6.788828e-02 -1.764714e-01 -2.817555e-01 -1.269483e-01 2.838066e-01 -8.010225e-01 4.311772e-01 2.844368e-01 -1.079234e+00 -9.130709e-01 -9.263853e-02 2.961350e-01 1.266186e-01 -3.580233e-01 -4.151592e-01 9.256429e-01 3.802412e-01 -8.816229e-02 8.479565e-02 4.459070e-01 9.596717e-01 -2.793444e-02 3.717498e-01 5.820413e-01 -6.683513e-02 -1.227992e-01 -3.448873e-01 -6.648782e-01 1.450891e-01 -3.149579e-01 -2.944162e-01 -5.885500e-01
<VARIANCE> 39
 9.050541e-02 2.423190e-01 2.846781e-01 3.043391e-01 1.889540e-01 2.884202e-01 2.573637e-01 5.248933e-01 2.785295e-01 6.928344e-01 4.406018e-01 5.449918e-01 1.202152e-01 3.552376e-01 1.175970e+00 7.431349e-01 6.310317e-01 6.595639e-01 6.585793e-01 6.602488e-01 8.129734e-01 8.035260e-01 1.143653e+00 6.521950e-01 9.125842e-01 8.312241e-01 9.875132e-01 1.369582e+00 1.694077e+00 1.092638e+00 7.651677e-01 8.675491e-01 8.238996e-01 1.024400e+00 9.579797e-01 1.863072e+00 7.435745e-01 1.023906e+00 1.279465e+00
<GCONST> 5.232662e+01
<STATE> 6
<NUMMIXES> 4
<MIXTURE> 1 2.252190e-01
<MEAN> 39
 1.783088e-01 3.008437e-01 5.658561e-02 7.300844e-01 9.169463e-01 5.204221e-01 2.589974e-01 -3.992158e-01 -8.932357e-01 -2.234577e-01 3.903466e-02 4.197004e-01 -4.489384e-01 9.862858e-01 -5.314799e-01 -3.536088e-01 -2.137072e-02 -2.261461e-01 -4.063508e-01 -5.011758e-02 3.033349e-01 -6.017172e-02 9.600098e-02 -1.975337e-01 -9.689320e-02 2.237602e+00 1.080746e+00 2.184519e-01 2.901544e-01 -1.228450e-01 -3.004436e-01 -2.103736e-01 1.472219e-01 5.090995e-01 3.353386e-01 8.564190e-02 -4.415596e-01 -4.431794e-01 1.444250e+00
<VARIANCE> 39
 2.142605e-01 2.746661e-01 3.814616e-01 3.564077e-01 2.883011e-01 4.716273e-01 4.342222e-01 6.633256e-01 5.608069e-01 5.299789e-01 5.103975e-01 6.919672e-01 2.748997e-01 8.962644e-01 9.157596e-01 1.427361e+00 1.231984e+00 9.675988e-01 1.110529e+00 1.009532e+00 1.193950e+00 1.235157e+00 1.394783e+00 1.026252e+00 1.209186e+00 1.842453e+00 1.335617e+00 1.206807e+00 1.425038e+00 1.259151e+00 1.108733e+00 1.149724e+00 1.196326e+00 1.334687e+00 1.342811e+00 1.480439e+00 1.029786e+00 1.272971e+00 1.877737e+00
<GCONST> 6.542065e+01
<MIXTURE> 2 2.791069e-01
<MEAN> 39
 -1.007059e+00 1.676431e-01 -4.622709e-01 -5.847647e-01 6.086849e-01 7.275639e-01 1.672188e-01 -1.221606e-01 -1.428859e-01 -1.226838e-01 5.723699e-01 5.393097e-01 -1.388200e+00 -1.042644e-01 -2.148045e-01 2.069900e-01 3.155983e-01 8.409062e-02 -4.573141e-02 2.870541e-02 2.818176e-01 2.012175e-01 -2.195096e-01 1.664084e-02 2.685776e-01 1.668984e-01 4.131248e-02 -3.155871e-01 -2.497870e-02 -1.119260e-02 -2.271478e-01 -1.449626e-01 -6.601519e-02 2.239835e-02 3.120632e-01 -9.177521e-03 1.681462e-01 1.278403e-01 4.152648e-01
<VARIANCE> 39
 3.959917e-02 1.100045e-01 3.245852e-01 1.687806e-01 4.697116e-01 5.906797e-01 3.095359e-01 9.289846e-01 5.050628e-01 2.996953e-01 8.483205e-01 1.134323e+00 7.947391e-02 2.007060e-01 6.819671e-01 5.293302e-01 5.763861e-01 5.679888e-01 8.655911e-01 7.122316e-01 8.476845e-01 6.478373e-01 8.257257e-01 8.284330e-01 1.025185e+00 4.291786e-01 4.716137e-01 6.992840e-01 7.116770e-01 7.197570e-01 8.205286e-01 9.710052e-01 9.613227e-01 1.067532e+00 8.242270e-01 9.177620e-01 9.694233e-01 1.011797e+00 2.604930e-01
<GCONST> 4.670088e+01
<MIXTURE> 3 3.507786e-01
<MEAN> 39
 -9.196505e-01 2.504383e-01 -6.370176e-01 -9.056203e-01 8.207817e-02 4.171158e-01 2.426420e-01 4.836756e-03 2.393844e-01 4.018561e-01 2.853686e-01 -5.055596e-02 -1.489204e+00 -8.728235e-02 1.302066e-01 1.183069e-01 3.719596e-02 1.312543e-02 -3.318316e-02 -4.581046e-02 -2.790559e-02 -2.714765e-02 6.953184e-03 -1.782157e-01 -1.854520e-01 -2.571082e-01 -1.173347e-01 -2.573984e-01 1.481176e-01 2.733251e-01 1.248828e-01 3.346437e-02 -2.357770e-03 6.189167e-02 -1.091567e-02 -3.353636e-01 -9.388179e-02 1.642810e-01 2.167972e-01
<VARIANCE> 39
 4.688484e-02 8.607961e-02 3.204325e-01 1.588639e-01 2.294499e-01 3.805517e-01 2.859440e-01 5.345065e-01 2.732511e-01 3.499517e-01 5.321617e-01 5.256754e-01 5.858387e-02 1.404232e-01 2.862231e-01 5.104196e-01 5.160672e-01 5.562586e-01 6.737674e-01 7.734385e-01 9.186261e-01 7.640189e-01 8.515393e-01 8.298638e-01 1.254868e+00 2.157252e-01 3.678412e-01 3.875638e-01 8.351591e-01 6.825774e-01 7.549042e-01 7.949711e-01 9.298017e-01 1.055665e+00 1.007696e+00 9.914097e-01 9.586616e-01 1.285977e+00 1.884062e-01
<GCONST> 4.011739e+01
<MIXTURE> 4 1.448886e-01
<MEAN> 39
 -1.031570e+00 -5.158624e-01 -5.472841e-01 -3.802194e-01 1.447261e-01 2.172808e-01 1.971965e-01 1.930211e-01 4.478006e-01 -3.939713e-01 5.927948e-01 1.062349e+00 -9.478821e-01 3.489477e-01 4.783481e-02 -7.733622e-01 -7.993347e-01 -2.801688e-01 1.298440e-01 5.723327e-02 -4.936094e-01 -3.182514e-01 4.726400e-01 3.879665e-01 -1.066617e-01 3.121994e-01 3.967789e-01 1.368399e+00 -1.752306e-01 -4.789314e-01 2.338074e-01 2.046402e-01 1.076612e-01 -2.166750e-01 -6.577083e-01 7.876067e-01 -1.802237e-01 -7.171788e-01 -1.226207e+00
<VARIANCE> 39
 6.641690e-02 1.259835e-01 3.070319e-01 2.583326e-01 2.719959e-01 3.225552e-01 2.838921e-01 5.182037e-01 3.911220e-01 2.867917e-01 6.110781e-01 4.266646e-01 6.102815e-02 3.273544e-01 1.748863e+00 6.344389e-01 7.132308e-01 4.182152e-01 5.897481e-01 5.104538e-01 6.376045e-01 1.021602e+00 1.255609e+00 6.579561e-01 9.561716e-01 7.051149e-01 8.905467e-01 1.115956e+00 1.521571e+00 1.303156e+00 5.253687e-01 6.737140e-01 7.320212e-01 9.543636e-01 9.830636e-01 1.163222e+00 7.686375e-01 8.979675e-01 5.007223e-01
<GCONST> 4.759690e+01
<TRANSP> 7
 0.000000e+00 1.000000e+00 0.000000e+00 0.000000e+00 0.000000e+00 0.000000e+00 0.000000e+00
 0.000000e+00 6.760082e-01 3.239918e-01 0.000000e+00 0.000000e+00 0.000000e+00 0.000000e+00
 0.000000e+00 0.000000e+00 5.897398e-01 4.102602e-01 0.000000e+00 0.000000e+00 0.000000e+00
 0.000000e+00 0.000000e+00 0.000000e+00 6.665950e-01 3.334050e-01 0.000000e+00 0.000000e+00
 0.000000e+00 0.000000e+00 0.000000e+00 0.000000e+00 8.783467e-01 1.216532e-01 0.000000e+00
 0.000000e+00 0.000000e+00 0.000000e+00 0.000000e+00 0.000000e+00 8.855948e-01 1.144052e-01
 0.000000e+00 0.000000e+00 0.000000e+00 0.000000e+00 0.000000e+00 0.000000e+00 0.000000e+00
<ENDHMM>
~h "d"
<BEGINHMM>
<NUMSTATES> 7
<STATE> 2
<NUMMIXES> 4
<MIXTURE> 1 2.294807e-01
<MEAN> 39
 -5.584188e-01 4.834074e-01 1.746666e-01 6.701546e-02 4.133244e-01 1.458789e-01 3.616241e-01 -8.277066e-03 -5.416471e-01 2.010238e-01 -1.709974e-01 2.293731e-01 -7.092761e-01 2.365340e-01 5.524631e-01 1.844151e-01 2.253312e-01 4.483882e-01 3.328489e-01 2.434300e-01 -9.588157e-02 -2.612337e-01 1.103612e-01 3.846383e-03 -2.153608e-01 -3.383518e-01 3.133196e-01 3.456433e-01 6.630462e-01 5.891276e-01 2.602840e-01 -1.322696e-01 -1.862032e-01 -7.171527e-02 -2.794529e-01 -4.598846e-01 -3.763766e-01 -1.700441e-01 5.167900e-01
<VARIANCE> 39
 5.089892e-01 5.685723e-01 7.595938e-01 6.403870e-01 5.571593e-01 6.509064e-01 5.578150e-01 8.085985e-01 5.584632e-01 7.140133e-01 7.462940e-01 7.908276e-01 5.898467e-01 1.186491e+00 1.063669e+00 1.602492e+00 1.397406e+00 8.721909e-01 1.050946e+00 1.054406e+00 1.209092e+00 1.127442e+00 1.257080e+00 9.018604e-01 1.030939e+00 1.849024e+00 1.213939e+00 1.189333e+00 1.434333e+00 1.169575e+00 1.112821e+00 1.090185e+00 1.077726e+00 1.201967e+00 1.188537e+00 1.247577e+00 9.785338e-01 1.085844e+00 1.683254e+00
<GCONST> 7.032874e+01
<MIXTURE> 2 2.727181e-01
<MEAN> 39
 7.874375e-01 -5.704044e-01 6.654179e-01 6.323530e-01 -7.586847e-01 -1.053237e+00 -1.010880e+00 -1.151820e-01 -3.176560e-02 -3.690424e-02 -3.421999e-01 6.551258e-02 1.018270e+00 -1.060592e-01 2.213211e-01 5.378438e-01 1.700272e-01 8.663462e-02 -3.701286e-02 -2.481134e-01 -6.990458e-02 -1.089102e-01 -3.208359e-01 -3.020021e-01 7.283869e-02 -2.479005e-01 -2.634569e-01 3.384897e-01 -4.164206e-02 6.853186e-02 4.623716e-01 2.242647e-01 1.940238e-01 -6.067654e-02 -2.343528e-01 -4.962448e-03 -1.495303e-01 -5.558509e-02 -8.400562e-01
<VARIANCE> 39
 2.059568e-01 4.511287e-01 1.206375e+00 5.797070e-01 6.195562e-01 7.953673e-01 8.093110e-01 1.342564e+00 1.396189e+00 1.303455e+00 9.537072e-01 1.440807e+00 2.533735e-01 2.893960e-01 5.247111e-01 7.963569e-01 5.602579e-01 5.594773e-01 7.313910e-01 6.022215e-01 7.615708e-01 6.474413e-01 5.892585e-01 6.425700e-01 7.216151e-01 7.471455e-01 3.973660e-01 4.221975e-01 7.136974e-01 4.817621e-01 5.918911e-01 6.355581e-01 6.055200e-01 7.207602e-01 6.558826e-01 5.626995e-01 5.631397e-01 6.945677e-01 7.745188e-01
<GCONST> 5.462328e+01
<MIXTURE> 3 2.423953e-01
<MEAN> 39
 7.822852e-01 -5.530176e-01 4.569303e-01 3.706837e-01 -3.430058e-01 -1.611985e+00 -1.291607e+00 4.492610e-01 -4.099593e-01 2.244206e-01 -8.942225e-01 1.217765e-01 1.227291e+00 -2.408883e-01 7.875921e-01 1.018716e+00 8.416340e-01 7.462602e-01 3.385586e-01 -3.313234e-01 -8.986970e-01 -4.873008e-01 -7.155282e-01 -5.000604e-01 -1.499245e-01 -1.784000e+00 -9.441708e-01 2.896079e-01 -2.367114e-01 3.227648e-01 8.140668e-01 1.241536e+00 9.923143e-01 -1.129398e-01 -1.094646e-01 -7.927565e-02 9.530815e-02 -2.909795e-01 -2.091154e+00
<VARIANCE> 39
 1.892145e-01 3.779867e-01 8.186644e-01 5.953447e-01 5.780900e-01 9.200681e-01 6.376552e-01 1.204549e+00 1.696063e+00 1.305950e+00 8.509711e-01 1.266787e+00 2.238683e-01 3.499526e-01 5.215468e-01 9.059106e-01 7.129664e-01 7.724437e-01 9.759856e-01 1.038324e+00 1.184186e+00 1.026703e+00 8.980916e-01 8.939070e-01 1.240097e+00 8.870816e-01 7.430720e-01 5.462109e-01 9.390307e-01 7.616619e-01 8.599817e-01 1.023276e+00 9.884227e-01 9.630401e-01 1.237137e+00 1.054836e+00 8.937436e-01 1.289405e+00 8.439014e-01
<GCONST> 6.331171e+01
<MIXTURE> 4 2.554111e-01
<MEAN> 39
 5.791198e-01 4.806099e-01 4.382168e-01 2.200599e-01 1.635543e-02 -1.391790e-01 -1.026449e-01 -6.891044e-01 -1.065443e+00 -1.865517e-01 -5.744848e-01 2.388079e-02 2.498477e-01 -2.418916e-01 7.159649e-02 5.438495e-01 6.168587e-01 1.307527e-01 -3.080755e-01 -3.578517e-01 2.025216e-02 1.137848e-01 -3.320172e-01 -1.531748e-01 -2.196585e-02 -7.201523e-01 -6.958944e-01 -1.521917e-01 -3.202014e-01 -1.181940e-01 2.859221e-01 3.083104e-01 3.277505e-01 4.062779e-01 6.664655e-02 3.400655e-02 1.991243e-01 1.718799e-01 -5.964082e-01
<VARIANCE> 39
 4.879309e-01 5.373781e-01 1.602132e+00 1.591553e+00 9.009150e-01 1.236800e+00 1.026257e+00 1.247881e+00 9.170797e-01 1.276080e+00 8.935277e-01 1.182480e+00 4.136545e-01 1.768773e+00 1.270808e+00 2.044325e+00 2.396052e+00 1.560949e+00 1.373757e+00 1.359864e+00 1.566922e+00 1.203058e+00 1.559661e+00 1.173592e+00 1.363276e+00 2.855717e+00 1.394965e+00 1.115950e+00 1.720768e+00 1.621730e+00 1.240314e+00 1.314646e+00 1.278508e+00 1.422992e+00 1.093941e+00 1.381505e+00 1.012153e+00 1.313463e+00 1.432541e+00
<GCONST> 8.063988e+01
<STATE> 3
<NUMMIXES> 4
<MIXTURE> 1 2.934096e-01
<MEAN> 39
 3.046226e-01 8.671759e-02 1.362611e+00 1.155112e+00 1.762364e-01 -7.459408e-01 -8.764524e-01 -1.352168e-01 -8.748080e-01 -9.112971e-01 -1.203325e+00 1.681763e-01 2.282343e-01 -1.217191e+00 6.357277e-01 -5.583997e-01 1.144384e-01 1.597250e+00 1.768174e+00 1.476169e+00 6.960237e-02 3.337367e-02 4.562921e-01 2.249592e-01 -3.058244e-01 -3.000350e+00 -3.931067e-01 7.769072e-02 -7.010778e-01 -3.847519e-01 3.609963e-02 3.248229e-01 5.453899e-01 2.116338e-01 6.144716e-02 6.878501e-01 6.962850e-01 8.208235e-02 2.984940e-02
<VARIANCE> 39
 1.550429e-01 3.315305e-01 5.448479e-01 3.190845e-01 3.853251e-01 8.220744e-01 5.424032e-01 8.879935e-01 5.726826e-01 7.118257e-01 6.168090e-01 1.143722e+00 2.320682e-01 6.014589e-01 7.647633e-01 1.795602e+00 1.149014e+00 1.042712e+00 1.595057e+00 1.111849e+00 1.205616e+00 1.475976e+00 1.467629e+00 9.669049e-01 1.506558e+00 1.259609e+00 6.071536e-01 6.592273e-01 1.024305e+00 7.903274e-01 8.124695e-01 1.224166e+00 8.967211e-01 1.236062e+00 9.305578e-01 9.827378e-01 8.466748e-01 1.342242e+00 1.515695e+00
<GCONST> 6.392677e+01
<MIXTURE> 2 2.409861e-01
<MEAN> 39
 -3.146543e-01 8.401897e-01 3.689196e-01 3.085110e-01 6.689030e-01 3.118497e-01 4.313609e-01 -2.890803e-01 -8.352758e-01 1.894493e-02 -3.917426e-01 3.775658e-02 -7.798593e-01 -1.376598e-01 5.905275e-01 4.103475e-01 6.471739e-01 8.412421e-01 3.988459e-01 2.228300e-01 2.829615e-02 -3.496673e-01 -1.744204e-01 -1.598535e-01 -2.398756e-01 -6.269380e-01 -7.168332e-02 -2.635316e-01 2.644293e-01 1.710117e-01 -1.728160e-01 -3.173273e-01 -2.554624e-01 1.367257e-01 7.636088e-02 -3.276816e-01 -2.896260e-01 -9.078460e-03 7.810868e-01
<VARIANCE> 39
 4.577313e-01 4.244612e-01 6.562805e-01 5.559332e-01 3.972801e-01 6.366144e-01 5.178116e-01 7.596854e-01 5.393813e-01 6.451651e-01 7.142332e-01 7.489588e-01 4.040792e-01 1.329556e+00 1.180767e+00 1.539201e+00 1.404288e+00 8.445788e-01 1.066676e+00 9.940743e-01 1.182319e+00 1.164337e+00 1.182301e+00 1.013443e+00 1.244261e+00 1.582616e+00 8.325679e-01 8.145178e-01 9.783812e-01 9.426019e-01 7.222769e-01 9.600294e-01 9.510767e-01 1.138024e+00 1.057094e+00 1.020003e+00 9.589363e-01 9.546211e-01 1.019681e+00
<GCONST> 6.567513e+01
<MIXTURE> 3 2.541872e-01
<MEAN> 39
 5.761001e-01 -9.251647e-02 1.256810e+00 9.589946e-01 -3.009000e-01 -1.124660e+00 -1.346958e+00 -3.666009e-01 -3.291496e-01 -7.833394e-01 -1.097416e+00 3.592374e-01 7.265439e-01 -1.071550e+00 8.779234e-01 2.643662e-01 5.031573e-01 1.553322e+00 1.230553e+00 8.399784e-01 -1.539500e-01 -5.318967e-01 -2.450661e-01 -4.821324e-01 -2.919711e-01 -2.792414e+00 -1.003068e+00 1.781919e-02 -1.298579e+00 -3.181904e-01 7.805470e-01 1.153695e+00 1.436572e+00 4.544626e-01 -1.680429e-01 7.822180e-01 7.259610e-01 -2.335917e-01 -1.503500e+00
<VARIANCE> 39
 1.613099e-01 3.142997e-01 6.827930e-01 4.738810e-01 4.470159e-01 9.146474e-01 5.632538e-01 9.874331e-01 1.294080e+00 7.849208e-01 5.836649e-01 1.108890e+00 2.053138e-01 4.661359e-01 6.050609e-01 1.402607e+00 1.033554e+00 8.936868e-01 1.313732e+00 1.101174e+00 1.567322e+00 1.748383e+00 9.708809e-01 9.390121e-01 1.139811e+00 9.787571e-01 6.236737e-01 7.173811e-01 1.145962e+00 9.891246e-01 8.897188e-01 1.401778e+00 9.319128e-01 1.080666e+00 1.270289e+00 9.732864e-01 8.486497e-01 1.316816e+00 1.059699e+00
<GCONST> 6.440101e+01
<MIXTURE> 4 2.114193e-01
<MEAN> 39
 7.683142e-01 3.914244e-01 -1.838393e-01 -2.490610e-01 5.129586e-01 2.715241e-01 -2.614040e-01 -1.005567e+00 -1.100606e+00 4.540920e-01 -4.835206e-01 -2.735310e-01 7.476103e-02 -1.551346e+00 5.788613e-01 1.409314e+00 1.978739e+00 1.003311e+00 3.373309e-01 1.647883e-01 -1.531814e-02 -3.688352e-01 -1.319772e+00 -2.508547e-01 2.469784e-01 -2.538428e+00 -6.212710e-01 -2.583547e-01 -1.162407e-01 -7.774910e-02 1.165737e-01 1.510771e-01 6.210697e-01 7.050696e-01 1.667799e-01 -7.041162e-02 9.724850e-02 3.953133e-01 3.805683e-01
<VARIANCE> 39
 2.158073e-01 3.941604e-01 4.568987e-01 8.765203e-01 5.310922e-01 1.065390e+00 9.754139e-01 9.835777e-01 8.198302e-01 7.186641e-01 9.135748e-01 1.025695e+00 2.740057e-01 8.184283e-01 8.664551e-01 1.128955e+00 2.069450e+00 1.116368e+00 1.535007e+00 1.281234e+00 1.708807e+00 1.686649e+00 1.496288e+00 1.255066e+00 1.541997e+00 1.615554e+00 1.324744e+00 8.431596e-01 1.177314e+00 1.453077e+00 9.470962e-01 1.044153e+00 1.062535e+00 1.343241e+00 1.086983e+00 1.273234e+00 1.226788e+00 1.211270e+00 1.756293e+00
<GCONST> 7.196729e+01
<STATE> 4
<NUMMIXES> 4
<MIXTURE> 1 2.509578e-01
<MEAN> 39
 1.753073e-02 2.359858e-01 1.049793e+00 1.139818e+00 8.495439e-01 1.787872e-01 -1.684929e-01 -1.811579e-01 -8.244462e-01 -4.282275e-01 -7.466577e-01 1.624404e-01 -3.606720e-01 -1.233316e+00 8.236922e-01 -4.527268e-01 1.285602e-01 1.374051e+00 1.445682e+00 1.448286e+00 1.507756e-01 -1.702693e-01 5.355809e-01 5.667193e-01 -1.305406e-01 -2.533601e+00 5.188280e-01 1.317748e-02 8.622056e-02 -4.344665e-01 -9.958450e-01 -1.095977e+00 -6.033978e-01 2.077663e-01 2.654161e-01 -1.122622e-01 -1.111458e-01 2.440293e-02 2.038629e+00
<VARIANCE> 39
 1.042221e-01 2.828035e-01 3.075331e-01 2.458841e-01 3.167152e-01 5.528105e-01 4.194827e-01 6.397468e-01 4.353369e-01 4.285223e-01 5.507512e-01 6.292760e-01 1.498107e-01 6.069807e-01 6.961097e-01 1.406210e+00 1.076522e+00 9.901053e-01 1.537828e+00 1.035725e+00 1.371694e+00 1.524540e+00 1.235439e+00 1.002175e+00 1.579415e+00 1.060518e+00 6.922363e-01 8.847154e-01 1.068518e+00 7.709272e-01 8.501023e-01 1.167662e+00 9.514998e-01 1.110400e+00 1.174696e+00 9.415637e-01 9.575435e-01 9.559867e-01 1.401969e+00
<GCONST> 5.906540e+01
<MIXTURE> 2 2.183994e-01
<MEAN> 39
 1.417083e-01 7.034042e-01 2.470184e-01 3.490986e-01 1.255418e+00 8.934793e-01 2.461593e-01 -9.222635e-01 -1.530742e+00 -2.990666e-01 -1.603088e-01 5.680050e-01 -6.018395e-01 -1.313676e+00 2.434012e-01 1.045548e+00 1.217203e+00 5.820639e-01 -2.103277e-01 2.005592e-01 4.521105e-01 1.834478e-01 -4.627481e-01 -1.649896e-01 6.352459e-02 -1.271645e+00 7.673315e-01 -3.895585e-01 -5.000717e-01 -1.091344e+00 -9.519665e-01 -6.800607e-01 -2.714193e-01 4.497488e-01 8.181335e-01 6.492284e-01 -3.701635e-01 -4.773896e-01 2.279769e+00
<VARIANCE> 39
 1.955948e-01 2.671191e-01 3.720779e-01 4.656855e-01 3.978943e-01 5.610011e-01 4.106557e-01 5.744594e-01 4.777046e-01 5.457178e-01 6.214918e-01 8.164189e-01 1.290988e-01 7.897887e-01 1.109576e+00 1.192038e+00 1.602018e+00 1.025080e+00 1.217681e+00 1.141386e+00 1.300693e+00 1.156767e+00 1.338770e+00 1.252897e+00 1.469468e+00 1.338323e+00 1.004601e+00 9.545881e-01 1.509564e+00 1.472632e+00 9.642196e-01 1.292225e+00 1.007062e+00 1.285303e+00 1.050340e+00 1.458800e+00 1.035828e+00 1.328614e+00 1.603428e+00
<GCONST> 6.488265e+01
<MIXTURE> 3 3.030860e-01
<MEAN> 39
 -6.268425e-02 3.399633e-01 9.073212e-01 1.145221e+00 9.608410e-01 1.057725e-01 -6.787003e-02 -5.888961e-03 -6.255585e-01 -4.827854e-01 -1.081060e+00 -2.449301e-01 -5.418463e-01 -7.541409e-01 8.198026e-01 -4.720244e-01 -2.714084e-01 6.968455e-01 7.621059e-01 9.570358e-01 9.842586e-02 -8.879814e-02 3.018939e-01 1.743248e-01 -3.165393e-01 -1.576618e+00 7.588081e-01 1.799365e-01 1.886574e-01 -5.692251e-01 -9.981957e-01 -8.941615e-01 -6.197418e-01 -2.814100e-01 -1.626991e-01 7.091454e-02 2.174565e-01 4.118211e-01 1.859943e+00
<VARIANCE> 39
 1.157604e-01 3.645035e-01 4.064682e-01 3.294297e-01 3.853442e-01 5.601985e-01 4.459898e-01 5.661190e-01 5.187904e-01 5.068254e-01 6.548749e-01 6.703169e-01 1.716589e-01 5.582374e-01 9.140099e-01 1.188665e+00 9.597591e-01 6.734468e-01 1.087528e+00 9.482803e-01 1.109508e+00 1.307895e+00 1.147166e+00 9.419380e-01 1.227534e+00 7.430345e-01 8.151374e-01 1.223834e+00 1.372476e+00 1.047850e+00 1.000905e+00 1.395060e+00 1.168570e+00 1.180476e+00 1.423813e+00 1.338037e+00 1.058574e+00 1.246564e+00 1.737079e+00
<GCONST> 6.161290e+01
<MIXTURE> 4 2.275583e-01
<MEAN> 39
 -1.837199e-01 9.852712e-01 4.836670e-01 4.649051e-01 7.904664e-01 3.279518e-01 4.026181e-01 -4.496340e-01 -1.070326e+00 -1.114210e-01 -6.352423e-01 -2.123348e-01 -8.007991e-01 -1.179503e-01 4.112711e-01 6.319452e-01 6.416250e-01 3.794006e-01 -1.051111e-01 -1.081009e-01 2.039168e-01 -5.845069e-02 -4.557113e-01 -4.943549e-01 -2.809853e-01 -1.961747e-01 -1.137197e-01 -7.310545e-01 -3.804055e-01 -4.269959e-01 -5.072830e-01 -3.092139e-01 -2.876753e-01 1.969864e-01 4.661840e-01 1.631431e-01 1.388032e-01 2.663003e-01 1.001494e+00
<VARIANCE> 39
 4.941489e-01 4.714084e-01 5.469025e-01 5.222092e-01 4.792864e-01 6.736495e-01 5.752828e-01 8.917647e-01 6.325679e-01 6.489991e-01 6.200522e-01 8.080349e-01 4.190426e-01 1.004558e+00 1.032685e+00 9.653174e-01 8.420885e-01 7.925950e-01 9.579196e-01 9.041845e-01 1.098132e+00 1.121700e+00 1.017424e+00 9.663787e-01 1.092220e+00 1.037176e+00 1.067160e+00 9.406926e-01 1.190542e+00 1.055619e+00 8.969565e-01 1.070507e+00 1.108191e+00 1.145446e+00 1.114565e+00 9.956698e-01 9.015947e-01 1.021279e+00 1.319698e+00
<GCONST> 6.521688e+01
<STATE> 5
<NUMMIXES> 4
<MIXTURE> 1 2.076357e-01
<MEAN> 39
 -2.012130e-01 9.760959e-01 6.215724e-01 5.838916e-01 9.168380e-01 5.251688e-01 4.813006e-01 -1.597874e-01 -7.283704e-01 -1.326881e-01 -4.551181e-01 -2.092979e-01 -9.973606e-01 -2.100348e-01 6.778059e-01 -2.639934e-01 -3.799272e-01 2.445216e-01 2.212182e-01 4.042580e-01 -9.013205e-02 -2.750269e-01 4.689960e-01 7.472218e-02 -1.501654e-01 -5.982664e-01 -2.178448e-01 -3.106216e-01 5.909112e-01 4.883929e-01 -1.340952e-01 -4.398964e-01 -3.633247e-01 -7.048342e-02 -4.091081e-02 -4.607345e-01 -2.820189e-01 1.708836e-01 7.985471e-01
<VARIANCE> 39
 8.958204e-02 2.550148e-01 3.056559e-01 2.437791e-01 3.136868e-01 4.701266e-01 3.570074e-01 5.809634e-01 3.496178e-01 5.165534e-01 5.203367e-01 6.718969e-01 1.372847e-01 3.807962e-01 7.154235e-01 7.896141e-01 7.391036e-01 5.801247e-01 8.008487e-01 7.632904e-01 1.007050e+00 9.973341e-01 9.917777e-01 8.198044e-01 9.510339e-01 5.014413e-01 6.050002e-01 8.000291e-01 7.664337e-01 6.405065e-01 8.179027e-01 9.520250e-01 9.480281e-01 1.031816e+00 1.097359e+00 9.496936e-01 9.164765e-01 9.400010e-01 1.532218e+00
<GCONST> 5.185696e+01
<MIXTURE> 2 2.399740e-01
<MEAN> 39
 -4.592820e-01 9.493423e-01 9.489095e-01 9.577891e-01 1.066278e+00 4.285564e-01 5.167177e-01 2.532898e-02 -8.652498e-01 -4.094106e-01 -9.004977e-01 -1.801283e-01 -9.327981e-01 -7.563034e-01 -5.923211e-01 -4.399816e-02 -4.468586e-02 -1.727262e-01 -5.631948e-02 -1.038942e-02 2.138740e-01 3.459491e-01 -2.255075e-02 3.535230e-01 4.272023e-01 7.152109e-01 2.885036e-01 -2.723605e-01 -3.981672e-01 -4.859501e-01 -4.340629e-01 -1.731898e-01 -2.886919e-01 -1.933889e-01 1.703665e-02 2.472984e-01 2.723166e-01 2.132361e-01 1.231007e+00
<VARIANCE> 39
 2.241879e-01 3.702748e-01 4.250473e-01 3.900724e-01 4.245595e-01 6.310670e-01 4.569446e-01 6.074690e-01 4.668291e-01 5.260032e-01 6.608746e-01 7.941403e-01 2.616383e-01 7.079132e-01 1.247496e+00 8.002678e-01 7.740042e-01 6.859127e-01 8.636113e-01 9.357699e-01 9.017565e-01 9.337258e-01 9.775962e-01 9.458652e-01 1.044397e+00 7.293173e-01 7.502780e-01 1.047191e+00 8.171733e-01 7.609457e-01 7.737027e-01 9.160289e-01 8.697006e-01 9.701275e-01 9.223421e-01 1.002354e+00 9.202147e-01 1.157568e+00 1.383034e+00
<GCONST> 5.876567e+01
<MIXTURE> 3 2.184208e-01
<MEAN> 39
 -1.393901e-01 6.837847e-01 9.240740e-01 1.022022e+00 9.391424e-01 2.435067e-01 8.428603e-02 -2.668427e-01 -8.182577e-01 -6.518562e-01 -8.382598e-01 -7.614715e-02 -7.800383e-01 -2.714985e-01 -1.721273e-01 -2.306548e-01 -3.560880e-01 -1.509381e-01 -8.011681e-02 -1.418550e-02 5.633947e-02 2.146692e-01 1.439199e-01 1.205239e-01 4.611155e-02 3.404150e-01 6.050327e-01 -1.844665e-02 -7.386331e-01 -8.458399e-01 -4.761595e-01 -3.349251e-01 -1.319048e-01 -1.118402e-01 -1.575841e-01 7.058840e-01 1.374164e-01 1.947461e-02 1.272450e+00
<VARIANCE> 39
 2.111146e-01 4.906248e-01 4.141118e-01 4.075677e-01 3.907060e-01 6.066483e-01 5.041627e-01 7.116740e-01 5.918981e-01 5.163847e-01 7.154822e-01 7.691575e-01 2.097321e-01 5.424384e-01 1.016543e+00 9.772559e-01 9.086424e-01 6.486640e-01 1.037944e+00 8.678406e-01 9.517590e-01 1.010572e+00 1.128658e+00 9.835201e-01 1.019105e+00 8.079006e-01 1.155935e+00 2.124132e+00 1.202343e+00 1.035085e+00 1.191051e+00 1.462150e+00 1.286900e+00 1.242311e+00 1.520678e+00 1.275638e+00 1.078669e+00 1.382350e+00 3.690063e+00
<GCONST> 6.494993e+01
<MIXTURE> 4 3.339736e-01
<MEAN> 39
 -2.416638e-01 1.323248e+00 7.305784e-01 6.509092e-01 8.564996e-01 4.322040e-01 4.951095e-01 -2.840957e-01 -7.921899e-01 -1.049745e-01 -5.923017e-01 -4.337059e-01 -1.261043e+00 -2.713495e-01 -6.011936e-02 5.824880e-02 1.455471e-01 3.558494e-02 -1.556049e-01 -3.631848e-02 1.165489e-01 5.694181e-04 -8.915804e-02 -1.065758e-01 -2.357437e-02 8.128285e-04 -2.164142e-01 -6.033954e-01 -7.677661e-02 5.086058e-02 -8.174869e-02 -4.935265e-02 -1.086084e-01 5.730311e-02 9.094232e-02 -1.674270e-01 -3.234968e-04 2.247059e-01 7.928099e-01
<VARIANCE> 39
 7.407375e-02 1.522365e-01 2.286080e-01 2.599055e-01 2.485301e-01 3.899344e-01 3.284869e-01 5.336483e-01 2.538089e-01 4.593638e-01 4.314856e-01 6.747531e-01 9.271067e-02 2.462520e-01 5.116117e-01 5.315862e-01 5.107036e-01 4.779143e-01 5.681887e-01 6.414963e-01 7.243713e-01 6.075424e-01 6.789834e-01 7.860641e-01 8.395489e-01 3.994065e-01 3.697866e-01 4.717374e-01 5.923256e-01 5.403240e-01 6.014222e-01 6.948952e-01 7.989818e-01 7.996132e-01 7.145222e-01 7.728024e-01 8.730541e-01 9.061010e-01 5.913417e-01
<GCONST> 4.130861e+01
<STATE> 6
<NUMMIXES> 4
<MIXTURE> 1 3.307863e-01
<MEAN> 39
 -8.383191e-01 7.154273e-01 4.508943e-01 5.213031e-01 1.036548e+00 9.525935e-02 4.657396e-01 6.326376e-02 -8.836054e-01 9.465009e-02 -4.160758e-01 3.411181e-01 -3.305164e-01 -2.823881e-01 3.627760e-01 -4.082800e-02 -6.755958e-02 -3.397488e-02 -4.793413e-01 -2.459898e-01 5.820379e-02 -2.467242e-01 -4.999181e-02 -4.526055e-01 8.787386e-02 2.044359e+00 1.386013e+00 5.794460e-01 5.648503e-01 3.145393e-01 -3.716011e-01 -1.243371e-01 -4.660418e-01 -3.066817e-01 1.308342e-01 -2.254165e-01 -3.155679e-01 -1.748131e-01 6.043044e-01
<VARIANCE> 39
 3.011262e-01 6.782299e-01 5.140275e-01 5.388473e-01 4.591003e-01 8.011993e-01 5.759922e-01 7.943489e-01 4.708409e-01 4.983401e-01 6.679747e-01 6.482047e-01 2.158828e-01 1.393102e+00 1.520215e+00 1.088247e+00 1.053006e+00 8.613839e-01 1.317064e+00 1.031520e+00 1.327545e+00 9.990672e-01 1.102882e+00 1.045918e+00 1.213504e+00 1.095299e+00 1.537680e+00 1.819341e+00 1.486128e+00 1.175911e+00 1.198860e+00 1.175530e+00 1.291764e+00 1.483436e+00 1.285316e+00 1.110575e+00 1.189950e+00 1.342270e+00 1.602372e+00
<GCONST> 6.883278e+01
<MIXTURE> 2 1.657668e-01
<MEAN> 39
 -6.167321e-01 2.189868e-01 -7.093461e-02 -1.353538e-01 3.122193e-01 1.322948e-01 2.163734e-01 9.200796e-02 -6.151170e-02 3.850473e-01 2.907821e-02 3.738411e-01 -9.816209e-01 -6.743377e-02 4.749593e-01 -5.463213e-01 -4.478204e-01 6.502585e-02 1.260558e-01 1.277581e-01 -3.010435e-01 -4.426437e-01 5.863081e-01 2.028003e-01 -3.016505e-02 1.758795e-01 -3.037431e-02 5.002600e-01 5.929481e-01 7.668085e-01 6.158316e-01 3.363086e-02 5.202730e-02 -1.331618e-01 -5.745247e-01 -4.461601e-01 -5.645830e-01 -2.082658e-01 9.001691e-02
<VARIANCE> 39
 1.505486e-01 6.482059e-01 3.885892e-01 4.512397e-01 3.379026e-01 4.846143e-01 4.320738e-01 5.919136e-01 4.125325e-01 5.780402e-01 4.938854e-01 6.048741e-01 1.874633e-01 5.608461e-01 1.079324e+00 1.149653e+00 1.373756e+00 7.708883e-01 7.337186e-01 7.903916e-01 8.477631e-01 9.729796e-01 1.378871e+00 9.390402e-01 1.019694e+00 7.271715e-01 8.318674e-01 1.610103e+00 1.455677e+00 1.233374e+00 8.137950e-01 8.972248e-01 9.213613e-01 9.776623e-01 1.096243e+00 1.566669e+00 9.276708e-01 1.124589e+00 1.904645e+00
<GCONST> 6.072297e+01
<MIXTURE> 3 3.134026e-01
<MEAN> 39
 -2.800644e-01 4.165364e-01 6.819174e-01 6.606379e-01 8.876101e-01 2.387414e-01 3.370584e-02 -2.185324e-01 -8.298818e-01 -3.410234e-01 -6.341172e-01 7.100029e-02 -5.482685e-01 1.587477e-01 -3.813265e-01 -1.857194e-01 -4.372859e-01 -4.612110e-01 -7.577828e-01 -5.950382e-01 -9.078571e-02 4.331709e-02 1.271881e-01 -1.135471e-01 2.858934e-01 1.791432e+00 1.124916e+00 4.342685e-01 -5.164006e-02 -2.562621e-01 -4.918560e-01 -5.121377e-01 -3.457849e-01 -9.754121e-02 6.448698e-02 3.050922e-01 -1.443454e-01 1.377072e-02 1.389174e+00
<VARIANCE> 39
 2.139232e-01 3.728619e-01 4.236755e-01 4.054443e-01 4.164881e-01 6.311655e-01 5.586643e-01 6.893247e-01 5.647687e-01 5.171716e-01 7.362581e-01 7.219319e-01 2.162557e-01 6.969084e-01 1.138182e+00 1.292433e+00 1.178970e+00 8.491898e-01 1.229688e+00 1.134861e+00 1.245294e+00 1.079218e+00 1.364708e+00 1.177155e+00 1.260598e+00 1.218815e+00 1.081244e+00 1.518482e+00 1.382792e+00 1.192276e+00 1.187459e+00 1.262852e+00 1.161558e+00 1.256821e+00 1.523379e+00 1.360986e+00 1.228437e+00 1.316974e+00 1.880937e+00
<GCONST> 6.688234e+01
<MIXTURE> 4 1.900488e-01
<MEAN> 39
 -8.403068e-01 7.869928e-02 -4.542218e-01 -4.130135e-01 4.087158e-01 -1.467574e-01 -1.441799e-01 -5.011526e-02 -2.082380e-02 7.342735e-01 -5.588784e-01 1.939490e-01 -1.818067e+00 -1.261698e-01 -1.443757e-01 1.525048e-01 1.424505e-01 -2.004571e-02 -6.535094e-02 -1.759293e-02 7.479869e-02 7.370240e-02 -1.597671e-01 -7.473273e-02 3.096052e-02 -4.076854e-03 7.481210e-02 -2.511154e-01 4.775544e-02 -6.702501e-03 -9.589142e-02 5.936677e-02 2.777709e-02 1.743464e-02 8.630998e-02 -1.026405e-01 8.295154e-02 8.827260e-02 4.049291e-01
<VARIANCE> 39
 6.009221e-02 1.833018e-01 1.878984e-01 2.178208e-01 2.696632e-01 6.333562e-01 4.928416e-01 5.703930e-01 3.835413e-01 5.371292e-01 4.815539e-01 7.292759e-01 9.952440e-02 1.684483e-01 6.224202e-01 4.665225e-01 5.431199e-01 5.461434e-01 7.775444e-01 6.814258e-01 7.939805e-01 7.887227e-01 9.046243e-01 7.900305e-01 9.350437e-01 4.918737e-01 3.749559e-01 4.921659e-01 7.319762e-01 7.522002e-01 7.233402e-01 8.563823e-01 8.295505e-01 9.457852e-01 9.658356e-01 1.081442e+00 8.854567e-01 1.085395e+00 2.715279e-01
<GCONST> 4.524598e+01
<TRANSP> 7
 0.000000e+00 1.000000e+00 0.000000e+00 0.000000e+00 0.000000e+00 0.000000e+00 0.000000e+00
 0.000000e+00 5.985818e-01 4.014182e-01 0.000000e+00 0.000000e+00 0.000000e+00 0.000000e+00
 0.000000e+00 0.000000e+00 4.391106e-01 5.608894e-01 0.000000e+00 0.000000e+00 0.000000e+00
 0.000000e+00 0.000000e+00 0.000000e+00 5.418729e-01 4.581272e-01 0.000000e+00 0.000000e+00
 0.000000e+00 0.000000e+00 0.000000e+00 0.000000e+00 7.860814e-01 2.139187e-01 0.000000e+00
 0.000000e+00 0.000000e+00 0.000000e+00 0.000000e+00 0.000000e+00 7.320508e-01 2.679491e-01
 0.000000e+00 0.000000e+00 0.000000e+00 0.000000e+00 0.000000e+00 0.000000e+00 0.000000e+00
<ENDHMM>
~h "e"
<BEGINHMM>
<NUMSTATES> 7
<STATE> 2
<NUMMIXES> 4
<MIXTURE> 1 2.163622e-01
<MEAN> 39
 -1.996758e+00 2.055510e+00 -8.331738e-01 1.057504e+00 1.159888e+00 -7.781712e-01 1.567133e+00 -8.590260e-02 -1.074040e+00 1.567423e-02 -4.257355e-01 7.383934e-01 4.169214e-01 9.818439e-02 1.062268e-02 1.159279e-01 9.768490e-03 3.486554e-02 3.791039e-02 1.697436e-01 -8.207947e-03 2.436884e-02 -2.395032e-02 -1.800482e-02 2.602748e-02 6.898024e-02 8.543908e-01 -1.721296e-01 5.585670e-01 1.313813e-01 4.348531e-02 5.446682e-02 -1.610911e-01 6.699955e-02 5.782036e-02 -1.297601e-01 -2.396238e-01 -2.046678e-01 8.172944e-03
<VARIANCE> 39
 1.553295e-01 2.290102e-01 3.982210e-01 5.333036e-01 6.583171e-01 6.197048e-01 3.722183e-01 7.743267e-01 4.889878e-01 3.636086e-01 4.871624e-01 5.582023e-01 2.601509e-01 1.091525e+00 6.982945e-01 1.005472e+00 8.728063e-01 6.916055e-01 8.857480e-01 8.161781e-01 9.881371e-01 9.384463e-01 8.542306e-01 9.516903e-01 1.124816e+00 4.418240e-01 1.060461e+00 8.123354e-01 1.089981e+00 9.632233e-01 9.134184e-01 1.186445e+00 1.053146e+00 1.163173e+00 1.207391e+00 1.091398e+00 1.003425e+00 1.289698e+00 4.777495e-01
<GCONST> 5.817609e+01
<MIXTURE> 2 3.190722e-01
<MEAN> 39
 -1.342034e-01 7.332996e-01 1.105231e+00 9.075542e-01 1.613000e-01 -5.922847e-01 1.313384e-01 -3.648542e-01 -1.049201e+00 -6.648653e-01 -7.476528e-01 2.190218e-01 1.374964e-01 1.474653e+00 -2.376968e-01 1.322293e+00 5.046059e-01 -1.031518e+00 -1.196475e+00 -8.479661e-01 1.101011e-01 -1.007318e-01 -5.131794e-01 6.602364e-02 5.926771e-01 1.480676e+00 3.066743e-02 -8.838900e-01 1.712257e-01 -1.444168e-01 -6.935028e-01 -1.685431e-01 -4.553109e-01 3.874584e-01 4.526281e-01 9.322925e-02 4.314973e-01 3.973887e-01 3.463754e-01
<VARIANCE> 39
 2.351632e-01 5.112966e-01 6.277841e-01 4.266703e-01 4.844812e-01 7.263755e-01 5.838328e-01 7.277935e-01 5.320488e-01 5.691565e-01 6.360718e-01 6.106354e-01 4.753669e-01 1.493982e+00 1.345713e+00 1.862483e+00 1.258952e+00 1.124246e+00 1.417776e+00 1.301171e+00 1.315200e+00 1.116039e+00 1.176018e+00 1.127278e+00 1.317537e+00 1.093060e+00 1.208637e+00 1.286070e+00 1.519078e+00 1.060599e+00 1.000431e+00 1.221126e+00 1.082030e+00 1.168731e+00 9.460808e-01 1.019537e+00 9.904174e-01 1.077856e+00 1.032597e+00
<GCONST> 6.818219e+01
<MIXTURE> 3 2.980901e-01
<MEAN> 39
 2.654414e-01 -4.379908e-01 2.353160e-01 3.537481e-01 -1.643049e-01 -1.009077e+00 -6.552351e-01 2.617678e-01 -3.913658e-01 2.531042e-01 -6.479787e-01 -6.138055e-02 2.517154e-01 2.916987e-01 -1.922698e-01 6.074352e-01 7.643582e-02 -5.558057e-01 -9.292085e-01 -2.928840e-01 6.228640e-01 8.612266e-02 -6.846011e-02 -2.141286e-02 2.955524e-01 8.135002e-01 -3.856076e-03 1.385543e-01 2.060705e-01 -9.521022e-04 -1.288907e-01 1.940932e-01 2.791236e-01 2.423176e-02 -3.328391e-01 -1.654166e-01 1.967285e-01 2.268860e-01 7.650536e-02
<VARIANCE> 39
 4.488262e-01 7.506387e-01 1.279693e+00 6.745268e-01 9.227934e-01 1.309662e+00 1.025386e+00 1.427101e+00 1.010705e+00 1.126344e+00 1.205567e+00 1.230997e+00 9.589318e-01 1.103079e+00 1.043735e+00 1.371736e+00 1.320381e+00 1.055584e+00 1.923212e+00 1.340055e+00 1.831376e+00 1.467050e+00 1.303307e+00 1.494495e+00 1.474744e+00 1.252203e+00 1.132207e+00 1.044885e+00 1.101478e+00 1.014002e+00 1.169268e+00 1.498833e+00 1.252483e+00 1.565967e+00 1.225905e+00 1.225763e+00 1.377543e+00 1.347373e+00 1.087357e+00
<GCONST> 7.812164e+01
<MIXTURE> 4 1.664822e-01
<MEAN> 39
 -1.447821e+00 1.791338e+00 -8.400098e-02 1.116996e+00 9.899945e-01 -7.562949e-01 1.426262e+00 -1.783498e-01 -9.225137e-01 -2.355773e-01 -7.904350e-01 4.399447e-01 4.898936e-01 1.628999e+00 -2.904550e-01 1.159484e+00 4.489933e-02 -3.447354e-01 -8.066861e-01 -7.940419e-01 -2.362242e-01 -1.706072e-01 -2.026798e-01 -3.406064e-01 -4.520625e-02 4.773388e-01 1.069079e+00 -7.465915e-01 3.177844e-01 -1.553919e-01 -6.366900e-01 -4.517888e-01 -7.971243e-01 -4.765400e-02 -1.083143e-01 1.250309e-01 2.194985e-01 1.912140e-01 2.516215e-01
<VARIANCE> 39
 2.942289e-01 3.537217e-01 7.849908e-01 4.714678e-01 4.708035e-01 8.599892e-01 5.232679e-01 6.679559e-01 4.157372e-01 3.935478e-01 4.419619e-01 5.385576e-01 2.563138e-01 2.795906e+00 9.704819e-01 1.861090e+00 9.653510e-01 7.541401e-01 1.308423e+00 1.212106e+00 1.019284e+00 8.383433e-01 1.026696e+00 8.627228e-01 1.104479e+00 6.123497e-01 1.381020e+00 1.252193e+00 1.198948e+00 1.004955e+00 1.026125e+00 1.308919e+00 1.292352e+00 1.124064e+00 9.497314e-01 1.084096e+00 9.107423e-01 1.145392e+00 6.927350e-01
<GCONST> 6.405855e+01
<STATE> 3
<NUMMIXES> 4
<MIXTURE> 1 2.428615e-01
<MEAN> 39
 5.572262e-01 -7.185369e-01 1.258540e+00 7.380971e-01 -1.182634e+00 -1.403591e+00 -8.943884e-01 5.958074e-01 -1.527602e-01 -6.142206e-01 -2.028592e-01 6.876626e-01 1.157652e+00 -6.673275e-02 -3.298618e-01 5.584719e-01 -2.555018e-01 -9.333764e-01 -4.760438e-01 -1.279255e-01 4.167477e-01 1.184501e-01 -1.133985e-01 7.090165e-01 6.288543e-01 8.537259e-01 -4.630631e-01 6.296185e-01 -2.980343e-01 3.803844e-02 7.933269e-01 5.767325e-01 2.536652e-01 -5.459450e-01 -4.547265e-01 1.541093e-01 -7.065036e-02 -3.298053e-01 -8.491822e-01
<VARIANCE> 39
 1.419846e-01 4.121708e-01 6.461148e-01 4.417000e-01 3.558600e-01 5.898107e-01 8.305914e-01 8.837879e-01 1.072086e+00 6.455683e-01 7.118134e-01 8.606592e-01 2.407086e-01 4.533686e-01 8.799973e-01 1.167111e+00 7.650199e-01 7.834583e-01 1.266433e+00 1.084782e+00 1.139132e+00 1.047895e+00 8.812203e-01 8.677754e-01 9.065149e-01 7.028440e-01 6.632321e-01 5.446414e-01 7.250771e-01 6.375852e-01 7.374946e-01 9.928422e-01 1.010496e+00 8.761222e-01 8.212070e-01 7.016723e-01 8.009077e-01 7.457877e-01 6.529691e-01
<GCONST> 5.821571e+01
<MIXTURE> 2 2.408431e-01
<MEAN> 39
 1.191640e-01 5.767357e-01 1.415367e+00 1.114497e+00 -3.143122e-01 -1.246230e+00 -1.320190e-01 -1.943216e-01 -8.861955e-01 -8.383151e-01 -6.884021e-01 7.779525e-01 4.795673e-01 1.156834e+00 -1.266208e+00 1.135304e+00 1.144376e-01 -1.524894e+00 -7.611559e-01 -1.011960e+00 3.306806e-01 4.051398e-01 -4.341694e-01 4.365954e-01 7.446198e-01 1.296790e+00 -1.160103e+00 -4.425142e-01 -6.596549e-01 -6.241907e-01 5.142658e-02 8.570363e-01 1.366400e-01 7.576267e-02 2.450131e-01 3.571242e-01 3.469527e-01 -3.227359e-01 -2.642408e-01
<VARIANCE> 39
 2.590714e-01 4.647362e-01 7.930151e-01 5.064840e-01 4.853974e-01 7.985848e-01 5.445136e-01 7.675422e-01 7.121797e-01 5.845289e-01 6.124117e-01 7.015204e-01 5.081146e-01 1.192482e+00 1.199575e+00 1.635309e+00 9.407988e-01 1.046499e+00 1.278192e+00 1.276930e+00 9.749787e-01 1.018113e+00 9.045821e-01 9.601521e-01 1.206130e+00 1.001912e+00 1.304952e+00 1.018150e+00 1.392449e+00 8.786764e-01 8.894386e-01 1.008496e+00 8.653600e-01 9.280863e-01 8.603621e-01 9.360951e-01 7.938144e-01 9.913701e-01 6.025338e-01
<GCONST> 6.499015e+01
<MIXTURE> 3 3.108922e-01
<MEAN> 39
 2.613848e-01 -2.158649e-03 2.236510e+00 9.627647e-01 -1.357207e+00 -1.085185e+00 -8.616626e-01 -2.290167e-01 -6.123521e-01 -1.245247e+00 -2.149247e-02 1.120484e+00 1.015841e+00 3.829145e-02 -5.496351e-01 4.078309e-01 -4.908877e-01 -7.893599e-01 9.646006e-02 -5.552164e-01 1.107210e-01 2.322545e-01 4.553551e-03 6.015275e-01 1.954770e-01 8.709638e-01 -3.840498e-01 6.137751e-01 -9.335448e-01 2.333691e-02 9.455049e-01 1.987448e-01 5.369222e-01 -6.402943e-02 -3.175572e-01 2.565986e-01 -2.776313e-01 -4.202290e-01 -9.834720e-01
<VARIANCE> 39
 1.005164e-01 3.509483e-01 3.271658e-01 4.024431e-01 3.086962e-01 5.914246e-01 4.886426e-01 7.939413e-01 5.161708e-01 4.675179e-01 6.502638e-01 7.348017e-01 2.098501e-01 2.913759e-01 6.382638e-01 8.429003e-01 5.937097e-01 6.795589e-01 6.618982e-01 6.359786e-01 6.620108e-01 6.191597e-01 5.859714e-01 6.191859e-01 6.816819e-01 4.290619e-01 6.897400e-01 6.557529e-01 8.411105e-01 6.683258e-01 6.527619e-01 8.127567e-01 7.463568e-01 7.597367e-01 5.685359e-01 6.610641e-01 5.881420e-01 7.638832e-01 4.484455e-01
<GCONST> 4.802381e+01
<MIXTURE> 4 2.054083e-01
<MEAN> 39
 4.533507e-01 2.598114e-01 9.170003e-01 1.063573e+00 1.307318e-01 -2.114701e+00 -4.829304e-01 2.080875e-01 -1.171612e+00 -3.495321e-02 -1.209357e+00 4.193635e-01 1.015646e+00 1.343119e+00 -1.672129e+00 5.129732e-01 -4.493986e-01 -1.067139e+00 -8.502278e-01 -1.137321e+00 7.855604e-01 -2.922364e-01 2.248837e-01 -1.362526e-01 3.116055e-01 8.969505e-01 -1.773450e+00 2.244824e-01 -5.174698e-01 -3.478380e-01 4.719219e-02 7.500445e-01 5.927806e-01 -2.584360e-02 3.711960e-02 -2.073608e-04 2.199675e-01 1.385647e-01 -5.239802e-01
<VARIANCE> 39
 1.645694e-01 4.692494e-01 5.686952e-01 3.799781e-01 2.860135e-01 6.664249e-01 5.957195e-01 5.474654e-01 5.099356e-01 8.004847e-01 7.352517e-01 6.739277e-01 2.383448e-01 1.335385e+00 9.348645e-01 9.628683e-01 1.019194e+00 6.403504e-01 9.689887e-01 1.069472e+00 8.814934e-01 7.920325e-01 9.267589e-01 8.229930e-01 8.700303e-01 6.765833e-01 8.514840e-01 1.314236e+00 1.130454e+00 7.811292e-01 7.148514e-01 7.879316e-01 8.772516e-01 7.944265e-01 6.548752e-01 8.595033e-01 6.786605e-01 8.057892e-01 5.393891e-01
<GCONST> 5.766415e+01
<STATE> 4
<NUMMIXES> 4
<MIXTURE> 1 2.705081e-01
<MEAN> 39
 4.265603e-01 -4.606566e-01 1.687236e+00 6.460217e-01 -1.438507e+00 -1.567857e+00 -8.656689e-01 3.554598e-01 -8.072911e-01 -5.945380e-01 -1.504055e-01 1.204391e+00 1.410716e+00 -4.317053e-02 3.461802e-03 2.212247e-02 8.415412e-03 3.406676e-04 2.418369e-03 -2.391350e-02 -1.855719e-03 -1.989146e-02 -2.591158e-02 9.739670e-02 5.495237e-03 3.588315e-02 3.243673e-02 7.526277e-03 -4.010301e-02 8.022032e-02 1.243309e-01 4.942550e-02 -5.021638e-02 3.492598e-02 -2.940089e-02 -3.781900e-02 -1.308855e-02 -1.076358e-01 -1.582934e-01
<VARIANCE> 39
 1.488494e-01 3.323412e-01 3.906949e-01 3.203822e-01 3.013828e-01 6.537781e-01 4.984341e-01 9.300648e-01 1.026342e+00 4.526121e-01 1.037852e+00 8.001482e-01 2.079829e-01 1.203994e-01 1.580936e-01 3.043829e-01 2.630650e-01 2.427430e-01 3.286746e-01 3.319568e-01 3.760148e-01 3.342392e-01 3.335014e-01 3.439356e-01 4.193404e-01 1.025282e-01 1.629517e-01 1.678194e-01 2.933591e-01 2.544625e-01 2.820957e-01 3.360716e-01 3.282017e-01 3.340267e-01 3.198915e-01 3.181838e-01 3.024153e-01 3.974192e-01 1.252872e-01
<GCONST> 2.693162e+01
<MIXTURE> 2 2.106760e-01
<MEAN> 39
 4.997843e-01 -1.002562e-01 1.562175e+00 6.255959e-01 -1.023067e+00 -1.784588e+00 -6.933624e-01 3.345341e-01 -1.325586e+00 -4.113518e-01 -4.368976e-01 9.031126e-01 9.002458e-01 -4.656859e-02 -3.454731e-02 1.974937e-01 6.665462e-02 -1.340448e-01 1.272661e-01 -8.821813e-02 -2.808816e-02 -7.778308e-02 -1.690191e-01 1.976281e-01 4.274781e-02 1.473535e-01 -9.823703e-02 -1.790833e-02 1.930145e-02 1.294303e-01 1.758398e-01 1.380674e-01 -1.099775e-01 1.200971e-01 7.316463e-02 -1.506329e-01 1.200175e-02 -8.492957e-02 -1.750499e-01
<VARIANCE> 39
 2.021939e-01 4.850963e-01 5.589607e-01 5.820003e-01 4.976363e-01 1.205779e+00 5.864599e-01 1.101761e+00 9.331571e-01 8.486373e-01 1.173626e+00 9.948758e-01 2.812082e-01 3.013988e-01 4.729674e-01 6.515475e-01 5.920756e-01 4.625348e-01 7.074559e-01 6.176937e-01 7.438979e-01 5.775446e-01 6.394460e-01 5.461066e-01 7.230421e-01 2.780044e-01 3.943151e-01 4.979654e-01 6.472706e-01 5.519955e-01 5.974378e-01 7.738943e-01 6.896629e-01 7.054811e-01 5.843190e-01 6.266305e-01 5.633376e-01 7.265549e-01 3.193372e-01
<GCONST> 5.074861e+01
<MIXTURE> 3 2.849324e-01
<MEAN> 39
 4.283547e-01 -3.719414e-01 1.945925e+00 7.097399e-01 -1.522938e+00 -1.271613e+00 -1.233752e+00 2.943925e-01 -8.773423e-01 -9.140627e-01 2.175936e-01 9.283935e-01 1.278087e+00 2.625477e-02 -5.988206e-03 -2.072301e-02 5.624893e-02 8.494358e-03 -8.332858e-02 2.602227e-02 6.843910e-02 -4.324682e-02 -7.701402e-03 -5.820494e-03 -4.816997e-02 -2.230208e-02 5.842263e-02 3.808422e-02 -1.170848e-01 1.007709e-01 2.129186e-01 -1.683941e-01 1.782890e-01 1.266481e-02 -4.425553e-02 5.956051e-02 -2.676401e-01 1.292775e-02 -2.266711e-01
<VARIANCE> 39
 1.398180e-01 3.009033e-01 4.251556e-01 3.477523e-01 2.650680e-01 5.925207e-01 3.989186e-01 8.632433e-01 7.406579e-01 4.233159e-01 9.512968e-01 7.122606e-01 1.848479e-01 1.459750e-01 1.957869e-01 3.458786e-01 3.239105e-01 2.862701e-01 3.839891e-01 3.495164e-01 4.088452e-01 3.768457e-01 3.957833e-01 3.971547e-01 4.544556e-01 1.188800e-01 2.089498e-01 2.028956e-01 3.495694e-01 3.074790e-01 3.479845e-01 3.820945e-01 3.748366e-01 4.025203e-01 3.494322e-01 3.770557e-01 3.732939e-01 4.335737e-01 1.731691e-01
<GCONST> 2.989916e+01
<MIXTURE> 4 2.338857e-01
<MEAN> 39
 6.208492e-01 -2.036310e-01 1.177877e+00 5.223648e-01 -5.875226e-01 -2.249386e+00 -9.359760e-01 9.009407e-01 -1.567419e+00 -1.259229e-01 -7.767029e-01 9.717755e-01 8.450942e-01 -7.190397e-03 -6.414989e-02 1.057182e-01 3.742357e-02 -1.869881e-01 -1.158147e-01 9.547701e-02 4.860680e-02 -1.564529e-01 3.708562e-02 4.061828e-02 3.378521e-02 1.462120e-01 -1.746836e-01 1.241080e-01 -2.549610e-02 2.234063e-01 9.065960e-02 3.084794e-01 1.900036e-01 -2.693641e-01 1.798066e-01 -1.000036e-01 -2.507700e-02 -2.157248e-01 -2.721588e-01
<VARIANCE> 39
 2.392137e-01 4.078798e-01 5.497417e-01 4.442526e-01 4.710864e-01 1.037405e+00 6.022075e-01 7.995327e-01 8.502394e-01 7.465555e-01 9.956157e-01 1.006850e+00 4.880468e-01 3.360886e-01 4.767958e-01 7.325748e-01 6.843963e-01 5.189824e-01 7.249658e-01 7.353219e-01 7.537456e-01 6.334450e-01 7.861630e-01 5.691534e-01 7.907847e-01 3.526547e-01 5.669214e-01 5.574430e-01 7.288406e-01 5.987152e-01 6.692167e-01 7.913551e-01 7.482305e-01 7.344054e-01 6.109682e-01 7.250120e-01 5.772630e-01 7.465879e-01 4.997299e-01
<GCONST> 5.313190e+01
<STATE> 5
<NUMMIXES> 4
<MIXTURE> 1 2.858617e-01
<MEAN> 39
 2.600262e-01 -1.151513e-01 2.166853e+00 1.071561e+00 -1.085134e+00 -1.372436e+00 -8.449198e-01 9.283667e-02 -1.249554e+00 -1.102205e+00 -3.883691e-01 1.050995e+00 1.077741e+00 -1.109544e-01 3.880291e-01 -1.957222e-01 4.395309e-01 5.778100e-01 -1.168230e-02 5.700185e-01 -4.763126e-02 -2.187814e-01 -8.117270e-03 -3.263428e-01 -8.979028e-02 -5.792422e-01 -8.920545e-03 6.198934e-01 -9.495355e-01 1.555384e-01 5.864023e-01 1.362165e-01 5.660962e-01 -9.675986e-02 1.548515e-01 3.074459e-01 -5.620299e-02 -2.041733e-01 -9.092647e-01
<VARIANCE> 39
 9.093505e-02 2.890500e-01 3.976736e-01 3.627401e-01 3.235790e-01 7.820844e-01 3.888144e-01 8.564404e-01 7.238387e-01 6.608151e-01 8.079587e-01 7.555941e-01 2.448074e-01 4.152301e-01 5.158181e-01 8.996049e-01 5.681512e-01 3.981166e-01 7.262779e-01 6.776567e-01 7.339987e-01 6.012236e-01 5.809240e-01 5.293440e-01 6.269655e-01 4.046950e-01 6.215922e-01 5.748254e-01 7.744805e-01 5.388989e-01 5.619304e-01 7.855296e-01 6.390248e-01 6.681309e-01 5.775834e-01 5.987551e-01 5.162278e-01 5.994107e-01 5.446333e-01
<GCONST> 4.736518e+01
<MIXTURE> 2 2.794706e-01
<MEAN> 39
 4.658751e-01 -1.093308e+00 4.373007e-01 -7.394195e-02 -1.203218e+00 -1.402040e+00 -4.386262e-01 1.264383e+00 2.644255e-01 3.093636e-01 1.870552e-01 2.070504e-01 1.432617e+00 7.139806e-02 -4.317639e-02 -2.905722e-01 4.066162e-02 2.137097e-01 2.026117e-02 1.055629e-01 9.296504e-02 9.441099e-02 6.350417e-02 -1.530802e-01 -2.547979e-01 -2.405597e-02 7.344972e-02 2.297624e-01 1.177166e-01 1.975767e-01 2.203903e-01 1.204981e-01 -3.691423e-02 -2.169500e-01 -1.134126e-01 -1.209142e-01 -1.156532e-01 -2.484024e-02 -2.606434e-01
<VARIANCE> 39
 2.882783e-01 3.268501e-01 6.180766e-01 4.828149e-01 4.662337e-01 1.145163e+00 7.872179e-01 1.102769e+00 1.289782e+00 6.450405e-01 1.155283e+00 1.235287e+00 2.042878e-01 3.194043e-01 4.937940e-01 9.067437e-01 5.416285e-01 5.013238e-01 6.128155e-01 6.242349e-01 8.169181e-01 6.688713e-01 5.689522e-01 6.778817e-01 7.578915e-01 2.673370e-01 3.991120e-01 4.686958e-01 4.700277e-01 4.687916e-01 4.531782e-01 5.849457e-01 5.892117e-01 6.228005e-01 5.111341e-01 4.940588e-01 5.329649e-01 5.744354e-01 3.229010e-01
<GCONST> 4.934798e+01
<MIXTURE> 3 2.879730e-01
<MEAN> 39
 4.233392e-01 -4.812255e-01 2.023921e+00 1.048238e+00 -1.541842e+00 -1.320587e+00 -1.079468e+00 3.276106e-01 -6.388133e-01 -1.230512e+00 4.076432e-01 9.194557e-01 1.214166e+00 3.129711e-01 -1.327435e-01 -2.101227e-01 6.762718e-01 4.990483e-01 -1.776050e-01 -7.104228e-02 2.189125e-01 -1.975160e-01 -3.669600e-01 -3.042160e-01 -1.602583e-01 -6.675545e-01 -1.244504e-02 5.084497e-01 -8.526678e-01 -3.417173e-02 1.045387e+00 2.830693e-01 3.568399e-01 -1.636033e-01 7.250361e-03 3.334462e-01 -5.562012e-01 -2.149054e-01 -1.160696e+00
<VARIANCE> 39
 1.064346e-01 2.680581e-01 3.481866e-01 3.653133e-01 2.643511e-01 5.079487e-01 4.091465e-01 6.974362e-01 8.854080e-01 3.614727e-01 7.398657e-01 7.760859e-01 1.412833e-01 3.100637e-01 4.751859e-01 9.127160e-01 5.692670e-01 5.441507e-01 7.404760e-01 6.800241e-01 8.366479e-01 7.332066e-01 5.951997e-01 6.902563e-01 7.046034e-01 3.479356e-01 5.000520e-01 5.503842e-01 6.972782e-01 5.442067e-01 6.314093e-01 8.566326e-01 6.829200e-01 8.186014e-01 6.411175e-01 5.874913e-01 5.520242e-01 6.665336e-01 6.754458e-01
<GCONST> 4.667312e+01
<MIXTURE> 4 1.466991e-01
<MEAN> 39
 2.421774e-01 -5.133415e-01 3.884657e-01 3.777574e-02 -6.036988e-01 -1.264629e+00 -3.768952e-01 7.423357e-01 -3.465738e-01 3.294752e-01 -2.380521e-02 3.285021e-01 7.743319e-01 5.501957e-02 -3.291558e-02 -3.024603e-01 -1.834659e-01 1.031808e-01 1.092641e-01 2.145426e-02 4.200153e-02 1.382462e-02 1.596149e-01 -6.684445e-03 -1.587567e-01 -1.556505e-01 -2.600230e-02 2.140221e-01 -2.396868e-02 2.158388e-01 2.613138e-01 2.147511e-01 1.344549e-01 -1.696009e-01 -8.393346e-02 -9.675886e-02 -1.826328e-01 -1.444702e-01 -3.245570e-01
<VARIANCE> 39
 5.701460e-01 6.911505e-01 8.501170e-01 5.691689e-01 9.162123e-01 1.652762e+00 9.271539e-01 1.539735e+00 1.030698e+00 7.628112e-01 1.420776e+00 1.204114e+00 1.053730e+00 4.780303e-01 5.694196e-01 1.065404e+00 7.597636e-01 6.166378e-01 9.258733e-01 8.617931e-01 9.069260e-01 8.611609e-01 1.059157e+00 7.324917e-01 1.033319e+00 6.119967e-01 7.494954e-01 7.404736e-01 7.334177e-01 7.086316e-01 7.568517e-01 9.908534e-01 8.357893e-01 9.339581e-01 7.892451e-01 8.873243e-01 7.220640e-01 9.495671e-01 7.012973e-01
<GCONST> 6.509138e+01
<STATE> 6
<NUMMIXES> 4
<MIXTURE> 1 2.158393e-01
<MEAN> 39
 3.190186e-01 1.763658e-01 1.668663e+00 1.333073e+00 -4.752454e-01 -1.508616e+00 -1.215551e-01 2.899053e-01 -1.372073e+00 -6.820169e-01 -7.159734e-01 8.129407e-01 6.233628e-01 -5.076860e-01 1.072971e+00 -1.100695e+00 3.922163e-01 1.237834e+00 7.699695e-01 1.124856e+00 -2.775391e-01 2.247908e-01 4.375179e-01 -7.193026e-02 -4.519413e-01 -1.450760e+00 -8.390550e-01 3.007703e-01 -6.225470e-01 -3.256299e-01 2.704689e-01 6.066010e-01 2.405879e-02 -1.933627e-01 3.195444e-01 2.515717e-01 2.791951e-01 -1.783963e-01 -3.554429e-01
<VARIANCE> 39
 1.089597e-01 3.336725e-01 4.056967e-01 3.321470e-01 3.665433e-01 8.536955e-01 5.859979e-01 7.674736e-01 6.320366e-01 7.961051e-01 8.356589e-01 7.803605e-01 3.218912e-01 6.096246e-01 8.906249e-01 1.216712e+00 9.116833e-01 6.701921e-01 1.468335e+00 1.024830e+00 9.021155e-01 8.799941e-01 8.973674e-01 8.378608e-01 8.901131e-01 8.898792e-01 9.054752e-01 1.172457e+00 1.117428e+00 7.963355e-01 7.516823e-01 1.133665e+00 9.137840e-01 8.904101e-01 7.630759e-01 8.976868e-01 7.366545e-01 9.176971e-01 9.645942e-01
<GCONST> 5.967295e+01
<MIXTURE> 2 2.075927e-01
<MEAN> 39
 1.971819e-01 -2.382355e-01 1.261263e-01 1.949310e-01 -1.342336e-01 -8.908093e-01 -3.290602e-01 1.774603e-01 -4.015087e-01 4.797941e-01 -4.375697e-01 -2.123584e-01 1.026087e-01 -4.722424e-03 4.143563e-03 -8.573736e-02 5.531006e-02 1.480134e-01 8.286715e-02 1.071739e-01 1.116237e-01 9.813944e-02 5.633710e-02 -1.130091e-01 -1.226551e-01 -6.238035e-02 -9.588636e-02 -3.563576e-02 8.839693e-02 6.467372e-02 -8.051038e-02 -2.442249e-03 1.439777e-02 6.859472e-02 7.609867e-02 -1.544753e-01 6.725389e-02 1.757538e-01 -5.902879e-03
<VARIANCE> 39
 7.424813e-01 7.396032e-01 1.111609e+00 6.891464e-01 1.000019e+00 1.398336e+00 8.114908e-01 1.466815e+00 1.310821e+00 7.778133e-01 1.386259e+00 1.501378e+00 1.210645e+00 3.809487e-01 5.007882e-01 7.925813e-01 7.638261e-01 6.895916e-01 8.935971e-01 7.894433e-01 9.734018e-01 8.170915e-01 7.557300e-01 8.653007e-01 8.807523e-01 5.466802e-01 5.228046e-01 5.831093e-01 6.640862e-01 7.729623e-01 7.933915e-01 1.011823e+00 8.293732e-01 9.595329e-01 8.127416e-01 8.493142e-01 9.561291e-01 8.965969e-01 5.313865e-01
<GCONST> 6.454087e+01
<MIXTURE> 3 3.513501e-01
<MEAN> 39
 -6.679299e-01 1.809360e-03 -4.127128e-01 -3.596339e-01 -4.297709e-02 -5.218515e-01 -2.558955e-01 -1.651033e-02 1.903338e-02 6.752754e-01 -5.657724e-02 5.811614e-01 -1.409048e+00 -3.954473e-02 -1.797850e-02 -4.057211e-02 -6.301036e-02 -5.529581e-02 -1.653554e-02 -1.859030e-02 -6.626331e-02 -5.006354e-02 2.344312e-02 -9.475248e-03 -1.339626e-02 -3.406791e-02 1.010128e-01 4.083737e-02 6.831487e-02 1.019415e-01 5.808228e-02 7.703993e-05 -4.378330e-03 -3.076702e-02 -5.561155e-02 -5.413600e-02 -6.510534e-02 -7.554468e-02 9.303294e-02
<VARIANCE> 39
 1.550436e-01 3.059243e-01 2.117550e-01 3.774249e-01 3.135788e-01 4.420744e-01 4.105027e-01 7.024678e-01 3.826016e-01 6.420232e-01 7.609884e-01 7.739964e-01 2.062748e-01 2.418834e-01 7.569307e-01 7.469173e-01 8.531681e-01 6.453460e-01 8.708381e-01 7.893319e-01 8.712244e-01 8.146887e-01 9.785880e-01 9.288909e-01 9.461502e-01 5.310464e-01 4.847365e-01 1.002942e+00 1.006614e+00 9.670774e-01 8.466861e-01 1.021565e+00 9.361548e-01 1.020447e+00 9.295174e-01 1.098768e+00 9.433323e-01 1.035190e+00 7.589732e-01
<GCONST> 5.406570e+01
<MIXTURE> 4 2.252246e-01
<MEAN> 39
 5.815187e-01 -4.231867e-01 1.556025e+00 1.264749e+00 -8.314428e-01 -1.509752e+00 -1.027963e+00 4.863438e-01 -7.913459e-01 -1.163358e+00 -1.394490e-01 6.976582e-01 8.938925e-01 3.151938e-02 5.873630e-01 -1.095563e+00 2.837373e-01 1.500117e+00 7.487220e-01 3.769784e-01 -2.612379e-01 9.615759e-02 2.482543e-01 -5.617638e-01 -6.006606e-01 -1.681002e+00 -9.449911e-01 7.676131e-01 -6.131486e-01 -4.971135e-01 6.859256e-01 1.016150e+00 6.724877e-01 -4.557545e-01 -2.490280e-02 6.494412e-01 -8.913897e-02 -2.504832e-01 -1.345070e+00
<VARIANCE> 39
 1.582149e-01 3.469897e-01 5.514078e-01 4.822507e-01 4.194097e-01 6.702615e-01 5.752445e-01 8.675044e-01 9.481692e-01 5.338415e-01 6.783586e-01 8.026016e-01 2.416083e-01 5.630004e-01 6.879146e-01 1.490099e+00 8.943270e-01 8.279684e-01 1.359763e+00 1.217092e+00 1.087218e+00 1.106873e+00 9.727601e-01 8.268332e-01 9.298929e-01 1.079979e+00 9.711230e-01 8.987553e-01 1.336602e+00 1.038993e+00 1.120594e+00 1.425691e+00 1.143692e+00 1.186702e+00 1.114766e+00 8.753272e-01 7.630550e-01 9.262897e-01 1.294438e+00
<GCONST> 6.325510e+01
<TRANSP> 7
 0.000000e+00 1.000000e+00 0.000000e+00 0.000000e+00 0.000000e+00 0.000000e+00 0.000000e+00
 0.000000e+00 6.969341e-01 3.030658e-01 0.000000e+00 0.000000e+00 0.000000e+00 0.000000e+00
 0.000000e+00 0.000000e+00 7.056255e-01 2.943745e-01 0.000000e+00 0.000000e+00 0.000000e+00
 0.000000e+00 0.000000e+00 0.000000e+00 8.767918e-01 1.232082e-01 0.000000e+00 0.000000e+00
 0.000000e+00 0.000000e+00 0.000000e+00 0.000000e+00 6.567256e-01 3.432744e-01 0.000000e+00
 0.000000e+00 0.000000e+00 0.000000e+00 0.000000e+00 0.000000e+00 6.949672e-01 3.050328e-01
 0.000000e+00 0.000000e+00 0.000000e+00 0.000000e+00 0.000000e+00 0.000000e+00 0.000000e+00
<ENDHMM>
~h "f"
<BEGINHMM>
<NUMSTATES> 7
<STATE> 2
<NUMMIXES> 4
<MIXTURE> 1 1.595089e-01
<MEAN> 39
 8.785221e-01 -6.799570e-01 -4.884297e-01 2.486023e-01 4.370084e-01 -9.546102e-01 -5.207723e-02 1.065144e+00 -4.701741e-01 1.020989e+00 -7.633927e-01 -3.371225e-01 1.282628e+00 -3.319928e-01 1.686360e+00 4.950454e-01 1.173839e+00 9.847067e-01 6.208885e-01 7.295813e-01 -4.514638e-01 -5.670975e-01 -5.946208e-01 -1.082306e-01 5.517850e-01 -1.675192e+00 -9.280007e-01 9.354270e-01 3.729750e-01 2.133460e-01 2.679594e-02 6.122382e-01 2.255172e-01 -5.599252e-01 -4.416037e-02 -6.388195e-01 -5.614404e-02 7.722236e-02 -7.731671e-01
<VARIANCE> 39
 8.736908e-02 3.685942e-01 5.567700e-01 5.490844e-01 5.488086e-01 1.051457e+00 7.427183e-01 1.160490e+00 1.248793e+00 8.397185e-01 6.907238e-01 1.073041e+00 2.601425e-01 7.980685e-01 1.256128e+00 1.315714e+00 1.029163e+00 7.638891e-01 1.452571e+00 1.390870e+00 1.182827e+00 1.623543e+00 1.135519e+00 9.146590e-01 1.145948e+00 8.559368e-01 1.482031e+00 1.402790e+00 1.178301e+00 1.074587e+00 1.147893e+00 1.159966e+00 1.222871e+00 9.900141e-01 1.131878e+00 9.858009e-01 9.336194e-01 1.230052e+00 1.355347e+00
<GCONST> 6.816742e+01
<MIXTURE> 2 2.525519e-01
<MEAN> 39
 -3.610505e-01 6.936682e-01 1.322854e-01 3.563976e-01 5.029030e-01 1.641339e-01 4.217360e-01 -9.788340e-02 -7.374446e-01 -8.650165e-02 -1.911150e-01 3.880384e-01 -4.506429e-01 -1.349734e-01 3.424281e-01 8.859435e-02 4.900471e-01 4.422499e-01 2.101996e-01 2.405741e-01 9.057910e-02 -1.049297e-01 -6.613638e-02 -1.965816e-01 -5.502271e-02 2.740742e-01 2.858140e-01 -1.667916e-01 5.414608e-02 -1.504852e-01 -2.915922e-01 -1.743271e-01 -1.190188e-01 1.038080e-02 2.192220e-02 -1.030597e-01 -2.488450e-01 -2.065599e-01 6.735821e-01
<VARIANCE> 39
 3.885054e-01 4.055721e-01 7.833578e-01 5.566732e-01 4.279086e-01 5.242479e-01 3.956875e-01 7.850623e-01 4.945689e-01 6.059140e-01 6.581242e-01 7.515875e-01 7.691051e-01 1.825189e+00 1.220900e+00 1.772918e+00 1.642015e+00 1.123091e+00 1.246968e+00 1.101297e+00 1.296105e+00 9.010652e-01 1.317881e+00 1.250009e+00 1.349760e+00 1.609397e+00 1.238503e+00 1.072557e+00 1.599178e+00 1.402165e+00 1.213157e+00 1.264241e+00 1.001466e+00 1.296453e+00 1.010326e+00 1.230542e+00 1.131802e+00 1.231707e+00 1.236173e+00
<GCONST> 7.043954e+01
<MIXTURE> 3 3.364255e-01
<MEAN> 39
 -1.109580e+00 1.573544e-01 1.103507e-01 -5.803418e-01 2.499166e-01 5.986974e-01 2.868663e-01 3.971127e-01 1.902991e-01 -1.848248e-02 6.670907e-01 2.296483e-01 -1.364181e+00 7.513544e-03 2.420620e-02 -4.566102e-02 -3.495090e-02 -2.619642e-02 -3.931330e-02 -4.284957e-02 -5.355593e-02 -4.104053e-02 3.629117e-02 1.281894e-02 -4.706703e-03 -1.381278e-02 4.266411e-02 1.601419e-02 1.566200e-02 7.221645e-02 1.632421e-02 -5.739266e-02 -1.923582e-02 -3.176169e-02 -5.254307e-02 -3.433089e-02 -5.424154e-02 2.196116e-03 5.953521e-02
<VARIANCE> 39
 7.888905e-02 1.868279e-01 2.438736e-01 2.922971e-01 1.793302e-01 3.085502e-01 2.463368e-01 4.764712e-01 2.859043e-01 4.602141e-01 5.134637e-01 6.716191e-01 9.959078e-02 2.560029e-01 7.092823e-01 7.382992e-01 8.079651e-01 5.603641e-01 7.120140e-01 6.524631e-01 1.019379e+00 8.829809e-01 9.066144e-01 9.863276e-01 1.047858e+00 5.337756e-01 5.222931e-01 9.787762e-01 9.814322e-01 9.182498e-01 7.999333e-01 8.919766e-01 8.430054e-01 1.078868e+00 1.110047e+00 8.813538e-01 1.199126e+00 1.073810e+00 7.257209e-01
<GCONST> 4.871882e+01
<MIXTURE> 4 2.515135e-01
<MEAN> 39
 8.061925e-01 -2.283208e-02 -4.017350e-01 -1.647780e-01 6.036776e-02 7.285601e-02 1.612636e-01 -1.848487e-01 -4.770403e-01 -2.537545e-02 -5.385088e-01 -2.757367e-01 9.708222e-01 -2.332510e-01 1.645366e-01 -4.806622e-02 2.285391e-04 1.259632e-01 9.525089e-02 5.702646e-02 4.234410e-02 2.553917e-03 1.380257e-02 -7.186516e-02 -7.005669e-02 -1.137398e-01 -3.698992e-01 3.042140e-02 5.357433e-02 -7.225063e-03 -2.495509e-02 -6.283757e-02 -4.430012e-02 -3.087750e-02 -1.149309e-01 -4.836771e-02 5.011539e-02 9.229854e-02 -1.876812e-01
<VARIANCE> 39
 3.109586e-01 7.615952e-01 9.714436e-01 1.940455e+00 1.527243e+00 1.433592e+00 1.370849e+00 1.353307e+00 1.235487e+00 7.785626e-01 1.078169e+00 1.432013e+00 4.362252e-01 9.335539e-01 8.726887e-01 1.154946e+00 1.258614e+00 1.227638e+00 1.227898e+00 1.337328e+00 1.239456e+00 1.279987e+00 1.070509e+00 1.071691e+00 1.089252e+00 1.033918e+00 7.431284e-01 6.333174e-01 8.739015e-01 8.862901e-01 1.100806e+00 1.026610e+00 1.058844e+00 1.111517e+00 1.124894e+00 8.653105e-01 9.025261e-01 1.011741e+00 7.535931e-01
<GCONST> 7.230147e+01
<STATE> 3
<NUMMIXES> 4
<MIXTURE> 1 2.318100e-01
<MEAN> 39
 -7.364501e-01 5.679600e-01 6.078673e-03 1.136842e+00 8.235286e-01 6.371699e-02 9.307057e-01 3.484360e-01 -9.124026e-01 2.940010e-01 -7.500419e-01 3.656618e-01 2.014090e-01 -5.588783e-01 -1.872830e-02 -1.274448e-01 2.309826e-02 1.020794e-01 6.071914e-02 1.937166e-01 3.244119e-01 8.857024e-02 1.046109e-01 -6.286515e-02 8.251090e-02 5.215794e-01 7.582430e-01 1.193647e-01 -1.470535e-02 -3.440323e-01 -1.916063e-01 -9.242913e-02 -2.187994e-01 -1.590698e-01 -1.876200e-01 -1.314507e-01 3.228271e-02 2.366073e-02 1.979357e-01
<VARIANCE> 39
 5.513402e-01 6.942968e-01 6.219381e-01 4.640377e-01 4.346722e-01 8.231885e-01 4.317980e-01 7.197316e-01 3.939443e-01 4.865605e-01 6.345543e-01 1.085090e+00 6.198121e-01 1.290203e+00 1.123464e+00 1.082650e+00 1.038542e+00 8.480803e-01 1.233708e+00 1.008291e+00 1.241005e+00 9.407859e-01 1.084747e+00 1.109868e+00 1.610213e+00 1.237032e+00 1.449572e+00 1.311527e+00 1.334037e+00 1.227311e+00 1.286504e+00 1.480911e+00 1.137814e+00 1.489043e+00 1.087286e+00 1.187799e+00 1.345807e+00 2.004707e+00 1.364974e+00
<GCONST> 7.021262e+01
<MIXTURE> 2 2.707173e-01
<MEAN> 39
 3.423267e-01 6.893276e-01 3.795695e-02 1.053242e+00 1.035600e+00 4.408975e-02 5.402184e-01 2.508938e-01 -9.993112e-01 1.357217e-01 -7.590327e-01 2.419126e-01 4.405943e-01 -1.545614e+00 1.085154e+00 2.422743e-01 3.947028e-01 2.407016e-01 5.369063e-01 4.647439e-01 -3.994030e-01 -2.332426e-01 -4.969866e-01 -1.428346e-01 2.799906e-01 -6.563895e-01 -4.731789e-01 -1.184664e+00 -6.669597e-01 -1.109705e+00 -1.113839e+00 -7.691376e-01 -3.888680e-01 2.424730e-01 6.888594e-02 4.265866e-01 1.710565e-01 4.998895e-02 1.271309e+00
<VARIANCE> 39
 2.776766e-01 2.484628e-01 4.252689e-01 2.697607e-01 3.066314e-01 6.455067e-01 4.912389e-01 7.074865e-01 4.304145e-01 5.113993e-01 4.613276e-01 6.361961e-01 3.965688e-01 1.272430e+00 1.524826e+00 1.506042e+00 1.410715e+00 1.019799e+00 1.954211e+00 1.563874e+00 1.758181e+00 1.708594e+00 1.480634e+00 1.228034e+00 1.746334e+00 1.539913e+00 2.020362e+00 1.000792e+00 1.348770e+00 1.106130e+00 1.000268e+00 1.356276e+00 1.359412e+00 1.308102e+00 1.169924e+00 1.285986e+00 1.024729e+00 1.344782e+00 1.200196e+00
<GCONST> 6.863371e+01
<MIXTURE> 3 2.941164e-01
<MEAN> 39
 -4.555733e-01 6.907662e-01 2.140516e-01 8.572943e-01 7.077583e-01 3.553919e-01 1.094265e+00 6.012294e-01 -8.841541e-01 2.335556e-01 -8.231173e-01 4.257466e-01 4.355207e-01 -7.535412e-01 -9.498288e-02 -5.845085e-01 -5.045469e-01 -4.082727e-01 -2.829809e-01 -8.489870e-02 -4.156623e-01 -3.604626e-01 -9.249263e-03 -7.001753e-02 1.752899e-02 5.179355e-01 5.941186e-01 -2.430779e-01 9.372348e-02 -1.024524e-01 -5.127335e-01 -8.421240e-01 -1.031982e+00 -6.754192e-01 -5.356174e-01 -3.667174e-01 4.677979e-02 1.463273e-01 3.500153e-01
<VARIANCE> 39
 4.376711e-01 2.774805e-01 6.895191e-01 3.618761e-01 3.483922e-01 4.641573e-01 3.410605e-01 7.771756e-01 3.568036e-01 4.945708e-01 4.548403e-01 6.565583e-01 4.630678e-01 1.005193e+00 7.928057e-01 1.088657e+00 1.107345e+00 8.294201e-01 1.061483e+00 1.121314e+00 1.232932e+00 9.073698e-01 1.172594e+00 9.608752e-01 1.110784e+00 7.517203e-01 1.280230e+00 1.081873e+00 1.245838e+00 1.108402e+00 1.103130e+00 1.178244e+00 1.066613e+00 1.375048e+00 1.055712e+00 1.387675e+00 1.054776e+00 1.312406e+00 1.110099e+00
<GCONST> 6.342122e+01
<MIXTURE> 4 2.033580e-01
<MEAN> 39
