~o
<STREAMINFO> 1 39
<VECSIZE> 39<NULLD><USER><DIAGC>
~h "a"
<BEGINHMM>
<NUMSTATES> 7
<STATE> 2
<NUMMIXES> 4
<MIXTURE> 1 1.538809e-01
<MEAN> 39
 -5.120234e-01 4.532645e-01 -1.990910e-01 5.925271e-01 8.088574e-01 7.510718e-02 6.103961e-01 -2.903110e-01 -7.573961e-01 3.369186e-03 -3.844080e-01 4.404482e-01 7.633381e-02 1.264229e+00 2.144262e-01 5.159169e-01 4.423648e-01 1.105496e-01 -2.613258e-01 -2.416219e-02 2.455975e-01 5.101043e-02 -1.110375e-01 -3.841286e-01 -2.371406e-01 1.517725e+00 1.173889e+00 -4.107469e-01 8.710650e-02 -3.738922e-01 -6.074536e-01 -4.267097e-01 -3.172700e-01 2.756182e-01 4.352948e-01 3.191294e-01 -1.174663e-02 -2.689214e-01 5.245920e-01
<VARIANCE> 39
 5.989621e-01 8.117332e-01 7.547203e-01 5.745112e-01 5.446056e-01 7.981858e-01 6.920863e-01 7.923703e-01 5.477112e-01 5.556132e-01 7.025540e-01 7.697646e-01 6.042050e-01 2.448451e+00 1.334664e+00 1.584729e+00 1.551989e+00 1.452873e+00 1.566229e+00 1.448398e+00 1.426915e+00 1.274054e+00 1.397053e+00 1.350585e+00 1.494519e+00 3.209792e+00 1.868446e+00 1.685858e+00 1.900240e+00 1.592646e+00 1.531890e+00 1.671792e+00 1.693073e+00 1.602905e+00 1.474615e+00 1.596797e+00 1.335269e+00 1.567519e+00 2.808694e+00
<GCONST> 7.927696e+01
<MIXTURE> 2 2.655696e-01
<MEAN> 39
 -2.481468e-01 -8.126643e-02 -4.075000e-01 3.093676e-02 5.851859e-01 1.136087e-01 1.442477e-01 -3.950067e-01 -5.675683e-01 2.199732e-01 -1.516400e-01 4.021280e-01 -1.967270e-01 -2.709127e-02 -7.639292e-02 7.309017e-02 1.397047e-01 6.510381e-02 2.666696e-02 1.045512e-01 1.602102e-01 1.233746e-01 5.881071e-02 3.137105e-02 4.006382e-02 6.910636e-02 4.532195e-02 -7.353355e-02 7.392506e-02 3.701336e-02 -2.985479e-02 -2.444471e-02 5.725634e-02 1.615897e-01 1.315483e-01 -1.632727e-03 1.212342e-02 2.537469e-02 1.707458e-01
<VARIANCE> 39
 9.595996e-01 9.919282e-01 1.199778e+00 7.873315e-01 1.107296e+00 1.268837e+00 1.192339e+00 1.635278e+00 1.120856e+00 9.931592e-01 1.383865e+00 2.562833e+00 1.457183e+00 2.640049e-01 4.687201e-01 6.098710e-01 6.440252e-01 5.843556e-01 7.922681e-01 7.558835e-01 8.476740e-01 7.432758e-01 7.436056e-01 8.076442e-01 8.859293e-01 4.041864e-01 4.606425e-01 5.411637e-01 7.686195e-01 6.944935e-01 6.919494e-01 7.917327e-01 8.519719e-01 9.162408e-01 8.040147e-01 8.369545e-01 8.793098e-01 9.387031e-01 4.370503e-01
<GCONST> 6.397347e+01
<MIXTURE> 3 3.824888e-01
<MEAN> 39
 -8.634200e-01 -3.606749e-01 -5.365438e-01 -1.500885e-01 4.025819e-01 -3.823628e-02 2.512833e-02 -3.063042e-02 -1.207707e-02 5.113707e-01 -2.272298e-01 3.435970e-01 -1.400443e+00 1.043437e-02 -6.788772e-03 -8.540300e-02 -7.025347e-02 -1.360423e-02 -1.658118e-02 -5.109937e-02 -8.776048e-02 -5.779067e-02 8.353435e-03 -4.435807e-02 -6.093765e-02 -1.555892e-02 4.107960e-02 4.922466e-02 1.857762e-02 3.063723e-02 4.810355e-02 3.046007e-02 -4.083459e-03 -7.970861e-02 -1.315086e-01 -6.732649e-02 -5.302796e-02 -2.580353e-02 1.879436e-02
<VARIANCE> 39
 1.198311e-01 3.583125e-01 2.895084e-01 4.477139e-01 4.039603e-01 5.318765e-01 4.779761e-01 7.887155e-01 4.640787e-01 5.779520e-01 1.054690e+00 1.340444e+00 2.349756e-01 2.013171e-01 5.681550e-01 6.157014e-01 6.760401e-01 7.284203e-01 7.903772e-01 7.814365e-01 8.928390e-01 8.388853e-01 9.127676e-01 9.088898e-01 1.048558e+00 4.809971e-01 4.400537e-01 7.404673e-01 8.661585e-01 8.114032e-01 1.034626e+00 9.951422e-01 9.917930e-01 1.032374e+00 9.986591e-01 1.071642e+00 1.020488e+00 1.145450e+00 7.345316e-01
<GCONST> 5.504507e+01
<MIXTURE> 4 1.980255e-01
<MEAN> 39
 -7.935628e-02 3.916057e-01 3.794952e-01 8.371508e-01 5.234329e-01 -3.174308e-01 3.035629e-02 -4.234961e-01 -7.633469e-01 -1.074451e-01 -8.097720e-01 -5.318296e-02 3.811561e-01 1.253912e+00 -5.231413e-01 1.227542e-01 -3.588679e-01 -7.629879e-01 -8.596091e-01 -5.757390e-01 2.323143e-01 3.490974e-01 1.060583e-01 2.375919e-02 6.722417e-02 1.207182e+00 3.589196e-01 -7.656531e-01 -4.764792e-01 -5.884326e-01 -5.711769e-01 -2.274518e-01 -1.824775e-02 5.339846e-01 4.732444e-01 3.668132e-01 2.482675e-01 1.417961e-01 4.984321e-01
<VARIANCE> 39
 6.281729e-01 9.696437e-01 1.174585e+00 5.708268e-01 6.981166e-01 9.257525e-01 1.188627e+00 1.018464e+00 9.066187e-01 8.487622e-01 7.620166e-01 1.085774e+00 5.686910e-01 2.457459e+00 1.387231e+00 2.264621e+00 1.733115e+00 1.370140e+00 1.600578e+00 1.531477e+00 1.723598e+00 1.655041e+00 1.642236e+00 1.323515e+00 1.460269e+00 1.316754e+00 1.814694e+00 1.614021e+00 1.554657e+00 1.197942e+00 1.233644e+00 1.439061e+00 1.497104e+00 1.634267e+00 1.435057e+00 1.318294e+00 1.154356e+00 1.309160e+00 1.644155e+00
<GCONST> 8.051687e+01
<STATE> 3
<NUMMIXES> 4
<MIXTURE> 1 1.322768e-01
<MEAN> 39
 6.617194e-01 -4.160828e-03 -7.287642e-02 9.167302e-01 1.123201e+00 3.584694e-01 5.736063e-01 2.928356e-01 -8.199773e-01 8.889875e-02 -3.376056e-01 2.337057e-01 6.276469e-01 2.291918e+00 -3.297078e-01 -5.075526e-01 -1.780740e-01 1.409344e-02 -3.672494e-02 4.533953e-01 1.149017e+00 5.764886e-01 1.016419e+00 -3.947933e-02 -8.630869e-01 3.331934e+00 -4.618109e-01 -9.716733e-01 -1.525143e+00 -1.715399e+00 -1.244697e+00 -5.552019e-01 -4.423283e-01 -2.532580e-01 3.964062e-01 9.590665e-01 6.228255e-01 -3.955947e-01 -1.096443e+00
<VARIANCE> 39
 1.677014e-01 2.504463e-01 2.071581e-01 2.602023e-01 3.211510e-01 4.762840e-01 4.661076e-01 7.505977e-01 4.375055e-01 4.570946e-01 5.610372e-01 6.733817e-01 4.078219e-01 7.578984e-01 9.266419e-01 1.249580e+00 1.427318e+00 1.205548e+00 1.301556e+00 1.434135e+00 1.708246e+00 1.419583e+00 1.588716e+00 1.522125e+00 1.711512e+00 2.086464e+00 1.907466e+00 1.475039e+00 1.616682e+00 1.353749e+00 1.410840e+00 1.646984e+00 1.680689e+00 1.940414e+00 1.594079e+00 1.505907e+00 1.342984e+00 1.481823e+00 4.040158e+00
<GCONST> 7.005996e+01
<MIXTURE> 2 3.296677e-01
<MEAN> 39
 6.661855e-01 -3.530824e-01 4.050174e-01 4.037343e-01 -3.258606e-01 -7.185321e-01 -5.766913e-01 -1.046078e-01 -4.148045e-01 1.507768e-01 -4.861066e-01 -9.605853e-02 9.504161e-01 6.285520e-01 -9.143953e-01 -3.005440e-01 -7.152368e-01 -1.026964e+00 -6.720223e-01 -1.230229e-01 9.516308e-01 1.083382e+00 3.447885e-01 2.162959e-01 2.245490e-01 1.398225e+00 -5.327408e-01 -2.733456e-01 -3.877784e-01 -1.794136e-01 1.218649e-01 2.852920e-01 4.812528e-01 4.118180e-01 2.168590e-01 3.368400e-02 -1.340831e-01 -5.105054e-02 3.874163e-02
<VARIANCE> 39
 2.932305e-01 5.875200e-01 1.349424e+00 7.824631e-01 6.423296e-01 1.028438e+00 1.194644e+00 1.329036e+00 1.029291e+00 1.122488e+00 1.007983e+00 1.346487e+00 2.728238e-01 1.163378e+00 9.300908e-01 1.987826e+00 1.506484e+00 1.437029e+00 1.515888e+00 1.369129e+00 1.995141e+00 1.802205e+00 1.373983e+00 1.413743e+00 1.327360e+00 1.097830e+00 1.043410e+00 7.897935e-01 1.164583e+00 7.432625e-01 9.297513e-01 1.008798e+00 9.979376e-01 1.243328e+00 1.028556e+00 9.236272e-01 8.814614e-01 9.556192e-01 6.383957e-01
<GCONST> 7.290236e+01
<MIXTURE> 3 3.288774e-01
<MEAN> 39
 2.882472e-01 2.578336e-01 9.024585e-01 9.194040e-01 -1.331394e-01 -1.238025e+00 -2.479010e-01 -2.389649e-02 -6.314503e-01 -2.252523e-01 -8.135315e-01 5.362044e-01 9.613680e-01 1.568054e+00 -1.599752e+00 4.320534e-01 -4.255570e-01 -1.414642e+00 -1.029747e+00 -1.073406e+00 6.037390e-01 5.590777e-01 2.656780e-01 1.731506e-01 3.364744e-01 1.414256e+00 -1.455983e+00 -4.953408e-01 -1.027700e+00 -6.718586e-01 4.646918e-02 7.474688e-01 4.783360e-01 2.448891e-01 2.277866e-01 3.708718e-01 1.516151e-01 -1.267530e-01 -3.396640e-01
<VARIANCE> 39
 2.491053e-01 4.721945e-01 9.275274e-01 4.533227e-01 4.935210e-01 6.565655e-01 5.833924e-01 7.243028e-01 8.366033e-01 8.327379e-01 6.351314e-01 8.587148e-01 4.488336e-01 1.765807e+00 1.381150e+00 1.795833e+00 1.278426e+00 1.123144e+00 1.379353e+00 1.329584e+00 1.305858e+00 1.403926e+00 1.476979e+00 1.008677e+00 1.121534e+00 8.179557e-01 1.640770e+00 1.542081e+00 1.527543e+00 9.533371e-01 1.005861e+00 9.428426e-01 9.871849e-01 1.064779e+00 9.113766e-01 9.727601e-01 8.102282e-01 1.038550e+00 7.340312e-01
<GCONST> 6.897598e+01
<MIXTURE> 4 2.091897e-01
<MEAN> 39
 8.217958e-01 -6.543760e-02 -6.599299e-01 3.522978e-01 8.315952e-01 8.699256e-02 3.670897e-01 8.806933e-03 -4.976692e-01 6.023409e-01 -3.897401e-01 -5.319032e-01 6.650946e-01 1.869426e+00 -1.135514e+00 -1.315500e+00 -1.439655e+00 -8.404294e-01 -5.616605e-01 5.373674e-02 4.809184e-01 7.633522e-01 1.504249e+00 9.436601e-02 -1.111906e+00 2.191344e+00 -1.308635e+00 -8.202292e-01 -5.239828e-01 -6.954993e-01 -4.158386e-01 -1.543351e-01 1.808877e-02 -1.341734e-01 7.898966e-02 3.520809e-01 4.769861e-02 3.726397e-03 -4.702844e-01
<VARIANCE> 39
 3.064024e-01 4.426806e-01 3.652540e-01 3.710184e-01 3.442978e-01 5.898318e-01 5.977547e-01 9.329296e-01 8.360333e-01 6.031290e-01 8.471709e-01 9.455920e-01 5.293567e-01 1.392877e+00 1.293915e+00 1.523430e+00 1.339626e+00 1.163418e+00 1.482137e+00 1.731527e+00 1.822794e+00 2.066859e+00 1.848719e+00 1.793099e+00 1.597806e+00 1.762696e+00 2.346065e+00 1.241219e+00 1.250642e+00 1.055777e+00 1.099110e+00 1.194523e+00 1.181998e+00 1.612298e+00 1.232116e+00 1.222479e+00 1.236847e+00 1.389242e+00 2.563472e+00
<GCONST> 7.407276e+01
<STATE> 4
<NUMMIXES> 4
<MIXTURE> 1 2.605613e-01
<MEAN> 39
 5.938594e-01 -6.558986e-01 9.456066e-01 4.742878e-01 -1.101236e+00 -1.279721e+00 -7.655354e-01 5.607373e-01 -6.876519e-02 -2.034805e-01 -2.891317e-01 4.880511e-01 1.311942e+00 8.437422e-02 -9.142728e-01 -5.115968e-01 -7.453174e-01 -8.513063e-01 -2.827030e-01 1.688635e-01 9.624316e-01 9.019765e-01 2.788111e-01 2.274637e-01 1.509638e-01 1.121444e+00 -6.142380e-01 5.738143e-01 -3.229139e-01 1.696266e-01 9.665009e-01 5.424597e-01 5.162212e-01 -2.993120e-01 -4.342614e-01 -5.167440e-02 -3.622122e-01 -4.075249e-01 -9.019694e-01
<VARIANCE> 39
 2.210048e-01 4.263483e-01 7.627200e-01 5.328131e-01 4.878614e-01 7.287256e-01 8.376958e-01 1.113117e+00 1.207817e+00 7.553946e-01 9.748331e-01 1.286313e+00 1.860781e-01 4.773234e-01 6.661342e-01 1.703467e+00 8.808444e-01 8.606298e-01 1.003673e+00 1.137743e+00 1.575133e+00 1.327266e+00 9.943817e-01 9.370618e-01 9.804639e-01 6.411297e-01 7.989386e-01 6.220718e-01 1.094216e+00 7.480710e-01 8.407069e-01 9.145713e-01 9.190345e-01 1.054498e+00 7.895054e-01 8.556770e-01 8.604171e-01 8.897119e-01 5.625386e-01
<GCONST> 6.278043e+01
<MIXTURE> 2 2.414665e-01
<MEAN> 39
 1.008214e+00 -5.095739e-01 -1.041304e+00 -4.130974e-01 2.195084e-01 -8.928269e-03 2.348102e-01 -2.630537e-01 -4.066566e-01 1.175841e+00 -1.997683e-01 -6.766750e-01 9.744585e-01 3.370613e-01 -8.900846e-01 -6.841242e-01 -8.552446e-01 -3.377523e-01 -1.004400e-01 2.714122e-01 3.889569e-01 5.307187e-01 7.314601e-01 -2.131998e-01 -4.192508e-01 1.089210e+00 -1.076258e+00 2.010453e-01 4.822746e-01 4.885229e-01 4.528230e-01 1.234169e-01 1.695616e-01 2.518601e-01 -2.139847e-01 -5.585409e-01 -3.630431e-01 8.671591e-02 -6.496677e-01
<VARIANCE> 39
 3.722270e-01 6.242961e-01 5.302446e-01 6.832998e-01 5.981684e-01 1.245258e+00 1.098235e+00 1.314081e+00 1.213037e+00 9.026712e-01 1.462793e+00 1.474953e+00 5.632015e-01 8.062381e-01 1.194037e+00 1.274711e+00 1.570776e+00 8.967490e-01 1.345484e+00 1.271952e+00 1.842347e+00 1.803437e+00 1.517903e+00 1.330931e+00 1.295588e+00 1.338702e+00 1.328575e+00 8.207260e-01 1.095355e+00 1.083089e+00 8.858386e-01 1.062548e+00 1.110164e+00 1.083799e+00 1.126206e+00 1.179374e+00 1.113848e+00 1.110592e+00 1.063005e+00
<GCONST> 7.403919e+01
<MIXTURE> 3 2.686469e-01
<MEAN> 39
 6.896143e-01 -8.856302e-01 3.489690e-01 1.876276e-01 -9.414327e-01 -1.258337e+00 -4.746743e-01 7.762773e-01 6.208435e-01 3.135941e-01 -7.495812e-01 3.196569e-01 1.539271e+00 2.798842e-01 -1.432909e+00 -1.097798e+00 -9.379322e-01 -5.633787e-01 -1.393918e-01 4.223388e-01 1.165990e+00 1.114447e+00 4.552538e-01 -3.299281e-01 -3.521253e-01 1.116992e+00 -1.012412e+00 7.884796e-01 -2.319640e-01 3.457240e-01 1.152480e+00 6.229345e-01 5.646922e-01 -4.368854e-01 -8.594084e-01 -3.102601e-01 -3.086421e-01 -4.937959e-01 -1.199684e+00
<VARIANCE> 39
 1.411399e-01 3.138674e-01 5.127305e-01 3.223965e-01 4.044168e-01 7.559101e-01 7.753375e-01 8.930590e-01 1.473014e+00 6.222768e-01 7.990094e-01 1.188857e+00 1.493953e-01 5.530772e-01 7.613658e-01 1.334543e+00 7.496041e-01 1.004382e+00 9.503468e-01 1.204307e+00 1.092262e+00 1.088596e+00 9.609525e-01 9.184809e-01 1.047826e+00 5.959594e-01 1.270190e+00 7.551880e-01 1.266766e+00 7.831225e-01 8.121059e-01 9.043384e-01 1.018122e+00 8.851843e-01 1.078587e+00 8.689774e-01 8.490022e-01 9.322228e-01 6.230090e-01
<GCONST> 6.078621e+01
<MIXTURE> 4 2.293330e-01
<MEAN> 39
 1.159228e+00 -7.030918e-01 -1.179331e+00 -2.396839e-01 5.618212e-01 -4.024993e-01 2.864336e-01 4.881184e-01 -3.484262e-01 1.629035e+00 -2.282250e-01 -1.086008e+00 1.215894e+00 4.081395e-01 -1.390163e+00 -1.263092e+00 -1.392618e+00 -5.574485e-01 -5.017857e-01 1.679192e-01 5.613859e-01 3.095792e-01 1.083493e+00 -2.741452e-01 -1.043406e+00 1.499989e+00 -1.869966e+00 3.457453e-01 7.251083e-01 5.526556e-01 3.308778e-01 4.640214e-01 1.427434e-01 -3.171880e-01 -3.399207e-01 -1.157043e+00 -5.374901e-01 3.568320e-01 -1.395823e+00
<VARIANCE> 39
 2.554515e-01 3.138918e-01 4.194932e-01 4.199114e-01 3.779604e-01 9.846054e-01 9.203387e-01 1.116001e+00 9.484074e-01 6.858916e-01 1.327020e+00 1.170512e+00 4.641111e-01 9.918858e-01 9.653848e-01 1.181400e+00 1.265975e+00 8.942974e-01 1.327903e+00 1.206595e+00 1.698582e+00 1.378345e+00 1.319737e+00 1.202274e+00 1.206697e+00 9.805446e-01 1.388086e+00 9.897178e-01 1.391713e+00 1.057110e+00 9.320217e-01 1.086789e+00 1.163765e+00 1.175762e+00 1.191419e+00 1.159349e+00 1.237063e+00 1.266077e+00 1.417876e+00
<GCONST> 7.004868e+01
<STATE> 5
<NUMMIXES> 4
<MIXTURE> 1 2.636925e-01
<MEAN> 39
 5.526193e-01 -1.045733e+00 6.299740e-01 2.429989e-01 -1.340739e+00 -1.213992e+00 -3.117487e-01 1.072797e+00 7.083567e-01 -1.686624e-01 -3.864883e-01 4.333996e-01 1.662174e+00 -6.217414e-02 -5.999536e-02 3.229683e-02 -1.709652e-02 -1.024706e-02 -1.188571e-02 -2.174586e-03 9.610601e-02 -3.506083e-02 -4.482169e-02 7.769011e-02 3.479918e-02 8.444106e-02 2.001646e-02 2.281856e-01 1.140589e-01 1.264014e-01 1.880883e-01 1.977857e-02 -1.346266e-01 -1.795834e-01 -2.287378e-01 7.367371e-03 2.725685e-02 2.606566e-02 -3.193317e-01
<VARIANCE> 39
 1.430777e-01 2.892400e-01 4.405506e-01 3.528418e-01 2.822092e-01 6.471824e-01 8.037264e-01 9.821597e-01 1.544582e+00 4.734063e-01 7.467797e-01 1.057507e+00 1.695984e-01 1.917399e-01 2.961890e-01 5.368249e-01 3.682324e-01 3.525887e-01 4.356629e-01 4.846358e-01 5.037450e-01 4.737798e-01 4.333375e-01 5.050097e-01 5.920336e-01 1.733983e-01 2.653899e-01 3.043880e-01 4.166969e-01 3.388064e-01 3.983912e-01 4.421248e-01 4.526084e-01 4.310935e-01 4.277306e-01 3.804852e-01 4.307243e-01 4.560179e-01 2.511670e-01
<GCONST> 3.738595e+01
<MIXTURE> 2 2.537066e-01
<MEAN> 39
 8.936074e-01 -1.032810e+00 -9.805063e-01 -3.939773e-01 1.656748e-01 -8.778234e-01 9.038933e-02 9.015763e-01 -6.354181e-02 1.294539e+00 -9.945236e-01 -9.516016e-01 1.388452e+00 -2.134774e-01 -3.378753e-01 -2.291135e-01 -2.630246e-01 1.338257e-01 -6.100029e-03 2.698419e-01 4.811435e-01 8.373873e-02 -1.084299e-01 -3.957174e-01 -2.811111e-01 3.877154e-01 -1.684495e-01 5.284207e-01 5.417618e-01 3.970823e-01 5.997596e-02 2.215432e-01 -1.046408e-01 -2.824774e-01 -1.947655e-01 -4.719998e-01 2.140100e-01 2.664391e-01 -5.655673e-01
<VARIANCE> 39
 2.774258e-01 6.295022e-01 7.273402e-01 6.366072e-01 6.987436e-01 1.776530e+00 1.190952e+00 1.819853e+00 1.289303e+00 1.078504e+00 1.422063e+00 1.306197e+00 3.567883e-01 4.559882e-01 6.333866e-01 1.192346e+00 9.578648e-01 8.682822e-01 1.006269e+00 9.009190e-01 1.129782e+00 8.359405e-01 8.667590e-01 8.524477e-01 1.032294e+00 4.792817e-01 7.535794e-01 6.995496e-01 1.092863e+00 9.322813e-01 9.153138e-01 9.324946e-01 9.144864e-01 1.010565e+00 8.640815e-01 8.654739e-01 8.199427e-01 8.010640e-01 7.080321e-01
<GCONST> 6.574332e+01
<MIXTURE> 3 2.272014e-01
<MEAN> 39
 5.671443e-01 -1.074276e+00 5.805256e-01 1.622867e-01 -1.336538e+00 -1.108934e+00 -3.095354e-01 1.197919e+00 7.235228e-01 -2.167238e-01 -3.692057e-01 3.033122e-01 1.595690e+00 4.692686e-02 -3.017623e-01 -4.381360e-01 -1.497889e-01 1.749776e-01 5.878774e-02 2.533891e-01 2.599900e-01 1.060509e-01 2.172551e-02 -2.765623e-01 -3.247940e-01 1.713815e-01 -5.793373e-03 4.341823e-01 7.773146e-02 2.281790e-01 4.795611e-01 -4.252136e-03 -6.251892e-02 -3.996415e-01 -4.737257e-01 8.395799e-02 -8.485193e-02 -4.000650e-02 -5.335142e-01
<VARIANCE> 39
 1.446729e-01 3.679982e-01 6.176138e-01 4.055215e-01 3.284932e-01 7.934245e-01 7.906381e-01 1.142995e+00 1.511113e+00 5.525711e-01 8.873075e-01 1.262172e+00 1.653524e-01 3.008845e-01 4.438344e-01 1.039680e+00 5.145435e-01 6.087959e-01 6.561874e-01 8.271133e-01 7.317610e-01 6.088721e-01 5.748275e-01 9.201681e-01 9.153133e-01 2.415388e-01 3.465002e-01 4.026280e-01 5.765335e-01 4.786241e-01 5.202410e-01 6.057058e-01 5.981162e-01 6.973748e-01 5.854304e-01 5.031559e-01 5.735495e-01 6.070501e-01 3.715494e-01
<GCONST> 4.879251e+01
<MIXTURE> 4 2.553968e-01
<MEAN> 39
 8.040864e-01 -1.254903e+00 -9.994894e-01 -4.742054e-01 9.870023e-03 -6.089383e-01 3.390699e-01 8.536755e-01 4.163381e-01 1.215943e+00 -1.169774e+00 -1.087240e+00 1.431778e+00 -1.559757e-01 -5.488548e-01 -6.427475e-01 -4.891881e-01 3.576412e-01 2.370473e-01 5.101976e-01 5.686839e-01 6.130642e-02 -5.370982e-02 -6.318986e-01 -6.288720e-01 5.035701e-01 -2.064193e-01 7.505828e-01 6.161236e-01 5.731570e-01 2.557856e-01 7.894728e-02 -2.475114e-01 -3.695986e-01 -4.708084e-01 -5.012867e-01 2.151688e-01 2.746717e-01 -8.146106e-01
<VARIANCE> 39
 2.722266e-01 3.730433e-01 5.014923e-01 4.027489e-01 5.801362e-01 1.511678e+00 9.692313e-01 1.739230e+00 1.368831e+00 9.567406e-01 1.183843e+00 1.328167e+00 5.923281e-01 4.091815e-01 5.981678e-01 1.039083e+00 7.143149e-01 8.276301e-01 9.307520e-01 9.142218e-01 1.052967e+00 7.784441e-01 7.965808e-01 8.631529e-01 9.615154e-01 4.918269e-01 6.103334e-01 5.913419e-01 8.505196e-01 7.528117e-01 7.682157e-01 8.518078e-01 8.357215e-01 1.028888e+00 9.558749e-01 8.638125e-01 7.674518e-01 8.414357e-01 7.108838e-01
<GCONST> 6.199133e+01
<STATE> 6
<NUMMIXES> 4
<MIXTURE> 1 2.497119e-01
<MEAN> 39
 8.281609e-01 -1.391259e+00 -5.869098e-01 -2.139798e-01 -2.926810e-01 -1.075264e+00 -7.956084e-04 1.516054e+00 5.342405e-01 7.627676e-01 -1.321138e+00 -9.558206e-01 1.740989e+00 -4.669078e-02 8.216352e-02 3.702412e-01 2.407995e-01 -1.648197e-01 -2.120020e-01 -2.062261e-01 5.961688e-02 -1.342906e-01 -1.677990e-01 2.192104e-01 3.018166e-01 -5.176348e-02 7.086788e-02 2.261713e-01 2.365756e-01 1.648166e-01 -2.670558e-02 2.382893e-02 -1.742779e-01 -3.149011e-01 -1.954350e-01 3.061981e-02 2.507316e-01 1.882644e-01 -3.291801e-01
<VARIANCE> 39
 1.111767e-01 2.460525e-01 4.234487e-01 3.111629e-01 4.004153e-01 1.332165e+00 9.293945e-01 1.338143e+00 1.130999e+00 8.082215e-01 8.670855e-01 1.210975e+00 1.256187e-01 1.985575e-01 2.743711e-01 5.972255e-01 4.220842e-01 4.897052e-01 5.982115e-01 5.905846e-01 6.253415e-01 5.166283e-01 5.170802e-01 6.367839e-01 7.027389e-01 1.391328e-01 2.610694e-01 2.784874e-01 4.016514e-01 3.644059e-01 4.219497e-01 5.002849e-01 5.140973e-01 4.538575e-01 4.205746e-01 4.373375e-01 4.943754e-01 4.673795e-01 2.342415e-01
<GCONST> 4.075405e+01
<MIXTURE> 2 2.438888e-01
<MEAN> 39
 9.868713e-01 -1.062447e+00 -1.725651e+00 -9.106266e-01 8.680313e-01 -1.383219e-01 8.942410e-01 6.271300e-01 -5.656928e-01 1.673014e+00 -1.224055e+00 -1.856938e+00 1.491222e+00 -4.986943e-02 7.932051e-02 6.136775e-02 7.396980e-03 4.559612e-02 2.868340e-02 4.672710e-03 -1.358480e-02 -2.654740e-02 -8.343083e-02 -1.915494e-02 1.090730e-01 -8.075696e-02 -1.603864e-03 7.172165e-02 2.758973e-01 1.659976e-01 -1.574631e-01 6.496401e-02 -2.011181e-01 -1.605152e-02 9.932923e-02 -1.635547e-01 1.938194e-01 1.860084e-01 -1.844341e-01
<VARIANCE> 39
 1.467798e-01 4.038613e-01 3.657420e-01 5.570924e-01 5.018404e-01 1.661220e+00 1.005317e+00 1.747674e+00 9.123759e-01 7.166201e-01 1.110962e+00 1.178999e+00 2.599934e-01 2.374959e-01 3.511547e-01 4.987034e-01 5.837849e-01 5.185750e-01 6.638605e-01 5.864945e-01 6.520567e-01 5.154311e-01 5.197693e-01 5.890729e-01 6.552047e-01 2.720429e-01 3.292283e-01 3.826837e-01 5.339555e-01 5.057683e-01 5.149503e-01 5.758239e-01 5.511803e-01 5.225425e-01 4.478827e-01 4.798537e-01 4.597182e-01 5.317596e-01 3.235150e-01
<GCONST> 4.690804e+01
<MIXTURE> 3 2.450290e-01
<MEAN> 39
 7.537178e-01 -1.350705e+00 -3.178847e-01 -9.578010e-02 -4.937935e-01 -6.226857e-01 9.380508e-02 1.032004e+00 7.144877e-01 4.228951e-01 -1.103573e+00 -7.989571e-01 1.577399e+00 5.361751e-02 1.072136e-01 2.020323e-01 1.917174e-01 -6.769838e-02 -1.438085e-01 -2.264855e-01 -7.406461e-02 -1.741590e-01 -5.118323e-02 2.146989e-01 1.107518e-01 -1.672947e-01 7.926255e-02 3.507401e-01 5.910955e-02 1.985445e-01 1.517448e-01 -8.205673e-02 -8.844840e-02 -2.838635e-01 -2.280530e-01 7.619166e-02 1.118352e-01 8.325366e-02 -4.779880e-01
<VARIANCE> 39
 1.549415e-01 4.529884e-01 8.195196e-01 4.574840e-01 5.213205e-01 1.717823e+00 1.040293e+00 1.671764e+00 1.359730e+00 9.451025e-01 1.122005e+00 1.619418e+00 1.789520e-01 2.294192e-01 3.404419e-01 6.537843e-01 4.713824e-01 5.209553e-01 6.606701e-01 6.747276e-01 7.129824e-01 5.882820e-01 5.716590e-01 6.513703e-01 7.286174e-01 2.166663e-01 3.059179e-01 3.679330e-01 4.391758e-01 3.970756e-01 4.819230e-01 5.622942e-01 5.726246e-01 5.896152e-01 5.157626e-01 4.905851e-01 5.340056e-01 5.714060e-01 3.933330e-01
<GCONST> 4.890377e+01
<MIXTURE> 4 2.613510e-01
<MEAN> 39
 8.855249e-01 -1.225696e+00 -1.748740e+00 -9.313125e-01 9.263944e-01 -5.571757e-03 8.383108e-01 8.955302e-01 -4.259029e-01 1.475385e+00 -1.274686e+00 -2.156709e+00 1.533692e+00 -4.461524e-02 -1.306683e-02 -1.226052e-02 -2.827755e-02 8.241450e-02 1.443682e-02 2.132054e-02 4.544466e-02 -2.682657e-02 -9.903913e-03 -7.294539e-02 -5.631030e-02 3.230083e-02 2.816664e-02 7.115583e-02 1.237345e-01 1.209949e-01 -1.044509e-01 -1.158452e-01 -5.307285e-02 -7.230778e-02 1.296725e-02 4.952291e-02 6.233322e-02 1.410054e-01 -1.332391e-01
<VARIANCE> 39
 1.870872e-01 3.228242e-01 3.896292e-01 4.229713e-01 4.653236e-01 1.510013e+00 7.710063e-01 1.631567e+00 7.519479e-01 7.355601e-01 9.793501e-01 1.146112e+00 4.148719e-01 1.638620e-01 2.484992e-01 3.814091e-01 4.033222e-01 4.042967e-01 5.341184e-01 4.787680e-01 5.439039e-01 4.173571e-01 4.388221e-01 4.485514e-01 4.953747e-01 2.472395e-01 2.444682e-01 2.690322e-01 4.126991e-01 3.762204e-01 4.314607e-01 4.693121e-01 4.524714e-01 4.404304e-01 3.921422e-01 4.126351e-01 3.787231e-01 4.681419e-01 1.912762e-01
<GCONST> 4.003761e+01
<TRANSP> 7
 0.000000e+00 1.000000e+00 0.000000e+00 0.000000e+00 0.000000e+00 0.000000e+00 0.000000e+00
 0.000000e+00 7.972299e-01 2.027701e-01 0.000000e+00 0.000000e+00 0.000000e+00 0.000000e+00
 0.000000e+00 0.000000e+00 4.724395e-01 5.275606e-01 0.000000e+00 0.000000e+00 0.000000e+00
 0.000000e+00 0.000000e+00 0.000000e+00 5.343513e-01 4.656487e-01 0.000000e+00 0.000000e+00
 0.000000e+00 0.000000e+00 0.000000e+00 0.000000e+00 6.791502e-01 3.208497e-01 0.000000e+00
 0.000000e+00 0.000000e+00 0.000000e+00 0.000000e+00 0.000000e+00 8.652345e-01 1.347655e-01
 0.000000e+00 0.000000e+00 0.000000e+00 0.000000e+00 0.000000e+00 0.000000e+00 0.000000e+00
<ENDHMM>
~h "b"
<BEGINHMM>
<NUMSTATES> 7
<STATE> 2
<NUMMIXES> 4
<MIXTURE> 1 1.955227e-01
<MEAN> 39
 9.944606e-01 -2.932459e-02 -1.467681e-01 4.073404e-01 2.313209e-01 -4.630108e-01 -4.053458e-01 -2.032059e-01 -1.048234e+00 -1.675987e-02 -1.761570e-02 -1.173911e-01 3.508492e-01 -1.138399e+00 1.145133e+00 4.459891e-01 8.871565e-01 1.565878e+00 1.624740e+00 5.139258e-01 -7.376502e-01 -2.988730e-01 -5.056468e-01 1.396218e-02 3.003165e-01 -3.142637e+00 -1.576882e+00 1.786762e-01 9.793805e-01 5.164660e-01 4.136569e-01 6.616604e-01 7.378340e-01 3.061395e-01 2.830245e-01 -3.321278e-01 -6.030250e-01 3.454108e-02 -5.579261e-01
<VARIANCE> 39
 1.981976e-01 3.953553e-01 1.269927e+00 1.118350e+00 3.506464e-01 8.965561e-01 8.263320e-01 8.639804e-01 7.974806e-01 1.530241e+00 1.045687e+00 1.022795e+00 2.823467e-01 8.686403e-01 8.523372e-01 3.062556e+00 2.789048e+00 1.261407e+00 1.846092e+00 1.787759e+00 1.475491e+00 1.532430e+00 2.812197e+00 1.352884e+00 2.185128e+00 9.946956e-01 9.642330e-01 9.719516e-01 1.296834e+00 1.126239e+00 1.062487e+00 1.286447e+00 1.160154e+00 1.386107e+00 1.217315e+00 1.505931e+00 1.332280e+00 1.243414e+00 1.578007e+00
<GCONST> 7.585664e+01
<MIXTURE> 2 2.954512e-01
<MEAN> 39
 3.561656e-01 1.742120e-01 -5.088987e-01 -1.477481e-01 1.909623e-01 2.319005e-01 3.413799e-01 -3.225957e-02 -3.290994e-01 2.558511e-01 -1.162716e-01 -2.589323e-01 -3.151074e-01 1.491514e-01 5.562729e-01 1.964882e-01 3.572243e-01 5.359619e-01 3.515497e-01 1.121245e-01 -1.428615e-01 -2.893812e-01 5.828098e-02 3.905524e-02 -1.243265e-01 -4.076544e-01 7.890132e-02 2.014743e-01 4.781934e-01 3.858267e-01 1.704482e-01 4.731044e-03 -1.166597e-01 -1.016674e-01 -9.955787e-02 -2.875290e-01 -1.051710e-01 6.225681e-02 -1.476109e-03
<VARIANCE> 39
 6.194428e-01 6.975687e-01 8.694918e-01 7.189838e-01 6.593776e-01 8.486401e-01 8.818101e-01 7.101649e-01 1.227543e+00 1.041342e+00 1.033255e+00 1.278118e+00 9.738674e-01 9.233539e-01 1.042971e+00 1.213090e+00 1.069745e+00 9.893140e-01 1.063035e+00 1.023668e+00 1.090284e+00 1.130598e+00 1.290152e+00 8.952004e-01 1.279921e+00 1.035988e+00 9.981506e-01 9.071983e-01 1.335230e+00 9.855803e-01 1.016163e+00 1.000949e+00 8.887135e-01 1.127462e+00 1.052135e+00 1.274648e+00 8.593258e-01 1.132676e+00 1.060151e+00
<GCONST> 7.126816e+01
<MIXTURE> 3 2.955011e-01
<MEAN> 39
 9.287720e-01 -8.093934e-01 -7.315189e-01 -1.876161e-01 -9.904292e-02 -6.836938e-01 -1.085030e-01 2.976112e-01 9.865858e-02 9.481244e-01 -2.561884e-01 -7.737241e-01 1.092396e+00 3.578846e-01 3.334025e-01 3.620732e-02 2.552494e-01 8.393925e-02 -2.555970e-01 -6.225353e-01 -3.809749e-01 -4.006848e-01 4.938862e-02 5.724989e-01 1.386256e-01 -6.713781e-01 -4.770666e-01 4.981273e-01 1.586847e-01 2.318067e-01 4.833448e-01 6.192914e-01 1.711794e-01 -3.064956e-01 -4.186665e-01 -3.964314e-01 2.091238e-02 2.188453e-01 -1.389482e+00
<VARIANCE> 39
 1.918519e-01 6.058577e-01 1.355357e+00 8.650327e-01 7.874174e-01 1.604668e+00 1.141796e+00 1.409360e+00 1.575023e+00 1.346296e+00 1.200992e+00 2.362231e+00 4.940294e-01 7.002552e-01 8.868868e-01 1.143284e+00 1.005324e+00 9.139174e-01 1.062273e+00 9.594153e-01 1.233984e+00 1.425817e+00 1.183088e+00 1.568550e+00 1.252794e+00 1.335905e+00 9.928880e-01 8.174583e-01 1.258548e+00 9.357236e-01 9.600582e-01 1.104986e+00 9.324789e-01 1.051272e+00 1.088641e+00 1.202996e+00 8.597385e-01 1.242030e+00 1.375020e+00
<GCONST> 7.342092e+01
<MIXTURE> 4 2.135250e-01
<MEAN> 39
 1.238461e+00 -4.280390e-01 -4.831053e-01 2.507711e-01 1.911557e-01 -8.048546e-01 -7.908258e-01 -1.107168e-01 -7.487280e-01 6.382678e-01 3.184898e-01 -3.259449e-01 7.852679e-01 -6.295004e-01 1.223486e+00 6.142771e-01 9.214566e-01 1.127308e+00 1.356969e+00 1.267076e-01 -1.034736e+00 -8.481255e-01 -1.077265e+00 8.751997e-02 4.008193e-01 -2.818874e+00 -1.826655e+00 3.096832e-01 5.764449e-01 3.422273e-01 5.476328e-01 8.881289e-01 1.153958e+00 3.358659e-01 2.188052e-01 -6.366354e-01 -9.791787e-01 9.915163e-02 -1.413362e+00
<VARIANCE> 39
 1.325099e-01 3.895215e-01 8.058570e-01 6.235864e-01 4.845389e-01 1.099730e+00 8.705194e-01 1.207675e+00 1.283821e+00 1.209120e+00 9.717204e-01 1.101095e+00 2.479858e-01 8.404378e-01 7.177256e-01 1.441942e+00 1.262755e+00 8.523329e-01 1.278621e+00 1.436908e+00 1.503073e+00 1.547250e+00 1.443079e+00 1.325033e+00 1.651715e+00 9.230326e-01 9.200562e-01 6.713490e-01 1.112038e+00 7.959921e-01 1.060851e+00 1.340438e+00 1.148176e+00 1.211426e+00 1.123341e+00 1.481288e+00 1.264205e+00 1.100204e+00 1.329399e+00
<GCONST> 7.021706e+01
<STATE> 3
<NUMMIXES> 4
<MIXTURE> 1 2.401652e-01
<MEAN> 39
 4.774506e-01 2.801431e-01 1.846379e-01 1.052913e+00 1.146975e+00 6.367255e-01 7.319748e-02 -6.580685e-01 -1.255905e+00 -3.326185e-01 -1.662811e-01 2.224811e-01 -4.952101e-01 -1.386851e+00 1.096271e+00 9.914007e-01 1.065545e+00 1.325031e+00 1.257548e+00 8.304462e-01 -2.031959e-01 -1.376572e-01 -5.358931e-01 -3.555253e-01 2.262837e-01 -2.535328e+00 8.781522e-01 -1.525927e-01 -2.129347e-02 -6.463364e-01 -1.068776e+00 -1.231663e+00 -2.466981e-01 7.988063e-01 6.995929e-01 3.797905e-01 -1.556606e-01 -4.640157e-01 1.882581e+00
<VARIANCE> 39
 1.122866e-01 2.570131e-01 4.819621e-01 3.628769e-01 3.734299e-01 5.110765e-01 4.716336e-01 5.985682e-01 6.033610e-01 4.586397e-01 5.375347e-01 6.926805e-01 1.001624e-01 5.489423e-01 6.814049e-01 1.518223e+00 1.256659e+00 9.167406e-01 1.426790e+00 1.025305e+00 1.041458e+00 1.224818e+00 1.932428e+00 1.240799e+00 1.653213e+00 8.975593e-01 7.422771e-01 8.689263e-01 1.380733e+00 1.157650e+00 1.052170e+00 1.155713e+00 1.049882e+00 1.084224e+00 1.169152e+00 1.492100e+00 1.124284e+00 1.359033e+00 9.439443e-01
<GCONST> 6.164064e+01
<MIXTURE> 2 2.587210e-01
<MEAN> 39
 1.429224e-01 8.495456e-01 -3.596967e-02 2.416741e-01 6.414518e-01 3.954814e-01 3.183910e-01 -1.166555e-01 -5.676160e-01 1.983128e-02 -2.128406e-01 -4.126270e-02 -1.037307e+00 -2.011247e-01 8.669404e-01 1.151662e+00 1.049580e+00 8.614709e-01 5.841388e-01 3.610156e-01 1.658489e-01 -5.373341e-02 -4.406311e-01 -3.409715e-01 -9.049565e-02 -6.493531e-01 1.842210e-01 -3.015406e-01 3.531628e-01 2.904140e-01 -1.476521e-01 -1.793599e-01 -1.865417e-01 -1.493290e-01 -8.473612e-02 -3.671832e-01 -2.911371e-01 -9.373508e-02 7.543327e-01
<VARIANCE> 39
 3.327784e-01 2.368089e-01 3.530085e-01 3.534362e-01 3.015276e-01 5.386034e-01 4.548392e-01 6.465051e-01 5.102113e-01 6.519718e-01 5.271011e-01 6.644093e-01 2.976930e-01 1.486915e+00 1.084353e+00 1.072701e+00 9.735879e-01 7.786503e-01 8.871893e-01 8.659592e-01 9.897368e-01 1.014474e+00 1.061681e+00 8.106263e-01 1.071105e+00 1.182606e+00 7.593873e-01 6.300468e-01 9.371733e-01 8.136677e-01 7.712008e-01 1.036360e+00 9.656044e-01 1.206460e+00 9.589416e-01 9.286517e-01 9.376974e-01 1.023240e+00 6.214983e-01
<GCONST> 5.903691e+01
<MIXTURE> 3 2.578672e-01
<MEAN> 39
 4.434479e-01 9.478745e-01 -8.132230e-02 2.432247e-01 6.135451e-01 3.944463e-01 3.200792e-01 -6.030030e-01 -8.961238e-01 -1.988807e-01 -3.668807e-01 -2.573566e-01 -7.236302e-01 -2.965465e-01 5.938522e-01 6.420450e-01 4.427481e-01 3.158584e-01 1.017697e-01 -2.822814e-02 -1.101401e-01 -2.120508e-01 -3.774687e-01 -2.101508e-01 -5.902296e-02 -7.295580e-01 -4.429494e-01 -4.446279e-01 1.910989e-01 1.528592e-01 -1.577584e-01 -2.695077e-01 -1.432982e-01 4.269527e-01 4.221414e-01 -6.950398e-02 -3.716329e-02 1.391085e-01 1.527902e-01
<VARIANCE> 39
 3.748755e-01 2.902964e-01 3.477264e-01 3.672333e-01 4.424410e-01 5.305864e-01 5.639372e-01 6.400183e-01 6.160057e-01 6.898064e-01 6.014082e-01 8.989557e-01 2.740544e-01 7.808838e-01 7.759046e-01 7.254567e-01 6.944875e-01 7.683797e-01 7.526196e-01 8.934375e-01 1.046058e+00 9.839679e-01 1.268304e+00 8.349183e-01 1.126509e+00 5.956471e-01 9.816968e-01 7.743561e-01 1.033680e+00 7.977185e-01 7.548194e-01 9.166022e-01 9.557186e-01 9.914649e-01 8.781626e-01 1.427092e+00 8.212855e-01 1.142527e+00 6.786019e-01
<GCONST> 5.889279e+01
<MIXTURE> 4 2.432464e-01
<MEAN> 39
 5.896582e-01 2.908773e-01 1.764531e-01 8.963416e-01 9.074439e-01 3.170880e-01 -1.503832e-01 -4.389430e-01 -1.010019e+00 -4.522063e-01 -3.172729e-01 -1.381795e-02 -3.115506e-01 -1.472929e+00 9.806492e-01 7.488650e-01 8.404272e-01 1.218425e+00 1.258645e+00 8.308521e-01 -1.331282e-01 -5.949531e-02 -6.673341e-01 -6.898313e-01 -1.344330e-01 -2.571945e+00 4.154652e-01 -2.571371e-01 9.700514e-03 -5.507203e-01 -8.545148e-01 -7.482939e-01 1.190040e-02 4.335477e-01 2.736183e-01 4.835952e-01 1.606032e-01 -7.825919e-02 1.498474e+00
<VARIANCE> 39
 1.992045e-01 2.381455e-01 5.935743e-01 4.482869e-01 3.208794e-01 5.165432e-01 5.624225e-01 6.166474e-01 6.567200e-01 5.624287e-01 6.844976e-01 7.523794e-01 1.346822e-01 6.725491e-01 7.622772e-01 1.933060e+00 1.684913e+00 1.025661e+00 1.281755e+00 1.227997e+00 1.193651e+00 1.484954e+00 2.315926e+00 1.159637e+00 1.612501e+00 8.609079e-01 1.193966e+00 1.047162e+00 1.714653e+00 1.261106e+00 9.308951e-01 1.113923e+00 1.245681e+00 1.164498e+00 1.283991e+00 1.663200e+00 9.835305e-01 1.466753e+00 1.342110e+00
<GCONST> 6.648652e+01
<STATE> 4
<NUMMIXES> 4
<MIXTURE> 1 2.984661e-01
<MEAN> 39
 2.407130e-01 9.556289e-01 6.030225e-01 1.253410e+00 1.468742e+00 9.101703e-01 4.935754e-01 -5.906892e-01 -1.270827e+00 -6.350899e-01 -5.365610e-01 5.010444e-02 -1.017839e+00 -5.118200e-01 5.004971e-01 5.414321e-01 1.727173e-01 5.240664e-02 -2.668673e-02 1.688697e-01 1.559598e-01 3.851199e-01 -1.390616e-02 -1.373707e-01 3.203373e-02 -7.115632e-01 4.194184e-01 -7.787160e-01 -3.173499e-01 -5.231425e-01 -9.596666e-01 -6.575308e-01 -2.684379e-01 3.485909e-01 4.218237e-01 2.138930e-01 1.839354e-01 3.135685e-02 1.543895e+00
<VARIANCE> 39
 7.581613e-02 2.103263e-01 2.887689e-01 2.071707e-01 2.928906e-01 4.619324e-01 4.236093e-01 5.450885e-01 3.786214e-01 3.987886e-01 5.733787e-01 8.493503e-01 7.749708e-02 2.784925e-01 1.047427e+00 8.363047e-01 5.691656e-01 6.875250e-01 7.867234e-01 6.967423e-01 7.685341e-01 9.000293e-01 6.800877e-01 9.189595e-01 9.396163e-01 8.034642e-01 5.448304e-01 9.027991e-01 8.989128e-01 6.433221e-01 7.629989e-01 9.223040e-01 8.918631e-01 8.286157e-01 8.214403e-01 9.120246e-01 9.668499e-01 1.082919e+00 1.014372e+00
<GCONST> 4.987914e+01
<MIXTURE> 2 2.134935e-01
<MEAN> 39
 5.767527e-02 3.907685e-01 5.629263e-01 1.106488e+00 9.200078e-01 3.266796e-01 2.320622e-01 1.853416e-01 -4.717271e-01 -6.459839e-01 -6.270492e-01 6.605863e-02 -7.714674e-01 -6.784705e-01 -4.344988e-01 2.489649e-01 7.918113e-02 3.841261e-02 3.598742e-01 4.232272e-01 3.571320e-01 5.411992e-01 2.197856e-02 2.929333e-01 1.840622e-01 -1.627702e-01 1.315000e+00 3.583618e-01 -9.859341e-01 -8.534321e-01 -2.747251e-01 -6.057257e-02 -1.887691e-01 -5.237477e-01 -6.664827e-01 6.808136e-01 4.306061e-01 -4.671542e-02 9.015145e-01
<VARIANCE> 39
 1.916609e-01 2.876717e-01 3.650933e-01 3.731856e-01 3.232706e-01 4.041506e-01 4.679947e-01 6.119249e-01 4.692499e-01 6.990491e-01 5.764698e-01 8.682402e-01 2.195993e-01 6.789412e-01 1.312373e+00 1.062257e+00 8.929504e-01 8.362595e-01 1.046571e+00 9.018126e-01 1.016201e+00 9.284431e-01 1.148332e+00 8.815410e-01 1.306358e+00 1.066355e+00 1.109064e+00 1.438339e+00 1.971095e+00 1.043584e+00 1.089815e+00 1.175496e+00 1.033223e+00 1.025877e+00 9.991644e-01 1.651522e+00 1.018190e+00 1.450220e+00 1.883134e+00
<GCONST> 6.307597e+01
<MIXTURE> 3 3.177266e-01
<MEAN> 39
 1.764809e-01 1.159937e+00 7.112808e-01 1.107165e+00 1.202906e+00 7.665864e-01 4.663793e-01 -4.036598e-01 -9.714221e-01 -6.602532e-01 -8.379813e-01 -4.152543e-01 -1.087162e+00 -4.278722e-01 6.363395e-01 6.087213e-01 2.256396e-01 8.849389e-02 -8.698497e-02 2.074044e-01 2.154725e-01 1.941312e-01 -1.813705e-01 -3.785359e-01 -2.640209e-01 -7.347889e-01 3.514481e-01 -1.068551e+00 -4.918767e-01 -3.457830e-01 -7.510753e-01 -5.359462e-01 -3.788827e-01 1.002682e-01 1.529424e-01 2.089227e-01 6.296462e-01 4.873968e-01 1.568280e+00
<VARIANCE> 39
 7.337537e-02 1.844422e-01 2.808431e-01 2.885457e-01 2.324271e-01 4.143279e-01 3.321168e-01 4.664764e-01 3.129753e-01 4.395172e-01 5.501620e-01 5.835415e-01 8.882200e-02 3.392843e-01 8.020583e-01 9.265110e-01 6.605853e-01 6.813499e-01 8.494487e-01 7.920441e-01 9.182051e-01 9.680925e-01 7.888848e-01 8.836557e-01 1.046220e+00 5.938026e-01 5.744781e-01 8.727173e-01 1.053976e+00 6.963047e-01 7.293074e-01 1.000686e+00 8.045374e-01 9.130701e-01 8.979947e-01 8.849072e-01 9.724718e-01 9.592048e-01 9.373859e-01
<GCONST> 4.960128e+01
<MIXTURE> 4 1.703146e-01
<MEAN> 39
 1.615349e-01 9.029842e-01 4.340329e-01 6.952670e-01 6.969598e-01 1.138517e-01 2.257310e-02 -1.438110e-01 -6.716706e-01 -3.298209e-01 -6.006207e-01 -2.128789e-01 -9.352693e-01 2.492309e-03 1.433745e-01 3.554052e-01 3.538909e-01 1.714714e-01 6.559807e-02 -9.573612e-03 -4.077611e-02 -1.798893e-01 -3.584850e-01 -1.193850e-01 7.142993e-03 7.311416e-02 -1.184303e-01 -7.641134e-01 -8.639752e-01 -5.920897e-01 -2.732190e-01 1.233086e-01 1.565992e-01 4.804728e-02 1.461028e-01 4.603636e-01 3.991179e-01 1.867866e-01 4.854535e-01
<VARIANCE> 39
 3.260173e-01 4.485018e-01 5.326627e-01 4.597424e-01 3.373776e-01 4.442823e-01 4.583858e-01 7.914075e-01 7.051384e-01 8.241193e-01 6.310321e-01 9.770375e-01 4.311855e-01 1.008718e+00 1.221117e+00 9.643909e-01 9.761572e-01 7.589710e-01 8.840159e-01 9.570673e-01 1.256714e+00 1.201571e+00 1.074230e+00 9.256726e-01 1.242520e+00 9.360389e-01 2.061858e+00 1.297041e+00 1.313489e+00 9.904450e-01 1.090054e+00 1.079405e+00 1.006563e+00 1.279930e+00 1.369372e+00 1.332196e+00 9.588093e-01 1.539820e+00 1.902396e+00
<GCONST> 6.712743e+01
<STATE> 5
<NUMMIXES> 4
<MIXTURE> 1 2.947155e-01
<MEAN> 39
 3.604810e-02 1.405984e+00 8.839368e-01 1.104921e+00 1.018222e+00 5.148787e-01 5.636975e-01 5.806834e-02 -6.369177e-01 -2.075361e-01 -7.369169e-01 -2.708896e-01 -1.457174e+00 -1.358472e-01 -2.388083e-01 -3.447656e-02 9.289955e-02 1.736028e-02 -1.869203e-02 -1.740984e-02 2.962816e-02 9.651514e-02 -1.228699e-02 1.524697e-01 2.094681e-01 1.162792e-01 -3.213141e-02 -6.433457e-01 -2.691334e-01 -1.590489e-01 -1.244635e-01 4.717491e-02 -9.620257e-02 -1.381694e-01 4.033386e-02 3.631703e-02 2.276860e-01 1.882823e-01 7.118430e-01
<VARIANCE> 39
 5.813802e-02 1.485557e-01 1.643181e-01 2.463961e-01 1.951985e-01 3.878741e-01 2.561332e-01 5.092737e-01 3.391065e-01 5.753033e-01 5.342168e-01 6.171932e-01 8.422099e-02 1.661584e-01 5.760525e-01 4.964579e-01 4.860662e-01 4.255379e-01 5.600853e-01 5.634854e-01 6.364322e-01 6.215594e-01 6.263725e-01 7.249543e-01 8.033847e-01 3.687921e-01 2.747511e-01 4.474579e-01 7.032234e-01 5.900345e-01 5.884124e-01 6.891679e-01 7.236648e-01 7.669123e-01 7.669992e-01 7.264400e-01 9.007926e-01 9.045857e-01 4.366343e-01
<GCONST> 3.908851e+01
<MIXTURE> 2 2.072456e-01
<MEAN> 39
 1.904512e-02 6.053177e-01 4.720279e-01 9.920478e-01 1.065562e+00 7.146797e-01 4.817832e-01 -2.590004e-01 -7.738830e-01 -4.401698e-01 -2.697084e-01 1.935808e-01 -8.894065e-01 4.757965e-02 -1.031503e+00 -6.303024e-01 -3.067800e-01 -1.778815e-01 2.864906e-02 -1.129633e-01 -1.089773e-01 -2.114093e-02 1.365596e-01 6.579641e-01 6.093355e-01 1.150695e+00 8.090635e-01 1.143253e-01 -2.829335e-01 -3.306723e-01 -3.354505e-01 -3.098553e-01 -9.553701e-02 9.910429e-02 -3.477059e-03 2.831345e-01 -1.300879e-01 -2.018057e-01 1.115363e+00
<VARIANCE> 39
 1.513702e-01 2.313363e-01 3.461025e-01 2.722519e-01 2.164259e-01 4.287677e-01 3.182229e-01 6.178105e-01 4.380020e-01 5.216023e-01 4.906974e-01 6.848953e-01 1.389058e-01 3.602523e-01 1.134282e+00 9.142255e-01 7.121978e-01 7.059889e-01 7.709593e-01 7.736381e-01 9.179997e-01 9.151958e-01 9.626980e-01 8.512723e-01 1.059113e+00 9.383139e-01 8.737229e-01 1.229706e+00 1.467751e+00 9.429175e-01 8.026161e-01 1.010253e+00 8.796989e-01 9.924783e-01 9.246144e-01 1.350998e+00 9.069643e-01 1.142093e+00 1.900453e+00
<GCONST> 5.580126e+01
<MIXTURE> 3 2.974550e-01
<MEAN> 39
 -4.931042e-02 1.349283e+00 6.614281e-01 7.752143e-01 8.671667e-01 5.497363e-01 4.645029e-01 -2.549131e-01 -5.412037e-01 -2.285977e-02 -5.008222e-01 -3.802519e-01 -1.371573e+00 -1.244041e-01 -1.217384e-01 1.750758e-01 2.424633e-01 5.656911e-02 -5.006298e-02 -7.707394e-03 8.745266e-02 3.980506e-02 -2.059318e-01 -9.248055e-02 -3.444263e-02 -4.449874e-03 -1.007653e-01 -6.118957e-01 -1.035195e-01 1.411920e-02 -7.699314e-02 -2.494868e-02 -2.359375e-04 1.309439e-01 9.715850e-02 -2.137748e-01 7.984494e-02 2.794462e-01 5.087866e-01
<VARIANCE> 39
 5.542128e-02 1.324911e-01 1.984531e-01 2.412207e-01 1.939468e-01 3.282603e-01 3.029930e-01 4.534674e-01 2.810243e-01 5.512189e-01 4.950717e-01 7.019526e-01 9.170450e-02 1.717241e-01 6.532614e-01 5.205042e-01 4.765922e-01 4.317841e-01 5.529282e-01 6.022812e-01 6.497836e-01 6.299618e-01 7.409346e-01 7.189122e-01 9.087390e-01 4.166094e-01 3.440365e-01 4.341044e-01 8.122149e-01 6.578203e-01 5.889139e-01 6.630973e-01 7.652714e-01 7.577167e-01 7.074803e-01 9.387149e-01 8.765426e-01 9.652346e-01 3.016962e-01
<GCONST> 3.987006e+01
<MIXTURE> 4 2.005891e-01
<MEAN> 39
 -1.335152e-01 4.658138e-01 4.485863e-01 6.792685e-01 6.916239e-01 5.278779e-01 4.816541e-01 4.255188e-02 -2.352915e-01 -2.883162e-01 -1.706492e-01 2.357308e-01 -8.424302e-01 3.095316e-01 4.970363e-02 -9.556032e-01 -8.247878e-01 -1.759829e-01 1.681218e-01 4.347423e-02 -3.292054e-01 -3.063404e-01 7.555673e-01 4.144604e-01 6.159978e-02 2.236843e-01 4.607926e-01 7.352879e-01 -9.562694e-02 2.539902e-01 4.196114e-01 -9.489448e-02 -1.103954e-01 -3.091494e-01 -5.725614e-01 1.395665e-01 -2.473503e-01 -2.441215e-01 -2.860585e-01
<VARIANCE> 39
 1.099792e-01 2.492158e-01 3.022029e-01 3.365842e-01 2.235986e-01 3.092873e-01 2.808818e-01 5.490999e-01 3.193938e-01 6.909871e-01 4.527435e-01 5.674181e-01 1.363200e-01 4.462372e-01 1.432223e+00 8.346760e-01 7.021660e-01 6.670645e-01 7.566667e-01 7.406247e-01 8.351761e-01 8.602201e-01 1.317707e+00 6.910542e-01 1.033114e+00 9.779068e-01 9.712621e-01 1.465513e+00 1.605562e+00 1.143568e+00 8.883367e-01 8.798848e-01 8.385834e-01 1.031811e+00 9.744123e-01 1.830296e+00 7.876439e-01 1.045956e+00 1.733120e+00
<GCONST> 5.551551e+01
<STATE> 6
<NUMMIXES> 4
<MIXTURE> 1 2.255813e-01
<MEAN> 39
 1.499513e-01 2.869924e-01 4.649790e-02 7.222522e-01 9.159524e-01 5.177771e-01 2.601213e-01 -3.922698e-01 -8.753582e-01 -2.163770e-01 5.955518e-02 4.482577e-01 -4.650543e-01 9.308720e-01 -5.413916e-01 -3.348035e-01 2.411991e-03 -1.975395e-01 -3.864852e-01 -4.187388e-02 2.886125e-01 -7.053927e-02 5.828974e-02 -1.858057e-01 -6.078470e-02 2.196373e+00 1.106023e+00 2.726348e-01 3.220769e-01 -1.131284e-01 -2.896349e-01 -1.963174e-01 1.549856e-01 4.825027e-01 3.002615e-01 6.410448e-02 -4.757129e-01 -4.811516e-01 1.429881e+00
<VARIANCE> 39
 2.311913e-01 2.873190e-01 3.802039e-01 3.617024e-01 2.960324e-01 4.685507e-01 4.260415e-01 6.570021e-01 5.503640e-01 5.258490e-01 4.992787e-01 7.027696e-01 2.865957e-01 8.810303e-01 9.407352e-01 1.389677e+00 1.190407e+00 9.535605e-01 1.088639e+00 9.975218e-01 1.143014e+00 1.211474e+00 1.403293e+00 1.015264e+00 1.234325e+00 1.824439e+00 1.288503e+00 1.251728e+00 1.376998e+00 1.259441e+00 1.128947e+00 1.143125e+00 1.162021e+00 1.311768e+00 1.327565e+00 1.448355e+00 1.026202e+00 1.256899e+00 1.892970e+00
<GCONST> 6.528933e+01
<MIXTURE> 2 2.932794e-01
<MEAN> 39
 -9.886494e-01 1.877865e-01 -5.067005e-01 -6.435738e-01 5.186089e-01 6.742868e-01 1.719278e-01 -1.460618e-01 -1.247159e-01 -6.314176e-02 5.052733e-01 4.691530e-01 -1.409967e+00 -6.895830e-02 -1.087522e-01 2.445722e-01 3.174958e-01 1.309588e-01 -8.789003e-03 4.544039e-02 3.007134e-01 2.049166e-01 -1.327922e-01 4.869790e-02 2.337060e-01 9.408720e-02 2.100696e-02 -2.995964e-01 8.394563e-02 1.390545e-01 -9.809256e-02 -1.088216e-01 -4.238220e-02 5.666374e-02 2.681754e-01 -8.301464e-02 1.250686e-01 1.615715e-01 4.037665e-01
<VARIANCE> 39
 4.737573e-02 1.121942e-01 3.152709e-01 1.787765e-01 5.116774e-01 5.936600e-01 3.117989e-01 8.701373e-01 5.156161e-01 3.278229e-01 8.132166e-01 1.184233e+00 7.787350e-02 1.866547e-01 6.079198e-01 5.183682e-01 5.551267e-01 5.601330e-01 8.671667e-01 7.515581e-01 8.441795e-01 7.049310e-01 8.417733e-01 8.486355e-01 1.077659e+00 3.874481e-01 4.342857e-01 6.493167e-01 6.983933e-01 6.916204e-01 8.435077e-01 9.330565e-01 9.703586e-01 1.023851e+00 9.021122e-01 9.731997e-01 1.020406e+00 1.065506e+00 2.527085e-01
<GCONST> 4.688012e+01
<MIXTURE> 3 3.245342e-01
<MEAN> 39
 -9.059244e-01 2.623460e-01 -6.185792e-01 -8.595395e-01 1.082259e-01 4.229524e-01 2.633803e-01 1.150484e-02 2.159443e-01 3.637243e-01 2.421440e-01 -2.748275e-02 -1.490101e+00 -1.113741e-01 9.571157e-02 8.425850e-02 1.679806e-02 -2.258727e-02 -4.646142e-02 -6.689914e-02 -6.540035e-02 -6.506428e-02 -5.607714e-02 -2.278112e-01 -2.000129e-01 -2.533145e-01 -1.278616e-01 -2.771349e-01 9.662053e-02 1.925828e-01 3.839429e-02 -5.673543e-04 -2.690718e-02 6.380071e-02 2.971558e-02 -3.044960e-01 -7.773778e-02 1.512781e-01 2.147992e-01
<VARIANCE> 39
 4.960652e-02 9.125371e-02 3.386767e-01 1.716117e-01 2.420070e-01 3.990655e-01 2.864995e-01 5.434752e-01 2.748494e-01 3.601174e-01 5.059569e-01 5.315843e-01 6.059496e-02 1.383055e-01 3.054667e-01 4.864846e-01 5.097146e-01 5.567035e-01 6.863557e-01 7.427484e-01 8.599334e-01 7.093667e-01 8.845983e-01 8.522658e-01 1.253222e+00 2.249915e-01 3.544370e-01 3.864056e-01 8.397903e-01 6.918529e-01 7.782595e-01 8.372334e-01 9.194053e-01 1.038278e+00 9.890454e-01 1.027259e+00 1.010075e+00 1.277336e+00 1.943126e-01
<GCONST> 4.057306e+01
<MIXTURE> 4 1.565937e-01
<MEAN> 39
 -1.007133e+00 -4.793908e-01 -5.123174e-01 -3.147870e-01 1.605316e-01 1.817400e-01 1.778793e-01 1.888126e-01 4.450006e-01 -3.775026e-01 5.064341e-01 1.037187e+00 -9.651159e-01 3.208130e-01 -3.727768e-02 -7.629707e-01 -7.669588e-01 -2.929872e-01 7.980711e-02 4.680249e-02 -4.653967e-01 -2.697999e-01 4.422807e-01 3.659465e-01 -7.743492e-02 3.612710e-01 4.420125e-01 1.321998e+00 -2.211110e-01 -4.926164e-01 2.333690e-01 2.330809e-01 1.280992e-01 -2.619627e-01 -6.686698e-01 7.498958e-01 -1.763041e-01 -7.149036e-01 -1.124094e+00
<VARIANCE> 39
 8.559650e-02 1.613062e-01 3.231736e-01 2.767902e-01 3.021521e-01 3.246555e-01 2.989850e-01 5.026141e-01 4.160394e-01 3.122830e-01 5.993868e-01 5.047013e-01 7.043882e-02 3.672542e-01 1.812548e+00 7.258080e-01 7.881480e-01 4.323567e-01 5.977629e-01 5.251355e-01 6.624065e-01 1.100158e+00 1.314160e+00 6.565827e-01 9.904497e-01 7.231375e-01 8.854036e-01 1.225786e+00 1.563113e+00 1.301110e+00 5.556715e-01 7.081726e-01 7.344987e-01 9.089451e-01 9.811524e-01 1.234863e+00 7.747037e-01 9.390820e-01 6.245764e-01
<GCONST> 4.997187e+01
<TRANSP> 7
 0.000000e+00 1.000000e+00 0.000000e+00 0.000000e+00 0.000000e+00 0.000000e+00 0.000000e+00
 0.000000e+00 6.761662e-01 3.238338e-01 0.000000e+00 0.000000e+00 0.000000e+00 0.000000e+00
 0.000000e+00 0.000000e+00 5.941085e-01 4.058916e-01 0.000000e+00 0.000000e+00 0.000000e+00
 0.000000e+00 0.000000e+00 0.000000e+00 6.562837e-01 3.437163e-01 0.000000e+00 0.000000e+00
 0.000000e+00 0.000000e+00 0.000000e+00 0.000000e+00 8.758277e-01 1.241723e-01 0.000000e+00
 0.000000e+00 0.000000e+00 0.000000e+00 0.000000e+00 0.000000e+00 8.817446e-01 1.182554e-01
 0.000000e+00 0.000000e+00 0.000000e+00 0.000000e+00 0.000000e+00 0.000000e+00 0.000000e+00
<ENDHMM>
~h "d"
<BEGINHMM>
<NUMSTATES> 7
<STATE> 2
<NUMMIXES> 4
<MIXTURE> 1 2.343809e-01
<MEAN> 39
 -3.958382e-01 4.699791e-01 1.381202e-01 3.402903e-02 3.633209e-01 1.505740e-01 3.499452e-01 -1.093610e-01 -5.966256e-01 1.658014e-01 -2.097461e-01 2.003562e-01 -5.440603e-01 1.078275e-01 5.348920e-01 2.286706e-01 3.284315e-01 4.851395e-01 3.075084e-01 2.121909e-01 -7.487594e-02 -2.311729e-01 6.118660e-02 9.608889e-03 -1.792926e-01 -4.160161e-01 1.908285e-01 2.876483e-01 5.792471e-01 5.675724e-01 2.992671e-01 -7.660247e-02 -1.274574e-01 -7.926196e-03 -2.437309e-01 -4.097220e-01 -2.980044e-01 -1.188466e-01 3.351343e-01
<VARIANCE> 39
 7.066551e-01 5.899653e-01 9.084598e-01 8.046752e-01 6.348547e-01 7.255638e-01 6.540816e-01 8.965690e-01 6.585277e-01 8.063782e-01 7.941437e-01 9.014871e-01 6.846941e-01 1.306050e+00 1.080001e+00 1.689844e+00 1.651468e+00 9.423075e-01 1.088434e+00 1.097851e+00 1.244040e+00 1.125780e+00 1.296217e+00 9.297149e-01 1.101059e+00 2.176008e+00 1.354064e+00 1.173137e+00 1.550029e+00 1.207119e+00 1.190889e+00 1.135392e+00 1.129072e+00 1.242777e+00 1.192154e+00 1.308370e+00 1.029945e+00 1.155411e+00 1.844278e+00
<GCONST> 7.368060e+01
<MIXTURE> 2 2.623188e-01
<MEAN> 39
 7.827573e-01 -5.779387e-01 6.310090e-01 6.239495e-01 -6.741831e-01 -1.069202e+00 -1.046688e+00 -1.356441e-01 -4.098593e-02 -5.670182e-03 -4.930673e-01 4.950450e-02 1.083083e+00 -1.658702e-01 3.220811e-01 6.042531e-01 2.089522e-01 2.141349e-01 2.658359e-02 -2.414292e-01 -1.542940e-01 -9.945016e-02 -3.607285e-01 -3.234655e-01 8.619032e-02 -5.330755e-01 -3.942829e-01 3.746936e-01 -1.191814e-01 5.989163e-02 5.657032e-01 3.962604e-01 3.419195e-01 -3.753995e-02 -2.513747e-01 1.622364e-02 -6.611080e-02 -5.675960e-02 -1.110067e+00
<VARIANCE> 39
 2.111199e-01 4.179189e-01 1.111010e+00 5.964634e-01 5.891517e-01 8.393032e-01 7.447412e-01 1.344563e+00 1.532911e+00 1.345924e+00 9.983926e-01 1.446315e+00 2.432125e-01 3.305596e-01 5.740636e-01 9.091407e-01 6.588979e-01 6.852486e-01 8.018773e-01 7.161027e-01 9.270027e-01 7.452298e-01 6.683934e-01 7.019802e-01 8.400096e-01 1.157820e+00 5.224736e-01 4.514336e-01 7.643141e-01 5.569270e-01 6.422412e-01 8.006064e-01 7.584037e-01 7.806672e-01 7.815028e-01 6.594678e-01 6.635710e-01 8.118059e-01 1.034559e+00
<GCONST> 5.881594e+01
<MIXTURE> 3 2.542045e-01
<MEAN> 39
 7.895845e-01 -5.748730e-01 4.772578e-01 4.004940e-01 -4.035720e-01 -1.560365e+00 -1.298404e+00 4.200619e-01 -3.543354e-01 2.093704e-01 -8.049432e-01 1.122126e-01 1.201126e+00 -2.041165e-01 6.920560e-01 9.468887e-01 7.327384e-01 6.147931e-01 2.468841e-01 -3.252635e-01 -7.866744e-01 -4.503276e-01 -6.572155e-01 -5.066016e-01 -1.355860e-01 -1.490679e+00 -8.177795e-01 2.994599e-01 -1.886229e-01 2.938409e-01 7.564027e-01 1.065029e+00 8.777135e-01 -1.383564e-01 -1.416109e-01 -8.348075e-02 4.031084e-03 -2.770140e-01 -1.829615e+00
<VARIANCE> 39
 1.863481e-01 4.083374e-01 8.570131e-01 6.095008e-01 5.826723e-01 9.153709e-01 6.219082e-01 1.204435e+00 1.617814e+00 1.269614e+00 8.787703e-01 1.298152e+00 2.294183e-01 3.455854e-01 5.816177e-01 9.217956e-01 7.378436e-01 8.010833e-01 9.570737e-01 9.681297e-01 1.224299e+00 9.718419e-01 8.581364e-01 8.473565e-01 1.157059e+00 1.081876e+00 7.430845e-01 5.232809e-01 9.507197e-01 7.405230e-01 8.301982e-01 1.094553e+00 9.991221e-01 9.355622e-01 1.102657e+00 9.488983e-01 8.144867e-01 1.209763e+00 1.038880e+00
<GCONST> 6.331547e+01
<MIXTURE> 4 2.490974e-01
<MEAN> 39
 5.250875e-01 4.450046e-01 3.491809e-01 2.518356e-01 8.347558e-02 -1.260061e-01 -3.814499e-02 -6.106529e-01 -9.665504e-01 -7.741491e-02 -5.541487e-01 -2.092434e-02 2.277503e-01 -8.942719e-02 3.545673e-02 4.731549e-01 5.282328e-01 2.615892e-02 -3.394862e-01 -4.129434e-01 -5.680845e-02 7.113796e-02 -2.849184e-01 -1.473422e-01 -5.762515e-02 -5.326148e-01 -6.170578e-01 -1.220527e-01 -2.704990e-01 -1.347461e-01 2.270787e-01 2.062490e-01 2.418999e-01 3.317077e-01 1.539664e-02 -2.348818e-03 1.212611e-01 1.612906e-01 -5.141872e-01
<VARIANCE> 39
 5.825907e-01 6.012365e-01 1.435361e+00 1.487198e+00 8.775274e-01 1.209392e+00 1.077317e+00 1.314784e+00 9.895090e-01 1.224870e+00 9.046919e-01 1.180655e+00 4.785881e-01 1.776324e+00 1.344729e+00 1.908628e+00 2.221589e+00 1.478840e+00 1.310001e+00 1.368172e+00 1.542190e+00 1.185128e+00 1.549331e+00 1.173780e+00 1.298242e+00 2.774507e+00 1.401486e+00 1.155698e+00 1.611210e+00 1.488955e+00 1.173234e+00 1.220574e+00 1.281350e+00 1.446092e+00 1.082566e+00 1.411428e+00 1.011851e+00 1.282330e+00 1.420681e+00
<GCONST> 8.045679e+01
<STATE> 3
<NUMMIXES> 4
<MIXTURE> 1 2.812670e-01
<MEAN> 39
 3.361847e-01 4.567205e-02 1.336467e+00 1.123062e+00 1.141102e-01 -7.899747e-01 -9.419955e-01 -1.864812e-01 -8.676068e-01 -8.925239e-01 -1.171001e+00 1.795584e-01 3.183744e-01 -1.187354e+00 6.669760e-01 -4.277148e-01 2.196944e-01 1.625882e+00 1.758332e+00 1.448643e+00 3.803022e-02 -1.107907e-02 3.734964e-01 1.899576e-01 -2.478747e-01 -3.067953e+00 -5.087948e-01 1.091155e-01 -7.314431e-01 -3.532479e-01 1.672693e-01 4.823824e-01 6.807020e-01 2.869791e-01 7.522381e-02 7.174048e-01 6.934165e-01 7.120851e-02 -2.319748e-01
<VARIANCE> 39
 1.731506e-01 3.483392e-01 5.919561e-01 3.256612e-01 3.924371e-01 8.491809e-01 5.970374e-01 8.955814e-01 6.072175e-01 7.818472e-01 6.234843e-01 1.195088e+00 2.683159e-01 6.187406e-01 7.437636e-01 1.919450e+00 1.121310e+00 1.022161e+00 1.607014e+00 1.116082e+00 1.208614e+00 1.440751e+00 1.539826e+00 9.410866e-01 1.498051e+00 1.221034e+00 6.686785e-01 6.551121e-01 1.033898e+00 7.824531e-01 8.755162e-01 1.338624e+00 9.595823e-01 1.255921e+00 9.550105e-01 9.922884e-01 8.563812e-01 1.393326e+00 1.712412e+00
<GCONST> 6.523783e+01
<MIXTURE> 2 2.460982e-01
<MEAN> 39
 -1.520083e-01 7.687969e-01 2.874620e-01 2.263398e-01 6.806163e-01 3.431276e-01 2.959720e-01 -4.320371e-01 -8.885538e-01 7.849564e-02 -3.787014e-01 5.394351e-02 -6.348163e-01 -4.716351e-01 6.052433e-01 5.844802e-01 8.754982e-01 9.234231e-01 4.691729e-01 3.249376e-01 6.212415e-02 -3.771717e-01 -3.256686e-01 -5.724580e-02 -7.476418e-02 -1.036184e+00 -1.248349e-01 -2.462877e-01 2.185783e-01 1.484008e-01 -1.319403e-01 -2.647311e-01 -8.391316e-02 2.654004e-01 1.000774e-01 -2.615361e-01 -2.422907e-01 1.640757e-02 7.771603e-01
<VARIANCE> 39
 5.612502e-01 4.056005e-01 6.442224e-01 5.854818e-01 4.148148e-01 6.825148e-01 6.368870e-01 8.416837e-01 5.882003e-01 6.203640e-01 7.062867e-01 7.747872e-01 4.320174e-01 1.681254e+00 1.144957e+00 1.728475e+00 1.758404e+00 8.800815e-01 1.188758e+00 1.125023e+00 1.323974e+00 1.271807e+00 1.374251e+00 1.023434e+00 1.408181e+00 2.252545e+00 9.185486e-01 8.071014e-01 1.094405e+00 1.030848e+00 7.565380e-01 9.822881e-01 1.042038e+00 1.194204e+00 1.082762e+00 1.058121e+00 1.028353e+00 9.744899e-01 1.122162e+00
<GCONST> 6.882902e+01
<MIXTURE> 3 2.671855e-01
<MEAN> 39
 5.454263e-01 -3.831713e-02 1.272236e+00 9.742267e-01 -2.274902e-01 -1.120256e+00 -1.267341e+00 -3.180398e-01 -3.874472e-01 -7.769804e-01 -1.136621e+00 3.477333e-01 6.400979e-01 -1.076813e+00 8.526521e-01 1.601483e-01 4.571809e-01 1.519153e+00 1.242262e+00 8.707976e-01 -1.385835e-01 -5.060408e-01 -2.026823e-01 -4.757754e-01 -3.553647e-01 -2.720133e+00 -9.058855e-01 -2.125071e-02 -1.254388e+00 -3.465275e-01 6.456819e-01 1.091551e+00 1.333724e+00 4.172230e-01 -1.474707e-01 7.358793e-01 7.246979e-01 -2.276831e-01 -1.280316e+00
<VARIANCE> 39
 1.695439e-01 3.268768e-01 6.790982e-01 4.786026e-01 4.684672e-01 9.246346e-01 5.765890e-01 9.941898e-01 1.268764e+00 7.736220e-01 5.997797e-01 1.076558e+00 2.368642e-01 4.857305e-01 6.407754e-01 1.465329e+00 1.111643e+00 9.365293e-01 1.348697e+00 1.130994e+00 1.572096e+00 1.746829e+00 1.038727e+00 9.675714e-01 1.200002e+00 1.005474e+00 6.912069e-01 7.166300e-01 1.172259e+00 1.020418e+00 9.490626e-01 1.420239e+00 9.860139e-01 1.099921e+00 1.269700e+00 9.645565e-01 8.524690e-01 1.309795e+00 1.302195e+00
<GCONST> 6.568484e+01
<MIXTURE> 4 2.054515e-01
<MEAN> 39
 6.079717e-01 4.451658e-01 -1.243590e-01 -1.688976e-01 4.913828e-01 2.280043e-01 -1.311096e-01 -8.813763e-01 -1.009280e+00 4.190681e-01 -4.963401e-01 -2.799332e-01 -2.993971e-02 -1.209546e+00 6.273955e-01 1.214924e+00 1.699720e+00 9.113257e-01 2.244995e-01 4.189265e-02 -9.583549e-02 -4.279507e-01 -1.166756e+00 -3.586920e-01 1.022243e-01 -2.086270e+00 -5.985759e-01 -2.822950e-01 -4.624633e-02 -2.506065e-02 9.609111e-02 1.249356e-01 4.729831e-01 5.934026e-01 1.295385e-01 -1.566435e-01 8.218516e-02 3.531430e-01 2.979974e-01
<VARIANCE> 39
 3.962662e-01 4.790011e-01 5.350679e-01 9.262426e-01 5.275088e-01 1.023991e+00 9.485967e-01 1.070311e+00 8.529235e-01 7.764291e-01 9.023033e-01 1.037568e+00 4.212515e-01 1.157342e+00 9.038495e-01 1.307144e+00 2.180347e+00 1.073481e+00 1.341839e+00 1.144995e+00 1.610123e+00 1.510886e+00 1.574548e+00 1.224561e+00 1.463619e+00 2.138890e+00 1.320281e+00 8.561688e-01 1.176320e+00 1.391215e+00 9.690142e-01 1.052598e+00 1.120417e+00 1.396661e+00 1.081873e+00 1.283952e+00 1.187377e+00 1.178666e+00 1.650007e+00
<GCONST> 7.389793e+01
<STATE> 4
<NUMMIXES> 4
<MIXTURE> 1 2.662858e-01
<MEAN> 39
 8.185696e-03 2.320116e-01 1.066427e+00 1.159229e+00 8.551641e-01 1.757606e-01 -1.399897e-01 -1.138617e-01 -8.104508e-01 -4.481194e-01 -7.908512e-01 1.174265e-01 -3.724834e-01 -1.160614e+00 8.370988e-01 -4.481991e-01 6.882869e-02 1.285488e+00 1.390150e+00 1.397934e+00 1.567473e-01 -8.058652e-02 5.520419e-01 5.505567e-01 -1.044961e-01 -2.410698e+00 4.988932e-01 6.660727e-02 7.102098e-02 -4.460601e-01 -9.448878e-01 -1.064616e+00 -6.122099e-01 1.203219e-01 1.636167e-01 -5.765364e-02 -5.123197e-02 6.448518e-02 1.979329e+00
<VARIANCE> 39
 1.088310e-01 2.932270e-01 3.177724e-01 2.495497e-01 3.366508e-01 5.694392e-01 4.300433e-01 6.511184e-01 4.413499e-01 4.401795e-01 5.807271e-01 6.631327e-01 1.656397e-01 6.353234e-01 7.273364e-01 1.400662e+00 1.045783e+00 1.019973e+00 1.555867e+00 1.042561e+00 1.342923e+00 1.441231e+00 1.204049e+00 9.826432e-01 1.507382e+00 1.178686e+00 7.203727e-01 9.449014e-01 1.105050e+00 7.858720e-01 8.887584e-01 1.218525e+00 9.768170e-01 1.159993e+00 1.200408e+00 9.831649e-01 9.557097e-01 1.017956e+00 1.507874e+00
<GCONST> 6.012682e+01
<MIXTURE> 2 2.180723e-01
<MEAN> 39
 8.279854e-02 7.572890e-01 2.615256e-01 3.397072e-01 1.210711e+00 8.354040e-01 2.800186e-01 -8.652453e-01 -1.487326e+00 -2.695715e-01 -1.714094e-01 5.122597e-01 -5.996750e-01 -1.240804e+00 2.880849e-01 9.818552e-01 1.146632e+00 5.943581e-01 -1.698658e-01 2.278799e-01 4.562364e-01 1.356603e-01 -4.406455e-01 -1.530239e-01 5.485653e-02 -1.212255e+00 6.572055e-01 -4.241833e-01 -4.294826e-01 -9.344276e-01 -8.777875e-01 -6.254143e-01 -2.759104e-01 4.324473e-01 8.028235e-01 5.560271e-01 -3.488535e-01 -4.285547e-01 2.111370e+00
<VARIANCE> 39
 2.877586e-01 2.806743e-01 4.039400e-01 4.496780e-01 4.076121e-01 6.115375e-01 4.284958e-01 6.364639e-01 5.003334e-01 5.556479e-01 6.317902e-01 8.152313e-01 1.515417e-01 9.420862e-01 1.099868e+00 1.178353e+00 1.531146e+00 9.962488e-01 1.144503e+00 1.080515e+00 1.313254e+00 1.147731e+00 1.318277e+00 1.197591e+00 1.425195e+00 1.418694e+00 1.081415e+00 9.596669e-01 1.498679e+00 1.490504e+00 9.199920e-01 1.249606e+00 1.032719e+00 1.304055e+00 1.080658e+00 1.484888e+00 1.003178e+00 1.313677e+00 1.719246e+00
<GCONST> 6.591032e+01
<MIXTURE> 3 2.997317e-01
<MEAN> 39
 -3.715767e-02 3.154539e-01 9.246101e-01 1.134057e+00 9.111130e-01 8.312152e-02 -1.171580e-01 -6.308699e-02 -6.499313e-01 -5.067714e-01 -1.066178e+00 -1.829176e-01 -4.802977e-01 -8.186587e-01 8.013433e-01 -5.246920e-01 -2.139827e-01 8.069513e-01 8.762704e-01 1.039211e+00 8.319768e-02 -1.673243e-01 3.175868e-01 1.920696e-01 -3.445389e-01 -1.716890e+00 7.400458e-01 1.547507e-01 1.713421e-01 -5.641988e-01 -1.013810e+00 -9.224684e-01 -5.987904e-01 -1.811531e-01 -3.844756e-02 9.108751e-02 1.952450e-01 3.522896e-01 1.833725e+00
<VARIANCE> 39
 1.201440e-01 3.496707e-01 4.150170e-01 3.290989e-01 3.883021e-01 5.967760e-01 4.564866e-01 5.952997e-01 5.612879e-01 5.117058e-01 6.563314e-01 6.994982e-01 1.751050e-01 5.963337e-01 8.991526e-01 1.236191e+00 1.055423e+00 7.475646e-01 1.192117e+00 9.841619e-01 1.150962e+00 1.391764e+00 1.205688e+00 9.747579e-01 1.280793e+00 8.585810e-01 8.096829e-01 1.178793e+00 1.368000e+00 1.038097e+00 9.817646e-01 1.405561e+00 1.142694e+00 1.220921e+00 1.447464e+00 1.334030e+00 1.073238e+00 1.265322e+00 1.741135e+00
<GCONST> 6.270002e+01
<MIXTURE> 4 2.159121e-01
<MEAN> 39
 -1.264083e-01 9.106400e-01 4.173452e-01 4.548689e-01 8.435929e-01 4.030599e-01 3.808913e-01 -5.349472e-01 -1.115328e+00 -1.286568e-01 -5.787936e-01 -1.350754e-01 -7.663146e-01 -2.331993e-01 4.149035e-01 7.126206e-01 7.095186e-01 3.790698e-01 -1.369037e-01 -8.029243e-02 1.943932e-01 -4.630858e-02 -4.757954e-01 -5.035626e-01 -2.834699e-01 -3.265413e-01 2.584486e-02 -6.680540e-01 -3.959786e-01 -5.377988e-01 -5.588766e-01 -3.632550e-01 -2.806191e-01 2.403286e-01 5.036157e-01 2.242433e-01 8.539708e-02 1.764463e-01 1.102410e+00
<VARIANCE> 39
 4.641036e-01 4.889805e-01 5.249233e-01 5.065348e-01 4.890163e-01 6.780958e-01 5.330104e-01 8.575226e-01 6.683891e-01 6.392063e-01 6.308451e-01 8.905150e-01 4.069282e-01 1.068959e+00 1.067890e+00 1.046019e+00 9.522400e-01 8.467832e-01 1.010634e+00 9.185191e-01 1.124285e+00 1.158215e+00 1.064157e+00 1.050611e+00 1.127089e+00 1.116486e+00 1.131803e+00 9.402644e-01 1.275807e+00 1.173971e+00 9.150220e-01 1.106713e+00 1.102294e+00 1.175406e+00 1.111213e+00 1.086469e+00 9.026731e-01 1.064489e+00 1.489394e+00
<GCONST> 6.643428e+01
<STATE> 5
<NUMMIXES> 4
<MIXTURE> 1 2.258746e-01
<MEAN> 39
 -2.110768e-01 1.055389e+00 6.815436e-01 6.397420e-01 9.323440e-01 5.418174e-01 5.161788e-01 -1.689080e-01 -7.516370e-01 -1.200480e-01 -5.027188e-01 -2.638544e-01 -1.074749e+00 -2.451843e-01 5.026255e-01 -2.029478e-01 -2.278250e-01 2.436605e-01 1.718034e-01 3.357691e-01 1.686238e-03 -1.581843e-01 3.620321e-01 7.315415e-02 -9.371187e-02 -4.898405e-01 -2.131583e-01 -3.460806e-01 4.400954e-01 3.693913e-01 -1.321380e-01 -3.525598e-01 -3.174920e-01 -5.986647e-02 -3.659869e-02 -4.084868e-01 -2.072282e-01 1.750472e-01 7.901042e-01
<VARIANCE> 39
 8.287366e-02 2.493271e-01 2.802959e-01 2.350903e-01 3.023537e-01 4.691502e-01 3.548616e-01 5.961266e-01 3.323054e-01 5.041071e-01 4.932828e-01 7.124549e-01 1.435653e-01 3.603758e-01 7.611051e-01 7.505235e-01 7.364534e-01 5.584325e-01 7.742964e-01 7.359742e-01 9.556544e-01 9.303807e-01 9.464549e-01 8.366323e-01 9.492298e-01 5.411446e-01 5.547350e-01 7.118070e-01 7.702382e-01 6.379929e-01 7.708806e-01 9.195648e-01 9.029053e-01 9.738263e-01 1.005368e+00 9.029763e-01 9.015721e-01 9.168814e-01 1.280043e+00
<GCONST> 5.059721e+01
<MIXTURE> 2 2.464098e-01
<MEAN> 39
 -4.074730e-01 9.320533e-01 9.546365e-01 9.746965e-01 1.037355e+00 4.182077e-01 4.481867e-01 -3.352527e-02 -8.687748e-01 -4.877661e-01 -9.051629e-01 -1.856949e-01 -9.076303e-01 -6.603550e-01 -4.749296e-01 -5.540451e-02 -5.861668e-02 -1.339857e-01 -2.057839e-02 1.611565e-02 2.088505e-01 3.380420e-01 1.437001e-02 3.235813e-01 3.693077e-01 5.766611e-01 3.217203e-01 -2.422945e-01 -4.373641e-01 -5.266357e-01 -4.348340e-01 -1.825779e-01 -2.436462e-01 -1.689031e-01 7.864747e-03 3.555159e-01 2.800986e-01 1.858281e-01 1.142306e+00
<VARIANCE> 39
 2.384680e-01 4.122648e-01 4.299374e-01 3.952837e-01 4.302442e-01 6.453030e-01 5.002138e-01 6.453284e-01 4.846960e-01 5.291511e-01 6.565812e-01 8.188780e-01 2.877468e-01 7.464170e-01 1.221267e+00 8.189111e-01 8.227871e-01 6.729530e-01 8.815002e-01 8.979011e-01 8.987656e-01 9.179656e-01 1.001711e+00 9.574581e-01 1.041178e+00 7.379790e-01 8.105966e-01 1.209817e+00 8.828471e-01 7.955835e-01 8.390253e-01 9.828761e-01 9.324080e-01 1.010396e+00 1.025035e+00 1.063972e+00 9.376863e-01 1.202792e+00 1.672527e+00
<GCONST> 6.042751e+01
<MIXTURE> 3 2.285573e-01
<MEAN> 39
 -1.654090e-01 8.059316e-01 9.334733e-01 1.009387e+00 9.673820e-01 2.706983e-01 1.689457e-01 -2.527258e-01 -8.648714e-01 -5.985987e-01 -9.041080e-01 -1.942690e-01 -8.667444e-01 -3.111734e-01 -2.278414e-01 -1.300704e-01 -2.379170e-01 -1.631575e-01 -1.424306e-01 -7.614383e-02 7.848076e-02 2.131650e-01 4.136513e-02 7.384942e-02 6.783833e-02 3.581395e-01 4.744622e-01 -2.237507e-01 -6.809490e-01 -7.718732e-01 -4.780227e-01 -3.015787e-01 -1.896685e-01 -1.009937e-01 -4.645015e-02 5.916402e-01 2.342079e-01 1.435202e-01 1.315408e+00
<VARIANCE> 39
 2.064762e-01 4.861437e-01 3.979038e-01 3.997073e-01 3.882067e-01 6.045550e-01 5.101002e-01 6.888800e-01 5.406380e-01 5.208982e-01 6.792997e-01 7.823692e-01 2.200732e-01 5.198520e-01 1.039200e+00 9.130023e-01 8.559819e-01 6.389213e-01 9.779619e-01 8.531281e-01 9.177715e-01 9.792064e-01 1.084689e+00 9.519818e-01 1.030735e+00 7.844527e-01 1.109235e+00 1.815637e+00 1.127392e+00 9.904298e-01 1.110165e+00 1.389019e+00 1.212200e+00 1.164313e+00 1.364598e+00 1.209399e+00 1.055756e+00 1.355201e+00 3.100923e+00
<GCONST> 6.343172e+01
<MIXTURE> 4 2.991554e-01
<MEAN> 39
 -2.283816e-01 1.273123e+00 6.822802e-01 6.180393e-01 8.411123e-01 4.072122e-01 4.747263e-01 -3.020766e-01 -7.667835e-01 -8.153839e-02 -5.276709e-01 -3.716352e-01 -1.196087e+00 -2.596349e-01 7.124680e-02 -1.124658e-03 3.671943e-02 4.286300e-02 -1.337096e-01 1.464541e-02 6.335597e-02 -7.024825e-02 -1.756603e-02 -1.233105e-01 -8.751571e-02 -9.766351e-02 -2.048469e-01 -5.915120e-01 3.183176e-02 1.250172e-01 -1.006448e-01 -1.232706e-01 -1.568041e-01 5.897770e-02 7.396451e-02 -2.473827e-01 -1.064715e-01 2.044234e-01 8.639992e-01
<VARIANCE> 39
 7.482482e-02 1.779174e-01 2.367408e-01 2.490253e-01 2.403166e-01 3.762716e-01 3.237353e-01 4.956625e-01 2.526384e-01 4.472779e-01 4.258657e-01 6.545513e-01 1.052407e-01 2.828470e-01 6.034994e-01 6.042960e-01 5.828581e-01 4.900556e-01 5.925820e-01 6.932420e-01 7.634044e-01 6.801430e-01 7.641052e-01 7.911207e-01 8.497624e-01 4.593517e-01 4.148416e-01 5.528916e-01 6.649044e-01 5.578193e-01 6.200403e-01 7.324923e-01 8.574234e-01 8.117155e-01 7.476541e-01 7.919078e-01 8.771812e-01 9.149213e-01 8.295091e-01
<GCONST> 4.352419e+01
<STATE> 6
<NUMMIXES> 4
<MIXTURE> 1 3.332382e-01
<MEAN> 39
 -7.758995e-01 6.615729e-01 4.893875e-01 5.592365e-01 1.013381e+00 1.413681e-01 4.256280e-01 1.699730e-02 -8.654669e-01 2.636277e-02 -4.143082e-01 3.115823e-01 -3.735893e-01 -2.772303e-01 2.107859e-01 -9.259763e-02 -1.144288e-01 -9.743260e-02 -4.585595e-01 -2.482776e-01 7.047661e-02 -1.727138e-01 -2.600774e-03 -3.591289e-01 1.659831e-01 2.039808e+00 1.337329e+00 6.410848e-01 4.938273e-01 2.144496e-01 -3.886985e-01 -1.582654e-01 -4.355396e-01 -2.508299e-01 1.222090e-01 -1.528194e-01 -3.244770e-01 -1.641257e-01 7.443995e-01
<VARIANCE> 39
 3.048416e-01 6.129280e-01 5.110041e-01 5.120330e-01 4.550232e-01 7.557240e-01 5.644068e-01 7.729645e-01 4.785344e-01 5.077918e-01 6.465700e-01 6.516271e-01 2.149431e-01 1.350914e+00 1.559195e+00 1.120639e+00 1.061341e+00 8.603018e-01 1.267370e+00 1.044279e+00 1.321475e+00 1.017425e+00 1.166508e+00 1.094114e+00 1.239205e+00 1.076979e+00 1.476217e+00 1.731575e+00 1.510455e+00 1.182098e+00 1.204287e+00 1.152174e+00 1.257465e+00 1.435992e+00 1.345052e+00 1.165799e+00 1.158913e+00 1.343611e+00 1.666036e+00
<GCONST> 6.866217e+01
<MIXTURE> 2 1.627830e-01
<MEAN> 39
 -5.884836e-01 2.970995e-01 -3.883950e-02 -9.875888e-02 3.615158e-01 1.466073e-01 2.932172e-01 8.668630e-02 -1.253045e-01 4.659163e-01 -2.740929e-02 2.211340e-01 -1.062715e+00 -8.180247e-02 3.895690e-01 -3.801510e-01 -3.042693e-01 1.135778e-01 1.416611e-01 1.498654e-01 -2.125628e-01 -3.829285e-01 4.738394e-01 1.647567e-01 -1.815150e-02 1.219412e-01 -3.745460e-02 2.960279e-01 5.570505e-01 7.378891e-01 5.206313e-01 4.014397e-02 1.698820e-02 -1.350401e-01 -4.669325e-01 -5.029931e-01 -4.966996e-01 -1.131741e-01 2.100430e-01
<VARIANCE> 39
 1.517973e-01 6.343315e-01 3.653849e-01 4.290135e-01 3.644913e-01 5.017070e-01 4.769754e-01 6.036752e-01 4.388960e-01 5.769665e-01 5.652347e-01 7.423831e-01 1.986279e-01 5.269714e-01 1.003725e+00 1.152508e+00 1.357902e+00 7.311997e-01 7.306699e-01 7.897630e-01 8.693342e-01 9.308167e-01 1.382564e+00 9.490069e-01 1.056775e+00 6.388272e-01 7.754787e-01 1.421394e+00 1.322868e+00 1.198657e+00 8.258444e-01 8.721991e-01 9.255095e-01 9.554853e-01 1.093105e+00 1.419740e+00 1.016355e+00 1.191122e+00 1.643379e+00
<GCONST> 6.053135e+01
<MIXTURE> 3 3.044035e-01
<MEAN> 39
 -3.278638e-01 4.512579e-01 6.784394e-01 6.694087e-01 8.937743e-01 2.287219e-01 9.531920e-02 -1.564837e-01 -7.881557e-01 -2.993385e-01 -5.981203e-01 9.731986e-02 -5.708259e-01 6.397806e-02 -3.326840e-01 -1.881963e-01 -4.192284e-01 -4.281290e-01 -7.326115e-01 -5.524515e-01 -1.093687e-01 -1.570288e-02 8.171646e-02 -1.273347e-01 2.569391e-01 1.688769e+00 1.053715e+00 4.200861e-01 -3.532014e-02 -2.188329e-01 -4.367122e-01 -4.779097e-01 -3.580744e-01 -1.514522e-01 -3.170314e-02 2.436852e-01 -1.802710e-01 -5.883988e-03 1.324193e+00
<VARIANCE> 39
 2.372336e-01 4.169628e-01 4.162933e-01 4.058399e-01 4.170130e-01 6.571382e-01 5.686900e-01 6.986720e-01 5.726694e-01 5.246908e-01 7.626456e-01 7.407120e-01 2.244982e-01 7.405317e-01 1.230035e+00 1.278399e+00 1.199084e+00 8.450816e-01 1.234632e+00 1.132754e+00 1.210647e+00 1.069196e+00 1.322733e+00 1.169038e+00 1.269627e+00 1.213312e+00 1.093073e+00 1.563174e+00 1.375346e+00 1.217126e+00 1.148136e+00 1.270383e+00 1.164718e+00 1.267364e+00 1.458105e+00 1.361825e+00 1.230870e+00 1.335266e+00 1.958248e+00
<GCONST> 6.740028e+01
<MIXTURE> 4 1.995765e-01
<MEAN> 39
 -8.388937e-01 1.411353e-02 -4.421249e-01 -3.911448e-01 3.642245e-01 -1.640056e-01 -1.289244e-01 -5.119869e-02 -2.060708e-03 7.295048e-01 -5.595528e-01 2.136669e-01 -1.773526e+00 -1.022838e-01 -1.044473e-01 9.010481e-02 8.100102e-02 -3.435627e-02 -7.309037e-02 -4.912443e-02 3.463299e-02 5.220060e-02 -1.170217e-01 -6.879015e-02 1.550287e-02 -1.198240e-02 6.463931e-02 -1.664580e-01 4.338665e-02 1.256579e-02 -4.851865e-02 5.558540e-02 4.048105e-02 3.188012e-02 6.669150e-02 -6.691794e-02 8.668016e-02 6.456269e-02 3.065754e-01
<VARIANCE> 39
 6.035995e-02 2.336355e-01 1.946684e-01 2.458023e-01 3.000194e-01 6.113169e-01 4.973245e-01 5.854201e-01 3.746275e-01 5.505543e-01 4.933214e-01 7.452716e-01 1.180932e-01 1.767965e-01 6.616462e-01 5.172140e-01 5.873150e-01 5.617234e-01 7.335063e-01 6.693945e-01 7.996297e-01 8.160229e-01 9.208867e-01 7.773248e-01 9.526916e-01 5.202620e-01 3.967221e-01 6.364115e-01 7.980451e-01 8.034288e-01 7.621348e-01 8.433141e-01 8.095647e-01 9.639066e-01 9.923348e-01 1.099420e+00 8.682396e-01 1.090612e+00 4.430583e-01
<GCONST> 4.734968e+01
<TRANSP> 7
 0.000000e+00 1.000000e+00 0.000000e+00 0.000000e+00 0.000000e+00 0.000000e+00 0.000000e+00
 0.000000e+00 5.965219e-01 4.034782e-01 0.000000e+00 0.000000e+00 0.000000e+00 0.000000e+00
 0.000000e+00 0.000000e+00 4.272720e-01 5.727279e-01 0.000000e+00 0.000000e+00 0.000000e+00
 0.000000e+00 0.000000e+00 0.000000e+00 5.391911e-01 4.608089e-01 0.000000e+00 0.000000e+00
 0.000000e+00 0.000000e+00 0.000000e+00 0.000000e+00 7.821488e-01 2.178512e-01 0.000000e+00
 0.000000e+00 0.000000e+00 0.000000e+00 0.000000e+00 0.000000e+00 7.378531e-01 2.621469e-01
 0.000000e+00 0.000000e+00 0.000000e+00 0.000000e+00 0.000000e+00 0.000000e+00 0.000000e+00
<ENDHMM>
~h "e"
<BEGINHMM>
<NUMSTATES> 7
<STATE> 2
<NUMMIXES> 4
<MIXTURE> 1 1.965587e-01
<MEAN> 39
 -1.933774e+00 1.993024e+00 -7.403727e-01 1.014732e+00 1.082963e+00 -7.856799e-01 1.509174e+00 -1.260877e-01 -1.053528e+00 -2.750139e-02 -4.517975e-01 7.189745e-01 4.127304e-01 2.795225e-01 2.408221e-02 3.009393e-01 6.455920e-02 7.309508e-02 4.455835e-03 1.633383e-01 4.623179e-02 6.226731e-02 -1.275144e-02 -2.383824e-02 3.511201e-02 1.521103e-01 1.040026e+00 -1.743426e-01 7.100815e-01 2.187447e-01 -1.820805e-02 -2.355552e-02 -2.474258e-01 1.231609e-01 6.406868e-02 -1.506656e-01 -2.281416e-01 -1.741210e-01 6.096480e-02
<VARIANCE> 39
 1.895260e-01 2.582260e-01 5.207480e-01 5.478401e-01 6.405084e-01 6.709706e-01 3.637997e-01 7.713718e-01 4.966142e-01 3.756159e-01 4.872307e-01 5.560896e-01 2.530657e-01 1.675761e+00 7.627832e-01 1.370133e+00 9.100575e-01 7.266632e-01 9.513380e-01 8.665890e-01 1.018338e+00 9.105188e-01 8.799948e-01 9.090028e-01 1.151285e+00 4.720548e-01 1.216366e+00 8.744214e-01 1.146135e+00 1.005300e+00 9.923241e-01 1.277984e+00 1.142264e+00 1.182924e+00 1.206115e+00 1.149686e+00 1.020580e+00 1.308744e+00 5.315531e-01
<GCONST> 6.070295e+01
<MIXTURE> 2 3.295944e-01
<MEAN> 39
 -1.015976e-01 5.630448e-01 1.056487e+00 8.376272e-01 6.049524e-02 -5.931135e-01 4.914236e-02 -3.052337e-01 -9.612218e-01 -6.135528e-01 -7.298284e-01 2.160769e-01 1.282527e-01 1.282705e+00 -2.006389e-01 1.269867e+00 4.429273e-01 -9.966704e-01 -1.084719e+00 -7.008594e-01 1.739008e-01 -5.201785e-02 -4.640415e-01 1.499021e-01 6.374760e-01 1.458041e+00 5.038164e-02 -6.875291e-01 1.966473e-01 -1.109245e-01 -6.063350e-01 -1.437746e-01 -4.069513e-01 2.929791e-01 3.734474e-01 8.526071e-02 4.378805e-01 3.621558e-01 3.371724e-01
<VARIANCE> 39
 2.728523e-01 6.258793e-01 7.126238e-01 4.658796e-01 5.506898e-01 7.864608e-01 6.887803e-01 7.947537e-01 5.850907e-01 6.363707e-01 6.742335e-01 6.606987e-01 5.398858e-01 1.501773e+00 1.278953e+00 1.954320e+00 1.322657e+00 1.188766e+00 1.574548e+00 1.407635e+00 1.394019e+00 1.148896e+00 1.225644e+00 1.160985e+00 1.335330e+00 1.195448e+00 1.162045e+00 1.255222e+00 1.443060e+00 1.037932e+00 1.056201e+00 1.308174e+00 1.137791e+00 1.166338e+00 9.876503e-01 1.055359e+00 9.952787e-01 1.065963e+00 1.079402e+00
<GCONST> 7.038219e+01
<MIXTURE> 3 3.003629e-01
<MEAN> 39
 1.757632e-01 -1.630169e-01 3.872046e-01 5.125712e-01 -5.383101e-02 -9.334581e-01 -4.735630e-01 7.059719e-02 -5.303066e-01 1.229707e-01 -6.861984e-01 -1.131735e-02 2.366398e-01 6.180173e-01 -2.375702e-01 7.113014e-01 1.303372e-01 -6.239780e-01 -1.061266e+00 -5.219864e-01 5.314065e-01 2.747901e-02 -1.543162e-01 -7.672907e-02 2.438624e-01 9.039460e-01 -2.740565e-02 -1.544613e-01 8.265857e-02 -1.012411e-01 -2.416019e-01 1.322450e-01 1.962097e-01 1.906090e-01 -2.110865e-01 -1.185971e-01 1.871420e-01 2.523272e-01 8.115341e-02
<VARIANCE> 39
 4.514963e-01 1.069959e+00 1.279460e+00 7.498003e-01 8.863282e-01 1.198882e+00 1.052844e+00 1.367803e+00 1.015927e+00 1.159473e+00 1.131074e+00 1.202403e+00 8.736113e-01 1.704102e+00 1.172734e+00 1.505632e+00 1.329134e+00 1.061318e+00 1.854616e+00 1.400203e+00 1.837624e+00 1.482095e+00 1.392044e+00 1.487827e+00 1.505873e+00 1.240708e+00 1.301437e+00 1.495549e+00 1.306697e+00 1.122003e+00 1.215074e+00 1.499929e+00 1.304152e+00 1.603928e+00 1.310621e+00 1.295839e+00 1.376997e+00 1.396176e+00 1.079516e+00
<GCONST> 8.007130e+01
<MIXTURE> 4 1.734924e-01
<MEAN> 39
 -1.625146e+00 1.893813e+00 -1.864506e-01 1.111615e+00 1.076824e+00 -6.930971e-01 1.459314e+00 -9.116407e-02 -9.494722e-01 -2.065406e-01 -7.288312e-01 5.133014e-01 4.720892e-01 1.176352e+00 -2.123083e-01 8.217289e-01 -3.343312e-02 -3.056964e-01 -6.478508e-01 -6.175687e-01 -2.627353e-01 -2.138993e-01 -2.082169e-01 -3.117156e-01 -4.484784e-02 3.634138e-01 9.385287e-01 -6.387514e-01 2.176234e-01 -1.722694e-01 -4.845389e-01 -3.762600e-01 -6.373547e-01 -9.477999e-02 -1.042244e-01 1.083538e-01 1.549692e-01 1.099613e-01 1.462640e-01
<VARIANCE> 39
 3.102559e-01 3.313556e-01 8.062707e-01 5.026109e-01 5.161476e-01 7.695962e-01 4.893997e-01 7.141877e-01 4.232815e-01 3.892591e-01 4.430443e-01 5.630366e-01 2.731960e-01 2.760109e+00 8.453833e-01 1.766943e+00 9.429623e-01 7.198510e-01 1.280460e+00 1.216598e+00 9.798110e-01 8.564881e-01 9.819534e-01 8.777731e-01 1.068753e+00 6.463476e-01 1.240048e+00 1.188533e+00 1.061095e+00 9.801223e-01 1.040080e+00 1.222990e+00 1.288134e+00 1.118543e+00 9.913278e-01 1.019780e+00 9.064170e-01 1.185823e+00 6.771722e-01
<GCONST> 6.354001e+01
<STATE> 3
<NUMMIXES> 4
<MIXTURE> 1 2.579964e-01
<MEAN> 39
 4.781390e-01 -5.236531e-01 1.527747e+00 8.182498e-01 -1.270662e+00 -1.273413e+00 -8.229468e-01 3.128141e-01 -1.993753e-01 -8.229812e-01 -1.443096e-01 8.366010e-01 1.100084e+00 -2.645282e-02 -4.294906e-01 5.737740e-01 -2.717910e-01 -9.581540e-01 -3.069578e-01 -2.467745e-01 3.392470e-01 2.356237e-01 -1.184178e-01 7.481758e-01 5.579621e-01 8.956777e-01 -4.865541e-01 6.163769e-01 -4.269711e-01 2.005194e-02 8.606567e-01 4.844402e-01 2.457949e-01 -4.064334e-01 -4.336119e-01 1.852355e-01 -8.839680e-02 -3.657435e-01 -8.498816e-01
<VARIANCE> 39
 1.393157e-01 4.992140e-01 7.075205e-01 4.294815e-01 3.264115e-01 5.816297e-01 7.519147e-01 9.659008e-01 9.476718e-01 6.293057e-01 6.626890e-01 8.246627e-01 2.323589e-01 4.175063e-01 7.939308e-01 1.098535e+00 7.099477e-01 7.629995e-01 1.195761e+00 1.010921e+00 1.074452e+00 9.802963e-01 8.264784e-01 8.415064e-01 9.052501e-01 6.599876e-01 6.486496e-01 5.331673e-01 7.576498e-01 6.275211e-01 7.085544e-01 9.752566e-01 9.389454e-01 8.550836e-01 7.848104e-01 7.006867e-01 7.362230e-01 7.179818e-01 5.891699e-01
<GCONST> 5.683940e+01
<MIXTURE> 2 2.406089e-01
<MEAN> 39
 1.696580e-01 4.879201e-01 1.335037e+00 1.084159e+00 -2.623600e-01 -1.372979e+00 -1.807121e-01 -8.110279e-02 -9.345869e-01 -7.237257e-01 -7.858627e-01 7.344807e-01 5.455831e-01 1.138927e+00 -1.265777e+00 1.016773e+00 1.130852e-01 -1.461340e+00 -7.796755e-01 -9.414033e-01 3.730172e-01 3.294617e-01 -3.555021e-01 3.898119e-01 7.311951e-01 1.250571e+00 -1.175868e+00 -3.680040e-01 -5.416309e-01 -5.695879e-01 3.688387e-02 9.131590e-01 1.417686e-01 6.554622e-03 2.295924e-01 3.024356e-01 3.897849e-01 -2.743692e-01 -2.839118e-01
<VARIANCE> 39
 2.864429e-01 5.215178e-01 8.084117e-01 5.114471e-01 4.575874e-01 9.132381e-01 6.017039e-01 8.346388e-01 7.594979e-01 6.395001e-01 6.753160e-01 7.052387e-01 5.064085e-01 1.223061e+00 1.178084e+00 1.637703e+00 9.147182e-01 1.051474e+00 1.293179e+00 1.283209e+00 9.431693e-01 1.038192e+00 9.185656e-01 9.583392e-01 1.164595e+00 9.452830e-01 1.259961e+00 1.008771e+00 1.360843e+00 8.768340e-01 8.488184e-01 9.957248e-01 8.725841e-01 9.250114e-01 8.619602e-01 9.053202e-01 7.833332e-01 9.519995e-01 5.764540e-01
<GCONST> 6.540253e+01
<MIXTURE> 3 2.943932e-01
<MEAN> 39
 3.114826e-01 -1.105564e-01 2.071636e+00 9.406058e-01 -1.300233e+00 -1.201088e+00 -8.913277e-01 -5.044100e-02 -6.346778e-01 -1.115625e+00 -6.700899e-02 1.030479e+00 1.031502e+00 4.146585e-02 -5.496044e-01 4.069738e-01 -5.039147e-01 -8.233727e-01 -1.374832e-02 -5.351210e-01 1.774247e-01 2.002742e-01 2.130945e-02 5.758834e-01 2.547466e-01 8.997114e-01 -4.241049e-01 6.607512e-01 -8.935157e-01 1.756093e-03 9.578146e-01 2.836739e-01 5.749319e-01 -1.507874e-01 -3.193625e-01 2.522283e-01 -2.840485e-01 -4.204030e-01 -1.018962e+00
<VARIANCE> 39
 1.209186e-01 4.056209e-01 4.573194e-01 4.270819e-01 3.293518e-01 6.386695e-01 5.326709e-01 9.362290e-01 6.067877e-01 5.463269e-01 6.911221e-01 7.798147e-01 2.290711e-01 3.295681e-01 7.329001e-01 9.228475e-01 6.485159e-01 6.972042e-01 8.148261e-01 7.360249e-01 7.505839e-01 6.570541e-01 6.209939e-01 6.370521e-01 7.178179e-01 4.638827e-01 7.532889e-01 6.772257e-01 9.404283e-01 7.048605e-01 6.586597e-01 8.830622e-01 8.129268e-01 8.689458e-01 6.046652e-01 6.872130e-01 6.504366e-01 8.120852e-01 4.904422e-01
<GCONST> 5.183582e+01
<MIXTURE> 4 2.070030e-01
<MEAN> 39
 4.242505e-01 3.052001e-01 9.289244e-01 1.063656e+00 1.120871e-01 -2.006324e+00 -4.616573e-01 2.000875e-01 -1.147529e+00 -1.033831e-01 -1.107216e+00 4.250637e-01 9.425891e-01 1.400100e+00 -1.632610e+00 5.540805e-01 -4.055264e-01 -1.104746e+00 -8.693772e-01 -1.169926e+00 7.583741e-01 -2.545644e-01 1.270356e-01 -8.756109e-02 2.747883e-01 8.966888e-01 -1.737812e+00 1.152934e-01 -5.762587e-01 -3.818091e-01 9.004932e-03 7.166749e-01 5.803364e-01 -1.401812e-02 5.992989e-02 5.389345e-02 1.886147e-01 1.030292e-01 -4.893549e-01
<VARIANCE> 39
 1.919906e-01 5.034245e-01 6.240147e-01 4.061001e-01 3.049194e-01 7.576887e-01 6.201791e-01 5.691576e-01 5.305499e-01 8.301731e-01 7.451575e-01 7.000116e-01 3.103569e-01 1.351524e+00 1.043540e+00 1.047459e+00 1.087318e+00 7.017928e-01 9.945989e-01 1.122264e+00 9.267891e-01 8.277188e-01 9.702495e-01 8.517929e-01 8.980112e-01 7.407443e-01 9.357204e-01 1.418528e+00 1.146047e+00 8.282080e-01 7.390920e-01 8.186492e-01 8.771086e-01 8.186257e-01 6.709638e-01 9.043580e-01 7.024780e-01 8.570202e-01 5.617015e-01
<GCONST> 6.000038e+01
<STATE> 4
<NUMMIXES> 4
<MIXTURE> 1 2.724199e-01
<MEAN> 39
 4.206338e-01 -4.326280e-01 1.755444e+00 6.616493e-01 -1.447393e+00 -1.511575e+00 -9.330779e-01 3.352125e-01 -8.323729e-01 -6.498706e-01 -1.060943e-01 1.161020e+00 1.380692e+00 -3.285335e-02 4.225099e-04 5.152508e-03 1.607436e-02 6.161083e-03 -9.305459e-03 -2.247372e-02 1.200714e-02 -2.157981e-02 -1.794416e-02 9.450524e-02 1.138484e-02 4.004350e-02 3.376739e-02 1.929022e-02 -5.800626e-02 7.986367e-02 1.496987e-01 4.764002e-03 -1.326524e-03 2.751599e-02 -4.031666e-02 -1.546871e-02 -5.602771e-02 -8.220352e-02 -1.720156e-01
<VARIANCE> 39
 1.450775e-01 3.319709e-01 4.099694e-01 3.302728e-01 2.925592e-01 6.871289e-01 5.087684e-01 9.277273e-01 1.001961e+00 4.968833e-01 1.088567e+00 8.210223e-01 2.021968e-01 1.280627e-01 1.685672e-01 3.218472e-01 2.786616e-01 2.576214e-01 3.415632e-01 3.504149e-01 3.918948e-01 3.461284e-01 3.490782e-01 3.584158e-01 4.296858e-01 1.078704e-01 1.739937e-01 1.772128e-01 3.125664e-01 2.707583e-01 3.001886e-01 3.511971e-01 3.578064e-01 3.522873e-01 3.266833e-01 3.348156e-01 3.231657e-01 4.151096e-01 1.352771e-01
<GCONST> 2.851553e+01
<MIXTURE> 2 2.209653e-01
<MEAN> 39
 5.091408e-01 -1.242666e-01 1.506310e+00 5.835522e-01 -9.509139e-01 -1.821826e+00 -7.415786e-01 4.348931e-01 -1.301853e+00 -3.707733e-01 -4.578004e-01 9.020670e-01 9.039879e-01 -3.412915e-02 -3.862394e-02 1.776164e-01 5.185366e-02 -1.329811e-01 5.893646e-02 -4.939039e-02 -1.297873e-04 -9.902796e-02 -1.255844e-01 1.852341e-01 7.604414e-02 1.642951e-01 -1.007707e-01 2.043472e-02 1.898196e-03 1.602981e-01 1.527080e-01 1.787427e-01 -3.733781e-02 1.983709e-02 7.265514e-02 -1.359825e-01 7.583331e-03 -1.128147e-01 -2.148094e-01
<VARIANCE> 39
 2.179723e-01 5.000073e-01 6.455059e-01 5.324218e-01 5.336546e-01 1.290515e+00 6.070170e-01 1.155860e+00 9.534018e-01 9.229466e-01 1.170441e+00 9.979212e-01 3.013924e-01 3.121448e-01 4.896945e-01 6.705697e-01 6.090876e-01 4.781069e-01 7.181917e-01 6.451756e-01 7.449751e-01 5.896132e-01 6.567155e-01 5.547417e-01 7.236884e-01 2.914812e-01 4.401911e-01 5.359921e-01 6.728574e-01 5.557193e-01 6.250669e-01 7.975999e-01 7.258224e-01 7.266842e-01 5.933840e-01 6.500936e-01 5.749445e-01 7.255055e-01 3.581384e-01
<GCONST> 5.220649e+01
<MIXTURE> 3 2.795452e-01
<MEAN> 39
 4.631328e-01 -4.092355e-01 1.859777e+00 7.069403e-01 -1.467338e+00 -1.401355e+00 -1.195845e+00 3.932611e-01 -9.556028e-01 -8.132776e-01 7.218333e-02 9.851235e-01 1.304114e+00 1.997611e-02 -1.990961e-03 -5.628824e-03 5.747440e-02 3.865042e-03 -7.063020e-02 1.763985e-02 4.655827e-02 -3.681494e-02 -2.053569e-02 -6.740957e-03 -5.421133e-02 -2.949499e-02 4.240099e-02 3.535411e-02 -9.343177e-02 8.568800e-02 1.965261e-01 -1.105134e-01 1.204799e-01 1.155120e-02 -3.394625e-02 3.241679e-02 -2.110022e-01 -2.157846e-02 -2.132977e-01
<VARIANCE> 39
 1.453794e-01 2.927690e-01 4.136114e-01 3.411041e-01 2.747225e-01 6.194376e-01 4.483852e-01 8.720897e-01 7.967919e-01 4.461790e-01 1.007332e+00 7.420163e-01 1.930692e-01 1.383527e-01 1.859938e-01 3.393945e-01 3.155938e-01 2.817726e-01 3.685815e-01 3.447728e-01 3.993750e-01 3.636229e-01 3.823771e-01 3.811809e-01 4.470337e-01 1.150021e-01 1.949478e-01 1.908424e-01 3.354672e-01 2.954569e-01 3.319179e-01 3.728011e-01 3.730612e-01 3.870926e-01 3.377224e-01 3.612108e-01 3.615364e-01 4.291677e-01 1.606889e-01
<GCONST> 2.941252e+01
<MIXTURE> 4 2.270859e-01
<MEAN> 39
 5.746494e-01 -1.548303e-01 1.300434e+00 5.214479e-01 -7.172496e-01 -2.048861e+00 -9.116774e-01 7.389995e-01 -1.486416e+00 -2.498220e-01 -5.878187e-01 8.811154e-01 8.265584e-01 -7.298009e-03 -4.826026e-02 1.306822e-01 4.319809e-02 -1.837167e-01 -7.322103e-02 5.256390e-02 2.978374e-02 -1.341441e-01 1.882106e-03 5.170488e-02 -1.220895e-02 1.373731e-01 -1.375462e-01 7.993699e-02 -4.798700e-02 2.202702e-01 1.212769e-01 2.221871e-01 1.482373e-01 -1.646102e-01 1.534571e-01 -9.001466e-02 -6.643709e-02 -1.712878e-01 -2.612967e-01
<VARIANCE> 39
 2.556573e-01 4.209662e-01 6.504868e-01 4.738013e-01 5.222515e-01 1.192907e+00 6.002222e-01 9.631050e-01 8.900098e-01 7.996124e-01 1.099700e+00 9.964179e-01 4.542951e-01 3.271551e-01 4.886319e-01 7.358045e-01 6.893253e-01 5.175380e-01 7.495832e-01 7.180133e-01 7.672146e-01 6.171575e-01 7.776949e-01 5.795839e-01 7.815090e-01 3.388651e-01 5.365803e-01 5.663947e-01 7.297438e-01 6.060043e-01 6.702045e-01 8.179764e-01 7.393808e-01 7.675064e-01 6.206735e-01 7.101787e-01 6.048733e-01 7.476968e-01 4.770817e-01
<GCONST> 5.402114e+01
<STATE> 5
<NUMMIXES> 4
<MIXTURE> 1 2.712245e-01
<MEAN> 39
 2.864039e-01 -1.877465e-01 2.139496e+00 1.107859e+00 -1.146608e+00 -1.392754e+00 -8.643308e-01 1.570939e-01 -1.179207e+00 -1.134418e+00 -3.053457e-01 1.037597e+00 1.096931e+00 -4.349864e-02 3.338726e-01 -2.924950e-01 4.752081e-01 5.974423e-01 -6.190887e-02 5.530363e-01 1.384570e-02 -2.177626e-01 -2.046004e-02 -3.000962e-01 -6.311706e-02 -5.848551e-01 -1.096530e-02 6.914607e-01 -9.814974e-01 1.166271e-01 6.754380e-01 1.832828e-01 5.654382e-01 -1.374040e-01 1.375269e-01 3.515623e-01 -9.471691e-02 -1.934954e-01 -9.463915e-01
<VARIANCE> 39
 9.200888e-02 2.896613e-01 3.777571e-01 3.466693e-01 3.332283e-01 7.243190e-01 3.885236e-01 8.091167e-01 7.769749e-01 6.273956e-01 8.289877e-01 7.312151e-01 2.271139e-01 4.591902e-01 5.662879e-01 9.350415e-01 5.851033e-01 4.297964e-01 7.543275e-01 7.149221e-01 7.790276e-01 6.360273e-01 6.057162e-01 5.389306e-01 6.386286e-01 4.024368e-01 6.439250e-01 5.937588e-01 7.676514e-01 5.633371e-01 5.967327e-01 8.381015e-01 6.550899e-01 6.883669e-01 6.083152e-01 6.032609e-01 5.359396e-01 6.015258e-01 5.483782e-01
<GCONST> 4.812254e+01
<MIXTURE> 2 2.425343e-01
<MEAN> 39
 4.188460e-01 -9.925355e-01 4.731529e-01 -5.920389e-02 -1.139315e+00 -1.389752e+00 -4.072886e-01 1.137365e+00 1.383190e-01 3.035043e-01 1.892880e-01 2.148532e-01 1.349684e+00 4.547874e-02 -1.770080e-02 -2.800850e-01 5.472523e-02 2.526028e-01 4.126143e-02 1.531532e-01 1.327029e-01 1.215971e-01 5.480818e-02 -1.624145e-01 -2.259894e-01 -1.621699e-02 9.359870e-02 2.901119e-01 1.115052e-01 2.467946e-01 2.718631e-01 1.496973e-01 -8.861795e-04 -2.305242e-01 -1.092574e-01 -1.391330e-01 -1.489449e-01 -1.660734e-02 -2.971843e-01
<VARIANCE> 39
 3.367552e-01 4.621844e-01 7.092590e-01 5.534983e-01 5.644622e-01 1.287602e+00 8.026012e-01 1.216517e+00 1.361183e+00 7.192311e-01 1.209191e+00 1.313251e+00 2.658331e-01 3.582804e-01 5.598891e-01 9.344938e-01 6.327786e-01 5.124136e-01 6.747105e-01 6.788070e-01 8.701566e-01 7.267579e-01 6.204936e-01 7.027599e-01 8.010865e-01 3.148370e-01 4.928762e-01 5.976759e-01 5.315837e-01 5.455412e-01 4.922320e-01 6.877246e-01 6.829002e-01 7.208979e-01 5.796378e-01 5.613386e-01 5.561725e-01 6.303145e-01 4.077200e-01
<GCONST> 5.408818e+01
<MIXTURE> 3 2.977184e-01
<MEAN> 39
 4.209571e-01 -4.476214e-01 2.054664e+00 1.076388e+00 -1.472810e+00 -1.334782e+00 -1.086128e+00 3.094557e-01 -7.303299e-01 -1.242891e+00 3.013337e-01 9.279132e-01 1.186700e+00 2.694770e-01 -6.498106e-02 -1.946891e-01 6.556427e-01 5.625290e-01 -1.215649e-01 -4.869458e-02 1.670312e-01 -2.023044e-01 -3.540458e-01 -3.523959e-01 -2.061833e-01 -7.348808e-01 -6.339423e-02 5.252007e-01 -8.835061e-01 -5.129742e-02 1.016640e+00 3.197843e-01 4.000661e-01 -1.795610e-01 4.270386e-02 3.382328e-01 -5.065078e-01 -2.429499e-01 -1.193338e+00
<VARIANCE> 39
 1.081827e-01 2.768224e-01 3.705316e-01 3.553190e-01 2.947751e-01 5.523196e-01 3.992844e-01 7.094768e-01 9.068129e-01 3.940030e-01 7.945852e-01 7.673921e-01 1.501222e-01 3.204590e-01 4.753895e-01 9.214833e-01 5.822785e-01 5.467232e-01 7.512959e-01 6.844861e-01 8.136532e-01 7.176808e-01 5.896524e-01 6.859948e-01 6.894527e-01 3.702471e-01 5.005723e-01 5.279353e-01 7.086908e-01 5.506857e-01 6.390598e-01 8.713657e-01 6.800794e-01 8.208368e-01 6.463290e-01 5.933206e-01 5.712135e-01 6.623409e-01 7.063894e-01
<GCONST> 4.734492e+01
<MIXTURE> 4 1.885305e-01
<MEAN> 39
 3.085060e-01 -6.984867e-01 4.035325e-01 1.752648e-02 -7.784988e-01 -1.316186e+00 -4.455292e-01 9.177835e-01 -1.498701e-01 3.246034e-01 4.206780e-02 2.605099e-01 9.459398e-01 7.893003e-02 -2.284556e-02 -3.102934e-01 -1.492555e-01 1.179607e-01 3.260636e-02 -1.201317e-02 3.721490e-02 3.080099e-02 1.737116e-01 -8.746555e-02 -1.875497e-01 -1.377580e-01 -3.356729e-03 1.864511e-01 -4.654709e-02 1.768330e-01 2.545594e-01 1.888156e-01 9.984781e-02 -2.230604e-01 -1.218120e-01 -7.108506e-02 -1.820744e-01 -9.727812e-02 -3.193659e-01
<VARIANCE> 39
 5.030684e-01 6.221876e-01 7.814667e-01 5.525834e-01 8.743833e-01 1.460025e+00 8.912759e-01 1.473645e+00 1.114624e+00 7.624814e-01 1.323590e+00 1.204762e+00 9.616012e-01 3.964286e-01 5.191721e-01 1.016539e+00 7.008932e-01 6.139844e-01 8.066719e-01 7.648042e-01 8.515695e-01 7.987744e-01 9.211920e-01 7.306052e-01 9.957476e-01 5.191966e-01 5.746307e-01 5.842128e-01 6.485276e-01 6.204463e-01 7.137858e-01 8.516184e-01 7.393047e-01 8.354222e-01 6.840972e-01 7.709907e-01 6.700884e-01 8.420861e-01 5.860994e-01
<GCONST> 6.139826e+01
<STATE> 6
<NUMMIXES> 4
<MIXTURE> 1 2.298685e-01
<MEAN> 39
 3.573211e-01 7.456850e-02 1.634872e+00 1.326023e+00 -5.187093e-01 -1.561960e+00 -2.223038e-01 3.683738e-01 -1.322821e+00 -7.083069e-01 -6.602976e-01 8.201970e-01 6.929410e-01 -4.255731e-01 1.063224e+00 -1.116596e+00 4.228550e-01 1.294845e+00 7.853444e-01 1.132928e+00 -2.449474e-01 2.491993e-01 4.275384e-01 -1.044900e-01 -4.188649e-01 -1.467675e+00 -8.889333e-01 4.242827e-01 -5.811055e-01 -3.270636e-01 3.399906e-01 7.052690e-01 1.181643e-01 -2.666116e-01 2.819277e-01 2.947060e-01 2.481714e-01 -2.149165e-01 -5.034829e-01
<VARIANCE> 39
 1.240459e-01 3.646059e-01 4.098034e-01 3.501744e-01 3.725348e-01 8.031313e-01 6.484569e-01 8.157074e-01 6.770484e-01 8.064477e-01 8.375377e-01 7.832602e-01 3.102286e-01 6.806443e-01 9.168044e-01 1.225042e+00 9.068023e-01 6.978630e-01 1.495959e+00 1.059904e+00 9.638777e-01 9.245970e-01 9.225442e-01 8.503979e-01 8.901613e-01 9.416206e-01 9.593989e-01 1.174212e+00 1.125788e+00 8.513799e-01 7.856489e-01 1.169981e+00 1.001490e+00 9.650854e-01 7.852265e-01 9.260763e-01 7.096648e-01 9.129956e-01 1.082532e+00
<GCONST> 6.108467e+01
<MIXTURE> 2 2.173710e-01
<MEAN> 39
 1.085045e-01 -1.029130e-01 6.693263e-02 3.847031e-02 -1.759393e-01 -8.126776e-01 -3.222716e-01 7.747857e-02 -3.876349e-01 5.447705e-01 -2.753874e-01 -1.276612e-03 -1.033978e-01 2.108985e-02 -8.351985e-03 -4.757866e-02 1.328305e-01 1.723294e-01 8.100662e-02 1.228659e-01 1.413148e-01 1.174456e-01 6.456959e-02 -8.684643e-02 -6.672426e-02 -9.786833e-03 -6.651379e-02 -8.924709e-02 9.711538e-02 1.206991e-01 -3.570713e-02 -1.659280e-02 2.941556e-02 1.110290e-01 1.162643e-01 -1.502215e-01 3.545403e-02 1.629032e-01 6.559661e-02
<VARIANCE> 39
 7.643918e-01 6.866456e-01 9.423791e-01 6.346894e-01 8.738312e-01 1.319138e+00 6.947094e-01 1.388799e+00 1.226084e+00 7.936411e-01 1.309398e+00 1.541166e+00 1.446355e+00 3.390456e-01 5.221233e-01 7.325509e-01 7.393695e-01 6.668670e-01 8.463635e-01 7.398372e-01 9.295833e-01 7.949458e-01 7.207105e-01 8.353224e-01 8.546289e-01 4.936861e-01 4.913808e-01 5.958783e-01 7.151503e-01 7.480609e-01 7.936485e-01 9.592247e-01 8.045800e-01 9.312055e-01 8.322439e-01 8.337278e-01 9.426527e-01 8.893906e-01 5.340301e-01
<GCONST> 6.319361e+01
<MIXTURE> 3 3.024449e-01
<MEAN> 39
 -6.284313e-01 1.972668e-03 -3.873833e-01 -3.398229e-01 -5.741341e-02 -5.782664e-01 -2.943815e-01 -3.176457e-02 3.436122e-02 7.446331e-01 -9.222373e-03 6.205168e-01 -1.312089e+00 -5.296997e-02 -2.114286e-02 -8.503916e-02 -1.348206e-01 -8.780957e-02 -7.368498e-03 -2.460390e-02 -1.216695e-01 -8.776212e-02 2.901056e-02 -2.547424e-02 -3.336204e-02 -5.305425e-02 8.591017e-02 8.651949e-02 6.476190e-02 7.607767e-02 4.930368e-02 3.478524e-03 -6.392641e-03 -7.182503e-02 -1.109683e-01 -5.657775e-02 -6.228338e-02 -9.312552e-02 3.879711e-02
<VARIANCE> 39
 2.269655e-01 3.072334e-01 2.661386e-01 4.496942e-01 3.192975e-01 5.017933e-01 4.216785e-01 7.620302e-01 4.206005e-01 6.551332e-01 7.634371e-01 8.320644e-01 3.084601e-01 2.726714e-01 7.874984e-01 7.858841e-01 8.856158e-01 6.624272e-01 9.273835e-01 8.299247e-01 8.686357e-01 8.462607e-01 1.034998e+00 9.830810e-01 1.016174e+00 5.826228e-01 4.892324e-01 1.017500e+00 1.001294e+00 1.009752e+00 8.602292e-01 1.050005e+00 9.743263e-01 1.008945e+00 9.305107e-01 1.115372e+00 9.592752e-01 1.080448e+00 7.943363e-01
<GCONST> 5.665401e+01
<MIXTURE> 4 2.503154e-01
<MEAN> 39
 5.596183e-01 -3.063403e-01 1.546718e+00 1.266590e+00 -7.430164e-01 -1.432473e+00 -9.438853e-01 4.002724e-01 -8.396439e-01 -1.114284e+00 -2.149237e-01 6.506389e-01 7.874296e-01 -8.251740e-02 6.160001e-01 -1.095462e+00 1.955817e-01 1.444615e+00 7.920156e-01 3.890238e-01 -3.380094e-01 9.638318e-02 2.868038e-01 -5.411947e-01 -6.372541e-01 -1.654329e+00 -9.028894e-01 5.949184e-01 -5.560714e-01 -4.963534e-01 5.118906e-01 8.685933e-01 6.045421e-01 -3.755534e-01 -2.490126e-02 5.763986e-01 -2.948272e-02 -1.824449e-01 -1.106390e+00
<VARIANCE> 39
 1.676790e-01 4.004572e-01 5.698717e-01 4.821679e-01 4.547020e-01 7.741900e-01 6.299030e-01 8.973582e-01 9.415076e-01 5.906118e-01 7.061465e-01 7.938092e-01 2.884418e-01 5.940943e-01 6.590362e-01 1.506106e+00 9.336123e-01 8.345890e-01 1.392543e+00 1.188882e+00 1.083357e+00 1.105143e+00 1.009091e+00 8.589863e-01 9.385642e-01 1.104466e+00 9.761286e-01 9.582045e-01 1.325437e+00 9.816180e-01 1.153762e+00 1.487226e+00 1.172905e+00 1.161672e+00 1.135662e+00 8.965704e-01 8.126073e-01 9.359846e-01 1.446025e+00
<GCONST> 6.461935e+01
<TRANSP> 7
 0.000000e+00 1.000000e+00 0.000000e+00 0.000000e+00 0.000000e+00 0.000000e+00 0.000000e+00
 0.000000e+00 6.893957e-01 3.106043e-01 0.000000e+00 0.000000e+00 0.000000e+00 0.000000e+00
 0.000000e+00 0.000000e+00 6.986160e-01 3.013841e-01 0.000000e+00 0.000000e+00 0.000000e+00
 0.000000e+00 0.000000e+00 0.000000e+00 8.796026e-01 1.203974e-01 0.000000e+00 0.000000e+00
 0.000000e+00 0.000000e+00 0.000000e+00 0.000000e+00 6.471403e-01 3.528597e-01 0.000000e+00
 0.000000e+00 0.000000e+00 0.000000e+00 0.000000e+00 0.000000e+00 6.687291e-01 3.312709e-01
 0.000000e+00 0.000000e+00 0.000000e+00 0.000000e+00 0.000000e+00 0.000000e+00 0.000000e+00
<ENDHMM>
~h "f"
<BEGINHMM>
<NUMSTATES> 7
<STATE> 2
<NUMMIXES> 4
<MIXTURE> 1 1.785881e-01
<MEAN> 39
 8.781654e-01 -6.806020e-01 -4.798243e-01 2.361993e-01 4.542919e-01 -9.422390e-01 -5.366960e-02 1.052995e+00 -5.229781e-01 1.022765e+00 -7.728127e-01 -3.158109e-01 1.290963e+00 -3.309885e-01 1.551518e+00 4.950059e-01 1.133534e+00 9.183138e-01 6.370887e-01 7.193898e-01 -4.362958e-01 -4.856064e-01 -5.541074e-01 -8.101166e-02 5.028946e-01 -1.589606e+00 -8.938228e-01 9.138805e-01 3.373370e-01 2.117236e-01 3.432690e-02 6.245879e-01 2.499604e-01 -5.199946e-01 -4.024923e-03 -6.101643e-01 -5.871600e-02 4.632644e-02 -7.904029e-01
<VARIANCE> 39
 9.444611e-02 3.829224e-01 6.061158e-01 5.913676e-01 5.798684e-01 1.099878e+00 7.839098e-01 1.183965e+00 1.303833e+00 8.185149e-01 7.090625e-01 1.132846e+00 2.631538e-01 7.910514e-01 1.351680e+00 1.304598e+00 1.064393e+00 8.066486e-01 1.476217e+00 1.376148e+00 1.248291e+00 1.535648e+00 1.157254e+00 9.038539e-01 1.169205e+00 9.613083e-01 1.470272e+00 1.426054e+00 1.172169e+00 1.087401e+00 1.180100e+00 1.136985e+00 1.216343e+00 1.014823e+00 1.167785e+00 1.021555e+00 9.208375e-01 1.236550e+00 1.376779e+00
<GCONST> 6.913346e+01
<MIXTURE> 2 2.616890e-01
<MEAN> 39
 -4.940946e-01 6.082057e-01 1.136572e-01 2.210812e-01 4.317192e-01 1.757254e-01 3.971871e-01 -3.844778e-02 -6.269248e-01 -8.120678e-02 -8.628257e-02 4.391101e-01 -5.878726e-01 -3.351831e-02 3.483741e-01 2.216901e-01 5.277091e-01 4.563978e-01 2.835439e-01 2.807336e-01 1.937030e-01 -7.866501e-02 -1.320342e-01 -1.467378e-01 -9.159967e-04 3.128535e-01 3.279191e-01 -1.107539e-01 1.281103e-01 -5.020675e-02 -1.801307e-01 -1.206978e-01 -8.800997e-02 1.508532e-02 5.308105e-02 -8.361321e-02 -2.270846e-01 -2.289927e-01 6.404040e-01
<VARIANCE> 39
 4.183027e-01 3.989074e-01 7.108335e-01 6.417494e-01 4.324622e-01 5.050491e-01 3.833655e-01 7.895343e-01 5.200877e-01 5.824784e-01 7.488433e-01 7.506331e-01 8.309181e-01 1.600910e+00 1.124111e+00 1.626340e+00 1.376203e+00 1.041863e+00 1.120630e+00 9.813417e-01 1.245614e+00 8.281672e-01 1.279502e+00 1.194906e+00 1.316750e+00 1.383217e+00 1.087643e+00 1.013327e+00 1.482975e+00 1.296158e+00 1.197703e+00 1.192180e+00 9.535797e-01 1.272880e+00 9.334935e-01 1.147839e+00 1.075121e+00 1.175201e+00 1.182754e+00
<GCONST> 6.878573e+01
<MIXTURE> 3 2.884552e-01
<MEAN> 39
 -9.212685e-01 2.570599e-01 3.067304e-02 -5.205033e-01 2.916796e-01 5.157987e-01 2.404572e-01 3.635561e-01 1.564514e-01 3.476237e-02 5.578425e-01 3.061707e-01 -1.234859e+00 -2.924244e-02 1.878531e-02 -1.751844e-01 -1.070698e-01 -8.543288e-02 -1.413893e-01 -1.137307e-01 -1.643232e-01 -5.123378e-02 9.676736e-02 -3.733005e-02 -3.377315e-02 -4.651399e-02 1.497408e-02 -1.846562e-02 -2.275762e-02 4.007041e-02 -5.516602e-02 -1.228003e-01 -3.072748e-02 -6.100947e-02 -1.267645e-01 -4.865740e-02 -8.254446e-02 2.869380e-02 8.223950e-02
<VARIANCE> 39
 2.105909e-01 2.257293e-01 2.833505e-01 4.428760e-01 2.065821e-01 3.439872e-01 2.745232e-01 5.369073e-01 4.178499e-01 5.170801e-01 6.862478e-01 6.648765e-01 2.428997e-01 3.880251e-01 6.925691e-01 7.708334e-01 8.128647e-01 5.504404e-01 7.798753e-01 6.391221e-01 9.499943e-01 9.765672e-01 8.877184e-01 1.147519e+00 1.120580e+00 6.038098e-01 5.928991e-01 9.289742e-01 1.042201e+00 8.496482e-01 7.831912e-01 9.402415e-01 8.315670e-01 1.012162e+00 1.187943e+00 8.586984e-01 1.334157e+00 1.113088e+00 7.404332e-01
<GCONST> 5.366105e+01
<MIXTURE> 4 2.712652e-01
<MEAN> 39
 8.338858e-01 -3.005661e-02 -3.774284e-01 -1.899433e-01 9.264757e-02 9.357929e-02 1.636821e-01 -1.215616e-01 -4.416395e-01 1.154815e-02 -6.112036e-01 -2.609962e-01 9.929853e-01 -3.306296e-01 3.105386e-01 -2.327240e-02 7.898133e-02 2.268825e-01 1.433014e-01 7.725482e-02 -1.173297e-02 -9.142596e-02 -3.375727e-02 -9.951244e-02 -2.962148e-02 -2.548698e-01 -4.404349e-01 7.708192e-03 3.871279e-02 -6.493979e-02 -8.393209e-02 -9.067605e-02 -8.150046e-02 -4.838578e-02 -1.403353e-01 -6.266765e-02 4.425202e-02 1.230219e-01 -1.243721e-01
<VARIANCE> 39
 2.959640e-01 7.688996e-01 9.663377e-01 2.124284e+00 1.440808e+00 1.464527e+00 1.352013e+00 1.265486e+00 1.157877e+00 7.464654e-01 9.756698e-01 1.390519e+00 3.953942e-01 1.047990e+00 1.161496e+00 1.244353e+00 1.414995e+00 1.232176e+00 1.262849e+00 1.415431e+00 1.255938e+00 1.409629e+00 1.109573e+00 1.054934e+00 1.092477e+00 1.289470e+00 8.348773e-01 6.959171e-01 9.174029e-01 9.469486e-01 1.141444e+00 1.025842e+00 1.066659e+00 1.081919e+00 1.104995e+00 8.544544e-01 8.780096e-01 9.868544e-01 8.510341e-01
<GCONST> 7.330976e+01
<STATE> 3
<NUMMIXES> 4
<MIXTURE> 1 2.334047e-01
<MEAN> 39
 -6.914639e-01 5.888563e-01 -2.542754e-03 1.116370e+00 8.403032e-01 1.448676e-01 9.607105e-01 3.960620e-01 -9.201619e-01 3.253331e-01 -7.821877e-01 3.737002e-01 2.190939e-01 -6.664928e-01 4.644907e-02 -1.647498e-01 -1.866497e-02 1.065096e-01 1.411329e-01 3.177654e-01 3.464336e-01 1.221272e-01 1.682615e-01 2.113160e-03 8.076783e-02 5.010201e-01 7.202590e-01 3.387802e-02 1.766839e-02 -3.286014e-01 -3.019551e-01 -2.570511e-01 -3.128467e-01 -2.208795e-01 -2.288616e-01 -1.837923e-01 5.196430e-02 6.361933e-02 3.025810e-01
<VARIANCE> 39
 5.650676e-01 6.120314e-01 5.984287e-01 4.383750e-01 3.950965e-01 8.390241e-01 4.121448e-01 7.558519e-01 3.677697e-01 4.649294e-01 6.280231e-01 1.059774e+00 5.767569e-01 1.263427e+00 1.174181e+00 1.103565e+00 1.038934e+00 8.451467e-01 1.282196e+00 1.053846e+00 1.259546e+00 9.378573e-01 1.119676e+00 1.102348e+00 1.531549e+00 1.191291e+00 1.417759e+00 1.235898e+00 1.282750e+00 1.188037e+00 1.234548e+00 1.506639e+00 1.139144e+00 1.475973e+00 1.013577e+00 1.208623e+00 1.302929e+00 1.864404e+00 1.293259e+00
<GCONST> 6.939560e+01
<MIXTURE> 2 2.784330e-01
<MEAN> 39
 2.278642e-01 7.687230e-01 5.149254e-02 1.009616e+00 9.667608e-01 6.416448e-02 4.939361e-01 1.090306e-01 -1.082821e+00 7.304282e-02 -7.804027e-01 2.693979e-01 3.496841e-01 -1.440173e+00 8.774636e-01 3.121252e-01 4.533103e-01 1.831279e-01 3.611494e-01 3.183864e-01 -3.658296e-01 -1.926779e-01 -3.992962e-01 -1.443502e-01 2.602009e-01 -4.252702e-01 -3.112018e-01 -1.145913e+00 -6.595998e-01 -9.977221e-01 -9.294984e-01 -5.867426e-01 -1.995515e-01 3.841318e-01 2.010278e-01 4.564991e-01 2.050413e-01 1.395310e-02 1.175353e+00
<VARIANCE> 39
 3.008015e-01 2.378591e-01 4.554019e-01 2.755555e-01 3.070067e-01 6.059381e-01 4.844685e-01 7.336296e-01 4.046568e-01 4.757769e-01 4.539625e-01 6.193953e-01 4.727796e-01 1.496000e+00 1.413663e+00 1.307924e+00 1.314056e+00 9.546731e-01 1.937672e+00 1.533896e+00 1.588086e+00 1.445540e+00 1.373926e+00 1.148934e+00 1.593995e+00 1.594645e+00 2.082536e+00 9.770340e-01 1.356375e+00 1.197997e+00 1.056770e+00 1.421476e+00 1.362815e+00 1.262070e+00 1.130643e+00 1.244000e+00 1.010480e+00 1.336195e+00 1.380636e+00
<GCONST> 6.824538e+01
<MIXTURE> 3 2.954683e-01
<MEAN> 39
 -4.826342e-01 6.778939e-01 1.833676e-01 8.897815e-01 7.277661e-01 3.294173e-01 1.075248e+00 5.437477e-01 -8.544455e-01 2.518056e-01 -7.910205e-01 4.272979e-01 4.246121e-01 -7.153106e-01 -8.813184e-02 -5.616832e-01 -4.747398e-01 -4.005983e-01 -2.664535e-01 -9.067291e-02 -3.905661e-01 -3.674390e-01 -5.136597e-02 -8.997175e-02 1.171984e-03 5.119124e-01 6.073746e-01 -1.951921e-01 5.999301e-02 -1.748419e-01 -5.404930e-01 -8.048333e-01 -9.712155e-01 -6.244730e-01 -5.577708e-01 -3.820363e-01 1.293323e-02 1.167464e-01 3.294850e-01
<VARIANCE> 39
 4.618166e-01 3.138035e-01 6.857750e-01 3.802772e-01 3.550654e-01 5.131888e-01 3.708940e-01 8.166515e-01 3.647543e-01 5.052723e-01 4.722447e-01 7.229797e-01 4.783506e-01 1.039762e+00 8.006405e-01 1.065349e+00 1.102627e+00 8.256134e-01 1.089788e+00 1.129503e+00 1.243333e+00 8.861797e-01 1.138390e+00 9.711009e-01 1.134628e+00 7.909459e-01 1.286192e+00 1.124885e+00 1.251551e+00 1.152660e+00 1.130690e+00 1.278431e+00 1.116274e+00 1.427752e+00 1.049396e+00 1.356386e+00 1.095252e+00 1.371686e+00 1.147686e+00
<GCONST> 6.455238e+01
<MIXTURE> 4 1.926947e-01
<MEAN> 39
